{"architecture":{"NEURONS":[10,7,1],"LAYERS":3,"totalSynapses":77},"weights":[2.570004841935135,-4.588136821423058,1.1450332911103538,0.21647308100085094,9.805011652236155,1.9872636960908145,8.077773303572293,4.471639293328588,-8.683982585041347,1.8973477370730667,-6.563481680281869,2.3328795399379976,6.785166368498778,-3.0507333796868115,6.408752120730079,-6.853890824644545,-2.26054527186974,2.7901257911491855,-1.8850859927891896,-0.8790550769308667,2.549267193459347,6.269208292718654,-7.590265240627306,-10.586546596804085,2.40834769354837,0.4466519282102336,4.85328941774577,-3.1570950073623036,-7.270439755286746,9.736261712402838,-3.5283062064172617,9.308477830793443,-7.345047041585806,-2.1422425881026306,5.717975693384136,-9.102743674531771,-8.917337014959243,8.799724482842844,-6.690557465045205,4.486146369801549,-1.335173130969562,2.6179245548206467,3.6215031312313215,2.754724181655856,-5.949859792510974,-5.754840179509943,1.479468390986501,-1.0359823796850316,11.051084114024695,1.781467617956209,-8.29385712170579,-8.49850470451362,-4.149890394888639,-1.6303913197325648,5.610554213183214,7.364021232429812,-6.783552225002689,6.711598948043134,1.3988358035640673,-5.40202036737332,-0.8694654861015483,3.7510664772825675,-3.9693332448409597,-6.828770882088009,7.690665678548626,-1.6361560941130107,5.117741888095403,-2.9189122535441654,6.226228863006436,-7.747992009837456,-7.95825643448354,-5.936144790909237,2.9287891762947633,-3.1653916305057876,-3.594738366658859,-0.5568642690031997,-3.825745765716014],"bias":[[-6.504682981154016,7.801163914040564,-8.625963517076006,-7.339442495361642,4.049027772372928,8.080536974297683,5.476973030878125,2.4054085378989485,2.8988713134750648,7.73299480027105],[7.395380865551688,-3.2260901244037656,-1.008891801275676,6.737659243723691,-9.525674903863628,2.2866419926588586,-10.036017254705438],[-6.15340209812828]],"id":0,"number":0}
