{"architecture":{"NEURONS":[10,7,1],"LAYERS":3,"totalSynapses":77},"weights":[5.692723863265353,1.7943432706583202,-2.0430319003304653,8.600679701242939,-8.829710126780741,6.825372680117489,-1.5405697763547703,-4.846467162479204,9.638964935960047,0.17467908336129195,-2.2343100147088464,-5.628904559424077,-8.544758574978456,1.0365442769463393,0.9209786010224938,-4.424547252224249,-6.566084084395943,0.48957734282261,7.070973515764837,-6.46357957855934,6.484883321651658,2.3717628659150547,-6.289554515192433,4.6636459335422416,6.3240613730625554,-2.5972259316288486,6.1511143539239725,-9.843636593484819,5.8157768006199495,-2.3195255022520804,2.3242967779028483,-5.995536529724843,9.054388541173564,7.148283672428089,3.799857579805309,0.5509734082005568,8.980574675568162,9.566103119526975,-6.355746359246721,6.267428456063865,-6.616315875757839,-7.921492403248525,9.10156820220299,3.460036332215118,-3.747903110128088,2.716107226933239,-3.576922339779909,9.81592924368513,-0.3815970436477638,-3.965854156807877,1.7302387801268537,7.01521944186571,-7.4773693590284696,1.0552061756542326,6.302040385777142,-5.924034307653805,-5.716847032381875,8.557243381856757,-0.17937322093873043,-3.3344225130843057,8.134188444558308,1.302041085663556,8.329421754770308,2.3035775194749775,-4.658999209137229,0.8193262576988207,8.11658903007439,-6.517830522586348,0.44525744609102524,-6.079787559632724,7.134526011652426,3.3915824173041713,-2.7425008061151073,1.1552482243758746,-2.668383524576212,-5.013364736081465,1.251716925941441],"bias":[[-8.205298972563265,-3.3919335136307165,-6.824173557898394,-7.535910227103839,0.004644860057323896,-9.084725407311613,-4.593654582869206,2.1584464128508163,-2.9036492079156133,-1.1037782581794247],[4.996308895480766,6.030302257257816,7.890304503732956,-8.061471610912674,5.188332174252969,-6.444097551140178,0.5239751443415095],[-2.598551935467479]],"id":0,"number":0}
