{"architecture":{"NEURONS":[10,7,1],"LAYERS":3,"totalSynapses":77},"weights":[-7.473146488040383,-0.879639123389218,-9.6722180571717,4.686602577476403,5.510949302226933,5.5336340575674114,-7.784807430441088,4.71589103183411,3.3372721315827683,-0.7908962633975118,1.4731716719239767,0.6225958426092291,4.315177312512525,-0.47067868506249333,-8.583739143671886,-7.122109347870483,1.8333542538286594,9.264978913616638,7.322363715078364,-5.741343931198159,-9.033446780069028,-3.2861044517815134,9.19612976136941,-7.582935725709864,-8.351987519567958,-8.540793080386424,-2.90119766873723,5.130300610982953,4.672234282382026,-6.371021650787241,-1.9443895329327343,-5.390907832732268,7.752500310114322,-0.9535827145719633,-2.2205555524166076,5.2421313373538645,3.2510172344981676,-9.067087429549634,-0.02919711459356833,-7.868717797139999,-5.519439930375237,5.486295618121632,0.5491593498274145,7.587976616264566,-8.623274196736768,3.441857492893279,6.4000732728730405,3.416374405814596,-3.877777995401437,-7.366166156058873,-9.302252852618668,7.0779291232929955,-6.341470407633172,7.61020060873232,-5.194920558712378,0.26811669286469164,-8.62895000105109,1.5138080885662593,-0.4868880259683639,-4.984008622929849,-3.936005752397409,2.5912650880141563,-2.7074990339842504,3.755402095062202,8.941734275330681,-5.804886808814802,1.102351541672009,7.759659643507895,8.468960164509962,6.8511500724725565,-1.1308281832860878,-7.942569672489417,5.773447730298361,0.28057189658204607,6.353161431355048,6.217574776116177,0.9432500672090445],"bias":[[-6.137183105162601,8.48334302101092,5.8062773883826235,-8.496839603040259,-1.0007383796989533,-5.9302144484447785,1.1705326128200362,7.5684770662428384,7.280279736878157,1.629148368988611],[-2.073914250557653,9.342269101514653,5.5478003736245896,8.702231348719419,7.608632810263799,0.5192283947829068,3.649265731902254],[2.2838525742733147]],"id":0,"number":0}
