{"architecture":{"NEURONS":[10,7,1],"LAYERS":3,"totalSynapses":77},"weights":[3.9564163579788905,4.135506678806884,-4.9968610641204645,1.3669215232128058,-1.9394839007882991,-9.581315526330874,-9.954060365558604,-3.08092787390839,6.0638906616242885,7.872597956939531,-4.2749181782526025,-2.1634271936208416,4.718755816617495,9.983941442164099,8.247845779980372,-0.6389323439342478,4.3972562959712524,9.60362665902162,-7.562869979639046,-3.9487287108592444,8.29698544311822,-10.180851384671877,-8.617958698333751,-8.14438872369249,6.818245395515127,4.969951189356157,5.975065635922651,4.624311559281791,5.295558776216449,6.018725261618147,-2.297075215086629,0.9310588578024388,-3.814199600089956,-7.336672934938047,-9.040083975571893,4.262467495736375,6.498078926309219,-4.501482218939974,5.2714747257075905,9.546301470825924,1.2895893895648811,2.5755558933101694,-7.502633420853952,3.4101034459115027,-8.310561240374597,4.861406767546592,-3.9225665515015664,2.4486407046719116,-8.294114229940382,-6.408198541930529,2.2419059845934655,3.1360188940683216,2.8085827466860493,-6.591417665059619,2.212728097949281,4.018314331859763,6.221386886648112,-4.41629243205541,-2.754379706297785,9.369375618836408,8.389026401047449,3.8095945012062504,-0.2976214849912723,-1.7207545434070042,2.621466512578955,-4.424789899196726,8.10896654796198,-4.64872817308086,-9.243709757095267,8.962043555504902,-2.750005627093836,3.8068084816793992,8.746764714049267,7.95850704596075,-9.622565999288978,8.529821816491891,-7.577598984132164],"bias":[[7.233496021944184,-6.991192055405712,3.347805574180807,-4.681068393432383,2.5301156235288857,6.6066067101716754,-8.5160587871093,-2.8347700174157486,3.0201614564201926,-8.767012902610896],[3.5885343967995897,-3.8737805228697253,-8.019861163762743,-2.5784285222563907,-6.96925163820403,0.7022706098140575,2.90144700789218],[-3.130075826047076]],"id":0,"number":0}
