{"architecture":{"NEURONS":[10,3,1],"LAYERS":3,"totalSynapses":33},"weights":[-2.760567820682484,-7.739764505211932,-8.850719057496235,-0.4888811368313597,-7.212631820865283,-1.240056507003855,1.5834474185824803,2.025000942063036,0.689185430850938,-2.772312165964319,0.5336299680502954,2.1838854868193205,4.016417833178998,4.139019645505844,-9.747111105218139,0.2695071120276431,-6.9139232073822114,5.230069850734738,3.742374023243143,3.941135013539645,-0.8025657878553325,-8.822368808668859,-1.2072898546099078,5.272472280876174,-0.20777016544850163,-0.6125408642442354,-4.146190420438289,-4.196877128214414,1.5029270668436734,-7.044890309343397,0.6371026798506507,8.922190210542592,-3.5186091685032306],"bias":[[-5.530043475367301,-8.28069340154832,5.203966017227072,7.228878543211926,-3.2689258531444825,2.8698155185213174,3.2412477584293917,-0.5740584318421487,-3.624047292337009,-5.078989678994528],[-5.057073188560144,0.6592553636429748,-7.628655507111226],[-8.934166602265831]],"id":0,"number":0}
