{"architecture":{"NEURONS":[10,4,1],"LAYERS":3,"totalSynapses":44},"weights":[-4.709186703141688,-4.93585758157405,0.7325795191430835,-1.8790420360856679,9.240974075886136,-4.6300155428823935,5.899998164343579,-1.3954975028025824,-8.6468552793733,-0.09389468389182909,4.708270376896566,0.42273350242791174,-2.62650791644905,-9.702049674102946,1.1922435199802113,8.057722165120712,7.800875908015513,6.822798069635287,-1.7360023092725463,6.7572627672355345,8.608670623143247,4.906528325556119,7.771731066353908,3.5722285386199637,1.9429698242057558,-3.9535316548413917,2.4684404115260463,6.541283591073817,-3.3322049777484386,9.502114251845168,-7.957531040167202,4.428668169626837,0.8421553878726407,-5.554267822974435,6.884942809124336,1.3192503181469597,3.028076041502512,-6.689976637295818,-8.731664980009548,-3.5877288026739063,-9.025185156465165,-7.735914990535486,7.102859600727662,-1.9577276198532125],"bias":[[-8.13366234820025,-2.1094426439824465,-9.638281380756686,-2.1171945105377343,1.3311489911721885,-5.176203419913459,-9.83565943536265,-7.910820923819324,-5.595090931022022,2.9387931116759454],[-6.7672952264587405,6.262586245633159,1.5403513395065875,0.6548853468030558],[4.636143817749678]],"id":0,"number":0}
