{"architecture":{"NEURONS":[10,3,1],"LAYERS":3,"totalSynapses":33},"weights":[-4.3792903236386245,-5.563653290915051,-7.462889911687717,-4.339644732463883,-4.671389346150194,-0.5065081609629143,9.917434933036656,5.420776685729329,3.994937569854489,4.043243518219885,-0.8941833221284567,0.0984409889056943,-4.646419461620676,3.757233220710517,-6.44605229240596,5.844790524476974,-2.1097832210933802,0.06601535754216681,-8.430826799950177,-0.7181027047210762,0.06923496368097126,9.298615874388704,-7.685729721685206,5.007207020675299,-9.818565331321805,2.0808583084957952,-7.339347612538047,1.2044439521987993,5.862295749388837,-0.9187391262982301,-3.4866949204290694,-1.4906996699713384,3.9015558046718057],"bias":[[3.7408464594001107,4.67441273169592,8.568866689927146,4.54717130300206,3.0837926706801286,-5.146279481023552,5.950968977650855,-6.4009243778619425,2.456669522801043,-1.7569488516233385],[-8.25862756252397,-2.4996922388139424,-4.968550624880591],[-8.566622449178803]],"id":0,"number":0}
