{"architecture":{"NEURONS":[10,6,1],"LAYERS":3,"totalSynapses":66},"weights":[1.1414244360319858,5.80361480355983,3.596302010507206,14.694507535578932,5.608522757143729,-0.3573243330169008,-4.139462147865064,7.247820852879678,-5.599499433442072,8.865786320757968,-7.695556225520317,3.789694465270169,-4.718104556001638,6.250108034732985,-6.856149871032561,-3.679276710319029,3.0872553611679194,-2.887404965197619,6.983164177273581,6.834605686469061,8.63107564905464,5.600329595076445,-5.558998891613922,-6.907525825959123,9.121060722621896,18.302402567810677,-6.00736218843788,-0.8929384737557717,-8.506995923625473,-2.6955783920497574,-0.11190671514691632,-4.634731736068712,2.885322301171251,-8.062095728976656,5.154693516654936,8.501824882902243,-11.216824712620914,2.2239441536457263,-4.151531156310087,1.4751335058423982,-7.145366042001019,11.448772694680292,4.06313102787427,3.609639247771209,-11.16713330944421,0.45702725881961487,6.54557529936415,-10.54348504929081,11.050404542879155,14.575903433752343,5.532629085470922,4.678247211324253,-4.338967788736976,5.562472866254224,-13.44788466794909,-2.3929085159785486,-13.143827056755807,4.5042131177664295,12.53381352789423,-6.4948030519758015,-10.17770481462539,2.9840936845642383,-20.393243620858545,-2.239436971700659,-7.6743210881798785,2.499744110359335],"bias":[[-11.938438918776047,4.28370184594726,-8.288958929941826,17.130121232612947,-5.241494723235701,-2.0703509014612136,-3.375122937393047,-4.341606050516528,-3.092245423175574,-7.385033989458071],[-0.9771345761787098,-1.2736523606829722,3.7251038917320436,18.42790028042237,-6.456954348679628,-4.470550567087789],[15.576477721709255]],"id":0,"number":0}
