{"architecture":{"NEURONS":[10,7,1],"LAYERS":3,"totalSynapses":77},"weights":[2.91176987193568,-5.195268199836477,1.561628161581954,-0.5238471405202041,9.7229207946298,1.852842688610896,8.3606683109583,4.022698964288601,-8.223192244522426,1.6850912093250972,-6.6292597242489535,2.3296686926256176,6.260397011572956,-3.0958228963376833,6.603733152914277,-7.7527635853465675,-2.6776511741875533,3.7795562165298895,-1.487836199391972,-1.3191651972192966,1.7136539748416182,6.062091244164102,-7.650580803434993,-10.067049630978655,2.562260628592256,-0.040932484917178116,5.4407041524313815,-2.505047062447987,-7.047021728872626,9.72920246472402,-3.682610583378173,8.568532640984895,-7.839462636661609,-1.8252028727091687,6.074800961128501,-9.986058459201953,-9.055989647954307,8.462680042179558,-6.83206389054411,4.330628645764503,-1.6754738029090592,3.0176275684403526,3.6215031312313215,2.679892652638217,-5.913301385396572,-5.382970736291281,1.0680439381840612,-0.9433672291704874,10.975484332339777,1.3511584275973452,-8.619149236013149,-8.732112442378229,-3.7758315022726685,-1.0615926012894532,5.639387239901121,6.936370142783252,-6.941811497663224,7.368789405781903,2.0514566432691543,-6.059460447609728,0.21331144104423935,3.341665108237202,-4.477060086602798,-7.150988846395272,8.13753547112942,-1.3359093592523443,3.2171592844153936,-3.890861193764797,5.080943386919495,-7.933240624645384,-7.847642827726041,-6.442752886476503,2.6945702150513298,-3.0669290690961635,-3.921301562715079,-1.2230353133383796,-3.53606698942781],"bias":[[-6.236967223325225,7.9400730880598775,-9.073711594361376,-7.170525365004761,3.6866898738916523,8.323939486714007,6.128930181085195,2.1186684261402973,2.823647152817625,6.946835386967722],[8.411698318820019,-2.3640011147085147,-0.08936290212811804,5.683854618191486,-8.657472676427668,2.3810600271995668,-9.555598638538749],[-6.538933540764648]],"id":0,"number":1}
