{"architecture":{"NEURONS":[10,7,1],"LAYERS":3,"totalSynapses":77},"weights":[5.938586736384349,1.7943432706583202,-2.4000164332261087,8.416055864528845,-8.829710126780741,6.862536809743247,-1.5405697763547703,-4.905077640483195,9.605862021474033,0.00720767161364172,-2.2343100147088464,-5.4763379462265,-8.46799323416538,1.0365442769463393,0.8014696548243718,-4.3805578220081385,-6.566084084395943,0.48957734282261,7.272645987030938,-6.46357957855934,6.369542309979966,2.3717628659150547,-6.077936402753646,4.6636459335422416,6.3240613730625554,-2.5972259316288486,6.1511143539239725,-9.850041866843233,5.925169641946271,-1.92423408694876,2.4007446709340203,-5.9883240473809805,9.079576972337158,7.148283672428089,3.799857579805309,0.009290197009224233,9.133558025285586,9.459356596675889,-6.355746359246721,6.267428456063865,-6.857483651700199,-8.043684424248868,8.873523996363195,3.360321039609704,-3.782797812629714,2.9647988907648672,-3.576922339779909,10.455708716520999,-0.18478896079419982,-3.965854156807877,1.7302387801268537,7.01521944186571,-7.562173157209042,0.8258921575386982,6.570174131410267,-6.164789718660135,-5.716847032381875,8.352162218337092,0.06544163565782593,-3.70647895545871,8.134188444558308,1.302041085663556,8.179949795705129,2.3035775194749775,-4.556706037198911,0.8193262576988207,8.11658903007439,-6.517830522586348,0.6039125183723788,-6.313149542416908,7.096529065543102,3.315359794111394,-3.531935901368875,0.9041281173878027,-2.668383524576212,-5.013364736081465,1.1457206809855889],"bias":[[-8.210194800608155,-3.3919335136307165,-6.656374469580556,-7.547761094792135,0.04839642091383542,-9.084725407311613,-4.593654582869206,2.1584464128508163,-2.9036492079156133,-1.1630775779920726],[5.192266430582355,6.030302257257816,7.779129099845318,-8.061471610912674,4.946272848653016,-6.444097551140178,0.1922210075011913],[-2.737732936035931]],"id":0,"number":1}
