{"architecture":{"NEURONS":[10,7,1],"LAYERS":3,"totalSynapses":77},"weights":[-7.473146488040383,-0.6529016178031539,-9.6722180571717,4.686602577476403,5.274898446934654,5.795734185713748,-8.05267071413786,4.7583366090831305,3.3372721315827683,-0.7908962633975118,1.1958178234962438,0.48201867567196066,4.291078986561219,-0.47067868506249333,-8.583739143671886,-7.16512031307095,1.4016830674977578,9.264978913616638,7.548182310642595,-5.485438460559134,-8.954402181997255,-3.4069541857802856,8.849379260689057,-7.532617861717605,-8.351987519567958,-8.425631874336329,-2.6277438814141547,5.141984582075813,4.242565772202142,-6.230978353065671,-1.8654518379048355,-5.474099071660721,7.898853119340149,-0.9535827145719633,-2.130907294382047,5.2421313373538645,2.86524056032131,-9.067087429549634,0.16969237138819543,-7.868717797139999,-5.675193880279563,5.177603052429853,0.6955103680205128,7.587976616264566,-8.363689727395201,3.548147918379505,6.671674274691255,3.441199657082098,-4.27093064244999,-6.977762390867343,-9.447424390479497,7.274800864776157,-6.173938398749441,7.500933606189667,-5.629843284121092,-0.15707913882323848,-8.680981729433551,1.5138080885662593,-0.669507065462769,-4.984008622929849,-4.056615243503782,2.4139020394306936,-2.7194210217286514,3.755402095062202,8.941734275330681,-5.8154246771902205,1.102351541672009,8.109183197290946,8.468960164509962,6.8511500724725565,-1.1918308281616437,-7.942569672489417,5.9724367889619,0.4330959461897377,6.273008070064194,6.329579638276888,0.9432500672090445],"bias":[[-5.968759020700747,8.74140954271048,5.573090218533393,-8.798225496009222,-1.1685578104830916,-5.901390133056537,1.1705326128200362,7.309504794861854,7.279173076845188,1.629148368988611],[-2.073914250557653,9.270126737725843,5.249587271789994,8.8191200578964,7.608632810263799,0.6080837358235599,3.649265731902254],[2.2838525742733147]],"id":0,"number":1}
