{"architecture":{"NEURONS":[10,7,1],"LAYERS":3,"totalSynapses":77},"weights":[4.388034243456835,4.123134891401536,-4.629162979744342,0.6594478652134919,-1.6164207363173908,-9.581315526330874,-10.06756214178382,-3.336391991006324,6.020885761071177,7.1595827166021655,-4.2749181782526025,-2.4079804932902737,4.718755816617495,9.620939506799342,8.159713986254518,-0.8206120261749739,4.498651414305811,10.033945234276349,-7.562869979639046,-3.8507801397045736,8.343761355107155,-9.489410451924561,-9.19237368740571,-8.154550902261956,6.641142093414344,4.969951189356157,5.949985822057267,4.624311559281791,5.064420717432483,5.945705271747133,-2.1553588112230733,1.0967473742851717,-3.6906163933881526,-7.545554738069056,-9.266419403611232,3.4435885491528024,6.622884558413449,-5.136000032687665,4.836303805836383,9.925224996079038,1.1677579296472644,2.9143475820483395,-7.239780226582243,3.0026839352868717,-8.010411516167155,4.772591788498951,-4.090719017379227,2.348867937964778,-7.982147173744323,-6.250805166680211,2.150967901229946,3.1360188940683216,2.9143201617223915,-6.5614250337456355,2.212728097949281,3.9938401319877848,6.221386886648112,-4.391781945474542,-2.711890175638245,9.416592701886444,8.717146642221248,3.8005716024962712,-0.6535641911678064,-1.718036275347468,2.991393438166761,-4.203749696076487,8.330575676399413,-4.841736170449147,-9.472072366279821,8.713638853061616,-2.313925946032039,3.944557148589272,8.784853115324797,8.171792778767314,-9.574018760138735,8.529821816491891,-7.494451495754427],"bias":[[7.233496021944184,-6.330298646120026,3.422613698408411,-4.9551449749596275,2.5394813118844537,6.728747914650839,-8.5160587871093,-2.8347700174157486,3.043706742287752,-8.753526605358509],[3.9532711325674113,-3.8737805228697253,-8.566307097302367,-2.9427149685722327,-7.951354483443805,0.33370511646191686,2.776420929729353],[-3.0913920693417984]],"id":0,"number":1}
