{"architecture":{"NEURONS":[10,3,1],"LAYERS":3,"totalSynapses":33},"weights":[-1.5473902164485906,-5.378211998762479,6.610695930700189,-6.625563397046021,-7.212631820865283,0.17523902170603733,8.113775538667632,2.025000942063036,-2.009702129017894,-2.8342315658513337,2.8567789740079803,-0.6506111368554013,4.016417833178998,4.139019645505844,-4.374518896695234,0.2695071120276431,-6.9139232073822114,5.230069850734738,-5.349169278400459,3.941135013539645,-0.8025657878553325,-8.822368808668859,-6.846598133091611,10.211935220515855,9.434019224794781,2.7111531631396133,-4.142583102801256,-4.404319474132993,1.1833586183258036,-4.243557671798527,0.6371026798506507,9.099381963692675,-1.3281936966977623],"bias":[[-5.530043475367301,-7.964077640227294,9.940309911040263,-8.85448349498864,-0.15524636756635957,-7.365047797200576,-4.986056234395198,-0.6535242190077062,-4.910475664837274,-9.488270648649967],[0.9333597787346881,-0.5547288253867819,-8.763959026533817],[3.70772448847619]],"id":0,"number":1}
