{"architecture":{"NEURONS":[10,7,1],"LAYERS":3,"totalSynapses":77},"weights":[7.18053124685347,-5.4579631377861935,2.4165110455410526,-2.241129987355408,8.082864734452096,3.041774697148426,8.579180419833557,2.368294022511497,-10.209868764917328,3.268255655686168,-7.629174688255753,2.2423978329261685,4.742768283390132,-2.9869231468639006,9.093759314913353,-6.354097791812853,-0.12789912892314348,4.7229925685422725,0.045935641138954764,0.7382526423382607,2.162077909177683,10.13603252862626,-8.130768224691302,-9.694549094254471,0.5508664108791635,-2.1209703504912096,4.859707506459454,-3.920849253381053,-6.48727935324978,13.615712233760961,-6.552459128161195,10.4003155478024,-5.524289266745817,-1.2929605027488906,7.628279328709181,-9.577345286196808,-8.220306073833646,8.073595372204318,-6.417157382447407,4.328610089549395,-1.7581853533264375,4.258116620014147,5.771070696219919,1.952330107116685,-3.7596223250232974,-4.6957504554204075,-0.404629312519351,-1.4165916270971153,11.341794523841898,0.529539262825043,-9.74295868672006,-11.917818244253914,-2.086997398578739,-3.3024809077458053,5.283560931277413,5.060182539507986,-6.253311930296077,4.805338197874562,1.4844268808192675,-7.93836006471958,-0.041185328471967805,5.111652813962211,-4.966391475279599,-6.077700053241008,7.876715540439618,1.0973961159602343,1.7411954094565183,-1.2543384469106014,4.377582805802455,-7.935787260924742,-8.715023320323603,-4.365434302487047,4.2364212974970075,-5.300793762977216,-3.40784960112825,1.1508008812657757,-3.2771973426587144],"bias":[[-9.097266655495222,10.394356207649015,-8.993504179086376,-5.813453047795541,3.2858143115451357,8.513479243010007,5.18011939962388,3.702176138940012,6.763468072435617,5.784540884220227],[9.301078176530117,0.28031556842830907,-1.5922920275342651,7.459280506752654,-10.882859469983492,2.014622515131344,-12.772551932113327],[-5.919338806399414]],"id":0,"number":10}
