{"architecture":{"NEURONS":[10,7,1],"LAYERS":3,"totalSynapses":77},"weights":[-4.359562081551004,3.9224169769923067,1.1082818236350447,-2.396869973341404,-5.658179923475241,9.872888148844465,5.8525544039180755,-0.03816390536567524,2.278999596046055,-0.6165962200430442,2.035304700636161,-3.003739530088414,9.321895839824464,6.94554487651665,-2.6259522348135556,-2.554230035759996,-7.994436244880691,2.49195936899888,-10.632284293143499,-9.34790561375625,6.741901069806829,-1.0015980117204073,-2.23100367127938,5.68690957142037,-0.5961682459482597,-7.137113411968352,0.7302072542267103,3.6261525988626437,-1.2584920229280612,3.4366337228752135,8.67828526426105,7.465893917595569,5.564416634434855,6.2607181098944125,-8.999892040047762,4.688405618852611,4.6777677223005965,5.379822700398852,5.606447740396877,-3.3922616041749567,4.450668576914924,-5.47707772989663,-6.082877546453288,2.2434537205612166,-6.528673448788887,3.082274642093862,-4.022764042423263,0.40953594800687076,3.7644319721517827,5.314290669495038,1.9515946914149307,-7.529757473466618,8.084075523778731,-5.279438478502799,-3.843280041091881,-5.260794276982881,-6.11656115134413,3.7158942809305118,-1.2226416936234925,3.6435520833001944,-6.219784954370547,-4.032430403032315,7.025300422251644,-9.013979051260822,-3.8928794098726542,-2.2992760614546963,-5.806870466866123,3.321502008288152,8.564510707297124,-0.46593470879610877,-6.218646903327469,4.092358112281069,1.2823069697687983,-0.8898143563186363,7.41165955213351,5.4841206979706545,-2.0034799026204038],"bias":[[-7.964471605647732,4.86997879757834,-5.464724858988394,4.381875009467725,3.0593493871639854,8.514181858173686,7.963913271721277,-6.621595744352731,6.831566058151938,0.05243267692585599],[-1.27776582656815,0.5593449774015155,-5.618728833776945,-8.497754217080333,0.3099382264800497,6.255003748882507,7.298236643936407],[-5.06018655267764]],"id":0,"number":10}
