{"architecture":{"NEURONS":[10,7,1],"LAYERS":3,"totalSynapses":77},"weights":[-3.9403262980008957,8.675063432795081,-9.300146220421121,4.875209030298691,-9.783644529815493,9.578005847918577,6.034551701185265,3.801506265270969,0.5721895812874389,-5.206901731481885,-0.3432032248025836,-1.5438498887790806,2.271470280312308,-4.326293338013773,0.7269094961446072,8.192979380803077,-7.953430270060928,8.923224242903641,-7.045175297891502,5.180259556583909,-1.959138717924476,-8.778598885578388,6.801889196490501,-1.9268785055414401,0.9627976535185971,6.655042372915823,7.1876680116192775,-1.9526042970924584,5.204617465665875,0.5001093184794503,-1.2182576477212326,-1.0593284591546899,1.505995743191022,9.461155609208614,-6.381181002381651,-7.263500554722093,-2.6941950004211916,4.585057482381368,5.6312508404887325,6.46950875856447,-7.838395996191565,4.583890133254694,9.048074169384897,-7.556784344886389,-7.372820125106095,-3.8757057471133214,-6.690114525503135,5.258038723007852,0.12782378647559267,6.091898831869909,-1.0694484926462167,-5.828769618641125,-1.6695832935728312,9.20704006035032,-8.34719932637846,-8.780925659155393,-8.290049813741778,8.848280387200932,-8.621636609579202,-7.242691510110715,6.3793203055229775,7.74048483517734,0.6230482939702107,7.551900003950438,-5.053302425521455,8.50192189975047,0.5592942097074278,-9.446482257499497,-0.816017646810332,-9.353279170967888,7.8923291899292405,-7.167798866514439,-5.28312509347727,7.2611711711552624,7.789114383312523,-6.920573191254445,7.372376430139339],"bias":[[6.100600981904244,0.7297374378677356,6.602613444634542,-7.924349240689197,-0.6196808058537147,-9.206561333389775,-0.6334343132444686,-0.7667691514317133,6.408038478697897,-4.136548418856462],[5.153489833697778,-1.5216010304009289,3.3935233787155195,-6.08869483971813,7.074396611058487,5.748479080049193,-7.537531352115614],[5.6269764390120125]],"id":0,"number":10}
