{"architecture":{"NEURONS":[10,4,1],"LAYERS":3,"totalSynapses":44},"weights":[-4.789838187034018,-4.93585758157405,1.1646097100000672,-1.8790420360856679,9.570241965446161,-4.6300155428823935,5.899998164343579,5.601886597981708,-8.6468552793733,-0.09389468389182909,4.708270376896566,0.42273350242791174,-2.735268918155077,-9.702049674102946,1.1389161479493441,8.057722165120712,7.800875908015513,6.840264308184769,-4.448275174899814,6.7572627672355345,8.608670623143247,4.789797459460655,7.771731066353908,3.5722285386199637,1.9978978553689493,-3.9535316548413917,2.4684404115260463,6.541283591073817,1.215711697192826,9.502114251845168,-7.957531040167202,-6.117024537828566,0.5243203420080902,-5.554267822974435,6.972967486427854,1.3192503181469597,3.028076041502512,-3.746914640326934,-8.516354952294646,-3.5877288026739063,-8.680429400348162,-7.735914990535486,-1.236111253626187,-1.9577276198532125],"bias":[[-7.8179656772962485,-2.1094426439824465,-9.764331705877357,-2.538917210872005,1.3311489911721885,-5.176203419913459,-9.91867120468144,-7.910820923819324,-5.595090931022022,2.683133901038031],[-6.7672952264587405,6.319568422239711,1.508701689773932,0.46062302036540737],[4.636143817749678]],"id":0,"number":10}
