{"architecture":{"NEURONS":[10,4,1],"LAYERS":3,"totalSynapses":44},"weights":[-4.755227501246224,-4.860809284850725,0.587120665492978,-1.7052161337666285,10.07515211715443,-4.625485479721743,5.208726095352106,-1.9527750966090929,-6.645750029786426,0.5160566729542366,4.617522181130442,0.42273350242791174,-2.9651318982606765,-9.754553878944954,0.8848106640236559,7.739073765342408,7.944669089095467,6.380028448313544,-0.9449974447328766,7.05215556744174,8.487163752574167,5.374761008332183,7.610266536647564,4.057276665255,2.398753495380407,-3.765277768464068,2.5529024512651857,6.36652132989731,-3.285080524320156,9.147759972027393,-7.835970916133476,-5.9119140932795755,0.4756454710356266,-5.694545967834983,6.749475080042367,0.5450679127518565,2.193594928547574,-6.42229422258669,-8.700325849166182,-3.939371868845593,-8.68255193637259,-7.834790468868234,-1.1890002757338087,-2.0375317265929502],"bias":[[9.46326702777559,2.2223314955341182,-9.648083227539782,-2.2645751990501033,1.170473276411633,-4.983443740434382,-9.967190947200821,-7.1432149742783135,-1.939096282499726,2.943341601720569],[-6.470590357178879,6.56720112811938,1.805175957599461,0.8863928879406955],[-0.7761845224022454]],"id":0,"number":100}
