{"architecture":{"NEURONS":[10,4,1],"LAYERS":3,"totalSynapses":44},"weights":[-4.8179084484258015,-5.306123076643087,0.6276305255855597,-1.8277359092325711,9.552538632809135,-4.665332046398438,6.109959612989351,-1.3381527216095288,-5.255819951730981,0.1404567931351881,4.630172032271322,0.29871565487922525,-2.961468235276788,-9.625282360787192,1.1922435199802113,7.739073765342408,7.296617995112845,6.4230237286315255,-1.2703846691377432,6.7572627672355345,8.527066679990172,4.646111482981779,8.142895971153585,3.8896596291328307,2.528330222011044,-4.056943707128086,2.972970784409032,6.541283591073817,-3.6327321102772108,9.181969774292433,-7.339798679693539,-6.364025026093299,0.5538514908594003,-5.649304693420854,6.711008908360258,1.8311536288315573,2.1323429120681783,-6.664992271450426,-8.450213061792155,-7.418169054806364,-9.19086643245582,-7.820229867932347,6.935182967461122,-2.0107517595021083],"bias":[[9.416742960734068,1.6643645014727433,-3.8671570094715833,-1.986146466525667,1.5787243918302234,-5.151876414055667,-9.778544127492685,-7.8459356014081,-5.851349336927334,3.0341669288825113],[0.5960631740703032,6.768733820891386,1.632073883675724,0.9361421758786592],[4.223138186371062]],"id":0,"number":101}
