{"architecture":{"NEURONS":[10,4,1],"LAYERS":3,"totalSynapses":44},"weights":[-4.5154877187392675,-5.489274450512513,0.6392573854604916,-1.8277359092325711,9.307503216700923,-4.3714762030750265,5.208726095352106,-1.6417816212627623,-6.645750029786426,0.5160566729542366,4.478455230257096,0.42273350242791174,-2.9651318982606765,-9.799473002815901,1.2247221225224085,7.739073765342408,7.827194166401714,6.4230237286315255,-1.5538089242218733,7.05215556744174,8.64780464721749,4.754121052266846,7.390815173009622,4.057276665255,2.781841621940616,-4.056943707128086,1.9824081923335466,6.541283591073817,-3.6327321102772108,9.018378652272942,-7.876766684992021,-5.930639671876105,0.284797971168081,-5.554267822974435,6.754144460861352,1.9495245487071875,2.1323429120681783,-6.3078442403004225,-8.392282116477885,-7.268396776217743,-8.936427424355541,-7.834790468868234,6.9317897378309485,-2.0107517595021083],"bias":[[-8.730103006950245,2.3501991984439643,-9.638281380756686,-2.067860042876229,1.3076651328463047,-4.895779559722055,-9.936520822206589,-7.812575741797655,-1.7654966698745873,2.2859852125189595],[0.6133414898719369,6.041275347127826,1.632073883675724,0.9361421758786592],[4.147221977328602]],"id":0,"number":102}
