{"architecture":{"NEURONS":[10,4,1],"LAYERS":3,"totalSynapses":44},"weights":[-4.755227501246224,-5.2327254853638205,0.7070591604849189,-1.8277359092325711,9.552538632809135,-4.303083586523668,5.720417996395666,-1.9527750966090929,-5.533463899930255,0.4595907489689941,4.617522181130442,0.42273350242791174,-2.651765591317246,-9.702049674102946,0.8848106640236559,7.941492711974908,7.479892832361097,6.834226888980992,-1.5538089242218733,6.786695584880148,8.52630874983714,4.399349125685493,7.390815173009622,4.057276665255,2.781841621940616,-3.765277768464068,2.2162070911206997,6.463203205186385,-3.6327321102772108,9.274297069025671,-7.868134781650866,-6.159261057183396,0.34174676462797315,-5.554267822974435,7.166118490867862,1.5039187765846482,2.190977660519138,-6.774214689967703,-8.456417613741328,-6.835688420181097,-9.19086643245582,-7.8495175238516115,2.8713947310485697,-2.0375317265929502],"bias":[[-8.596337267211002,2.4556500031807458,-9.638281380756686,-2.2645751990501033,1.5787243918302234,-4.983443740434382,-9.531664561477239,-7.833392412228027,-1.939096282499726,2.6029566170684806],[-6.470590357178879,6.768733820891386,9.232581896342158,1.0985903245711475],[4.230201328740442]],"id":0,"number":103}
