{"architecture":{"NEURONS":[10,4,1],"LAYERS":3,"totalSynapses":44},"weights":[-4.553387315062091,-5.109730137445127,0.7070591604849189,-1.8277359092325711,9.552538632809135,-4.625485479721743,5.720417996395666,-1.1201862544794423,-5.533463899930255,0.364925963115238,4.630172032271322,0.42273350242791174,-3.3186493501495553,-10.072659998032552,1.1922435199802113,7.863489580527055,7.827194166401714,6.64310208439389,-1.5538089242218733,6.786695584880148,8.527066679990172,4.646111482981779,7.390815173009622,3.827667869242554,2.4900671715318192,-4.056943707128086,2.972970784409032,6.463203205186385,-3.6327321102772108,9.181969774292433,-8.19782284782431,-6.170508814656443,0.4756454710356266,-5.492293232768366,7.166118490867862,1.9495245487071875,2.193594928547574,-6.296147751264808,-8.456417613741328,-7.268396776217743,-8.936427424355541,-7.687393903928375,2.8713947310485697,-2.0375317265929502],"bias":[[9.416742960734068,2.3501991984439643,-9.987363353160847,-2.065282087737244,1.5787243918302234,-4.960033706908304,-9.967190947200821,-7.1432149742783135,-5.851349336927334,3.0341669288825113],[0.5960631740703032,6.540865702454784,1.5403513395065875,0.9545290421615455],[4.147221977328602]],"id":0,"number":104}
