{"architecture":{"NEURONS":[10,4,1],"LAYERS":3,"totalSynapses":44},"weights":[-4.755227501246224,-5.109730137445127,0.7070591604849189,-1.8277359092325711,9.552538632809135,-4.625485479721743,5.6861877791893525,-1.6417816212627623,-5.183017116167147,0.5160566729542366,4.630172032271322,0.42273350242791174,-2.9651318982606765,-9.625282360787192,1.0414035537803055,7.941492711974908,7.296617995112845,6.64310208439389,-1.0981748742013713,6.786695584880148,8.44527893913898,5.374761008332183,8.142895971153585,3.8896596291328307,2.528330222011044,-4.056943707128086,1.9824081923335466,6.541283591073817,-3.6327321102772108,9.274297069025671,-7.857459947457238,-6.364025026093299,0.4756454710356266,-5.649304693420854,6.754144460861352,1.9242336616906726,2.0215688592127616,-6.88343710848498,-8.700325849166182,-6.835688420181097,-9.19086643245582,-7.834790468868234,6.873242029541531,-2.0375317265929502],"bias":[[9.56726117177328,2.3501991984439643,-9.638281380756686,-2.2645751990501033,0.6590191300907081,-5.0383977637811626,-10.121611864286812,-7.833392412228027,-8.388424246960192,2.758943183870756],[-6.7672952264587405,6.768733820891386,1.4893795747078205,0.9361421758786592],[4.223138186371062]],"id":0,"number":105}
