{"architecture":{"NEURONS":[10,4,1],"LAYERS":3,"totalSynapses":44},"weights":[-4.5154877187392675,-5.2327254853638205,0.7070591604849189,-1.710899676234201,9.413538639948223,-4.625485479721743,5.6861877791893525,-1.9527750966090929,-5.533463899930255,0.5160566729542366,4.478455230257096,0.5348161021597007,-3.082457077189322,-9.754553878944954,1.0414035537803055,7.739073765342408,7.827194166401714,6.4230237286315255,-1.0746786700124376,6.786695584880148,8.487163752574167,4.5826430836179295,7.989746298015993,3.6706892236422517,2.5711768860704343,-4.056943707128086,2.972970784409032,6.463203205186385,-3.6327321102772108,9.274297069025671,-7.771707169097792,-6.1065547434972505,0.9344261338328357,-5.554267822974435,6.749475080042367,1.9495245487071875,2.1323429120681783,-6.774214689967703,-8.456417613741328,-6.880280901376263,-8.68255193637259,-7.834790468868234,-1.1890002757338087,-2.0375317265929502],"bias":[[-8.596337267211002,2.3501991984439643,-9.729777538386797,-2.2645751990501033,1.1490564151004057,-5.151876414055667,-10.121611864286812,-7.8459356014081,-1.939096282499726,2.758943183870756],[0.6133414898719369,6.768733820891386,1.5403513395065875,1.0985903245711475],[4.230201328740442]],"id":0,"number":106}
