{"architecture":{"NEURONS":[10,4,1],"LAYERS":3,"totalSynapses":44},"weights":[-4.755227501246224,-5.306123076643087,0.7070591604849189,-1.8277359092325711,9.193376188444919,-4.625485479721743,5.720417996395666,-1.1201862544794423,-5.533463899930255,0.364925963115238,4.832369704062423,0.42273350242791174,-2.9651318982606765,-10.072659998032552,1.1922435199802113,7.941492711974908,7.296617995112845,6.64310208439389,-1.2703846691377432,6.669729628643117,8.44527893913898,4.399349125685493,7.231587896707961,3.827667869242554,2.781841621940616,-4.063834387570703,2.972970784409032,6.541283591073817,-3.6327321102772108,9.274297069025671,-7.771707169097792,-6.170508814656443,0.4756454710356266,-5.554267822974435,7.008142602530114,1.5039187765846482,2.193594928547574,-6.88343710848498,-8.392282116477885,-3.4095128426667536,-9.411679240399412,-7.747111657830865,6.9317897378309485,-1.8133625807485914],"bias":[[-8.805548782848579,3.6967840616644865,-9.638281380756686,-1.986146466525667,1.5787243918302234,-4.895779559722055,-9.778544127492685,-7.833392412228027,-8.388424246960192,3.0341669288825113],[0.3069991276551377,6.768733820891386,1.5403513395065875,1.0985903245711475],[4.223138186371062]],"id":0,"number":107}
