{"architecture":{"NEURONS":[10,4,1],"LAYERS":3,"totalSynapses":44},"weights":[-4.712005715318629,-5.207926607044107,0.7070591604849189,-1.8277359092325711,9.68279491737122,-5.024550035173221,5.6861877791893525,-1.9527750966090929,-5.255819951730981,0.5160566729542366,4.478455230257096,0.3621027040109881,-3.1754749708637267,-9.754553878944954,1.0414035537803055,7.739073765342408,7.773967891873813,6.430046498811648,-1.5538089242218733,7.200491909323633,8.47420004845931,4.5826430836179295,8.067778062257991,4.057276665255,2.24958716341418,-4.056943707128086,2.972970784409032,6.463203205186385,-3.6327321102772108,9.274297069025671,-7.468732094104844,-6.1065547434972505,0.4756454710356266,-5.601786258197644,6.749475080042367,1.9242336616906726,1.8513081610482978,-6.664992271450426,-8.450213061792155,-6.880280901376263,-8.527650474087434,-7.834790468868234,2.8713947310485697,-2.0375317265929502],"bias":[[-8.831257624172707,2.3501991984439643,-9.729777538386797,-2.2645751990501033,1.1490564151004057,-5.0383977637811626,-10.121611864286812,-7.8459356014081,-1.939096282499726,0.646430791618398],[0.6133414898719369,6.768733820891386,1.5403513395065875,0.9361421758786592],[-0.5287769297531676]],"id":0,"number":108}
