{"architecture":{"NEURONS":[10,4,1],"LAYERS":3,"totalSynapses":44},"weights":[-4.606102982211457,-5.2327254853638205,0.7070591604849189,-1.8277359092325711,9.552538632809135,-4.625485479721743,5.720417996395666,-1.9527750966090929,-5.255819951730981,0.5160566729542366,4.478455230257096,0.30883031757444324,-3.082457077189322,-9.625282360787192,1.1922435199802113,7.739073765342408,7.296617995112845,6.64310208439389,-1.0746786700124376,6.786695584880148,8.64780464721749,4.5826430836179295,8.341337731965355,3.6849697524571137,2.24958716341418,-3.9817584257806704,2.972970784409032,6.463203205186385,-3.6327321102772108,9.274297069025671,-7.771707169097792,-6.239751133580711,0.4756454710356266,-5.649304693420854,6.754144460861352,1.9688390764705814,1.8513081610482978,-6.296147751264808,-8.552738692445192,-6.880280901376263,-9.186508363709258,-7.834790468868234,2.8651577374377775,-1.8133625807485914],"bias":[[-8.805548782848579,2.3501991984439643,-9.104664776406269,-2.197631494829979,1.5787243918302234,-5.151876414055667,-10.121611864286812,-7.8459356014081,-1.939096282499726,2.758943183870756],[0.6133414898719369,6.768733820891386,1.632073883675724,0.9361421758786592],[4.223138186371062]],"id":0,"number":109}
