{"architecture":{"NEURONS":[10,4,1],"LAYERS":3,"totalSynapses":44},"weights":[-4.709186703141688,-4.93585758157405,1.1646097100000672,-1.8790420360856679,9.443585304947797,-4.6300155428823935,5.796831811994929,5.601886597981708,-5.80311714012552,-0.12583541397851916,4.810297080449008,0.42273350242791174,-2.735268918155077,-9.702049674102946,4.944198275743956,8.057722165120712,7.800875908015513,6.841208213982729,-1.7360023092725463,6.973929502013334,8.504437492164392,4.906528325556119,7.771731066353908,3.5722285386199637,1.9429698242057558,-4.037378873150811,2.4684404115260463,6.541283591073817,1.215711697192826,9.132642675571836,-7.957531040167202,4.428668169626837,0.8421553878726407,-5.554267822974435,6.6811820446505985,1.3192503181469597,3.028076041502512,-3.746914640326934,-8.777169702612422,-7.252084263256594,-8.876232604955367,-7.735914990535486,-1.236111253626187,-1.9577276198532125],"bias":[[-8.13366234820025,2.5958744744549715,-9.638281380756686,-2.1171945105377343,1.3311489911721885,-5.176203419913459,-9.91867120468144,-7.910820923819324,-5.422056565021967,2.9387931116759454],[-6.7672952264587405,6.319568422239711,1.5403513395065875,0.6548853468030558],[4.636143817749678]],"id":0,"number":11}
