{"architecture":{"NEURONS":[10,7,1],"LAYERS":3,"totalSynapses":77},"weights":[-3.961351648912009,3.8898202659307284,1.6985172963938588,-2.6283674360091074,-5.283749809084029,9.897069843005372,5.903800634586926,0.42437958010746696,1.8149198220852176,-0.5104100741906882,1.6963665695572676,-3.5294842232910653,9.38368452340412,7.0128737638761445,-2.4282506052275434,-2.6674618611291345,-7.9762804812803285,2.7784827304973883,-10.316247960099252,-9.38747126374786,6.039844689932123,-1.4336384087648,-2.4132320146679933,5.364329100981015,-0.37994707737564104,-6.877943838338771,0.8543810648278292,3.2876110471275073,-1.7749325413012678,3.1732371142688742,8.478384231727782,7.879876186709985,5.033589839833943,6.608518017087231,-9.181018183732174,4.648064181724079,4.29109720735287,5.251781450453981,5.606447740396877,-2.8799235810721417,4.922072567815873,-5.32453877592695,-5.736791124589606,2.301669535036618,-6.472964444830195,2.6551882950668784,-4.242807754074221,0.1585134036949767,3.6768552251121265,5.598008455034273,2.2044589368726353,-7.4688266145682425,7.460823541393658,-5.7935939718954845,-3.981986632168572,-4.783025619938668,-6.194553979083865,3.5725443411535047,-0.7006180259445556,3.8104759584227685,-6.4878830552950095,-4.143419392207718,6.825085871992473,-8.911766424368084,-4.363310816104845,-2.456855646317467,-5.789783199473871,3.2895145751714554,8.292141407626172,-0.7366473298691543,-6.462924410878449,3.9156360543554367,1.2285917148891794,-0.750283908827491,7.397320647680607,5.476414305983575,-1.5328579190552953],"bias":[[-7.77910609592376,4.86997879757834,-5.451092620143434,5.035316897718183,2.8005795282300756,8.869328949389057,7.718497111194999,-6.008270009168069,7.022789735487682,0.182958778894349],[-0.9253043962363515,0.6564520974045084,-5.330986476018559,-8.690697532623574,0.7208877519713192,6.080839085998106,7.219015839186011],[-5.387404974714785]],"id":0,"number":11}
