{"architecture":{"NEURONS":[10,4,1],"LAYERS":3,"totalSynapses":44},"weights":[-4.606102982211457,-5.2327254853638205,0.7070591604849189,-2.294622172663841,9.413538639948223,-4.60388580644088,5.208726095352106,-1.6417816212627623,-5.533463899930255,0.364925963115238,4.630172032271322,0.42273350242791174,-2.9838484585659697,-9.754553878944954,1.6476036963168121,7.739073765342408,7.827194166401714,6.4230237286315255,-1.838881623290707,6.669729628643117,8.202582925323554,4.5826430836179295,8.142895971153585,3.6706892236422517,2.26905479141531,-3.7794645025804092,2.4684404115260463,6.421662957762863,-3.752837938895003,9.144534034931512,-7.876766684992021,-6.083656941534545,0.4756454710356266,-5.554267822974435,6.754144460861352,1.9495245487071875,2.1323429120681783,-6.664992271450426,-8.456417613741328,-6.880280901376263,-9.19086643245582,-7.753975239501316,6.935182967461122,-2.0375317265929502],"bias":[[-8.805548782848579,2.3501991984439643,-9.638281380756686,-1.9878189791473981,0.6590191300907081,-5.151876414055667,-9.936520822206589,-7.8459356014081,-1.939096282499726,3.0341669288825113],[0.6133414898719369,6.540865702454784,1.4758762151840517,0.9545290421615455],[4.147221977328602]],"id":0,"number":110}
