{"architecture":{"NEURONS":[10,4,1],"LAYERS":3,"totalSynapses":44},"weights":[-4.606102982211457,-5.2327254853638205,0.6392573854604916,-2.194957561018118,9.552538632809135,-4.441331717845788,5.720417996395666,-1.6417816212627623,-6.462419903619753,0.5160566729542366,4.470004243249272,0.5348161021597007,-2.9651318982606765,-9.759797680042793,1.226809684281721,7.739073765342408,7.479892832361097,6.4230237286315255,-1.0746786700124376,6.786695584880148,8.487163752574167,4.442318506097977,7.989746298015993,3.6706892236422517,2.0331143205524267,-4.333659544132775,2.4684404115260463,6.463203205186385,-3.6327321102772108,9.147759972027393,-7.876766684992021,-6.1065547434972505,0.5450627295241031,-5.554267822974435,6.754144460861352,1.5994693583257324,2.1323429120681783,-6.664992271450426,-8.552738692445192,-6.880280901376263,-9.19086643245582,-7.834790468868234,-1.1890002757338087,-1.8133625807485914],"bias":[[-8.831257624172707,2.569730412298146,-9.638281380756686,-2.2645751990501033,1.5787243918302234,-5.151876414055667,-9.936520822206589,-7.812575741797655,-1.4944553011831174,2.758943183870756],[0.6133414898719369,6.709337834400956,1.5403513395065875,0.9545290421615455],[4.147221977328602]],"id":0,"number":111}
