{"architecture":{"NEURONS":[10,4,1],"LAYERS":3,"totalSynapses":44},"weights":[-4.606102982211457,-5.2327254853638205,0.832764336144178,-2.057120885762109,9.413538639948223,-4.08285646529192,5.720417996395666,-2.036327239388317,-5.533463899930255,0.5160566729542366,4.617522181130442,0.7812828134979657,-2.4469349875683064,-9.625282360787192,1.1922435199802113,7.714221876244434,7.758117223990576,6.834226888980992,-1.1422975132349495,7.05215556744174,8.840208347072451,4.399349125685493,8.142895971153585,4.071590878105879,2.781841621940616,-4.297865669140075,1.9824081923335466,6.541283591073817,-3.6327321102772108,9.018378652272942,-7.876766684992021,-6.133365381201581,0.9344261338328357,-5.6318464407978714,6.711008908360258,1.1827316627544786,1.8513081610482978,-6.664992271450426,-8.392282116477885,-6.880280901376263,-9.19086643245582,-7.472579006930101,-1.1890002757338087,-2.0375317265929502],"bias":[[-8.35157650762231,1.9293808507059482,-3.898975205733389,-1.9878189791473981,0.9981732891158879,-5.151876414055667,-9.531664561477239,-7.1432149742783135,-1.939096282499726,3.0341669288825113],[-6.470590357178879,6.768733820891386,1.2168258625245088,0.9545290421615455],[4.147221977328602]],"id":0,"number":112}
