{"architecture":{"NEURONS":[10,4,1],"LAYERS":3,"totalSynapses":44},"weights":[-4.017008362980053,-5.163278666108575,0.7070591604849189,-1.7002048610737444,9.351940423134218,-4.749826083767172,5.6861877791893525,-1.6417816212627623,-6.462419903619753,0.5160566729542366,4.617522181130442,0.45344592943751594,-2.818243362852498,-10.072659998032552,1.2752781091580216,7.739073765342408,7.827194166401714,6.834226888980992,-1.7591282269081916,6.786695584880148,8.64780464721749,4.5826430836179295,7.0041323336558,3.6706892236422517,2.9579970086418013,-4.063834387570703,2.4684404115260463,6.421662957762863,-3.6327321102772108,9.147759972027393,-8.228664050802076,-6.1065547434972505,0.4756454710356266,-5.498336917588268,6.754144460861352,1.5994693583257324,2.255235191416578,-6.826777807803125,-8.392282116477885,-6.862568174537162,-8.936427424355541,-7.687393903928375,6.796191207702764,-1.8133625807485914],"bias":[[-8.831257624172707,2.804079206138671,-9.488828088088608,-2.332498912426633,1.5787243918302234,-4.895779559722055,-10.076901987823659,-7.812575741797655,-1.4944553011831174,3.0341669288825113],[0.7564090504915472,6.768733820891386,1.5403513395065875,1.5560749048928126],[4.419520227384468]],"id":0,"number":113}
