{"architecture":{"NEURONS":[10,4,1],"LAYERS":3,"totalSynapses":44},"weights":[-4.712005715318629,-5.534390293480912,0.7240270520696409,-1.710899676234201,9.307503216700923,-4.625485479721743,5.6861877791893525,-1.9527750966090929,-5.255819951730981,0.5160566729542366,4.617522181130442,0.30883031757444324,-3.1754749708637267,-10.072659998032552,1.1922435199802113,7.739073765342408,7.296617995112845,6.4230237286315255,-1.7591282269081916,6.786695584880148,8.64780464721749,4.754121052266846,7.568315043623074,3.6849697524571137,2.24958716341418,-4.333659544132775,2.972970784409032,6.463203205186385,-3.6327321102772108,9.388935587407788,-7.876766684992021,-6.1065547434972505,0.4756454710356266,-5.14266028155893,7.166118490867862,1.9688390764705814,1.8513081610482978,-6.213837500977412,-8.456417613741328,-7.268396776217743,-9.19086643245582,-7.865187920139177,-1.1890002757338087,-1.8133625807485914],"bias":[[9.46326702777559,2.3276026528481144,-10.048917499851196,-2.197631494829979,1.1490564151004057,-4.839681153791948,-9.531664561477239,-7.812575741797655,-1.939096282499726,2.758943183870756],[0.6133414898719369,6.540865702454784,1.5403513395065875,0.9361421758786592],[-0.5287769297531676]],"id":0,"number":114}
