{"architecture":{"NEURONS":[10,4,1],"LAYERS":3,"totalSynapses":44},"weights":[-4.755227501246224,-5.306123076643087,0.7070591604849189,-1.8277359092325711,9.735527278588677,-4.058727034933498,5.720417996395666,-1.8708152435662453,-5.255819951730981,0.1404567931351881,4.832369704062423,0.5081805776063385,-2.9651318982606765,-10.072659998032552,1.0414035537803055,7.739073765342408,7.479892832361097,6.4230237286315255,-1.0746786700124376,6.163553669588563,8.202582925323554,4.5826430836179295,8.341337731965355,3.6849697524571137,2.24958716341418,-4.148888041674013,2.972970784409032,6.463203205186385,-3.6327321102772108,9.011645663770741,-7.771707169097792,-5.981429042468536,0.4756454710356266,-5.6687257713870105,6.721221883223965,1.9495245487071875,2.1323429120681783,-6.664992271450426,-8.552738692445192,-3.49077162261933,-9.19086643245582,-7.753975239501316,-1.1890002757338087,-1.8133625807485914],"bias":[[-8.770673534523265,3.6967840616644865,-10.048917499851196,-1.986146466525667,0.7462710702655044,-5.0383977637811626,-10.121611864286812,-7.8459356014081,-1.939096282499726,2.758943183870756],[0.6133414898719369,6.540865702454784,1.5403513395065875,0.9361421758786592],[4.223138186371062]],"id":0,"number":115}
