{"architecture":{"NEURONS":[10,4,1],"LAYERS":3,"totalSynapses":44},"weights":[-4.745411739315693,-5.310057148967371,0.8028310321457892,-2.057120885762109,9.413538639948223,-4.698315626258505,5.764045211870161,-1.499210293353737,-6.645750029786426,0.364925963115238,4.67546621167356,0.5081805776063385,-2.8965765370357563,-10.072659998032552,1.1922435199802113,7.863489580527055,7.479892832361097,6.4230237286315255,-1.0746786700124376,6.669729628643117,8.64780464721749,4.7291142341219565,8.067778062257991,3.6849697524571137,2.4900671715318192,-3.657798705109186,2.330098785439547,6.742233214473072,-3.752837938895003,8.883819460364666,-7.868134781650866,-6.261643041638347,0.5155916934004999,-5.356912705185924,6.754144460861352,1.9495245487071875,2.098831261171581,-6.296147751264808,-8.690113625360043,-6.880280901376263,-9.39891760610369,-7.753975239501316,-1.6137810634984016,-2.029047372775602],"bias":[[-8.805548782848579,3.7273302061555604,-9.638281380756686,-2.1310664622277424,1.497201104529955,-5.410770258311744,-10.121611864286812,-7.833392412228027,-2.2200416491786163,2.7298663413386413],[0.6133414898719369,6.768733820891386,1.2891676027644208,0.9545290421615455],[4.223138186371062]],"id":0,"number":116}
