{"architecture":{"NEURONS":[10,4,1],"LAYERS":3,"totalSynapses":44},"weights":[-4.606102982211457,-5.2327254853638205,0.7070591604849189,-1.8277359092325711,9.413538639948223,-4.804992000488981,5.288640212663288,-1.5823996745425046,-5.533463899930255,0.5160566729542366,4.7315331065236315,0.42273350242791174,-3.082457077189322,-9.754553878944954,1.2247221225224085,7.758829055251974,7.827194166401714,6.834226888980992,-1.7591282269081916,6.669729628643117,8.64780464721749,5.0295035603778375,8.142895971153585,3.5085670714115182,2.24958716341418,-3.9817584257806704,2.972970784409032,6.421662957762863,-3.6327321102772108,9.018378652272942,-7.876766684992021,-6.170508814656443,0.4756454710356266,-5.498336917588268,6.754144460861352,1.9242336616906726,1.8513081610482978,-6.3292066104231175,-8.552738692445192,-6.880280901376263,-9.19086643245582,-7.753975239501316,2.8713947310485697,-1.8133625807485914],"bias":[[-8.35157650762231,1.9293808507059482,-9.104664776406269,-1.9878189791473981,1.5787243918302234,-5.151876414055667,-9.531664561477239,-7.8459356014081,-1.939096282499726,3.0341669288825113],[0.8318662564507988,6.540865702454784,1.5403513395065875,0.9361421758786592],[4.147221977328602]],"id":0,"number":117}
