{"architecture":{"NEURONS":[10,4,1],"LAYERS":3,"totalSynapses":44},"weights":[-4.606102982211457,-5.306123076643087,0.7070591604849189,-1.8277359092325711,9.303023370554168,-4.625485479721743,5.6861877791893525,-2.1991226241692896,-6.645750029786426,0.1404567931351881,4.832369704062423,0.30883031757444324,-3.082457077189322,-10.072659998032552,0.7478517056065707,7.739073765342408,7.296617995112845,6.64310208439389,-1.0746786700124376,6.786695584880148,8.687276647395022,5.0295035603778375,8.142895971153585,3.6706892236422517,2.3795609814735643,-4.148888041674013,2.972970784409032,6.463203205186385,-3.6327321102772108,9.144534034931512,-7.819920975374329,-6.170508814656443,0.4756454710356266,-5.601786258197644,6.538972098503707,2.026611825720414,2.1323429120681783,-6.856651533585706,-8.392282116477885,-6.880280901376263,-8.527650474087434,-7.834790468868234,2.992993547359311,-1.8133625807485914],"bias":[[9.46326702777559,2.6316874436163835,-9.80112013240477,-2.197631494829979,1.1543941476648651,-7.829231380985247,-9.752619973239971,-7.1432149742783135,-1.7297173163531088,2.758943183870756],[0.8318662564507988,6.540865702454784,1.2949639676778282,0.9361421758786592],[6.746965893898739]],"id":0,"number":118}
