{"architecture":{"NEURONS":[10,4,1],"LAYERS":3,"totalSynapses":44},"weights":[-4.665295390091902,-5.2327254853638205,0.8028310321457892,-1.8277359092325711,9.413538639948223,-4.120240077496121,5.764045211870161,-1.8708152435662453,-5.255819951730981,0.8769037613730066,4.832369704062423,0.5081805776063385,-2.8305279020725873,-10.072659998032552,1.1922435199802113,7.739073765342408,7.479892832361097,6.834226888980992,-1.0746786700124376,6.163553669588563,8.202582925323554,4.5826430836179295,8.142895971153585,3.6120332590584434,2.1448244990877265,-4.297865669140075,2.972970784409032,6.421662957762863,-3.6327321102772108,9.144534034931512,-8.19782284782431,-6.261643041638347,0.4756454710356266,-5.720627479643792,6.721221883223965,1.5039187765846482,2.1323429120681783,-6.315908159868999,-8.520553111004771,-3.49077162261933,-9.19086643245582,-7.834790468868234,-1.2640567160221179,-1.5713708978089889],"bias":[[9.719565638647977,3.7273302061555604,-9.638281380756686,-2.7129868202625236,0.38223218338260834,-4.768747552665238,-9.570485204549417,-7.1432149742783135,-1.939096282499726,2.880926558742344],[0.6133414898719369,6.156654859676703,1.5403513395065875,0.9545290421615455],[4.223138186371062]],"id":0,"number":119}
