{"architecture":{"NEURONS":[10,7,1],"LAYERS":3,"totalSynapses":77},"weights":[-3.691722016448013,8.637200742646893,-9.42691903548705,5.1537946475932195,-9.46982300344878,9.523479573925584,6.034551701185265,3.364351645369927,0.7346949923536327,-5.083077400950701,0.0017612391996120469,-1.3317226788159449,1.8505055671198207,-4.426951145074844,0.7269094961446072,8.830225227876962,-8.034533951331031,8.818718833788983,-6.30774836738578,5.458209267624607,-1.9570798753342442,-8.861645593632392,6.7265056658020255,-1.7466847546622624,0.3094431413777901,6.838410957102388,7.083810866682221,-1.2525214535133855,5.946926261259495,0.8053640916808054,-1.0568847130194092,-1.2929410101944088,1.623361475087486,9.461155609208614,-6.995531273994714,-7.563815143914995,-3.029409194694415,4.436313726191351,5.531206782527822,6.95875412584044,-7.999525273097572,4.553826330410904,8.943277927574446,-7.500313982266056,-7.087016890471728,-3.61244342710571,-6.434973307208032,5.371840767002465,-0.40266346735092884,6.538836099335703,-1.3270475396342127,-5.824652376219438,-1.6950981177994395,9.499895159225543,-8.355466956630769,-8.996478379080852,-7.973772201254217,9.444409656783453,-8.417916866091431,-7.231919658257429,5.881668317338777,7.598329296510441,0.504158438905876,8.234227784431264,-5.317280599520838,8.559648196059129,0.986682960817846,-9.276668287074893,-1.125562909867385,-8.895983964808334,7.222535202045657,-7.267129398502629,-4.765096839458747,7.205174543805333,7.965032475692426,-7.134996103122395,6.94133009044222],"bias":[[5.930837956978065,0.7807865188760204,6.602613444634542,-8.069699172984846,-0.18283494190470329,-9.730469437079,-0.7089022646535124,-0.6663443000897549,6.258207182540233,-4.38313617556151],[5.336089955393368,-1.0877305401014485,4.356298687026964,-6.281668530815405,6.592984575986863,6.187068762971225,-7.825901617862306],[5.647490210752705]],"id":0,"number":12}
