{"architecture":{"NEURONS":[10,7,1],"LAYERS":3,"totalSynapses":77},"weights":[-4.785145466581552,3.9562456744666856,1.6272296448217076,-2.44893259038193,-5.898141437035427,9.59347294305233,5.766055312204629,-0.11849658937719798,2.3515676568499657,-0.16072687299018468,2.141574626234415,-2.9877747447842484,9.62249232997201,7.229860216895011,-2.836090762776117,-2.8321586015722877,-7.772589310600146,3.7279341613179646,-10.20535715808821,-9.964743120579012,5.962420843945646,-1.5646130505696896,-1.0109764584677274,5.580854992429663,-0.35478558975786995,-6.31122728106353,0.8408398442584848,3.221882332599182,-0.876887823577116,4.154613087377996,9.562047550535533,7.8529385464161425,4.62102320508538,6.617393337386148,-9.608367718149552,4.90555547582751,4.18363337327184,4.30708951185405,4.4628913706305635,-1.5864439065020595,5.099110775800863,-6.216123257210278,-6.362693881046967,1.7935384050572274,-6.491558353255695,3.530357570272628,-4.381382094147536,0.23012641799263417,3.101956348727731,5.510832027387612,2.9959957770874093,-7.920527009905856,7.61676020205347,-5.240265060547823,-3.2337150204462195,-4.838198253300758,-6.018106168317128,4.0870570009790494,-1.1415577158217278,4.626019221753817,-6.116898784570362,-3.9218425836977753,6.962191294159613,-10.032177582689787,-3.79157907733064,-2.2487907265432447,-5.47488824868991,4.079450875130152,8.225131635483773,0.3615849781405275,-6.1790813239125555,3.7748665035599895,1.8009873675612824,-1.0888772721336832,7.132697308749064,5.532963974237432,-1.7765020662792248],"bias":[[-8.559563113725112,4.73135299653709,-5.765070772564494,4.981422694960492,2.9321129216597557,8.528008591928375,7.818988134687005,-6.491310302831045,6.189793371730945,0.041979453011098206],[-0.9878291154222226,0.5140962002372067,-5.094762780234413,-8.43266573703175,0.22153391718710508,6.093405634170928,7.880218872924468],[-4.28299723063561]],"id":0,"number":12}
