{"architecture":{"NEURONS":[10,4,1],"LAYERS":3,"totalSynapses":44},"weights":[-4.709186703141688,-4.93585758157405,0.7325795191430835,-1.8790420360856679,9.717550921188232,-4.6300155428823935,5.7531295167706515,-1.544888138233743,-5.844842554397221,-0.12583541397851916,4.810297080449008,0.42273350242791174,-2.7278134440490582,-9.702049674102946,1.1067229965546368,8.057722165120712,7.800875908015513,6.459259840417019,-2.0059992129485362,6.973929502013334,8.504437492164392,4.818195081163993,7.9409489005567995,3.5722285386199637,1.5175408964522492,-3.9535316548413917,2.4684404115260463,6.709290566070219,-3.3322049777484386,9.502114251845168,-7.957531040167202,4.334361831399363,0.8421553878726407,-5.554267822974435,6.778082461389943,1.3192503181469597,2.4062185276814403,-6.689976637295818,-8.731664980009548,-3.750305328389405,-8.680429400348162,-7.735914990535486,-1.236111253626187,-2.3445173083825175],"bias":[[-7.8179656772962485,2.5958744744549715,-9.273259458201283,-2.232100574296333,1.3311489911721885,-5.176203419913459,-9.91867120468144,-7.910820923819324,-5.6463653182898215,2.5511828031677917],[-6.754491583752349,0.6140965016273937,1.5403513395065875,0.6548853468030558],[4.636143817749678]],"id":0,"number":12}
