{"architecture":{"NEURONS":[10,4,1],"LAYERS":3,"totalSynapses":44},"weights":[-4.606102982211457,-5.262950471352293,0.7070591604849189,-1.8277359092325711,9.413538639948223,-4.698315626258505,5.596592250624956,-1.9527750966090929,-6.645750029786426,0.5160566729542366,4.547988705693769,0.42273350242791174,-2.750284122761124,-10.072659998032552,1.0833039951897983,7.758829055251974,7.827194166401714,6.747234117737136,-1.0746786700124376,6.626105500541109,8.487163752574167,5.0295035603778375,8.142895971153585,3.6849697524571137,2.24958716341418,-3.7886402063057787,2.4684404115260463,6.608717394445629,-3.752837938895003,9.388935587407788,-7.771707169097792,-6.133365381201581,0.4756454710356266,-5.554267822974435,6.721221883223965,1.9242336616906726,1.8513081610482978,-6.315908159868999,-8.690113625360043,-7.149224978091313,-9.19086643245582,-7.753975239501316,-0.8953759143290251,-1.8220080231540023],"bias":[[-8.805548782848579,2.397709137657365,-9.668980441396496,-2.197631494829979,0.13728597193251835,-4.895779559722055,-10.121611864286812,-7.833392412228027,-1.939096282499726,2.758943183870756],[0.6133414898719369,6.540865702454784,1.2891676027644208,0.9545290421615455],[4.147221977328602]],"id":0,"number":120}
