{"architecture":{"NEURONS":[10,4,1],"LAYERS":3,"totalSynapses":44},"weights":[-4.5154877187392675,-5.244745273734887,0.7070591604849189,-1.8277359092325711,9.413538639948223,-4.625485479721743,5.596592250624956,-1.6417816212627623,-5.255819951730981,0.6131400978008933,4.832369704062423,0.5348161021597007,-3.1754749708637267,-10.072659998032552,1.1922435199802113,7.860146485484852,7.827194166401714,6.818607233569016,-1.0746786700124376,6.786695584880148,8.40980490341759,4.5826430836179295,8.142895971153585,3.8759171569201505,2.24958716341418,-4.297865669140075,2.4684404115260463,6.463203205186385,-3.6327321102772108,9.274297069025671,-8.19782284782431,-6.261643041638347,0.33393388236515475,-5.6318464407978714,6.754144460861352,1.9688390764705814,1.8513081610482978,-6.664992271450426,-8.680480813413334,-3.49077162261933,-9.411679240399412,-7.687393903928375,2.781336789347327,-1.9204850832417932],"bias":[[-8.805548782848579,2.569730412298146,-9.104664776406269,-1.986146466525667,0.6590191300907081,-5.548569748444864,-9.752619973239971,-7.8459356014081,-1.939096282499726,2.758943183870756],[0.6133414898719369,6.540865702454784,1.5403513395065875,0.9361421758786592],[4.147221977328602]],"id":0,"number":121}
