{"architecture":{"NEURONS":[10,4,1],"LAYERS":3,"totalSynapses":44},"weights":[-4.606102982211457,-5.2327254853638205,0.7070591604849189,-1.8277359092325711,9.614689740475585,-5.024550035173221,5.720417996395666,-1.9527750966090929,-5.255819951730981,0.5160566729542366,4.898311928730483,0.5348161021597007,-2.929922427813115,-9.754553878944954,1.1922435199802113,7.758829055251974,7.296617995112845,6.635648078986382,-1.9930045607671487,6.786695584880148,8.47420004845931,4.5826430836179295,8.067778062257991,3.8759171569201505,2.4900671715318192,-4.333659544132775,2.4684404115260463,6.463203205186385,-3.6823442325566944,9.274297069025671,-7.868134781650866,-5.981429042468536,0.24645930550882644,-5.4647630950923,6.754144460861352,1.9688390764705814,2.1323429120681783,-6.41395403310311,-8.450213061792155,-6.880280901376263,-9.075203664947402,-7.834790468868234,3.0429160941561237,-1.8133625807485914],"bias":[[9.46326702777559,2.3276026528481144,-9.668980441396496,-2.4039176955850783,1.5787243918302234,-4.70647898640127,-10.310122325908862,-7.1432149742783135,-4.8976081812053724,2.758943183870756],[0.6133414898719369,6.540865702454784,1.2168258625245088,0.9361421758786592],[4.147221977328602]],"id":0,"number":122}
