{"architecture":{"NEURONS":[10,4,1],"LAYERS":3,"totalSynapses":44},"weights":[-4.755227501246224,-5.2327254853638205,0.7070591604849189,-1.8277359092325711,9.552538632809135,-4.372154872866227,5.720417996395666,-1.9527750966090929,-6.867047996516567,0.5160566729542366,4.832369704062423,0.42273350242791174,-2.8965765370357563,-9.330436110311906,1.1937911277372182,7.758829055251974,7.5954506191404985,6.933380926772203,-1.5442112825316532,6.786695584880148,8.64780464721749,5.036702572440825,8.142895971153585,3.6849697524571137,2.24958716341418,-3.6395346052940027,2.8999202842440748,6.463203205186385,-3.6327321102772108,9.144534034931512,-8.228664050802076,-6.239751133580711,0.4756454710356266,-5.554267822974435,6.754144460861352,1.9688390764705814,2.1323429120681783,-6.664992271450426,-8.494196601874513,-6.8053696710087985,-9.19086643245582,-7.654332363170278,2.8713947310485697,-1.8133625807485914],"bias":[[9.719565638647977,2.6316874436163835,-9.638281380756686,-2.197631494829979,1.5787243918302234,-5.151876414055667,-10.076901987823659,-8.163512666422324,-8.388424246960192,2.758943183870756],[0.6133414898719369,6.768733820891386,1.453005582035935,0.9545290421615455],[4.223138186371062]],"id":0,"number":123}
