{"architecture":{"NEURONS":[10,4,1],"LAYERS":3,"totalSynapses":44},"weights":[-4.5154877187392675,-5.310057148967371,0.7240270520696409,-1.8277359092325711,9.552538632809135,-4.749826083767172,5.764045211870161,-1.9527750966090929,-5.598639513176475,0.5160566729542366,4.832369704062423,0.5081805776063385,-2.929922427813115,-10.072659998032552,1.0329253697447596,7.739073765342408,7.827194166401714,6.4230237286315255,-1.9930045607671487,6.786695584880148,8.604717443094193,4.719328693615738,8.142895971153585,3.6849697524571137,2.24958716341418,-4.333659544132775,2.972970784409032,6.421662957762863,-3.6327321102772108,9.542225177612108,-7.9931669398719105,-6.261643041638347,0.5155916934004999,-5.6318464407978714,6.721221883223965,1.9688390764705814,2.1323429120681783,-6.261215860665592,-8.680480813413334,-6.893502567983595,-9.113703444511664,-7.834790468868234,2.992993547359311,-1.9204850832417932],"bias":[[9.46326702777559,2.5597377370661967,-9.638281380756686,-2.7129868202625236,0.38223218338260834,-4.825818267845899,-8.862593333453292,-7.1432149742783135,-2.2200416491786163,2.7298663413386413],[0.6133414898719369,6.041275347127826,1.2891676027644208,0.9545290421615455],[4.223138186371062]],"id":0,"number":124}
