{"architecture":{"NEURONS":[10,4,1],"LAYERS":3,"totalSynapses":44},"weights":[-4.614026517612267,-5.2327254853638205,0.7070591604849189,-1.8277359092325711,9.413538639948223,-4.749826083767172,5.288640212663288,-1.9527750966090929,-6.645750029786426,0.5790113219286428,4.724945942596433,0.42273350242791174,-2.8965765370357563,-10.072659998032552,1.1922435199802113,7.860146485484852,7.827194166401714,6.4230237286315255,-1.6962334354900377,6.822196152391318,8.47420004845931,4.6135512855285485,8.457124477172789,3.8759171569201505,2.291116248153392,-3.968764123989896,2.972970784409032,6.463203205186385,-3.6327321102772108,9.011645663770741,-7.675637693686681,-6.159261057183396,0.4756454710356266,-5.6318464407978714,6.555071304502438,1.9688390764705814,2.1323429120681783,-6.680529501860789,-8.503084862953257,-6.8053696710087985,-9.19086643245582,-7.834790468868234,-1.2545784889137133,-1.8724391499262336],"bias":[[9.46326702777559,2.569730412298146,-9.488828088088608,-1.986146466525667,1.286860802887452,-7.869549672877406,9.418816961397997,-8.173852683861817,-8.35782786507554,2.758943183870756],[0.718619240414788,5.955165997810026,1.5403513395065875,0.9545290421615455],[4.147221977328602]],"id":0,"number":125}
