{"architecture":{"NEURONS":[10,4,1],"LAYERS":3,"totalSynapses":44},"weights":[-4.755227501246224,-5.310057148967371,0.7070591604849189,-1.7688183251646152,9.924566799428359,-4.625485479721743,5.288640212663288,-1.9527750966090929,-5.410331728634542,0.5160566729542366,4.547988705693769,0.5081805776063385,-2.750284122761124,-9.759797680042793,1.1922435199802113,7.758829055251974,7.496283727464415,6.635648078986382,-1.5627616928525276,6.822196152391318,8.37894547321385,4.508777901444375,8.067778062257991,3.6950621748349954,2.1448244990877265,-4.333659544132775,2.4684404115260463,6.463203205186385,-3.683999458742875,8.883819460364666,-7.541427299589817,-6.170508814656443,0.4756454710356266,-5.554267822974435,7.144003467334905,1.5039187765846482,1.8513081610482978,-6.41395403310311,-8.392282116477885,-6.644924225406383,-9.19086643245582,-7.753975239501316,3.0429160941561237,-2.029047372775602],"bias":[[9.46326702777559,3.64360363112993,-9.625478040401154,-1.986146466525667,1.2260251683769927,-4.825818267845899,-10.202528631398355,-7.833392412228027,-8.35782786507554,2.7298663413386413],[0.5960631740703032,6.356692573786238,1.5403513395065875,1.0985903245711475],[4.147221977328602]],"id":0,"number":126}
