{"architecture":{"NEURONS":[10,4,1],"LAYERS":3,"totalSynapses":44},"weights":[-4.5154877187392675,-5.2327254853638205,0.7070591604849189,-2.010520058685194,9.413538639948223,-4.75291586106458,5.598324986792918,-1.6649326662921202,-5.324728681686371,0.3587747929071258,4.832369704062423,0.5081805776063385,-2.970927720601348,-10.072659998032552,1.0329253697447596,7.739073765342408,7.827194166401714,6.4230237286315255,-1.7591282269081916,6.163553669588563,8.604717443094193,4.5826430836179295,8.142895971153585,3.6849697524571137,2.1448244990877265,-4.333659544132775,2.4684404115260463,6.421662957762863,-3.6327321102772108,9.041985905689238,-7.9931669398719105,-6.261643041638347,0.10133886569224027,-5.6318464407978714,6.721221883223965,2.012792507878946,2.1323429120681783,-6.296147751264808,-8.450213061792155,-6.644924225406383,-9.39891760610369,-7.834790468868234,2.992993547359311,-1.9204850832417932],"bias":[[-8.625926697232106,2.694929269781318,-9.638281380756686,-3.2476170620151925,1.5787243918302234,-4.895779559722055,-8.862593333453292,-7.990626805104935,-8.433770444216577,2.861327152579653],[0.5960631740703032,6.540865702454784,1.2168258625245088,1.0985903245711475],[4.147221977328602]],"id":0,"number":127}
