{"architecture":{"NEURONS":[10,4,1],"LAYERS":3,"totalSynapses":44},"weights":[-4.5154877187392675,-5.448762472236717,0.7070591604849189,-1.8277359092325711,9.2023709117036,-4.62829477268641,5.123300792972018,-1.499210293353737,-5.60415497391612,0.5160566729542366,4.617522181130442,0.5081805776063385,-2.8965765370357563,-10.095337132112022,1.0329253697447596,7.739073765342408,7.189071910964547,6.635648078986382,-1.7591282269081916,6.786695584880148,8.40980490341759,4.508777901444375,8.252286276352633,3.6849697524571137,2.149530523466166,-3.6395346052940027,2.8999202842440748,6.421662957762863,-3.6327321102772108,9.041985905689238,-8.041498846410276,-6.0866734222649335,0.8734302437974577,-5.472248021071783,6.754144460861352,1.9688390764705814,2.1323429120681783,-6.261215860665592,-8.552738692445192,-3.49077162261933,-9.196867057440954,-7.671523719611401,-1.6642928287263565,-1.8133625807485914],"bias":[[9.46326702777559,2.601029166714934,-9.104664776406269,-1.6794648004315835,1.5787243918302234,-4.895779559722055,-10.269381285714601,-8.163512666422324,-8.388424246960192,2.758943183870756],[0.7346248125140319,6.540865702454784,1.632073883675724,0.9545290421615455],[4.419520227384468]],"id":0,"number":128}
