{"architecture":{"NEURONS":[10,4,1],"LAYERS":3,"totalSynapses":44},"weights":[-4.665295390091902,-5.36834102261321,0.7070591604849189,-1.8277359092325711,9.653284390752976,-4.749826083767172,5.288640212663288,-1.6417816212627623,-6.645750029786426,0.6131400978008933,4.724945942596433,0.42273350242791174,-2.4469349875683064,-10.072659998032552,1.1922435199802113,7.860146485484852,7.296617995112845,6.834226888980992,-1.6962334354900377,6.443921324856632,8.47420004845931,4.6135512855285485,8.457124477172789,3.8759171569201505,1.843978866329184,-4.333659544132775,2.4914171873781052,6.425531944221716,-3.6823442325566944,9.54795467039649,-7.876766684992021,-6.170508814656443,0.6081123703543149,-5.6318464407978714,6.7511937287091675,1.9688390764705814,2.1323429120681783,-6.680529501860789,-8.520553111004771,-7.268396776217743,-9.19086643245582,-7.834790468868234,3.0429160941561237,-1.562293592309042],"bias":[[-8.805548782848579,3.7273302061555604,-9.104664776406269,-1.986146466525667,1.286860802887452,-5.151876414055667,-10.310122325908862,-8.173852683861817,-1.939096282499726,2.758943183870756],[0.6133414898719369,6.154002161505294,1.5403513395065875,1.0985903245711475],[4.223138186371062]],"id":0,"number":129}
