{"architecture":{"NEURONS":[10,7,1],"LAYERS":3,"totalSynapses":77},"weights":[3.546915639727895,5.4663083860215025,-9.07979579391468,7.775623765091715,-3.4805809760608395,-7.208180443217883,9.647363961587972,5.537519465063282,2.4745819212796003,-8.75332486711724,7.465202519365483,9.208547418795366,-2.6724296600992803,-4.98935974560026,4.484742966128174,5.052375675706832,1.6312674802329523,8.042033723649848,1.7308152007631747,-2.093005240600957,0.9555856690778188,-7.291623830651541,7.766524774801876,4.206970618796697,-4.313965230825269,-8.696911054594826,-5.482001389352773,-8.691824800859022,2.3713177150040288,0.11433293626690716,8.657983438482695,-1.8349909808070064,6.873732830618466,-2.0688739166824686,8.05134228796034,-4.216086738912936,8.133334850208175,8.343113121644716,-4.901600635289357,-2.0834305086347182,8.181964857949428,-9.862906031225155,-2.0424553052283936,4.7687580382384525,9.141930365484846,-6.6530691297475,7.978816534271004,-5.875699377829945,-2.960979967344734,8.60004443586452,-5.44111317695292,9.069499892875907,6.478309558088594,-3.742903469255616,6.224666311066276,-7.353609074792965,-6.539017414009305,-3.9829793328785223,-3.0740006968538687,1.871933705642459,-0.3503474162397024,-2.082636372922502,-7.072213643117604,6.91894258826126,8.19192345529344,5.148724498969112,-0.5180393483061748,-8.81586114515293,-5.864918907862355,-7.324651166746792,2.0171614548420744,-1.6386593670189835,-3.563952365376922,7.925450616027559,0.0027323249775430547,-1.6606718950377655,-8.466942763998905],"bias":[[-4.933767775590086,-7.138770462695274,4.164299225768753,-5.50798585301252,1.44497035361624,4.974411857438688,-1.4342557659132238,5.313840719441545,-5.005553903597689,5.475137980526592],[-1.5394017925474939,-9.536121413726244,-8.333696961936846,7.5394028284315455,-4.305354747867474,8.636534944418647,6.238360198335591],[3.439298980268665]],"id":0,"number":13}
