{"architecture":{"NEURONS":[10,7,1],"LAYERS":3,"totalSynapses":77},"weights":[-4.108294479720486,4.034684716589195,0.8690476927389835,-1.9201109935664367,-5.774390891525579,9.501859139025205,5.422311123983366,-0.32525605112165373,2.4083357978093356,-0.6919447276379734,2.305160413910813,-3.2485958345900157,9.565814535218172,6.712209728040005,-2.1538704180482897,-2.2912772158605645,-7.736750300910068,2.9340081728487317,-9.645764491526423,-9.884378239352165,6.615072845407844,-2.171474921769807,-2.2769210386306193,5.524050081682498,-0.6406074063360737,-7.727719028820409,0.5314530991618053,4.153338998105191,-1.5028889426350565,3.9050227619487026,9.719272539638204,7.082209180531,4.590842297550091,7.055464316544456,-9.182107563935723,5.297678540081627,4.173569773487646,3.8266925150795705,5.574941674892775,-2.5889719895517462,4.910275931644859,-5.513303561075435,-6.000037831909097,2.4178257566396786,-6.774793744745576,3.588388866393665,-3.9806236232412076,0.04607699156564983,2.906213143478659,6.275635802974033,1.9633027049160223,-7.601537303128765,8.326590103472947,-5.6376467828242935,-3.5227281015017455,-4.959298349329701,-6.264134776615314,3.3491186539366002,-0.9218031145623872,3.339789829697625,-6.761022003856204,-3.5245451204236975,6.878925074445783,-9.469083674563532,-3.9594472600265194,-2.7427271420499104,-5.119237346579747,3.725256535487995,7.903472612569138,0.24128445901545587,-6.719003877191094,3.236963765146732,1.7170873892474938,-1.7334644739834448,6.743035071940324,4.997701234686783,-0.9566741567434335],"bias":[[-7.591601613979521,4.903696435543936,-5.692597517820753,4.9534502720515645,3.001543788672052,8.599303769371392,8.123785336857043,-6.65116964013542,6.667178227796579,-0.21412012698210608],[-0.044930018904540237,0.9486862163796179,-5.7112126235855865,-8.517631652286134,0.14099799919910216,6.325817017010814,7.1193043160779],[-5.058579347514447]],"id":0,"number":13}
