{"architecture":{"NEURONS":[10,4,1],"LAYERS":3,"totalSynapses":44},"weights":[-4.606102982211457,-5.2327254853638205,0.7070591604849189,-1.8277359092325711,9.413538639948223,-5.126208086105753,5.720417996395666,-1.9527750966090929,-6.645750029786426,0.3751275125729073,4.898311928730483,0.5706441534678329,-2.9651318982606765,-9.759797680042793,1.1922435199802113,7.739073765342408,7.296617995112845,6.982388459441933,-1.5130772173668599,6.822196152391318,8.64780464721749,4.5826430836179295,8.142895971153585,3.6849697524571137,2.4900671715318192,-3.968764123989896,3.2004396270704523,6.421662957762863,-3.6327321102772108,8.98523352400243,-7.675637693686681,-6.052135896524194,0.4756454710356266,-5.751118572322833,6.555071304502438,1.5039187765846482,2.1323429120681783,-6.680529501860789,-8.552738692445192,-7.268396776217743,-9.19086643245582,-8.037965613786312,2.992993547359311,-2.157554203666173],"bias":[[9.46326702777559,2.6316874436163835,-9.638281380756686,-2.197631494829979,1.1490564151004057,-5.151876414055667,9.588568462407414,-7.990626805104935,-2.0329983744903197,2.758943183870756],[0.6133414898719369,6.154002161505294,1.2880763240518112,1.0985903245711475],[4.147221977328602]],"id":0,"number":130}
