{"architecture":{"NEURONS":[10,4,1],"LAYERS":3,"totalSynapses":44},"weights":[-4.566640635451218,-5.573813281386744,0.5439183330226294,-2.1490686100114726,9.657653011100585,-4.749826083767172,5.720417996395666,-1.6417816212627623,-5.255819951730981,0.5613221891096103,4.724945942596433,0.8438669480293767,-2.4469349875683064,-10.072659998032552,1.1922435199802113,7.628329978975222,7.296617995112845,6.4230237286315255,-1.4030037097464558,6.443921324856632,8.840208347072451,4.5826430836179295,8.067778062257991,3.8759171569201505,2.6433657201256384,-4.297865669140075,2.3558127183320225,6.425531944221716,-3.6327321102772108,9.132657966871434,-7.8648048358940725,-6.201306668021718,0.24645930550882644,-5.6318464407978714,7.2099660024667775,1.9688390764705814,1.7772079126696334,-6.680529501860789,-8.520553111004771,-7.268396776217743,-9.19086643245582,-7.834790468868234,3.0429160941561237,-1.9037857266214646],"bias":[[9.46326702777559,2.5747248488983883,-9.638281380756686,-1.9878189791473981,1.311631215880678,-5.151876414055667,-10.287275425222926,-8.173852683861817,-2.0329983744903197,3.1036824719236202],[0.718619240414788,6.154002161505294,1.5075756109690883,1.0985903245711475],[4.352185972330692]],"id":0,"number":131}
