{"architecture":{"NEURONS":[10,4,1],"LAYERS":3,"totalSynapses":44},"weights":[-4.665295390091902,-5.573813281386744,0.7070591604849189,-1.9378395261757169,9.681734891312862,-4.799358747152261,5.288640212663288,-1.293020519889763,-5.255819951730981,0.6131400978008933,4.832369704062423,0.42273350242791174,-2.929922427813115,-9.335471432609651,1.1922435199802113,7.739073765342408,7.296617995112845,6.834226888980992,-1.0746786700124376,6.786695584880148,8.604717443094193,4.511609491580095,8.142895971153585,3.8759171569201505,2.4900671715318192,-4.333659544132775,2.972970784409032,6.421662957762863,-3.6327321102772108,9.54795467039649,-7.819920975374329,-6.133365381201581,0.4756454710356266,-5.400408876090344,6.39760267366014,1.8874434616452194,2.4261176300533682,-6.967042957553917,-8.520553111004771,-6.644924225406383,-9.384014834810742,-7.834790468868234,3.0429160941561237,-1.562293592309042],"bias":[[-8.805548782848579,3.7273302061555604,-9.668980441396496,-1.9878189791473981,1.2080656833868477,-4.849244985266941,-10.269381285714601,-7.990626805104935,-1.939096282499726,2.758943183870756],[0.6133414898719369,6.540865702454784,1.5403513395065875,0.9361421758786592],[4.298990770043969]],"id":0,"number":132}
