{"architecture":{"NEURONS":[10,4,1],"LAYERS":3,"totalSynapses":44},"weights":[-4.5154877187392675,-5.36834102261321,0.6715116004402858,-1.9033600344144281,9.653284390752976,-4.749826083767172,5.288640212663288,-1.499210293353737,-5.255819951730981,0.6290441514047189,4.613015054550453,0.42273350242791174,-2.8965765370357563,-9.623870883738265,1.1922435199802113,7.674972061910172,7.827194166401714,6.834226888980992,-1.7591282269081916,6.914655939439049,8.840208347072451,5.233486628096858,8.277262581129436,3.6849697524571137,2.79518876295144,-3.657798705109186,2.4684404115260463,6.421662957762863,-3.6327321102772108,9.041985905689238,-7.983050726955519,-6.133365381201581,0.6152263238925254,-5.4647630950923,6.7511937287091675,1.9688390764705814,2.1836460060993694,-6.909333715916499,-8.520553111004771,-6.644924225406383,-9.196867057440954,-7.834790468868234,-1.6642928287263565,-1.562293592309042],"bias":[[9.023265899360096,2.601029166714934,-9.668980441396496,-2.7129868202625236,1.2365046231375083,-4.895779559722055,-10.310122325908862,-7.990626805104935,-8.35782786507554,3.1036824719236202],[0.6133414898719369,6.156654859676703,1.5403513395065875,1.4807491839858393],[4.223138186371062]],"id":0,"number":133}
