{"architecture":{"NEURONS":[10,4,1],"LAYERS":3,"totalSynapses":44},"weights":[-4.606102982211457,-5.573813281386744,0.5176621535703431,-1.868562485717351,9.552538632809135,-4.749826083767172,5.288640212663288,-2.1370327296907257,-5.255819951730981,0.6131400978008933,4.832369704062423,0.8438669480293767,-2.4469349875683064,-9.754553878944954,1.1922435199802113,7.739073765342408,7.296617995112845,6.4230237286315255,-1.0746786700124376,6.443921324856632,8.840208347072451,4.719328693615738,8.142895971153585,3.6706892236422517,2.4900671715318192,-4.215482078771964,3.0906351602499424,6.421662957762863,-3.6327321102772108,9.54795467039649,-8.19782284782431,-6.1065547434972505,0.4756454710356266,-5.400408876090344,6.721221883223965,1.9688390764705814,2.1024774972107365,-6.41395403310311,-8.552738692445192,-6.644924225406383,-9.196867057440954,-7.834790468868234,3.0429160941561237,-1.4091176363100621],"bias":[[9.46326702777559,3.7273302061555604,-9.668980441396496,-2.197631494829979,-0.04910299118236753,-4.839681153791948,-10.121611864286812,-7.990626805104935,-2.0329983744903197,3.1036824719236202],[0.6133414898719369,6.435304713510735,1.5403513395065875,1.3268196372144345],[4.171123866999054]],"id":0,"number":134}
