{"architecture":{"NEURONS":[10,4,1],"LAYERS":3,"totalSynapses":44},"weights":[-4.665295390091902,-5.601828044446336,0.7070591604849189,-1.8277359092325711,9.653284390752976,-4.120240077496121,5.288640212663288,-1.293020519889763,-5.255819951730981,0.6131400978008933,4.832369704062423,0.5286985463867246,-2.4469349875683064,-9.623870883738265,1.1922435199802113,7.739073765342408,7.433200913912049,6.4230237286315255,-1.7591282269081916,6.914655939439049,8.840208347072451,5.107025945885623,8.502968686051391,3.6706892236422517,1.843978866329184,-4.333659544132775,2.4684404115260463,6.421662957762863,-3.6327321102772108,9.54795467039649,-7.876766684992021,-6.246387775934859,0.6081123703543149,-5.400408876090344,6.721221883223965,2.1749734339051847,2.1506495336378664,-6.967042957553917,-8.650195703756578,-6.590883710642767,-9.196867057440954,-7.889008183749217,2.992993547359311,-1.7140596680721631],"bias":[[-8.805548782848579,3.7273302061555604,-9.534208209412624,-2.7129868202625236,0.38223218338260834,-4.839681153791948,-10.269381285714601,-7.833392412228027,-5.008076815113947,2.758943183870756],[0.6133414898719369,6.540865702454784,1.7338888378595065,0.9545290421615455],[4.147221977328602]],"id":0,"number":135}
