{"architecture":{"NEURONS":[10,4,1],"LAYERS":3,"totalSynapses":44},"weights":[-4.664144417144957,-5.310057148967371,0.8891852852926991,-1.7688183251646152,9.219239813521197,-5.335089994611591,5.720417996395666,-1.499210293353737,-5.255819951730981,0.5160566729542366,4.617522181130442,0.8438669480293767,-2.790406012416856,-9.530266506750694,1.1922435199802113,7.674972061910172,7.296617995112845,6.4230237286315255,-1.7591282269081916,6.786695584880148,8.840208347072451,5.107025945885623,8.142895971153585,3.6706892236422517,2.4900671715318192,-3.968764123989896,3.0906351602499424,6.731137398633787,-3.6327321102772108,9.132657966871434,-7.868134781650866,-6.201306668021718,0.4756454710356266,-5.6318464407978714,6.754144460861352,1.9688390764705814,2.1323429120681783,-7.237968581805246,-8.520553111004771,-3.49077162261933,-9.19086643245582,-7.834790468868234,3.2214272557403953,-1.9204850832417932],"bias":[[9.46326702777559,3.64360363112993,-9.638281380756686,-1.9878189791473981,0.38223218338260834,-4.835612699300081,-10.094569241628909,-7.166438664378214,-8.388424246960192,2.806716471412365],[0.6133414898719369,6.049808409485493,1.5403513395065875,0.9545290421615455],[4.419520227384468]],"id":0,"number":136}
