{"architecture":{"NEURONS":[10,4,1],"LAYERS":3,"totalSynapses":44},"weights":[-4.665295390091902,-5.573813281386744,0.7070591604849189,-1.868562485717351,9.653284390752976,-4.120240077496121,5.288640212663288,-2.1370327296907257,-5.255819951730981,0.6131400978008933,4.832369704062423,0.6183122062119774,-2.8965765370357563,-9.623870883738265,1.1922435199802113,7.739073765342408,7.296617995112845,6.4230237286315255,-1.0746786700124376,6.914655939439049,8.840208347072451,4.719328693615738,8.142895971153585,3.6706892236422517,2.4900671715318192,-4.333659544132775,3.0906351602499424,6.421662957762863,-3.6327321102772108,9.54795467039649,-8.19782284782431,-6.1065547434972505,0.4756454710356266,-5.400408876090344,6.721221883223965,2.1749734339051847,2.0457910795266305,-6.41395403310311,-8.650195703756578,-6.590883710642767,-9.196867057440954,-7.834790468868234,3.0429160941561237,-1.4091176363100621],"bias":[[-8.805548782848579,3.7273302061555604,-9.668980441396496,-2.197631494829979,-0.04910299118236753,-4.839681153791948,-10.269381285714601,-7.990626805104935,-2.0329983744903197,3.1036824719236202],[0.6133414898719369,6.540865702454784,1.5403513395065875,1.3268196372144345],[4.147221977328602]],"id":0,"number":137}
