{"architecture":{"NEURONS":[10,4,1],"LAYERS":3,"totalSynapses":44},"weights":[-4.665295390091902,-5.364589100436468,0.8028310321457892,-1.9378395261757169,9.614689740475585,-5.024550035173221,5.198160904298484,-1.6417816212627623,-5.255819951730981,0.6131400978008933,4.870874778185398,0.42273350242791174,-2.9651318982606765,-9.335471432609651,1.1922435199802113,7.674972061910172,7.296617995112845,6.4230237286315255,-1.6543847574121533,6.786695584880148,8.840208347072451,5.107025945885623,8.502968686051391,3.6849697524571137,2.4900671715318192,-4.333659544132775,2.6748960550309024,6.463203205186385,-3.6327321102772108,9.16315463830879,-7.983050726955519,-6.170508814656443,0.4756454710356266,-5.42073263733906,6.926824949231797,1.9688390764705814,2.1836460060993694,-6.6841033937427135,-8.353523101544548,-6.644924225406383,-8.931312266513006,-7.834790468868234,2.992993547359311,-1.7848214013972667],"bias":[[9.023265899360096,2.601029166714934,-9.638281380756686,-2.7129868202625236,1.2080656833868477,-4.835612699300081,-10.310122325908862,-8.169788119765839,-8.35782786507554,2.758943183870756],[0.9556153372697874,6.540865702454784,0.9775264402951678,0.9361421758786592],[4.223138186371062]],"id":0,"number":138}
