{"architecture":{"NEURONS":[10,4,1],"LAYERS":3,"totalSynapses":44},"weights":[-4.665295390091902,-5.4853881938868865,0.457105237534109,-1.7496459200455534,9.25953378654231,-5.335089994611591,5.720417996395666,-1.6417816212627623,-4.892188944995975,0.6334545764939794,4.613015054550453,0.5081805776063385,-2.4469349875683064,-10.340645568610642,1.3472662120489305,7.860146485484852,7.827194166401714,6.834226888980992,-1.6543847574121533,6.786695584880148,8.435694954045925,4.511609491580095,8.502968686051391,3.6849697524571137,2.291116248153392,-3.599058718849616,2.972970784409032,6.608717394445629,-3.6327321102772108,9.643572489665381,-8.046242413925917,-6.133365381201581,0.4756454710356266,-5.6318464407978714,6.926824949231797,1.9037080768905348,2.097801208068802,-7.029643579152889,-8.520553111004771,-6.644924225406383,-9.113703444511664,-7.834790468868234,3.0429160941561237,-1.9525512234576912],"bias":[[-8.794516776592125,2.397709137657365,-9.638281380756686,-1.9541195842053987,-0.06946006751167677,-4.895779559722055,-8.899632809910104,-7.990626805104935,-8.388424246960192,3.1036824719236202],[0.6133414898719369,6.126909030636429,1.5416211751954296,1.0985903245711475],[4.147221977328602]],"id":0,"number":139}
