{"architecture":{"NEURONS":[10,7,1],"LAYERS":3,"totalSynapses":77},"weights":[3.3139117062791827,6.160720546211637,-9.37015584503153,8.425696125519966,-3.46748552737375,-6.59441431115103,9.672493897555277,5.697996477225591,2.6689605780392354,-8.735806108950687,7.294560806810747,8.717655217731664,-2.747531702840672,-5.413444865778913,4.278296621683965,5.052375675706832,1.2372776616324623,8.924248763359607,2.0804996460433727,-2.0195147743829143,0.787542059627949,-7.358810095741786,8.052572358624195,3.7182691756053843,-4.7385506077800565,-9.184790952485667,-5.666670900116232,-8.592169252643352,1.7025960890049046,0.8102748380640258,8.581265301464228,-2.2625224156334736,7.806918808953591,-1.6583903073653836,7.933630803013973,-4.931158766540795,8.315871897451895,8.398442578814803,-4.400075745615368,-1.6281478131799783,8.117245784859444,-10.006685339940255,-2.237166130160982,4.5921357700689045,9.917443152495629,-6.623114235643954,8.40383228122571,-5.969565509846248,-3.2477941797259264,8.648829820094411,-5.421518187325819,9.705452060626495,6.489155744840847,-3.384751788139664,6.224666311066276,-7.43625322946031,-5.290812409603935,-3.93870328368344,-3.5796265914186525,2.0003843334787668,-0.23967220056128974,-2.225601982870604,-6.983531267717301,6.633268233740636,7.91322985196958,5.184578548481,0.047334982902282136,-7.829869600029924,-5.864918907862355,-7.342738174031386,1.8669075338364858,-1.884195569670058,-3.522846689076491,8.05082030184198,-0.22671606895238122,-1.9891880361574539,-8.031501834424944],"bias":[[-4.933767775590086,-7.004064690359599,4.703839527706132,-5.722549812898065,0.9162113835830801,4.686462600642219,-1.5937555220434085,5.544092430631341,-4.706272505231869,5.187496946793143],[-1.357792283812369,-9.115624093727126,-8.333302730469772,8.126895586611063,-4.38760997410454,8.87765274175738,6.111354287156474],[3.2161910889000276]],"id":0,"number":14}
