{"architecture":{"NEURONS":[10,7,1],"LAYERS":3,"totalSynapses":77},"weights":[-4.211039116825049,4.444247120290011,1.3456668762131816,-2.3715846457322796,-5.73998922038409,9.583631156009549,5.930644245998865,-0.12556155664329152,2.0967702246605486,-0.7634017049665859,2.2219338416898515,-3.1840533318021227,10.020805684208241,7.4324924967897505,-3.0849798177387626,-2.596976016875014,-7.397850943599487,2.7898284656171604,-10.00021556047388,-9.554456103423567,5.724885520570068,-1.3175831185079812,-1.2341732924557558,5.69568339580067,-0.580446482244722,-6.052992737465013,0.6423288214353631,4.16030950730714,-1.055504948772695,3.7255492951118256,9.830104306692567,7.903338336987862,4.52423815485795,6.521965908686258,-9.316801983804998,4.8040818530083245,3.76628865882968,4.83364037541584,5.151000058284739,-2.151319752357874,5.023168499407553,-5.615618455741729,-7.023184546323749,2.222021660835506,-5.676186234009093,3.7869827794431554,-4.35012784886534,-0.29294124088604884,3.292423923912614,5.6648314424081345,1.9051604182139747,-8.333453909131197,7.2381738330068695,-4.951656867311686,-3.6641462918457743,-5.865105468556966,-5.95207482780267,4.519211628283262,-2.252907861584738,4.258301129620051,-6.243975973953674,-3.7766576148494386,6.962191294159613,-10.511966235343191,-4.230311972615313,-1.7505969610495444,-4.905710392322577,3.716033802898686,8.27777683240396,-0.7116837056681243,-6.181306788029405,3.6209870052421302,1.1707348916701414,-0.8780703426129848,7.20863955077658,5.598206951058948,-1.6733510634050235],"bias":[[-8.732784650646229,4.638241604243428,-5.548875646306544,4.314863274092017,2.683305266204946,8.258005171101646,8.210824509588035,-6.823940559693754,7.113156011808885,0.31243235240260936],[-0.43819132273486117,0.32535986613863466,-5.125665894882462,-8.43266573703175,1.3225305707505668,5.49387921939056,7.116903909021047],[-4.918166832955477]],"id":0,"number":14}
