{"architecture":{"NEURONS":[10,4,1],"LAYERS":3,"totalSynapses":44},"weights":[-4.614026517612267,-5.4853881938868865,0.8128689518760506,-2.417953859870532,9.255130220937472,-5.024550035173221,5.288640212663288,-1.6417816212627623,-5.255819951730981,0.6334545764939794,4.724945942596433,0.14100642459484702,-2.8965765370357563,-9.517439272720749,1.1922435199802113,7.811989472105126,7.827194166401714,6.4230237286315255,-1.6543847574121533,6.786695584880148,8.840208347072451,4.511609491580095,8.502968686051391,3.6849697524571137,2.4900671715318192,-3.657798705109186,2.4684404115260463,6.421662957762863,-3.6327321102772108,9.357610139709946,-7.983050726955519,-6.170508814656443,0.6081123703543149,-5.4647630950923,6.721221883223965,1.9688390764705814,2.1323429120681783,-6.909333715916499,-8.353523101544548,-6.590883710642767,-9.196867057440954,-7.889008183749217,2.992993547359311,-1.7140596680721631],"bias":[[9.46326702777559,2.6316874436163835,-9.638281380756686,-1.9541195842053987,1.2080656833868477,-4.839681153791948,-10.269381285714601,-7.990626805104935,-1.996610620690811,2.758943183870756],[1.0133874710394972,6.540865702454784,1.7338888378595065,0.9545290421615455],[3.9129742291117]],"id":0,"number":140}
