{"architecture":{"NEURONS":[10,4,1],"LAYERS":3,"totalSynapses":44},"weights":[-4.665295390091902,-5.4853881938868865,0.457105237534109,-2.0701939136094,9.137139727589679,-5.335089994611591,5.720417996395666,-1.6417816212627623,-5.255819951730981,0.6334545764939794,4.480467566933894,0.42273350242791174,-2.8965765370357563,-10.340645568610642,1.1922435199802113,7.8697040566544825,7.296617995112845,6.834226888980992,-1.9930045607671487,6.786695584880148,8.840208347072451,4.511609491580095,8.142895971153585,3.8759171569201505,2.3335516145830426,-4.333659544132775,2.4684404115260463,6.642275837974046,-3.6327321102772108,9.643572489665381,-8.046242413925917,-6.133365381201581,0.4756454710356266,-5.6318464407978714,6.926824949231797,1.9688390764705814,1.8012978676210385,-7.029643579152889,-8.520553111004771,-6.644924225406383,-9.196867057440954,-7.834790468868234,-1.6642928287263565,-1.912378196843066],"bias":[[9.46326702777559,2.397709137657365,-9.638281380756686,-2.7129868202625236,1.2365046231375083,-4.895779559722055,-10.269381285714601,-7.990626805104935,-5.008076815113947,3.1036824719236202],[0.6133414898719369,6.768733820891386,1.5403513395065875,1.0985903245711475],[4.352632778316925]],"id":0,"number":141}
