{"architecture":{"NEURONS":[10,4,1],"LAYERS":3,"totalSynapses":44},"weights":[-4.665295390091902,-5.4853881938868865,0.7070591604849189,-1.7496459200455534,9.25953378654231,-5.206374118548376,5.720417996395666,-1.6417816212627623,-4.892188944995975,0.6334545764939794,5.358083299486314,1.0702407935477458,-2.4469349875683064,-10.340645568610642,1.1922435199802113,7.860146485484852,7.827194166401714,6.4230237286315255,-1.4030037097464558,6.316921592380906,8.840208347072451,5.107025945885623,8.502968686051391,3.6849697524571137,2.4900671715318192,-4.333659544132775,2.6748960550309024,6.421662957762863,-3.6327321102772108,9.132657966871434,-7.983050726955519,-6.133365381201581,0.4756454710356266,-5.6318464407978714,6.926824949231797,1.9037080768905348,2.097967724569917,-6.6841033937427135,-8.520553111004771,-6.644924225406383,-9.075203664947402,-7.834790468868234,3.0429160941561237,-1.9349419572537072],"bias":[[-8.794516776592125,2.397709137657365,-9.638281380756686,-1.9878189791473981,1.2365046231375083,-4.835612699300081,-8.834877666551069,-7.833392412228027,-8.35782786507554,3.1036824719236202],[0.6133414898719369,6.540865702454784,1.5403513395065875,1.3806515267233368],[4.147221977328602]],"id":0,"number":142}
