{"architecture":{"NEURONS":[10,4,1],"LAYERS":3,"totalSynapses":44},"weights":[-4.606102982211457,-5.364589100436468,0.7070591604849189,-1.9378395261757169,9.639658946070826,-4.120240077496121,5.720417996395666,-1.293020519889763,-5.122807378484272,0.6620467090495489,4.6876387418150465,-0.0731285668810761,-2.4469349875683064,-9.975425122345332,1.3078081532762813,7.674972061910172,7.296617995112845,6.834226888980992,-1.4030037097464558,6.786695584880148,8.840208347072451,4.612294256625923,8.410773378202535,3.9189087425452973,2.49836303247021,-4.333659544132775,2.972970784409032,6.421662957762863,-3.9268502530126708,8.98259130995548,-7.819920975374329,-6.337371855635828,0.6081123703543149,-5.145389427081228,6.82844646261593,1.9688390764705814,2.1836460060993694,-6.967042957553917,-8.680480813413334,-6.644924225406383,-9.196867057440954,-7.834790468868234,-1.7296702132997988,-1.7848214013972667],"bias":[[9.023265899360096,2.4276113720825347,-9.638281380756686,-2.167583725451934,-0.06946006751167677,-4.835612699300081,-10.310122325908862,-7.833392412228027,-7.640944030166948,2.815548334707126],[0.545079778336739,6.12830302128247,1.5403513395065875,0.9361421758786592],[4.137440198098319]],"id":0,"number":143}
