{"architecture":{"NEURONS":[10,4,1],"LAYERS":3,"totalSynapses":44},"weights":[-4.688090282255296,-5.601828044446336,0.7070591604849189,-1.9378395261757169,9.255130220937472,-4.177991699836858,5.720417996395666,-2.0073587284017504,-5.255819951730981,1.0612333737856425,4.617522181130442,0.14100642459484702,-2.8965765370357563,-9.335471432609651,1.4710030324044536,7.811989472105126,7.296617995112845,6.86671257208736,-1.6543847574121533,6.443921324856632,8.840208347072451,4.508777901444375,8.37938079605675,3.6849697524571137,2.53780994464812,-3.657798705109186,3.0906351602499424,6.731137398633787,-3.460744467588569,10.164491358084174,-7.983050726955519,-6.170508814656443,0.34994932535437007,-5.6318464407978714,6.721221883223965,1.9688390764705814,2.097801208068802,-6.967042957553917,-8.680480813413334,-6.644924225406383,-9.264522256430908,-7.678876889617776,3.1537668505267007,-1.7140596680721631],"bias":[[9.46326702777559,2.2318564529337213,-9.638281380756686,-2.197631494829979,1.2080656833868477,-4.928497920444218,-8.834877666551069,-7.833392412228027,-5.179619280158846,3.139899983320444],[0.4146273978354399,6.049808409485493,1.7338888378595065,0.9361421758786592],[4.223138186371062]],"id":0,"number":144}
