{"architecture":{"NEURONS":[10,4,1],"LAYERS":3,"totalSynapses":44},"weights":[-4.520844076703542,-4.905907613772794,0.7070591604849189,-1.9378395261757169,9.255130220937472,-5.335089994611591,5.596592250624956,-1.499210293353737,-5.255819951730981,0.5160566729542366,4.724945942596433,0.45344592943751594,-2.8965765370357563,-9.623870883738265,1.0329253697447596,7.739073765342408,7.296617995112845,6.851683187777531,-1.7772620455065284,6.443921324856632,8.840208347072451,4.511609491580095,8.277262581129436,3.8759171569201505,2.4900671715318192,-4.333659544132775,2.5909414357567577,6.421662957762863,-3.6327321102772108,9.54795467039649,-7.983050726955519,-6.246387775934859,0.37720938436347695,-5.6318464407978714,6.721221883223965,1.9688390764705814,2.1836460060993694,-6.41395403310311,-8.860245313366478,-6.644924225406383,-9.196867057440954,-8.088025594524657,3.2214272557403953,-1.9349419572537072],"bias":[[9.46326702777559,2.4276113720825347,-9.104664776406269,-1.0407744236560732,1.5787243918302234,-4.839681153791948,10.053173657359892,-7.990626805104935,-5.008076815113947,2.9295186370018373],[0.6133414898719369,6.1443819056281415,1.5403513395065875,0.9545290421615455],[4.2931993124634005]],"id":0,"number":145}
