{"architecture":{"NEURONS":[10,4,1],"LAYERS":3,"totalSynapses":44},"weights":[-4.665295390091902,-5.4853881938868865,0.457105237534109,-1.6149978462947763,9.413538639948223,-5.335089994611591,5.596592250624956,-1.3727163907683768,-5.255819951730981,0.6890661216092095,4.708856928875991,0.45344592943751594,-2.929922427813115,-9.530266506750694,1.1922435199802113,7.860146485484852,7.523332054897846,6.4230237286315255,-1.7591282269081916,6.163553669588563,8.840208347072451,5.129349701682425,6.974631667937575,3.8759171569201505,2.4900671715318192,-3.599058718849616,2.6748960550309024,6.731137398633787,-3.763038810367318,9.54795467039649,-7.819920975374329,-6.201232396437504,0.4756454710356266,-5.653085423666335,6.546000366474242,2.4143925071359758,2.097801208068802,-7.237968581805246,-8.520553111004771,-3.6830993459803394,-9.19086643245582,-8.086878937262838,2.992993547359311,-1.7604626807642285],"bias":[[-8.794516776592125,2.397709137657365,-9.638281380756686,-1.9878189791473981,1.2365046231375083,-4.835612699300081,-10.43364752868346,-7.990626805104935,-8.388424246960192,2.9295186370018373],[0.6133414898719369,6.46662847632536,1.7338888378595065,0.9361421758786592],[4.352632778316925]],"id":0,"number":146}
