{"architecture":{"NEURONS":[10,4,1],"LAYERS":3,"totalSynapses":44},"weights":[-4.665295390091902,-5.601828044446336,0.7070591604849189,-1.868562485717351,9.255130220937472,-5.335089994611591,5.596592250624956,-1.2142240544938339,-5.019914112313327,0.6131400978008933,4.832369704062423,0.14100642459484702,-2.8965765370357563,-9.225412443929823,1.1429880103610948,7.739073765342408,7.827194166401714,6.86671257208736,-1.6543847574121533,6.886916726402373,8.840208347072451,4.511609491580095,6.974631667937575,3.6342256908511583,1.843978866329184,-3.4382344392770636,3.0906351602499424,6.421662957762863,-3.6327321102772108,8.866393998447238,-7.983050726955519,-6.246387775934859,0.6081123703543149,-5.4647630950923,6.926824949231797,2.0002471758167215,2.1836460060993694,-7.029643579152889,-8.520553111004771,-6.644924225406383,-9.196867057440954,-8.029592362249664,2.992993547359311,-1.9525512234576912],"bias":[[9.46326702777559,2.6316874436163835,-9.562469415455318,-2.197631494829979,-0.06946006751167677,-4.895779559722055,-10.310122325908862,-7.833392412228027,-8.622334256489202,2.9295186370018373],[0.6133414898719369,6.540865702454784,1.7338888378595065,0.9361421758786592],[4.223138186371062]],"id":0,"number":147}
