{"architecture":{"NEURONS":[10,4,1],"LAYERS":3,"totalSynapses":44},"weights":[-4.665295390091902,-5.4853881938868865,0.7070591604849189,-1.8377335141715438,9.137139727589679,-5.335089994611591,5.596592250624956,-1.499210293353737,-5.255819951730981,0.5160566729542366,4.832369704062423,0.5923910637826009,-2.929922427813115,-9.530266506750694,1.1922435199802113,7.860146485484852,7.827194166401714,6.4230237286315255,-1.315189184195693,7.077475108496152,8.435694954045925,4.511609491580095,6.974631667937575,3.6849697524571137,2.4900671715318192,-3.599058718849616,2.5909414357567577,6.409107601078321,-3.6327321102772108,9.54795467039649,-8.046242413925917,-6.201232396437504,0.47234100509150706,-5.6318464407978714,6.926824949231797,1.9688390764705814,2.0822083331921353,-6.967042957553917,-8.55252193772756,-6.644924225406383,-9.196867057440954,-7.834790468868234,3.1537668505267007,-1.604332273534826],"bias":[[9.560636049834713,3.4952569997677343,-9.527800625365526,-1.9878189791473981,-0.06946006751167677,-4.835612699300081,-8.834877666551069,-7.540248990238226,-8.640023559754038,2.9295186370018373],[0.6133414898719369,6.006288333226426,1.7338888378595065,0.9361421758786592],[3.9129742291117]],"id":0,"number":148}
