{"architecture":{"NEURONS":[10,4,1],"LAYERS":3,"totalSynapses":44},"weights":[-4.242378534692664,-4.905907613772794,0.7070591604849189,-1.498442727962372,9.255130220937472,-4.177991699836858,5.720417996395666,-1.6417816212627623,-4.892279455374321,0.5160566729542366,4.617522181130442,0.45344592943751594,-2.909145586668974,-9.335471432609651,1.4710030324044536,7.811989472105126,7.827194166401714,6.834972732922294,-1.7772620455065284,6.786695584880148,8.840208347072451,4.508777901444375,6.679313358616172,3.6849697524571137,2.4900671715318192,-4.333659544132775,3.0906351602499424,6.421662957762863,-3.460744467588569,9.132657966871434,-7.983050726955519,-6.337371855635828,0.34994932535437007,-5.6318464407978714,7.286500306031645,1.9688390764705814,2.1836460060993694,-6.842632543839729,-8.680480813413334,-6.644924225406383,-9.19086643245582,-7.834790468868234,2.974537878343753,-1.7140596680721631],"bias":[[9.518785716352006,2.6316874436163835,-9.638281380756686,-2.2010385029995523,1.2080656833868477,-4.835612699300081,10.053173657359892,-7.540248990238226,-5.179619280158846,2.8019837893549333],[0.4146273978354399,6.049808409485493,1.7338888378595065,1.5000664041723617],[4.223138186371062]],"id":0,"number":149}
