{"architecture":{"NEURONS":[10,7,1],"LAYERS":3,"totalSynapses":77},"weights":[3.5824043435641943,5.55721013730486,-9.447678836403917,7.700357681505384,-3.381652420960429,-6.775387075366588,10.376042243156574,5.69003423520445,2.705917060577121,-8.592864491618233,7.2965235345095625,7.842925975342117,-3.1275084235576944,-5.133667186335575,4.628887508614228,4.8025566695038995,1.5724783846367891,8.095139870296393,1.7843429900370738,-2.2485792895892187,1.003177516529406,-7.609357986432601,7.762404768408995,4.043848599823222,-5.057769172573122,-9.403570822981505,-5.339799821161349,-9.073764498445932,2.218287685670327,0.4880229161817943,8.460198528459657,-2.1897727308230586,7.40619727489112,-1.8513382286326316,7.941333751375683,-4.658248662558382,8.522956364009922,8.186543186965546,-4.392075455529565,-2.3051603364040223,8.383019531149529,-10.13725811222872,-1.8882916581307536,4.798327593382753,8.884058062639333,-6.9718491687140425,8.400755078408686,-6.184710664209649,-3.074935634705033,8.750003487720244,-5.599860776335274,9.227271005520919,6.614599168059375,-3.2242157889692784,5.591065898021565,-7.751692400131729,-5.502412726520216,-3.9829793328785223,-3.2155333274778912,2.184818919893608,-0.5656960101926969,-2.135863992976505,-7.279653415798278,7.18338335958796,7.866010281468689,5.335045126230315,-0.025646392991025863,-7.733808938139377,-5.864918907862355,-7.461016060752663,2.447350315718974,-1.7764327848648203,-3.004658454180407,8.043888503786125,0.05236317700434079,-1.5605223881882426,-7.633411001463688],"bias":[[-4.837746230498444,-6.649967555013202,3.9647563279053135,-5.367837427994347,1.2689684608963816,4.812042295658479,-1.1662147081843444,5.46627347434506,-5.072149418613768,4.390469698137481],[-1.5841015086935362,-10.029085028882015,-8.025128993738598,7.352063420101391,-4.468202652401101,8.276336999172932,6.057396266883796],[3.1601570268272265]],"id":0,"number":15}
