{"architecture":{"NEURONS":[10,4,1],"LAYERS":3,"totalSynapses":44},"weights":[-4.709186703141688,-4.968838130406673,0.7615603994746836,-1.8790420360856679,9.672015772416174,-4.6300155428823935,5.899998164343579,-1.3954975028025824,-5.844842554397221,-0.12583541397851916,4.613940636674918,0.42273350242791174,-2.62650791644905,-9.702049674102946,0.9424165758647985,8.057722165120712,7.800875908015513,6.708448801316237,-1.7360023092725463,6.7572627672355345,8.487163752574167,4.906528325556119,7.771731066353908,3.5722285386199637,1.979189450453073,-3.9520855578940552,2.4684404115260463,6.541283591073817,-3.3322049777484386,9.502114251845168,-7.868134781650866,-6.231854462400097,0.8421553878726407,-5.554267822974435,6.6811820446505985,1.7153931173358827,2.4062185276814403,-6.689976637295818,-8.731664980009548,-7.252084263256594,-8.680429400348162,-7.735914990535486,-1.236111253626187,-2.079935039054598],"bias":[[-8.625926697232106,2.194726609579458,-9.051363977118196,-2.1171945105377343,1.3311489911721885,-5.0547980389617395,-9.83565943536265,-7.933491300022403,-5.422056565021967,2.5673157780440334],[-6.7672952264587405,6.31210663927828,1.5403513395065875,0.6548853468030558],[4.636143817749678]],"id":0,"number":15}
