{"architecture":{"NEURONS":[10,7,1],"LAYERS":3,"totalSynapses":77},"weights":[-5.20063055100563,4.243324182805682,1.4379199097759527,-2.5788868556400084,-5.290747176830734,9.44258719327023,5.977928274915194,0.23299231892268027,2.2625316830886804,-0.4244615830007925,1.2902972982583807,-3.036974127633831,9.401948343923717,6.164281600363294,-2.6883672339916247,-2.7037881581745573,-7.664450308135944,3.0643167271055227,-10.525458963657224,-9.23519983675071,5.693181191412902,-1.1207522020983363,-2.1140558035068637,5.440095715205969,-0.36206126456013354,-6.848268212629334,0.14398965809177205,2.9592081370712284,-2.2188949781648173,3.2599737647172593,8.218632425484774,7.406671566376844,5.065621743632817,6.023880754358337,-9.559192238336443,5.338035376871538,4.688208282542689,4.912889834691329,5.606447740396877,-2.6824546012277475,4.922072567815873,-5.516381329024742,-5.932323916684731,2.090748267383767,-6.472964444830195,3.1039151926119732,-4.060871950807442,1.0340013594800987,3.0794047597239125,5.150093916936602,1.8892108743782465,-7.439715339088329,8.325803498609968,-5.022911462449643,-3.7378206643509158,-4.506133245854842,-6.07954049705301,3.431305561769714,-1.2833856603357519,4.215248930069579,-7.272371734648214,-3.757765691416585,7.320722216652727,-9.209857078947861,-3.8887192114620186,-2.1901079006104043,-5.400785033754527,3.20182211805146,8.111967038394882,-1.6749841817384798,-6.550267842102831,3.538240213538835,0.8752472639517098,-0.7958474153850452,7.827652216293292,5.831338190827306,-1.540626801691336],"bias":[[-7.5583200977811735,5.0541937692492525,-5.258703147498766,4.733276105319172,2.7987628512555762,8.440671332544188,7.981932777292806,-6.318948011971225,6.925573516690384,0.26632206507152634],[-0.9245184086960381,0.4898041148031605,-5.170324193731217,-8.357645857841298,-0.4259438654718992,6.345415412588716,7.2498361666304545],[-4.902525417518695]],"id":0,"number":15}
