{"architecture":{"NEURONS":[10,4,1],"LAYERS":3,"totalSynapses":44},"weights":[-4.606102982211457,-5.601828044446336,0.457105237534109,-1.9378395261757169,9.255130220937472,-4.120240077496121,5.720417996395666,-1.499210293353737,-5.255819951730981,1.0612333737856425,4.479234409671447,0.10166580734765127,-2.929922427813115,-9.335471432609651,1.4710030324044536,7.860146485484852,7.827194166401714,6.8669603847228995,-1.4926124363966795,6.375765481591062,9.33255729364196,4.508777901444375,8.363976100971549,3.9797884599816578,2.53780994464812,-4.333659544132775,3.0906351602499424,6.55591777992198,-3.497835324436728,9.56902143549128,-8.046242413925917,-6.170508814656443,0.34994932535437007,-5.4647630950923,6.721221883223965,1.9688390764705814,2.097801208068802,-7.237968581805246,-8.680480813413334,-6.901414877862052,-9.196867057440954,-7.678876889617776,2.992993547359311,-1.7140596680721631],"bias":[[9.518785716352006,2.5083315280877923,-9.638281380756686,-2.3158190747090135,1.2365046231375083,-4.743710379200642,-10.289145203212799,-7.540248990238226,-7.988273189092526,2.9295186370018373],[0.46697287174298074,6.540865702454784,1.5403513395065875,0.9361421758786592],[4.223138186371062]],"id":0,"number":150}
