{"architecture":{"NEURONS":[10,4,1],"LAYERS":3,"totalSynapses":44},"weights":[-4.606102982211457,-5.4853881938868865,0.7095913837887875,-2.4404635300200757,9.137139727589679,-4.749826083767172,5.720417996395666,-1.499210293353737,-5.255819951730981,0.6369835467346077,4.617522181130442,-0.0731285668810761,-2.4043283617327402,-9.225412443929823,1.1922435199802113,7.8697040566544825,7.827194166401714,6.46679054937565,-1.6543847574121533,6.163553669588563,8.435694954045925,5.107025945885623,8.459064336129288,3.9797884599816578,2.4900671715318192,-3.599058718849616,2.5909414357567577,6.173560433188055,-3.6327321102772108,8.98259130995548,-7.983050726955519,-6.417989566533949,0.6081123703543149,-5.4647630950923,7.2099660024667775,1.9688390764705814,2.278130151302889,-6.657773366795749,-8.353523101544548,-6.644924225406383,-9.196867057440954,-7.834790468868234,3.1537668505267007,-1.7140596680721631],"bias":[[8.717470871664307,2.4276113720825347,-9.638281380756686,-2.197631494829979,1.2365046231375083,-4.839681153791948,-8.899632809910104,-7.540248990238226,-7.988273189092526,2.9295186370018373],[0.4146273978354399,6.46662847632536,1.9755029150984023,1.1974782327872864],[4.352632778316925]],"id":0,"number":151}
