{"architecture":{"NEURONS":[10,4,1],"LAYERS":3,"totalSynapses":44},"weights":[-4.606102982211457,-5.908144789206902,0.7070591604849189,-2.0337325138186566,9.137139727589679,-5.335089994611591,5.720417996395666,-1.499210293353737,-5.255819951730981,0.6131400978008933,4.617522181130442,-0.0731285668810761,-2.929922427813115,-9.225412443929823,1.1429880103610948,7.674972061910172,7.095410003183454,6.4535478211412896,-1.6543847574121533,6.315609975100607,8.7410775024411,4.511609491580095,8.502968686051391,3.9189087425452973,2.4900671715318192,-3.599058718849616,2.5909414357567577,6.421662957762863,-3.6327321102772108,9.54795467039649,-7.819920975374329,-6.337371855635828,0.4756454710356266,-5.400408876090344,6.926824949231797,1.9688390764705814,2.1267829094174457,-6.842632543839729,-8.680480813413334,-6.3894407688674235,-9.196867057440954,-7.834790468868234,3.1537668505267007,-1.6729097214713504],"bias":[[9.33618165557221,3.4952569997677343,-9.638281380756686,-2.78399902205135,-0.06946006751167677,-4.835612699300081,-8.834877666551069,-8.096528346443291,-7.640944030166948,2.9295186370018373],[0.6926685357517633,6.845809476377393,1.7338888378595065,0.9361421758786592],[4.223138186371062]],"id":0,"number":153}
