{"architecture":{"NEURONS":[10,4,1],"LAYERS":3,"totalSynapses":44},"weights":[-4.665295390091902,-5.908144789206902,0.9445750211951557,-1.9378395261757169,9.137139727589679,-4.177991699836858,5.720417996395666,-1.499210293353737,-5.255819951730981,1.0612333737856425,4.617522181130442,-0.0731285668810761,-2.929922427813115,-9.225412443929823,1.1922435199802113,7.860146485484852,7.827194166401714,7.002952498566819,-1.5664863572631598,6.786695584880148,8.840208347072451,4.169986607181144,6.9194524799473776,3.6849697524571137,2.4900671715318192,-3.599058718849616,2.5909414357567577,6.70242001971257,-3.6327321102772108,8.98259130995548,-7.983050726955519,-6.337371855635828,0.34994932535437007,-5.4647630950923,6.926824949231797,1.9688390764705814,2.022896337467737,-6.830121887420269,-8.860245313366478,-3.6830993459803394,-9.196867057440954,-7.834790468868234,2.974537878343753,-1.6729097214713504],"bias":[[9.683714833928866,3.4952569997677343,-9.638281380756686,-2.197631494829979,0.7939119276738094,-4.835612699300081,-8.834877666551069,-7.990626805104935,-5.179619280158846,2.9295186370018373],[0.4146273978354399,5.832679407339024,1.7338888378595065,0.9361421758786592],[4.223138186371062]],"id":0,"number":154}
