{"architecture":{"NEURONS":[10,4,1],"LAYERS":3,"totalSynapses":44},"weights":[-4.606102982211457,-5.4853881938868865,0.7070591604849189,-1.498442727962372,9.137139727589679,-5.335089994611591,5.720417996395666,-1.499210293353737,-5.019914112313327,0.5160566729542366,4.779152146856028,0.45344592943751594,-2.929922427813115,-9.335471432609651,1.1429880103610948,7.860146485484852,7.827194166401714,6.46679054937565,-1.6543847574121533,6.516615395692702,8.840208347072451,4.511609491580095,8.37938079605675,3.6342256908511583,2.426394239433752,-3.599058718849616,2.5909414357567577,6.421662957762863,-3.6327321102772108,9.308836084103396,-7.819920975374329,-6.337371855635828,0.6081123703543149,-5.4647630950923,6.5979630940604554,1.7061578160618525,2.097801208068802,-6.41395403310311,-8.308261457586202,-6.644924225406383,-9.196867057440954,-7.834790468868234,2.992993547359311,-1.9525512234576912],"bias":[[9.518785716352006,2.6316874436163835,-9.638281380756686,-2.2010385029995523,-0.06946006751167677,-4.928497920444218,-8.899632809910104,-7.990626805104935,-7.988273189092526,2.8019837893549333],[0.4146273978354399,6.540865702454784,1.7338888378595065,0.9361421758786592],[4.2931993124634005]],"id":0,"number":155}
