{"architecture":{"NEURONS":[10,4,1],"LAYERS":3,"totalSynapses":44},"weights":[-4.181416276007376,-5.2213034847746105,0.7070591604849189,-1.498442727962372,9.255130220937472,-4.177991699836858,5.720417996395666,-1.1855914417842506,-5.277129407250461,0.6131400978008933,4.832369704062423,0.10166580734765127,-2.4469349875683064,-9.975425122345332,1.1922435199802113,7.860146485484852,7.928070300887729,6.391946037655272,-1.6543847574121533,6.786695584880148,8.435694954045925,4.34102719553162,8.37938079605675,3.6342256908511583,2.4900671715318192,-4.333659544132775,2.6748960550309024,6.203271433672969,-3.6327321102772108,8.98259130995548,-8.108697294066683,-6.201232396437504,0.4756454710356266,-5.6318464407978714,6.990163760487037,1.9688390764705814,2.4421987090464907,-6.528204883222966,-8.520553111004771,-6.644924225406383,-8.892783275424337,-7.834790468868234,3.2214272557403953,-1.7140596680721631],"bias":[[9.231372166912369,2.6316874436163835,-9.104664776406269,-1.7352674039446354,0.7939119276738094,-4.835612699300081,-10.310122325908862,-7.540248990238226,-8.640023559754038,2.815548334707126],[0.6133414898719369,6.435304713510735,1.5403513395065875,0.9361421758786592],[4.223138186371062]],"id":0,"number":156}
