{"architecture":{"NEURONS":[10,4,1],"LAYERS":3,"totalSynapses":44},"weights":[-4.665295390091902,-5.4853881938868865,0.9445750211951557,-1.9378395261757169,9.137139727589679,-5.335089994611591,5.720417996395666,-1.499210293353737,-5.019914112313327,0.4670303179045965,4.617522181130442,-0.0731285668810761,-2.929922427813115,-9.335471432609651,1.1922435199802113,7.860146485484852,7.827194166401714,6.46679054937565,-1.5664863572631598,7.02048352553888,8.840208347072451,4.511609491580095,8.598872559380142,3.9189087425452973,2.6026736824751753,-4.333659544132775,2.5909414357567577,6.70242001971257,-3.6327321102772108,8.98259130995548,-8.18757884399232,-6.337371855635828,0.34994932535437007,-5.6318464407978714,7.2099660024667775,1.9688390764705814,2.022896337467737,-6.967042957553917,-8.522284649880179,-6.644924225406383,-8.968656609569152,-7.834790468868234,2.932312981114668,-1.9349419572537072],"bias":[[9.518785716352006,2.6316874436163835,-9.439123092032128,-2.197631494829979,0.7939119276738094,-4.895779559722055,-8.834877666551069,-7.990626805104935,-5.179619280158846,2.8019837893549333],[0.22063868265976996,6.540865702454784,1.7338888378595065,0.9909742763537375],[4.341371863207751]],"id":0,"number":157}
