{"architecture":{"NEURONS":[10,4,1],"LAYERS":3,"totalSynapses":44},"weights":[-4.242378534692664,-5.601828044446336,0.7070591604849189,-1.6149978462947763,9.255130220937472,-4.125912951956998,5.720417996395666,-1.3653097999912416,-5.6121644535540405,1.0612333737856425,4.521302980427487,-0.0731285668810761,-2.929922427813115,-9.225412443929823,1.1429880103610948,7.958501462601825,7.827194166401714,7.002283047957019,-1.6543847574121533,6.443921324856632,9.33255729364196,4.706113817413361,8.277262581129436,3.6235602602196364,2.435243427459426,-4.333659544132775,2.5909414357567577,6.421662957762863,-3.6327321102772108,9.308836084103396,-8.046242413925917,-6.246387775934859,0.6143408360794346,-5.4647630950923,7.164310553944533,1.9688390764705814,2.1836460060993694,-7.3128834395289735,-8.520553111004771,-3.6830993459803394,-9.196867057440954,-7.834790468868234,-1.9150374622359878,-1.7140596680721631],"bias":[[9.595573188053208,3.4952569997677343,-9.214736052904628,-2.2010385029995523,-0.06946006751167677,-4.928497920444218,-10.310122325908862,-7.990626805104935,-7.640944030166948,2.8019837893549333],[0.4146273978354399,6.049808409485493,1.247378665288758,0.9909742763537375],[4.2931993124634005]],"id":0,"number":158}
