{"architecture":{"NEURONS":[10,4,1],"LAYERS":3,"totalSynapses":44},"weights":[-4.242378534692664,-5.908144789206902,0.9445750211951557,-1.9378395261757169,9.24747274166225,-4.177991699836858,5.720417996395666,-1.263970002985095,-5.019914112313327,1.0612333737856425,4.7923386132259544,-0.11810695460352943,-3.0098804515523105,-9.736390510734948,1.1922435199802113,7.860146485484852,7.827194166401714,6.834226888980992,-1.6792411829939826,6.316921592380906,8.840208347072451,4.511609491580095,8.598872559380142,3.6849697524571137,2.53780994464812,-4.333659544132775,2.2528019893688773,6.70242001971257,-3.4867594575428815,9.56902143549128,-7.983050726955519,-6.337371855635828,0.34994932535437007,-5.502808740391163,6.926824949231797,1.9688390764705814,2.097801208068802,-6.919461619881252,-8.860245313366478,-3.6830993459803394,-8.968656609569152,-7.730769237069701,2.992993547359311,-2.160446038317972],"bias":[[9.518785716352006,2.6702911167607377,-9.638281380756686,-2.78399902205135,0.7939119276738094,-4.929699410990477,-8.834877666551069,-7.990626805104935,-5.179619280158846,2.9295186370018373],[0.4146273978354399,5.832679407339024,1.7338888378595065,0.9361421758786592],[4.223138186371062]],"id":0,"number":159}
