{"architecture":{"NEURONS":[10,7,1],"LAYERS":3,"totalSynapses":77},"weights":[3.577221101436934,5.249614970359902,-9.036932523301545,8.311642595373801,-2.7129479797968443,-6.651058865138964,9.432116272095463,5.573948450074726,3.1186184363322775,-8.385107959040145,7.367569325128103,8.58533841071195,-2.7080612513416336,-5.339675534771299,3.9431739206068173,5.02073250262129,1.5389184320996692,8.02962320148636,2.183449176851881,-2.0528845625373737,1.10421561922723,-7.26537140333485,7.675108373859103,4.108051331723333,-4.464842500152063,-9.330862287698615,-5.501292818817192,-8.567672346482873,2.0995451638152596,0.38719958415966504,9.040329964278238,-1.898388316972977,6.849171815577468,-1.5355012821043545,8.004200923614485,-4.513764276256144,8.655239870858232,8.461852703456564,-4.389939799646137,-2.050418618031689,8.536086794844438,-9.796468312967257,-2.1919802617679305,4.717022527912562,9.495768362697985,-6.833471895674478,8.16213861887508,-5.404574762270203,-2.960979967344734,8.878114591527336,-5.4968116615654,8.892217652885378,6.376829899632823,-3.572406481582431,6.269889804020558,-7.43625322946031,-5.7178142300961925,-3.26182498158103,-3.286582967519707,1.8573377777898037,0.08711644044389821,-1.7999478347258173,-7.334277178388813,6.53685884418023,8.549222106456769,5.044483599207416,0.04647402366241593,-8.06331306904262,-5.864918907862355,-7.667696433527906,1.785604228273881,-1.695096051943545,-3.643858347448235,7.625872955489765,0.4034002715020981,-1.1834087652355474,-7.484296922626771],"bias":[[-4.899252820242753,-6.682372236733465,3.709700703904399,-6.110402465506514,0.9797648905545207,4.911699098215291,-1.6897377624837755,5.505462677669658,-4.859023207110691,4.938398336321685],[-1.357792283812369,-9.180335895763742,-8.630269570122849,7.424479736242287,-4.503234562532251,8.680273781290053,6.333928024165957],[3.4981976435339757]],"id":0,"number":16}
