{"architecture":{"NEURONS":[10,7,1],"LAYERS":3,"totalSynapses":77},"weights":[-3.7245499633823544,3.6899480690506388,2.3640749256671163,-2.2057270707566645,-5.721526615752007,9.0375895235219,5.648705306659969,-0.3122784851123299,2.001579184873451,-1.2261570176239776,2.032053721941085,-3.4705108092028474,9.343234290851203,6.684945253462984,-2.793423510029544,-2.6966043533329143,-7.554094650803531,3.1660039409755854,-9.998775089146385,-8.523615744612448,6.700425223844355,-1.1226187512615853,-1.9977156289414026,5.876050882159098,1.095077324084701,-6.142247421298225,0.4700373246379538,3.4768037552301765,-1.1722986877681065,4.505448773116671,8.304724624512502,7.7539010229436425,5.32669699273871,6.6805825564873365,-9.313498845342503,4.669345494410108,4.779941844085079,4.014211183350203,4.671130505994512,-1.8856564503525552,4.242220115637219,-4.6220629467328465,-5.3943263631447245,2.012679082301188,-6.535876069472894,5.120902709632706,-4.525773050348683,-0.29424860018879573,3.047670979353592,6.113963101319935,2.1437670235956983,-7.228770252045816,6.976501400592398,-5.953890069105271,-4.014213833607021,-4.911920179020155,-6.425588257134562,3.3058180290416774,-1.2784397587018426,3.6817948910802154,-6.768401040507285,-3.6074401705330534,6.792266056805232,-9.711892091378202,-3.5964048384655647,-2.6404034516958026,-5.951742482031531,3.1454177909003485,9.859943503137828,1.0991429845011287,-6.038665787222429,4.527353972903227,1.5166775826701349,-0.521942874686929,7.725115537027071,4.835631001697357,-1.5051941767418986],"bias":[[-7.8880342680483615,4.6803905460451345,-4.231748676185541,5.1528304198549195,3.1447380788940515,8.290029255767001,7.721570598524431,-7.037926463116741,8.33641033887393,0.537124817072637],[-1.2757137648925214,-0.46866298185423433,-5.158998454093798,-7.823191570739109,0.7240527313964752,6.163334341652034,6.960063647001012],[-4.876606363042467]],"id":0,"number":16}
