{"architecture":{"NEURONS":[10,4,1],"LAYERS":3,"totalSynapses":44},"weights":[-4.629214945802276,-4.93585758157405,1.1646097100000672,-1.8790420360856679,9.240974075886136,-4.6300155428823935,5.899998164343579,5.601886597981708,-5.383192144686676,0.30204358396165065,4.708270376896566,0.42273350242791174,-2.7415108708327938,-9.702049674102946,1.1651003854569895,8.057722165120712,8.108125464494137,7.048453468937119,-1.7360023092725463,6.7572627672355345,8.490165300461314,4.906528325556119,7.771731066353908,3.5722285386199637,1.5175408964522492,-4.037378873150811,2.4684404115260463,6.541283591073817,-3.3322049777484386,9.502114251845168,-7.868134781650866,4.648470359656932,0.8421553878726407,-5.554267822974435,6.892835215203443,1.3192503181469597,2.9905205291909667,-6.961985987923902,-8.283175693541263,-3.750305328389405,-9.00873531356532,-7.735914990535486,7.102859600727662,-2.0618273056311502],"bias":[[-8.625926697232106,-2.1094426439824465,-9.638281380756686,-2.538917210872005,1.3311489911721885,-5.176203419913459,-9.91867120468144,-7.910820923819324,-5.403516043075249,2.9387931116759454],[-6.7672952264587405,6.319568422239711,1.5403513395065875,0.5806754508554517],[4.636143817749678]],"id":0,"number":16}
