{"architecture":{"NEURONS":[10,4,1],"LAYERS":3,"totalSynapses":44},"weights":[-4.242378534692664,-5.908144789206902,0.457105237534109,-1.9878433210284232,9.255130220937472,-4.125912951956998,5.720417996395666,-1.075767357368138,-5.255819951730981,1.0612333737856425,4.521302980427487,0.14100642459484702,-2.929922427813115,-9.975425122345332,1.1429880103610948,7.860146485484852,7.827194166401714,6.840399887230194,-1.6543847574121533,6.443921324856632,8.76565475511173,4.706113817413361,8.316187036043402,3.6235602602196364,2.435243427459426,-4.523201389861373,2.3180113210628877,6.482459068209838,-3.6327321102772108,9.56902143549128,-8.046242413925917,-6.214615526057628,0.34994932535437007,-5.4647630950923,7.161424487641152,1.9688390764705814,2.1836460060993694,-6.41395403310311,-8.520553111004771,-6.93610231347768,-9.377747250055835,-7.834790468868234,3.1150378213814687,-1.3775220123863425],"bias":[[9.231372166912369,3.4952569997677343,-9.214736052904628,-2.2010385029995523,-0.1422762301443371,-4.741849465708496,-10.310122325908862,-7.990626805104935,-7.640944030166948,2.8019837893549333],[0.4146273978354399,6.049808409485493,1.5403513395065875,0.9361421758786592],[4.223138186371062]],"id":0,"number":160}
