{"architecture":{"NEURONS":[10,4,1],"LAYERS":3,"totalSynapses":44},"weights":[-4.606102982211457,-5.4853881938868865,0.9445750211951557,-1.9378395261757169,9.24747274166225,-4.749826083767172,5.720417996395666,-1.6025780387935955,-5.019914112313327,0.6131400978008933,4.617522181130442,0.592656482077182,-2.929922427813115,-9.335471432609651,1.1922435199802113,7.957059680191521,7.827194166401714,6.834226888980992,-1.6792411829939826,6.423212614518965,8.7410775024411,4.719781011561471,8.598872559380142,3.6849697524571137,2.53780994464812,-3.599058718849616,2.3180113210628877,6.173560433188055,-3.557254751570564,9.56902143549128,-7.983050726955519,-6.214615526057628,0.34994932535437007,-5.502808740391163,6.926824949231797,1.9688390764705814,2.097801208068802,-6.919461619881252,-8.353523101544548,-3.6830993459803394,-9.377747250055835,-7.730769237069701,2.992993547359311,-1.6729097214713504],"bias":[[9.328421720824204,2.5083315280877923,-9.638281380756686,-2.197631494829979,-0.06946006751167677,-4.895779559722055,-8.834877666551069,-8.062952722968388,-5.179619280158846,3.0115440678144525],[0.4146273978354399,6.554884019796523,1.9131393198881994,0.699345318141027],[4.223138186371062]],"id":0,"number":161}
