{"architecture":{"NEURONS":[10,4,1],"LAYERS":3,"totalSynapses":44},"weights":[-4.74511987616807,-5.601828044446336,0.9445750211951557,-1.9378395261757169,9.916435199153222,-4.120240077496121,5.720417996395666,-1.075767357368138,-5.255819951730981,0.5160566729542366,4.7923386132259544,-0.0731285668810761,-3.0098804515523105,-9.335471432609651,1.1922435199802113,7.860146485484852,7.904739650739613,6.1790935297416105,-1.6792411829939826,6.443921324856632,9.33255729364196,4.511609491580095,8.598872559380142,3.6342256908511583,2.53780994464812,-3.599058718849616,2.972970784409032,6.421662957762863,-3.6327321102772108,9.56902143549128,-7.868134781650866,-6.170508814656443,0.7029832667840672,-5.4647630950923,6.926824949231797,1.7054008293317873,2.251276537192888,-6.919461619881252,-8.520553111004771,-6.999701216643108,-9.196867057440954,-7.834790468868234,3.1150378213814687,-1.9349419572537072],"bias":[[9.470181274015212,2.4276113720825347,-9.79920431223503,-2.78399902205135,-0.06946006751167677,-4.835612699300081,-10.310122325908862,-8.062952722968388,-7.640944030166948,2.9295186370018373],[0.4146273978354399,6.1443819056281415,1.5403513395065875,0.9361421758786592],[4.223138186371062]],"id":0,"number":162}
