{"architecture":{"NEURONS":[10,4,1],"LAYERS":3,"totalSynapses":44},"weights":[-4.74511987616807,-5.601828044446336,0.9445750211951557,-1.9378395261757169,9.255130220937472,-5.288209983145964,5.720417996395666,-1.499210293353737,-5.255819951730981,0.5160566729542366,4.7923386132259544,0.592656482077182,-2.8965765370357563,-9.335471432609651,1.1922435199802113,7.860146485484852,7.807963607808103,6.46679054937565,-1.6543847574121533,6.443921324856632,9.33255729364196,4.706113817413361,8.459064336129288,3.9797884599816578,2.53780994464812,-3.599058718849616,2.972970784409032,6.70242001971257,-3.6327321102772108,9.56902143549128,-7.868134781650866,-6.170508814656443,0.29439162788761114,-5.400408876090344,6.926824949231797,1.9688390764705814,2.251276537192888,-6.41395403310311,-8.520553111004771,-6.999701216643108,-8.968656609569152,-7.834790468868234,-1.9150374622359878,-1.5410708770791834],"bias":[[-8.828992220621714,2.4276113720825347,-9.79920431223503,-2.78399902205135,-0.06946006751167677,-4.835612699300081,-8.834877666551069,-8.062952722968388,-7.151139198396101,2.9295186370018373],[0.4146273978354399,5.984417608574208,1.9131393198881994,0.9545290421615455],[4.223138186371062]],"id":0,"number":163}
