{"architecture":{"NEURONS":[10,4,1],"LAYERS":3,"totalSynapses":44},"weights":[-4.794480014609166,-5.601828044446336,0.6719032628346697,-1.9378395261757169,9.137139727589679,-4.177991699836858,5.720417996395666,-1.499210293353737,-5.255819951730981,0.6334545764939794,4.7923386132259544,-0.0731285668810761,-2.652431062768277,-9.335471432609651,1.1061300106164307,7.860146485484852,7.827194166401714,6.46679054937565,-1.6543847574121533,6.395720243783107,8.76565475511173,4.706113817413361,8.459064336129288,3.9797884599816578,1.9542550187647265,-4.333659544132775,2.972970784409032,6.482459068209838,-3.267080131577633,9.56902143549128,-7.983050726955519,-6.201232396437504,0.42906557977124526,-5.502808740391163,6.963918990298102,1.7054008293317873,2.1836460060993694,-6.888717656652811,-9.032570050408916,-6.999701216643108,-8.72942331286451,-7.6344644718666,3.1150378213814687,-1.7140596680721631],"bias":[[9.328421720824204,2.5083315280877923,-9.214736052904628,-2.197631494829979,1.2365046231375083,-4.929699410990477,-8.834877666551069,-7.584323231996541,-7.640944030166948,2.9295186370018373],[0.4146273978354399,6.46662847632536,1.9131393198881994,0.9545290421615455],[4.223138186371062]],"id":0,"number":164}
