{"architecture":{"NEURONS":[10,4,1],"LAYERS":3,"totalSynapses":44},"weights":[-4.606102982211457,-5.4853881938868865,0.6724137184468164,-2.038867751204319,9.255130220937472,-5.007955684877898,5.211213919870234,-1.499210293353737,-5.457558800166373,0.6334545764939794,4.779152146856028,0.2842801250370552,-2.7814229783285938,-9.736390510734948,1.253654298191351,7.860146485484852,7.807963607808103,6.834226888980992,-1.7503078299695658,6.375765481591062,9.33255729364196,4.706113817413361,8.362533850361107,3.7680776655743533,2.53780994464812,-4.333659544132775,2.3180113210628877,6.173560433188055,-3.665255838514292,9.308836084103396,-7.983050726955519,-6.337371855635828,0.7029832667840672,-5.4647630950923,6.926824949231797,1.9659439546445239,2.251276537192888,-6.967042957553917,-8.309702596121284,-3.6830993459803394,-8.716711584785848,-7.968907462554266,2.646848735158173,-1.8272430862870286],"bias":[[9.285606859426375,2.878454439444027,-9.638281380756686,-2.78399902205135,-0.06946006751167677,-4.929699410990477,-10.310122325908862,-7.990626805104935,-8.622334256489202,2.815548334707126],[0.3986906795686352,6.46662847632536,1.6080022079031948,0.539118081406645],[4.1870882788151285]],"id":0,"number":165}
