{"architecture":{"NEURONS":[10,4,1],"LAYERS":3,"totalSynapses":44},"weights":[-4.601460240492752,-5.601828044446336,0.457105237534109,-1.9378395261757169,9.24747274166225,-5.288209983145964,5.591293100234812,-1.499210293353737,-5.255819951730981,0.5160566729542366,4.617522181130442,-0.0731285668810761,-2.929922427813115,-9.15823065783623,1.1922435199802113,7.860146485484852,7.827194166401714,6.46679054937565,-1.6543847574121533,6.4738226562416505,8.840208347072451,4.706113817413361,8.459064336129288,3.9797884599816578,1.9039745094286624,-3.599058718849616,2.3180113210628877,6.173560433188055,-3.750819809948143,9.56902143549128,-7.967133683195322,-6.214615526057628,0.34994932535437007,-5.587571373855956,6.963918990298102,1.9688390764705814,2.077564702842377,-6.830121887420269,-8.520553111004771,-3.6830993459803394,-9.264522256430908,-7.834790468868234,3.2214272557403953,-1.7629856720832064],"bias":[[9.328421720824204,2.878454439444027,-9.638281380756686,-1.7352674039446354,-0.06946006751167677,-4.835612699300081,-10.310122325908862,-7.540248990238226,-8.622334256489202,3.0115440678144525],[0.4146273978354399,6.049808409485493,1.9131393198881994,0.9545290421615455],[4.223138186371062]],"id":0,"number":166}
