{"architecture":{"NEURONS":[10,4,1],"LAYERS":3,"totalSynapses":44},"weights":[-4.794480014609166,-5.908144789206902,0.6719032628346697,-1.9378395261757169,9.137139727589679,-4.125912951956998,5.211213919870234,-1.499210293353737,-5.019914112313327,0.6334545764939794,4.617522181130442,-0.0731285668810761,-3.0608480627110333,-9.15823065783623,1.1061300106164307,7.860146485484852,7.827194166401714,6.834226888980992,-1.6543847574121533,6.316921592380906,8.884910753505197,4.65547860750044,8.459064336129288,3.6342256908511583,1.9542550187647265,-4.333659544132775,2.3180113210628877,6.482459068209838,-3.267080131577633,9.56072329181114,-7.983050726955519,-6.170508814656443,0.34994932535437007,-5.4647630950923,6.82949724442497,1.9688390764705814,2.077564702842377,-7.416571657429484,-8.604638277873633,-6.999701216643108,-8.968656609569152,-7.834790468868234,3.2214272557403953,-1.7475580937238606],"bias":[[9.470181274015212,2.5083315280877923,-9.79920431223503,-2.184499662780779,1.0880284279474388,-4.928497920444218,-10.310122325908862,-7.555069750287591,-7.640944030166948,2.9295186370018373],[0.7183293229796848,6.46662847632536,1.5403513395065875,0.9545290421615455],[4.223138186371062]],"id":0,"number":167}
