{"architecture":{"NEURONS":[10,4,1],"LAYERS":3,"totalSynapses":44},"weights":[-4.606102982211457,-5.748100617883309,0.6719032628346697,-1.9378395261757169,9.24747274166225,-4.696910130104422,5.307006078548533,-0.8486898639338121,-4.938406819868527,0.0633902574885774,4.723052317895489,-0.0731285668810761,-2.739349856910935,-9.736390510734948,0.9759711032891677,7.650707609038919,7.807963607808103,6.9507773363508125,-1.6543847574121533,6.346277250557954,9.18293242128955,4.719781011561471,8.459064336129288,3.6342256908511583,2.421916690938464,-3.599058718849616,2.7379219560337624,6.173560433188055,-3.6327321102772108,9.56902143549128,-7.983050726955519,-6.214615526057628,0.7029832667840672,-5.252820399388866,6.926824949231797,2.0089520497311124,2.1836460060993694,-6.41395403310311,-8.401427774947393,-3.6830993459803394,-9.377747250055835,-7.834790468868234,3.2214272557403953,-1.7475580937238606],"bias":[[-8.828992220621714,2.4276113720825347,-9.214736052904628,-2.8904957727566485,-0.06946006751167677,-4.928497920444218,-10.310122325908862,-7.990626805104935,-7.550588231638285,2.815548334707126],[0.3986906795686352,6.1058401960354525,1.9131393198881994,0.9361421758786592],[4.223138186371062]],"id":0,"number":168}
