{"architecture":{"NEURONS":[10,4,1],"LAYERS":3,"totalSynapses":44},"weights":[-4.606102982211457,-5.601828044446336,0.457105237534109,-1.9544410644398431,9.255130220937472,-5.288209983145964,5.307006078548533,-0.8486898639338121,-5.019914112313327,0.6334545764939794,4.7923386132259544,0.592656482077182,-2.929922427813115,-9.736390510734948,1.1922435199802113,7.860146485484852,7.827194166401714,6.834226888980992,-1.1657428009983515,6.3501743837455145,8.76565475511173,4.719781011561471,8.598872559380142,3.6342256908511583,1.9542550187647265,-3.599058718849616,2.3180113210628877,6.482459068209838,-3.6327321102772108,9.56902143549128,-7.983050726955519,-6.214615526057628,0.7029832667840672,-5.573767463195278,6.963918990298102,1.9688390764705814,1.9936089082088453,-6.77938061406652,-7.904745145540711,-3.6830993459803394,-9.377747250055835,-7.834790468868234,3.2214272557403953,-1.6729097214713504],"bias":[[9.328421720824204,3.4952569997677343,-9.214736052904628,-2.78399902205135,-0.06946006751167677,-4.929699410990477,-8.834877666551069,-7.540248990238226,-7.406827638169471,3.1362815450717996],[0.4146273978354399,6.46662847632536,1.5403513395065875,0.9545290421615455],[4.223138186371062]],"id":0,"number":169}
