{"architecture":{"NEURONS":[10,7,1],"LAYERS":3,"totalSynapses":77},"weights":[-3.684793794285651,9.46453303293284,-9.911186089061887,5.1968400539417665,-8.897407451373734,9.387263209359556,5.777296699050377,3.9045575816388696,0.714991173520337,-5.123473459725081,-0.1544670279667517,-1.7277174696206397,2.7179730456265494,-4.452464890669758,0.6333550043216998,8.855982844060676,-8.095495674630328,8.78468902782823,-7.215317748700073,5.445446722624798,-2.090900870209794,-9.58970513711898,6.8949409202834575,-2.4979588803450428,0.983361498678877,6.652723753236116,7.319514854303643,-1.8917151911284467,6.567993856302633,0.5686900562878586,-0.9654145078492435,-1.6139069904779055,1.5777162463296184,9.323727717329126,-5.8538462051346185,-6.8661766799603825,-2.6972123199440983,4.984342180726648,5.287714308677116,6.596151089812793,-7.778098379384323,5.181131712716109,8.75164948489756,-7.3386421789006455,-7.370871496396212,-4.174194321539054,-6.411260879132415,5.502346013466558,-0.3426504219293641,5.9357349054346,-1.0461414340174315,-5.95228429302231,-1.4464324390862813,9.910848789579022,-8.468490774034281,-8.277696878030946,-8.392271301931457,8.810207650621441,-8.546451961027259,-7.081469529169569,5.650845321273382,7.7734847797251465,0.6271926920890639,7.667057503367101,-5.565566276841041,8.766583010417444,0.5381468696229026,-9.522982457591171,-1.3564814074156273,-8.768562511132187,7.393907810314569,-7.4495634857827495,-5.281539848151193,7.074081088867076,7.902443116814401,-7.320536415598526,7.0832922873042286],"bias":[[6.234161914066829,0.6890141183176683,6.72481754631964,-7.7536916990701865,-0.056279878926333904,-8.931366720294575,-0.7025514931071961,-0.6625399322308516,6.295264404943452,-3.9889416818312498],[5.112774000378996,-0.9735702785784878,3.696241406684232,-6.142272800881254,6.631853661261635,6.12595968670277,-7.496677943003039],[6.024834130371993]],"id":0,"number":17}
