{"architecture":{"NEURONS":[10,7,1],"LAYERS":3,"totalSynapses":77},"weights":[-4.264109991915043,4.292700062225692,1.761429136637009,-2.2831884024640585,-6.114677896129129,9.669371807376958,6.359585434974465,0.35029279928411294,2.2482231038513367,-1.2179087073424868,1.739721357610366,-3.1304153396790375,9.363677319519631,6.880065268018313,-2.845971177674988,-1.9996087076537283,-7.013684820465399,3.217474889789458,-9.680017247778178,-9.343915153525435,6.016833930256759,-1.482111330051016,-2.0667247414721626,6.492172203347244,-1.5869235963784567,-6.869297806185862,0.3108171901398093,4.069844665013908,-1.1183987280319887,3.9050227619487026,7.946255939742349,7.236065697395448,4.134282528232952,6.1861100891303105,-8.828750318654984,4.5455860112759225,4.710983679037925,4.672044969636557,5.1152461166219485,-2.635868270888289,5.059289999922009,-6.029213733622149,-5.342344622185745,2.414062989425254,-7.0584661309211345,4.0822460158300355,-3.240332053758288,0.07970393102068102,3.0596041057716357,6.531010694591651,1.4063517456134602,-8.285148923270178,6.592662019994789,-5.4344590932331895,-3.5387964576409736,-5.356451168168938,-6.459790107582752,3.222956179389475,-0.5905511023991211,3.667966444941873,-7.001324362081769,-3.002556287431311,6.390498100499642,-9.553547070264564,-4.248565852648069,-2.582372240254594,-5.0001831757168835,3.549757192076045,7.031137963369132,-0.5153517963066281,-5.527985380932107,4.6173870302705495,0.6717464816103835,-0.534158570038164,7.08190968596122,5.654514364415727,-0.8879970041436659],"bias":[[-7.670215986911728,4.846932411743363,-4.257685406973734,4.914637822103497,1.9017578080719881,8.518103334083559,8.673946840386447,-5.921217744741794,6.839389663864791,-0.44294936581407357],[-0.9406715512906203,-0.01725561474840964,-5.115014675528853,-7.882310272332046,0.5934404244080764,6.330306724157947,6.797724525323946],[-5.013561723260499]],"id":0,"number":17}
