{"architecture":{"NEURONS":[10,4,1],"LAYERS":3,"totalSynapses":44},"weights":[-4.665295390091902,-5.601828044446336,0.6719032628346697,-1.9378395261757169,9.24747274166225,-5.288209983145964,5.211213919870234,-1.263970002985095,-5.255819951730981,0.5160566729542366,5.243064719738459,-0.0731285668810761,-2.8965765370357563,-9.736390510734948,1.1922435199802113,7.860146485484852,7.827194166401714,6.5912401491135135,-1.6543847574121533,6.317883550245989,9.33255729364196,4.65547860750044,8.459064336129288,3.6342256908511583,1.9542550187647265,-4.333659544132775,2.3180113210628877,6.482459068209838,-3.6327321102772108,9.56902143549128,-7.9694981943341245,-6.170508814656443,0.244741411815373,-5.4647630950923,6.4668619961670135,1.9688390764705814,2.097801208068802,-6.41395403310311,-9.032570050408916,-6.999701216643108,-8.696693449708109,-7.834790468868234,3.3635557716935445,-1.9619796599805834],"bias":[[-8.828992220621714,2.4276113720825347,-9.214736052904628,-1.7352674039446354,-0.06946006751167677,-4.928497920444218,-8.834877666551069,-7.982703379072622,-8.622334256489202,2.815548334707126],[0.7183293229796848,5.984417608574208,1.5331040694246238,0.539118081406645],[4.223138186371062]],"id":0,"number":170}
