{"architecture":{"NEURONS":[10,4,1],"LAYERS":3,"totalSynapses":44},"weights":[-4.606102982211457,-5.4853881938868865,0.9445750211951557,-1.9378395261757169,9.24747274166225,-4.125912951956998,5.211213919870234,-0.8486898639338121,-5.019914112313327,0.6334545764939794,4.723052317895489,0.2842801250370552,-2.8965765370357563,-9.736390510734948,1.253654298191351,7.860146485484852,7.807963607808103,6.9507773363508125,-1.6543847574121533,6.423212614518965,8.884910753505197,4.840516687928814,8.459064336129288,4.027267212205312,2.421916690938464,-3.599058718849616,2.3180113210628877,6.173560433188055,-3.267080131577633,9.635963815593033,-7.9694981943341245,-6.283106132433043,0.34994932535437007,-5.4647630950923,6.4668619961670135,1.9659439546445239,2.251276537192888,-6.967042957553917,-8.860245313366478,-6.999701216643108,-8.72942331286451,-7.968907462554266,3.2214272557403953,-1.9619796599805834],"bias":[[-8.828992220621714,2.5083315280877923,-10.004231671043536,-2.197631494829979,5.546855619713298E-5,-4.835612699300081,-8.834877666551069,-7.990626805104935,-7.406827638169471,3.0115440678144525],[0.7183293229796848,5.984417608574208,1.9131393198881994,0.539118081406645],[4.1870882788151285]],"id":0,"number":171}
