{"architecture":{"NEURONS":[10,4,1],"LAYERS":3,"totalSynapses":44},"weights":[-4.601460240492752,-5.601828044446336,0.15961176918658607,-1.9378395261757169,9.24747274166225,-5.4400466310934465,5.720417996395666,-1.0728548325680818,-5.019914112313327,0.7560828582820341,4.521302980427487,-0.0731285668810761,-2.8965765370357563,-9.736390510734948,1.1922435199802113,7.860146485484852,7.92561070301501,6.834226888980992,-1.6543847574121533,6.4738226562416505,8.76565475511173,4.511609491580095,8.598872559380142,3.6342256908511583,2.53780994464812,-4.860055082283376,2.5909414357567577,6.323150257781022,-3.750819809948143,9.56902143549128,-7.9694981943341245,-6.201232396437504,0.7029832667840672,-5.502808740391163,6.926824949231797,1.698166278619228,2.1836460060993694,-6.967042957553917,-8.860245313366478,-3.6830993459803394,-8.968656609569152,-7.834790468868234,3.1150378213814687,-1.4431292940608382],"bias":[[-8.828992220621714,2.878454439444027,-9.776777128554414,-2.0098707825040956,-0.11407616756851427,-4.835612699300081,-8.834877666551069,-7.982703379072622,-7.402535423440044,2.815548334707126],[0.4146273978354399,6.46662847632536,1.6080022079031948,0.9986043410677842],[4.223138186371062]],"id":0,"number":172}
