{"architecture":{"NEURONS":[10,4,1],"LAYERS":3,"totalSynapses":44},"weights":[-4.606102982211457,-5.601828044446336,0.457105237534109,-1.9378395261757169,9.24747274166225,-5.335089994611591,5.307006078548533,-1.263970002985095,-5.019914112313327,0.6334545764939794,4.724945942596433,-0.0731285668810761,-2.929922427813115,-9.335471432609651,1.1922435199802113,7.860146485484852,7.807963607808103,6.834226888980992,-1.6543847574121533,6.4738226562416505,8.76565475511173,4.706113817413361,8.570561809119294,3.6342256908511583,2.53780994464812,-3.599058718849616,2.3180113210628877,6.323150257781022,-3.6327321102772108,9.56902143549128,-7.983050726955519,-6.170508814656443,0.7029832667840672,-5.502808740391163,6.926824949231797,1.9688390764705814,2.2914850402463243,-6.41395403310311,-8.321944009632139,-3.6830993459803394,-8.968656609569152,-7.834790468868234,-1.9150374622359878,-1.6729097214713504],"bias":[[9.328421720824204,2.4276113720825347,-9.214736052904628,-1.7352674039446354,-0.06946006751167677,-4.928497920444218,-10.310122325908862,-7.982703379072622,-7.406827638169471,3.1362815450717996],[0.4146273978354399,6.46662847632536,1.5403513395065875,0.9545290421615455],[4.223138186371062]],"id":0,"number":173}
