{"architecture":{"NEURONS":[10,4,1],"LAYERS":3,"totalSynapses":44},"weights":[-4.601460240492752,-5.2213034847746105,0.457105237534109,-1.9378395261757169,9.24747274166225,-5.335089994611591,5.307006078548533,-1.499210293353737,-4.938406819868527,0.7170335928887736,4.686110383288481,0.2842801250370552,-2.7814229783285938,-8.964062308891746,0.9759711032891677,7.860146485484852,7.855780721229898,6.834226888980992,-1.6543847574121533,6.4738226562416505,8.836303821562211,4.706113817413361,8.598872559380142,3.6342256908511583,2.53780994464812,-4.330205942652935,2.972970784409032,6.173560433188055,-3.562587210776831,9.635963815593033,-7.652045317722486,-6.170508814656443,0.29439162788761114,-5.4647630950923,6.963918990298102,2.0472222782330136,2.2992503183646424,-5.99226281069729,-9.032570050408916,-3.7592159507301943,-8.968656609569152,-7.834790468868234,-2.276519003189115,-1.7501447992939738],"bias":[[-8.828992220621714,2.4295846385947617,-9.042364908264867,-2.576410860992344,5.546855619713298E-5,-4.835612699300081,-8.834877666551069,-7.982703379072622,-7.640944030166948,2.815548334707126],[0.4146273978354399,6.46662847632536,2.2662564924939175,0.9545290421615455],[4.223138186371062]],"id":0,"number":174}
