{"architecture":{"NEURONS":[10,4,1],"LAYERS":3,"totalSynapses":44},"weights":[-4.450491100659705,-5.748100617883309,0.5066069098101551,-1.9165713503001702,9.24747274166225,-5.425680945863669,5.591293100234812,-0.8486898639338121,-5.019914112313327,0.7560828582820341,4.723052317895489,0.2842801250370552,-2.7453402865406287,-9.736390510734948,1.1741828306531983,8.023270542173517,7.855780721229898,6.834226888980992,-1.6543847574121533,6.6425200966716345,8.903389187177826,4.840516687928814,8.522745536987294,3.6342256908511583,1.9542550187647265,-3.599058718849616,2.3180113210628877,6.482459068209838,-3.267080131577633,9.56902143549128,-7.9694981943341245,-6.201232396437504,0.7029832667840672,-5.502808740391163,6.4668619961670135,1.8795666265076436,2.1836460060993694,-6.246273740568297,-8.860245313366478,-6.693965106780998,-8.72942331286451,-7.968907462554266,3.436920314345288,-1.4431292940608382],"bias":[[-8.828992220621714,2.5083315280877923,-9.208176534241806,-2.197631494829979,0.09276056821299863,-4.835612699300081,-8.952406478319919,-7.990626805104935,-8.807766249575028,2.437882740469742],[0.3986906795686352,6.554884019796523,1.5403513395065875,0.539118081406645],[4.223138186371062]],"id":0,"number":175}
