{"architecture":{"NEURONS":[10,4,1],"LAYERS":3,"totalSynapses":44},"weights":[-4.665295390091902,-5.601828044446336,0.6719032628346697,-2.221598493453283,9.255130220937472,-5.335089994611591,5.720417996395666,-1.499210293353737,-5.019914112313327,0.9762373796816038,4.724945942596433,-0.31504844580658065,-2.825007664012073,-9.335471432609651,0.9759711032891677,7.737393029025896,7.807963607808103,6.46679054937565,-1.6543847574121533,6.316921592380906,9.18293242128955,4.706113817413361,8.459064336129288,3.6342256908511583,2.53780994464812,-4.333659544132775,2.3093962405140864,6.173560433188055,-3.4867594575428815,9.635963815593033,-7.509465453604778,-6.170508814656443,0.7029832667840672,-5.182474970809348,6.926824949231797,1.878683339471202,2.097801208068802,-6.41395403310311,-8.787632652780403,-3.6830993459803394,-8.968656609569152,-7.834790468868234,-1.9150374622359878,-1.4431292940608382],"bias":[[-8.828992220621714,2.4295846385947617,-9.047904581077821,-1.6073225850084127,-0.06946006751167677,-4.929699410990477,-10.310122325908862,-8.064417087089971,-7.406827638169471,3.0115440678144525],[0.7183293229796848,6.619633284792872,1.5403513395065875,0.9545290421615455],[4.20763157087816]],"id":0,"number":176}
