{"architecture":{"NEURONS":[10,4,1],"LAYERS":3,"totalSynapses":44},"weights":[-4.601460240492752,-5.748100617883309,0.457105237534109,-1.9378395261757169,9.277066621989286,-5.288209983145964,5.573354229944039,-1.499210293353737,-5.233184898211476,0.7450366646463793,5.243064719738459,-0.0731285668810761,-3.2811728646062965,-9.335471432609651,1.1922435199802113,7.860146485484852,7.827194166401714,6.834226888980992,-1.6543847574121533,6.317883550245989,8.76565475511173,4.65547860750044,8.459064336129288,3.6342256908511583,1.689699530509299,-4.84894349871753,2.3180113210628877,6.173560433188055,-3.750819809948143,9.430145810645524,-7.509465453604778,-6.282457399813858,0.7029832667840672,-5.4647630950923,6.926824949231797,1.9688390764705814,2.251276537192888,-6.967042957553917,-8.321944009632139,-3.6830993459803394,-9.407694517141547,-7.834790468868234,-2.085455502137806,-1.4431292940608382],"bias":[[9.229197319418192,2.4276113720825347,-9.776777128554414,-2.0098707825040956,-0.041786002142675804,-4.835612699300081,-8.834877666551069,-8.062952722968388,-7.406827638169471,2.437882740469742],[0.4146273978354399,6.548552203363869,1.6080022079031948,0.9912804397693488],[4.223138186371062]],"id":0,"number":177}
