{"architecture":{"NEURONS":[10,4,1],"LAYERS":3,"totalSynapses":44},"weights":[-4.578864691761878,-5.748100617883309,0.457105237534109,-2.21232925321601,9.391704191054126,-4.125912951956998,6.017630707459834,-1.499210293353737,-5.019914112313327,0.7705592517107712,4.521302980427487,-0.05844367005177234,-2.652431062768277,-9.716237482682788,1.1922435199802113,7.7530866933204,7.807963607808103,6.834226888980992,-1.7502968448304956,6.316921592380906,8.76565475511173,4.706113817413361,8.598872559380142,3.5139701547486046,2.53780994464812,-3.7160359717661877,2.517788004046577,5.968948581035994,-3.425476537898207,9.308836084103396,-7.983050726955519,-6.210313912093932,0.7029832667840672,-5.74513883032177,6.82949724442497,2.3426757792241197,2.2370033672924974,-6.41395403310311,-8.321944009632139,-3.581500982796729,-8.968656609569152,-7.834790468868234,3.1440016550701557,-1.4361503000177613],"bias":[[9.114051430626477,2.2532038993512273,-9.214736052904628,-1.7352674039446354,-0.06946006751167677,-4.928497920444218,-8.834877666551069,-7.990626805104935,-7.406827638169471,2.525194322677883],[0.4146273978354399,6.46662847632536,1.5403513395065875,0.9986043410677842],[4.223138186371062]],"id":0,"number":178}
