{"architecture":{"NEURONS":[10,4,1],"LAYERS":3,"totalSynapses":44},"weights":[-4.606102982211457,-5.601828044446336,0.16244837381039737,-2.045601383613963,9.24747274166225,-4.125912951956998,5.591293100234812,-1.499210293353737,-5.019914112313327,1.0612333737856425,4.748706028438926,-0.0731285668810761,-2.7589933360477943,-9.483748494281324,1.4768016516083247,7.860146485484852,7.92561070301501,6.46679054937565,-1.6543847574121533,6.348581244384208,9.33255729364196,4.74473860882982,8.593353300821684,3.635695884628561,1.9542550187647265,-3.8773682325457024,2.501329456956236,5.968948581035994,-3.267080131577633,9.673796114522558,-7.610164011856785,-6.382469578160542,0.7029832667840672,-5.502808740391163,6.4668619961670135,1.9688390764705814,2.1080950332563337,-6.083254904833417,-9.100344971102379,-3.6830993459803394,-9.287579988028563,-7.538413070718992,3.1440016550701557,-1.8565241161196897],"bias":[[-8.828992220621714,2.7830668764872457,-9.214736052904628,-2.5407978041580694,-0.041786002142675804,-4.928497920444218,-10.310122325908862,-8.395052871485765,-7.406827638169471,3.310551243562545],[0.7183293229796848,6.46662847632536,1.9131393198881994,0.9986043410677842],[4.223138186371062]],"id":0,"number":179}
