{"architecture":{"NEURONS":[10,4,1],"LAYERS":3,"totalSynapses":44},"weights":[-5.7577479510989775,-4.93585758157405,0.7615603994746836,-1.8790420360856679,9.240974075886136,-5.043893518811142,5.899998164343579,-1.3954975028025824,-5.828670886051251,-0.12583541397851916,4.708270376896566,0.42273350242791174,-2.574494073117154,-9.702049674102946,0.7713695317737005,8.057722165120712,7.6733232909007265,6.708448801316237,-1.7360023092725463,6.7572627672355345,8.487163752574167,4.70921473687868,7.771731066353908,3.5722285386199637,1.979189450453073,-3.9520855578940552,2.4684404115260463,6.541283591073817,-3.276493354178003,9.502114251845168,-7.779340784320755,4.648470359656932,0.8421553878726407,-5.554267822974435,6.6811820446505985,1.170113430281559,2.4062185276814403,-6.3032929085147,-8.731664980009548,-7.2288866831754275,-9.096055519004464,-7.735914990535486,-1.236111253626187,-2.0618273056311502],"bias":[[-8.625926697232106,2.194726609579458,-9.051363977118196,-2.232100574296333,1.3311489911721885,-5.176203419913459,-9.83565943536265,-7.910820923819324,-5.595090931022022,2.6572346023651687],[-6.683872440002422,6.31210663927828,1.5403513395065875,0.6548853468030558],[4.294543071554025]],"id":0,"number":18}
