{"architecture":{"NEURONS":[10,7,1],"LAYERS":3,"totalSynapses":77},"weights":[-4.275167771495902,4.057462651789676,1.1753160354516745,-1.9367999093766006,-5.309996296945418,9.85234101519907,6.171585331016505,-0.933856973925949,2.0546546773460665,-0.8480557125372291,2.3770534601134754,-2.9372655724324277,9.04916972703542,7.766776037055376,-2.372720756515527,-2.000797057696798,-7.682505477307128,2.587386771900328,-9.513545698317307,-9.85415235689052,6.062604877860047,-1.4808117678598989,-1.6383499716322734,6.198687832224719,-0.2033758886344159,-5.961887983207016,0.2595075891172135,3.681599584765432,-1.654392908351966,4.308871590938886,9.316826530403581,8.637495530069192,3.8907011765083617,6.254835082006078,-10.071878391394774,4.89453246642683,3.221273012970313,5.446835947136424,4.904361952914008,-1.9374963057909185,5.4699803704021805,-5.664426993127503,-6.267140169791546,3.9010007794558548,-5.835283780572946,3.768894525124452,-4.535087881321131,-0.34825729859465326,2.9834287493880622,5.788057149178128,1.677576365272642,-7.883809615036026,7.909619007911666,-4.836497535945009,-3.989513140492228,-5.633791624860945,-5.619848356661696,4.0506446321511795,-0.2980027220984265,4.037227421471394,-7.072054816509418,-4.069761353974986,6.787969359895831,-9.77815011632674,-4.859977399736434,-1.5646746348497849,-5.433388266392079,4.13613718278565,7.933973183314559,-0.503885666141973,-6.020471225288433,4.032661367117229,1.0642703368016058,-1.2997557407278633,7.489464951551129,4.955698108620567,-2.184416268858728],"bias":[[-7.815836845171138,4.122311860544406,-6.066940858428178,4.923254013043573,2.7563658080066347,8.148935545299013,7.728804222717033,-6.699716586057719,7.229941848143532,-0.2636614161126557],[-1.0199131326705337,0.5915731994220906,-5.115019459389146,-7.8998681185656565,1.7691438781090496,5.8381778366755395,7.218180969329228],[-4.918166832955477]],"id":0,"number":18}
