{"architecture":{"NEURONS":[10,4,1],"LAYERS":3,"totalSynapses":44},"weights":[-4.606102982211457,-5.941950963514976,0.5829517862102893,-1.9378395261757169,9.24747274166225,-5.5211955481778965,5.307006078548533,-0.9881025283276236,-4.938406819868527,0.7560828582820341,4.994752148620497,-0.0731285668810761,-2.7814229783285938,-9.671202197818616,1.1922435199802113,7.860146485484852,7.807963607808103,6.834226888980992,-1.6543847574121533,6.316921592380906,8.840208347072451,4.65547860750044,8.695405987337322,3.6342256908511583,2.53780994464812,-3.599058718849616,2.266898678912496,6.323150257781022,-3.6327321102772108,9.581040208891698,-7.8136541007646425,-6.3758079963536325,0.6456768703023211,-5.4647630950923,6.926824949231797,1.9688390764705814,2.483487848536806,-6.41395403310311,-8.860245313366478,-6.749358269747637,-8.968656609569152,-7.834790468868234,3.1440016550701557,-1.5410708770791834],"bias":[[9.114051430626477,2.878454439444027,-9.601139028502804,-1.7352674039446354,5.546855619713298E-5,-4.928497920444218,-10.310122325908862,-8.224937973873502,-7.640944030166948,-9.800553310535662],[0.7183293229796848,5.984417608574208,1.9028551153506719,1.186436190967281],[4.223138186371062]],"id":0,"number":180}
