{"architecture":{"NEURONS":[10,4,1],"LAYERS":3,"totalSynapses":44},"weights":[-4.74511987616807,-5.748100617883309,0.15961176918658607,-1.8054811204115524,9.157187513223226,-5.572928458349866,5.720417996395666,-0.8486898639338121,-5.019914112313327,0.9762373796816038,4.662177288539749,-0.0731285668810761,-2.6613019819293893,-9.590342265219695,0.9759711032891677,7.850516846861629,8.004923882965464,7.061695474814802,-1.6543847574121533,6.38669349913224,9.18293242128955,4.65547860750044,8.3762183271688,3.6342256908511583,1.689699530509299,-4.860055082283376,2.972970784409032,6.338536760775789,-3.750819809948143,9.56902143549128,-7.509465453604778,-6.170508814656443,0.7029832667840672,-5.37180706422952,6.205005239741282,2.04806429861625,2.1836460060993694,-6.967042957553917,-8.946407681887697,-3.6830993459803394,-10.026300987792268,-7.538413070718992,-1.9150374622359878,-1.4431292940608382],"bias":[[-8.828992220621714,2.274112270872759,-9.214736052904628,-2.0098707825040956,-0.041786002142675804,-4.488768140622005,-8.834877666551069,-7.990626805104935,-8.622334256489202,2.84745593645075],[0.4146273978354399,6.46662847632536,1.6080022079031948,0.5131322273542188],[4.223138186371062]],"id":0,"number":181}
