{"architecture":{"NEURONS":[10,4,1],"LAYERS":3,"totalSynapses":44},"weights":[-4.601460240492752,-5.866835544642912,0.3712817776984377,-1.86854789902453,9.202330127442739,-5.335089994611591,5.591293100234812,-1.2593318852281565,-5.279829394273265,0.6947687173880068,4.616293487993332,-0.0731285668810761,-2.709976852931149,-9.653844873284964,1.061260738357217,7.857186471352389,7.688314661416688,6.391946037655272,-1.6543847574121533,6.407418362849922,8.97429358820064,4.599113480828905,8.677732679499467,3.5740979227998815,2.0460301821401288,-3.599058718849616,2.5543647199016677,6.173560433188055,-3.750819809948143,9.412712170521935,-7.9694981943341245,-6.170508814656443,0.7029832667840672,-5.540831083751543,7.075794157020868,2.159455126702534,2.1836460060993694,-6.661798570938176,-8.946407681887697,-6.999701216643108,-9.49747879868071,-7.722747174749635,2.9585962330976523,-1.9826464525493392],"bias":[[-9.671952285303785,4.275417673737474,-2.518657938094904,2.3589819279872852,-3.4015541294193845,7.713034783001294,3.049860504637543,-6.038769229551679,-9.444170544267283,1.153849930362675],[6.644448305192487,4.555460141498848,9.376451906332107,-3.98370903837463],[-8.444928664531608]],"id":0,"number":183}
