{"architecture":{"NEURONS":[10,4,1],"LAYERS":3,"totalSynapses":44},"weights":[-4.076784579068528,-5.748100617883309,0.16244837381039737,-1.9378395261757169,9.24747274166225,-5.335089994611591,5.591293100234812,-0.9881025283276236,-4.990186984105796,0.7705592517107712,4.979165264799567,-0.0731285668810761,-2.991280683510906,-9.335471432609651,1.1729859721625169,7.9327547611215605,7.807963607808103,6.413158479021292,-1.7502968448304956,6.317137068232307,9.18293242128955,4.65547860750044,8.793880702083118,3.6078164584953947,1.3562448519045203,-3.818166855827935,3.013355924785214,6.323150257781022,-3.0826726962577493,9.81472372606862,-7.509465453604778,-6.3758079963536325,0.7029832667840672,-5.502808740391163,6.926824949231797,2.3426757792241197,2.394416941405458,-6.41395403310311,-8.512269244813488,-3.6830993459803394,-8.71891533823993,-7.7577486929288595,3.1150378213814687,-1.4431292940608382],"bias":[[-8.536375838200248,2.7830668764872457,-9.214736052904628,-1.841977361061962,-0.08814226389717489,-4.659810808763543,-10.310122325908862,-7.990626805104935,-7.406827638169471,-9.800553310535662],[0.7183293229796848,9.829489194168502,1.9131393198881994,0.963306906477176],[4.223138186371062]],"id":0,"number":184}
