{"architecture":{"NEURONS":[10,4,1],"LAYERS":3,"totalSynapses":44},"weights":[-4.076784579068528,-5.748100617883309,0.16244837381039737,-1.9378395261757169,9.24747274166225,-5.288209983145964,4.99921715468944,-0.9881025283276236,-5.064397137352231,0.9762373796816038,4.724945942596433,-0.37958832225737327,-2.652431062768277,-9.335471432609651,1.1922435199802113,8.121563170977844,7.869108995873287,6.391946037655272,-1.6752503346417362,6.4738226562416505,9.53222294215592,4.65547860750044,8.896401022869648,3.634765111966978,1.3562448519045203,-3.7894573411064227,2.3093962405140864,6.173560433188055,-3.4867594575428815,9.073725212167004,-7.509465453604778,-6.282457399813858,0.7029832667840672,-5.502808740391163,6.926824949231797,1.9688390764705814,2.4665870334704403,-6.909643108773242,-8.321944009632139,-3.6830993459803394,-9.407694517141547,-8.087624934282243,3.1440016550701557,-1.4431292940608382],"bias":[[-8.828992220621714,2.878454439444027,-9.214736052904628,-2.5407978041580694,-0.24201949277060625,-4.659810808763543,-10.567712668550694,-7.990626805104935,-7.213462006879262,2.525194322677883],[0.7183293229796848,9.829489194168502,1.5403513395065875,0.9986043410677842],[4.223138186371062]],"id":0,"number":185}
