{"architecture":{"NEURONS":[10,4,1],"LAYERS":3,"totalSynapses":44},"weights":[-4.606102982211457,-5.601828044446336,0.6719032628346697,-1.9378395261757169,9.235331051345316,-5.335089994611591,5.683777838265609,-1.0891926388306907,-5.019914112313327,1.0612333737856425,4.724945942596433,-0.0337293209918484,-2.8965765370357563,-9.335471432609651,1.1070537354621885,8.028158345932585,7.807963607808103,6.391946037655272,-1.9563310364258957,6.316921592380906,8.840208347072451,4.65547860750044,8.117226483985267,3.6342256908511583,1.9039745094286624,-4.333659544132775,2.3180113210628877,6.70242001971257,-3.750819809948143,9.555766570096015,-7.652045317722486,-6.201232396437504,0.7029832667840672,-5.502808740391163,7.460407124789569,1.9688390764705814,2.483487848536806,-6.41395403310311,-8.466425099100519,-6.999701216643108,-8.72942331286451,-7.834790468868234,3.1466504302024245,-1.5410708770791834],"bias":[[9.058931875091865,2.2532038993512273,-9.776777128554414,-1.7352674039446354,-0.06946006751167677,-5.187675029264444,-10.310122325908862,-7.855237438022146,-7.550588231638285,3.1362815450717996],[0.7183293229796848,5.984417608574208,1.9028551153506719,0.9986043410677842],[4.223138186371062]],"id":0,"number":186}
