{"architecture":{"NEURONS":[10,4,1],"LAYERS":3,"totalSynapses":44},"weights":[-4.606102982211457,-5.3975465262255815,0.6719032628346697,-2.221598493453283,9.114292431737244,-5.288209983145964,5.872404507172741,-1.478230368604405,-5.019914112313327,0.9762373796816038,4.724945942596433,-0.0337293209918484,-2.652431062768277,-9.716237482682788,1.1070537354621885,7.957644489897616,7.869108995873287,6.834226888980992,-1.6543847574121533,6.1116662050305575,8.840208347072451,4.511609491580095,8.570561809119294,3.8039580286728283,1.8313738974860783,-4.860055082283376,2.3093962405140864,6.70242001971257,-3.840813419498531,9.56902143549128,-7.877071209766762,-6.282457399813858,0.6502454203066245,-5.4647630950923,6.926824949231797,1.9688390764705814,2.3529244166451404,-6.967042957553917,-8.520027965666896,-3.605267392170522,-8.834735025919963,-7.834790468868234,3.1150378213814687,-1.4952518833205397],"bias":[[9.328421720824204,2.2532038993512273,-9.214736052904628,-2.7404420999792234,-0.21869356991079766,-4.835612699300081,-10.310122325908862,-7.982703379072622,-8.622334256489202,3.048934311991258],[0.7183293229796848,6.52069694683321,1.9028551153506719,0.9986043410677842],[4.223138186371062]],"id":0,"number":187}
