{"architecture":{"NEURONS":[10,4,1],"LAYERS":3,"totalSynapses":44},"weights":[-4.606102982211457,-5.3975465262255815,0.6719032628346697,-1.9378395261757169,9.114292431737244,-5.335089994611591,5.573354229944039,-1.478230368604405,-5.019914112313327,0.9762373796816038,4.662177288539749,-0.0731285668810761,-2.8965765370357563,-9.55640788858046,0.9878816947671502,8.121563170977844,7.807963607808103,6.834226888980992,-1.6543847574121533,6.1116662050305575,9.354021150758742,4.65547860750044,8.896401022869648,3.6342256908511583,1.689699530509299,-3.599058718849616,2.381018870062352,6.173560433188055,-3.7034264083909907,9.537305743110954,-7.051202747048009,-6.529813125856841,0.2570976873685291,-5.502808740391163,7.246872079745606,1.654967600072276,2.1836460060993694,-6.967042957553917,-8.400725149311665,-3.6830993459803394,-8.72942331286451,-8.050840414289171,2.9611868703410344,-1.5410708770791834],"bias":[[9.058931875091865,2.4276113720825347,-9.342949669316859,-1.7352674039446354,0.06098844341218701,-4.488768140622005,-8.592245633683344,-8.135400852729353,-7.406827638169471,-9.802342411750315],[0.7183293229796848,6.4300076807108955,1.5403513395065875,0.9986043410677842],[4.223138186371062]],"id":0,"number":188}
