{"architecture":{"NEURONS":[10,4,1],"LAYERS":3,"totalSynapses":44},"weights":[-4.606102982211457,-5.468849207165753,0.6719032628346697,-2.221598493453283,9.536261663356612,-5.288209983145964,5.573354229944039,-0.9470398188088391,-4.938406819868527,0.7705592517107712,4.759999456572153,-0.37958832225737327,-2.9345125393482236,-9.335471432609651,1.1922435199802113,8.121563170977844,7.869108995873287,6.834226888980992,-1.8860907706973107,6.013275258507483,8.539494309035641,4.65547860750044,8.896401022869648,3.8790443132413426,1.8313738974860783,-4.84894349871753,2.3093962405140864,5.968948581035994,-3.0826726962577493,9.073725212167004,-7.861158878681118,-6.3758079963536325,0.7029832667840672,-5.4647630950923,7.137120378221577,1.7439423094812676,2.495237904636057,-6.909643108773242,-8.321944009632139,-3.6830993459803394,-8.968656609569152,-7.834790468868234,3.1440016550701557,-1.5410708770791834],"bias":[[-8.828992220621714,2.7620749465134162,-9.146707290313216,-2.5407978041580694,-0.21869356991079766,-4.941716954326231,-10.310122325908862,-8.197634329446906,-7.406827638169471,-9.999625535035369],[0.7183293229796848,9.781794836765888,1.9131393198881994,0.9986043410677842],[4.223138186371062]],"id":0,"number":189}
