{"architecture":{"NEURONS":[10,7,1],"LAYERS":3,"totalSynapses":77},"weights":[-3.917366174315501,3.8868941354763917,2.5282105860687234,-1.6948203394818784,-4.907934919318373,9.05055110853274,5.775948725773165,0.2688440423957925,2.1365510919456536,-0.7738112289624738,2.1180021867613954,-3.694245428930437,9.107185162298913,6.451791125305279,-3.1322276732749255,-2.3031329681241526,-7.426914187164039,3.539903891771916,-10.451587420434572,-8.18033440971201,6.85242311913605,-2.2208935969138084,-2.659670876038441,5.679181614317925,0.6882468139420735,-5.856569043515434,0.3890835527725054,3.8966530264736803,-1.7685890040072776,4.838757126002358,8.322996093996743,7.3995747867361965,5.499141558466504,6.432172116200538,-9.018478701992025,5.022871043207024,3.64922631997548,3.8938573040724087,4.887482757447107,-1.9663418778589137,3.7033830677396247,-4.911275697110869,-4.92067099662332,2.014884188734854,-6.287976073270404,5.310261441123278,-4.0204779577699155,-0.8097182862946366,2.5702939241356106,5.698971994872419,2.172230928716987,-7.228770252045816,6.502369696987726,-6.295055029513677,-3.709538644944988,-5.693288095329716,-7.084331823367889,3.050857770607963,-1.5141655708047639,3.8640682165832256,-7.561029009071894,-4.146246140369289,6.446414612151542,-8.953643357338526,-4.5375525329924695,-2.6228931872413486,-5.900905691069555,3.3294724579287758,10.695431453973287,0.8005820822500425,-5.514631366290881,4.591535381727439,1.2389376468796958,-0.9403975662335244,7.932333361433502,4.959562181440761,-1.419730203154013],"bias":[[-8.290725137811156,4.987746963070521,-4.509383404171689,4.537062439178174,2.7763998729147694,8.482202707712652,7.559166257003722,-6.337178247767072,8.29214941690348,-0.25635165776419233],[-1.2757137648925214,0.349083746768585,-5.06792525334167,-7.911522194936926,0.0665964500648126,5.45858048886028,7.191765495574349],[-4.99223879313369]],"id":0,"number":19}
