{"architecture":{"NEURONS":[10,4,1],"LAYERS":3,"totalSynapses":44},"weights":[-4.709186703141688,-4.93585758157405,1.0268240713411083,-1.8790420360856679,9.405608020666149,-4.942054605670426,5.7531295167706515,-1.567041800205644,-5.844842554397221,-0.09389468389182909,4.708270376896566,0.42273350242791174,-2.735268918155077,-9.753321176934273,1.0057536600207562,7.871459427561402,7.6733232909007265,6.822798069635287,-2.045750293513675,6.453457326596539,8.273971279629892,4.906528325556119,7.771731066353908,3.4907841951010004,1.9429698242057558,-3.9535316548413917,2.4684404115260463,6.541283591073817,-3.3322049777484386,9.502114251845168,-7.757294695348645,4.648470359656932,0.8421553878726407,-5.666566813083857,7.027893574946119,1.3192503181469597,2.4167149428455237,-7.195205798069383,-8.516354952294646,-3.750305328389405,-8.680429400348162,-7.735914990535486,-1.236111253626187,-2.0618273056311502],"bias":[[-8.13366234820025,3.5149788785176455,-9.638281380756686,-2.232100574296333,1.4743308048824215,-5.176203419913459,-9.91867120468144,-6.604274200473044,-5.595090931022022,2.6572346023651687],[-6.683872440002422,6.028963374799378,1.486484837611693,0.6926693392516121],[4.636143817749678]],"id":0,"number":19}
