{"architecture":{"NEURONS":[10,4,1],"LAYERS":3,"totalSynapses":44},"weights":[-4.606102982211457,-5.520274012200077,-0.16789521572588015,-1.8054811204115524,9.255130220937472,-5.6271589038085095,5.573354229944039,-1.09434517588983,-4.971246327347528,1.0187353767336231,4.662177288539749,-0.0337293209918484,-2.695329923039809,-9.55640788858046,0.9878816947671502,8.121563170977844,7.875031822019678,6.834226888980992,-1.7502968448304956,6.316921592380906,9.18293242128955,4.65547860750044,8.896401022869648,3.6342256908511583,1.1704637767177626,-3.599058718849616,2.3093962405140864,6.173560433188055,-3.840813419498531,9.56902143549128,-7.051202747048009,-6.529813125856841,-0.04250335709656172,-5.709855103273566,6.205005239741282,1.654967600072276,2.483487848536806,-6.967042957553917,-8.476310864381002,-3.6830993459803394,-8.71891533823993,-7.834790468868234,-2.085455502137806,-1.5410708770791834],"bias":[[9.114051430626477,2.6515853718971867,-9.776777128554414,-1.7352674039446354,-0.06946006751167677,-5.128253950341457,-10.310122325908862,-7.699785709008416,-7.406827638169471,-9.802342411750315],[0.6860008807926121,5.984417608574208,1.9028551153506719,0.7427015376798601],[4.087304725685927]],"id":0,"number":190}
