{"architecture":{"NEURONS":[10,4,1],"LAYERS":3,"totalSynapses":44},"weights":[-4.606102982211457,-5.520274012200077,0.6719032628346697,-1.8054811204115524,9.114292431737244,-5.6271589038085095,5.573354229944039,-1.478230368604405,-5.019914112313327,0.9762373796816038,4.724945942596433,-0.0731285668810761,-2.8965765370357563,-9.3007877689992,0.9878816947671502,8.121563170977844,7.6004067747229165,6.834226888980992,-1.6543847574121533,6.1116662050305575,9.354021150758742,4.398242346366619,8.896401022869648,3.6342256908511583,1.689699530509299,-3.599058718849616,2.381018870062352,6.173560433188055,-3.4867594575428815,9.537305743110954,-7.051202747048009,-6.529813125856841,0.2570976873685291,-5.502808740391163,6.926824949231797,1.654967600072276,2.1836460060993694,-6.967042957553917,-8.400725149311665,-3.6830993459803394,-8.71891533823993,-8.050840414289171,-2.085455502137806,-1.5410708770791834],"bias":[[9.114051430626477,2.4276113720825347,-9.342949669316859,-1.7352674039446354,-0.006683664133998554,-4.651000856612176,-10.310122325908862,-7.982703379072622,-7.406827638169471,-9.802342411750315],[0.7183293229796848,5.984417608574208,1.3922296033897212,0.9986043410677842],[4.223138186371062]],"id":0,"number":191}
