{"architecture":{"NEURONS":[10,4,1],"LAYERS":3,"totalSynapses":44},"weights":[-4.606102982211457,-5.537588478515856,1.1287155310936603,-2.151486645601498,9.24747274166225,-5.335089994611591,5.129500264284759,-0.9881025283276236,-5.019914112313327,0.8929892691574007,4.724945942596433,-0.0731285668810761,-2.695329923039809,-9.33387157467981,0.8242194493786149,8.148441948312213,7.78000448738606,6.413158479021292,-1.6772463926536003,6.246085641941666,9.18293242128955,4.706113817413361,8.896401022869648,3.6342256908511583,1.9039745094286624,-4.333659544132775,2.972970784409032,6.173560433188055,-3.2666841904177666,9.637876105849207,-8.071793337924763,-6.028902011730339,0.6456768703023211,-5.502808740391163,6.707487682872231,2.3426757792241197,2.1836460060993694,-6.967042957553917,-8.400725149311665,-3.6830993459803394,-8.71891533823993,-7.544893280578649,-2.085455502137806,-2.003313245118095],"bias":[[9.058931875091865,2.4276113720825347,-8.85338800676732,-1.6985494116885629,-0.06946006751167677,-5.207152751791993,-10.310122325908862,-8.224937973873502,-7.550588231638285,3.048934311991258],[0.5398805087673421,5.984417608574208,2.1928172724762027,0.9986043410677842],[4.223138186371062]],"id":0,"number":192}
