{"architecture":{"NEURONS":[10,4,1],"LAYERS":3,"totalSynapses":44},"weights":[-4.606102982211457,-5.468849207165753,-0.16789521572588015,-2.221598493453283,9.536261663356612,-5.205593059169629,5.573354229944039,-1.1178881010298718,-4.938406819868527,1.0612333737856425,4.662177288539749,-0.37958832225737327,-2.652431062768277,-9.335471432609651,1.1922435199802113,8.121563170977844,7.796701727524954,6.834226888980992,-1.8860907706973107,6.013275258507483,8.979430342385037,4.65547860750044,9.32164687236898,3.8790443132413426,1.6109488837054453,-3.599058718849616,2.4216258749751502,5.968948581035994,-2.826860357712574,9.121976564037675,-7.861158878681118,-6.3758079963536325,0.7029832667840672,-6.04122626941771,6.991805338473878,1.7439423094812676,2.495237904636057,-6.909643108773242,-8.379800767722845,-3.4240676067939915,-8.968656609569152,-7.834790468868234,3.1150378213814687,-1.5410708770791834],"bias":[[9.328421720824204,2.7620749465134162,-8.85338800676732,-2.528650709619379,-0.21869356991079766,-4.562743498075767,-10.310122325908862,-8.197634329446906,-7.348434305942929,-9.999625535035369],[0.7183293229796848,6.46662847632536,2.0594572236171134,0.6515236651122398],[4.223138186371062]],"id":0,"number":193}
