{"architecture":{"NEURONS":[10,4,1],"LAYERS":3,"totalSynapses":44},"weights":[-4.076784579068528,-5.601828044446336,0.6719032628346697,-1.8062920394964344,9.114292431737244,-5.352715567724424,5.573354229944039,-1.0891926388306907,-5.019914112313327,0.7705592517107712,4.616434117799246,-0.0337293209918484,-2.991280683510906,-9.314454154642817,1.1070537354621885,7.957644489897616,7.807963607808103,6.834226888980992,-1.6752503346417362,6.246085641941666,8.840208347072451,4.706113817413361,8.977279345532601,4.034011905346503,1.689699530509299,-4.632412932858403,2.1894270864202916,6.173560433188055,-3.750819809948143,9.56902143549128,-7.652045317722486,-6.028902011730339,0.5755733830426167,-5.502808740391163,6.205005239741282,2.04806429861625,2.1836460060993694,-6.967042957553917,-8.922989254418228,-3.6830993459803394,-8.877304474484545,-7.834790468868234,-2.085455502137806,-2.003313245118095],"bias":[[9.058931875091865,2.4276113720825347,-9.214736052904628,-1.7352674039446354,-0.08814226389717489,-4.835612699300081,-10.310122325908862,-8.135400852729353,-7.550588231638285,2.0994745663623178],[0.4146273978354399,5.984417608574208,1.9028551153506719,0.9112117714665804],[4.223138186371062]],"id":0,"number":194}
