{"architecture":{"NEURONS":[10,4,1],"LAYERS":3,"totalSynapses":44},"weights":[-4.606102982211457,-5.2461273770837185,0.16244837381039737,-1.9794230564490083,9.235331051345316,-5.533506579725131,5.573354229944039,-0.9881025283276236,-5.019914112313327,0.9734679854658828,4.662177288539749,-0.0337293209918484,-2.991280683510906,-9.55640788858046,0.9302779567342228,8.137831685759283,7.928406555044752,6.834226888980992,-1.6543847574121533,6.1116662050305575,9.354021150758742,4.65547860750044,8.977279345532601,3.6687956466769713,1.9039745094286624,-3.7160359717661877,2.972970784409032,5.968948581035994,-3.2666841904177666,9.637876105849207,-7.509465453604778,-6.407725150959183,0.7029832667840672,-5.4647630950923,7.246872079745606,1.9688390764705814,2.2914850402463243,-6.967042957553917,-8.321944009632139,-3.6830993459803394,-10.026300987792268,-7.834790468868234,2.9611868703410344,-2.003313245118095],"bias":[[9.219095399627244,2.878454439444027,-9.784419087777051,-1.7507205572598183,-0.08814226389717489,-4.835612699300081,-10.367418099598705,-7.934073928125671,-7.639220969430896,3.048934311991258],[0.6860008807926121,5.984417608574208,1.3154273294705812,0.963306906477176],[4.359334278685552]],"id":0,"number":195}
