{"architecture":{"NEURONS":[10,4,1],"LAYERS":3,"totalSynapses":44},"weights":[-4.606102982211457,-5.748100617883309,0.23352361314790065,-1.8054811204115524,9.24747274166225,-5.6271589038085095,5.129500264284759,-1.7566904980486087,-5.019914112313327,0.9762373796816038,4.865544271150907,-0.0731285668810761,-2.865392549177247,-9.33387157467981,0.9878816947671502,8.137831685759283,7.78000448738606,6.834226888980992,-1.6772463926536003,6.316921592380906,9.53222294215592,4.706113817413361,8.896401022869648,3.846285399811885,1.9039745094286624,-3.7160359717661877,2.3093962405140864,6.70242001971257,-3.4867594575428815,9.449039356150834,-7.051202747048009,-6.627653858235109,0.2570976873685291,-5.598273144887359,6.926824949231797,2.3426757792241197,2.3653954104415913,-6.41395403310311,-8.466425099100519,-3.6830993459803394,-8.71891533823993,-7.544893280578649,3.1150378213814687,-2.003313245118095],"bias":[[-8.536375838200248,2.4456360946267397,-8.85338800676732,-1.9477228206635746,-0.06946006751167677,-4.651000856612176,-10.378331148884358,-8.224937973873502,-7.550588231638285,-9.895148302599143],[0.6860008807926121,9.781794836765888,1.5403513395065875,0.9112117714665804],[4.223138186371062]],"id":0,"number":196}
