{"architecture":{"NEURONS":[10,4,1],"LAYERS":3,"totalSynapses":44},"weights":[-4.586442582598029,-5.661128995941102,1.0233678550578638,-2.151486645601498,9.443566277431747,-5.335089994611591,5.698453841921948,-0.9881025283276236,-4.938406819868527,1.0959045902079272,4.759999456572153,-0.0731285668810761,-2.991280683510906,-9.335471432609651,1.1922435199802113,7.708676425774197,7.875031822019678,6.834226888980992,-1.6752503346417362,6.316921592380906,9.18293242128955,4.65547860750044,8.896401022869648,3.6342256908511583,1.689699530509299,-4.84894349871753,2.3093962405140864,6.173560433188055,-2.467774647075972,9.927394057075363,-8.071793337924763,-6.028902011730339,0.9105668389779997,-5.709855103273566,6.926824949231797,2.5865931055685247,1.7776883526852396,-6.967042957553917,-8.466425099100519,-3.6830993459803394,-8.790152610426,-7.544893280578649,3.055024658997812,-1.6383241534066608],"bias":[[9.058931875091865,2.7830668764872457,-9.146707290313216,-2.528650709619379,-0.21869356991079766,-5.123700050107259,-10.380723049686006,-8.197634329446906,-7.340482566887122,3.048934311991258],[0.6860008807926121,5.984417608574208,1.5403513395065875,0.9112117714665804],[4.223138186371062]],"id":0,"number":197}
