{"architecture":{"NEURONS":[10,4,1],"LAYERS":3,"totalSynapses":44},"weights":[-4.606102982211457,-5.454244184659644,-0.16789521572588015,-1.9378395261757169,9.509919384358454,-5.428846036166705,5.573354229944039,-0.9881025283276236,-5.225748241317153,1.0612333737856425,4.925333115701633,-0.37958832225737327,-3.1808867303347412,-9.282346681363787,1.1729859721625169,8.141796592867975,7.543459534298145,6.834226888980992,-1.6772463926536003,6.013275258507483,9.354021150758742,4.706113817413361,8.500756912005295,3.6342256908511583,1.355960563552743,-4.400236416576026,2.972970784409032,6.70242001971257,-2.467774647075972,9.449039356150834,-7.861158878681118,-6.201232396437504,0.6456768703023211,-5.598273144887359,6.860029574062416,2.533346237815136,1.0290785467984893,-6.967042957553917,-8.466425099100519,-3.6830993459803394,-8.71891533823993,-7.819377814768618,-1.767066548537564,-2.003313245118095],"bias":[[9.058931875091865,2.428145707024855,-9.776777128554414,-1.7352674039446354,-0.06946006751167677,-4.488768140622005,-10.310122325908862,-7.934073928125671,-7.406827638169471,3.048934311991258],[0.6860008807926121,5.984417608574208,2.1928172724762027,0.963306906477176],[4.325092465056786]],"id":0,"number":198}
