{"architecture":{"NEURONS":[10,4,1],"LAYERS":3,"totalSynapses":44},"weights":[-4.606102982211457,-5.468849207165753,-0.16789521572588015,-1.680377074963152,9.235331051345316,-5.335089994611591,5.573354229944039,-1.1178881010298718,-4.938406819868527,0.9734679854658828,4.662177288539749,-0.37958832225737327,-2.865392549177247,-9.335471432609651,1.1070537354621885,8.148441948312213,7.869108995873287,6.834226888980992,-1.6752503346417362,6.013275258507483,9.354021150758742,4.65547860750044,8.977279345532601,3.6342256908511583,1.689699530509299,-4.632412932858403,2.972970784409032,6.376465776698356,-3.7034264083909907,9.79924890083324,-7.9694981943341245,-6.3758079963536325,0.7029832667840672,-5.353084472244653,7.246872079745606,1.9688390764705814,2.483487848536806,-6.967042957553917,-8.321944009632139,-3.6830993459803394,-10.026300987792268,-7.834790468868234,3.1440016550701557,-1.5410708770791834],"bias":[[9.219095399627244,2.350974361144056,-9.784419087777051,-1.56751943927836,-0.21869356991079766,-5.207152751791993,-10.310122325908862,-7.934073928125671,-7.532335567194174,2.84745593645075],[0.6535231652324456,5.984417608574208,1.3154273294705812,0.750560001466178],[4.359334278685552]],"id":0,"number":199}
