{"architecture":{"NEURONS":[10,7,1],"LAYERS":3,"totalSynapses":77},"weights":[3.0722677737902715,-4.385752984857536,1.8129458514366619,-0.6932961382060477,10.274529458498092,1.6392929951035777,8.03504259361832,3.7265371454538485,-8.724020643735711,2.6237967438683025,-5.624656980909284,2.4518231669688526,6.27039094932784,-2.2520157923381943,7.194213478295777,-8.392811222148612,-2.326634662459675,3.582638515363991,-0.9548091641541423,-0.09356185787767457,0.9455344605454225,6.218737040773254,-7.590584260452426,-10.323024399282232,3.423462524488535,-0.1250790752655059,5.514276766577747,-2.2837500530009027,-7.207077303061142,9.516996122948418,-3.4565475032235247,9.171302532273653,-7.61895075078313,-2.2888522989924454,5.535837949641486,-9.682361704164752,-9.078780100340229,8.671085158387344,-6.7302999589406935,4.407076572174948,-1.9749749630212023,3.984541691829765,5.477590503383714,3.0058344747519925,-6.233417357755983,-5.5596969238861735,1.5731246978900513,-1.2090161785837041,9.418544187462151,1.1217371026529073,-7.673847278744033,-9.337779946133947,-4.778097828327921,-1.9392599612551797,5.374759664823,6.525168695959348,-6.816259251441496,6.904345622693693,1.974495210636106,-6.779610360623681,-0.45600062992777823,3.3778426471301084,-5.039654469749314,-7.376946238274893,8.044970562329615,-0.6168948125838689,2.6675640668648324,-4.221768470905798,5.28007113789369,-8.486574695316378,-7.855006175340922,-5.542326354501528,3.219205567325667,-3.1541894810668873,-3.926278371463723,-0.48784337287307966,-3.5309786646205845],"bias":[[-6.484646771325133,9.406176254554687,-8.991781169224724,-6.760170364626985,4.092426307389669,8.45483790685899,5.805652464049033,3.0367469156705615,2.983655313453246,5.960267698254641],[9.104657160521464,-2.5696703435639234,-0.1424608436208285,5.835520490231146,-8.793701558864655,2.30998474116853,-10.168649319627542],[-6.885327692125986]],"id":0,"number":2}
