{"architecture":{"NEURONS":[10,7,1],"LAYERS":3,"totalSynapses":77},"weights":[6.0293475091114885,1.754528595644356,-1.7903450903925076,8.600679701242939,-8.699732601837297,6.825372680117489,-1.9436263279814128,-4.846467162479204,10.234359553470895,0.17467908336129195,-2.2343100147088464,-5.628904559424077,-8.544758574978456,1.0365442769463393,0.3237902407583336,-4.424547252224249,-6.566084084395943,0.48529411118449617,7.249354149502004,-6.46357957855934,6.521360281426637,2.3717628659150547,-6.326780997797061,4.503989510221662,6.3240613730625554,-2.7631416968940252,5.716888888134257,-9.786112883059618,5.900493486717898,-2.020959590122977,2.404342762326236,-5.995536529724843,8.647382499749172,6.714404226335477,4.138387194001751,0.5509734082005568,8.677837695474503,9.829688892058321,-6.355746359246721,5.861107877808633,-6.72735400087213,-8.0749658451982,9.204828057139041,3.768218135263983,-3.747903110128088,2.3855273507700736,-3.555084022084246,9.486789400006632,-0.3815970436477638,-3.7325815503552615,1.5622888719616002,6.993845607388077,-7.4773693590284696,1.1069497553979089,6.7091784540159445,-5.8777545412186605,-5.678175220639222,8.485106005628111,-0.3635622448163933,-3.3344225130843057,8.314254118433253,1.4571024359050706,8.329421754770308,2.0786790948750444,-5.048351003960522,1.222876040923444,8.111836719341778,-6.3908174020717645,0.44525744609102524,-6.022198975554661,7.500608765879606,3.3915824173041713,-2.7425008061151073,1.1552482243758746,-2.7140796463128822,-5.013364736081465,1.1353683572872035],"bias":[[-8.205298972563265,-3.533233332938303,-6.872295923615102,-7.560312260919489,-0.2783183530707154,-9.251813732117206,-4.593654582869206,2.1584464128508163,-2.9036492079156133,-1.1037782581794247],[4.996308895480766,6.250833717889821,7.930561763570946,-8.070181362314504,5.515619289180236,-6.444097551140178,0.5239751443415095],[-2.5966348049440335]],"id":0,"number":2}
