{"architecture":{"NEURONS":[10,7,1],"LAYERS":3,"totalSynapses":77},"weights":[-4.148498435795068,4.118628685691639,1.4146500975811431,-2.3224416730838238,-6.200785494900694,9.452732374424983,5.826282336945683,-0.1306316374344631,2.100030850239096,-0.902723083044837,2.2541574044062718,-3.050147798859323,9.959162010776469,6.57914560403272,-1.7557361744771,-2.5272428831495564,-7.766508684078217,3.1919243977108045,-9.955867372609477,-9.358921926522784,6.132801228046599,-1.7730921599697975,-2.379475487340075,5.57797666017104,-0.9589254406111263,-6.8909760571022645,0.23982553986357968,4.149600465981155,-1.634287292617501,3.8608173680859714,9.161955392307242,7.236065697395448,4.52404527306253,7.127876463991259,-9.480358562792908,4.945350383959881,4.526879972013385,4.860314468415135,5.512157108172328,-2.4092143130507426,5.331331756026435,-5.19108530435714,-6.060443892138199,2.5646627126761437,-6.250360449597504,3.7299312209220745,-4.134607419390299,0.40057865999069603,3.140652636177194,5.997848633477305,1.9454259845973716,-8.03039919058892,7.103835252202967,-5.624293495770096,-3.633954824530682,-5.195640134860882,-6.033734825282114,3.594892461744409,-0.6811529880566096,3.772391959178335,-6.41283421026755,-3.4442163774110415,6.828351908069713,-9.236262845021866,-3.906495385315367,-2.8916111299072993,-5.400422287695822,3.5138506353850785,8.22720768768101,-0.40762508926880436,-6.038351382440735,3.822498042919332,0.42287671967559126,-0.6140597392591975,7.329077097821218,5.213726010316627,-1.4053187345273985],"bias":[[-8.345893728323341,5.303260132845428,-5.419413435030422,5.041780024870401,2.64026732398327,8.606127050662808,7.7822443788766344,-6.453077980675939,6.819738249509035,0.0958221003852209],[-1.3712534322877517,0.5211142377127852,-5.564305022588543,-8.181750086729217,0.45632481416851656,6.348619503036333,7.755707310129225],[-4.918166832955477]],"id":0,"number":2}
