{"architecture":{"NEURONS":[10,3,1],"LAYERS":3,"totalSynapses":33},"weights":[6.3984371394106425,-7.739764505211932,-8.850719057496235,-0.4888811368313597,8.151933779683228,-1.240056507003855,4.1708269358647465,2.2646996052976367,0.444595921783688,-2.772312165964319,0.5336299680502954,-4.672027675364985,4.016417833178998,4.139019645505844,-9.747111105218139,0.2695071120276431,-6.9139232073822114,5.230069850734738,3.742374023243143,3.941135013539645,-0.9971955797384391,-3.544281609149857,9.279391500730007,0.9073745669587876,0.18752842673482562,-0.6125408642442354,-4.142583102801256,-4.196877128214414,-5.319248971181265,-7.044890309343397,-1.4879396294034528,9.099381963692675,0.32876887959584433],"bias":[[-5.530043475367301,-7.438504833234307,5.203966017227072,4.595794495839094,-0.310926657114622,3.0194463179654205,3.166478157570685,-0.34482646428062413,-3.624047292337009,-8.71089500591999],[-5.057073188560144,0.6592553636429748,-9.994629021368311],[3.70772448847619]],"id":0,"number":2}
