{"architecture":{"NEURONS":[10,3,1],"LAYERS":3,"totalSynapses":33},"weights":[-4.5137730517034305,-5.335826848758024,-7.930797112269584,-4.597859895079143,-4.671389346150194,-0.722830763686882,9.639273016160638,5.439066060546178,3.7431773976177616,3.7661390144424103,-0.6291683255663709,-0.45790950290123994,-4.646419461620676,3.987219063787272,-6.358110338351125,5.3479066114492655,-2.357853982324428,0.36516396514906174,-8.400231599906245,-0.799783770405653,0.2893134670336231,9.696815901861047,-7.685729721685206,5.117741358410951,-9.526181860731734,2.0808583084957952,-7.289549152340275,1.6959615940896602,5.690332065519823,-0.6989537290342989,-3.3577266815696123,-1.655894462707106,3.473650442537427],"bias":[[3.678026180710465,4.882378482433332,8.548881713369731,4.127320259719578,2.6819512776455956,-5.2664439395689175,5.615823601475409,-6.2280672774862404,2.1638693488652354,-1.4543814001445212],[-8.30181712851873,-2.514305433257503,-4.87186345452964],[-7.485844639051816]],"id":0,"number":2}
