{"architecture":{"NEURONS":[10,7,1],"LAYERS":3,"totalSynapses":77},"weights":[-4.031191540572506,8.669034079588412,-8.868352363162991,4.905200939692969,-10.193315340216563,9.578005847918577,6.034551701185265,3.3239045485755376,0.5073570209140031,-5.330879309246466,-0.1629399681509329,-1.5438498887790806,2.177814231487212,-4.480831884108312,0.7269094961446072,8.192979380803077,-7.987822452314011,8.851046325742573,-7.045175297891502,5.180259556583909,-2.4285327185941465,-8.896835010494684,6.801889196490501,-1.9268785055414401,0.9627976535185971,6.463778544667182,6.740270344284481,-1.868800513154142,5.204617465665875,0.3069407253347174,-1.3042176500335196,-1.0148727243790001,1.4952025388920775,9.334806233313415,-6.183122875001128,-7.263500554722093,-2.348468983802599,4.526742430570192,5.308154571991789,6.46950875856447,-7.479750941476152,4.447849603611805,9.0025916296138,-7.504212101633906,-7.725389107895249,-3.8757057471133214,-6.690114525503135,5.261956503245029,0.009466847421440383,6.091898831869909,-0.6205111405340421,-5.828769618641125,-1.6695832935728312,8.81699760276212,-8.496149496523104,-8.780925659155393,-8.183070616016213,8.734223706079371,-8.621636609579202,-7.242691510110715,6.3793203055229775,7.671813962359808,0.7913446306350714,7.46590511496384,-4.88943337392057,8.615357477547283,0.37076788267512517,-9.34485512704367,-0.816017646810332,-9.353543642101528,7.603898067718603,-7.167798866514439,-5.08779230780524,7.2611711711552624,7.789114383312523,-6.920573191254445,7.474319448109477],"bias":[[6.198918388985872,0.7877679030631726,6.473484356670222,-7.735973710863942,-0.6196808058537147,-9.206561333389775,-0.7796565044407388,-0.5131219900839564,6.52256214261473,-4.136548418856462],[5.153489833697778,-1.5216010304009289,3.3935233787155195,-6.08869483971813,7.074396611058487,5.745157207718216,-7.537531352115614],[5.388859716970255]],"id":0,"number":20}
