{"architecture":{"NEURONS":[10,4,1],"LAYERS":3,"totalSynapses":44},"weights":[-5.7577479510989775,-4.93585758157405,1.1646097100000672,-1.8790420360856679,9.599961355998795,-5.043893518811142,5.7531295167706515,5.601886597981708,-8.6468552793733,0.30204358396165065,4.66567258637116,0.42273350242791174,-2.7415108708327938,-9.702049674102946,1.1922435199802113,8.057722165120712,8.290363874888326,6.708448801316237,-1.7360023092725463,6.973929502013334,8.490165300461314,4.906528325556119,7.771731066353908,3.5722285386199637,1.979189450453073,-3.9535316548413917,2.4684404115260463,6.541283591073817,-3.3322049777484386,9.502114251845168,-7.868134781650866,4.648470359656932,0.8421553878726407,-5.554267822974435,6.6811820446505985,1.3192503181469597,2.9905205291909667,-6.783660267438122,-8.597204469769023,-3.750305328389405,-8.876232604955367,-7.735914990535486,-1.236111253626187,-2.0618273056311502],"bias":[[-8.625926697232106,-2.1094426439824465,-9.638281380756686,-2.538917210872005,1.3311489911721885,-5.176203419913459,-9.91867120468144,-7.910820923819324,-5.422056565021967,2.9387931116759454],[-6.7672952264587405,6.319568422239711,1.5403513395065875,0.6548853468030558],[4.636143817749678]],"id":0,"number":20}
