{"architecture":{"NEURONS":[10,7,1],"LAYERS":3,"totalSynapses":77},"weights":[-3.922847850530844,4.257390272288072,1.101525828091013,-2.5115501158736353,-5.690903678116193,9.614384784373033,5.714079275672153,-0.02759471918109474,1.768446804154477,0.5667040497831879,2.305160413910813,-3.4443550154279268,9.289135240683413,7.128943587531428,-1.96520041501477,-2.9506464719523016,-8.057873946089273,3.3106036885707373,-9.334502711094578,-9.847371052857028,6.2585794018985474,-2.0532143487853403,-2.43635630586727,5.812791516081479,-0.28120099664663245,-7.0553210851420936,0.23777580881765625,3.613053464488098,-1.5760542371128572,3.648686428032308,9.802465966308596,7.519856150970905,4.610742418293157,7.008724496032772,-9.462714982308691,5.456335787635053,4.536884777471384,3.7281440459804127,5.551106798148142,-2.4011333588713497,4.326655066691731,-4.779265258240435,-6.136249159412281,2.1654561376111223,-6.789825060884322,3.683856641659601,-4.097381493108822,-0.0032010946009503327,3.241565204185863,6.1267423142924144,1.74233390371735,-7.924636617455674,6.974159795263014,-4.9742468895189855,-3.2926070455463736,-4.677241743965277,-6.071566664587041,3.250581969560086,-1.21506545252425,3.5903465098251495,-6.662945220363104,-3.657954221209706,7.308245588060007,-9.130488575367826,-3.8941858725202807,-3.589054593720305,-4.844272167609652,3.300784441500336,8.723847280584112,-0.3033562057890843,-6.155298608440169,3.239870667894067,1.9258427267047311,-0.8259791445941791,6.691612401013331,4.787412105064415,0.24675641030780446],"bias":[[-8.136058174878416,4.8320841396292,-4.813734606054749,5.088798464198484,3.159837408728132,8.213481346777593,7.046097981097407,-6.569060218946126,6.4785600885690835,-0.050491794336589846],[0.034812460918710375,0.7448256063255769,-5.714384308990612,-8.689511038605659,0.551958029792083,6.448073198384344,7.9005001577058165],[-5.022044176509225]],"id":0,"number":20}
