{"architecture":{"NEURONS":[10,4,1],"LAYERS":3,"totalSynapses":44},"weights":[-4.470379034790456,-5.748100617883309,0.7082350069013179,-2.4345806809611994,9.149379576993445,-5.572928458349866,5.573354229944039,-0.9881025283276236,-5.019914112313327,0.8238885031015069,4.925333115701633,-0.37958832225737327,-2.8965765370357563,-9.33387157467981,0.9878816947671502,8.148441948312213,7.869108995873287,6.413158479021292,-1.6772463926536003,6.316921592380906,9.18293242128955,4.65547860750044,8.91570608428037,3.6342256908511583,1.689699530509299,-4.632412932858403,2.972970784409032,6.70242001971257,-3.2666841904177666,9.79924890083324,-8.09807218188086,-6.415622987124611,0.5755733830426167,-5.502808740391163,6.205005239741282,2.3426757792241197,1.7776883526852396,-6.967042957553917,-8.456930529509625,-3.7089984707341483,-8.71891533823993,-7.544893280578649,3.034925883876594,-2.003313245118095],"bias":[[-9.297573961523405,2.7830668764872457,-9.776777128554414,-1.6985494116885629,-0.06946006751167677,-5.123700050107259,-10.310122325908862,-7.934073928125671,-7.550588231638285,2.520846616792313],[0.7183293229796848,5.675883888407848,1.5403513395065875,0.963306906477176],[4.329515619467715]],"id":0,"number":200}
