{"architecture":{"NEURONS":[10,4,1],"LAYERS":3,"totalSynapses":44},"weights":[-4.958689106656699,-5.332641040584054,-0.16789521572588015,-1.8054811204115524,9.235331051345316,-5.335089994611591,5.129500264284759,-0.9881025283276236,-5.019914112313327,0.7560828582820341,4.724945942596433,-0.0731285668810761,-2.8965765370357563,-9.736390510734948,0.9302779567342228,7.957644489897616,7.928406555044752,6.413158479021292,-1.9160664378871282,6.4738226562416505,9.354021150758742,4.706113817413361,8.896401022869648,3.6342256908511583,1.9039745094286624,-3.784918981362086,2.3093962405140864,5.968948581035994,-3.421300036703053,9.86985800709934,-7.509465453604778,-6.028902011730339,0.7029832667840672,-5.599231790162458,6.205005239741282,2.3426757792241197,2.1836460060993694,-7.0422065323600895,-8.806110461056022,-3.632543599353354,-10.026300987792268,-7.834790468868234,3.1440016550701557,-1.5410708770791834],"bias":[[9.328421720824204,2.4276113720825347,-9.958377668547486,-2.528650709619379,0.02290053802215942,-4.609231560571073,-10.310122325908862,-7.982703379072622,-7.532335567194174,2.520846616792313],[0.6535231652324456,6.46662847632536,1.5403513395065875,0.750560001466178],[4.162804365991352]],"id":0,"number":201}
