{"architecture":{"NEURONS":[10,4,1],"LAYERS":3,"totalSynapses":44},"weights":[-4.3924833252783655,-5.601828044446336,0.7778562295018677,-1.8062920394964344,9.235331051345316,-5.572928458349866,5.129500264284759,-1.0059421199133896,-5.093421537484409,0.7705592517107712,4.759999456572153,-0.0337293209918484,-2.865392549177247,-9.282346681363787,0.9053794384796862,8.148441948312213,7.543459534298145,6.834226888980992,-1.7232026055266148,6.316921592380906,9.18293242128955,4.65547860750044,8.896401022869648,3.6342256908511583,1.9039745094286624,-5.1422223120693396,2.173189572194751,6.173560433188055,-3.2666841904177666,9.637876105849207,-7.9694981943341245,-6.028902011730339,0.7029832667840672,-5.353084472244653,7.246872079745606,2.4240348899137936,2.1836460060993694,-6.909643108773242,-8.456930529509625,-3.6830993459803394,-8.968656609569152,-8.156255900812624,3.1150378213814687,-2.003313245118095],"bias":[[9.058931875091865,2.428145707024855,-9.776777128554414,-1.6985494116885629,-0.06946006751167677,-4.488768140622005,-10.310122325908862,-7.982703379072622,-7.639220969430896,3.2413546480341875],[0.7183293229796848,9.781794836765888,1.9131393198881994,1.3429852538280977],[4.1765273160318115]],"id":0,"number":202}
