{"architecture":{"NEURONS":[10,4,1],"LAYERS":3,"totalSynapses":44},"weights":[-4.606102982211457,-5.601828044446336,-0.16789521572588015,-2.2847307542384643,9.413971233685055,-5.518555947758067,5.129500264284759,-0.9881025283276236,-5.019914112313327,1.276273278482978,4.759999456572153,-0.011446994537912536,-3.1808867303347412,-9.036640287633302,1.1729859721625169,8.137831685759283,7.78000448738606,6.834226888980992,-1.8014465029764755,6.013275258507483,9.53222294215592,4.508513409314141,8.977279345532601,3.6342256908511583,1.355960563552743,-4.400236416576026,2.381018870062352,6.173560433188055,-3.7034264083909907,9.637876105849207,-7.509465453604778,-6.201232396437504,0.684289024959163,-5.709855103273566,6.926824949231797,1.9688390764705814,2.250828085122379,-6.967042957553917,-8.466425099100519,-3.6830993459803394,-8.71891533823993,-7.819377814768618,-2.085455502137806,-2.003313245118095],"bias":[[9.058931875091865,2.428145707024855,-9.776777128554414,-1.7507205572598183,-0.21869356991079766,-4.488768140622005,-10.310122325908862,-8.224937973873502,-7.688504894825498,3.2413546480341875],[0.7183293229796848,9.781794836765888,2.1928172724762027,0.963306906477176],[4.329515619467715]],"id":0,"number":203}
