{"architecture":{"NEURONS":[10,4,1],"LAYERS":3,"totalSynapses":44},"weights":[-4.606102982211457,-5.3975465262255815,-0.16789521572588015,-1.538784882259191,9.437908832200295,-5.401942007799763,5.573354229944039,-1.1178881010298718,-4.938406819868527,0.7560828582820341,4.759999456572153,-0.3293039964651605,-2.7589933360477943,-9.309201668055842,1.110048065960236,8.148441948312213,7.543459534298145,6.834226888980992,-1.6752503346417362,6.316921592380906,9.180340570583677,4.835513633148209,8.500756912005295,4.075311110751571,1.355960563552743,-4.632412932858403,2.266898678912496,5.5029900853238685,-3.2666841904177666,9.725720537621937,-7.509465453604778,-6.3758079963536325,0.6424341885925638,-5.74513883032177,7.246872079745606,1.8724197578470054,2.483487848536806,-7.005278852095963,-8.379800767722845,-3.6830993459803394,-8.71891533823993,-7.544893280578649,3.1150378213814687,-1.5410708770791834],"bias":[[9.219095399627244,2.878454439444027,-9.784419087777051,-1.7352674039446354,0.13779196484855333,-5.123700050107259,-10.310122325908862,-7.982703379072622,-7.550588231638285,3.048934311991258],[0.6468902835878945,6.570678479662125,2.1928172724762027,1.053960711254541],[4.223138186371062]],"id":0,"number":204}
