{"architecture":{"NEURONS":[10,4,1],"LAYERS":3,"totalSynapses":44},"weights":[-4.606102982211457,-5.2461273770837185,1.079756971841285,-2.2847307542384643,9.114292431737244,-5.335089994611591,5.140832875687823,-1.0891926388306907,-5.019914112313327,0.7560828582820341,4.865544271150907,-0.0731285668810761,-2.7752938921206836,-9.309201668055842,0.9878816947671502,7.7695081089152245,7.543459534298145,6.834226888980992,-1.6543847574121533,6.1877570695216635,9.53222294215592,4.65547860750044,8.739508037074316,3.359210889648809,1.689699530509299,-3.784918981362086,2.3093962405140864,5.968948581035994,-3.907343991970442,9.927394057075363,-7.051202747048009,-6.387456859761497,0.7029832667840672,-5.51804845834002,6.205005239741282,2.3426757792241197,2.1836460060993694,-6.967042957553917,-8.806110461056022,-3.4182675668531615,-8.949496632277933,-7.834790468868234,-2.085455502137806,-2.003313245118095],"bias":[[9.328421720824204,2.4276113720825347,-9.697879352594743,-2.4274104171646176,0.0553475244305601,-4.488768140622005,-10.380723049686006,-7.982703379072622,-7.766032216798126,3.048934311991258],[0.7183293229796848,9.781794836765888,2.1928172724762027,0.750560001466178],[4.223138186371062]],"id":0,"number":205}
