{"architecture":{"NEURONS":[10,4,1],"LAYERS":3,"totalSynapses":44},"weights":[-4.911978846102024,-5.601828044446336,-0.41421671747844835,-2.2847307542384643,9.457192898606879,-5.3484384602033135,5.573354229944039,-1.1178881010298718,-4.815736866230651,0.7705592517107712,4.759999456572153,-0.0731285668810761,-2.7589933360477943,-9.309201668055842,1.1729859721625169,7.957644489897616,7.4046115537586985,6.834226888980992,-1.7024712374801239,6.316921592380906,9.354021150758742,4.65547860750044,8.896401022869648,4.075311110751571,1.355960563552743,-4.632412932858403,2.266898678912496,6.22688743217665,-2.467774647075972,9.79924890083324,-7.9694981943341245,-6.415622987124611,0.3242148972433652,-5.709855103273566,6.205005239741282,2.533346237815136,1.536058621847789,-6.616298472876446,-8.476310864381002,-3.6830993459803394,-10.026300987792268,-7.834790468868234,3.1150378213814687,-1.5410708770791834],"bias":[[9.138993926902415,2.3358830819151306,-10.131080243243252,-2.528650709619379,-0.2328724947604497,-4.55961200210937,-9.96131127274313,-7.982703379072622,-7.639220969430896,2.525194322677883],[0.7183293229796848,5.984417608574208,2.29215989610235,0.7414855397200312],[4.223138186371062]],"id":0,"number":206}
