{"architecture":{"NEURONS":[10,4,1],"LAYERS":3,"totalSynapses":44},"weights":[-4.606102982211457,-5.2461273770837185,-0.16789521572588015,-1.9378395261757169,9.187530618441695,-5.533506579725131,5.129500264284759,-0.6741825802730687,-5.019914112313327,0.604339827930074,4.759999456572153,-0.39425150420575256,-2.8965765370357563,-9.335471432609651,1.029652541421829,7.957644489897616,7.716950768324663,6.413158479021292,-1.6752503346417362,6.316921592380906,9.354021150758742,4.65547860750044,8.896401022869648,3.6342256908511583,1.355960563552743,-3.7160359717661877,2.381018870062352,6.70242001971257,-3.2666841904177666,9.637876105849207,-7.749626617127591,-6.020206356211777,0.7626925863125934,-5.598273144887359,6.926824949231797,1.9688390764705814,2.483487848536806,-6.909643108773242,-8.466425099100519,-3.6830993459803394,-10.026300987792268,-7.834790468868234,3.296944947744939,-2.1680771240226857],"bias":[[9.219095399627244,2.428145707024855,-9.776777128554414,-1.7507205572598183,-0.08814226389717489,-5.013923429542574,-10.367418099598705,-8.178111235865348,-7.300439951165197,2.525194322677883],[0.7183293229796848,5.984417608574208,1.2232940580324907,1.3429852538280977],[4.223138186371062]],"id":0,"number":207}
