{"architecture":{"NEURONS":[10,4,1],"LAYERS":3,"totalSynapses":44},"weights":[-4.872316730643618,-5.748100617883309,0.16244837381039737,-1.9378395261757169,9.036750431292393,-5.335089994611591,5.129500264284759,-0.9848606206819692,-5.225748241317153,0.8238885031015069,4.759999456572153,-0.37958832225737327,-2.991280683510906,-9.282346681363787,0.9302779567342228,8.148441948312213,7.6984440520169075,6.834226888980992,-1.6772463926536003,6.505635499750658,9.354021150758742,4.690965629870808,8.896401022869648,3.5126727550834644,1.9039745094286624,-4.400236416576026,2.381018870062352,6.173560433188055,-3.0826726962577493,9.706890461616908,-7.509465453604778,-6.56818782341871,0.7020754315420533,-5.37107329145912,6.205005239741282,2.046872404625263,1.744171312940728,-6.909643108773242,-8.352244936709733,-3.6830993459803394,-8.949496632277933,-7.743751659034583,3.1150378213814687,-2.3743298251849887],"bias":[[9.058931875091865,3.0630785224358488,-8.85338800676732,-1.7352674039446354,-0.08814226389717489,-4.609231560571073,-10.310122325908862,-8.224937973873502,-7.722507042180555,3.2413546480341875],[0.9189109294482569,6.46662847632536,1.3154273294705812,0.7414855397200312],[4.223138186371062]],"id":0,"number":208}
