{"architecture":{"NEURONS":[10,4,1],"LAYERS":3,"totalSynapses":44},"weights":[-4.606102982211457,-5.601828044446336,0.6719032628346697,-2.2847307542384643,9.235331051345316,-5.335089994611591,5.573354229944039,-1.177462839805048,-4.876924922712751,0.7705592517107712,4.481751824644868,-0.0731285668810761,-2.991280683510906,-9.309201668055842,1.1070537354621885,8.121563170977844,7.869108995873287,6.466493023742241,-1.7232026055266148,6.4738226562416505,9.354021150758742,4.65547860750044,8.896401022869648,3.5392965586977367,1.355960563552743,-4.860055082283376,2.5701621484530777,6.153162947066832,-3.498251323680173,9.79924890083324,-7.051202747048009,-6.415622987124611,0.7029832667840672,-5.709855103273566,6.205005239741282,1.9688390764705814,1.7776883526852396,-6.909643108773242,-8.806110461056022,-3.1739685071805295,-8.803264816351016,-7.544893280578649,-2.085455502137806,-2.003313245118095],"bias":[[9.058931875091865,2.3371591798941616,-9.958377668547486,-1.575141138114104,-0.08814226389717489,-4.835612699300081,-10.310122325908862,-8.318712050379085,-7.300439951165197,2.520846616792313],[0.7183293229796848,5.984417608574208,2.1928172724762027,0.9932018580846597],[4.223138186371062]],"id":0,"number":209}
