{"architecture":{"NEURONS":[10,7,1],"LAYERS":3,"totalSynapses":77},"weights":[-4.169783796210804,8.637200742646893,-9.624866513707088,5.1537946475932195,-9.46982300344878,9.705862570416736,6.008053070951436,3.4403533358105847,0.7346949923536327,-5.148294111364077,-0.23096259874237976,-1.3317226788159449,1.8505055671198207,-4.426951145074844,0.7269094961446072,9.021527508062094,-8.034533951331031,8.818718833788983,-6.30774836738578,5.193513565668864,-1.9570798753342442,-8.861645593632392,6.7265056658020255,-1.4163527939659195,0.30592602105036726,6.755069604114888,7.053595649949519,-1.2525214535133855,5.937616478393625,0.8053640916808054,-1.6522376111426644,-0.855218248904436,1.574055879091084,9.461155609208614,-7.070585356639249,-7.563815143914995,-2.9495661869107526,4.473271541074668,5.531206782527822,6.894043330304737,-7.999525273097572,4.581969372480337,8.943277927574446,-7.6791170715945,-7.034964610712887,-3.6555268324449526,-6.434973307208032,5.349530985507807,-0.27623783372809085,6.557572424592599,-0.9555951495360719,-5.768258137954687,-2.130203096309069,9.415422273527396,-8.355466956630769,-8.996478379080852,-7.973772201254217,9.36873092714912,-8.417916866091431,-7.277282527649581,5.881668317338777,7.598329296510441,0.6918541117450102,8.234227784431264,-5.317280599520838,8.559648196059129,0.9800258504775473,-9.59557400799659,-1.125562909867385,-8.895983964808334,7.510084313241306,-7.267129398502629,-4.754709793879059,7.148453974366413,7.965032475692426,-7.191527299188751,7.4157938269095025],"bias":[[5.930837956978065,0.7807865188760204,6.602613444634542,-8.188706881340927,-0.5442416944726218,-9.996888898274586,-0.7089022646535124,-0.4528536677502689,6.3171638195444215,-4.6333692400152],[5.336089955393368,-0.8037726889744408,4.356298687026964,-5.964814626871777,6.120949265246861,5.944735797715968,-7.825901617862306],[5.213876064379873]],"id":0,"number":21}
