{"architecture":{"NEURONS":[10,7,1],"LAYERS":3,"totalSynapses":77},"weights":[-4.316062898696039,4.16791252266081,1.4091604349011189,-2.1339004876479786,-5.941949644234327,9.237281356147045,5.864391327086894,-0.6554439098536178,3.230136734138438,0.2816784823183437,2.0327010796681155,-3.441629614530397,8.197925506292838,6.332375398900203,-1.3763650984462776,-2.1356026708935465,-6.498712612442232,3.4832027677960355,-9.862505651714262,-9.557466201710769,5.639708751627987,-0.3249079034276592,-2.5700279291135697,5.87803430837965,-0.8309182067935181,-6.886820490008508,-0.3364358012445121,4.0833238555961575,-0.5529375474012262,4.412123970898878,8.977990312034686,7.646155085983347,5.446155500634169,6.864768262485746,-8.168448680833905,5.164890770570361,3.3772537106646494,5.477100358703627,6.7281287541801245,-3.2850275926749943,4.6819456888165165,-4.914210546404128,-5.858452404554597,1.6579010888140586,-6.531780008316856,3.2326535942316914,-3.543094880992402,-0.5042842132516383,2.5508694179104934,6.340778298937442,2.296659010058204,-7.397134613531669,7.669938980646345,-5.691824560179886,-3.7110028820677448,-5.2695313674570095,-6.31419502479259,3.79529332502193,-1.6314828962477652,4.080899218613924,-7.595760560004046,-3.7054897613854365,6.934252724193089,-9.286539957629062,-3.7828287535239484,-1.9932675598509628,-4.836817927240014,2.382930182349687,7.986693201317898,-0.5485673170562448,-5.783577954013057,4.633898534286102,0.3574280503938323,0.16105038688559248,7.033518933294909,5.495090646340364,-1.6455680797941747],"bias":[[-9.385766943979858,5.264945288587505,-5.130995394632208,5.094495532947061,2.632762300055965,8.776392353914348,6.85458617084336,-6.518124734857586,6.55478845288887,-0.12249012931377373],[-1.1368938081658593,1.0736032793976924,-4.51158379357417,-10.053320924003401,0.31587280243420435,6.7551445661016025,7.077282420822788],[-5.538140628528628]],"id":0,"number":21}
