{"architecture":{"NEURONS":[10,4,1],"LAYERS":3,"totalSynapses":44},"weights":[-4.606102982211457,-5.2461273770837185,0.6497969665953572,-1.9378395261757169,9.217202445575385,-5.178058670325124,5.129500264284759,-1.4742752988424854,-5.019914112313327,0.6974558081771776,4.613308880640066,0.04630467354266045,-2.7752938921206836,-9.282346681363787,1.2263586058766616,7.7695081089152245,7.928406555044752,6.438774669015291,-1.6772463926536003,6.1877570695216635,9.247483006296893,4.65547860750044,8.917732473741612,3.5126727550834644,1.689699530509299,-4.860055082283376,2.381018870062352,6.2674440970581555,-3.7034264083909907,9.927394057075363,-7.051202747048009,-6.2042488347137335,0.24549432077785005,-5.4647630950923,6.205005239741282,2.1407581986572257,1.7776883526852396,-6.909643108773242,-8.352244936709733,-3.4182675668531615,-8.71891533823993,-7.819377814768618,-2.085455502137806,-2.003313245118095],"bias":[[9.058931875091865,2.4276113720825347,-8.85338800676732,-1.6042500598844274,-0.08814226389717489,-5.207152751791993,-10.20060808655374,-8.695238969024082,-7.766032216798126,2.520846616792313],[0.7183293229796848,5.965479221601668,2.1928172724762027,0.7414855397200312],[4.887661487285477]],"id":0,"number":210}
