{"architecture":{"NEURONS":[10,4,1],"LAYERS":3,"totalSynapses":44},"weights":[-4.1420150352387655,-5.532594297211884,0.0034443856067734556,-1.9838752426098096,9.187530618441695,-5.533506579725131,5.573354229944039,-0.6741825802730687,-5.622113338429826,0.7560828582820341,4.616434117799246,-0.0731285668810761,-2.991280683510906,-9.335471432609651,1.029652541421829,7.955826117022393,7.847554498351633,6.413158479021292,-1.6752503346417362,6.316921592380906,9.448561272880381,4.924633971173029,8.896401022869648,3.6342256908511583,1.6935441813715786,-4.400236416576026,2.669918859745864,6.215061327253399,-3.2666841904177666,9.637876105849207,-7.051202747048009,-6.028902011730339,0.7029832667840672,-5.4647630950923,6.205005239741282,2.069762699971491,2.335635869913881,-6.779087100831004,-8.35016004997297,-3.6830993459803394,-8.470470715184478,-7.834790468868234,3.1850343431996615,-1.9332680024518827],"bias":[[8.90186496126397,2.8973369510974707,-9.35860293832685,-1.575141138114104,-0.006683664133998554,-4.854970437333846,-10.319376452793573,-8.197634329446906,-7.550588231638285,2.525194322677883],[0.6740324811822818,5.675883888407848,1.8339468997926605,1.4700646476331771],[4.314607719366146]],"id":0,"number":211}
