{"architecture":{"NEURONS":[10,4,1],"LAYERS":3,"totalSynapses":44},"weights":[-4.606102982211457,-5.588261768120184,1.0526164522051786,-2.2847307542384643,9.217202445575385,-5.340423058904894,5.573354229944039,-1.1636869713567064,-5.224611540031759,1.0299138096976468,4.715939866528863,-0.0731285668810761,-2.905916446188178,-9.467253116450586,1.110048065960236,7.624118172073004,7.78000448738606,6.413158479021292,-1.6674296664836286,6.436049837294411,9.18293242128955,4.835513633148209,8.896401022869648,3.6342256908511583,1.355960563552743,-5.322136108257167,2.4716189917420945,5.793625758835267,-3.6901109163976678,9.637876105849207,-7.768626056544885,-6.028902011730339,0.7029832667840672,-5.353084472244653,6.616067903826984,2.2987463223650195,1.6376723288734247,-6.819542164595408,-8.806110461056022,-3.1739685071805295,-8.71891533823993,-7.544893280578649,3.1440016550701557,-1.5410708770791834],"bias":[[9.058931875091865,2.878454439444027,-9.35860293832685,-2.528650709619379,-0.2328724947604497,-5.123700050107259,-10.20060808655374,-8.695238969024082,-7.766032216798126,2.980390280997537],[0.7183293229796848,5.984417608574208,1.8339468997926605,0.963306906477176],[4.1765273160318115]],"id":0,"number":212}
