{"architecture":{"NEURONS":[10,4,1],"LAYERS":3,"totalSynapses":44},"weights":[-4.606102982211457,-5.430694058332078,-0.41421671747844835,-1.9838752426098096,9.187530618441695,-5.457309103985553,5.573354229944039,-1.177462839805048,-5.228842326152748,0.7705592517107712,4.616434117799246,-0.37958832225737327,-3.065772647324693,-9.523192479597679,1.029652541421829,8.148441948312213,7.928406555044752,6.413158479021292,-1.9160664378871282,6.4738226562416505,9.100922519882864,4.633244919299846,8.500756912005295,3.6342256908511583,1.9039745094286624,-5.243975112562981,2.669918859745864,6.215061327253399,-2.976126695829797,9.637876105849207,-7.212090106120455,-6.028902011730339,0.9431229319848761,-5.598273144887359,6.926824949231797,1.9688390764705814,1.7776883526852396,-6.909643108773242,-8.291393727484543,-3.6523764867580906,-8.71891533823993,-7.834790468868234,3.296944947744939,-2.003313245118095],"bias":[[9.138993926902415,2.878454439444027,-9.11778691793669,-2.528650709619379,-0.07976278268283132,-5.013923429542574,-10.310122325908862,-8.197634329446906,-7.688504894825498,2.520846616792313],[0.7183293229796848,6.46662847632536,2.1121535473468924,1.0313218490558844],[4.223138186371062]],"id":0,"number":213}
