{"architecture":{"NEURONS":[10,4,1],"LAYERS":3,"totalSynapses":44},"weights":[-4.926982114181437,-5.601828044446336,0.6719032628346697,-2.5239124254928433,9.114292431737244,-5.178058670325124,5.52451122878859,-1.6123363582738903,-5.019914112313327,0.6974558081771776,4.801868607217038,-0.0731285668810761,-3.065772647324693,-9.282346681363787,1.1070537354621885,7.7695081089152245,7.928406555044752,6.438774669015291,-1.6752503346417362,6.440427422708773,9.354021150758742,4.65547860750044,8.917732473741612,3.6488610245686086,1.1102399251657866,-4.400236416576026,2.381018870062352,7.087870424578723,-2.976126695829797,9.927394057075363,-7.9694981943341245,-6.028902011730339,0.7029832667840672,-5.4647630950923,6.205005239741282,2.2987463223650195,1.39909854814535,-6.909643108773242,-8.352244936709733,-3.4182675668531615,-8.71891533823993,-7.834790468868234,3.1440016550701557,-1.5410708770791834],"bias":[[9.058931875091865,1.9488567129215548,-9.194894357721436,-1.7507205572598183,-0.2328724947604497,-5.177316033999037,-10.310122325908862,-8.695238969024082,-7.766032216798126,2.520846616792313],[0.7183293229796848,5.675883888407848,1.9028551153506719,0.46896049705314147],[5.121509861419571]],"id":0,"number":214}
