{"architecture":{"NEURONS":[10,4,1],"LAYERS":3,"totalSynapses":44},"weights":[-5.126400784194153,-5.601828044446336,0.6719032628346697,-2.2847307542384643,9.416355260936028,-5.340423058904894,5.129500264284759,-1.1178881010298718,-5.228842326152748,1.0417726214086704,4.801868607217038,-0.19251524855037555,-3.1954549392672345,-9.33387157467981,1.1070537354621885,7.624118172073004,7.869108995873287,6.448356972500796,-2.185641986578899,6.4738226562416505,9.354021150758742,4.633244919299846,8.896401022869648,3.6342256908511583,1.9039745094286624,-4.400236416576026,2.1894270864202916,6.2674440970581555,-3.0826726962577493,9.637876105849207,-7.768626056544885,-6.445842836886921,0.8895192872197112,-5.709855103273566,6.616067903826984,1.9688390764705814,1.1563160513451538,-6.819542164595408,-8.476310864381002,-3.6830993459803394,-8.989813812537022,-7.743751659034583,3.1440016550701557,-2.003313245118095],"bias":[[9.058931875091865,2.0210496592716485,-9.776777128554414,-2.528650709619379,-0.2328724947604497,-4.609231560571073,-10.367418099598705,-8.197634329446906,-7.639220969430896,2.525194322677883],[0.7183293229796848,9.781794836765888,2.29215989610235,0.7414855397200312],[4.344257831471231]],"id":0,"number":215}
