{"architecture":{"NEURONS":[10,4,1],"LAYERS":3,"totalSynapses":44},"weights":[-4.606102982211457,-5.601828044446336,-0.41421671747844835,-1.8716603232936346,9.15091152508947,-5.37955262401489,5.653813650156261,-1.0891926388306907,-5.112146803487831,0.7705592517107712,4.715939866528863,-0.0731285668810761,-2.991280683510906,-9.467253116450586,1.110048065960236,8.053043219104914,7.367555611053913,6.413158479021292,-1.6752503346417362,6.436049837294411,9.354021150758742,4.924633971173029,8.936840184201124,3.6342256908511583,1.8091390508998217,-4.400236416576026,2.4716189917420945,5.793625758835267,-2.467774647075972,9.927394057075363,-7.9694981943341245,-6.415622987124611,0.7029832667840672,-5.709855103273566,6.926824949231797,2.1337926994178007,2.467796025405206,-6.93834303316358,-8.379800767722845,-3.946327360215902,-9.3726081630161,-7.834790468868234,3.1150378213814687,-2.193098623586273],"bias":[[9.138993926902415,-3.480389382226061,-9.958377668547486,-1.7352674039446354,-0.2328724947604497,-5.123700050107259,7.73808782056723,-8.553886278262134,-6.620565360672543,2.733855246722937],[0.7183293229796848,5.984417608574208,2.1121535473468924,1.0313218490558844],[4.198529640095954]],"id":0,"number":216}
