{"architecture":{"NEURONS":[10,4,1],"LAYERS":3,"totalSynapses":44},"weights":[-4.789765104205171,-5.140522260239904,-0.07671213633917272,-2.198901360858739,9.457192898606879,-5.56829151859025,5.000574188581481,-1.1178881010298718,-5.501218674329762,0.6628342572444561,4.6342642792309485,-0.37958832225737327,-2.7589933360477943,-9.184925835120616,0.9036894996435443,8.247970534045098,7.367555611053913,6.413158479021292,-1.6772463926536003,6.4738226562416505,8.558036031472522,4.924633971173029,8.896401022869648,3.6342256908511583,1.9039745094286624,-4.400236416576026,2.381018870062352,6.70242001971257,-2.4528315554677,9.637876105849207,-7.9694981943341245,-6.2042488347137335,0.7029832667840672,-5.232731002612001,6.926824949231797,1.9688390764705814,1.7776883526852396,-6.909643108773242,-8.379800767722845,-3.6523764867580906,-8.470470715184478,-7.987375970910414,3.2605683020376715,-1.5410708770791834],"bias":[[9.058931875091865,2.428145707024855,-9.11778691793669,-1.7352674039446354,-0.08814226389717489,-5.207152751791993,-10.310122325908862,-8.055928499630594,-7.891931632248521,2.980390280997537],[0.7183293229796848,9.781794836765888,2.29215989610235,0.963306906477176],[4.223138186371062]],"id":0,"number":217}
