{"architecture":{"NEURONS":[10,4,1],"LAYERS":3,"totalSynapses":44},"weights":[-5.248194202976049,-5.601828044446336,0.7778562295018677,-1.8054811204115524,9.427252510995654,-5.340423058904894,5.629989334285869,-1.1178881010298718,-5.019914112313327,0.9081220101713907,4.780431967809376,-0.0731285668810761,-2.905916446188178,-9.335471432609651,1.029652541421829,8.01727355480693,7.367555611053913,6.448356972500796,-1.6752503346417362,6.60637435905803,9.354021150758742,4.633244919299846,8.896401022869648,3.6342256908511583,1.5930720437815873,-4.400236416576026,2.4716189917420945,6.193050252636399,-3.2666841904177666,9.637876105849207,-7.768626056544885,-6.386043662603004,0.5585803588144322,-5.353084472244653,6.538012444114226,2.2693996152315674,1.7776883526852396,-6.741908135798071,-8.379800767722845,-3.6830993459803394,-9.036629170739085,-7.668203851718269,3.2788524862284456,-2.003313245118095],"bias":[[8.90186496126397,2.428145707024855,-9.933634212906627,-2.528650709619379,-0.06946006751167677,-5.123700050107259,-10.350093670552834,-8.32056468494453,-7.688504894825498,2.520846616792313],[0.4883989979648402,9.781794836765888,2.1121535473468924,0.7414855397200312],[4.223138186371062]],"id":0,"number":218}
