{"architecture":{"NEURONS":[10,4,1],"LAYERS":3,"totalSynapses":44},"weights":[-4.331761600334927,-5.601828044446336,-0.41421671747844835,-1.9838752426098096,9.15091152508947,-5.37955262401489,5.653813650156261,-1.0891926388306907,-5.019914112313327,0.47433588515570846,4.715939866528863,-0.19251524855037555,-2.991280683510906,-9.309201668055842,1.3393769213789712,7.579348650293144,7.367555611053913,6.413158479021292,-1.6752503346417362,6.436049837294411,9.354021150758742,4.924633971173029,8.896401022869648,3.6342256908511583,1.9039745094286624,-4.400236416576026,2.669918859745864,6.173560433188055,-2.4528315554677,9.927394057075363,-7.9694981943341245,-6.415622987124611,0.8868780634813604,-5.709855103273566,6.616067903826984,2.1337926994178007,1.8769985730219982,-6.819542164595408,-8.466425099100519,-3.946327360215902,-8.989813812537022,-7.834790468868234,3.1440016550701557,-2.003313245118095],"bias":[[9.058931875091865,2.5710300852269925,-9.958377668547486,-1.7352674039446354,-0.2328724947604497,-4.609231560571073,-10.367418099598705,-8.178111235865348,-7.300439951165197,2.733855246722937],[0.7183293229796848,5.984417608574208,2.29215989610235,1.0313218490558844],[4.223138186371062]],"id":0,"number":219}
