{"architecture":{"NEURONS":[10,7,1],"LAYERS":3,"totalSynapses":77},"weights":[-4.033814373390176,8.668668940945208,-9.083544367478405,4.553158495930071,-9.737151701270921,9.495055926615734,6.034551701185265,4.122818052856523,0.17979269880455462,-5.157335844393008,-0.14205492951738463,-0.9986546028856579,2.6661723824158328,-4.58644623327684,1.3105071732348708,8.192979380803077,-7.542602154829232,8.800733677793039,-6.89081487271461,5.180259556583909,-1.7264459915429928,-8.829463345417636,6.801889196490501,-1.7404150724760123,0.9627976535185971,6.235441066660175,7.1876680116192775,-1.6471841179631217,5.204617465665875,0.4454509717669357,-1.4027468517079265,-0.790073760808148,1.344902304521408,10.017625476837763,-6.381181002381651,-6.7831153338297385,-2.6941950004211916,4.743517815125125,6.181345487424854,6.46950875856447,-7.968066773220398,4.956771210762356,8.902837101308279,-7.449031276683452,-7.532385456732519,-4.407974484307564,-6.465555084586677,5.258038723007852,-0.36632500578609273,6.00875562666827,-1.0694484926462167,-5.828769618641125,-1.4593577601560714,9.177892862762555,-8.481390157933294,-9.025602093289677,-8.290049813741778,8.899147789200683,-8.912384934163859,-7.242691510110715,6.157723963491679,7.74048483517734,0.30197434743353857,7.739836594733276,-5.2968147243535535,8.50192189975047,0.19074174721690662,-9.340878229903703,-0.9291856773304952,-9.353279170967888,7.805940141964954,-6.8231888627222315,-5.28312509347727,7.64163513286082,7.589431646305761,-7.101436157538106,7.372376430139339],"bias":[[6.100600981904244,0.7297374378677356,6.60210309203164,-7.6810328153105845,-0.6196808058537147,-8.928055985450202,-0.33964910817002447,-0.7667691514317133,6.5556582978099005,-4.136548418856462],[5.153489833697778,-1.5216010304009289,3.37132277257847,-6.08869483971813,7.074396611058487,5.748479080049193,-7.933159271557282],[5.540770316414953]],"id":0,"number":22}
