{"architecture":{"NEURONS":[10,4,1],"LAYERS":3,"totalSynapses":44},"weights":[-5.7577479510989775,-4.93585758157405,1.1646097100000672,-1.8790420360856679,9.61630530338534,-5.113650302036766,5.7531295167706515,5.404344307264019,-8.824941523159307,0.30204358396165065,4.66567258637116,0.42273350242791174,-2.7415108708327938,-9.784371785546547,1.1922435199802113,8.057722165120712,7.6733232909007265,6.744544141483082,-1.7360023092725463,6.718811423627781,8.490165300461314,4.906528325556119,7.771731066353908,3.5722285386199637,1.8679644582839672,-3.9535316548413917,2.4684404115260463,6.541283591073817,-3.3322049777484386,9.502114251845168,-7.957531040167202,4.481853862516644,0.5715685182801301,-5.554267822974435,6.6811820446505985,1.2900756004790912,3.0498587730785913,-6.783660267438122,-8.597204469769023,-3.5877288026739063,-8.876232604955367,-7.735914990535486,-1.236111253626187,-2.0618273056311502],"bias":[[-8.625926697232106,-2.2066337508275153,-9.617349543756129,-2.538917210872005,1.3311489911721885,-5.176203419913459,-9.91867120468144,-8.048372125729626,-5.569148951123373,2.7830978244865325],[-6.7672952264587405,6.319568422239711,1.5403513395065875,0.6548853468030558],[4.636143817749678]],"id":0,"number":22}
