{"architecture":{"NEURONS":[10,7,1],"LAYERS":3,"totalSynapses":77},"weights":[-3.917366174315501,3.8868941354763917,2.5282105860687234,-1.9125057035798252,-4.858845279460217,9.05055110853274,5.505256015157352,0.2688440423957925,1.8963121479932148,-0.7738112289624738,2.1180021867613954,-4.021824508401331,9.107185162298913,6.451791125305279,-3.302200221875268,-2.3031329681241526,-7.426914187164039,3.624376341968347,-10.180424713237409,-8.290654125707025,6.85242311913605,-2.26881999578953,-2.659670876038441,5.727083121955032,0.709335554299455,-5.856569043515434,0.3890835527725054,4.0545309794445075,-1.7685890040072776,4.838757126002358,8.322996093996743,7.3995747867361965,5.499141558466504,6.572062802434175,-9.018478701992025,5.022871043207024,3.64922631997548,4.217962698890163,4.829627410197693,-1.6944843749450216,3.7033830677396247,-4.986553118912935,-4.92067099662332,2.014884188734854,-6.287976073270404,5.310261441123278,-4.0204779577699155,-0.7512169103531202,2.7176061342887845,5.698971994872419,2.172230928716987,-7.228770252045816,6.502369696987726,-6.533781386809033,-3.709538644944988,-5.693288095329716,-7.084331823367889,3.050857770607963,-1.11604351243286,4.021430233476019,-7.561029009071894,-4.146246140369289,6.567768660390753,-8.953643357338526,-4.5375525329924695,-2.6228931872413486,-6.098327502273364,3.3294724579287758,10.658317436083584,0.8005820822500425,-5.504669544531222,4.591535381727439,1.2389376468796958,-0.9403975662335244,7.932333361433502,4.959562181440761,-1.419730203154013],"bias":[[-8.290725137811156,4.987746963070521,-4.509383404171689,4.68375649690406,2.7763998729147694,8.482202707712652,7.559166257003722,-6.337178247767072,8.29214941690348,-0.25635165776419233],[-1.2757137648925214,0.3388088120817227,-4.979909652569421,-7.911522194936926,0.2408351328306301,5.45858048886028,7.209174904639326],[-5.1572495006186845]],"id":0,"number":22}
