{"architecture":{"NEURONS":[10,4,1],"LAYERS":3,"totalSynapses":44},"weights":[-4.789765104205171,-5.601828044446336,0.6719032628346697,-1.9838752426098096,9.217202445575385,-5.88337363263692,5.353508494530243,-1.384279867757854,-5.248452895260209,0.6974558081771776,4.715939866528863,-0.4535163933859245,-2.701916501550129,-9.309201668055842,0.9834247447740233,7.957644489897616,7.525813977882462,6.448356972500796,-1.6752503346417362,6.436049837294411,9.688160916626675,4.65547860750044,8.896401022869648,3.6342256908511583,1.9469122618735084,-4.400236416576026,2.266898678912496,6.112628997828684,-2.4528315554677,9.637876105849207,-7.6704098123261835,-6.63308725054367,0.24549432077785005,-4.861887289440638,6.205005239741282,1.9688390764705814,1.7776883526852396,-6.7411640266104245,-8.806110461056022,-3.74709577372175,-9.036629170739085,-7.834790468868234,-2.085455502137806,-2.090367389573473],"bias":[[9.058931875091865,2.0210496592716485,-10.371025190549863,-1.9120206300794529,0.006592791148629313,-5.123700050107259,-10.462337633059436,-8.097536951503406,-7.891931632248521,3.048934311991258],[0.7183293229796848,6.46662847632536,1.9028551153506719,0.7414855397200312],[4.477658521937528]],"id":0,"number":220}
