{"architecture":{"NEURONS":[10,4,1],"LAYERS":3,"totalSynapses":44},"weights":[-5.126400784194153,-5.818451185654094,0.6719032628346697,-1.776722906118493,9.187530618441695,-5.37955262401489,5.653813650156261,-1.1178881010298718,-5.09505566629139,0.9081220101713907,4.801868607217038,-0.10202990446295175,-2.991280683510906,-9.342699924970669,1.1070537354621885,7.579348650293144,7.526626408520079,6.651860479659297,-1.8612875669589117,6.436049837294411,9.354021150758742,4.65547860750044,8.887035820283783,3.6342256908511583,1.847999357512442,-4.400236416576026,2.669918859745864,6.391831388629029,-3.0826726962577493,9.637876105849207,-7.9694981943341245,-6.170870433165539,0.7986016742782546,-5.709855103273566,6.926824949231797,1.9688390764705814,1.7776883526852396,-6.908662734702028,-8.476310864381002,-3.946327360215902,-8.989813812537022,-7.668203851718269,3.1150378213814687,-2.003313245118095],"bias":[[9.058931875091865,2.878454439444027,-9.958377668547486,-1.7352674039446354,-0.2328724947604497,-4.609231560571073,-10.367418099598705,-8.197634329446906,-7.639220969430896,2.733855246722937],[0.7183293229796848,6.46662847632536,2.29215989610235,0.46896049705314147],[4.223138186371062]],"id":0,"number":221}
