{"architecture":{"NEURONS":[10,4,1],"LAYERS":3,"totalSynapses":44},"weights":[-4.861549634029356,-5.601828044446336,0.6719032628346697,-2.138586704163303,9.661268804663646,-5.340423058904894,5.129500264284759,-1.0891926388306907,-5.288477120463595,0.7705592517107712,4.715939866528863,-0.0731285668810761,-3.1954549392672345,-9.33387157467981,1.0434264120523356,8.053043219104914,8.2795136571272,6.448356972500796,-1.8824022144336159,6.4738226562416505,9.155536143672085,4.65547860750044,9.008941483088764,3.6342256908511583,1.86320430421814,-4.731086823556255,2.1894270864202916,7.133629564568835,-2.467774647075972,9.927394057075363,-7.287452929069062,-6.456137023544293,0.8895192872197112,-5.709855103273566,6.616067903826984,1.9688390764705814,2.483487848536806,-6.93834303316358,-8.379800767722845,-3.6394424883916097,-8.989813812537022,-7.743751659034583,3.3766315337781068,-2.193098623586273],"bias":[[9.138993926902415,2.0210496592716485,-9.909128197931336,-2.528650709619379,0.1936250608197535,-5.123700050107259,7.73808782056723,-8.553886278262134,-6.620565360672543,2.980390280997537],[0.19823646203623135,9.781794836765888,1.8599814251870783,0.9932018580846597],[4.2482842419713185]],"id":0,"number":223}
