{"architecture":{"NEURONS":[10,4,1],"LAYERS":3,"totalSynapses":44},"weights":[-5.318197784605297,-5.818451185654094,0.6719032628346697,-1.9838752426098096,9.383383584018272,-5.63396680079678,5.779573655184796,-0.9687593881009902,-5.019914112313327,0.7705592517107712,4.677171638768894,-0.37958832225737327,-2.991280683510906,-9.335471432609651,0.9036894996435443,7.579348650293144,8.079914725074802,5.995577427755699,-1.6752503346417362,6.436049837294411,9.354021150758742,4.924633971173029,8.500756912005295,3.6342256908511583,1.5930720437815873,-4.400236416576026,2.669918859745864,5.982701143850129,-2.467774647075972,9.927394057075363,-7.9694981943341245,-6.2743401312814004,1.3303228547765247,-5.761536880007281,6.616067903826984,2.2987463223650195,1.8198454326426194,-6.908662734702028,-8.466425099100519,-3.6830993459803394,-8.989813812537022,-7.807396364288025,-2.085455502137806,-1.9488446617470885],"bias":[[9.058931875091865,2.428145707024855,-10.131080243243252,-2.528650709619379,-0.2328724947604497,-4.3966188217680395,-10.367418099598705,-8.197634329446906,-7.300439951165197,2.980390280997537],[0.7183293229796848,6.46662847632536,2.29215989610235,0.9932018580846597],[4.232272210980439]],"id":0,"number":224}
