{"architecture":{"NEURONS":[10,4,1],"LAYERS":3,"totalSynapses":44},"weights":[-5.318197784605297,-5.517631485204707,0.5847952246159885,-1.9838752426098096,9.15091152508947,-4.99644789094503,5.271821667556283,-1.168846101134885,-5.019914112313327,0.6388591221448321,4.756231819738407,-0.37958832225737327,-2.991280683510906,-9.309201668055842,0.9036894996435443,7.579348650293144,8.1617158172973,6.262255809268309,-1.6752503346417362,6.436049837294411,9.354021150758742,4.924633971173029,8.896401022869648,3.6342256908511583,1.5018685054095708,-4.400236416576026,2.1894270864202916,5.982701143850129,-3.0826726962577493,9.927394057075363,-7.9694981943341245,-6.2042488347137335,1.3303228547765247,-5.815905724247782,6.616067903826984,2.2987463223650195,2.483487848536806,-6.908662734702028,-8.466425099100519,-3.6830993459803394,-8.989813812537022,-7.807396364288025,3.1440016550701557,-2.193098623586273],"bias":[[9.058931875091865,2.0210496592716485,-9.787334367722103,-2.427321007386928,0.006592791148629313,-4.609231560571073,-10.310122325908862,-8.1627956718046,-6.620565360672543,2.980390280997537],[0.7183293229796848,6.46662847632536,2.1928172724762027,0.46896049705314147],[4.223138186371062]],"id":0,"number":225}
