{"architecture":{"NEURONS":[10,4,1],"LAYERS":3,"totalSynapses":44},"weights":[-5.318197784605297,-5.601828044446336,-0.41421671747844835,-1.9838752426098096,9.15091152508947,-5.965278930737002,5.653813650156261,-1.0891926388306907,-5.019914112313327,0.6388591221448321,4.715939866528863,-0.19251524855037555,-2.991280683510906,-9.33387157467981,0.9036894996435443,7.579348650293144,8.2795136571272,6.262255809268309,-2.298059098282681,6.436049837294411,9.354021150758742,4.65547860750044,8.813904874602155,3.6342256908511583,1.847999357512442,-4.400236416576026,2.669918859745864,6.173560433188055,-2.467774647075972,9.927394057075363,-7.9694981943341245,-6.415622987124611,1.3303228547765247,-5.709855103273566,6.616067903826984,1.9688390764705814,1.7776883526852396,-6.819542164595408,-8.580847657181572,-3.6523764867580906,-8.989813812537022,-7.743751659034583,3.1440016550701557,-2.193098623586273],"bias":[[9.138993926902415,2.0210496592716485,-9.787334367722103,-2.528650709619379,-0.06946006751167677,-4.609231560571073,-10.367418099598705,-8.178111235865348,-7.639220969430896,2.980390280997537],[0.19823646203623135,9.781794836765888,2.1928172724762027,0.46896049705314147],[4.223138186371062]],"id":0,"number":226}
