{"architecture":{"NEURONS":[10,4,1],"LAYERS":3,"totalSynapses":44},"weights":[-4.789765104205171,-5.818451185654094,-0.19129904848044468,-1.8054811204115524,9.15091152508947,-5.37955262401489,5.744580852186041,-1.1178881010298718,-5.019914112313327,0.7705592517107712,4.756231819738407,-0.1406715096970071,-2.991280683510906,-9.193020993332436,1.2282282029721157,7.579348650293144,7.525813977882462,6.696835709950773,-1.6752503346417362,6.776684141818404,9.354021150758742,4.8870213663938475,8.698578967437472,3.6342256908511583,1.9039745094286624,-4.400236416576026,2.669918859745864,5.982701143850129,-2.7157628671124874,9.637876105849207,-7.9694981943341245,-6.2042488347137335,1.3303228547765247,-5.709855103273566,6.205005239741282,1.9447025858754095,1.7776883526852396,-7.113238325282643,-8.806110461056022,-3.946327360215902,-9.036629170739085,-7.668203851718269,3.296944947744939,-2.193098623586273],"bias":[[9.058931875091865,2.002531976520244,-9.933634212906627,-2.528650709619379,-0.07976278268283132,-4.609231560571073,-10.367418099598705,-8.055928499630594,-7.592053010863306,2.5456235533636216],[0.8611061825145598,6.209528612154247,1.9028551153506719,0.8786857342560607],[-8.222788490674816]],"id":0,"number":228}
