{"architecture":{"NEURONS":[10,4,1],"LAYERS":3,"totalSynapses":44},"weights":[-4.611033162597169,-5.601828044446336,-0.19129904848044468,-1.9838752426098096,9.661268804663646,-5.700176789646767,5.935832308889496,-1.067994374464032,-5.019914112313327,0.9081220101713907,4.376353805143497,-0.0731285668810761,-2.991280683510906,-9.309201668055842,0.9036894996435443,7.520818980258518,7.252825888420346,6.448356972500796,-1.6752503346417362,6.500336293642089,9.688160916626675,4.924633971173029,8.698578967437472,3.6342256908511583,1.5018685054095708,-4.400236416576026,2.2860804658514837,6.810914584626395,-3.0826726962577493,9.927394057075363,-7.9694981943341245,-6.5290626304776795,1.3303228547765247,-5.353084472244653,6.862910577081789,1.9688390764705814,1.6376723288734247,-6.908662734702028,-8.384954672336141,-3.6523764867580906,-9.036629170739085,-7.852254630255756,3.296944947744939,-1.5410708770791834],"bias":[[9.138993926902415,2.5710300852269925,-9.909128197931336,-2.427321007386928,0.006592791148629313,-4.725801414969409,-10.310122325908862,-8.097536951503406,-7.592053010863306,3.048934311991258],[0.7183293229796848,6.46662847632536,2.29215989610235,0.9932018580846597],[4.223138186371062]],"id":0,"number":229}
