{"architecture":{"NEURONS":[10,7,1],"LAYERS":3,"totalSynapses":77},"weights":[-4.248641841833687,8.675063432795081,-9.465303766557417,4.396771118503083,-9.220781621664047,9.95534516101833,6.122758178051057,3.5413146813396192,0.39633534328908987,-4.864299427759613,-0.3800063957403794,-1.4941269756413877,2.2787255284028096,-4.750397233204175,1.2763359844924593,8.781152455174993,-8.177951418186986,8.935934443468334,-7.137493140917809,5.539658461376015,-2.305360763165929,-9.186190489928347,7.150403885542978,-1.9268785055414401,0.2712344319809257,6.486715904829122,7.041382521023074,-1.8442814982148175,6.219159161039811,0.704850367809212,-1.2220348986602851,-1.2860077164184007,1.881539428426067,9.673592009379812,-6.647809419652708,-7.135861203563709,-3.1516581510289305,4.585057482381368,5.58084955316451,6.567105586238461,-7.794202197261529,4.716015984588578,8.94613644165685,-7.47329160767379,-7.865978804086031,-4.441538690805756,-6.815533629176944,5.387854302282551,0.0980302007386008,5.822911223805644,-1.520326285840211,-6.045851584469687,-1.8395850609444775,9.25415954664571,-8.931978269200185,-9.404484693044912,-8.165414215500368,9.006392877397523,-8.18359729776205,-6.774507526944143,6.003046780522894,8.162968684090426,0.8883961303180048,7.933622479406903,-5.062055732753601,8.142180698155359,0.4046541384265549,-9.97637174221959,-0.9569275389348046,-9.080983079402436,7.422021098755238,-6.997851335450948,-5.0243406037988985,7.22664699988862,7.782775670314856,-7.032408643703955,7.015294056420531],"bias":[[6.3809486353970115,1.0527259195812113,6.766138667886166,-8.38207290000779,-0.16251620956847646,-8.895635749173856,-0.8230814612155066,-0.3672848050482391,6.351812671399131,-4.019742512035251],[5.117418107221864,-1.6974427599515858,3.5047972961444307,-5.926690173699194,6.983002376518003,6.590357169268222,-7.079997262310424],[6.290593403012374]],"id":0,"number":23}
