{"architecture":{"NEURONS":[10,4,1],"LAYERS":3,"totalSynapses":44},"weights":[-4.709186703141688,-4.971528633839995,0.7325795191430835,-1.8790420360856679,9.299894590967067,-4.6300155428823935,5.699166746634036,5.601886597981708,-5.844842554397221,-0.16521018306252455,4.708270376896566,0.42273350242791174,-2.8663597915856833,-9.702049674102946,1.1389161479493441,8.057722165120712,8.290363874888326,6.708448801316237,-1.7360023092725463,6.973929502013334,8.487163752574167,4.7302246420707155,7.771731066353908,3.5722285386199637,1.9429698242057558,-3.9535316548413917,2.4684404115260463,6.541283591073817,1.215711697192826,9.132642675571836,-7.897016167654705,-6.639801717461002,0.501184486708048,-5.424577880399962,6.6811820446505985,1.7153931173358827,2.4167149428455237,-6.961985987923902,-8.920287607614968,-3.750305328389405,-9.096055519004464,-7.834790468868234,6.760365419563164,-1.9577276198532125],"bias":[[-8.625926697232106,2.194726609579458,-9.638281380756686,-2.538917210872005,1.3311489911721885,-5.176203419913459,-9.91867120468144,-8.11503468316982,-5.595090931022022,2.9387931116759454],[-6.7168090016702005,6.319568422239711,1.5403513395065875,0.6548853468030558],[4.636143817749678]],"id":0,"number":23}
