{"architecture":{"NEURONS":[10,7,1],"LAYERS":3,"totalSynapses":77},"weights":[-4.584316780906905,4.102201618309572,0.7987582272044693,-2.4093100047462492,-5.476889050759583,9.653847428680802,5.972984406859232,0.27788254923354,2.987715990395656,-0.6060984849385682,1.5454686208780466,-2.17983075314229,8.694148865784294,5.970365835931616,-3.0023874492741354,-2.6249543673121516,-7.627638230817498,2.826866283840673,-9.76062887144806,-9.703855787166564,5.867383629901149,-0.6853420056134231,-2.441350816535454,4.980317719274947,-0.5976904685804799,-7.399343624739593,-0.039191556230723956,3.6106698800941737,-0.5324628942598019,3.806674098232071,8.78242362658977,7.595157976290273,4.802981715846788,6.42442277823227,-9.237711712275141,4.249660866038423,4.538685229572916,5.053376841286283,5.093210261384452,-3.0340481153764034,4.576159218152252,-5.362625579598375,-6.313784189096607,1.8605764412641537,-7.234996782427476,2.1869793319040145,-4.411318151375484,0.36488560443698653,4.09145603076232,5.923124801967649,1.0172869263855375,-6.992659257387076,7.931395778664262,-5.73922282488447,-3.6552456961593043,-5.000790953145114,-6.682346841271737,3.8488099502881585,-1.094005631570997,3.2496714670323965,-6.564260316933523,-4.283986341192029,7.7037412682581445,-8.961383258294948,-3.9735181367385892,-1.970266995331025,-5.462618262901816,3.182095804066285,7.882596874125552,-1.085020935672366,-6.561614146970851,3.238571500326345,1.2269133233844562,-0.1405513800679724,7.604129007487861,5.385475240837311,-1.0889056549139524],"bias":[[-7.915913536446068,4.139923398368905,-5.660658737645421,5.161576116941392,3.4190455157493482,9.576307336675596,8.04160275666931,-5.745145844347293,6.763405494945075,0.4150461546327129],[0.30702204870023087,0.5181388794859507,-5.302595393670813,-8.410621966888879,0.9262671912288294,6.545945723768273,6.675127450765265],[-5.251269511713662]],"id":0,"number":23}
