{"architecture":{"NEURONS":[10,4,1],"LAYERS":3,"totalSynapses":44},"weights":[-4.606102982211457,-5.517631485204707,0.6719032628346697,-2.2056482719432546,9.661268804663646,-4.99644789094503,5.753308397495148,-1.067994374464032,-5.32196254407754,0.9083655807105966,4.628046929525486,-0.0731285668810761,-2.991280683510906,-9.808219500639822,1.029652541421829,7.579348650293144,7.715455363472302,6.262255809268309,-1.6929287392749865,6.436049837294411,9.688160916626675,4.924633971173029,8.698578967437472,3.6342256908511583,1.5018685054095708,-4.400236416576026,2.1894270864202916,5.908552955494901,-3.0826726962577493,9.927394057075363,-7.6704098123261835,-6.2042488347137335,0.7884115921665671,-5.709855103273566,6.862910577081789,2.2987463223650195,2.483487848536806,-7.539166897074419,-8.466425099100519,-3.868722382174629,-9.036629170739085,-8.068473426702726,3.0977616232297103,-2.193098623586273],"bias":[[9.058931875091865,2.0210496592716485,-9.741870219946707,-2.427321007386928,-0.2328724947604497,-4.609231560571073,-10.310122325908862,-8.1627956718046,-7.592053010863306,2.980390280997537],[0.19823646203623135,6.46662847632536,2.1928172724762027,0.8921562291591932],[4.223138186371062]],"id":0,"number":230}
