{"architecture":{"NEURONS":[10,4,1],"LAYERS":3,"totalSynapses":44},"weights":[-4.7927873244781125,-5.601828044446336,-0.19129904848044468,-1.562751416488137,9.15091152508947,-5.340423058904894,5.680390935113538,-1.038890854374849,-5.09505566629139,0.5949522697105064,4.756231819738407,-0.1406715096970071,-2.991280683510906,-9.193020993332436,0.9036894996435443,7.579348650293144,7.252825888420346,6.696835709950773,-2.185641986578899,6.776684141818404,9.21866947932564,4.62390926280223,8.896401022869648,3.4378908957129664,1.5930720437815873,-4.112861831099253,2.669918859745864,5.982701143850129,-3.0826726962577493,9.637876105849207,-7.9694981943341245,-6.63308725054367,1.3303228547765247,-5.709855103273566,7.125351932542719,1.9447025858754095,1.7776883526852396,-6.910451602790541,-8.379800767722845,-3.9487829934839223,-9.036629170739085,-7.743751659034583,3.296944947744939,-2.193098623586273],"bias":[[9.058931875091865,2.0210496592716485,-10.371025190549863,-2.528650709619379,-0.07976278268283132,-4.609231560571073,-10.310122325908862,-7.850302965810709,-7.592053010863306,2.5456235533636216],[4.128252100501397,6.46662847632536,2.29215989610235,0.8786857342560607],[-8.222788490674816]],"id":0,"number":231}
