{"architecture":{"NEURONS":[10,4,1],"LAYERS":3,"totalSynapses":44},"weights":[-4.954800583872562,-5.818451185654094,-0.41421671747844835,-2.138586704163303,9.661268804663646,-5.54026411783054,5.935832308889496,-1.1178881010298718,-5.0916675765957695,0.7705592517107712,4.403188181393154,-0.19251524855037555,-2.991280683510906,-9.193020993332436,1.6916287754742703,7.579348650293144,7.252825888420346,6.242069065534126,-1.6752503346417362,6.436049837294411,9.090764972848717,4.84964139950248,8.896401022869648,3.6342256908511583,1.9039745094286624,-4.112861831099253,2.2860804658514837,5.793625758835267,-2.467774647075972,9.637876105849207,-7.287452929069062,-6.445842836886921,1.3303228547765247,-5.709855103273566,6.616067903826984,2.2987463223650195,1.7776883526852396,-6.819542164595408,-8.580847657181572,-3.946327360215902,-8.989813812537022,-7.668203851718269,3.1440016550701557,-2.003313245118095],"bias":[[9.138993926902415,2.0210496592716485,-9.909128197931336,-2.4085040156620536,-0.3335799592586601,-4.802389167884763,-10.310122325908862,-7.850302965810709,-6.620565360672543,2.980390280997537],[0.8611061825145598,6.46662847632536,2.1837366541554464,0.7414855397200312],[4.223138186371062]],"id":0,"number":232}
