{"architecture":{"NEURONS":[10,4,1],"LAYERS":3,"totalSynapses":44},"weights":[-4.7927873244781125,-5.517631485204707,-0.19129904848044468,-1.8054811204115524,9.295172756962893,-5.340423058904894,5.680390935113538,-1.384279867757854,-5.32196254407754,0.7705592517107712,4.759999456572153,-0.1406715096970071,-2.991280683510906,-9.193020993332436,1.2282282029721157,7.579348650293144,8.1617158172973,6.696835709950773,-2.185641986578899,6.500336293642089,9.354021150758742,4.65547860750044,8.896401022869648,3.6342256908511583,1.9039745094286624,-4.400236416576026,2.1894270864202916,5.982701143850129,-2.467774647075972,9.637876105849207,-7.6704098123261835,-6.5003112960628675,1.3303228547765247,-5.709855103273566,6.205005239741282,1.9447025858754095,2.483487848536806,-7.113238325282643,-8.806110461056022,-3.6523764867580906,-9.036629170739085,-7.668203851718269,3.296944947744939,-2.003313245118095],"bias":[[9.058931875091865,2.0210496592716485,-9.723905970171794,-2.528650709619379,-0.07976278268283132,-4.802389167884763,-10.462337633059436,-8.055928499630594,-7.2742738843388235,2.5456235533636216],[0.19823646203623135,9.76853446075755,1.9028551153506719,0.8786857342560607],[4.223138186371062]],"id":0,"number":233}
