{"architecture":{"NEURONS":[10,4,1],"LAYERS":3,"totalSynapses":44},"weights":[-4.789765104205171,-5.601828044446336,-0.19129904848044468,-2.2056482719432546,9.217202445575385,-5.37955262401489,5.753308397495148,-1.038890854374849,-5.32196254407754,0.9081220101713907,4.679725866810001,-0.0731285668810761,-2.991280683510906,-9.585213634831838,0.9036894996435443,8.148441948312213,7.252825888420346,6.696835709950773,-1.6752503346417362,6.5477157369739,9.354021150758742,5.014380312581729,8.896401022869648,3.6342256908511583,1.9039745094286624,-4.400236416576026,2.1894270864202916,6.2674440970581555,-2.467774647075972,9.637876105849207,-7.185717433592123,-6.63308725054367,1.3303228547765247,-5.709855103273566,6.205005239741282,1.9688390764705814,1.7776883526852396,-6.878942598879494,-8.623126955371783,-3.6523764867580906,-9.036629170739085,-7.743751659034583,-1.895225950476891,-2.003313245118095],"bias":[[9.058931875091865,2.3404212808322633,-9.909128197931336,-2.812406891038223,-0.07976278268283132,-4.802389167884763,-10.310122325908862,-8.055928499630594,-7.592053010863306,2.980390280997537],[0.7183293229796848,6.46662847632536,1.9028551153506719,0.9850475368305369],[4.198529640095954]],"id":0,"number":234}
