{"architecture":{"NEURONS":[10,4,1],"LAYERS":3,"totalSynapses":44},"weights":[-4.789765104205171,-5.648117827143045,0.5847952246159885,-2.138586704163303,9.15091152508947,-5.37955262401489,5.058749054958472,-1.0051464979555689,-5.019914112313327,0.7705592517107712,4.756231819738407,-0.0731285668810761,-2.991280683510906,-9.808219500639822,1.2282282029721157,8.053043219104914,8.1617158172973,6.413158479021292,-2.185641986578899,6.436049837294411,9.21866947932564,4.924633971173029,8.896401022869648,3.4378908957129664,1.5930720437815873,-4.551587044144912,2.1894270864202916,6.2674440970581555,-3.0826726962577493,10.019405108177988,-7.9694981943341245,-6.2042488347137335,1.3699982432888391,-5.709855103273566,6.558875459404687,1.9447025858754095,1.7776883526852396,-6.819542164595408,-8.580847657181572,-3.6523764867580906,-8.989813812537022,-7.987778165384285,3.1440016550701557,-1.8978919417800286],"bias":[[9.058931875091865,2.8914796857984886,-9.958377668547486,-2.427321007386928,0.006592791148629313,-4.609231560571073,-10.310122325908862,-8.109959121233622,-6.620565360672543,2.733855246722937],[0.8315238236781998,6.46662847632536,2.22378870446023,1.206299480171792],[4.223138186371062]],"id":0,"number":235}
