{"architecture":{"NEURONS":[10,4,1],"LAYERS":3,"totalSynapses":44},"weights":[-4.789765104205171,-5.517631485204707,-0.41421671747844835,-1.8054811204115524,9.15091152508947,-4.836575209485493,5.825017484001002,-1.384279867757854,-5.32196254407754,0.7705592517107712,4.679725866810001,-0.2204480989967529,-2.991280683510906,-9.808219500639822,0.5617776351731478,7.579348650293144,7.252825888420346,6.696835709950773,-2.2633184597320457,6.436049837294411,9.155536143672085,4.924633971173029,8.896401022869648,3.6342256908511583,1.847999357512442,-4.400236416576026,2.669918859745864,6.810914584626395,-2.467774647075972,9.927394057075363,-7.2712067958730175,-6.2042488347137335,0.7884115921665671,-5.709855103273566,6.738279405560761,2.4859626178000584,1.7776883526852396,-7.108772920996212,-8.623126955371783,-4.099305035361585,-8.989813812537022,-8.068473426702726,3.296944947744939,-2.0761066092405],"bias":[[9.058931875091865,2.0541106748004214,-9.909128197931336,-2.812406891038223,0.006592791148629313,-4.802389167884763,-10.462337633059436,-8.055928499630594,-7.374427202425134,3.042891575058975],[0.7183293229796848,5.984417608574208,1.9028551153506719,0.8921562291591932],[4.223138186371062]],"id":0,"number":236}
