{"architecture":{"NEURONS":[10,4,1],"LAYERS":3,"totalSynapses":44},"weights":[-4.954800583872562,-5.601828044446336,0.5847952246159885,-1.8054811204115524,9.15091152508947,-5.54026411783054,5.601671782114954,-1.3230504992531207,-5.334596145109133,0.9081220101713907,4.756231819738407,-0.0731285668810761,-2.991280683510906,-9.585213634831838,1.4995154302236053,7.579348650293144,8.1617158172973,6.262255809268309,-1.6929287392749865,6.436049837294411,9.354021150758742,4.924633971173029,8.896401022869648,3.6342256908511583,1.9039745094286624,-4.400236416576026,2.1894270864202916,5.917248280772573,-2.467774647075972,9.637876105849207,-7.9694981943341245,-6.445842836886921,0.7970385696997422,-5.709855103273566,7.125351932542719,1.9447025858754095,2.483487848536806,-6.819542164595408,-8.379800767722845,-3.6523764867580906,-9.115220012595453,-7.807396364288025,3.2524503116543126,-2.003313245118095],"bias":[[9.058931875091865,1.9122900999389458,-9.909128197931336,-2.3876140691930954,0.006592791148629313,-4.609231560571073,-10.310122325908862,-8.109959121233622,-6.620565360672543,2.3003772049417064],[4.128252100501397,6.46662847632536,1.9028551153506719,0.8786857342560607],[-8.222788490674816]],"id":0,"number":237}
