{"architecture":{"NEURONS":[10,4,1],"LAYERS":3,"totalSynapses":44},"weights":[-4.889459214281368,-5.379180377034327,-0.41421671747844835,-2.145581174295933,9.017065058007043,-5.54026411783054,5.825017484001002,-1.0891926388306907,-5.046800730930213,0.9083655807105966,4.679725866810001,-0.19251524855037555,-2.991280683510906,-9.808219500639822,0.9036894996435443,7.624118172073004,7.7135675278672435,6.262255809268309,-1.709432444667961,6.436049837294411,9.231458895268316,4.924633971173029,8.698578967437472,3.6342256908511583,1.4661361964473767,-4.400236416576026,2.669918859745864,6.2674440970581555,-2.467774647075972,9.927394057075363,-7.9694981943341245,-6.286326306325313,1.3303228547765247,-5.709855103273566,6.086578926930167,2.4859626178000584,1.7776883526852396,-7.108772920996212,-8.860938214316752,-3.7384977792580836,-8.989813812537022,-8.336578931439801,3.081294842085226,-2.193098623586273],"bias":[[9.058931875091865,2.3404212808322633,-9.909128197931336,-2.812406891038223,-0.07976278268283132,-4.802389167884763,7.771827780911006,-8.1627956718046,-7.829749027480848,3.0366595024270575],[0.8315238236781998,5.984417608574208,1.715448986158752,0.8921562291591932],[4.062285146207249]],"id":0,"number":238}
