{"architecture":{"NEURONS":[10,4,1],"LAYERS":3,"totalSynapses":44},"weights":[-4.889459214281368,-5.379180377034327,-0.41421671747844835,-1.7477196722840103,9.661268804663646,-4.767189291013755,5.389732463170426,-1.0891926388306907,-4.946481525326713,0.9083655807105966,4.679725866810001,-0.19251524855037555,-2.991280683510906,-9.808219500639822,1.6916287754742703,7.624118172073004,7.7135675278672435,6.262255809268309,-1.709432444667961,6.436049837294411,9.090764972848717,4.78110083499794,8.896401022869648,3.6342256908511583,1.86320430421814,-4.509768257194885,2.669918859745864,6.2674440970581555,-2.467774647075972,9.927394057075363,-7.9694981943341245,-6.286326306325313,0.7884115921665671,-5.709855103273566,6.086578926930167,2.3775568608634106,2.483487848536806,-7.108772920996212,-8.379800767722845,-3.7384977792580836,-8.989813812537022,-8.336578931439801,3.081294842085226,-2.0761066092405],"bias":[[9.058931875091865,2.3404212808322633,-9.909128197931336,-2.582790428496402,-0.3335799592586601,-4.838179545909131,-10.310122325908862,-8.109959121233622,-7.592053010863306,2.980390280997537],[0.7183293229796848,5.984417608574208,1.715448986158752,1.206299480171792],[4.062285146207249]],"id":0,"number":239}
