{"architecture":{"NEURONS":[10,7,1],"LAYERS":3,"totalSynapses":77},"weights":[-3.6532415811170615,8.822436177819505,-9.375790926029188,4.748730202996966,-9.309077225786051,9.860575606384286,5.95280155166172,3.088011648268373,0.058843107055511684,-5.576489153323489,-0.5055328701259238,-1.7200433796658128,2.8594911121754554,-4.48768302486318,0.6653472411476333,8.36781266089723,-8.226047160048907,8.990064349398034,-7.137493140917809,5.0533163385231274,-2.70503480608593,-8.884339545830258,7.488692074265346,-1.7756924945509724,0.2702901255832952,6.4214285063547605,7.044938562323744,-2.0625319736292185,6.219159161039811,0.5690897778604125,-0.6735151745538452,-1.2045518474934391,1.2490609665316088,8.663992520498466,-6.410406100238505,-7.534297342551024,-3.1516581510289305,4.890725153968221,5.365291221067452,7.350410885100348,-7.713014874517667,4.9815982451843155,8.94613644165685,-7.362320035295807,-7.764719612753642,-4.386580483326073,-6.804472093019848,5.177566413091596,-0.25997145092513235,6.198908510891313,-1.0143778276768334,-5.518131226659141,-1.8395850609444775,9.397997639698477,-8.73565023120723,-8.89194618663211,-8.950951531095566,9.006392877397523,-8.701010637619735,-7.037625291663138,6.129405927288594,8.319978245887405,0.33171242625373937,8.008160941361295,-5.062055732753601,8.247946049116784,0.7346488738971764,-9.73641751406436,-1.0470949314142113,-9.047218669387217,7.474271600362,-7.1003248841647855,-5.561828311484168,7.4502823183082425,7.830843863312563,-6.970748218758941,6.85750723020289],"bias":[[6.486915512292383,1.0419411774921619,6.6373562865786555,-8.38207290000779,-0.1828947936884232,-8.250337788948675,-0.83347500245518,-0.012767427397379724,6.262860623342618,-3.9617189171512317],[5.227684148846988,-1.6271640954457733,3.200950202085285,-6.424582844330732,6.9294273637026285,6.590357169268222,-7.013864548139027],[5.441454514190772]],"id":0,"number":24}
