{"architecture":{"NEURONS":[10,7,1],"LAYERS":3,"totalSynapses":77},"weights":[-4.065509159491767,4.303468621903242,1.2380593405089704,-2.5955090818055337,-5.512580190743243,9.471123187012937,6.402991666978037,1.092357300647898,1.640067663820917,-0.7063398611294157,1.598534688662766,-3.0074081069595064,9.690729549292035,5.939930369908381,-2.3570192347195196,-2.936818450603619,-8.311455308229695,3.4091672224123544,-9.556401034503967,-9.47868489678237,6.170212142299111,-1.2942172092961208,-1.7941935864691991,5.293907839519873,-2.1297259288533192,-6.870291275480736,-0.552778023154718,4.515052523311745,-2.152209348854935,3.7510324094299192,8.558444442809208,7.122298904308263,5.65027952830541,8.219066704217596,-9.45842627967987,4.0755820759003925,4.156942718491112,4.020599831572309,5.245243285939959,-3.1067512894456364,4.394664358225796,-4.895465061793007,-5.445324594274797,1.934722802982312,-5.038967395296134,4.515265029176437,-3.694123566035471,0.6825961484572871,2.601858882933308,7.2540236749364455,2.2429920883271044,-7.821253531389393,6.513116389425533,-5.859219239953172,-3.5708749197944054,-5.16100007703927,-5.843209363356092,3.3878670756256533,-1.0625694108749002,4.783261189951196,-7.135278776252515,-3.229597054050002,6.493970926800987,-10.573770903152194,-4.118388355999291,-3.263995747775558,-5.894171512501038,4.023009945944335,7.487632666212325,-0.15182800991790368,-5.456911997225496,3.6683151908479315,1.0939702924535117,-0.671421826310145,7.721121905450327,5.46311133867988,-1.1314468797273176],"bias":[[-7.899283275046474,4.7331871570618524,-4.164581454290534,4.2138380987353505,2.05251125580158,8.15635492700029,8.89727271815089,-6.117016387658023,6.852637217424573,-2.083171434278544],[-0.9245460416666025,0.6728909450020037,-5.236321807950648,-8.271618594113884,0.5326503654045941,6.290410860084095,7.4114774183897385],[-4.909860250191638]],"id":0,"number":24}
