{"architecture":{"NEURONS":[10,4,1],"LAYERS":3,"totalSynapses":44},"weights":[-4.9495115555557385,-4.93585758157405,0.7325795191430835,-1.8790420360856679,9.570241965446161,-4.6300155428823935,5.899998164343579,-1.5234051409051907,-8.6468552793733,-0.04100669535120028,4.613940636674918,0.3350922160493536,-2.4394006488902833,-9.702049674102946,0.7518094424171027,8.046776389787762,8.290363874888326,6.822798069635287,-1.24776204036899,6.748269880314671,8.490165300461314,4.875120841663569,7.771731066353908,3.5722285386199637,1.979189450453073,-3.9520855578940552,2.4684404115260463,6.541283591073817,-3.3322049777484386,9.132642675571836,-7.957531040167202,-6.231854462400097,0.8421553878726407,-5.338534240143299,6.6811820446505985,1.5042563456799507,2.4167149428455237,-6.961985987923902,-8.920287607614968,-7.252084263256594,-8.876232604955367,-7.834790468868234,6.760365419563164,-1.9577276198532125],"bias":[[-8.13366234820025,-2.1094426439824465,-9.740742219103018,-2.1171945105377343,1.3311489911721885,-5.176203419913459,-9.91867120468144,-8.11503468316982,-5.595090931022022,2.9387931116759454],[-6.7168090016702005,6.319568422239711,1.5403513395065875,0.6926693392516121],[4.636143817749678]],"id":0,"number":24}
