{"architecture":{"NEURONS":[10,4,1],"LAYERS":3,"totalSynapses":44},"weights":[-4.789765104205171,-5.601828044446336,0.5847952246159885,-2.233235306995003,9.15091152508947,-5.37955262401489,5.601671782114954,-0.7753746141841289,-4.946481525326713,0.9081220101713907,4.83117329103431,-0.08061394279414098,-2.991280683510906,-9.33387157467981,1.2282282029721157,7.894844853363556,7.7135675278672435,6.413158479021292,-1.924680719939131,6.642447289954523,9.15154884192187,4.65547860750044,8.896401022869648,3.3556783493009843,1.86320430421814,-4.560752331990661,2.1667440654841346,6.556562152469628,-2.452998203587981,9.927394057075363,-7.9694981943341245,-6.2042488347137335,1.3699982432888391,-5.709855103273566,6.206067699680718,2.3775568608634106,1.7776883526852396,-6.908662734702028,-8.806110461056022,-3.6523764867580906,-9.013221491638053,-7.987778165384285,3.605048628066103,-1.8035693335715666],"bias":[[9.268172532853377,2.3404212808322633,-10.132665196489349,-2.427321007386928,-0.22234637275952096,-4.802389167884763,-10.236913839045464,-8.109959121233622,-7.829749027480848,3.328553326934273],[1.0973676491273094,9.697249119660748,2.3174417405855356,0.7660197635790887],[4.223138186371062]],"id":0,"number":240}
