{"architecture":{"NEURONS":[10,4,1],"LAYERS":3,"totalSynapses":44},"weights":[-4.954800583872562,-5.517631485204707,0.5847952246159885,-2.233235306995003,9.15091152508947,-5.37955262401489,5.601671782114954,-0.7753746141841289,-4.946481525326713,0.7705592517107712,4.679725866810001,-0.19251524855037555,-3.035248883654646,-9.33387157467981,1.6916287754742703,7.579348650293144,7.765317805441082,6.413158479021292,-2.0052854087002183,6.436049837294411,9.155536143672085,4.65547860750044,8.896401022869648,3.6342256908511583,1.86320430421814,-4.560752331990661,2.1894270864202916,6.556562152469628,-2.4528315554677,9.927394057075363,-7.981460901735125,-6.200046169554038,1.3699982432888391,-5.709855103273566,6.926824949231797,2.3775568608634106,1.585000981183129,-6.908662734702028,-8.806110461056022,-3.6523764867580906,-9.013221491638053,-7.987778165384285,3.081294842085226,-2.003313245118095],"bias":[[9.268172532853377,2.3404212808322633,-9.846369534074281,-2.427321007386928,-0.22234637275952096,-4.802389167884763,-10.310122325908862,-8.109959121233622,-6.867826539958221,3.042891575058975],[0.7183293229796848,9.697249119660748,2.3174417405855356,0.7414855397200312],[4.223138186371062]],"id":0,"number":241}
