{"architecture":{"NEURONS":[10,4,1],"LAYERS":3,"totalSynapses":44},"weights":[-4.789765104205171,-5.3207655533935965,-0.41421671747844835,-1.9282949214431289,9.15091152508947,-4.836575209485493,5.754795683820076,-1.0051464979555689,-5.239469321732855,0.9081220101713907,4.586444938175301,-0.19251524855037555,-2.991280683510906,-9.808219500639822,1.6916287754742703,7.579348650293144,7.928406555044752,6.262255809268309,-1.709432444667961,6.436049837294411,9.090764972848717,4.84964139950248,8.896401022869648,3.6342256908511583,1.847999357512442,-4.560752331990661,2.257992193249865,5.982701143850129,-2.467774647075972,9.927394057075363,-7.9694981943341245,-6.200046169554038,1.5759833769287737,-5.709855103273566,6.086578926930167,1.9688390764705814,2.483487848536806,-6.908662734702028,-8.806110461056022,-3.7384977792580836,-9.067675162665697,-8.258187871165408,3.296944947744939,-1.8035693335715666],"bias":[[9.058931875091865,2.3404212808322633,-9.62705855103079,-1.6361355290449782,-0.22234637275952096,-4.12997154613971,-10.310122325908862,-8.109959121233622,-6.75524668203728,3.042891575058975],[0.7183293229796848,9.697249119660748,2.082553822473812,0.8153126246387021],[-7.943573547296326]],"id":0,"number":242}
