{"architecture":{"NEURONS":[10,4,1],"LAYERS":3,"totalSynapses":44},"weights":[-4.908403617303387,-5.3207655533935965,0.5961108691007418,-1.8054811204115524,9.726987927542062,-5.990709012319102,5.513093791275957,-1.0051464979555689,-5.239469321732855,0.9083655807105966,4.903104823763528,0.094042923144708,-2.716805184824523,-9.808219500639822,1.6916287754742703,7.579348650293144,7.7687849040449395,6.413158479021292,-1.709432444667961,6.009997819340105,9.090764972848717,4.842599401836019,8.837248380162482,3.6342256908511583,1.847999357512442,-4.112861831099253,2.1894270864202916,6.2674440970581555,-2.4528315554677,10.058128920718268,-8.148790116852744,-6.200046169554038,1.098266686935034,-5.709855103273566,6.568997117331316,1.9688390764705814,1.7776883526852396,-6.8014839875451845,-8.466425099100519,-3.7384977792580836,-9.013221491638053,-8.258187871165408,3.296944947744939,-2.317061294462074],"bias":[[9.058931875091865,2.132838938328649,-10.132665196489349,-1.6361355290449782,0.006592791148629313,-4.12997154613971,-10.236913839045464,-8.178111235865348,-7.330281172825428,2.721509305294989],[0.8315238236781998,6.4496241783978645,2.082553822473812,0.8786857342560607],[-8.222788490674816]],"id":0,"number":243}
