{"architecture":{"NEURONS":[10,4,1],"LAYERS":3,"totalSynapses":44},"weights":[-4.789765104205171,-5.70271716653883,-0.41421671747844835,-2.145581174295933,9.15091152508947,-4.836575209485493,5.389732463170426,-1.384279867757854,-5.130004115850312,0.9083655807105966,4.586444938175301,-0.19251524855037555,-2.991280683510906,-9.276405662691143,1.6916287754742703,7.3458655924676375,8.049409965012671,6.262255809268309,-1.709432444667961,6.436049837294411,9.688160916626675,4.924633971173029,8.896401022869648,3.6342256908511583,1.9038261021228575,-4.400236416576026,2.257992193249865,6.2674440970581555,-2.467774647075972,10.124634782621095,-7.9694981943341245,-6.20680108957378,1.3303228547765247,-5.709855103273566,6.558875459404687,2.3775568608634106,1.7776883526852396,-6.878942598879494,-8.806110461056022,-3.7384977792580836,-8.989813812537022,-7.529230980497303,3.2473104205128527,-2.193098623586273],"bias":[[9.058931875091865,2.3404212808322633,-9.909128197931336,-2.582790428496402,-0.3335799592586601,-4.802389167884763,-10.310122325908862,-8.513545583623483,-7.592053010863306,2.721509305294989],[0.8315238236781998,5.984417608574208,2.1928172724762027,1.206299480171792],[-8.222788490674816]],"id":0,"number":244}
