{"architecture":{"NEURONS":[10,4,1],"LAYERS":3,"totalSynapses":44},"weights":[-4.789765104205171,-5.517631485204707,-0.10747555443636875,-1.9282949214431289,9.15091152508947,-5.37955262401489,5.592221239650755,-1.3209927457208035,-5.202308539818968,0.9081220101713907,4.518825673077379,-0.5042740950926854,-2.991280683510906,-9.33387157467981,1.6923684185969738,7.579348650293144,7.560082946950887,6.262255809268309,-1.709432444667961,6.348969973245321,9.688160916626675,4.999186405322734,8.837248380162482,3.7318595403806323,1.9038261021228575,-4.080398024263543,2.257992193249865,5.982701143850129,-2.467774647075972,9.927394057075363,-7.9694981943341245,-6.286326306325313,1.762039204157402,-5.709855103273566,6.086578926930167,2.2987463223650195,1.5424875004835186,-6.908662734702028,-8.640154524759176,-4.040486546482754,-8.763058431358266,-7.668203851718269,3.0227627933416037,-2.003313245118095],"bias":[[9.058931875091865,2.3404212808322633,-9.62705855103079,-2.427321007386928,-0.22234637275952096,-4.802389167884763,-10.155173852102577,-8.493333893532473,-7.842531264644565,2.680385886990883],[0.7183293229796848,9.697249119660748,2.3174417405855356,0.8153126246387021],[-7.943573547296326]],"id":0,"number":245}
