{"architecture":{"NEURONS":[10,4,1],"LAYERS":3,"totalSynapses":44},"weights":[-4.861549634029356,-5.3207655533935965,-0.6276298871911934,-1.7477196722840103,9.661268804663646,-5.965278930737002,5.389732463170426,-1.0051464979555689,-5.239469321732855,0.6069954960067617,4.756231819738407,-0.04200924400579359,-2.991280683510906,-9.33387157467981,0.5617776351731478,7.579348650293144,7.7687849040449395,6.262255809268309,-1.715042887247133,6.497025312761081,9.090764972848717,5.062596443558378,8.837248380162482,3.6342256908511583,1.847999357512442,-4.509768257194885,2.1894270864202916,6.2674440970581555,-2.4528315554677,9.580741013086453,-8.148790116852744,-6.2042488347137335,0.5118041878219819,-5.709855103273566,6.695753058016354,2.1562823309137684,2.483487848536806,-6.827361406965832,-8.379800767722845,-3.868722382174629,-8.710402094533503,-8.116029867610571,-1.895225950476891,-2.0761066092405],"bias":[[9.058931875091865,2.2034123602595654,-9.909128197931336,-2.242196710634141,-0.2861071861235118,-4.9858999688992585,-10.236913839045464,-8.178111235865348,-7.499234539763068,2.879726976233768],[0.8315238236781998,5.984417608574208,2.22378870446023,0.8786857342560607],[-8.117146078860213]],"id":0,"number":246}
