{"architecture":{"NEURONS":[10,4,1],"LAYERS":3,"totalSynapses":44},"weights":[-4.879504709979832,-5.878172325514537,-0.41421671747844835,-1.7477196722840103,9.661268804663646,-5.54026411783054,5.389732463170426,-1.384279867757854,-5.32196254407754,0.6069954960067617,4.901160174051905,-0.1538231993748192,-2.991280683510906,-9.33387157467981,0.5761410649012607,7.579348650293144,7.772695533988269,6.262255809268309,-1.59147314321819,6.597845197711291,9.090764972848717,5.0652560018211,8.908544689591096,3.8299478977003876,1.5930720437815873,-5.022601554054754,2.669918859745864,6.2674440970581555,-2.3904091487809587,9.580741013086453,-7.9694981943341245,-6.2042488347137335,0.5118041878219819,-5.709855103273566,6.568997117331316,1.9688390764705814,2.548874844439749,-6.908662734702028,-8.379800767722845,-3.402086874991169,-9.07547822319655,-7.987778165384285,3.175320440289535,-2.0761066092405],"bias":[[9.058931875091865,2.2034123602595654,-9.741870219946707,-2.242196710634141,-0.2328724947604497,-5.169701807789672,-10.655886220751274,-8.305360877188567,-7.330281172825428,2.839436453218833],[0.7183293229796848,6.719035790380132,2.233462368030882,0.8786857342560607],[4.223138186371062]],"id":0,"number":247}
