{"architecture":{"NEURONS":[10,4,1],"LAYERS":3,"totalSynapses":44},"weights":[-4.928458695930052,-5.604125855835558,0.5847952246159885,-1.9282949214431289,9.377830272598594,-5.54026411783054,5.825017484001002,-1.0051464979555689,-5.398745050709399,0.7705592517107712,4.586444938175301,-0.19251524855037555,-2.991280683510906,-9.33387157467981,1.6916287754742703,7.579348650293144,7.765317805441082,6.262255809268309,-1.990237817671443,6.436049837294411,9.688160916626675,4.884860004841885,9.109002796107998,3.6342256908511583,1.847999357512442,-4.873087303888097,2.509451848218933,5.982701143850129,-2.4528315554677,9.927394057075363,-7.6704098123261835,-6.2042488347137335,0.5118041878219819,-5.890239152798474,6.086578926930167,1.9688390764705814,2.483487848536806,-6.908662734702028,-8.379800767722845,-3.7384977792580836,-9.011666492901472,-7.987778165384285,3.1389066680635374,-1.8035693335715666],"bias":[[9.058931875091865,2.3404212808322633,-10.067430411132936,-2.242196710634141,-0.3824940792164073,-4.609231560571073,-10.310122325908862,-8.221085466684011,-7.592053010863306,2.839436453218833],[0.8315238236781998,9.697249119660748,2.091160203349501,0.8153126246387021],[4.223138186371062]],"id":0,"number":248}
