{"architecture":{"NEURONS":[10,4,1],"LAYERS":3,"totalSynapses":44},"weights":[-4.928458695930052,-5.878172325514537,0.5847952246159885,-1.8054811204115524,9.15091152508947,-5.965278930737002,5.389732463170426,-1.0051464979555689,-5.130004115850312,0.6069954960067617,4.586444938175301,-0.19251524855037555,-2.991280683510906,-9.33387157467981,1.6916287754742703,7.579348650293144,8.049409965012671,6.262255809268309,-1.709432444667961,6.497025312761081,9.231458895268316,5.0652560018211,8.837248380162482,3.8299478977003876,1.847999357512442,-4.509768257194885,2.1894270864202916,5.982701143850129,-2.4528315554677,10.124634782621095,-7.9694981943341245,-6.2042488347137335,0.5118041878219819,-5.78126954105341,6.695753058016354,2.3775568608634106,2.548874844439749,-6.908662734702028,-8.806110461056022,-3.7384977792580836,-8.710402094533503,-8.116029867610571,-1.895225950476891,-2.0761066092405],"bias":[[9.058931875091865,2.3404212808322633,-9.741870219946707,-2.242196710634141,-0.2861071861235118,-4.9858999688992585,-10.310122325908862,-8.178111235865348,-7.330281172825428,2.839436453218833],[0.8315238236781998,5.984417608574208,2.1928172724762027,0.8786857342560607],[-8.117146078860213]],"id":0,"number":249}
