{"architecture":{"NEURONS":[10,7,1],"LAYERS":3,"totalSynapses":77},"weights":[-4.4902410914565065,8.802526059685771,-9.571729054939949,5.737756740958592,-9.213886157393741,9.696827492930888,4.909027962436111,3.617579239684848,0.8571753047539119,-4.82927755775146,-0.8388402328972895,-1.8073662520476965,2.0819603610845983,-4.219081259519402,0.7269094961446072,8.482346152402238,-7.924379091777449,8.703247123664125,-6.804002718904281,5.871228605652963,-2.305360763165929,-8.318928418780295,6.969959725756847,-1.6538573704344945,0.7286912133132275,6.487824324066211,7.104345634806922,-0.8548200306520104,6.025195797622671,0.9040649689237755,-0.9279619828429171,-1.2584681957573363,2.5448386578399314,9.688792440000416,-6.777784910242711,-7.563815143914995,-3.285866100776079,4.528884965206148,5.969681759618127,6.636766057612349,-7.515789722765553,4.824243091909798,9.284399965350987,-7.684091129091273,-7.204025107596959,-3.61244342710571,-6.826827736774124,5.058017595028276,-0.12141443033959029,6.691871363469034,-1.0694484926462167,-5.742347605384665,-1.1923364954102744,9.718865938774448,-8.259625068893893,-9.102628143182901,-7.809223714590609,9.546761640912006,-8.603881898739766,-7.386720627736741,5.47963485914953,7.342232272881916,0.7105596457415443,8.402605656525752,-5.421178490110067,8.174262016430838,0.4445049350431435,-9.931236489754374,-1.6872606405662962,-8.025522508533232,7.920714373714533,-6.987700228610055,-4.954133997482743,7.393476133885231,7.892684133500821,-7.287305430181119,7.054380647588055],"bias":[[5.6384238153122235,0.9686601365789125,6.796177519923144,-7.851871665497484,-0.4673575414575215,-9.467423353264158,-0.7724467187263996,-1.170123393312608,6.776895803873186,-4.079633906895109],[5.667590522181082,-1.896095636557738,4.299777104577558,-6.868796227546985,6.74675785421573,6.466959690767757,-7.825901617862306],[5.736214027179637]],"id":0,"number":25}
