{"architecture":{"NEURONS":[10,4,1],"LAYERS":3,"totalSynapses":44},"weights":[-5.235063184202942,-4.93585758157405,0.9306178389672429,-1.8309628280173267,9.570241965446161,-4.269899259415086,5.899998164343579,-1.6771138938397445,-5.844842554397221,-0.21963878118321628,4.708270376896566,0.42273350242791174,-2.62650791644905,-9.702049674102946,1.3528230391597638,8.293739054799557,8.290363874888326,6.822798069635287,-2.045750293513675,6.748269880314671,8.891569642936433,4.900964844351174,7.771731066353908,3.5722285386199637,1.9429698242057558,-3.9535316548413917,2.4684404115260463,6.6975900379067195,1.5535055724931286,9.132642675571836,-7.590902768767997,-6.231854462400097,0.8421553878726407,-5.554267822974435,6.884942809124336,1.1903206635754526,2.4167149428455237,-6.689976637295818,-8.920287607614968,-3.648057374886958,-8.680429400348162,-7.543603682041111,6.760365419563164,-1.9577276198532125],"bias":[[-8.13366234820025,2.4406655954038414,-9.740742219103018,-2.1171945105377343,1.3311489911721885,-5.176203419913459,-9.83565943536265,-6.604274200473044,-5.308954577413443,2.9387931116759454],[-6.892408000770195,6.319568422239711,1.486484837611693,0.4814478777325135],[4.636143817749678]],"id":0,"number":25}
