{"architecture":{"NEURONS":[10,7,1],"LAYERS":3,"totalSynapses":77},"weights":[-3.9464406194687163,3.8868941354763917,2.5282105860687234,-1.9125057035798252,-4.858845279460217,9.32377309787526,5.8770820688593215,0.2688440423957925,2.2691236493260547,-0.3700999963833887,2.1180021867613954,-4.5398774725964595,9.107185162298913,6.617963273995042,-3.2162085805460436,-2.026742707419833,-7.565441835377498,3.6696410479067154,-10.141847186735285,-8.126813629938933,6.85242311913605,-2.571540737298419,-2.59219826502822,5.727083121955032,0.709335554299455,-5.856569043515434,0.3890835527725054,4.0545309794445075,-1.7685890040072776,4.838757126002358,8.322996093996743,7.15596654970725,4.950639600317734,6.572062802434175,-8.887655233121338,5.022871043207024,3.64922631997548,4.217962698890163,4.829627410197693,-1.6944843749450216,3.4698250511437747,-5.069476260920819,-4.737085269586926,2.014884188734854,-6.462449329830431,5.310261441123278,-3.9352283458619297,-0.6946178161623597,2.7176061342887845,5.611303084379244,2.3954442606966824,-7.194586841260899,6.502369696987726,-6.957324193617062,-3.576434222111161,-5.693288095329716,-7.335315133596196,3.050857770607963,-1.11604351243286,4.021430233476019,-7.561029009071894,-4.146246140369289,6.550035432951615,-8.896227438002075,-4.182411330876159,-2.6228931872413486,-6.098327502273364,3.3294724579287758,10.658317436083584,0.9972827352776984,-5.971375640551172,4.591535381727439,1.2389376468796958,-1.4649918214214792,7.932333361433502,4.959562181440761,-1.0440195201088391],"bias":[[-7.949165305634724,5.06084829591582,-4.509383404171689,4.887495848447925,3.1414076528105594,8.392682503271548,7.559166257003722,-6.251011559821624,8.29214941690348,-0.7238245278072337],[-1.501679274927008,0.1993405004017098,-4.979909652569421,-7.911522194936926,0.2408351328306301,5.630746571508054,7.209174904639326],[-5.1572495006186845]],"id":0,"number":25}
