{"architecture":{"NEURONS":[10,4,1],"LAYERS":3,"totalSynapses":44},"weights":[-4.861549634029356,-5.3207655533935965,-0.6276298871911934,-1.5911870483004913,9.217202445575385,-4.836575209485493,5.825017484001002,-1.0891926388306907,-5.239469321732855,0.6069954960067617,4.756231819738407,0.08555731750933043,-2.9351385351187598,-9.808219500639822,0.5617776351731478,7.420922998643328,7.713771689237857,6.413158479021292,-1.709432444667961,6.497025312761081,9.155536143672085,5.0652560018211,8.837248380162482,3.5140074408044617,1.847999357512442,-4.685766492048912,2.2932945947597014,5.908552955494901,-2.4528315554677,9.58052448424765,-8.148790116852744,-6.2042488347137335,1.098266686935034,-5.709855103273566,7.198788959241868,2.3775568608634106,2.483487848536806,-6.626952367932909,-8.860938214316752,-3.6523764867580906,-9.274750811266056,-7.987778165384285,3.296944947744939,-1.8035693335715666],"bias":[[9.058931875091865,2.2034123602595654,-10.132665196489349,-1.7723637457620107,-0.009865085272233598,-4.838179545909131,-10.310122325908862,-8.178111235865348,-7.330281172825428,2.879726976233768],[0.19823646203623135,5.984417608574208,2.22378870446023,0.8786857342560607],[-8.117146078860213]],"id":0,"number":250}
