{"architecture":{"NEURONS":[10,4,1],"LAYERS":3,"totalSynapses":44},"weights":[-4.861549634029356,-5.3207655533935965,0.49136841103258855,-1.8054811204115524,9.661268804663646,-5.54026411783054,5.395529753388975,-0.7961370982180848,-5.239469321732855,0.9083655807105966,4.756231819738407,0.094042923144708,-2.991280683510906,-9.808219500639822,0.5617776351731478,7.579348650293144,7.713771689237857,6.262255809268309,-1.59147314321819,6.460419394422683,9.090764972848717,4.924633971173029,8.837248380162482,3.6342256908511583,1.847999357512442,-4.268582363405939,2.669918859745864,6.2674440970581555,-2.4528315554677,9.927394057075363,-8.148790116852744,-6.2042488347137335,1.5759833769287737,-5.307718801311809,6.568997117331316,1.622384899653711,2.483487848536806,-6.908662734702028,-8.379800767722845,-3.7384977792580836,-8.763058431358266,-8.116029867610571,-1.895225950476891,-1.8035693335715666],"bias":[[9.058931875091865,2.2034123602595654,-10.067430411132936,-2.242196710634141,-0.009865085272233598,-4.9858999688992585,-10.655886220751274,-8.37780286636239,-7.330281172825428,2.839436453218833],[0.8315238236781998,5.984417608574208,2.22378870446023,1.395835744998607],[-8.117146078860213]],"id":0,"number":251}
