{"architecture":{"NEURONS":[10,4,1],"LAYERS":3,"totalSynapses":44},"weights":[-4.908403617303387,-5.481404115983925,-0.10747555443636875,-1.4604143701571364,9.377830272598594,-5.54026411783054,5.059142707344479,-0.6334817350520823,-5.465131462000219,0.9083655807105966,4.756231819738407,-0.19251524855037555,-2.826297866879929,-9.808219500639822,0.9036894996435443,7.579348650293144,7.252825888420346,6.262255809268309,-2.093991446748329,6.348969973245321,9.59531949877336,4.884860004841885,8.837248380162482,3.6342256908511583,1.9038261021228575,-4.873087303888097,2.669918859745864,5.908552955494901,-2.7453305581796474,10.039719490123263,-8.148790116852744,-6.2042488347137335,1.3699982432888391,-5.709855103273566,6.568997117331316,1.9688390764705814,2.483487848536806,-6.908662734702028,-8.357634977479098,-3.7384977792580836,-9.013221491638053,-7.987778165384285,3.1389066680635374,-1.832541037454876],"bias":[[9.058931875091865,1.993054464970874,-10.132665196489349,-1.6361355290449782,-0.05625084518521497,-4.609231560571073,-10.236913839045464,-8.221085466684011,-7.430816336168739,2.839436453218833],[1.2246237371924205,6.719035790380132,2.082553822473812,0.8153126246387021],[4.223138186371062]],"id":0,"number":252}
