{"architecture":{"NEURONS":[10,4,1],"LAYERS":3,"totalSynapses":44},"weights":[-4.879504709979832,-5.481404115983925,-0.10747555443636875,-1.9553607548390524,9.377830272598594,-5.965278930737002,5.059142707344479,-1.0051464979555689,-5.239469321732855,0.6069954960067617,4.756231819738407,-0.04200924400579359,-3.079011329861509,-9.276405662691143,0.9036894996435443,7.323194440579966,7.252825888420346,6.314924242499606,-1.9154775669443185,6.497025312761081,9.090764972848717,5.062596443558378,8.837248380162482,3.6342256908511583,1.9038261021228575,-4.4066084617092605,2.669918859745864,5.908552955494901,-2.7453305581796474,9.580741013086453,-8.148790116852744,-6.2042488347137335,0.5118041878219819,-5.709855103273566,6.651580026017748,2.2987463223650195,2.483487848536806,-6.768416578443841,-8.379800767722845,-3.868722382174629,-9.013221491638053,-8.116029867610571,3.296944947744939,-1.832541037454876],"bias":[[9.058931875091865,2.2034123602595654,-9.655184566843621,-1.7723637457620107,-0.2861071861235118,-4.12997154613971,-10.236913839045464,-8.178111235865348,-7.499234539763068,2.7577171261748354],[0.8315238236781998,6.719035790380132,2.22378870446023,1.395835744998607],[4.223138186371062]],"id":0,"number":253}
