{"architecture":{"NEURONS":[10,4,1],"LAYERS":3,"totalSynapses":44},"weights":[-4.861549634029356,-5.70271716653883,-0.6276298871911934,-2.3086246656873435,9.15091152508947,-5.990709012319102,5.218648013482801,-0.49415124419409945,-5.202308539818968,0.7705592517107712,4.4383164603973135,-0.04200924400579359,-2.991280683510906,-9.276405662691143,1.6916287754742703,7.971202493532775,7.713771689237857,6.314924242499606,-1.709432444667961,6.480321070087997,9.688160916626675,4.924633971173029,8.837248380162482,3.7941942075528305,1.9038261021228575,-4.112861831099253,2.113312994016624,6.2674440970581555,-2.6613890527470403,9.580741013086453,-8.184666021677783,-6.200046169554038,1.5759833769287737,-5.709855103273566,7.198788959241868,2.1562823309137684,2.483487848536806,-6.908662734702028,-8.354199750383154,-3.7384977792580836,-8.710402094533503,-8.336578931439801,3.296944947744939,-1.8035693335715666],"bias":[[8.570322849810195,2.038085640348203,-9.909128197931336,-1.7723637457620107,-0.009865085272233598,-4.609231560571073,-10.310122325908862,-7.664697206470955,-7.592053010863306,2.721509305294989],[1.2819085852792518,5.701901823780381,2.1928172724762027,1.3861282589850727],[4.223138186371062]],"id":0,"number":254}
