{"architecture":{"NEURONS":[10,4,1],"LAYERS":3,"totalSynapses":44},"weights":[-4.789765104205171,-5.368120608404053,-0.19302426439679254,-1.8054811204115524,9.15091152508947,-5.965278930737002,5.76070778192104,-1.384279867757854,-5.202308539818968,0.9081220101713907,4.586444938175301,-0.19251524855037555,-3.169235978529847,-9.808219500639822,0.9036894996435443,7.689197315188605,7.412150048977293,6.262255809268309,-2.5960507719021564,6.186057011146672,9.688160916626675,4.65547860750044,8.837248380162482,3.5140074408044617,1.616888193617024,-4.685766492048912,2.4124398984611846,5.908552955494901,-2.4528315554677,9.637876105849207,-8.296861941569148,-6.200046169554038,0.5118041878219819,-5.709855103273566,7.198788959241868,1.9688390764705814,1.2052831450429409,-6.908662734702028,-8.379800767722845,-3.7384977792580836,-8.512236913504044,-8.223687541670925,-1.895225950476891,-1.8023688194372811],"bias":[[9.529236401384251,2.038085640348203,-9.62705855103079,-1.7723637457620107,-0.3335799592586601,-4.562877235727486,-10.310122325908862,-8.055928499630594,-7.829749027480848,2.721509305294989],[0.8315238236781998,5.984417608574208,2.3174417405855356,1.395835744998607],[4.223138186371062]],"id":0,"number":255}
