{"architecture":{"NEURONS":[10,4,1],"LAYERS":3,"totalSynapses":44},"weights":[-4.879504709979832,-5.70271716653883,-0.6276298871911934,-1.9929412287116635,9.377830272598594,-5.990709012319102,5.389732463170426,-1.0051464979555689,-5.32196254407754,0.6069954960067617,4.586444938175301,-0.39880035941531644,-2.935844278893942,-9.276405662691143,0.5617776351731478,7.420922998643328,7.7687849040449395,6.314924242499606,-2.2718796073012224,6.497025312761081,9.090764972848717,5.062596443558378,9.109002796107998,3.7504230436660158,1.9038261021228575,-4.509768257194885,2.4124398984611846,6.2674440970581555,-2.444077691642733,9.580741013086453,-8.50965091926267,-6.200046169554038,0.5118041878219819,-5.709855103273566,7.198788959241868,1.9688390764705814,1.7776883526852396,-6.786569100431762,-8.860938214316752,-3.7384977792580836,-8.710402094533503,-8.241985529062012,3.605048628066103,-2.193098623586273],"bias":[[9.231805567928555,2.3404212808322633,-9.655184566843621,-1.7723637457620107,-0.2861071861235118,-4.609231560571073,-10.236913839045464,-7.664697206470955,-7.499234539763068,2.7577171261748354],[0.8315238236781998,5.890656134622944,2.1928172724762027,1.395835744998607],[4.223138186371062]],"id":0,"number":256}
