{"architecture":{"NEURONS":[10,4,1],"LAYERS":3,"totalSynapses":44},"weights":[-4.879504709979832,-5.3207655533935965,-0.6276298871911934,-1.8054811204115524,9.368064577362743,-5.990709012319102,5.744580852186041,-0.995766494366277,-5.239469321732855,0.6069954960067617,4.586444938175301,0.094042923144708,-3.169235978529847,-9.276405662691143,1.7791870169701556,7.894844853363556,7.582298113078032,6.512164017533426,-2.5960507719021564,5.916910336127798,9.688160916626675,4.924633971173029,8.837248380162482,3.7941942075528305,1.9038261021228575,-4.112861831099253,2.4124398984611846,5.982701143850129,-2.4528315554677,9.580741013086453,-8.50965091926267,-6.200046169554038,0.5118041878219819,-5.709855103273566,6.651580026017748,2.3775568608634106,2.615568582535058,-6.626952367932909,-8.379800767722845,-3.6523764867580906,-9.274750811266056,-8.116029867610571,3.605048628066103,-1.7385701839572945],"bias":[[9.231805567928555,2.3404212808322633,-9.909128197931336,-1.7723637457620107,0.006592791148629313,-4.609231560571073,-10.236913839045464,-7.664697206470955,-7.829749027480848,2.7577171261748354],[0.19823646203623135,5.984417608574208,2.082553822473812,1.395835744998607],[-8.117146078860213]],"id":0,"number":257}
