{"architecture":{"NEURONS":[10,4,1],"LAYERS":3,"totalSynapses":44},"weights":[-4.789765104205171,-5.3207655533935965,-0.19302426439679254,-1.9553607548390524,9.707557056582818,-5.965278930737002,5.76070778192104,-0.6682470309415777,-5.481325009419865,0.9081220101713907,4.586444938175301,-0.19251524855037555,-3.169235978529847,-9.276405662691143,0.9036894996435443,7.689197315188605,8.03684425514445,6.262255809268309,-2.2718796073012224,6.331514355291829,9.688160916626675,5.062596443558378,8.837248380162482,3.6342256908511583,1.847999357512442,-4.685766492048912,2.4124398984611846,5.908552955494901,-2.444077691642733,9.637876105849207,-8.184666021677783,-6.200046169554038,0.5118041878219819,-5.709855103273566,7.198788959241868,1.9688390764705814,2.483487848536806,-6.908662734702028,-8.379800767722845,-3.7384977792580836,-8.735343240789105,-8.116029867610571,3.605048628066103,-1.832541037454876],"bias":[[9.231805567928555,2.5619514912802828,-9.276672538137102,-2.533993520154867,-0.2861071861235118,-4.69507921618729,-10.236913839045464,-8.055928499630594,-7.499234539763068,2.721509305294989],[0.8315238236781998,6.719035790380132,2.082553822473812,1.3861282589850727],[4.223138186371062]],"id":0,"number":258}
