{"architecture":{"NEURONS":[10,4,1],"LAYERS":3,"totalSynapses":44},"weights":[-4.879504709979832,-5.3207655533935965,-0.6276298871911934,-2.704904275575213,9.37724558585409,-6.1200303842299695,5.744580852186041,-0.995766494366277,-5.239469321732855,0.9348558513375943,4.521424828357716,-0.19251524855037555,-2.7620848410871632,-9.276405662691143,0.17078680650575845,7.882702556560335,7.582298113078032,6.512164017533426,-1.709432444667961,6.646182231138806,8.991486667287989,5.0652560018211,8.837248380162482,3.7941942075528305,1.7513770368634627,-4.509768257194885,2.4124398984611846,5.982701143850129,-2.4528315554677,9.58052448424765,-8.50965091926267,-5.8681103833872745,0.49105333826330216,-5.709855103273566,5.97426450140985,1.9688390764705814,2.731190399546001,-6.468877838118394,-8.379800767722845,-3.6523764867580906,-9.479349172914274,-8.116029867610571,2.774970485095535,-1.7385701839572945],"bias":[[9.231805567928555,2.002531976520244,-9.909128197931336,-1.7723637457620107,0.30425812056109036,-4.599165654687368,-10.39136140572182,-7.664697206470955,-7.592053010863306,2.7577171261748354],[0.19823646203623135,5.984417608574208,2.1928172724762027,1.395835744998607],[-8.117146078860213]],"id":0,"number":259}
