{"architecture":{"NEURONS":[10,7,1],"LAYERS":3,"totalSynapses":77},"weights":[-3.605611696599806,8.53912469424923,-10.061573336017041,4.63633141309291,-9.362020877441367,9.970666511693391,5.874086617430176,3.6275319037800533,0.09184894983437286,-5.41592742466453,-0.5055328701259238,-0.7965246809328741,2.0592385107741285,-4.968691978754377,1.5295160928863432,8.302810748014926,-8.021686309002655,9.090608594016183,-6.4457570572450456,6.123835723474052,-2.1934769943095067,-8.914387770051222,7.769949273361504,-1.7940992457833156,0.3641202670996768,6.502639757095359,7.052575256526754,-1.9287863501253133,5.993817553388865,0.41550207378326964,-1.3346053560664435,-1.5031306176006018,1.6979200886689516,9.420209066691639,-6.151145156744563,-7.578988538795658,-2.7436112112365403,4.51980154124031,5.523358795407326,6.6945831606984445,-8.116771935982275,4.618871035690375,9.132584020196802,-7.47329160767379,-8.21843265084722,-4.19139829453094,-6.612109941351314,5.823009315060807,-0.3169958341342758,6.204842228124702,-1.1924137821388596,-6.080168224791106,-1.9007741595814243,8.990405343761525,-8.537395755770412,-8.450599332921234,-8.486810511101588,8.986961144829548,-8.4229093960546,-7.086354457252649,5.964114745684615,7.9873458561872415,0.951403541252151,7.810088229785766,-4.971617355240442,7.942445779749409,0.6636258308144853,-9.763673241317536,-1.027324701621102,-8.965205261292828,7.422021098755238,-7.068872663020242,-5.550899522308989,7.742522866893795,7.617539299886319,-7.232083559674705,6.936490220043061],"bias":[[6.460998603945025,1.1024321231489707,6.682071503000032,-8.123495315622867,-0.13131389884450878,-8.464003473193744,-0.6333848092344182,-0.061294497951336235,5.873666405817592,-4.500848669410813],[4.9073897655391745,-1.345048121056966,3.2739995625747644,-5.981097884831124,7.473467999666503,6.601458319475182,-7.349297555966747],[5.385624548406891]],"id":0,"number":26}
