{"architecture":{"NEURONS":[10,4,1],"LAYERS":3,"totalSynapses":44},"weights":[-4.629214945802276,-4.93585758157405,1.0621367256607406,-1.8790420360856679,9.599961355998795,-4.6300155428823935,5.699166746634036,-1.567041800205644,-8.6468552793733,-0.04100669535120028,4.708270376896566,0.16278305798056059,-2.8314544540747137,-9.568280395162475,1.1922435199802113,8.057722165120712,8.290363874888326,6.822798069635287,-1.9207887073258398,6.453457326596539,8.487163752574167,4.906528325556119,7.331563873021117,3.5722285386199637,1.9978978553689493,-3.8209450344236635,2.4684404115260463,6.541283591073817,-3.3322049777484386,9.502114251845168,-7.868134781650866,-6.231854462400097,1.0325896082048565,-5.424577880399962,6.890353961575696,1.7153931173358827,3.028076041502512,-6.961985987923902,-8.576430209866862,-3.750305328389405,-8.440294264519611,-8.162757813732867,6.760365419563164,-1.7572773471501193],"bias":[[-8.625926697232106,2.194726609579458,-9.638281380756686,-2.1171945105377343,1.3226340592766377,-5.176203419913459,-9.83565943536265,-6.604274200473044,-5.595090931022022,2.5673157780440334],[-6.704064881434027,6.319568422239711,1.174143756999797,0.669038647007914],[4.636143817749678]],"id":0,"number":26}
