{"architecture":{"NEURONS":[10,7,1],"LAYERS":3,"totalSynapses":77},"weights":[-4.140009139734749,3.81669531048286,1.1294903606773905,-1.8796106013792804,-5.848943484873691,9.25747962498107,6.003423475234546,0.6383810974125609,3.109637665030956,-0.6801660406673986,2.107363828393013,-3.884357386962227,8.448239741049596,6.5662790510665054,-2.1580319833204897,-2.9137198200897245,-6.694327401754271,3.57515124580577,-10.237244875459696,-9.145280806578356,6.157027694016299,-1.2555007101085984,-2.702761549104355,5.902542242408316,-0.6511972628103206,-7.165714942546413,0.1755037966078603,3.7598361473179516,0.04173497235600186,3.9080936662023125,8.776009944911765,7.575734900533747,5.318655739706383,6.451307867123996,-8.007985876017472,5.611462549103093,3.6306731419708043,4.50247233610267,6.387842533983998,-3.6466630955981905,4.5467313215232155,-4.97651257198645,-5.502959188347365,2.1007327655102666,-6.3717114082536845,2.887185584907862,-3.838380264264679,-0.42481804181251787,3.0167916856968047,5.585506169758284,2.0249522477105453,-7.223785082703444,7.460784158672842,-5.282823898772144,-3.8815314538856613,-5.333538768410858,-6.467392929206478,3.6782597960153964,-1.1673029550264413,3.717699598508403,-8.268924732373545,-3.843783813077772,6.8496809343036285,-8.637982352631074,-3.5360053682867973,-2.1406744837581586,-4.816458451084469,2.9259260077590303,8.22854131255312,-0.21389568265871473,-6.627387805571075,4.475365653061068,-0.12274872410209411,0.1939931782287566,6.886696257905431,5.340957916153002,-0.9142084535915392],"bias":[[-9.228184546266316,5.264945288587505,-4.893497926030319,5.248489483845555,3.185476802664884,8.74583869020102,7.175629614665891,-6.341940060358445,6.279456485502814,-0.12878502190634405],[-1.4946407058472577,1.1064869586177712,-4.31279795960941,-9.6604456566387,0.12055273329610065,6.8105720149250235,7.516603777572079],[-5.295694431381231]],"id":0,"number":26}
