{"architecture":{"NEURONS":[10,4,1],"LAYERS":3,"totalSynapses":44},"weights":[-4.700435882712043,-5.422063511529198,-0.10756928070851235,-1.9553607548390524,9.217202445575385,-5.884083484220033,5.744580852186041,-0.6682470309415777,-5.481325009419865,0.7649700802341094,4.586444938175301,0.094042923144708,-3.169235978529847,-9.276405662691143,0.9036894996435443,7.08483215527588,7.713771689237857,6.262255809268309,-2.2718796073012224,6.331514355291829,9.688160916626675,4.825778564810594,8.837248380162482,3.6342256908511583,1.9038261021228575,-4.685766492048912,2.4124398984611846,5.982701143850129,-2.444077691642733,9.376385365974372,-8.184666021677783,-6.200046169554038,0.5118041878219819,-6.110805614334951,6.665185393104251,2.346246938743556,2.483487848536806,-6.858589878243719,-8.187241276151596,-3.868722382174629,-8.735343240789105,-8.336578931439801,3.0294138104917683,-1.7385701839572945],"bias":[[9.231805567928555,2.269385127972222,-9.075385979275314,-2.533993520154867,-0.2861071861235118,-4.69507921618729,-10.236913839045464,-8.055928499630594,-7.499234539763068,3.1225579814679514],[0.8315238236781998,6.719035790380132,2.082553822473812,1.395835744998607],[4.223138186371062]],"id":0,"number":260}
