{"architecture":{"NEURONS":[10,4,1],"LAYERS":3,"totalSynapses":44},"weights":[-4.879504709979832,-5.3207655533935965,-0.10747555443636875,-2.128187415656151,9.726987927542062,-5.54026411783054,5.744580852186041,-0.5816157785474555,-5.32196254407754,0.7705592517107712,4.845572577394176,0.094042923144708,-2.7620848410871632,-9.33387157467981,0.5617776351731478,7.689197315188605,7.7687849040449395,6.262255809268309,-1.9593437934877087,6.646182231138806,8.538876581931085,5.303503978862412,8.837248380162482,3.687034487117468,1.9038261021228575,-4.509768257194885,1.9671487442631528,5.982701143850129,-2.4528315554677,9.58052448424765,-8.296861941569148,-5.944408045634704,1.3699982432888391,-5.890239152798474,6.568997117331316,1.5730207526985038,2.731190399546001,-6.878942598879494,-8.806110461056022,-3.5457847469393933,-8.989813812537022,-8.336578931439801,3.296944947744939,-1.7385701839572945],"bias":[[9.058931875091865,2.394882772123399,-9.454688125916348,-1.8655486446450547,0.30425812056109036,-4.599165654687368,-10.236913839045464,-8.1627956718046,-7.499234539763068,3.0366595024270575],[0.8315238236781998,5.479235471913191,2.22378870446023,1.395835744998607],[4.223138186371062]],"id":0,"number":261}
