{"architecture":{"NEURONS":[10,4,1],"LAYERS":3,"totalSynapses":44},"weights":[-4.789765104205171,-5.3207655533935965,-0.10747555443636875,-1.8829688881457265,9.394123483929356,-5.990709012319102,5.67693920023147,-1.384279867757854,-5.257636909356055,0.6069954960067617,4.586444938175301,0.094042923144708,-3.169235978529847,-9.276405662691143,0.9036894996435443,7.08483215527588,7.800658617367839,6.29610100868725,-1.4589466476443582,6.186057011146672,8.467945673640587,4.56447798578603,8.837248380162482,3.6342256908511583,1.5186677533327932,-4.210834880646063,2.4124398984611846,5.982701143850129,-2.4528315554677,9.580741013086453,-8.259134699775373,-5.887147370507382,1.3699982432888391,-5.709855103273566,6.488644162117976,1.9688390764705814,2.71049129026871,-6.768416578443841,-8.806110461056022,-3.868722382174629,-9.479349172914274,-7.866750616327824,-1.895225950476891,-1.7385701839572945],"bias":[[9.058931875091865,2.02008464331503,-9.62705855103079,-1.6410948493183575,0.006592791148629313,-4.609231560571073,-10.310122325908862,-7.664697206470955,-7.829749027480848,2.7577171261748354],[0.8315238236781998,9.149175575505225,2.082553822473812,1.3861282589850727],[4.202125797229043]],"id":0,"number":262}
