{"architecture":{"NEURONS":[10,4,1],"LAYERS":3,"totalSynapses":44},"weights":[-4.879504709979832,-5.422063511529198,-0.10747555443636875,-1.5869917438661452,9.726987927542062,-5.54026411783054,5.744580852186041,-1.0051464979555689,-5.320998399731692,0.6069954960067617,4.376807428249805,-0.04200924400579359,-3.169235978529847,-9.090111621387258,0.5617776351731478,7.689197315188605,7.7687849040449395,6.262255809268309,-1.9593437934877087,6.646182231138806,8.538876581931085,5.303503978862412,8.837248380162482,3.687034487117468,1.9038261021228575,-4.509768257194885,2.4124398984611846,5.982701143850129,-2.4528315554677,9.58052448424765,-8.296861941569148,-6.200046169554038,0.5118041878219819,-5.709855103273566,6.651580026017748,1.5730207526985038,1.7776883526852396,-6.768416578443841,-8.357634977479098,-3.868722382174629,-8.989813812537022,-8.336578931439801,3.296944947744939,-1.8035693335715666],"bias":[[9.058931875091865,2.02008464331503,-9.62705855103079,-1.8655486446450547,0.30425812056109036,-4.609231560571073,-10.236913839045464,-8.178111235865348,-7.32392983416026,3.0366595024270575],[0.8315238236781998,5.984417608574208,2.22378870446023,1.395835744998607],[4.223138186371062]],"id":0,"number":263}
