{"architecture":{"NEURONS":[10,4,1],"LAYERS":3,"totalSynapses":44},"weights":[-4.861549634029356,-5.3207655533935965,-0.36862462121561845,-1.8054811204115524,9.410415565573713,-5.884083484220033,5.744580852186041,-1.384279867757854,-5.257636909356055,0.7705592517107712,4.83117329103431,-0.19251524855037555,-3.096432942426151,-9.276405662691143,0.8536298941059076,7.695356834159108,7.7687849040449395,6.262255809268309,-1.709432444667961,6.323565149131753,9.090764972848717,4.924633971173029,8.837248380162482,3.6342256908511583,1.616888193617024,-4.7221078228098,3.0501482583432837,5.982701143850129,-2.444077691642733,9.376385365974372,-8.296861941569148,-6.200046169554038,1.3699982432888391,-6.110805614334951,6.695753058016354,2.346246938743556,2.615568582535058,-6.908662734702028,-8.379800767722845,-3.748081832260422,-8.989813812537022,-8.116029867610571,2.774970485095535,-2.0761066092405],"bias":[[9.231805567928555,2.02008464331503,-9.857745487938896,-1.8655486446450547,-0.2336344496981212,-4.12997154613971,-10.236913839045464,-7.664697206470955,-7.330281172825428,2.6738774914227363],[0.8315238236781998,5.984417608574208,2.22378870446023,1.0572379502659874],[-8.117146078860213]],"id":0,"number":264}
