{"architecture":{"NEURONS":[10,4,1],"LAYERS":3,"totalSynapses":44},"weights":[-5.040905869342486,-5.3207655533935965,-0.6276298871911934,-1.7086085656784429,9.377830272598594,-5.884083484220033,5.67693920023147,-1.384279867757854,-5.257636909356055,0.9081220101713907,4.586444938175301,-0.19251524855037555,-3.4376836277917153,-9.100964611144896,0.5617776351731478,7.501467087243106,7.689614908978815,6.387860796041417,-1.709432444667961,6.497025312761081,9.688160916626675,5.062596443558378,8.837248380162482,3.6342256908511583,1.9038261021228575,-4.210834880646063,2.4124398984611846,5.982701143850129,-2.444077691642733,9.580741013086453,-8.25447646697725,-6.200046169554038,1.3699982432888391,-5.709855103273566,6.695753058016354,2.3645495277274557,2.615568582535058,-6.626952367932909,-8.806110461056022,-3.7384977792580836,-9.226933908074857,-8.067593960892943,3.605048628066103,-1.7385701839572945],"bias":[[9.231805567928555,2.394882772123399,-9.857745487938896,-1.8655486446450547,-0.22234637275952096,-4.12997154613971,-10.236913839045464,-7.664697206470955,-7.499234539763068,2.6738774914227363],[0.8315238236781998,5.984417608574208,2.22378870446023,0.7727360050955363],[-8.052145929311317]],"id":0,"number":265}
