{"architecture":{"NEURONS":[10,4,1],"LAYERS":3,"totalSynapses":44},"weights":[-4.700435882712043,-5.069212782260515,-0.10756928070851235,-1.8829688881457265,9.726987927542062,-5.54026411783054,5.744580852186041,-1.384279867757854,-5.32196254407754,0.4267276999811075,4.376807428249805,0.094042923144708,-2.991280683510906,-9.215569558880691,1.7791870169701556,7.08483215527588,7.7687849040449395,6.453065285860757,-2.5960507719021564,6.646182231138806,9.688160916626675,5.062596443558378,8.837248380162482,3.6342256908511583,1.9038261021228575,-4.509768257194885,2.4124398984611846,5.982701143850129,-2.4528315554677,9.580741013086453,-8.457324405482547,-5.944408045634704,0.5118041878219819,-5.634741481530156,6.568997117331316,1.9688390764705814,2.549528215535932,-6.878942598879494,-8.751819942743067,-3.748081832260422,-9.479349172914274,-8.336578931439801,3.296944947744939,-1.5557091394307672],"bias":[[9.058931875091865,2.02008464331503,-9.62705855103079,-2.533993520154867,-0.2861071861235118,-4.69507921618729,-10.310122325908862,-8.1627956718046,-7.9834862997037135,3.0366595024270575],[0.8315238236781998,9.149175575505225,2.22378870446023,1.3861282589850727],[3.962600188510693]],"id":0,"number":266}
