{"architecture":{"NEURONS":[10,4,1],"LAYERS":3,"totalSynapses":44},"weights":[-4.879504709979832,-5.422063511529198,-0.10747555443636875,-1.9191648214923895,9.377830272598594,-5.54026411783054,5.744580852186041,-1.0051464979555689,-5.320998399731692,0.9081220101713907,4.376807428249805,0.094042923144708,-3.169235978529847,-9.755482136731647,0.5617776351731478,7.689197315188605,8.103607259225372,6.262255809268309,-1.9593437934877087,6.348969973245321,8.538876581931085,5.062596443558378,8.837248380162482,3.687034487117468,1.732443775564733,-4.557476164740375,2.4124398984611846,5.982701143850129,-2.4528315554677,9.159036211138915,-8.296861941569148,-6.200046169554038,1.3699982432888391,-5.709855103273566,6.651580026017748,1.5730207526985038,2.483487848536806,-6.768416578443841,-8.357634977479098,-3.743289805759253,-8.989813812537022,-8.116029867610571,3.605048628066103,-1.832541037454876],"bias":[[9.058931875091865,2.02008464331503,-9.62705855103079,-1.8655486446450547,0.0683862984258532,-4.609231560571073,-10.236913839045464,-8.160091092990472,-7.32392983416026,3.3496156602578377],[0.8315238236781998,9.698253555883687,-2.896007493074033,1.395835744998607],[4.1812717129095125]],"id":0,"number":267}
