{"architecture":{"NEURONS":[10,4,1],"LAYERS":3,"totalSynapses":44},"weights":[-4.700435882712043,-5.3207655533935965,-0.6276298871911934,-1.8829688881457265,9.217202445575385,-5.54026411783054,5.67693920023147,-1.384279867757854,-5.257636909356055,1.257658354692607,4.376807428249805,0.05390467893113891,-2.7620848410871632,-9.276405662691143,1.7791870169701556,7.313365427488848,8.03684425514445,6.262255809268309,-2.2718796073012224,5.916910336127798,9.688160916626675,5.399369809025754,8.837248380162482,3.7941942075528305,1.4899867431457963,-4.685766492048912,2.4124398984611846,5.982701143850129,-2.4528315554677,9.58052448424765,-8.400438780370465,-6.458439933665326,0.5118041878219819,-5.544439497698141,6.152669807398711,1.9688390764705814,2.483487848536806,-6.908662734702028,-8.806110461056022,-3.748081832260422,-9.479349172914274,-8.116029867610571,3.0294138104917683,-1.7385701839572945],"bias":[[9.058931875091865,2.2034123602595654,-9.62705855103079,-1.5850804475800437,-0.052265185867414604,-4.609231560571073,-4.727871027502292,-7.664697206470955,-7.499234539763068,2.839436453218833],[0.8315238236781998,9.149175575505225,2.22378870446023,0.6612307035420986],[-8.117146078860213]],"id":0,"number":268}
