{"architecture":{"NEURONS":[10,4,1],"LAYERS":3,"totalSynapses":44},"weights":[-4.519837132472442,-4.935462518181887,-0.5084832472560594,-1.9191648214923895,9.726987927542062,-5.450717547564682,5.744580852186041,-1.384279867757854,-5.4446630102452644,0.6069954960067617,4.376807428249805,0.094042923144708,-2.991280683510906,-9.276405662691143,0.5617776351731478,7.8084819302112765,8.003868732959408,6.005411203381564,-2.2718796073012224,6.646182231138806,8.455997573797156,5.062596443558378,8.837248380162482,3.6342256908511583,1.9038261021228575,-4.509768257194885,2.4124398984611846,5.908552955494901,-2.4528315554677,9.580741013086453,-8.296861941569148,-6.200046169554038,1.3135152930097187,-5.709855103273566,6.516016062471958,1.9688390764705814,2.4953629540518203,-6.878942598879494,-8.751819942743067,-3.748081832260422,-8.665725489855568,-8.131569292352403,3.605048628066103,-1.832541037454876],"bias":[[9.058931875091865,2.394882772123399,-9.62705855103079,-2.144800129815484,0.006592791148629313,-4.609231560571073,-10.310122325908862,-8.203949476033843,3.212532494686153,3.0366595024270575],[0.8315238236781998,9.149175575505225,2.082553822473812,1.3861282589850727],[3.868049971207893]],"id":0,"number":269}
