{"architecture":{"NEURONS":[10,7,1],"LAYERS":3,"totalSynapses":77},"weights":[-9.890877280647011,10.822261373956364,-5.459380412857729,-8.889456339639384,6.725362421673183,6.798855653590958,0.24234721680215177,5.158221365401326,10.459401390275932,-0.868137954451851,-1.3150831348242789,-2.135955370775536,-7.801845397977613,-9.791776214862283,-6.459135613942895,3.263489373936732,4.851337438441739,-3.380678577123224,2.041540839650323,-8.963844038792939,3.976060020330364,-4.342988865014796,-6.592679297961161,-7.1466189703462435,-7.534483130014148,-2.19188550990475,-9.314081628224317,5.426131152668747,-2.5757734941363464,0.9413638513571269,1.223537926689863,7.520227542793736,-10.78961394059545,-5.212087842255566,-9.732697557758552,-0.593778151773054,0.045356482802176565,-1.361480202352368,-5.1980347267326,-3.000127136169633,7.752612268875292,4.91366768441718,4.9413707795711534,7.3427727341495075,-7.766314744628564,-9.8068707974129,9.405020936435362,-5.217999241008796,5.792127803657479,-0.899417909916539,7.05725641257297,-2.3175084147344,-1.4361321931596127,3.682784351771779,6.005858557442161,-6.506670106408913,5.728773384920148,-0.672790543641601,2.813756026970077,-10.491551302596347,5.964247091465208,5.588440353275789,2.7479220796917567,-5.026841660409525,1.0886310313554037,-4.497983526148185,-1.0959623928114417,-4.024578497381273,-8.13519046309098,0.45099580084535695,-4.394950302026237,-6.8999158134715115,7.429256067736621,-8.787377847441334,-1.6969199818709764,-8.162412703139585,-4.041630882456848],"bias":[[-10.369419398068565,2.6986158674643406,1.540866044230253,5.988408369037755,-0.7016090654099572,6.112580590494476,9.004270962344302,-2.545213323350111,-0.7602139168100783,-0.6157258585264576],[1.23572706217544,-1.4977859512743816,-3.1034631882563506,-5.873379074136523,5.282426963515014,2.2582820505677073,-6.053812266817334],[-2.6459753579757286]],"id":0,"number":27}
