{"architecture":{"NEURONS":[10,7,1],"LAYERS":3,"totalSynapses":77},"weights":[-3.7335442390081828,4.045524407486794,0.8475098430102662,-2.3985703928380713,-5.686286946392121,9.794713583137817,5.655259936185286,-0.08830986973135094,1.664019345670264,-0.06402120146566531,2.2650459082298986,-3.607190830572926,9.373550638116951,6.108151609989366,-2.005038089765076,-3.0442190347848235,-8.177976666550117,3.2858324626865034,-9.170045553593443,-9.004462328173535,6.675880625937698,-2.1310722655512144,-2.9637441701431735,5.964942073730409,-0.2172466669231184,-6.4822570158273685,1.0387257050388292,3.616221401168461,-1.6184405334961747,3.6708298161146007,9.840132796950533,7.1138409822351605,4.685451168893514,7.142081724619119,-9.836199749220535,5.779886280677083,4.775474835506207,3.839976410119235,4.989908183897223,-2.355921856769336,4.424613974090828,-5.550516364542249,-5.810936203532047,2.6383410228940534,-6.854093222855693,3.839932625470429,-3.545731321674994,-0.23788463464091902,2.6989768883779335,5.647315298182399,1.9260645798247646,-7.119585479848217,7.176462246177539,-5.35725828002678,-4.095914676405832,-5.520760644622301,-6.123625029253788,2.851086414762329,-1.5686112951089546,3.6782191292703095,-6.752891390677012,-3.663426531688167,6.814782414282743,-9.244976835927522,-4.341964675221649,-3.3177581907674147,-4.763836638947885,3.5616595825820982,8.2116874059388,-0.8812768244727076,-5.766036918843744,3.9113705427309027,1.7849755342973777,-1.1421326454706562,7.199838039290692,5.260136362688709,-0.46381792451522197],"bias":[[-7.876365713286426,4.999513456438328,-4.678198201912205,5.079609778163957,3.6459952146448242,7.777091182684912,7.632272513932996,-6.582207521296093,6.751413340809504,-0.33120190295386076],[-0.2818856237031905,0.5299274542121587,-5.891728425895235,-8.830944688450778,0.29667843266699023,6.443908949778716,7.773677358972954],[-5.43845285050899]],"id":0,"number":27}
