{"architecture":{"NEURONS":[10,4,1],"LAYERS":3,"totalSynapses":44},"weights":[-4.629214945802276,-4.93585758157405,0.7325795191430835,-1.8790420360856679,9.599961355998795,-4.481407369168241,5.699166746634036,-1.5234051409051907,-8.824941523159307,0.30204358396165065,4.708270376896566,0.42273350242791174,-2.62650791644905,-9.702049674102946,1.1922435199802113,8.057722165120712,8.022026800355047,6.744544141483082,-1.7360023092725463,6.748269880314671,8.490165300461314,4.906528325556119,7.7445340627993815,3.5722285386199637,1.9429698242057558,-3.7119194238768105,2.4684404115260463,6.619494956529943,1.4087553952968335,9.502114251845168,-7.590902768767997,-6.231854462400097,0.5715685182801301,-5.449812100694749,6.6811820446505985,1.294838286493599,3.0498587730785913,-6.689976637295818,-8.516354952294646,-3.5316379732889303,-8.876232604955367,-7.735914990535486,-0.9296561784014692,-1.9108642340504376],"bias":[[-8.625926697232106,2.4406655954038414,-9.638281380756686,-2.538917210872005,1.3311489911721885,-4.77143474734244,-9.91867120468144,-8.13066615422305,-1.939096282499726,2.7830978244865325],[-7.192084991397948,6.319568422239711,1.5403513395065875,0.6548853468030558],[4.636143817749678]],"id":0,"number":27}
