{"architecture":{"NEURONS":[10,4,1],"LAYERS":3,"totalSynapses":44},"weights":[-4.478182392543072,-5.3207655533935965,-0.6276298871911934,-1.70827507713792,9.422071378851612,-5.965278930737002,5.825017484001002,-0.6682470309415777,-5.68701748067156,0.7649700802341094,4.845572577394176,0.094042923144708,-2.7620848410871632,-8.994506613690517,1.6916287754742703,7.313365427488848,8.053151518259538,6.262255809268309,-2.2718796073012224,6.497025312761081,8.467945673640587,5.102350003533136,8.837248380162482,3.687034487117468,1.4899867431457963,-4.509768257194885,2.4843105698251264,5.982701143850129,-2.4528315554677,9.580741013086453,-8.843762395866143,-6.200046169554038,0.28051658438968613,-5.709855103273566,6.152669807398711,1.9688390764705814,2.731190399546001,-6.908662734702028,-8.806110461056022,-3.748081832260422,-8.665725489855568,-8.116029867610571,3.0294138104917683,-1.832541037454876],"bias":[[9.058931875091865,2.0414543012645896,-9.62705855103079,-2.144800129815484,-0.2861071861235118,-4.609231560571073,-5.591810673272861,-7.983646056333154,-6.75524668203728,3.0366595024270575],[0.8315238236781998,5.984417608574208,2.22378870446023,0.8153126246387021],[-8.117146078860213]],"id":0,"number":270}
