{"architecture":{"NEURONS":[10,4,1],"LAYERS":3,"totalSynapses":44},"weights":[-4.700435882712043,-4.973484161651528,0.37720873775326497,-1.8829688881457265,8.998778121590439,-5.990709012319102,5.76070778192104,-1.0051464979555689,-5.456512783849673,0.6408592032396587,4.83117329103431,0.05390467893113891,-3.031425424035331,-9.347584697746829,1.7791870169701556,7.8084819302112765,7.930329502431228,6.366225480858274,-1.9706948199872434,6.443834585348633,9.688160916626675,5.491939302525392,8.736970026068265,3.687308220860345,1.616888193617024,-4.923347887829003,2.4124398984611846,5.982701143850129,-2.4528315554677,9.68776742360136,-8.843762395866143,-6.200046169554038,0.33930503870207274,-5.890239152798474,6.665185393104251,1.5730207526985038,2.4953629540518203,-6.726428112416186,-8.379800767722845,-3.3174932851923864,-8.989813812537022,-7.992449106296353,2.774970485095535,-2.6816149668648515],"bias":[[9.231805567928555,2.3565685296023196,-9.62705855103079,-1.8655486446450547,-0.2861071861235118,-4.808559566184024,-10.236913839045464,-7.534261680976415,-7.747841396908554,2.7186244921734675],[0.19823646203623135,5.479235471913191,2.091160203349501,0.8153126246387021],[-8.057073332817735]],"id":0,"number":271}
