{"architecture":{"NEURONS":[10,4,1],"LAYERS":3,"totalSynapses":44},"weights":[-4.879504709979832,-4.935462518181887,-0.6943201525503687,-1.8829688881457265,9.552409100070328,-5.990709012319102,5.67693920023147,-0.6682470309415777,-5.257636909356055,0.7523270090220354,4.4383164603973135,0.094042923144708,-3.169235978529847,-9.276405662691143,0.5753703091884722,6.965990463617064,7.7687849040449395,6.005411203381564,-2.2718796073012224,6.323565149131753,9.688160916626675,5.062596443558378,8.828933305502794,3.6342256908511583,1.604781571346846,-4.685766492048912,2.4124398984611846,5.908552955494901,-2.4528315554677,9.159036211138915,-8.25447646697725,-6.200046169554038,1.3699982432888391,-5.709855103273566,5.557114068950449,1.9688390764705814,2.71049129026871,-6.768416578443841,-8.379800767722845,-3.7384977792580836,-8.989813812537022,-8.131569292352403,-1.895225950476891,-1.832541037454876],"bias":[[9.058931875091865,2.394882772123399,-9.62705855103079,-1.7723637457620107,-0.2861071861235118,-4.609231560571073,-10.310122325908862,-8.38943829574407,-7.330281172825428,3.0366595024270575],[0.6286950756085514,5.984417608574208,2.082553822473812,0.8153126246387021],[4.418786194043098]],"id":0,"number":272}
