{"architecture":{"NEURONS":[10,4,1],"LAYERS":3,"totalSynapses":44},"weights":[-5.040905869342486,-5.249893396237625,-0.10747555443636875,-2.704904275575213,9.410415565573713,-6.048713373339844,5.744580852186041,-0.4547225053670605,-5.320998399731692,0.7649700802341094,4.586444938175301,0.094042923144708,-2.991280683510906,-9.33387157467981,0.5617776351731478,7.08483215527588,8.103607259225372,6.262255809268309,-1.9593437934877087,6.348969973245321,9.358614018369076,4.994532624288583,9.109002796107998,3.6342256908511583,1.9038261021228575,-4.557476164740375,2.34142828140456,6.324362986233259,-2.4528315554677,9.580632748667052,-8.457324405482547,-6.458439933665326,1.3699982432888391,-5.709855103273566,6.665185393104251,1.5730207526985038,2.483487848536806,-6.768416578443841,-8.643420045542607,-3.7384977792580836,-9.13228231190154,-8.465122058729698,0.9748831671428031,-1.5557091394307672],"bias":[[9.38149971423755,2.0414543012645896,-9.62705855103079,-1.656748270603864,-0.2861071861235118,-4.836795009354894,-10.310122325908862,-8.203949476033843,-7.483972280769987,2.8496779939419867],[0.8315238236781998,3.3765029839611636,2.22378870446023,1.3861282589850727],[4.1812717129095125]],"id":0,"number":273}
