{"architecture":{"NEURONS":[10,4,1],"LAYERS":3,"totalSynapses":44},"weights":[-4.536370843668517,-4.935462518181887,-0.5084832472560594,-1.9191648214923895,9.377830272598594,-5.54026411783054,5.058327183381997,-1.384279867757854,-5.580008830349114,0.7220207643910755,4.376807428249805,0.14545620773976234,-3.3015365510620907,-9.755482136731647,1.677269612722303,6.965990463617064,7.661600610051293,6.262255809268309,-1.9593437934877087,5.916910336127798,9.553965335793414,5.062596443558378,9.109002796107998,3.6342256908511583,1.3654096445924946,-4.210834880646063,2.13754583150096,5.908552955494901,-2.663267149823168,9.159036211138915,-8.296861941569148,-6.055659359222409,0.7085537196812265,-6.083803846269839,6.386382572972449,1.5730207526985038,2.3893063468033815,-6.768416578443841,-8.253322415023959,-3.428132573683089,-8.989813812537022,-7.72769743201684,3.605048628066103,-1.832541037454876],"bias":[[9.202134466619176,1.3905283268130813,-9.233529746506969,-1.656748270603864,-0.2861071861235118,-4.687072711163974,-4.3866817913493765,-7.664697206470955,-7.76122730227962,3.2370423807056583],[0.8315238236781998,5.984417608574208,-2.896007493074033,-2.214720714785912],[4.1812717129095125]],"id":0,"number":274}
