{"architecture":{"NEURONS":[10,4,1],"LAYERS":3,"totalSynapses":44},"weights":[-5.316550731668516,-5.069212782260515,-0.5084832472560594,-1.5869917438661452,9.377830272598594,-5.990709012319102,5.825017484001002,-0.6682470309415777,-5.32196254407754,0.9081220101713907,4.83117329103431,0.094042923144708,-2.87273666748918,-9.755482136731647,1.870853031054745,7.08483215527588,7.570432465621866,6.262255809268309,-1.6529285214016909,6.436345005619073,9.688160916626675,5.062596443558378,9.109002796107998,3.687308220860345,1.604781571346846,-4.685766492048912,2.4124398984611846,5.982701143850129,-2.5346314321185437,9.118625090889992,-8.457324405482547,-5.944408045634704,0.09531592498447977,-5.709855103273566,6.152669807398711,1.8176727679246134,1.8397374481710584,-6.709567989921441,-8.482362228969766,-4.339372762292131,-8.989813812537022,-8.336578931439801,3.605048628066103,-2.6816149668648515],"bias":[[4.186444206397804,2.394882772123399,-9.62705855103079,-2.533993520154867,-0.2861071861235118,-4.609231560571073,-10.236913839045464,-8.203949476033843,-7.499234539763068,3.0366595024270575],[0.8315238236781998,9.015790600403255,2.22378870446023,0.8153126246387021],[3.915395624815198]],"id":0,"number":275}
