{"architecture":{"NEURONS":[10,4,1],"LAYERS":3,"totalSynapses":44},"weights":[-5.316550731668516,-5.069212782260515,-0.5084832472560594,-2.9359081021381512,9.726987927542062,-5.990709012319102,5.825017484001002,-0.9192113124209259,-5.32196254407754,0.9081220101713907,4.83117329103431,0.094042923144708,-2.87273666748918,-9.170053555650208,0.5723259809702835,7.08483215527588,8.03684425514445,6.262255809268309,-1.6529285214016909,6.436345005619073,9.688160916626675,5.267407115507044,8.736970026068265,3.687308220860345,1.2095202746278009,-4.509768257194885,2.156533348576602,5.982701143850129,-2.4528315554677,9.580741013086453,-8.457324405482547,-6.458439933665326,0.4207438692019631,-5.6424041064664605,6.152669807398711,1.9688390764705814,1.8397374481710584,-6.709567989921441,-8.643420045542607,-3.748081832260422,-8.989813812537022,-8.336578931439801,3.605048628066103,-1.7385701839572945],"bias":[[9.058931875091865,2.394882772123399,-9.62705855103079,-2.144800129815484,-0.22234637275952096,-4.609231560571073,-10.236913839045464,-8.203949476033843,-7.483972280769987,3.0366595024270575],[1.146194038476084,9.149175575505225,2.22378870446023,0.8153126246387021],[-8.123303890427923]],"id":0,"number":276}
