{"architecture":{"NEURONS":[10,4,1],"LAYERS":3,"totalSynapses":44},"weights":[-4.879504709979832,-5.559203555692552,-0.10747555443636875,-1.8829688881457265,9.726987927542062,-5.482727097314586,5.058327183381997,-0.6682470309415777,-5.486235213472181,0.6069954960067617,4.376807428249805,0.02799314655619002,-3.169235978529847,-9.33387157467981,1.7791870169701556,7.515383353566923,8.053151518259538,6.262255809268309,-1.9593437934877087,6.348969973245321,8.467945673640587,5.062596443558378,8.837248380162482,3.3508240349813545,1.742068407785489,-4.509768257194885,2.7284708038566574,5.982701143850129,-2.4528315554677,9.580741013086453,-8.457324405482547,-5.944408045634704,0.421056819804868,-5.709855103273566,6.695753058016354,1.5730207526985038,2.483487848536806,-6.908662734702028,-8.706515705108261,-3.748081832260422,-8.662170703848398,-8.465122058729698,0.9748831671428031,-2.0761066092405],"bias":[[9.058931875091865,2.394882772123399,-9.831880302893937,-1.3732347708731918,-0.2861071861235118,-4.609231560571073,-10.043269563146906,-7.664697206470955,-7.75692284775399,2.9032512389071496],[0.8315238236781998,9.698253555883687,2.082553822473812,0.8153126246387021],[4.1812717129095125]],"id":0,"number":277}
