{"architecture":{"NEURONS":[10,4,1],"LAYERS":3,"totalSynapses":44},"weights":[-4.789970296345937,-5.3207655533935965,-0.10747555443636875,-1.8829688881457265,9.552409100070328,-5.54026411783054,6.241998688105955,-0.5816157785474555,-5.4446630102452644,0.8132921763500458,4.845572577394176,0.3288480630710504,-3.4376836277917153,-9.170053555650208,0.5753703091884722,6.965990463617064,7.661600610051293,6.262255809268309,-2.1294218535557508,6.378160346544202,9.553965335793414,5.062596443558378,8.828933305502794,3.6342256908511583,1.604781571346846,-4.210834880646063,2.4426923868844823,5.908552955494901,-2.4528315554677,9.159036211138915,-8.457324405482547,-6.458439933665326,1.3699982432888391,-6.083803846269839,6.568997117331316,1.9688390764705814,1.7776883526852396,-6.768416578443841,-8.602048926808036,-3.743289805759253,-8.665725489855568,-8.336578931439801,3.605048628066103,-1.832541037454876],"bias":[[9.202134466619176,2.0602399382822174,-9.579671442864422,-1.656748270603864,0.006592791148629313,-4.832019302521558,-10.310122325908862,-7.664697206470955,-6.75524668203728,2.840030252003499],[0.8315238236781998,9.698253555883687,2.22378870446023,0.8153126246387021],[4.1812717129095125]],"id":0,"number":278}
