{"architecture":{"NEURONS":[10,4,1],"LAYERS":3,"totalSynapses":44},"weights":[-4.644794586729798,-5.371414532461397,-0.10747555443636875,-2.704904275575213,8.60080170987157,-5.990709012319102,5.76070778192104,-0.5816157785474555,-5.32196254407754,0.9081220101713907,4.376807428249805,0.094042923144708,-3.4376836277917153,-9.226226897770868,1.7791870169701556,7.515383353566923,7.930329502431228,6.262255809268309,-1.9593437934877087,6.608157706461762,10.066282688596962,4.755019900218591,8.567926729001972,3.687308220860345,1.9038261021228575,-4.509768257194885,2.4124398984611846,6.116957409868051,-2.5346314321185437,10.124634782621095,-8.296861941569148,-5.944408045634704,0.069062776225097,-5.709855103273566,6.977036160696191,1.8176727679246134,2.4299904761734625,-6.709567989921441,-8.66898086724437,-3.743289805759253,-8.989813812537022,-7.992449106296353,3.296944947744939,-2.0761066092405],"bias":[[9.079387095196864,2.371318819966185,-10.1835762594615,-1.8905806295346432,-0.2861071861235118,-4.522237433809274,-5.591810673272861,-8.203949476033843,2.747143472231689,3.0366595024270575],[0.8315238236781998,9.015790600403255,2.1887520775263676,1.5719357525314226],[3.915395624815198]],"id":0,"number":279}
