{"architecture":{"NEURONS":[10,7,1],"LAYERS":3,"totalSynapses":77},"weights":[-9.581174027793216,10.444632010541493,-7.01523286113161,-7.498768485645119,8.346063542299715,6.265969750123931,-0.5848363014096983,4.560264668587096,11.292432503259237,-0.8058011460844403,-2.2124227711453375,-2.1360652898848924,-7.0557105604735275,-10.187545574638039,-5.548069403132831,2.8964470435893914,3.432510692492931,-4.491165070420074,-0.3532442649235994,-8.546001074348858,4.1256899403182885,-5.132310976664888,-7.068139963024652,-8.897451270676685,-6.747258379557593,-0.8795405074273914,-8.021015096807982,5.603244366193158,-2.7479048692404846,0.19928065702888154,2.0841818340170426,8.597119029300078,-11.372164933833485,-4.616768251833708,-8.970951126687094,1.003644693275724,-0.6067630421057766,-2.506198239219812,-6.694633783965562,-4.956077477537716,8.13950900974583,3.936547101075209,4.068607150578008,7.758100401948464,-6.163275387655856,-9.722053568297847,8.778305985106499,-3.618981683454909,4.499982526015771,-0.587160099674447,9.04959716985605,-3.841812003038773,-3.4285391763623605,1.4978067065772398,8.065730628271542,-5.794999376253921,7.80732800068153,0.5974198075166711,2.776843790160435,-8.1857067717308,4.498916710037339,5.943392341493642,1.3340728831385051,-3.4891610207897115,1.524542009620662,-2.0272902866628564,-1.4632509174188657,-4.793448580844578,-7.958355686119882,2.811500380291078,-5.290913509097584,-7.33560764581201,8.220710415612956,-7.860776477040761,-2.333488614829331,-8.017944709997497,-5.079135907891967],"bias":[[-8.560718964731228,4.081485158070879,2.924369459222215,6.12200729324937,-0.33353106340746536,6.275005245746451,9.332931728090008,-0.662175193423845,-0.968913627391466,0.3035804090894378],[3.0957803919724545,-3.2186413742771913,-2.0794397197114534,-8.438739461134487,3.8396300953569367,3.30762028859343,-4.1986257558908795],[-2.2861964110316095]],"id":0,"number":28}
