{"architecture":{"NEURONS":[10,4,1],"LAYERS":3,"totalSynapses":44},"weights":[-4.629214945802276,-4.968838130406673,0.7325795191430835,-1.8790420360856679,9.599961355998795,-4.6300155428823935,5.388975194831422,-1.5234051409051907,-8.824941523159307,0.30204358396165065,4.66567258637116,0.42273350242791174,-2.62650791644905,-9.702049674102946,1.1922435199802113,8.057722165120712,8.022026800355047,6.744544141483082,-1.9697793554399832,6.748269880314671,8.490165300461314,4.906528325556119,7.771731066353908,3.5722285386199637,1.9429698242057558,-3.9520855578940552,2.4684404115260463,6.619494956529943,1.4087553952968335,9.502114251845168,-7.590902768767997,-6.231854462400097,0.5715685182801301,-5.449812100694749,6.6811820446505985,1.294838286493599,3.0498587730785913,-6.961985987923902,-8.920287607614968,-7.252084263256594,-8.876232604955367,-7.735914990535486,-0.9296561784014692,-1.9108642340504376],"bias":[[-8.625926697232106,2.4406655954038414,-9.638281380756686,-2.1171945105377343,1.3311489911721885,-4.77143474734244,-9.91867120468144,-8.13066615422305,-5.569148951123373,2.364893824228691],[-7.192084991397948,6.430634861208655,1.5403513395065875,0.7152195645105002],[4.383272755272387]],"id":0,"number":28}
