{"architecture":{"NEURONS":[10,7,1],"LAYERS":3,"totalSynapses":77},"weights":[-4.199825811997141,4.517193217112663,1.4900237991995424,-2.8652216480294945,-5.641087472975887,8.950237803480016,5.987943182077727,0.42748878116873185,2.743710855191394,-1.201162969937927,1.840793930839699,-2.9132622490028566,8.750602451411797,6.869257591550489,-2.803352618546608,-3.0081369305404526,-6.638338218151326,3.5201259996738776,-9.85714349191477,-9.650540519312369,5.719676477190122,-1.3822469810792541,-2.4727832629727793,6.621994615207115,-1.2694372006913852,-6.384324644076374,0.11379064226132024,4.240555777307594,-2.2579228632299055,4.257125722983554,9.100002799974023,7.166665443954505,6.47721540453294,6.667118121925667,-10.137323366890751,4.770656846972811,4.518960917731865,4.508746311401445,5.458613762401165,-3.552548223325613,4.844672490028324,-6.231219725054388,-5.639328205648773,2.0975199189148572,-6.199035225838974,4.332156112353226,-4.171772246821174,0.22146939896702078,2.5445331352820277,6.684474891266981,1.7806677846770183,-8.639614937684353,6.984245760970882,-6.693994879487455,-3.7673571118048104,-5.696016440799978,-6.613284932373727,3.721578501769367,-0.04829931587146244,4.801990225646219,-6.172648831063784,-4.090873207933878,6.8236537403279,-9.456454911993523,-3.6985650665436163,-2.786168796549888,-4.932017907304293,4.904101406159066,7.598523026342916,-1.103294320600844,-6.104279533574154,4.013130006440998,0.2837822038948954,-0.33460566673884545,6.231163747567791,5.670267973766371,-0.7486211323754559],"bias":[[-7.229318691501219,4.7379284583743635,-4.339520761060369,4.330353846018198,2.0688370724967378,8.493641586802989,8.566767446939282,-6.2962863901750055,6.857386356905099,-0.29895913720020123],[-1.2173657625306538,0.6196180357140899,-5.382915801416893,-6.9386049176793065,0.8802191822193968,6.627475810134022,7.708570946641663],[-5.020145437357056]],"id":0,"number":28}
