{"architecture":{"NEURONS":[10,4,1],"LAYERS":3,"totalSynapses":44},"weights":[-4.644794586729798,-4.935462518181887,-0.10747555443636875,-2.704904275575213,9.217202445575385,-5.54026411783054,4.868035791556325,-0.5816157785474555,-5.486235213472181,0.7523270090220354,4.376807428249805,0.094042923144708,-3.366190933099401,-9.347584697746829,1.7791870169701556,7.515383353566923,8.03684425514445,6.262255809268309,-1.9593437934877087,6.728574737664599,9.688160916626675,4.654330296007555,8.837248380162482,3.8465696278585875,1.9038261021228575,-4.557476164740375,2.4124398984611846,6.039926850267218,-2.3847017764435003,10.124634782621095,-8.400438780370465,-5.944408045634704,0.5118041878219819,-5.634741481530156,6.386382572972449,1.9988997748156019,2.71049129026871,-6.845492360365473,-8.706515705108261,-3.748081832260422,-8.989813812537022,-8.116029867610571,-1.811912804177041,-2.0761066092405],"bias":[[8.899860898989179,2.2034123602595654,-10.1835762594615,-1.656748270603864,-0.2861071861235118,-4.687072711163974,-10.499109157567528,-8.203949476033843,-7.75692284775399,2.839436453218833],[0.8315238236781998,9.698253555883687,2.082553822473812,1.4532811950070388],[-8.222788490674816]],"id":0,"number":280}
