{"architecture":{"NEURONS":[10,4,1],"LAYERS":3,"totalSynapses":44},"weights":[-4.644794586729798,-5.559203555692552,-0.10747555443636875,-2.704904275575213,9.728052132554016,-5.482727097314586,4.868035791556325,-0.5816157785474555,-5.486235213472181,0.7523270090220354,4.376807428249805,0.02799314655619002,-2.991280683510906,-9.347584697746829,0.5617776351731478,7.69972589966464,8.03684425514445,6.547483989382187,-1.9593437934877087,6.728574737664599,9.688160916626675,5.062596443558378,8.837248380162482,3.6342256908511583,1.9038261021228575,-4.557476164740375,2.7284708038566574,5.982701143850129,-2.4528315554677,9.580741013086453,-8.296861941569148,-5.944408045634704,0.5118041878219819,-5.709855103273566,6.695753058016354,1.9988997748156019,1.7771775826952676,-6.908662734702028,-8.706515705108261,-3.748081832260422,-8.665725489855568,-8.116029867610571,-1.811912804177041,-2.0761066092405],"bias":[[8.899860898989179,2.011986119565102,-10.1835762594615,-1.3732347708731918,-0.2861071861235118,-4.687072711163974,-10.499109157567528,-8.203949476033843,-7.75692284775399,3.116534349531555],[1.0023495975767505,9.698253555883687,2.082553822473812,1.4532811950070388],[4.1812717129095125]],"id":0,"number":281}
