{"architecture":{"NEURONS":[10,4,1],"LAYERS":3,"totalSynapses":44},"weights":[-4.879504709979832,-5.559203555692552,-0.6081413144864447,-1.9191648214923895,9.217202445575385,-5.990709012319102,5.532692768883235,-0.6682470309415777,-5.4446630102452644,0.8132921763500458,4.376807428249805,0.02799314655619002,-3.169235978529847,-9.170053555650208,0.5753703091884722,7.8084819302112765,7.689614908978815,6.262255809268309,-2.5960507719021564,6.74466226257878,9.553965335793414,5.303503978862412,8.837248380162482,3.8465696278585875,1.616888193617024,-4.640293073601028,2.318999352483553,5.908552955494901,-2.5346314321185437,9.159036211138915,-8.400438780370465,-5.944408045634704,1.3699982432888391,-5.510720117711116,6.695753058016354,1.5730207526985038,2.4299904761734625,-6.845492360365473,-8.379800767722845,-3.748081832260422,-8.989813812537022,-8.116029867610571,-1.811912804177041,-2.0761066092405],"bias":[[9.231805567928555,2.2034123602595654,-9.73808114006388,-1.656748270603864,0.0683862984258532,-4.687072711163974,-10.499109157567528,-7.910683812452994,-6.916709156461004,3.0366595024270575],[0.8315238236781998,9.698253555883687,-2.896007493074033,1.4532811950070388],[4.1812717129095125]],"id":0,"number":282}
