{"architecture":{"NEURONS":[10,4,1],"LAYERS":3,"totalSynapses":44},"weights":[-4.478182392543072,-4.935462518181887,-0.4884176477982957,-1.8829688881457265,9.552409100070328,-5.884083484220033,5.825017484001002,-0.5816157785474555,-5.265634390426865,0.9081220101713907,4.376807428249805,0.02799314655619002,-3.4376836277917153,-9.581612488626533,0.5753703091884722,7.689197315188605,8.03684425514445,6.262255809268309,-2.4722730087649984,6.436345005619073,9.553965335793414,4.929693039532606,9.025149379853195,3.7941942075528305,1.9038261021228575,-4.210834880646063,2.3646818087581103,5.908552955494901,-2.4528315554677,9.159036211138915,-8.374912322964171,-5.944408045634704,0.421056819804868,-5.709855103273566,6.386382572972449,1.5730207526985038,2.71049129026871,-6.768416578443841,-8.526767428622692,-4.339372762292131,-8.989813812537022,-7.7378717971036926,-1.895225950476891,-1.994296346316386],"bias":[[9.231805567928555,2.2034123602595654,-9.62705855103079,-1.7723637457620107,-0.2861071861235118,-4.609231560571073,-5.591810673272861,-7.948505624998212,-7.483972280769987,3.0366595024270575],[0.8315238236781998,9.865979692447189,-2.896007493074033,0.4904880060328124],[-8.184290945386213]],"id":0,"number":283}
