{"architecture":{"NEURONS":[10,4,1],"LAYERS":3,"totalSynapses":44},"weights":[-5.316550731668516,-4.935462518181887,-0.10747555443636875,-2.704904275575213,9.427254904165757,-5.482727097314586,5.76070778192104,-1.384279867757854,-5.486235213472181,0.6069954960067617,4.376807428249805,0.12772673210583635,-3.169235978529847,-8.994506613690517,1.4941646580808328,7.8084819302112765,8.03684425514445,6.262255809268309,-2.2718796073012224,6.646182231138806,9.688160916626675,5.223515498785611,8.567926729001972,3.607174200432902,1.616888193617024,-4.685766492048912,2.148194549317508,6.324362986233259,-2.2289602512861753,9.159036211138915,-8.296861941569148,-5.944408045634704,1.3691190581092116,-6.111232180294908,6.695753058016354,1.5730207526985038,2.483487848536806,-6.963927713328807,-8.526767428622692,-3.748081832260422,-8.662170703848398,-7.624647266380312,3.494562966838114,-1.832541037454876],"bias":[[8.899860898989179,2.011986119565102,-9.233529746506969,-1.656748270603864,-0.2861071861235118,-4.609231560571073,-10.499109157567528,-8.203949476033843,-6.916709156461004,2.9032512389071496],[0.9341741990106331,9.865979692447189,2.082553822473812,0.8153126246387021],[4.2359211066624205]],"id":0,"number":284}
