{"architecture":{"NEURONS":[10,4,1],"LAYERS":3,"totalSynapses":44},"weights":[-4.644794586729798,-5.069212782260515,-0.6081413144864447,-1.8829688881457265,9.167687819091267,-5.030320586950662,5.093031722034681,-0.431577979818218,-5.486235213472181,0.6069954960067617,4.376807428249805,0.12772673210583635,-3.0790801928863525,-9.581612488626533,1.642742517295328,7.107062905570669,8.03684425514445,6.262255809268309,-2.2718796073012224,6.443834585348633,8.538876581931085,5.062596443558378,9.025149379853195,3.607174200432902,1.616888193617024,-4.557476164740375,2.134037541949868,5.817857789097791,-2.2289602512861753,9.159036211138915,-8.457324405482547,-6.009439890292521,0.5118041878219819,-6.111232180294908,6.977036160696191,1.9688390764705814,1.7771775826952676,-6.6681180535261815,-8.482362228969766,-4.700502364494206,-8.662170703848398,-8.475966099554885,3.605048628066103,-1.9541134862813727],"bias":[[8.899860898989179,2.011986119565102,-9.831880302893937,-1.656748270603864,-0.2861071861235118,-4.609231560571073,-10.499109157567528,-8.203949476033843,-7.483972280769987,2.9032512389071496],[0.888116540859827,9.698253555883687,2.082553822473812,0.8153126246387021],[-8.222788490674816]],"id":0,"number":285}
