{"architecture":{"NEURONS":[10,4,1],"LAYERS":3,"totalSynapses":44},"weights":[-4.644794586729798,-4.935462518181887,-0.5084832472560594,-3.0567289871660046,9.377830272598594,-5.54026411783054,5.76070778192104,-1.7250881171026267,-5.472327195013808,0.6069954960067617,4.83117329103431,-0.11948995040669799,-3.4376836277917153,-9.336784252967695,1.7791870169701556,7.206988839641692,8.03684425514445,6.6920271412741865,-2.5960507719021564,6.553996392645359,9.688160916626675,5.0152966412385105,9.025149379853195,3.607174200432902,2.045159163857347,-4.557476164740375,2.4124398984611846,6.324362986233259,-2.2289602512861753,9.118625090889992,-8.296861941569148,-6.009439890292521,0.5118041878219819,-5.709855103273566,6.386382572972449,1.5730207526985038,2.71049129026871,-6.963927713328807,-8.526767428622692,-3.748081832260422,-8.711312575138544,-7.624647266380312,3.494562966838114,-2.6816149668648515],"bias":[[9.001361423627756,1.3905283268130813,-9.831880302893937,-1.8136117660509266,-0.3457054723757066,-4.581821042827621,-4.471831965434038,-8.203949476033843,-6.916709156461004,2.9032512389071496],[0.8315238236781998,9.378386122530946,1.9066898545182867,0.6802836410826345],[4.0295508983639525]],"id":0,"number":286}
