{"architecture":{"NEURONS":[10,4,1],"LAYERS":3,"totalSynapses":44},"weights":[-4.879504709979832,-5.069212782260515,-0.6081413144864447,-1.8829688881457265,9.427254904165757,-5.030320586950662,6.002077259303613,-1.384279867757854,-5.472327195013808,0.6069954960067617,4.376807428249805,0.4759717977959653,-2.87273666748918,-9.347584697746829,0.46985246066260533,7.8084819302112765,7.930329502431228,6.262255809268309,-2.2718796073012224,6.117784827782602,8.147827881820604,5.223515498785611,8.837248380162482,3.607174200432902,1.616888193617024,-4.640293073601028,2.4124398984611846,5.908552955494901,-2.3847017764435003,9.159036211138915,-8.296861941569148,-5.944408045634704,0.35930771437521075,-5.709855103273566,6.695753058016354,1.7586351402022988,2.4299904761734625,-6.77900587734535,-8.091314883529416,-4.700502364494206,-8.662170703848398,-8.131569292352403,3.605048628066103,-1.9541134862813727],"bias":[[9.058931875091865,2.011986119565102,-9.62705855103079,-1.7723637457620107,-0.3335799592586601,-4.609231560571073,-10.60631981796182,-8.203949476033843,-7.499234539763068,2.9032512389071496],[0.8315238236781998,2.9127124430749984,2.22378870446023,0.6802836410826345],[4.258937316427249]],"id":0,"number":287}
