{"architecture":{"NEURONS":[10,4,1],"LAYERS":3,"totalSynapses":44},"weights":[-4.879504709979832,-5.069212782260515,-0.6081413144864447,-1.5869917438661452,9.217202445575385,-5.54026411783054,6.002077259303613,-1.384279867757854,-5.472327195013808,0.6069954960067617,4.376807428249805,0.4759717977959653,-2.87273666748918,-9.347584697746829,1.642742517295328,7.8084819302112765,8.03684425514445,6.262255809268309,-2.4722730087649984,5.842143557259991,8.467945673640587,5.062596443558378,8.837248380162482,3.607174200432902,1.616888193617024,-4.640293073601028,2.4124398984611846,5.817857789097791,-2.57620663782125,9.159036211138915,-8.296861941569148,-5.944408045634704,0.3187872242512097,-5.544439497698141,6.386382572972449,1.9688390764705814,2.71049129026871,-6.77900587734535,-8.482362228969766,-4.700502364494206,-8.989813812537022,-8.131569292352403,-2.084223812345905,-1.9541134862813727],"bias":[[9.058931875091865,1.4275888498162035,-9.73808114006388,-1.8905806295346432,0.0683862984258532,-4.609231560571073,-10.60631981796182,-8.203949476033843,-6.916709156461004,2.9032512389071496],[0.9341741990106331,2.9127124430749984,2.082553822473812,1.0323906029547434],[-8.222788490674816]],"id":0,"number":288}
