{"architecture":{"NEURONS":[10,4,1],"LAYERS":3,"totalSynapses":44},"weights":[-4.678843551261452,-5.069212782260515,-0.6276298871911934,-1.9191648214923895,9.167687819091267,-5.990709012319102,6.002077259303613,-0.4231690975912278,-5.32196254407754,0.8132921763500458,4.376807428249805,0.4759717977959653,-3.4356085329114294,-9.347584697746829,1.642742517295328,7.8084819302112765,7.689614908978815,6.26312582204369,-2.410120116610092,5.842143557259991,9.553965335793414,5.234204529164156,8.837248380162482,3.6342256908511583,1.616888193617024,-4.640293073601028,2.318999352483553,5.817857789097791,-2.4528315554677,9.159036211138915,-8.400438780370465,-5.944408045634704,0.1458842050333999,-5.544439497698141,6.386382572972449,1.5730207526985038,2.4299904761734625,-6.768416578443841,-8.707310747800621,-4.700502364494206,-8.989813812537022,-8.131569292352403,-1.811912804177041,-2.6816149668648515],"bias":[[9.219466705578089,2.011986119565102,9.586470007311714,-1.656748270603864,0.17935147996710712,-4.687072711163974,-10.171887382444252,-8.203949476033843,-7.179822826813358,3.0366595024270575],[0.8432552836481376,5.984417608574208,2.232475409874029,0.4904880060328124],[4.278351316956143]],"id":0,"number":289}
