{"architecture":{"NEURONS":[10,7,1],"LAYERS":3,"totalSynapses":77},"weights":[-9.695761268319055,10.771985462974513,-5.593013407553181,-9.039300255292336,7.041069579087748,6.898970833823197,-0.1420550563000541,5.1262402287566315,10.2465383095547,-0.6405172305413525,-1.092130931831154,-2.2588848885425414,-8.02956700083048,-9.759833742359383,-6.209775150415466,3.1880021234595604,4.798242421345877,-3.626051773789642,2.063236869835814,-8.881769863010046,4.045750321255264,-4.332240494501998,-6.5803572652040945,-7.305606664056105,-7.603724225639979,-2.167142574399619,-9.481611742113722,5.331736371412055,-2.5852386200905557,1.2073516115825305,1.1813817432551006,7.582068763133654,-10.715300068983854,-4.98626591409464,-9.83266103067089,-0.5621020589147818,0.1975020622253359,-1.110230520707399,-4.932833461161989,-2.8826206291103253,7.488880621517073,4.9864622133353125,4.802619457716269,7.367028778729201,-7.702556904841031,-10.040111672689905,8.964918723298725,-5.348011442896831,5.49252432151231,-1.3132097931738462,6.894793650449905,-2.3514759303954746,-1.5560427669068122,3.7049038184006426,5.766447669997122,-6.700696426780716,5.465279276779573,-1.0464090146317284,2.6949232888404966,-10.320291038137697,6.149141052815101,5.489509881786018,2.8314853222651624,-5.08478111820166,0.9867587115266673,-4.174858726967589,-1.4374304242817235,-4.212592475879736,-7.799589433530295,0.6665946145488137,-4.364231005949204,-6.799315211784631,7.3082376767027855,-8.80333458584366,-1.639081144978035,-8.081017002794042,-4.11163927156452],"bias":[[-10.197495363880787,2.596875911263374,1.3288209212375721,6.259120500330608,-0.7500616572979019,5.855705819975904,8.803820411317234,-2.200869831036127,-0.7814291228241781,-0.762130731399234],[1.192820624445256,-1.5316094874956456,-3.326211910987845,-5.857352045365963,5.018685295240018,2.376435255517765,-5.956258879650862],[-2.599247807397951]],"id":0,"number":29}
