{"architecture":{"NEURONS":[10,7,1],"LAYERS":3,"totalSynapses":77},"weights":[-4.334977433516725,4.109351915517,1.7791688658298968,-1.1800755072335494,-6.155369956028764,9.56021171605488,6.077091196736431,0.16750225055090923,2.2482231038513367,-1.2763222524525608,1.3674165063730865,-3.3551149300320318,9.383264080217591,6.863171118453077,-2.6545728716191976,-1.6985133358489974,-6.56302498430397,3.1526669087745436,-9.651144276367528,-9.275520207094445,6.016833930256759,-1.9359895586274536,-2.0667247414721626,6.129849170092738,-1.6918577579265557,-6.691971012254327,0.03226079065384124,4.921436892134832,-1.4469199567972195,4.206375759027351,8.007764059519474,6.908051653511283,4.270814418649785,6.037448020760294,-8.460136968889278,4.672745139036258,4.692200913801787,4.499310220589032,4.630893309548282,-2.8297723281367295,5.067665982285256,-6.271252327199908,-4.911777298070812,2.5874014032806545,-6.723056221704701,4.397397144290166,-3.3685764275935974,0.07970393102068102,3.4510262945123578,6.531010694591651,2.105399708101446,-7.597997242182088,6.592662019994789,-5.653142351843599,-3.6047213957702366,-5.0276096640662535,-6.860827019267308,3.104721388310871,-0.7997368452878872,3.719400143877478,-6.904300905410847,-2.7919603266140154,6.758696681968432,-9.4855319612329,-4.194320288419277,-2.7183665459543525,-4.888049298459677,3.5239168342737486,7.031137963369132,-0.08821589776300173,-5.1494182703726175,4.38352037954258,0.9371022590880278,-0.3838038457265624,7.349710084650928,5.559358397191101,-0.6547205577089265],"bias":[[-7.606725830492677,4.602548804964121,-4.232111640149682,4.914637822103497,1.9716751758084508,9.147559052613609,8.673946840386447,-6.200023641716002,6.497698443626233,-0.27708357646906445],[-1.023519395942464,0.9020056085770211,-5.296360048638969,-7.769435204094549,1.430810702084805,6.599361235655701,7.1656162238831405],[-5.060123208220972]],"id":0,"number":29}
