{"architecture":{"NEURONS":[10,4,1],"LAYERS":3,"totalSynapses":44},"weights":[-4.9495115555557385,-4.93585758157405,1.0198485280882574,-1.8790420360856679,9.599961355998795,-4.667887941026285,5.7531295167706515,-1.5752267139274247,-8.824941523159307,0.30204358396165065,4.613940636674918,0.42273350242791174,-2.62650791644905,-10.18875382215828,1.4800700318655553,7.941492711974908,7.479892832361097,6.822798069635287,-1.5861805856994147,6.7572627672355345,8.487163752574167,4.906528325556119,7.771731066353908,3.5722285386199637,1.979189450453073,-4.03997498596994,2.4684404115260463,6.541283591073817,-3.3322049777484386,9.502114251845168,-7.853789363277064,4.111812416200164,0.6580445208915118,-5.424577880399962,6.6811820446505985,1.2218326699104112,2.4167149428455237,-6.689976637295818,-8.597204469769023,-3.750305328389405,-9.089781527564627,-7.771449152338399,-1.236111253626187,-1.427332863531124],"bias":[[-7.99913188913912,2.194726609579458,-9.664488372483046,-2.3935441495482417,1.4743308048824215,-5.176203419913459,-9.91867120468144,-8.365292534888804,-5.595090931022022,3.139691198755746],[-7.192084991397948,6.319568422239711,1.7396876335294675,0.7487823286074616],[4.636143817749678]],"id":0,"number":29}
