{"architecture":{"NEURONS":[10,4,1],"LAYERS":3,"totalSynapses":44},"weights":[-5.316550731668516,-5.069212782260515,-0.6081413144864447,-3.0567289871660046,9.217202445575385,-5.030320586950662,6.002077259303613,-1.384279867757854,-5.472327195013808,0.8132921763500458,4.83117329103431,0.4759717977959653,-2.87273666748918,-9.347584697746829,0.7526391920458696,7.8084819302112765,8.03684425514445,6.262255809268309,-2.4722730087649984,5.842143557259991,8.538876581931085,5.234204529164156,8.837248380162482,3.607174200432902,1.616888193617024,-4.640293073601028,2.055705290790813,5.817857789097791,-2.2289602512861753,9.198744638262035,-8.400438780370465,-5.944408045634704,0.1458842050333999,-5.544439497698141,6.695753058016354,1.9988997748156019,2.71049129026871,-6.768416578443841,-8.706515705108261,-3.748081832260422,-8.989813812537022,-8.131569292352403,-2.084223812345905,-1.7385701839572945],"bias":[[9.231805567928555,1.4275888498162035,-9.73808114006388,-1.8905806295346432,-0.2861071861235118,-4.687072711163974,-4.471831965434038,-8.203949476033843,-6.916709156461004,3.0366595024270575],[0.888116540859827,9.698253555883687,2.5520204071432966,1.4532811950070388],[-8.222788490674816]],"id":0,"number":290}
