{"architecture":{"NEURONS":[10,4,1],"LAYERS":3,"totalSynapses":44},"weights":[-4.478182392543072,-5.422082616292771,-0.5084832472560594,-2.5210230972037047,10.187137482734592,-5.030320586950662,5.093031722034681,-0.431577979818218,-5.524241181048354,1.0587444429612043,4.47672497816532,-0.017425536443157683,-3.169235978529847,-9.347584697746829,1.642742517295328,7.8084819302112765,8.15449754543029,6.262255809268309,-2.4722730087649984,6.608157706461762,8.538876581931085,5.152259275390305,8.508528425073198,3.3978211037745614,1.616888193617024,-4.7659471663030475,2.4124398984611846,5.908552955494901,-2.3847017764435003,9.159036211138915,-8.296861941569148,-6.41982560204338,0.3187872242512097,-6.023628589602757,6.878492299786981,2.0521874467036594,2.4299904761734625,-6.77900587734535,-8.66898086724437,-3.8627655224864013,-8.662170703848398,-8.131569292352403,-1.811912804177041,-2.6816149668648515],"bias":[[9.058931875091865,2.394882772123399,-9.831880302893937,-1.2679553967652266,-0.2861071861235118,-4.609231560571073,-10.499109157567528,-8.499443081783419,-7.75692284775399,3.156755562084685],[0.6286950756085514,9.149175575505225,1.6857632246033851,0.6802836410826345],[-8.055573300698335]],"id":0,"number":291}
