{"architecture":{"NEURONS":[10,4,1],"LAYERS":3,"totalSynapses":44},"weights":[-4.644794586729798,-4.935462518181887,-0.10747555443636875,-1.70827507713792,9.427254904165757,-4.60189166336328,5.825017484001002,-1.384279867757854,-5.628848448040883,1.0506084873083457,4.845572577394176,0.06946623002085166,-2.87273666748918,-9.755482136731647,1.870853031054745,7.8084819302112765,8.03684425514445,6.262255809268309,-1.6529285214016909,5.842143557259991,8.538876581931085,5.062596443558378,8.837248380162482,3.3978211037745614,1.9038261021228575,-4.640293073601028,2.4124398984611846,6.15855486385343,-2.3847017764435003,9.52755268763717,-8.05454865535604,-5.944408045634704,0.5118041878219819,-6.083803846269839,6.386382572972449,1.9688390764705814,2.71049129026871,-6.768416578443841,-7.826959521086173,-3.748081832260422,-8.711312575138544,-7.7378717971036926,-1.811912804177041,-1.9541134862813727],"bias":[[9.058931875091865,1.4275888498162035,-9.73808114006388,-1.8905806295346432,0.0683862984258532,-4.753733666783579,-10.607358136475723,-8.203949476033843,-6.916709156461004,2.8256525509371544],[0.888116540859827,9.149175575505225,2.082553822473812,0.6802836410826345],[4.346758899623266]],"id":0,"number":292}
