{"architecture":{"NEURONS":[10,4,1],"LAYERS":3,"totalSynapses":44},"weights":[-4.478182392543072,-5.559203555692552,-0.10747555443636875,-1.5869917438661452,9.167687819091267,-5.030320586950662,5.532692768883235,-1.384279867757854,-5.4446630102452644,1.0587444429612043,4.83117329103431,0.4759717977959653,-2.87273666748918,-9.347584697746829,0.5617776351731478,7.8084819302112765,7.930329502431228,5.990754692192837,-2.5960507719021564,5.842143557259991,8.553180585914852,4.344962694835546,8.829481987328904,3.607174200432902,1.9038261021228575,-4.640293073601028,2.4124398984611846,5.908552955494901,-2.4074799683123107,9.198744638262035,-8.296861941569148,-5.944408045634704,0.1458842050333999,-5.544439497698141,6.695753058016354,1.9988997748156019,1.7771775826952676,-6.908662734702028,-8.526767428622692,-4.264140388734752,-8.989813812537022,-8.131569292352403,-2.084223812345905,-1.994296346316386],"bias":[[9.058931875091865,2.011986119565102,-9.88499842454271,-2.43992400986945,0.0683862984258532,-4.609231560571073,-4.471831965434038,-8.203949476033843,-6.916709156461004,3.0469993696495883],[0.8315238236781998,9.499303125252565,2.012762281330423,1.4532811950070388],[4.2359211066624205]],"id":0,"number":293}
