{"architecture":{"NEURONS":[10,4,1],"LAYERS":3,"totalSynapses":44},"weights":[-4.930068109480533,-5.069212782260515,-0.5084832472560594,-1.5869917438661452,9.427254904165757,-5.030320586950662,5.825017484001002,-1.384279867757854,-5.03504769809242,0.46833300232398356,4.376807428249805,0.4759717977959653,-3.4356085329114294,-9.581612488626533,1.870853031054745,7.08483215527588,8.047319939921406,6.262255809268309,-2.2718796073012224,5.842143557259991,8.467945673640587,5.062596443558378,8.567926729001972,3.607174200432902,1.616888193617024,-4.640293073601028,2.4124398984611846,5.908552955494901,-2.3847017764435003,9.293157111083838,-8.400438780370465,-5.944408045634704,0.3187872242512097,-5.544439497698141,6.386382572972449,1.9688390764705814,1.7771775826952676,-6.963927713328807,-8.482362228969766,-3.748081832260422,-9.043811262627985,-7.624647266380312,3.605048628066103,-2.6816149668648515],"bias":[[9.020842450194907,1.4275888498162035,-9.73808114006388,-1.656748270603864,0.0683862984258532,-4.322567531242523,-10.171887382444252,-8.203949476033843,-7.75692284775399,2.9032512389071496],[0.888116540859827,9.149175575505225,2.22378870446023,1.3861282589850727],[-8.222788490674816]],"id":0,"number":294}
