{"architecture":{"NEURONS":[10,4,1],"LAYERS":3,"totalSynapses":44},"weights":[-4.644794586729798,-5.069212782260515,-0.3902048625341983,-1.5869917438661452,9.167687819091267,-5.030320586950662,5.321593352864835,-0.5271250820308291,-4.968925381906785,0.6069954960067617,4.83117329103431,0.02799314655619002,-2.87273666748918,-9.347584697746829,1.4128796850431504,8.00943815079436,8.03684425514445,6.5867067299451945,-2.2718796073012224,6.553996392645359,8.538876581931085,5.444080820008019,8.567926729001972,3.607174200432902,1.616888193617024,-4.558125145956214,2.4124398984611846,6.039926850267218,-2.2289602512861753,9.155452485447569,-8.282539619671494,-6.009439890292521,1.3521075329071537,-5.544439497698141,5.9742030495409875,1.9988997748156019,2.4299904761734625,-6.768416578443841,-8.706515705108261,-4.339372762292131,-9.043811262627985,-8.131569292352403,3.605048628066103,-2.6816149668648515],"bias":[[9.448620455872522,2.011986119565102,-9.831880302893937,-1.8382247952235202,0.0683862984258532,-4.69507921618729,-10.499109157567528,-8.203949476033843,-6.916709156461004,2.9032512389071496],[0.8315238236781998,9.499303125252565,1.6857632246033851,0.6802836410826345],[-8.055573300698335]],"id":0,"number":295}
