{"architecture":{"NEURONS":[10,4,1],"LAYERS":3,"totalSynapses":44},"weights":[-5.316550731668516,-5.069212782260515,-0.8098037662399107,-1.70827507713792,9.456539483652643,-5.030320586950662,5.372091243708453,-1.7250881171026267,-5.03504769809242,1.0506084873083457,4.83117329103431,0.02799314655619002,-2.900155295918187,-9.581612488626533,1.4128796850431504,8.00943815079436,7.930329502431228,6.043041265350492,-2.2718796073012224,6.553996392645359,8.467945673640587,5.062596443558378,8.567926729001972,3.607174200432902,1.9038261021228575,-4.640293073601028,2.4124398984611846,6.324362986233259,-2.3847017764435003,9.480888396206836,-8.282539619671494,-5.944408045634704,1.3521075329071537,-5.634038994584195,6.977036160696191,1.9688390764705814,1.7771775826952676,-6.963927713328807,-8.42922850107644,-3.748081832260422,-8.989813812537022,-8.131569292352403,3.494562966838114,-1.9541134862813727],"bias":[[9.334375408501948,1.4275888498162035,-9.73808114006388,-1.8382247952235202,-0.3335799592586601,-4.322567531242523,-10.171887382444252,-8.203949476033843,-6.916709156461004,3.116534349531555],[1.0827867025101277,9.149175575505225,2.431633553842535,-2.547459701664109],[4.2359211066624205]],"id":0,"number":296}
