{"architecture":{"NEURONS":[10,4,1],"LAYERS":3,"totalSynapses":44},"weights":[-5.010189084307914,-4.985564176166369,-0.6276298871911934,-1.7797481265169657,9.167687819091267,-5.54026411783054,5.532692768883235,-0.4231690975912278,-5.1056404956780765,0.6742082963741126,4.376807428249805,0.49281010790393964,-2.9010851865841216,-9.581612488626533,1.1001744975660213,7.8084819302112765,7.489443239841499,6.262255809268309,-2.2718796073012224,5.842143557259991,8.938160077400521,5.061936679730671,8.837248380162482,3.714257952408193,1.9038261021228575,-4.474669348410012,2.460355900836751,6.214626049687148,-2.3847017764435003,9.198744638262035,-8.12481242299534,-6.125058853961423,0.5280787878177209,-5.8734197333256795,6.399969346123835,1.9688390764705814,2.4299904761734625,-7.323095400504714,-8.593402731223762,-4.406160326139503,-8.989813812537022,-8.089342567950624,3.2890856996047475,-1.7886249287216884],"bias":[[9.231805567928555,2.011986119565102,-9.62705855103079,-2.43992400986945,0.0683862984258532,-4.624710253723551,-10.499109157567528,-8.193557877351198,-6.799229311465112,2.9032512389071496],[0.6286950756085514,9.499303125252565,1.6857632246033851,0.8153126246387021],[-8.222788490674816]],"id":0,"number":297}
