{"architecture":{"NEURONS":[10,4,1],"LAYERS":3,"totalSynapses":44},"weights":[-5.316550731668516,-5.069212782260515,-0.5084832472560594,-2.704904275575213,9.167687819091267,-5.030320586950662,6.002077259303613,-1.7250881171026267,-5.03504769809242,0.6069954960067617,4.376807428249805,0.40426329519381216,-3.169235978529847,-9.581612488626533,1.870853031054745,7.08483215527588,7.930329502431228,6.262255809268309,-1.6529285214016909,5.842143557259991,8.467945673640587,5.444080820008019,8.567926729001972,3.607174200432902,1.604781571346846,-4.509768257194885,2.4124398984611846,6.324362986233259,-2.2289602512861753,9.32934802225921,-8.282539619671494,-5.944408045634704,0.3187872242512097,-5.8734197333256795,6.386382572972449,1.9688390764705814,1.7771775826952676,-6.963927713328807,-8.706515705108261,-4.700502364494206,-8.989813812537022,-8.465122058729698,3.494562966838114,-2.6816149668648515],"bias":[[9.020842450194907,2.394882772123399,-9.62705855103079,-1.656748270603864,-0.2861071861235118,-4.322567531242523,-10.499109157567528,-8.203949476033843,-7.75692284775399,2.9032512389071496],[1.0023495975767505,9.149175575505225,1.6857632246033851,0.6802836410826345],[-8.055573300698335]],"id":0,"number":298}
