{"architecture":{"NEURONS":[10,4,1],"LAYERS":3,"totalSynapses":44},"weights":[-4.930068109480533,-4.935462518181887,-0.5084832472560594,-1.8829688881457265,9.167687819091267,-5.030320586950662,5.093031722034681,-0.5816157785474555,-5.03504769809242,1.0587444429612043,4.723762163449478,0.4816876731155336,-2.87273666748918,-8.994506613690517,0.5617776351731478,7.8084819302112765,8.03684425514445,5.921293068486116,-1.6529285214016909,5.842143557259991,8.467945673640587,5.444080820008019,8.567926729001972,3.607174200432902,1.9038261021228575,-4.640293073601028,2.318999352483553,5.908552955494901,-2.3847017764435003,9.159036211138915,-8.296861941569148,-5.944408045634704,1.3521075329071537,-5.544439497698141,6.386382572972449,1.9688390764705814,1.7771775826952676,-6.768416578443841,-7.826959521086173,-3.748081832260422,-8.989813812537022,-8.465122058729698,3.494562966838114,-1.890531964391097],"bias":[[9.448620455872522,2.394882772123399,-9.73808114006388,-1.656748270603864,0.0683862984258532,-4.694651334202948,-10.171887382444252,-8.203949476033843,-6.916709156461004,2.9032512389071496],[0.888116540859827,9.430924619479354,2.22378870446023,1.3861282589850727],[4.346758899623266]],"id":0,"number":299}
