{"architecture":{"NEURONS":[10,7,1],"LAYERS":3,"totalSynapses":77},"weights":[3.807470831622865,-4.563530755015856,2.5772514495191383,-0.37904936776146403,9.587996978165258,2.116272794344363,7.467316853127944,3.7004477785361156,-8.95713599984275,2.33316224946868,-5.501588620778644,1.839168448696801,6.060259190822945,-2.2859869003903017,6.767278002812504,-9.115709640665182,-1.9794690961756303,3.1869507580946577,-0.6946783153889469,0.9711514426314833,0.8055053991036615,7.122536790428341,-8.1859207219158,-9.68780489188156,3.172325272330901,-1.1118087814464563,5.6530652535572425,-3.570091553113969,-6.882606755275634,10.581789835525377,-4.074731025827594,9.399580161009284,-6.815852416666883,-0.8477478204940021,5.3068415966217595,-9.962430723942846,-8.335874083867001,8.980746436198414,-6.974153190822248,4.083671788019409,-0.9193905776109293,4.158081806540585,5.566693754693636,2.5735613754038003,-6.302800837991357,-5.199362609908017,1.420524604713716,-0.5452056874445967,9.527474487293723,1.6604951591145656,-8.622412445148473,-9.242536599695681,-4.845627827816606,-2.2390888422289525,6.718039496774039,6.475496233961379,-7.507216989359295,7.028338043262331,1.7924377021583728,-6.726070210638681,-0.6401956807823621,3.478482669122809,-4.4983575503703435,-7.460491685325826,8.230401335842823,-0.1137857076960623,2.6442638976120483,-3.8221428969675855,4.798326487380455,-8.221529982972227,-8.062060507043778,-5.004825661181125,3.4717608955567125,-2.76582368124032,-3.6828839728866596,-0.2830614258897656,-3.1299900590921848],"bias":[[-6.694352172369345,9.872170427148417,-8.718957910602274,-6.5855395278986375,3.5997976258455613,9.464806793672206,5.55263025901362,2.879674642143456,3.3793687000693433,6.10786174045115],[9.689325313027645,-2.805554878123562,-0.33802619163329284,5.828830269394947,-8.82334469404546,1.8202518989208445,-10.691397979087002],[-7.484450482097661]],"id":0,"number":3}
