{"architecture":{"NEURONS":[10,7,1],"LAYERS":3,"totalSynapses":77},"weights":[5.297962983045181,1.754528595644356,-1.7903450903925076,8.826368487378714,-8.78812428215347,6.704819130438036,-1.1121373601751563,-4.478107941932525,9.796139476929277,0.4194220347215791,-2.6047864909396434,-5.753108078080701,-8.833575205349366,1.789478803959041,0.9209786010224938,-4.199213921922711,-6.44796936016761,0.3638756068454568,7.58027787886709,-5.9395911426502686,6.5582163035673515,2.708843015635102,-6.289554515192433,4.228163480773626,6.789107588807187,-3.1157808884305123,5.7907911834034405,-9.985291486681314,5.6336545743547575,-2.1973711793865296,2.429665538158227,-5.995536529724843,8.836336257620403,7.104144776398532,4.2124071964057945,0.8615247360043883,9.270226743064335,9.566103119526975,-6.432316597519416,5.8902619084381875,-6.630731519565415,-8.021940937277405,9.286368421610257,3.480468093165599,-4.1685718873154896,2.7529792178931425,-3.3773451023925074,8.898838592548245,-0.3815970436477638,-4.127115319518142,1.6511442860108059,7.06831099405502,-7.684329761253264,0.8727078252497988,6.229764152268501,-6.11757085478809,-5.638364733233719,8.468382459274352,0.031089278862955705,-3.573726958748706,8.044942820169554,1.418677468473047,8.268901881552283,2.8492435064455153,-4.752242525197367,0.8291214996919726,8.11658903007439,-6.573544052499604,0.3163202021777954,-6.160035106542401,7.0517604623284225,3.1114276633632496,-2.7425008061151073,1.1650354166324148,-2.484430854658493,-4.832102854884822,1.4121846310947532],"bias":[[-7.850779923282579,-3.049886347301162,-6.466961405186085,-7.980213260894723,-0.2783183530707154,-9.251813732117206,-4.465786372200329,2.1584464128508163,-2.8544647327677497,-0.9546420409197567],[5.010752707877505,6.086072079203892,7.890304503732956,-7.822507119125949,4.814415909334563,-6.560126683740735,0.4866418103169271],[-2.6646077359748026]],"id":0,"number":3}
