{"architecture":{"NEURONS":[10,7,1],"LAYERS":3,"totalSynapses":77},"weights":[4.388034243456835,4.123134891401536,-4.513301222997894,0.6594478652134919,-1.4303371387175339,-9.448613945815813,-10.020629612012312,-3.336391991006324,6.020885761071177,6.804976632150081,-4.2749181782526025,-2.4654493194674525,4.718755816617495,9.343246230216025,8.037853403172589,-0.8206120261749739,4.438127705673358,10.033945234276349,-7.998299353163792,-3.9487287108592444,8.153074184108458,-9.791629628218915,-8.897668520206302,-8.004397095598001,6.983828679869782,4.750022724163703,5.949985822057267,5.113916846523749,5.295558776216449,6.443172477239756,-2.2383025785577217,1.0967473742851717,-3.6906163933881526,-7.545554738069056,-9.266419403611232,3.7066841940803776,6.622884558413449,-4.798402172673455,4.836303805836383,9.543795648720891,0.9699215196141184,2.927335830910576,-7.4997087627461125,3.2671109165486723,-7.710016991766163,4.770692347082424,-4.010373568262872,2.348867937964778,-7.970674986103082,-6.164686488439895,2.150967901229946,2.7733389628824656,2.9143201617223915,-6.5614250337456355,2.698893084977544,3.9725787823501135,6.076940274694329,-4.391781945474542,-3.190862004600618,9.416592701886444,8.940352919636197,3.8005716024962712,-0.6535641911678064,-1.718036275347468,3.26583653064153,-4.7376965856697195,8.330575676399413,-4.714979046789795,-9.252729151099444,8.81135099805329,-1.9070118777855694,3.944557148589272,8.94723932574978,7.6486679242516145,-9.574018760138735,8.605144443711007,-7.794506084633513],"bias":[[7.233496021944184,-6.241920861235767,3.3955899637928315,-4.9551449749596275,2.5394813118844537,7.045543675865316,-8.377895931982364,-2.5167150620282612,2.980799249214626,-8.632689454839083],[3.746927860406401,-4.090616616500643,-8.566307097302367,-2.5736866311709683,-7.709273783434989,0.38526085210155336,2.776420929729353],[-2.961888894565265]],"id":0,"number":3}
