{"architecture":{"NEURONS":[10,4,1],"LAYERS":3,"totalSynapses":44},"weights":[-4.834493499622213,-5.236092416028952,1.0521300668993234,-8.388358949828786,-1.9639309843973134,-4.542275359896271,5.899998164343579,-2.8364906806895407,0.7225370813226073,-0.09389468389182909,5.192709666236171,3.7011798710092316,-2.5112797836335914,-9.858049947125492,1.1922435199802113,6.565030723128219,-4.079503405138733,7.059399313309678,0.900766034529149,6.5256058874909275,8.608670623143247,0.1321333825183432,4.224656876404852,3.5722285386199637,7.8108242307219236,-3.3562545123836447,1.1773028413281512,5.1012490521210285,-0.1000505039721617,-8.47910735969074,-1.1202798421784805,6.5854139336442215,2.075600824779162,-8.802158204840357,4.403014078021558,9.297064104536872,7.812900906849584,-6.399826161952287,-5.449529070017418,5.42324752610944,7.0114363695841355,-7.735914990535486,-5.385794817726675,-0.7752033301124666],"bias":[[-6.070700963547315,-4.336011324149522,3.559759925298785,9.63268293705281,0.6456834843329382,-6.430484286504459,3.3015987405981537,-6.66659294562064,2.0554712681097556,-6.047877988135573],[4.885187012648833,1.8654658621638056,-3.7713400382031206,7.456076168178099],[2.92143367619998]],"id":0,"number":3}
