{"architecture":{"NEURONS":[10,7,1],"LAYERS":3,"totalSynapses":77},"weights":[-9.143796338019992,10.5465662993681,-4.536290719021032,-9.063447461026039,7.593083829466631,7.159734215871494,0.5596072132030873,5.139953729239913,10.428076962136478,-0.639076855128866,-2.2120034111896767,-2.4898372184918394,-9.216518512916455,-10.079086909875056,-5.947402064689746,2.841227483259779,5.29535675643931,-4.878255550254827,0.9527230427551018,-10.03546393846645,3.148949772200915,-3.440639782191283,-8.084815613525368,-7.877483284034063,-7.329923830196743,-2.8231810070041172,-9.81939973198051,6.3336918618235565,-2.435647409933092,0.9470884295320401,1.8057689625844022,7.479753959566484,-10.497049537057618,-5.675043612436072,-8.668285763507283,-0.9170091256112427,-0.27138831003839403,-0.4857145695901064,-5.662198050322777,-4.6058456446974345,6.32306780812849,3.8714674668001776,4.651533321730141,7.960988597551016,-8.841047831744127,-9.271718909137075,9.72961741950081,-5.814290753885214,5.442773046428394,-0.8545873522637217,7.621826116500246,-2.1651891730869606,-0.7333781255375103,2.375239260236981,7.048012147417962,-5.632967179139859,6.26400644824924,-1.0454799568149091,3.309051669885216,-10.379751324539479,3.9308173929099484,5.706244569416012,3.430944980222141,-3.2598906194725448,1.4522314067334672,-3.661191551377431,-2.4062104520885557,-3.6757820308175995,-6.81174518506086,-1.3759766845618615,-5.013074089895961,-7.330821121055186,9.777318111046544,-7.6641638678877975,-1.4829255501409713,-8.056070700362595,-3.1763931976948356],"bias":[[-9.786856687610191,2.056254866688394,2.264695152313295,5.760431750831984,-1.0978556432509512,6.554084893295363,9.271939322378397,-2.7870378181729056,-0.16304029542747053,-0.8026581653731155],[0.024300232310509373,-1.8157326903964495,-3.5970671223559285,-5.34202851345821,4.858813909215104,2.014975093709701,-5.8612297003057305],[-2.2822830328293042]],"id":0,"number":30}
