{"architecture":{"NEURONS":[10,4,1],"LAYERS":3,"totalSynapses":44},"weights":[-4.629214945802276,-4.93585758157405,0.7325795191430835,-1.8790420360856679,9.599961355998795,-4.6300155428823935,5.388975194831422,-1.5234051409051907,-5.345882538531171,0.30204358396165065,4.708270376896566,0.42273350242791174,-2.7415108708327938,-9.702049674102946,1.1922435199802113,8.057722165120712,8.022026800355047,6.744544141483082,-1.9697793554399832,6.7572627672355345,8.490165300461314,4.875120841663569,7.771731066353908,3.5722285386199637,1.6113953386277708,-3.9520855578940552,2.4684404115260463,6.619494956529943,1.4087553952968335,9.502114251845168,-7.590902768767997,-6.231854462400097,0.6580445208915118,-5.449812100694749,6.592897665643293,1.2304320859484184,3.0498587730785913,-6.961985987923902,-8.920287607614968,-3.3904519301229104,-8.680429400348162,-7.735914990535486,6.760365419563164,-1.9108642340504376],"bias":[[-8.199754585517324,-2.119871483457638,-9.051363977118196,-2.3935441495482417,1.4721671687507494,-4.77143474734244,-9.91867120468144,-8.11503468316982,-1.939096282499726,3.046509775832843],[-7.192084991397948,6.319568422239711,5.612104932275974,0.6548853468030558],[4.383272755272387]],"id":0,"number":30}
