{"architecture":{"NEURONS":[10,7,1],"LAYERS":3,"totalSynapses":77},"weights":[-4.843364251663621,3.6170427744946685,0.8442625876491355,-2.8919473142381102,-4.625279976473639,9.653847428680802,5.043011567905079,0.5320406702435785,2.8857515721111757,-0.8305022921451832,1.2543998765748459,-1.9831262397930398,9.081803833393682,6.479360544853123,-3.087464474197552,-2.6249543673121516,-7.590741325201627,2.9495920660665456,-10.10916264792854,-8.886121411165192,5.7455044073018495,-1.2684480974381183,-2.5822205615290224,4.9604118581645915,-0.11621734927208548,-6.940083905743733,0.30557715902921284,3.5701912982043806,-0.7893840964631647,3.5905976349660813,8.915305602119444,7.665829559843464,5.678364748306612,6.893731096861349,-9.134257670695847,4.338663942327704,4.3782435370613895,5.1553344292081515,4.747583920083576,-2.647957786136714,4.2614994193244184,-4.897103384609898,-5.962004166425122,2.2340319139633387,-6.823509516544404,2.073339107641122,-4.402498191490469,0.32475616054112155,4.1669652356138105,6.016169792907161,1.2237773294827374,-7.334197783757779,7.507289567846836,-5.681513020911872,-3.471592234784279,-4.229968209290165,-6.613524338854319,3.5571348308480046,-1.3956551171403393,2.4556570614676136,-6.4300963341412,-4.555547608060785,7.659568026588953,-9.25115700000339,-3.7688500175983077,-2.115781057257619,-5.518633382245133,2.7818417153276638,8.043059452190437,-0.9108541888331795,-6.750808736626012,3.0439055873994922,1.0175500630148955,-0.6613516809754354,6.959899742881408,4.948194534638033,-1.2591961736417583],"bias":[[-7.672061686006459,4.267935850191334,-5.844243071399395,5.161576116941392,3.5301246622364264,9.365511757111667,8.995098073943142,-5.88676833295698,6.98878899107838,0.9661419261742354],[0.5978509412132006,0.6331571528676129,-5.737667504629435,-8.371330485024783,0.9502308485234033,6.640523416093728,6.760828778947401],[-4.8181783229263715]],"id":0,"number":30}
