{"architecture":{"NEURONS":[10,4,1],"LAYERS":3,"totalSynapses":44},"weights":[-4.478182392543072,-4.935462518181887,-0.5084832472560594,-1.8829688881457265,10.187137482734592,-5.030320586950662,6.002077259303613,-1.1515093758173882,-5.4446630102452644,1.0587444429612043,4.83117329103431,0.40426329519381216,-3.169235978529847,-9.698182079044287,1.6377494823332392,7.08483215527588,7.689614908978815,6.262255809268309,-2.2718796073012224,6.083192772686329,8.147827881820604,5.062596443558378,8.567926729001972,3.607174200432902,1.616888193617024,-4.509768257194885,2.318999352483553,6.324362986233259,-2.4528315554677,9.350430540348023,-8.12481242299534,-5.944408045634704,1.3691190581092116,-6.22829454863312,6.977036160696191,1.9688390764705814,2.4299904761734625,-6.768416578443841,-8.482362228969766,-3.748081832260422,-8.989813812537022,-8.131569292352403,3.494562966838114,-1.994296346316386],"bias":[[9.058931875091865,2.011986119565102,-10.073971623219778,-1.656748270603864,-0.2861071861235118,-4.66272735979301,-10.499109157567528,-8.203949476033843,-7.75692284775399,3.0469993696495883],[1.0023495975767505,9.698253555883687,1.8061466072489019,0.6802836410826345],[-8.055573300698335]],"id":0,"number":300}
