{"architecture":{"NEURONS":[10,4,1],"LAYERS":3,"totalSynapses":44},"weights":[-4.644794586729798,-5.559203555692552,-0.10747555443636875,-1.7377078713563638,9.167687819091267,-5.030320586950662,5.372091243708453,-1.384279867757854,-4.968925381906785,0.6321266435929743,4.921690476556693,-0.5193584035137039,-2.991280683510906,-9.581612488626533,1.642742517295328,7.8084819302112765,7.685400323929313,6.262255809268309,-1.6529285214016909,6.728574737664599,8.538876581931085,4.344962694835546,8.447390857317922,3.255286050431698,1.9038261021228575,-4.640293073601028,2.4124398984611846,6.324362986233259,-2.2289602512861753,9.159036211138915,-8.282539619671494,-6.165478810279416,0.1458842050333999,-5.644050296817021,6.386382572972449,1.9688390764705814,1.9919141644077132,-6.768416578443841,-8.482362228969766,-4.486106163043263,-8.989813812537022,-8.131569292352403,3.494562966838114,-2.6816149668648515],"bias":[[9.448620455872522,2.0280109671946214,-9.831880302893937,-1.656748270603864,0.0683862984258532,-6.634791173197838,-10.499109157567528,-8.689555013352013,-7.75692284775399,2.8256525509371544],[1.0023495975767505,9.149175575505225,2.22378870446023,0.6802836410826345],[4.2359211066624205]],"id":0,"number":301}
