{"architecture":{"NEURONS":[10,4,1],"LAYERS":3,"totalSynapses":44},"weights":[-4.930068109480533,-5.069212782260515,-0.5084832472560594,-2.704904275575213,9.552409100070328,-5.030320586950662,5.825017484001002,-1.384279867757854,-5.03504769809242,0.6321266435929743,4.232957006965684,0.40426329519381216,-2.87273666748918,-9.581612488626533,1.3906714751378007,7.8084819302112765,7.930329502431228,5.990754692192837,-1.6529285214016909,5.842143557259991,8.553180585914852,5.055970875329052,8.78528563411971,3.607174200432902,1.9038261021228575,-4.640293073601028,2.318999352483553,6.324362986233259,-2.363453744751838,9.134070269066077,-8.296861941569148,-5.944408045634704,0.3187872242512097,-5.544439497698141,5.975059194105619,1.5730207526985038,2.80734526811499,-6.768416578443841,-8.091314883529416,-3.743289805759253,-9.043811262627985,-8.05795948689504,-2.084223812345905,-2.6816149668648515],"bias":[[9.448620455872522,2.394882772123399,-9.831880302893937,-1.6869936121021787,-0.3335799592586601,-4.322645096197636,-10.499109157567528,-8.203949476033843,-6.916709156461004,2.8256525509371544],[0.6286950756085514,9.430924619479354,1.4020396332763632,1.4532811950070388],[4.2359211066624205]],"id":0,"number":302}
