{"architecture":{"NEURONS":[10,4,1],"LAYERS":3,"totalSynapses":44},"weights":[-4.644794586729798,-4.935462518181887,-0.5084832472560594,-1.7452041739402593,9.056707494743588,-4.958123992736583,5.321593352864835,-1.0741286073469272,-5.03504769809242,0.6505728015117667,4.83117329103431,0.4759717977959653,-2.991280683510906,-8.994506613690517,1.3906714751378007,7.8084819302112765,7.652024653057493,6.262255809268309,-1.6529285214016909,6.083192772686329,8.553180585914852,4.959803150201021,8.567926729001972,3.3978211037745614,1.9038261021228575,-4.640293073601028,2.460355900836751,5.908552955494901,-2.363453744751838,9.159036211138915,-8.296861941569148,-5.944408045634704,0.3187872242512097,-6.177805955395349,6.152669807398711,1.5730207526985038,2.80734526811499,-6.768416578443841,-8.482362228969766,-4.560028154115382,-8.926917141006678,-8.927968995609385,3.605048628066103,-1.7385701839572945],"bias":[[9.231805567928555,1.4275888498162035,-9.831880302893937,-1.8382247952235202,-0.3335799592586601,-4.322645096197636,-4.471831965434038,-8.203949476033843,-7.042866221326997,2.8256525509371544],[0.6286950756085514,9.149175575505225,2.22378870446023,-2.4746161943679126],[4.2359211066624205]],"id":0,"number":303}
