{"architecture":{"NEURONS":[10,4,1],"LAYERS":3,"totalSynapses":44},"weights":[-4.149195563456523,-5.069212782260515,-0.5084832472560594,-2.704904275575213,10.187137482734592,-5.308479839743789,6.002077259303613,-0.4231690975912278,-5.001986539999603,0.5299723811642069,4.83117329103431,0.4816876731155336,-3.169235978529847,-9.581612488626533,1.1001744975660213,7.08483215527588,8.436863400380984,6.262255809268309,-2.5341618903335776,6.728574737664599,8.147827881820604,4.959803150201021,9.115446982598929,3.502497652103732,1.9038261021228575,-4.50977246841479,2.4363978996489677,6.324362986233259,-2.3847017764435003,9.159036211138915,-8.282539619671494,-5.944408045634704,0.5118041878219819,-5.529279104648684,7.143873763823846,1.9688390764705814,2.4299904761734625,-7.323095400504714,-8.526767428622692,-4.077121079199962,-8.989813812537022,-8.240606067309443,0.7051695772461046,-1.6806758503861083],"bias":[[9.058931875091865,2.011986119565102,-9.62705855103079,-1.656748270603864,0.0683862984258532,-4.609231560571073,-10.286173224422434,-8.203949476033843,-7.75692284775399,-2.44543983585608],[1.0602856763543205,9.149175575505225,9.23673832247422,0.8153126246387021],[-8.055573300698335]],"id":0,"number":304}
