{"architecture":{"NEURONS":[10,4,1],"LAYERS":3,"totalSynapses":44},"weights":[-4.644794586729798,-5.069212782260515,-0.5084832472560594,-2.704904275575213,9.552409100070328,-5.308479839743789,5.895312699606402,-1.1515093758173882,-5.03504769809242,1.0587444429612043,4.376807428249805,0.4816876731155336,-3.4356085329114294,-9.660514847056724,1.3906714751378007,7.8084819302112765,7.689614908978815,6.262255809268309,-2.41894397755012,5.842143557259991,8.553180585914852,4.959803150201021,9.115446982598929,3.607174200432902,1.9038261021228575,-4.557476164740375,2.318999352483553,6.324362986233259,-2.4528315554677,9.134070269066077,-8.322756151269477,-6.317542180460124,0.43216943234033617,-6.177805955395349,5.9123424457313964,2.3223285556991593,2.483487848536806,-6.768416578443841,-8.593402731223762,-4.077121079199962,-8.989813812537022,-8.423252647723846,3.7463941537204786,-1.890531964391097],"bias":[[9.581693647474527,2.011986119565102,-9.62705855103079,-1.8905806295346432,0.0683862984258532,-4.694651334202948,-10.463257175688302,-8.203949476033843,-6.916709156461004,-2.44543983585608],[0.9341741990106331,2.7053280254208425,2.082553822473812,1.3769613172411557],[-8.055573300698335]],"id":0,"number":305}
