{"architecture":{"NEURONS":[10,4,1],"LAYERS":3,"totalSynapses":44},"weights":[-4.149195563456523,-5.069212782260515,-0.3619423988722762,-1.7377078713563638,10.187137482734592,-5.803648083814353,6.002077259303613,-0.4231690975912278,-5.03504769809242,0.9920360656036331,4.723762163449478,0.4759717977959653,-2.991280683510906,-9.581612488626533,1.7076457667278024,8.00943815079436,7.544124837218803,6.410071431712688,-1.6529285214016909,5.842143557259991,8.467945673640587,4.344962694835546,8.837248380162482,3.8911846893140294,1.604781571346846,-4.7659471663030475,2.4124398984611846,6.084135436220265,-2.7411597458093375,9.198744638262035,-8.296861941569148,-5.944408045634704,0.3316103301423309,-5.8734197333256795,5.993363653483805,1.9799277560482191,2.4299904761734625,-6.343356810909823,-8.593402731223762,-3.743289805759253,-8.989813812537022,-7.775751748071684,3.620070591959417,-1.7385701839572945],"bias":[[9.231805567928555,2.6653714735101293,-9.62705855103079,-1.8905806295346432,-0.6806996112032275,-4.609231560571073,-10.171887382444252,-5.382798683045655,-8.275331369858275,3.116534349531555],[0.27838368762079285,9.698253555883687,2.26256258511347,0.8153126246387021],[4.2359211066624205]],"id":0,"number":306}
