{"architecture":{"NEURONS":[10,4,1],"LAYERS":3,"totalSynapses":44},"weights":[-4.252442250684558,-4.9711746207786955,-0.5084832472560594,-1.7452041739402593,10.187137482734592,-5.030320586950662,6.002077259303613,-1.2993808067302797,-5.231770297222566,0.5299723811642069,4.985733764422657,0.4816876731155336,-3.169235978529847,-9.507321703104614,1.3906714751378007,7.8084819302112765,7.718550168208341,6.262255809268309,-2.5341618903335776,6.552143955019977,8.969055227473413,4.257562914906916,8.938000183190361,3.502497652103732,1.6597779342440606,-4.557476164740375,2.3366440586767188,6.247706233347851,-2.0030313944711957,9.198744638262035,-8.487786327778343,-6.165478810279416,0.3187872242512097,-5.342394358916876,6.767238088457976,1.5730207526985038,2.673504330318897,-6.768416578443841,-8.526767428622692,-3.743289805759253,-8.926917141006678,-8.423252647723846,-2.084223812345905,-1.890531964391097],"bias":[[9.058931875091865,2.0280109671946214,-10.073971623219778,-1.656748270603864,-0.2610759264906826,-4.261047569150516,-4.471831965434038,-8.267591366917737,-6.830584000950757,2.8256525509371544],[0.6286950756085514,9.698253555883687,2.376025801371353,1.4596552284099253],[-8.055573300698335]],"id":0,"number":307}
