{"architecture":{"NEURONS":[10,4,1],"LAYERS":3,"totalSynapses":44},"weights":[-4.787431348105166,-5.069212782260515,-0.5084832472560594,-1.7452041739402593,10.187137482734592,-5.813475219803751,5.321593352864835,-1.384279867757854,-5.03504769809242,1.0506084873083457,4.376807428249805,0.4816876731155336,-2.87273666748918,-9.660514847056724,1.3906714751378007,7.08483215527588,7.718550168208341,6.262255809268309,-2.73849203240547,5.842143557259991,8.29281107651784,4.257562914906916,8.567926729001972,3.0421963401859835,1.9038261021228575,-4.557476164740375,2.318999352483553,6.324362986233259,-2.4528315554677,9.159036211138915,-8.282539619671494,-5.944408045634704,0.3187872242512097,-5.529279104648684,6.767238088457976,1.9688390764705814,2.3533100119076824,-6.768416578443841,-8.526767428622692,-3.743289805759253,-8.989813812537022,-8.131569292352403,-2.084223812345905,-1.890531964391097],"bias":[[9.058931875091865,1.4275888498162035,-9.62705855103079,-1.8382247952235202,-0.2861071861235118,-6.634791173197838,-10.764719089779405,-8.203949476033843,-6.830584000950757,2.8256525509371544],[0.8315238236781998,9.698253555883687,2.012762281330423,-2.4746161943679126],[-8.055573300698335]],"id":0,"number":308}
