{"architecture":{"NEURONS":[10,4,1],"LAYERS":3,"totalSynapses":44},"weights":[-4.972326868126694,-5.559203555692552,-0.07598875534436794,-2.955194163287251,9.925481259792143,-5.251033027074874,5.430858504844182,-1.7337147539486994,-4.968925381906785,0.10661454747083432,4.376807428249805,-1.0592631622246187,-2.991280683510906,-9.9362882545895,1.2661325211887384,7.8084819302112765,7.666388710843545,6.422556621160199,-2.73849203240547,6.083192772686329,8.72738335236943,4.652382922518283,9.115446982598929,3.769012938254855,1.9038261021228575,-4.54648112611587,2.176526520245288,6.392183622247655,-2.3847017764435003,9.353664920627033,-8.282539619671494,-5.804685267357021,0.5118041878219819,-5.999344728991168,6.152669807398711,1.5730207526985038,2.3533100119076824,-6.561961737837783,-8.482362228969766,-3.743289805759253,-9.043811262627985,-8.423252647723846,3.605048628066103,-1.7385701839572945],"bias":[[9.231805567928555,2.6653714735101293,-9.62705855103079,-1.9828775587710898,-0.4538926497925665,-4.322645096197636,-4.471831965434038,-8.301403300372591,-7.086253911783378,3.025757853553698],[0.8649612056794305,3.198261101707496,1.351062815376919,1.4532811950070388],[6.008302727968085]],"id":0,"number":309}
