{"architecture":{"NEURONS":[10,7,1],"LAYERS":3,"totalSynapses":77},"weights":[-9.092978531962087,11.61915272047694,-4.696798600084628,-7.9526262798733764,8.109700803892451,6.947291083634663,0.9039242932759517,6.178032804256887,7.473317930560915,-1.1566304844072497,-1.4032454925646856,-4.475704056360047,-8.097013502931022,-11.751605740408552,-6.28987300681559,3.365031547284018,5.141654111563358,-4.246835432291872,0.7617908178497075,-8.983484559848293,4.2640122289486495,-2.7690125623091366,-7.950597781220344,-9.085156243898123,-7.920056917337403,-1.0045977720415888,-7.860989203054587,4.463468687975334,-2.79333636711179,0.050299089309892034,0.3620985958644693,7.096958576084548,-9.120007298642758,-6.826261695419869,-10.141530914607987,0.8789115576746757,-1.2168621771941577,-2.531812577636603,-6.168122657156684,-2.355560389902654,8.320990189136973,4.3608118814149925,3.9382622611542253,8.734479992687502,-6.951953083419214,-9.270825831854745,9.859867317959784,-4.630032530806111,5.325341600211676,-0.9042383026473838,9.464387471580444,-2.0012748529101025,-1.3908807435975,3.242576075944605,7.2278237683177275,-7.239303977824524,5.8992098066603385,0.8303096406404301,2.5760244028639865,-7.867065347335846,3.761939576242959,5.7357229543796855,-0.6361088258824882,-5.553636262464137,0.8103263815484969,-5.155498199790546,0.582366546698686,-4.95018259237077,-9.376683798050442,0.4045714991327251,-4.94941900105928,-9.377279723216958,9.224591414916032,-9.351641217492892,-2.0056697761982627,-7.7242800212415075,-5.482134709398271],"bias":[[-9.294754069044146,3.8159698431455094,3.1371168201871953,6.056337329211179,-1.3116123155955572,5.290188979713352,6.563091994656104,-2.853453375354289,-0.6965348103446164,-0.09310442421150866],[4.364982792195789,-4.161845398330387,-1.235113785879206,-5.5116137774789875,4.284608511834061,3.874858898746307,-3.9955759214870534],[-1.913363647181494]],"id":0,"number":31}
