{"architecture":{"NEURONS":[10,7,1],"LAYERS":3,"totalSynapses":77},"weights":[-4.268269364851436,4.244828086214964,1.1021508121353338,-3.6750166335243653,-5.7143361328221465,9.191025613825307,5.068351041714893,0.48597931099896996,2.169653807362008,-0.9062171312721642,1.7668319679150641,-3.0892555616491713,7.967329678663394,7.562434588008033,-2.2030501401227753,-2.597869482736718,-7.138757457384106,3.9498619614929886,-9.911753808811307,-9.44085192606854,5.693150498914132,-1.4501862260553475,-3.1606860825341996,7.334714214229595,-1.228235092160294,-6.4274397550913065,0.41110648995303484,5.049068189179637,-2.4828405480436193,4.19603203656819,9.236870967583844,7.524507152117719,6.079857763085878,6.809688808052224,-9.671776235958102,4.154321824395453,4.767409464908015,4.4394313923378235,5.127661705541884,-2.918548744580205,4.925546913584518,-5.704273152877229,-5.661021730871093,3.0034909151238565,-6.32936138260661,4.787251235322845,-4.716127143205522,0.052948010036447404,2.7051699621932865,6.682631670883805,1.8383559471340922,-8.35558199465165,6.602875152010588,-5.820258984899773,-4.014235499739345,-5.373537939894542,-6.138767350729162,3.313155497145998,-0.40171470465734493,3.7847133775721327,-6.617417007637245,-3.8707780675000003,6.774742211077881,-9.856657142950406,-3.393485446918612,-2.7735677146602598,-4.775384896859663,4.315471130746319,7.081689583464575,-1.06185344805826,-6.021750571961333,4.1810025579625,0.4051289641399464,-1.2207569623596977,6.834824190311696,5.777173357503492,-0.7303255421706811],"bias":[[-7.176720385162034,4.384970034477566,-3.9792338564472405,4.66625257720712,1.5977769661248573,8.52178582236366,8.37482130855186,-6.105342554535355,6.466596504828059,-0.4546070664367668],[-0.9842540685818694,0.7042270114409498,-5.322638902234866,-7.291298629138882,1.2883943532948932,6.022212289328063,7.318375897071165],[-5.071919417927529]],"id":0,"number":31}
