{"architecture":{"NEURONS":[10,4,1],"LAYERS":3,"totalSynapses":44},"weights":[-4.824893492229893,-4.694854409591398,1.0621367256607406,-1.8790420360856679,9.570241965446161,-4.548964136769923,5.399604548572143,-1.567041800205644,-8.6468552793733,0.8536261839044099,4.66567258637116,0.42273350242791174,-2.7415108708327938,-10.402675835565018,1.1922435199802113,8.057722165120712,7.6733232909007265,6.822798069635287,-2.0382195639260727,6.950543179600525,7.8113751564866,4.906528325556119,7.771731066353908,3.5722285386199637,1.7977486421063948,-3.9535316548413917,2.4684404115260463,6.541283591073817,1.4087553952968335,9.502114251845168,-8.042569566038063,-6.231854462400097,1.0325896082048565,-4.954364508636732,6.700859770501287,1.0572628181997294,3.000959263860778,-6.051620121661166,-8.731664980009548,-3.77826092023056,-8.876232604955367,-7.735914990535486,-1.1715096730225478,-1.9577276198532125],"bias":[[-8.355311574645775,2.232066876032221,-9.638281380756686,-2.1171945105377343,1.3311489911721885,-5.176203419913459,-9.759277288730077,-8.11310912819635,-5.550745365191997,2.9387931116759454],[-6.558759775164242,6.251919906792601,1.5403513395065875,0.669038647007914],[4.636143817749678]],"id":0,"number":31}
