{"architecture":{"NEURONS":[10,4,1],"LAYERS":3,"totalSynapses":44},"weights":[-4.149195563456523,-5.069212782260515,-0.5084832472560594,-1.8829688881457265,9.552409100070328,-5.079176001322628,5.825017484001002,-1.5126316978637713,-5.256706538054036,0.6321266435929743,4.376807428249805,0.5401413441429734,-3.1174711537062962,-9.581612488626533,1.5997403222444306,7.08483215527588,7.6628320521452205,6.422556621160199,-2.73849203240547,6.083192772686329,8.185232329568455,4.257562914906916,8.567926729001972,3.607174200432902,1.9038261021228575,-4.640293073601028,2.3366440586767188,6.039926850267218,-2.363453744751838,9.198744638262035,-8.296861941569148,-6.207441353644164,1.3691190581092116,-6.290334217088388,6.886221536287233,1.9688390764705814,2.4299904761734625,-6.605532064651781,-8.526767428622692,-3.743289805759253,-8.926917141006678,-8.497289525070887,3.8057570781497785,-2.0294202504215324],"bias":[[9.17092647247389,2.6653714735101293,-9.831880302893937,-1.656748270603864,-0.3335799592586601,-4.038473462043766,-10.189683366481363,-8.203949476033843,-7.75692284775399,2.8256525509371544],[0.6286950756085514,3.255555907776743,1.9355642299401281,1.4532811950070388],[4.2359211066624205]],"id":0,"number":310}
