{"architecture":{"NEURONS":[10,4,1],"LAYERS":3,"totalSynapses":44},"weights":[-4.4283466177261825,-5.559203555692552,-0.5084832472560594,-2.0618494169332338,10.187137482734592,-5.586639092536916,6.262022975301949,-1.7250881171026267,-4.968925381906785,0.5299723811642069,4.376807428249805,0.5401413441429734,-2.5891965642246926,-9.347584697746829,1.3906714751378007,7.8084819302112765,8.02149940383571,6.422556621160199,-2.2718796073012224,6.022998155151298,8.185232329568455,4.959803150201021,8.837248380162482,3.607174200432902,1.9038261021228575,-4.640293073601028,2.4124398984611846,6.324362986233259,-2.363453744751838,9.198744638262035,-8.322756151269477,-5.944408045634704,0.17383269516526195,-5.999344728991168,6.68170936683432,1.9688390764705814,2.3533100119076824,-6.768416578443841,-8.482362228969766,-3.384053575484103,-8.926917141006678,-7.945797964613788,3.605048628066103,-1.3022485597049143],"bias":[[9.357989983060115,2.6653714735101293,-9.62705855103079,-1.8695043204991875,-0.2610759264906826,-4.694651334202948,6.434659592138075,-8.203949476033843,-6.916709156461004,2.8256525509371544],[1.2920209387799215,9.698253555883687,1.9355642299401281,1.4532811950070388],[4.2359211066624205]],"id":0,"number":311}
