{"architecture":{"NEURONS":[10,4,1],"LAYERS":3,"totalSynapses":44},"weights":[-5.453144018344927,-5.069212782260515,-0.5583181920682944,-1.8829688881457265,10.187137482734592,-5.803648083814353,5.825017484001002,-1.0741286073469272,-4.968925381906785,0.6321266435929743,4.814120864558359,-0.47113814595455517,-3.0717916717457165,-9.660514847056724,1.7812525589183716,7.08483215527588,8.408262149098668,6.262255809268309,-2.73849203240547,6.552143955019977,8.467945673640587,4.959803150201021,8.837248380162482,3.409429885415658,1.6597779342440606,-4.429051408225619,2.3366440586767188,6.392183622247655,-2.363453744751838,9.198744638262035,-8.296861941569148,-5.944408045634704,0.3187872242512097,-6.290334217088388,7.143873763823846,1.9688390764705814,2.4299904761734625,-6.768416578443841,-8.482362228969766,-3.384053575484103,-8.926917141006678,-7.775751748071684,3.494562966838114,-2.0294202504215324],"bias":[[9.357989983060115,1.8358003002060421,-9.831880302893937,-1.656748270603864,-0.3335799592586601,-4.038473462043766,-4.471831965434038,-8.301403300372591,-7.709568766081507,2.8256525509371544],[0.6286950756085514,2.7053280254208425,1.9355642299401281,1.4532811950070388],[-8.055573300698335]],"id":0,"number":312}
