{"architecture":{"NEURONS":[10,4,1],"LAYERS":3,"totalSynapses":44},"weights":[-4.252442250684558,-4.9711746207786955,-0.07598875534436794,-2.704904275575213,9.567171368869028,-5.813475219803751,6.07783832806723,-0.9850239683056179,-4.747448231666082,1.0587444429612043,4.723762163449478,0.4759717977959653,-2.991280683510906,-9.9362882545895,1.2661325211887384,7.8084819302112765,7.689614908978815,6.16459036259291,-2.73849203240547,6.083192772686329,8.553180585914852,5.061936679730671,8.567926729001972,3.607174200432902,1.9038261021228575,-4.643373960622675,2.318999352483553,6.392183622247655,-2.3847017764435003,9.27940792345855,-8.296861941569148,-5.944408045634704,0.5118041878219819,-5.999344728991168,6.689694908125107,2.0375144964833645,2.4299904761734625,-6.586524448374679,-8.482362228969766,-3.628361921751963,-9.22324178321565,-8.468195436423523,-2.265002068999245,-1.7385701839572945],"bias":[[9.462507586591824,2.394882772123399,-9.831880302893937,-1.9624223535042546,0.0683862984258532,-4.322645096197636,-10.616819288961876,-8.35578675986873,-8.1471540183803,2.8256525509371544],[0.6286950756085514,3.040354171019762,2.376025801371353,1.203450948552808],[5.995526305551353]],"id":0,"number":313}
