{"architecture":{"NEURONS":[10,4,1],"LAYERS":3,"totalSynapses":44},"weights":[-4.149195563456523,-4.935462518181887,-0.5084832472560594,-1.8829688881457265,9.925481259792143,-5.251033027074874,5.430858504844182,-1.1515093758173882,-5.129025151702174,0.10661454747083432,4.376807428249805,-1.0592631622246187,-3.0717916717457165,-9.660514847056724,1.1001744975660213,7.8084819302112765,7.347998626847668,6.262255809268309,-2.73849203240547,6.083192772686329,8.72738335236943,4.652382922518283,9.115446982598929,3.607174200432902,1.6597779342440606,-4.54648112611587,2.3366440586767188,6.392183622247655,-2.363453744751838,9.353664920627033,-8.282539619671494,-5.944408045634704,0.5681993411695874,-5.342394358916876,7.143873763823846,1.9688390764705814,2.061274705590243,-6.768416578443841,-8.482362228969766,-3.748081832260422,-8.926917141006678,-8.05795948689504,3.605048628066103,-1.7385701839572945],"bias":[[9.357989983060115,2.8291050985299555,-9.831880302893937,-1.9828775587710898,-0.4538926497925665,-4.038473462043766,6.434659592138075,-8.203949476033843,-6.830584000950757,2.8256525509371544],[0.6286950756085514,9.149175575505225,1.9355642299401281,1.4532811950070388],[6.008302727968085]],"id":0,"number":314}
