{"architecture":{"NEURONS":[10,4,1],"LAYERS":3,"totalSynapses":44},"weights":[-4.644794586729798,-5.069212782260515,-0.5084832472560594,-1.8829688881457265,10.187137482734592,-5.586639092536916,5.430858504844182,-0.9850239683056179,-4.968925381906785,0.5575397987523398,4.412437791849217,0.5401413441429734,-2.8388056982683465,-9.581612488626533,1.1001744975660213,7.08483215527588,8.072618021111763,6.262255809268309,-2.73849203240547,6.553996392645359,8.185232329568455,5.061936679730671,8.837248380162482,3.7287337283755138,1.604781571346846,-4.595473784511571,2.3366440586767188,5.979995663442995,-2.363453744751838,8.703737076713818,-8.322756151269477,-6.207441353644164,0.50925574128867,-6.0373286995211455,6.65140012383337,1.9688390764705814,2.3533100119076824,-6.7377335642508225,-8.482362228969766,-3.743289805759253,-8.926917141006678,-8.05795948689504,3.494562966838114,-2.4502525752663606],"bias":[[9.17092647247389,2.4572781627465536,-9.56576910435601,-1.8824336773539376,0.0683862984258532,-4.609231560571073,-4.660381651588383,-8.301403300372591,-7.494759750831632,2.8256525509371544],[0.6286950756085514,3.198261101707496,9.285228318118603,1.4532811950070388],[3.6586602339706285]],"id":0,"number":315}
