{"architecture":{"NEURONS":[10,4,1],"LAYERS":3,"totalSynapses":44},"weights":[-4.149195563456523,-5.0484154535596435,-0.8207692541683553,-1.8829688881457265,9.552409100070328,-5.813475219803751,6.481543917203928,-0.9850239683056179,-4.968925381906785,1.0675145504653223,4.488303715682588,-0.5193584035137039,-3.1174711537062962,-9.581612488626533,1.3469660639395338,6.7142097120904225,7.590488360986333,6.275314136865115,-2.73849203240547,6.083192772686329,8.259167289864308,5.234204529164156,9.115446982598929,3.607174200432902,1.3413868336712786,-4.50977246841479,2.318999352483553,5.75626708912203,-2.363453744751838,9.159036211138915,-7.921577822672841,-5.679757788695277,0.33933919888992187,-6.290334217088388,6.776121295098342,1.7949707687182679,2.5439521223567207,-6.768416578443841,-8.526767428622692,-3.743289805759253,-9.19999433271782,-8.211909354644293,3.8057570781497785,-1.5769797445197415],"bias":[[9.06995395879131,2.394882772123399,-10.073971623219778,-1.8382247952235202,0.0683862984258532,-6.606413761152222,-4.660381651588383,-8.104044747897719,-7.904086655894494,2.8256525509371544],[0.8649612056794305,9.78428497651464,2.22378870446023,0.8153126246387021],[-7.928536836390744]],"id":0,"number":316}
