{"architecture":{"NEURONS":[10,4,1],"LAYERS":3,"totalSynapses":44},"weights":[-4.4283466177261825,-5.069212782260515,-0.07598875534436794,-2.704904275575213,10.164099664398655,-5.803648083814353,5.825017484001002,-1.0741286073469272,-5.129025151702174,0.5299723811642069,4.814120864558359,-0.5193584035137039,-3.169235978529847,-9.660514847056724,1.3906714751378007,8.141562530500666,7.689614908978815,6.262255809268309,-2.73849203240547,5.856325456414683,8.259167289864308,5.061936679730671,9.115446982598929,3.607174200432902,1.6597779342440606,-4.953265280164859,2.6294380653552096,6.171719435274643,-2.4528315554677,9.198744638262035,-8.296861941569148,-6.085467170793031,0.4039429122248923,-5.342394358916876,6.68170936683432,1.9688390764705814,2.652283095514785,-6.768416578443841,-8.482362228969766,-3.743289805759253,-8.859205875759173,-8.05795948689504,-2.084223812345905,-2.0294202504215324],"bias":[[9.357989983060115,2.6653714735101293,-9.62705855103079,-1.656748270603864,-0.2610759264906826,-6.634791173197838,6.434659592138075,-8.203949476033843,-7.494759750831632,3.0444545357438315],[1.0827867025101277,2.7053280254208425,9.23673832247422,1.4532811950070388],[-8.055573300698335]],"id":0,"number":317}
