{"architecture":{"NEURONS":[10,4,1],"LAYERS":3,"totalSynapses":44},"weights":[-4.313688977999798,-5.05881411791008,-0.7241995706797744,-2.2939365818604696,9.86977329140246,-5.808561651809052,5.654786485442104,-1.068266672061503,-5.1366999886548514,0.7987434658147645,4.814120864558359,-0.7652006540895869,-3.0946314127260064,-9.660514847056724,1.186055498991309,7.261345821150849,7.710308323979715,6.1249234170569,-2.505185819853346,6.3847208489863,8.493275321116869,4.806093036359652,8.84168685580045,3.607174200432902,1.6322797527954533,-4.774369532338215,2.302115269417329,5.868131376282513,-2.408142650109769,8.951240857487926,-8.296861941569148,-5.944408045634704,0.5400017644957846,-6.254654328250076,6.713760709465856,1.8700970718412053,2.448631067132202,-6.768416578443841,-8.482362228969766,-3.743289805759253,-8.998563015452184,-8.05795948689504,3.6501600224939463,-1.8145510741741957],"bias":[[-8.210585097072972,7.887789873362184,-9.00330270071606,-6.471065813131844,3.743479888511491,-7.878955696660093,8.966749034529286,0.9125918767324528,1.6558763770662992,-0.021246315200633248],[-8.162443400034396,-5.773006133535952,0.04557846906002183,-8.132709848956578],[-9.568265077320941]],"id":0,"number":318}
