{"architecture":{"NEURONS":[10,4,1],"LAYERS":3,"totalSynapses":44},"weights":[-4.4283466177261825,-4.9711746207786955,-0.5084832472560594,-2.704904275575213,10.164099664398655,-5.803648083814353,5.825017484001002,-1.1515093758173882,-5.129025151702174,0.5575397987523398,4.376807428249805,0.5401413441429734,-3.169235978529847,-9.660514847056724,1.0999285113388897,8.141562530500666,7.689614908978815,6.422556621160199,-2.6096939526795713,6.022998155151298,8.185232329568455,5.061936679730671,9.115446982598929,3.607174200432902,1.6597779342440606,-4.585193113261621,2.6294380653552096,6.324362986233259,-2.3068258092780844,9.254775126486475,-8.322756151269477,-6.085467170793031,0.50925574128867,-5.911865993608591,6.68170936683432,2.0619984792476846,2.652283095514785,-6.768416578443841,-8.482362228969766,-3.384053575484103,-9.127613270348036,-8.05795948689504,-2.084223812345905,-1.7385701839572945],"bias":[[9.058931875091865,2.6653714735101293,-9.62705855103079,-1.656748270603864,-0.2610759264906826,-4.609231560571073,-4.660381651588383,-8.203949476033843,-6.916709156461004,2.8256525509371544],[0.7387016449139047,2.7053280254208425,9.23673832247422,0.8153126246387021],[-8.055573300698335]],"id":0,"number":319}
