{"architecture":{"NEURONS":[10,7,1],"LAYERS":3,"totalSynapses":77},"weights":[-8.59410520442583,10.033588719670465,-5.21315710831612,-8.064765425216626,7.9850221338760345,8.02166957807417,0.4023982729457712,4.177747187720208,9.609600820883669,-1.8846088502910523,-2.0373659509126143,-3.5744985754417935,-7.584781981259906,-10.352031373566938,-7.0609929844284975,3.305548362808205,2.452218480808037,-3.3502419885613817,-0.10140923740644145,-9.840835435107325,3.299392520767582,-5.147061630950145,-7.084589088444377,-9.009900863488484,-6.838023295230825,-2.722271833054564,-6.799460289831419,5.296460336327797,-2.94654716479187,-0.1681763772515989,0.6718919609239974,5.79023674168902,-11.746571075319054,-5.48781739499714,-8.26732267074664,1.178162527669584,-1.4133955305509227,-1.364298802303077,-5.988708946924375,-4.663283707114402,8.661785645673438,2.1737936050938327,5.069967853097325,7.9015138209234985,-7.107068832112433,-8.892623557672422,8.439852023813764,-3.174483869107982,4.7042186292261645,-0.7578083078778763,8.262580824805735,-3.4830605431903505,-1.0358160390081164,1.307601238444784,6.5210877803272425,-4.853065509227661,7.1341945140858005,1.0437210133713886,2.1459225431455957,-7.814071743859558,3.272543219383583,6.104537610730496,0.013699293247520908,-4.381401903286084,0.21806186327959334,-2.502075158348305,-0.4385244608022851,-4.289356697636965,-7.101356211246865,1.2769294071946475,-4.889982173129591,-7.255600842824524,7.784876357697029,-7.616612294619941,-2.819703517869528,-8.750945033706888,-3.8058883517379676],"bias":[[-10.279224366863243,4.044878905412924,2.7523942801536965,7.361867405064499,-1.4195014015629022,5.754207669311545,8.458493320394734,-1.032031286250387,-1.321305698108648,1.0912201873443828],[2.992104220461895,-3.392712600484161,-3.4598191968885,-7.568759914182359,4.667183972398592,3.435775057913712,-5.036316513514877],[-2.9825926118531965]],"id":0,"number":32}
