{"architecture":{"NEURONS":[10,7,1],"LAYERS":3,"totalSynapses":77},"weights":[-5.309191884617704,2.913212119933702,0.8658740012767451,-2.5244132567661346,-6.098531955656318,8.332441215776068,5.15061810027442,0.2274528150459578,2.3101533580677027,-0.03757170939692195,1.7763051937836318,-3.137845942850252,9.887528759110449,6.051907148278097,-3.2022171432743143,-2.8483750117456506,-7.5132140636602,2.727225207756489,-9.655800181945793,-9.370449096647985,6.08827920624658,-0.6537926956930028,-2.0554354957522354,5.563359569832801,-1.0681905890651584,-7.094546849882167,-0.7937484088740889,3.2601526482142558,-2.129623502981434,3.465015041221103,8.53169002967954,7.018317897801138,5.083624819666267,6.025857635235609,-9.631602559588988,3.6996259487308376,4.604968391885233,4.643401400514701,5.221000813563037,-2.1209034586246576,5.517888584411614,-4.2421350053233615,-5.808749803391376,2.311041731684016,-7.5741678318986665,3.5430603860235172,-3.742429310431206,0.09182245057274274,3.695589561068514,6.608927037988152,2.7911145935451596,-7.775010513954045,7.781226114959977,-5.663508667450588,-3.9740224424471116,-3.890947500790425,-6.298163756757628,3.4187289554284734,-2.1090136464806526,3.6001147794616535,-6.279519833383279,-4.499707702087231,7.331318607509709,-8.613594869456504,-4.530538868547911,-2.657796271475961,-6.004427365038105,3.2627713585684974,8.313245164109283,-1.2911556748435307,-6.621822003807907,4.091424867668072,0.9374545981118022,-1.4407623966961398,7.649041740451017,5.383924947861878,-1.327002112141109],"bias":[[-7.648328719899873,4.349795450043324,-6.26187670361948,4.739231383596865,3.810172757507167,9.683724912732568,7.287789583899207,-7.270698045042779,7.34675554639243,-0.23473327829194557],[-0.2953455953602168,1.656676876005032,-4.682850799279056,-7.693674612881039,0.3167282070653331,7.3394941277526335,7.237707489120105],[-5.3695848525282575]],"id":0,"number":32}
