{"architecture":{"NEURONS":[10,4,1],"LAYERS":3,"totalSynapses":44},"weights":[-4.9495115555557385,-4.93585758157405,1.0198485280882574,-1.8790420360856679,9.45806736705668,-4.667887941026285,5.693543432808271,-1.5234051409051907,-5.844842554397221,0.30204358396165065,4.613940636674918,0.42273350242791174,-2.7415108708327938,-9.784371785546547,1.2128193157077214,7.941492711974908,7.479892832361097,6.822798069635287,-1.7360023092725463,6.7572627672355345,8.490165300461314,4.796058758461036,7.824812336261315,3.5722285386199637,2.0322079911968043,-4.005388511750406,2.4684404115260463,6.541283591073817,-3.3322049777484386,9.502114251845168,-7.868134781650866,-6.231854462400097,0.6580445208915118,-5.424577880399962,6.6811820446505985,1.04352598102701,3.0498587730785913,-6.689976637295818,-8.731664980009548,-3.4512060085313707,-8.876232604955367,-7.834790468868234,6.760365419563164,-1.427332863531124],"bias":[[-8.355311574645775,2.194726609579458,-9.664488372483046,-2.3935441495482417,1.6010029669503953,-5.176203419913459,-9.91867120468144,-7.902417424680787,-5.569148951123373,3.046509775832843],[-6.7672952264587405,6.319568422239711,2.068813076453355,0.6548853468030558],[4.636143817749678]],"id":0,"number":32}
