{"architecture":{"NEURONS":[10,4,1],"LAYERS":3,"totalSynapses":44},"weights":[-4.149195563456523,-5.0484154535596435,-0.8207692541683553,-1.8829688881457265,9.552409100070328,-5.586639092536916,5.430858504844182,-0.9850239683056179,-5.552201370914608,0.5575397987523398,4.412437791849217,0.7683371837487547,-3.1174711537062962,-9.907010146520378,0.8996886217237866,7.08483215527588,7.347998626847668,6.244235126703196,-2.9331258937621376,6.083192772686329,8.44592926866962,5.061936679730671,8.549254720079901,3.7287337283755138,1.9701109137194115,-4.50977246841479,2.3366440586767188,5.75626708912203,-2.363453744751838,9.353664920627033,-8.322756151269477,-5.944408045634704,0.5681993411695874,-6.0373286995211455,6.776121295098342,1.7949707687182679,2.3533100119076824,-6.825692933003034,-8.526767428622692,-3.743289805759253,-8.926917141006678,-8.05795948689504,3.7526704473848373,-1.7385701839572945],"bias":[[9.17092647247389,2.2365444694212417,-9.56576910435601,-1.8824336773539376,-0.23083600980829524,-4.609231560571073,-4.660381651588383,-8.301403300372591,-6.830584000950757,3.4736656613600134],[0.6286950756085514,3.198261101707496,2.22378870446023,0.8153126246387021],[6.061107826553829]],"id":0,"number":320}
