{"architecture":{"NEURONS":[10,4,1],"LAYERS":3,"totalSynapses":44},"weights":[-4.644794586729798,-5.069212782260515,-0.8207692541683553,-1.8829688881457265,9.381003225927678,-5.079176001322628,5.430858504844182,-0.9850239683056179,-4.968925381906785,0.5299723811642069,4.814120864558359,-0.47113814595455517,-2.991280683510906,-9.581612488626533,1.1202827081257933,7.797171503195958,7.652024653057493,5.987591024845491,-2.2826332373092715,6.553996392645359,8.36572897356801,5.061936679730671,8.837248380162482,3.607174200432902,1.9038261021228575,-4.7659471663030475,2.2852311863511052,6.171719435274643,-2.363453744751838,9.474465441661884,-8.296861941569148,-6.085467170793031,0.3205206563857703,-6.432967041830252,6.886221536287233,1.945223374964143,2.4299904761734625,-6.768416578443841,-8.482362228969766,-3.743289805759253,-8.926917141006678,-8.423252647723846,-2.084223812345905,-1.7385701839572945],"bias":[[9.231805567928555,2.394882772123399,-10.164995632071323,-1.9131465768613314,-0.3335799592586601,-6.634791173197838,-4.471831965434038,-8.104044747897719,-6.7784887813789885,2.834371546682431],[0.6286950756085514,3.198261101707496,9.23673832247422,1.4532811950070388],[-8.371479741554573]],"id":0,"number":321}
