{"architecture":{"NEURONS":[10,4,1],"LAYERS":3,"totalSynapses":44},"weights":[-4.738834647478398,-5.559203555692552,-0.07598875534436794,-2.704904275575213,10.187137482734592,-5.079176001322628,5.430858504844182,-1.7337147539486994,-4.90084130453186,0.6321266435929743,4.814120864558359,-0.5193584035137039,-3.3783920744628855,-9.660514847056724,1.3233258571717013,7.8084819302112765,7.689614908978815,6.262255809268309,-2.4253487597508805,6.022998155151298,8.586736956034583,4.978062669678878,8.12032989521355,3.607174200432902,1.6877416812375656,-4.953265280164859,2.460355900836751,6.324362986233259,-2.532935004862618,9.426604878509513,-8.322756151269477,-6.085467170793031,0.3187872242512097,-6.471979956979007,6.68170936683432,1.5730207526985038,2.8123243487995184,-6.605532064651781,-8.482362228969766,-3.743289805759253,-8.859205875759173,-8.042067875447628,-2.084223812345905,-1.7385701839572945],"bias":[[9.17092647247389,2.0280109671946214,-9.831880302893937,-2.0989363176100424,0.0683862984258532,-6.636003760061362,-4.471831965434038,-8.15039739387056,-7.494759750831632,3.0444545357438315],[0.6286950756085514,9.149175575505225,8.966229269719491,1.4532811950070388],[4.182429654203076]],"id":0,"number":322}
