{"architecture":{"NEURONS":[10,4,1],"LAYERS":3,"totalSynapses":44},"weights":[-4.223416436412433,-4.935462518181887,-0.8207692541683553,-1.8829688881457265,9.567171368869028,-5.079176001322628,5.256005413752904,-1.759900144312644,-5.106707303000816,0.6321266435929743,4.804563561165452,-0.47113814595455517,-2.991280683510906,-9.660514847056724,1.3906714751378007,7.08483215527588,7.689614908978815,6.262255809268309,-2.73849203240547,6.553996392645359,8.72738335236943,5.234204529164156,8.837248380162482,3.8300385815114475,1.604781571346846,-4.585193113261621,2.4124398984611846,5.75626708912203,-2.363453744751838,9.353664920627033,-8.282539619671494,-6.207441353644164,0.5681993411695874,-5.911865993608591,6.68170936683432,1.8667096717326985,2.7819866282767562,-6.768416578443841,-8.526767428622692,-3.743289805759253,-8.859205875759173,-8.423252647723846,3.8057570781497785,-1.3022485597049143],"bias":[[9.315909896408998,2.4572781627465536,-9.62705855103079,-1.656748270603864,0.23702488150529105,-6.634791173197838,-10.35606786660338,-8.203949476033843,-7.494759750831632,2.8256525509371544],[1.0827867025101277,2.930461487338418,9.384936615386211,1.4532811950070388],[4.070916240580191]],"id":0,"number":323}
