{"architecture":{"NEURONS":[10,4,1],"LAYERS":3,"totalSynapses":44},"weights":[-4.223416436412433,-4.742894233097629,-0.18639752853157487,-2.1955212043338648,9.552409100070328,-5.079176001322628,6.393776525497105,-0.9850239683056179,-4.943904828130739,0.6321266435929743,4.376807428249805,0.6187381591453054,-2.991280683510906,-9.749573504371225,0.8996886217237866,8.141562530500666,8.072618021111763,6.422556621160199,-2.5341618903335776,6.022998155151298,8.185232329568455,4.978062669678878,9.115446982598929,3.607174200432902,1.604781571346846,-4.585193113261621,2.460355900836751,5.75626708912203,-2.480256476535343,9.198744638262035,-8.322349826957229,-5.944408045634704,0.6381526379996272,-6.0373286995211455,6.68170936683432,1.7949707687182679,2.0510710604872524,-6.832530174625001,-8.482362228969766,-3.743289805759253,-9.070208889897689,-8.316309424716662,3.47529117989032,-1.7832016335440144],"bias":[[9.296132495301872,2.394882772123399,-9.495831004892537,-1.656748270603864,0.0683862984258532,-6.634791173197838,-4.471831965434038,-8.301403300372591,-6.830584000950757,2.708663676405871],[1.1917814969487674,9.149175575505225,2.082553822473812,1.4532811950070388],[-8.055573300698335]],"id":0,"number":324}
