{"architecture":{"NEURONS":[10,4,1],"LAYERS":3,"totalSynapses":44},"weights":[-4.698821664302438,-4.9711746207786955,-0.6276298871911934,-2.9233645899771696,9.567171368869028,-5.079176001322628,5.430858504844182,-1.7250881171026267,-5.304474595402918,0.7854591615745632,4.814120864558359,-1.131941591281259,-3.1436968940315877,-9.581612488626533,1.1202827081257933,7.8084819302112765,7.689614908978815,6.403437414765658,-2.73849203240547,6.022998155151298,8.185232329568455,5.234204529164156,8.567926729001972,3.5891931894597913,1.8014419674181916,-4.595473784511571,2.819407435134389,6.324362986233259,-2.363453744751838,8.898316264638005,-8.322756151269477,-5.944408045634704,0.22625718114445537,-6.432967041830252,6.68170936683432,1.5730207526985038,2.4299904761734625,-6.768416578443841,-8.482362228969766,-3.4877352308791956,-9.070208889897689,-8.316309424716662,3.494562966838114,-1.7832016335440144],"bias":[[9.243407616467513,2.394882772123399,-9.495831004892537,-1.9624223535042546,0.0683862984258532,-6.634791173197838,-4.710224678318485,-8.104044747897719,-6.843660869065154,2.702491422680388],[1.1917814969487674,3.198261101707496,2.22378870446023,0.8153126246387021],[4.182429654203076]],"id":0,"number":325}
