{"architecture":{"NEURONS":[10,4,1],"LAYERS":3,"totalSynapses":44},"weights":[-4.4283466177261825,-5.559203555692552,-0.6276298871911934,-2.1955212043338648,9.567171368869028,-5.813475219803751,5.430858504844182,-1.1515093758173882,-5.304474595402918,0.6321266435929743,4.376807428249805,0.5401413441429734,-2.991280683510906,-9.581612488626533,1.0999285113388897,7.08483215527588,7.689614908978815,5.987591024845491,-2.73849203240547,6.553996392645359,8.72738335236943,5.028804461824056,8.301775701079471,3.607174200432902,1.8014419674181916,-4.958336113266868,2.819407435134389,5.75626708912203,-2.480256476535343,9.198744638262035,-8.18331163269456,-5.944408045634704,0.22625718114445537,-6.579041719748797,6.68170936683432,1.5730207526985038,2.0510710604872524,-6.768416578443841,-8.909850910175184,-3.384053575484103,-9.070208889897689,-8.05795948689504,-2.084223812345905,-1.7832016335440144],"bias":[[9.601017925363092,2.4572781627465536,-9.831880302893937,-2.1964486913121055,0.0683862984258532,-4.609231560571073,-4.471831965434038,-8.104044747897719,-7.494759750831632,3.0444545357438315],[0.6286950756085514,3.158470563007703,2.139362215198737,1.3458106860601737],[3.6586602339706285]],"id":0,"number":326}
