{"architecture":{"NEURONS":[10,4,1],"LAYERS":3,"totalSynapses":44},"weights":[-4.507926625734573,-5.069212782260515,-0.8207692541683553,-1.8829688881457265,9.567171368869028,-5.813475219803751,6.393776525497105,-1.7250881171026267,-5.527722051188011,0.5299723811642069,4.814120864558359,-0.5193584035137039,-3.04831476829243,-9.660514847056724,1.1202827081257933,6.7142097120904225,7.689614908978815,6.262255809268309,-2.73849203240547,6.215445305327242,8.185232329568455,5.061936679730671,8.837248380162482,3.607174200432902,1.604781571346846,-4.585193113261621,2.460355900836751,6.324362986233259,-2.363453744751838,9.353664920627033,-8.282539619671494,-6.614005756614595,0.22624467112834462,-6.432967041830252,6.68170936683432,1.8667096717326985,2.7937467067400443,-6.529445589742678,-8.482362228969766,-3.743289805759253,-9.034135134662622,-7.445987566246241,3.494562966838114,-1.3022485597049143],"bias":[[9.601017925363092,2.3728915189256994,-10.164995632071323,-1.9624223535042546,-0.2610759264906826,-6.634791173197838,-4.710224678318485,-8.056018294690993,-6.843660869065154,2.8256525509371544],[1.0827867025101277,3.198261101707496,1.351062815376919,1.4532811950070388],[4.182429654203076]],"id":0,"number":327}
