{"architecture":{"NEURONS":[10,4,1],"LAYERS":3,"totalSynapses":44},"weights":[-5.316550731668516,-5.224903265608011,-0.18639752853157487,-1.8829688881457265,9.4392455167652,-5.883750187569716,5.248578257207853,-1.1515093758173882,-5.106707303000816,0.6321266435929743,4.376807428249805,-0.5193584035137039,-3.1174711537062962,-9.660514847056724,1.0999285113388897,7.8084819302112765,7.689614908978815,6.403437414765658,-2.73849203240547,6.48609348085595,8.185232329568455,5.028804461824056,8.301775701079471,3.4548872995514803,1.604781571346846,-4.953265280164859,2.283280808236771,5.75626708912203,-2.480256476535343,9.198744638262035,-8.296861941569148,-5.944408045634704,0.6381526379996272,-6.221397454844313,6.776121295098342,1.945223374964143,2.261553170777243,-6.768416578443841,-8.482362228969766,-3.6101346241507426,-9.070208889897689,-8.05795948689504,3.921488471750568,-1.7832016335440144],"bias":[[9.315909896408998,2.4572781627465536,-9.831880302893937,-1.9640423581594595,-0.3415125071058556,-6.606413761152222,-4.471831965434038,-8.203949476033843,-6.525305965624012,3.0444545357438315],[0.7411172375730857,9.149175575505225,9.384936615386211,1.4532811950070388],[4.182429654203076]],"id":0,"number":328}
