{"architecture":{"NEURONS":[10,4,1],"LAYERS":3,"totalSynapses":44},"weights":[-4.507926625734573,-5.069212782260515,-0.8207692541683553,-2.1955212043338648,9.71794578010824,-5.813475219803751,5.430858504844182,-1.610162048525889,-4.968925381906785,0.6321266435929743,4.481997156308133,-0.5193584035137039,-3.169235978529847,-9.660514847056724,1.6050725178497367,8.141562530500666,8.072618021111763,6.262255809268309,-2.73849203240547,6.553996392645359,8.185232329568455,5.061936679730671,9.115446982598929,3.607174200432902,1.604781571346846,-4.585193113261621,2.3366440586767188,5.75626708912203,-2.363453744751838,8.898316264638005,-8.322756151269477,-6.207441353644164,0.4255320100658334,-6.0373286995211455,6.767238088457976,1.7398001259642855,2.7819866282767562,-6.7377335642508225,-8.482362228969766,-3.4877352308791956,-9.109399893396839,-8.216905734195226,3.494562966838114,-1.7832016335440144],"bias":[[9.357989983060115,2.394882772123399,-10.164995632071323,-2.172383200060832,0.39104215560699557,-6.634791173197838,-4.471831965434038,-7.953506464015489,-6.843660869065154,3.016671858470023],[0.6286950756085514,9.149175575505225,2.22378870446023,1.4532811950070388],[5.995526305551353]],"id":0,"number":329}
