{"architecture":{"NEURONS":[10,7,1],"LAYERS":3,"totalSynapses":77},"weights":[-8.64300362727377,10.851860700110677,-2.2217437986970867,-6.880365282544759,7.318784061510668,6.800875922883869,0.823121874426624,5.318696268201722,11.099017208043175,-2.5354336199569367,-0.9287077829154621,-2.4306783508742424,-8.029819330598635,-9.14980149425666,-6.387259721250308,2.656887331533556,3.5494348198779195,-2.9913663601183185,0.8378634907858912,-11.52379525809314,5.668237616851359,-4.335353632938691,-8.496164598899956,-8.046364560061187,-6.660249517541084,-1.2966592032997757,-7.95057388052435,4.996148772125872,-3.930765872746509,1.3851510847714683,2.2731224141596504,7.736363915727644,-11.83940966253929,-8.029962706130911,-8.335113525076446,1.1698204766243598,-0.48905029022372737,-2.377774993341423,-4.860098232911061,-4.611112183583615,8.979186277992362,2.864434859139198,6.999299996642099,6.493235856381901,-8.12285252804392,-8.836123410207161,7.9740848110108775,-5.051592043687617,6.326107493241225,-2.24373275940884,10.257465698604342,-1.2122926274893435,-2.1944522375348243,3.3684633978911207,6.610195592749151,-5.199827830258197,6.708508450678087,-0.4828971739852248,5.838957004783084,-9.018661985903552,5.490670188343968,4.059991039253075,1.1212073936140774,-5.472232043268917,1.1853790741025374,-4.51959201166027,-0.040026475166321795,-3.707156328315252,-7.215413633499053,-0.9828525505740661,-3.538199142024907,-7.9692912334948165,7.655574020928754,-6.893294058629844,-1.336877327527334,-7.817762645581966,-4.657800510739906],"bias":[[-9.047529546944164,2.052027974758091,3.9042395244721,6.2175380810454515,-0.6001629148478229,5.171519974492524,5.707247741785464,-0.9780155809982589,-1.6180921692469776,-1.589615987899885],[4.014806495349514,-4.452877832161778,-4.343876056466175,-6.806636178533704,2.1879374560143026,2.9392307482172626,-5.036141926380348],[-1.0711829310325593]],"id":0,"number":33}
