{"architecture":{"NEURONS":[10,7,1],"LAYERS":3,"totalSynapses":77},"weights":[-4.4523824311965114,3.7913760907805876,2.331702986777067,-1.5982069210296317,-5.2836982712918,9.3802969135667,5.450227116570346,-0.22503171840943015,2.424067086197187,-1.340860989243673,3.0331265441929194,-3.576222947088451,10.208424027995003,7.11116220417591,-3.3641235509006076,-2.34818761884175,-7.732436294471196,3.193870490560546,-9.749675664514918,-8.283960667541425,6.584906023414363,-1.49478594934672,-2.5124675343399265,5.099612595517937,0.03856970721380579,-6.7741427221430675,1.4477445955438266,3.082250744360428,-0.8598080989162309,4.8270011307906415,8.425253837163377,7.097138133360979,5.142928821381303,6.842379628291876,-9.238083353442471,5.145679582204485,3.346068867621574,4.515337966732787,5.917899122583085,-1.9639306530689131,4.543121925412937,-4.991859307395284,-5.688143898180723,2.030325568729415,-6.464824093857306,4.450719511072041,-4.158029090163208,0.09382726899157043,3.6926637786342242,5.618656927046431,2.6235768303766975,-7.106736123471983,7.631827739102164,-5.07759339535918,-3.4688889053963976,-6.389670268364839,-6.355733188133725,4.116712440027064,-0.7929007393431922,5.408822520807385,-7.700266556167935,-3.7666584591919974,7.02508596280971,-9.75418027738425,-3.695879735416647,-3.0519508585679698,-5.710702726584124,3.9484210328475706,9.257174460260304,-0.37193419804841676,-5.912746041097137,3.907032859163263,1.7866617353250462,-0.6935126945341632,6.840874811108942,4.4049270328339345,-1.9856075796595039],"bias":[[-8.697586002496426,4.796676183395863,-5.673178504043662,4.7256519858634585,1.9866672002875867,9.113456263880733,7.55722164434477,-5.997495763036073,8.113049004866092,0.49792554958222934],[-0.4060881763954999,-0.8911048346383692,-5.569912392594915,-7.890520721213741,-0.25478330077255673,6.173355162935802,7.243965186244713],[-5.631030547312709]],"id":0,"number":33}
