{"architecture":{"NEURONS":[10,4,1],"LAYERS":3,"totalSynapses":44},"weights":[-4.9495115555557385,-4.93585758157405,0.7325795191430835,-1.8790420360856679,9.599961355998795,-4.6300155428823935,5.388975194831422,-1.5234051409051907,-8.824941523159307,-0.04100669535120028,4.708270376896566,0.42273350242791174,-2.8314544540747137,-9.595764299983896,1.1922435199802113,8.057722165120712,8.022026800355047,6.822798069635287,-1.6108191896725466,6.7572627672355345,8.490165300461314,4.906528325556119,7.617127408506445,3.5722285386199637,1.9978978553689493,-3.9520855578940552,2.4684404115260463,6.333018862728503,-3.3322049777484386,9.442379145508696,-7.779340784320755,-6.231854462400097,0.6580445208915118,-5.229185773492982,6.592897665643293,1.7153931173358827,2.4167149428455237,-6.994331909984063,-8.920287607614968,-3.3904519301229104,-8.680429400348162,-7.735914990535486,-0.9296561784014692,-1.9108642340504376],"bias":[[-8.625926697232106,2.194726609579458,-9.638281380756686,-2.3935441495482417,1.4721671687507494,-5.176203419913459,-9.83565943536265,-6.604274200473044,-1.939096282499726,2.9387931116759454],[-7.192084991397948,6.319568422239711,1.5403513395065875,0.7152195645105002],[4.90103905267648]],"id":0,"number":33}
