{"architecture":{"NEURONS":[10,4,1],"LAYERS":3,"totalSynapses":44},"weights":[-4.644794586729798,-5.069212782260515,-0.8207692541683553,-1.8829688881457265,9.216184592412187,-5.079176001322628,6.393776525497105,-1.1515093758173882,-4.968925381906785,0.5299723811642069,4.968267826305413,-1.2084234077565794,-3.04831476829243,-9.910343422253117,1.1202827081257933,6.7142097120904225,7.689614908978815,6.262255809268309,-2.2718796073012224,6.553996392645359,8.259167289864308,5.028804461824056,8.301775701079471,3.3674313184527893,1.604781571346846,-4.145308662680725,2.3366440586767188,5.534242824540397,-2.480256476535343,9.198744638262035,-8.322756151269477,-6.207441353644164,0.2555605076845522,-5.911865993608591,6.68170936683432,1.5730207526985038,2.3533100119076824,-6.768416578443841,-8.526767428622692,-3.6101346241507426,-9.070208889897689,-7.445987566246241,3.47529117989032,-2.369516911502117],"bias":[[8.98054051834927,2.6653714735101293,-9.56576910435601,-1.9624223535042546,0.07921633332755966,-6.634791173197838,-4.660381651588383,-8.045481227648642,-7.494759750831632,2.702491422680388],[0.8649612056794305,2.9801796565041068,9.23673832247422,1.4532811950070388],[3.6586602339706285]],"id":0,"number":330}
