{"architecture":{"NEURONS":[10,4,1],"LAYERS":3,"totalSynapses":44},"weights":[-5.316550731668516,-5.701515904044612,-0.18639752853157487,-1.7948802067728955,9.552409100070328,-5.813475219803751,5.248578257207853,-1.7250881171026267,-5.304474595402918,0.5299723811642069,4.814120864558359,-0.5193584035137039,-2.991280683510906,-9.660514847056724,1.6050725178497367,6.7142097120904225,7.689614908978815,6.262255809268309,-2.73849203240547,6.552143955019977,8.756205701624332,4.652382922518283,8.301775701079471,3.669063344462693,1.604781571346846,-4.50977246841479,2.3735589088898688,6.409368436070002,-2.363453744751838,9.198744638262035,-8.505053699766433,-5.944408045634704,0.2555605076845522,-6.432967041830252,6.68170936683432,1.8667096717326985,2.617659045721493,-6.779953184585236,-8.482362228969766,-3.4877352308791956,-8.802081235642893,-7.0704368825029915,3.75561283641085,-1.7385701839572945],"bias":[[9.63578880992468,2.4572781627465536,-9.687588200459912,-2.172383200060832,-0.6978679522994435,-6.765749973509103,-4.471831965434038,-8.056018294690993,-7.851570110333409,3.016671858470023],[0.7411172375730857,9.149175575505225,9.23673832247422,1.4532811950070388],[4.182429654203076]],"id":0,"number":331}
