{"architecture":{"NEURONS":[10,4,1],"LAYERS":3,"totalSynapses":44},"weights":[-4.273219285483652,-5.559203555692552,-0.8207692541683553,-1.8829688881457265,10.187137482734592,-5.079176001322628,5.321593352864835,-1.7250881171026267,-5.217438880571056,0.5299723811642069,4.814120864558359,-1.203247266742059,-2.991280683510906,-9.350589650708457,1.1202827081257933,7.853139398946655,7.689614908978815,6.262255809268309,-2.709681827602243,6.553996392645359,8.259167289864308,5.067600314612553,8.837248380162482,3.607174200432902,2.005628291113985,-4.236622464788682,2.402981581692651,6.409368436070002,-2.363453744751838,8.898316264638005,-8.430734082714885,-6.085467170793031,0.2555605076845522,-6.432967041830252,6.68170936683432,1.5730207526985038,2.3050099191642484,-6.7934458755880724,-8.526767428622692,-3.743289805759253,-8.802081235642893,-8.05795948689504,-2.084223812345905,-0.919257525729331],"bias":[[9.160802269202462,2.3357858139963623,-9.612645255360038,-1.8382247952235202,-0.02897990538984803,-6.606413761152222,-4.471831965434038,-8.076460308176465,-7.51724008641512,2.9811100773658525],[1.1917814969487674,9.149175575505225,9.08435820545124,1.4532811950070388],[4.182429654203076]],"id":0,"number":332}
