{"architecture":{"NEURONS":[10,4,1],"LAYERS":3,"totalSynapses":44},"weights":[-4.644794586729798,-5.069212782260515,-0.870631910897664,-2.7922340437814253,9.567171368869028,-5.883750187569716,5.321593352864835,-1.7250881171026267,-4.968925381906785,0.11707646707072306,4.376807428249805,-0.5193584035137039,-2.991280683510906,-9.660514847056724,1.2319600280266627,7.8084819302112765,7.689614908978815,6.262255809268309,-2.73849203240547,6.215445305327242,8.185232329568455,5.061936679730671,8.837248380162482,3.7287337283755138,1.8014419674181916,-4.953265280164859,2.3246206143480763,5.75626708912203,-2.363453744751838,8.898316264638005,-8.282539619671494,-6.207441353644164,0.5040779694423514,-6.0373286995211455,6.767238088457976,1.8667096717326985,2.7819866282767562,-6.768416578443841,-8.482362228969766,-3.4877352308791956,-9.070208889897689,-8.316309424716662,3.921488471750568,-1.7832016335440144],"bias":[[9.63578880992468,2.3728915189256994,-9.62705855103079,-1.9624223535042546,0.0683862984258532,-6.606413761152222,-4.710224678318485,-8.203949476033843,-7.494759750831632,2.8256525509371544],[1.1917814969487674,9.149175575505225,9.23673832247422,1.3458106860601737],[5.995526305551353]],"id":0,"number":333}
