{"architecture":{"NEURONS":[10,4,1],"LAYERS":3,"totalSynapses":44},"weights":[-4.644794586729798,-5.247333036937219,-0.8207692541683553,-1.7873287888303249,9.813191499749895,-5.484023600993561,5.285085805036344,-1.5728091029173297,-4.9564151050187615,0.32352442411746496,4.5954641464040815,-0.6322565374818236,-3.080258331020376,-9.621063667841629,0.8373119845466233,7.213828020867803,7.922769936485137,6.262255809268309,-2.73849203240547,6.397528848993051,8.357548427083827,5.0482023882183045,8.837752599038149,3.667953964404208,1.7024042341088488,-4.237546884733836,2.3246206143480763,6.082817762596016,-2.48725793324785,9.010198747778883,-8.309809046419312,-6.075924699639434,0.5066668553655107,-6.078402343289899,6.685993223068184,1.7591220638313234,2.605988552225109,-6.826279136403933,-8.482362228969766,-3.71233929376715,-9.109399893396839,-7.618990046793915,0.689641296825493,-1.5908437557589579],"bias":[[8.121130782302735,-5.617109287182547,4.016672570069687,6.068061691106781,-1.4429242453184372,7.47473452756396,8.264394458039138,-2.069076486774164,3.0795991914566265,-8.253693645868118],[7.860116253727153,-8.068332332299073,-4.086023240737305,-4.144318745180319],[4.903128766459478]],"id":0,"number":334}
