{"architecture":{"NEURONS":[10,4,1],"LAYERS":3,"totalSynapses":44},"weights":[-4.644794586729798,-5.069212782260515,-0.8207692541683553,-1.8829688881457265,10.187137482734592,-5.888871200664494,5.248578257207853,-1.269867116576667,-4.968925381906785,0.11707646707072306,4.376807428249805,-0.5193584035137039,-2.991280683510906,-9.660514847056724,1.6050725178497367,7.8084819302112765,8.15592496399146,6.278648453203373,-2.709681827602243,6.241061305340745,8.452049077441558,4.856969693428725,8.96239263641261,3.607174200432902,1.8297890779786725,-4.329785106786946,2.3246206143480763,5.75626708912203,-2.472862692392431,8.821652857295733,-8.296861941569148,-6.207441353644164,0.3205206563857703,-5.723837644749547,6.767238088457976,1.5730207526985038,2.7819866282767562,-6.8841416943640255,-7.849272876663918,-3.743289805759253,-9.109399893396839,-6.921670668871168,-2.084223812345905,-1.3984858779739013],"bias":[[9.243407616467513,2.551924211618148,-10.164995632071323,-1.9912192640697635,0.39104215560699557,-6.6272061129462685,-4.710224678318485,-8.460001410980912,-7.280268227948801,2.8256525509371544],[1.1917814969487674,9.149175575505225,2.0130553431609064,1.3458106860601737],[3.6080673316302825]],"id":0,"number":335}
