{"architecture":{"NEURONS":[10,4,1],"LAYERS":3,"totalSynapses":44},"weights":[-4.459006936106725,-5.314208168976533,-0.8207692541683553,-1.9070282833644678,10.187137482734592,-5.484023600993561,5.285085805036344,-1.1274455424411425,-5.093182131238921,0.32352442411746496,4.5954641464040815,-0.8613028351278815,-2.991280683510906,-9.660514847056724,1.3626776129877651,7.830810664578966,7.8887069727237575,6.207876365389485,-2.7240869300038564,6.397528848993051,8.355608183652933,5.129147655505841,8.899820508287545,3.682092555015915,1.7172853246627593,-4.361889462295287,2.363801098020364,6.082817762596016,-2.3799279055602414,8.98877269778025,-8.363798012142016,-6.075924699639434,0.28804058203516125,-6.078402343289899,6.68170936683432,1.719865212215601,2.4617097354143165,-6.294375238185818,-8.50456482879623,-3.743289805759253,-8.955740564519866,-7.521598460459945,-2.084223812345905,-1.4228929379219184],"bias":[[9.66981526192907,4.062392993343343,3.1580232231256353,8.56900241210099,1.3147443553658142,5.0243367129854395,-5.685951251476022,-0.12386945813583594,-2.499458498120363,8.007739258499406],[7.6311029217134525,-4.534045142770051,-2.6856608779395934,-8.629176616800285],[4.597312368592075]],"id":0,"number":336}
