{"architecture":{"NEURONS":[10,4,1],"LAYERS":3,"totalSynapses":44},"weights":[-5.316550731668516,-5.559203555692552,-0.8207692541683553,-2.1703658904036853,9.49049006810212,-5.079176001322628,5.248578257207853,-1.875751089257992,-5.217438880571056,0.5299723811642069,4.814120864558359,-0.5193584035137039,-2.991280683510906,-9.581612488626533,1.6050725178497367,7.8084819302112765,7.689614908978815,6.262255809268309,-2.73849203240547,6.553996392645359,8.467945673640587,5.067600314612553,8.301775701079471,3.7287337283755138,1.604781571346846,-4.953265280164859,2.281296851453692,6.0299050196604504,-2.480256476535343,9.198744638262035,-8.505053699766433,-5.944408045634704,0.511582730036803,-6.432967041830252,6.816636093702354,1.8667096717326985,2.4299904761734625,-6.768416578443841,-8.526767428622692,-3.4877352308791956,-9.109399893396839,-8.535965134266306,3.9872356606681856,-1.7832016335440144],"bias":[[9.244297777241814,2.552997839918089,-9.97466949721249,-1.9624223535042546,0.0683862984258532,-6.765749973509103,-4.697546649326562,-8.22165140990426,-7.905699954355721,3.053164386842652],[1.1917814969487674,8.9603441439893,9.23673832247422,1.2186195609949215],[4.425759932210524]],"id":0,"number":337}
