{"architecture":{"NEURONS":[10,4,1],"LAYERS":3,"totalSynapses":44},"weights":[-5.185689095152225,-5.559203555692552,-0.18639752853157487,-2.1703658904036853,9.35998520559995,-6.147484578798944,5.321593352864835,-0.9850239683056179,-4.943904828130739,0.5299723811642069,4.814120864558359,-0.5193584035137039,-3.1174711537062962,-9.573230725275117,1.1202827081257933,7.320518161359687,7.689614908978815,6.403437414765658,-2.73849203240547,6.552143955019977,8.467945673640587,5.224117889763052,8.301775701079471,3.669063344462693,1.7298300596274794,-5.037963600325188,2.402981581692651,6.409368436070002,-2.2655964211601254,9.198744638262035,-8.505053699766433,-6.207441353644164,0.511582730036803,-6.0373286995211455,6.845362900293438,1.8667096717326985,2.4299904761734625,-6.529445589742678,-8.482362228969766,-3.4877352308791956,-9.47520534464455,-8.645405682981584,3.494562966838114,-1.1552522252071502],"bias":[[9.315909896408998,2.4572781627465536,-9.97466949721249,-2.487590111094457,0.17533618921292826,-6.765749973509103,-4.710224678318485,-8.076460308176465,-7.905699954355721,2.8256525509371544],[0.6286950756085514,8.9603441439893,9.23673832247422,1.2186195609949215],[4.425759932210524]],"id":0,"number":338}
