{"architecture":{"NEURONS":[10,4,1],"LAYERS":3,"totalSynapses":44},"weights":[-5.392507110535708,-4.935462518181887,-0.18639752853157487,-1.8280700953707887,10.187137482734592,-5.753826145457669,5.026766607799917,-1.7250881171026267,-5.020205834298242,0.5299723811642069,4.814120864558359,-0.5193584035137039,-3.175456566882108,-9.498276048801847,1.1202827081257933,7.8084819302112765,7.689614908978815,6.262255809268309,-2.510344699123899,6.444748687369122,8.263047776726095,5.769716911163924,8.837248380162482,3.5539013274533167,1.604781571346846,-4.329785106786946,2.131178784380911,6.409368436070002,-2.3799834360915733,9.198744638262035,-8.322756151269477,-6.288586622171609,0.042153401474843005,-5.911865993608591,6.68170936683432,1.5730207526985038,2.4299904761734625,-7.1373233013603095,-8.482362228969766,-3.5706439088757183,-9.109399893396839,-6.955883511158361,3.494562966838114,-1.7832016335440144],"bias":[[9.315909896408998,2.6010529176267227,-10.164995632071323,-1.9624223535042546,-0.6514935203144224,-6.606413761152222,-4.836180797509041,-8.076460308176465,-7.851570110333409,2.8256525509371544],[1.256688360492556,3.224118432609592,9.143657745834226,1.2186195609949215],[3.498205623176875]],"id":0,"number":339}
