{"architecture":{"NEURONS":[10,7,1],"LAYERS":3,"totalSynapses":77},"weights":[-9.152822357811973,10.19969389209287,-5.01488582686004,-7.188432247879658,7.426934663013711,5.386926840311217,-0.1041592109549343,3.2266051768732624,10.040254070146574,0.9437329002320498,-2.0437047786362244,-1.7365031246345395,-7.986906472729542,-9.54831195880716,-7.245944475694406,2.496003821721932,3.983943327491165,-4.169110300152185,0.7628015426179044,-8.75610653274432,1.2646814999321796,-2.00980988098376,-7.285283761799301,-9.539807234825265,-9.173562853360995,-1.2813138438450096,-10.323128442586286,5.881339469254116,-2.3281874104656666,1.7700199094826337,0.8992268154950274,8.424693885331731,-10.942539585482125,-3.9618020671193075,-10.07745732084385,0.8041000733544708,-0.21381256781247646,-0.37598681856797594,-7.705462626058566,-2.1061710989132263,7.856819769345235,3.9356189697242243,4.932097791574238,8.352291651841677,-6.796794747385029,-10.948846576699328,7.384944838875677,-5.516074692799135,5.844901452392638,0.9352315850720593,7.883297903980964,-2.0125443644051693,-3.0220282979602784,3.9760126505830633,5.570444513194297,-6.218230822205361,5.7505773177376485,0.7986282327224814,1.6158757716152217,-8.826300275333079,3.8762061619333132,4.990315263028808,1.8516328835765996,-3.7703129336702346,-1.5545977202103298,-2.2750826380986964,-0.5189917212506041,-3.0126889695056778,-6.910197601072827,1.7183736143630541,-2.5728199645285623,-8.5968238893118,8.607354443276327,-7.266450556988285,-3.3151265978877427,-6.960486735697747,-4.265996244987689],"bias":[[-10.155709801604269,1.786618171809566,3.739771239379424,5.9569008070628495,-1.6878252301891488,4.784941711542564,10.065830290979822,-0.374199472503914,-0.42283006496091524,-1.2489916217532022],[0.8214864104126572,-3.585607960402913,-4.861484696435433,-8.66037978269001,3.002527554592938,4.171564440809866,-5.06671500927463],[-2.160621630660856]],"id":0,"number":34}
