{"architecture":{"NEURONS":[10,4,1],"LAYERS":3,"totalSynapses":44},"weights":[-4.084588226985322,-4.906133667900615,0.7166424636054856,-1.8790420360856679,9.599961355998795,-4.6300155428823935,5.884035779026262,-1.5234051409051907,-5.844842554397221,0.30204358396165065,4.708270376896566,0.42273350242791174,-2.7415108708327938,-9.712699792964166,1.2096503239882859,8.205630999770344,7.626309713299348,6.528545579580549,-2.3603307239844704,6.109953550031086,8.490165300461314,4.796058758461036,7.689450183506782,3.5722285386199637,1.773748766242997,-3.9354358934056086,2.4684404115260463,6.811813203320226,1.5497961646479843,9.502114251845168,-7.868134781650866,-6.231854462400097,0.6580445208915118,-5.424577880399962,6.6811820446505985,1.04352598102701,3.0498587730785913,-6.689976637295818,-8.731664980009548,-3.4512060085313707,-8.95994637968117,-7.666677203903815,6.760365419563164,-2.0618273056311502],"bias":[[-7.99913188913912,2.361894531642958,-9.051363977118196,-2.232100574296333,1.3311489911721885,-5.086010529657615,-9.91867120468144,-6.604274200473044,-5.595090931022022,3.046509775832843],[-6.7672952264587405,6.319568422239711,1.5403513395065875,0.6548853468030558],[4.636143817749678]],"id":0,"number":34}
