{"architecture":{"NEURONS":[10,4,1],"LAYERS":3,"totalSynapses":44},"weights":[-4.273219285483652,-5.559203555692552,-0.7000191725539832,-1.8829688881457265,9.37957025587604,-5.862059425190068,5.367228198058336,-1.875751089257992,-4.759322167107035,0.8389559913821814,4.814120864558359,-1.0679593040946929,-2.991280683510906,-9.350705983722362,1.102730897007529,7.8084819302112765,7.689614908978815,6.024704063474907,-2.73849203240547,6.319343352121326,8.263047776726095,5.067600314612553,8.697255232147963,3.547394117217979,1.604781571346846,-4.50977246841479,2.3735589088898688,6.409368436070002,-2.480256476535343,9.198744638262035,-8.322756151269477,-5.9848634821386835,0.3205206563857703,-6.0373286995211455,6.547745901562314,1.8667096717326985,2.7122009972023857,-6.768416578443841,-8.520123361744592,-3.4877352308791956,-9.051835318406113,-8.05795948689504,-2.084223812345905,-1.7385701839572945],"bias":[[9.244297777241814,2.552997839918089,-10.164995632071323,-1.9624223535042546,-0.4538926497925665,-6.606413761152222,-4.677849343492131,-8.659271488764356,-6.663496931242402,2.8256525509371544],[0.88453121850194,9.210402302636314,9.23673832247422,1.4140400476377293],[4.504592595221979]],"id":0,"number":340}
