{"architecture":{"NEURONS":[10,4,1],"LAYERS":3,"totalSynapses":44},"weights":[-4.644794586729798,-5.559203555692552,-0.18639752853157487,-1.8829688881457265,9.567171368869028,-5.753826145457669,5.321593352864835,-1.5718141788653046,-5.244315970615821,0.5299723811642069,4.613929833763527,-0.5193584035137039,-2.991280683510906,-9.660514847056724,1.177599494288197,7.853139398946655,8.151484036659836,6.277055828687106,-2.1677710372261942,6.446563442101427,8.185232329568455,4.652382922518283,8.937191952856807,3.607174200432902,1.7298300596274794,-4.382843981673148,2.2957673426088308,6.754115354954589,-2.3799834360915733,8.898316264638005,-8.430734082714885,-5.9848634821386835,0.4255320100658334,-6.129363077182729,6.767238088457976,1.7398001259642855,2.4299904761734625,-6.768416578443841,-8.482362228969766,-3.6101346241507426,-9.109399893396839,-8.05795948689504,3.494562966838114,-1.3022485597049143],"bias":[[10.056239605163272,2.394882772123399,-9.56576910435601,-1.9624223535042546,0.09334074357812934,-6.634791173197838,-4.471831965434038,-8.27548084513003,-6.830584000950757,2.8256525509371544],[1.1917814969487674,3.198261101707496,9.23673832247422,1.4532811950070388],[4.182429654203076]],"id":0,"number":341}
