{"architecture":{"NEURONS":[10,4,1],"LAYERS":3,"totalSynapses":44},"weights":[-5.316550731668516,-5.247333036937219,-0.7000191725539832,-1.7060060030302724,9.567171368869028,-5.079176001322628,5.026766607799917,-1.1515093758173882,-5.448607503933758,0.5299723811642069,4.814120864558359,-0.5193584035137039,-3.0962957259452484,-9.660514847056724,1.2964497746324781,7.261345821150849,8.072618021111763,6.024704063474907,-2.7608516363693982,6.446563442101427,8.263047776726095,4.901545799428857,8.596850525764363,3.669063344462693,1.7298300596274794,-4.50977246841479,2.3246206143480763,6.409368436070002,-2.363453744751838,9.198744638262035,-8.296861941569148,-5.944408045634704,0.042153401474843005,-6.0373286995211455,6.767238088457976,1.7398001259642855,2.5480338635821864,-6.83934693338764,-8.482362228969766,-3.743289805759253,-9.109399893396839,-8.05795948689504,-2.084223812345905,-1.7832016335440144],"bias":[[9.315909896408998,2.394882772123399,-10.164995632071323,-1.9624223535042546,0.1259929244970827,-4.829372070639043,-4.471831965434038,-8.076460308176465,-7.851570110333409,2.8256525509371544],[1.1917814969487674,9.039133353577624,9.23673832247422,1.6325256479379457],[4.182429654203076]],"id":0,"number":342}
