{"architecture":{"NEURONS":[10,4,1],"LAYERS":3,"totalSynapses":44},"weights":[-5.316550731668516,-5.559203555692552,-0.18639752853157487,-1.5014471909714207,9.4392455167652,-5.753826145457669,5.285085805036344,-1.523433296481986,-5.304474595402918,0.5299723811642069,4.613929833763527,-0.5193584035137039,-2.991280683510906,-9.621063667841629,1.177599494288197,7.830810664578966,8.072618021111763,6.262255809268309,-2.5341618903335776,6.553996392645359,8.185232329568455,5.129147655505841,8.596850525764363,3.607174200432902,1.7298300596274794,-4.50977246841479,2.3246206143480763,6.409368436070002,-2.363453744751838,9.116239986939632,-8.430734082714885,-6.207441353644164,0.2555605076845522,-6.432967041830252,6.68170936683432,1.5730207526985038,2.4299904761734625,-6.768416578443841,-8.482362228969766,-3.743289805759253,-8.802081235642893,-8.316309424716662,-2.084223812345905,-1.7832016335440144],"bias":[[9.315909896408998,2.189083850645035,-10.164995632071323,-1.5344616712295014,0.39104215560699557,-6.634791173197838,-4.710224678318485,-8.45186999755543,-7.032360652253606,2.8256525509371544],[7.6311029217134525,9.882919501428304,9.23673832247422,1.4532811950070388],[3.6080673316302825]],"id":0,"number":343}
