{"architecture":{"NEURONS":[10,4,1],"LAYERS":3,"totalSynapses":44},"weights":[-4.273219285483652,-5.247333036937219,-0.8207692541683553,-2.0699893489438033,9.4392455167652,-5.331463565154729,5.285085805036344,-1.7250881171026267,-5.217438880571056,0.4693121527527053,4.7658246102826975,-1.0679593040946929,-3.04831476829243,-9.660514847056724,1.102730897007529,7.853139398946655,8.072618021111763,6.024704063474907,-2.1677710372261942,6.319343352121326,8.263047776726095,5.067600314612553,8.697255232147963,3.607174200432902,1.7298300596274794,-4.953265280164859,2.402981581692651,6.409368436070002,-2.480256476535343,9.198744638262035,-8.282539619671494,-6.245133872152761,0.4255320100658334,-6.0373286995211455,6.68170936683432,1.8667096717326985,2.4299904761734625,-6.768416578443841,-8.526767428622692,-3.4877352308791956,-9.109399893396839,-8.316309424716662,3.9872356606681856,-1.5944288690278894],"bias":[[9.376269684629925,2.552997839918089,-10.164995632071323,-1.9624223535042546,0.07921633332755966,-6.606413761152222,-4.6492652326814135,-8.076460308176465,-7.851570110333409,2.8256525509371544],[7.6311029217134525,9.149175575505225,9.23673832247422,1.4140400476377293],[4.504592595221979]],"id":0,"number":344}
