{"architecture":{"NEURONS":[10,4,1],"LAYERS":3,"totalSynapses":44},"weights":[-4.273219285483652,-5.559203555692552,-0.18639752853157487,-2.2041396107108255,9.524100818410849,-6.147484578798944,5.321593352864835,-1.7250881171026267,-5.244315970615821,0.8389559913821814,4.962125693566571,-0.5193584035137039,-2.736520870624809,-9.581612488626533,1.2964497746324781,7.33287702466291,8.072618021111763,6.277055828687106,-2.7608516363693982,6.446563442101427,8.185232329568455,5.061936679730671,8.837248380162482,3.669063344462693,1.7298300596274794,-4.704095944105458,2.3246206143480763,6.409368436070002,-1.888739575890152,9.198744638262035,-8.296861941569148,-5.9848634821386835,0.042153401474843005,-6.690403583957541,6.767238088457976,1.5730207526985038,2.4299904761734625,-6.7377335642508225,-8.482362228969766,-3.4877352308791956,-9.109399893396839,-8.05795948689504,-2.084223812345905,-1.157061963529383],"bias":[[9.028923069335425,2.6181638251832435,-9.831880302893937,-2.487590111094457,0.09334074357812934,-6.468694650992315,-4.660381651588383,-8.27548084513003,-7.494759750831632,3.053164386842652],[0.33833520600587735,8.9603441439893,9.23673832247422,1.4532811950070388],[4.070916240580191]],"id":0,"number":345}
