{"architecture":{"NEURONS":[10,4,1],"LAYERS":3,"totalSynapses":44},"weights":[-5.316550731668516,-5.359989696449903,-0.7000191725539832,-1.8829688881457265,9.69478772058336,-5.079176001322628,5.329603583714667,-1.1515093758173882,-5.030325714880457,0.5299723811642069,4.814120864558359,-0.5193584035137039,-3.0962957259452484,-9.660514847056724,1.2964497746324781,7.261345821150849,7.689614908978815,6.024704063474907,-2.7608516363693982,6.446563442101427,8.263047776726095,4.901545799428857,8.596850525764363,3.63137317178767,1.622036133180955,-4.50977246841479,1.6416783148309289,6.226924612772836,-2.363453744751838,9.177694067068431,-8.296861941569148,-6.022166767529937,0.3205206563857703,-6.0373286995211455,6.597923135572309,1.8667096717326985,2.7122009972023857,-6.83934693338764,-8.482362228969766,-3.743289805759253,-9.270706486173937,-8.05795948689504,-2.084223812345905,-1.7832016335440144],"bias":[[9.315909896408998,2.552997839918089,-10.237604349043403,-1.9624223535042546,0.1259929244970827,-6.634791173197838,-4.677849343492131,-8.4633034348614,-7.851570110333409,2.8256525509371544],[1.1917814969487674,9.149175575505225,9.23673832247422,1.8028067706982993],[4.182429654203076]],"id":0,"number":346}
