{"architecture":{"NEURONS":[10,4,1],"LAYERS":3,"totalSynapses":44},"weights":[-5.316550731668516,-5.051687897053954,-1.0876506710334835,-1.564073431008288,9.49049006810212,-5.4814630944461715,5.026766607799917,-1.1274455424411425,-5.304474595402918,0.5299723811642069,4.5954641464040815,-1.203247266742059,-2.991280683510906,-9.660514847056724,1.6050725178497367,7.830810664578966,7.650860976548166,6.024704063474907,-2.73849203240547,6.553996392645359,8.263047776726095,4.901545799428857,8.697255232147963,3.607174200432902,1.604781571346846,-4.50977246841479,1.6416783148309289,6.409368436070002,-1.888739575890152,9.198744638262035,-8.282539619671494,-5.9848634821386835,0.3205206563857703,-6.432967041830252,6.547745901562314,1.5730207526985038,2.4299904761734625,-6.768416578443841,-8.482362228969766,-3.611110912942028,-8.802081235642893,-8.05795948689504,-2.084223812345905,-1.7832016335440144],"bias":[[9.315909896408998,2.6181638251832435,-10.343193518122515,-1.9624223535042546,0.272380118747865,-4.829372070639043,-4.471831965434038,-8.076460308176465,-7.851570110333409,2.8256525509371544],[1.1917814969487674,9.149175575505225,9.23673832247422,1.4532811950070388],[3.9313809097567223]],"id":0,"number":347}
