{"architecture":{"NEURONS":[10,4,1],"LAYERS":3,"totalSynapses":44},"weights":[-5.316550731668516,-4.935462518181887,-0.7000191725539832,-2.2041396107108255,9.567171368869028,-5.331463565154729,5.248578257207853,-1.875751089257992,-5.448607503933758,0.5299723811642069,4.613929833763527,-0.9388291462083254,-2.991280683510906,-9.660514847056724,1.3906714751378007,6.7142097120904225,7.689614908978815,6.277055828687106,-2.7608516363693982,6.319343352121326,8.185232329568455,4.901545799428857,8.837248380162482,3.63137317178767,1.604781571346846,-4.50977246841479,1.6416783148309289,6.082817762596016,-2.363453744751838,8.557697910836888,-8.296861941569148,-6.288586622171609,0.3205206563857703,-6.0373286995211455,6.991216356116752,1.5730207526985038,2.5480338635821864,-6.722700199092159,-8.482362228969766,-3.4877352308791956,-9.109399893396839,-7.955144913101635,-2.084223812345905,-1.5944288690278894],"bias":[[9.244297777241814,2.2828887246439664,-9.56576910435601,-1.9624223535042546,0.1259929244970827,-6.634791173197838,-4.660381651588383,-8.45186999755543,-6.830584000950757,2.8256525509371544],[1.1917814969487674,9.040042104667812,2.0130553431609064,1.4532811950070388],[4.504592595221979]],"id":0,"number":348}
