{"architecture":{"NEURONS":[10,4,1],"LAYERS":3,"totalSynapses":44},"weights":[-4.273219285483652,-5.247333036937219,-0.18639752853157487,-2.0036198526902136,9.567171368869028,-5.753826145457669,5.641375799259951,-1.1274455424411425,-5.304474595402918,0.8389559913821814,4.773091649439823,-0.762290553200986,-2.9664149869254777,-9.628502918515188,1.5247446150078465,6.7142097120904225,8.120633445576113,6.134415905774148,-2.8487055353414634,6.90696744898984,8.185232329568455,4.629268548652517,8.837248380162482,3.8394903669310554,1.7298300596274794,-4.50977246841479,2.402981581692651,6.409368436070002,-1.888739575890152,9.420841901529402,-8.349120510997448,-5.9848634821386835,0.3205206563857703,-6.432967041830252,6.767238088457976,1.7398001259642855,2.4348060601392993,-6.678850085418348,-8.46574226729505,-3.6928522145120626,-9.109399893396839,-7.0704368825029915,3.5508287756654644,-1.7832016335440144],"bias":[[9.234003158047388,2.6106695275240783,-9.97466949721249,-2.487590111094457,-0.4538926497925665,-6.468694650992315,-4.720854122726823,-8.400466471911294,-6.830584000950757,2.8256525509371544],[1.0364754095905786,8.953497065483715,9.12352473942909,1.4532811950070388],[5.354695045221234]],"id":0,"number":349}
