{"architecture":{"NEURONS":[10,7,1],"LAYERS":3,"totalSynapses":77},"weights":[-9.573891095854753,11.5724667699391,-5.118386349249161,-9.211977652828542,6.987417732434824,7.307225593087686,0.6567163339591463,5.636052665855472,9.558991554758055,-1.4662387673362893,-1.6839466669708418,-1.467634918257915,-8.356518646035104,-9.708873285713457,-7.307634127307987,2.6425043753129094,4.207226458602488,-3.580811492331524,2.0878406831330234,-8.093570933286514,5.061354085819837,-5.171450279021116,-6.475797293018234,-7.6161325975681295,-7.216723876731754,-2.252910874729939,-9.02834174671756,4.608166188664813,-3.0758618971087666,1.3929810330834207,0.8869341310483677,6.942751967323549,-10.716907743831737,-5.2024750369574235,-9.796761835000988,-0.5867799488913789,-0.6167513038668702,-1.411256143580437,-5.332295868219292,-2.526007980939658,7.395551419508918,5.095771123075047,5.47268160421965,7.6639831031080705,-8.215953130660292,-10.25156055281118,8.833911038120187,-5.0552534027112745,5.223215112556235,-0.948236977382251,7.83211584219839,-3.0411151730536523,-2.25387458517638,3.204180267947471,5.586836649645291,-6.673177938160717,5.86831936433385,-0.8193631963062327,2.4146088689759537,-9.880634092978852,5.525569237347575,5.953933699535999,3.395286559197687,-5.185735712820801,1.4449162189044573,-4.6577420433025765,-1.7449031748743806,-4.157482672773009,-8.953806066074764,0.7248367311957931,-3.7988337845810918,-6.849607851063079,7.915236924646208,-8.45698165772746,-2.0117451105268294,-9.435205739184575,-4.10440628740933],"bias":[[-9.998702801518446,2.4702510500892205,1.6513314256664346,6.020028180108792,-1.4208107062096595,5.5892675455657965,8.217694145413342,-1.86494219421667,-0.4594681520935436,-0.9855385818124074],[2.2948661364258616,-0.7951110721356256,-3.7630161592457294,-5.881017813444541,5.880532486340247,2.989872280667034,-6.202986863890414],[-2.1192303843555873]],"id":0,"number":35}
