{"architecture":{"NEURONS":[10,7,1],"LAYERS":3,"totalSynapses":77},"weights":[-4.843364251663621,4.13491929442812,0.8962272441621181,-3.0807725276594966,-5.478635592157175,9.609954343010656,5.3023030503490105,0.5320406702435785,2.5039849950668898,-0.8759452027510695,0.9076324466896766,-2.3033234400804026,9.384116860787959,6.455772684071376,-2.941728943869133,-2.687800398614052,-7.637172857056624,2.8248451986921785,-9.97439844319677,-8.902428001135855,6.043936675290633,-1.350051802355361,-1.993524162066025,4.676136132702847,-0.6123717678473546,-6.533624506186667,0.8570841082470045,3.9361063098609814,-1.2778546813976912,3.4491768954249737,9.117536490494938,7.677610825945178,5.678364748306612,6.77903141445742,-9.402176601117104,4.335772462834135,4.470072740463657,5.257111629695908,5.298067240111154,-2.8529084124906996,4.71294830072834,-4.8112780268872894,-5.9233752674422835,2.2224163754737347,-6.68984963515991,1.8719499620687203,-4.826283768605335,0.6676460020169337,4.1669652356138105,6.234507231323747,0.593810007913721,-7.334197783757779,8.038667579248186,-5.73922282488447,-3.52903180660002,-4.673800054845107,-6.853069706488338,3.749956959497067,-1.2440644475582134,3.0151527102011584,-6.637984145051821,-4.03490000542673,7.516786708065727,-8.522671800313784,-3.402643653114124,-1.9328676433056136,-5.24639966811072,3.4680858022455667,8.207865313195791,-0.826958287094558,-7.299375985173627,2.949102085696995,0.9019777738464719,-0.41689374669402923,7.177249462966244,5.198917822806095,-1.5891738556122246],"bias":[[-7.638077403852263,4.327807991757799,-6.022083550266469,5.088696150507416,3.5208682164118694,9.858075382418603,9.175063040716507,-5.749485429468561,7.05384114182328,1.1459480183033917],[0.4315427718384974,0.6331571528676129,-5.970235684503521,-8.605739855551803,1.5699735341992545,6.640523416093728,7.002461263082628],[-5.126176249437322]],"id":0,"number":35}
