{"architecture":{"NEURONS":[10,4,1],"LAYERS":3,"totalSynapses":44},"weights":[-4.9495115555557385,-4.93585758157405,1.1351643469564758,-1.9126608507086762,9.45806736705668,-4.667887941026285,5.699166746634036,-1.5234051409051907,-8.118962174617472,0.30204358396165065,4.613940636674918,0.42273350242791174,-2.8314544540747137,-10.245750622631643,1.1389161479493441,7.941492711974908,8.238339840380798,6.695614249215422,-1.7360023092725463,6.453457326596539,8.487163752574167,5.2448909508439385,7.331563873021117,3.5722285386199637,1.9978978553689493,-4.005388511750406,2.4684404115260463,6.541283591073817,-3.3322049777484386,9.060518113726147,-7.868134781650866,-6.231854462400097,0.5715685182801301,-5.554267822974435,6.463395615938818,1.04352598102701,3.028076041502512,-6.694229412098978,-8.576430209866862,-7.252084263256594,-8.878119672789996,-7.834790468868234,6.9317897378309485,-1.427332863531124],"bias":[[-8.355311574645775,2.194726609579458,-9.664488372483046,-2.3935441495482417,1.3226340592766377,-5.176203419913459,-9.91867120468144,-8.116106277592127,-5.595090931022022,3.046509775832843],[-6.7672952264587405,6.319568422239711,1.6758780832489932,0.6548853468030558],[4.636143817749678]],"id":0,"number":35}
