{"architecture":{"NEURONS":[10,4,1],"LAYERS":3,"totalSynapses":44},"weights":[-5.545772933144177,-5.559203555692552,-1.0876506710334835,-1.564073431008288,9.433449943563954,-5.331204443403335,5.321593352864835,-1.5718141788653046,-5.448607503933758,0.40865192434120373,4.5954641464040815,-0.9388291462083254,-2.991280683510906,-9.631062690475096,1.177599494288197,6.7142097120904225,7.689614908978815,6.277055828687106,-2.73849203240547,6.553070173832667,8.185232329568455,4.901545799428857,8.697255232147963,3.775161216144875,1.7298300596274794,-4.338379767492016,2.402981581692651,6.349513776005183,-2.3799834360915733,8.628410377779767,-8.153880342936572,-5.9848634821386835,0.3205206563857703,-6.093906431249684,6.597923135572309,1.7398001259642855,2.5480338635821864,-6.7115257422634675,-8.501755046656447,-3.4877352308791956,-9.109399893396839,-8.05795948689504,1.4166414464357888,-1.1552522252071502],"bias":[[9.315909896408998,2.2828887246439664,-10.164995632071323,-1.9624223535042546,-0.6514935203144224,-6.634791173197838,-4.469826956037185,-8.45186999755543,-6.830584000950757,7.024657293557276],[1.4347555805667553,8.717881339258344,2.0130553431609064,1.6325256479379457],[4.070916240580191]],"id":0,"number":350}
