{"architecture":{"NEURONS":[10,4,1],"LAYERS":3,"totalSynapses":44},"weights":[-5.25707097389204,-5.247333036937219,-0.8207692541683553,-1.564073431008288,9.69478772058336,-5.331463565154729,5.214803645767869,-1.875751089257992,-5.020205834298242,0.5299723811642069,4.858382166840424,-1.0679593040946929,-3.1622867215823445,-9.621063667841629,1.3906714751378007,7.830810664578966,7.689614908978815,6.262255809268309,-2.8487055353414634,6.90696744898984,8.185232329568455,5.067600314612553,8.697255232147963,3.607174200432902,1.7298300596274794,-4.338379767492016,2.363801098020364,6.0299050196604504,-2.480256476535343,9.116239986939632,-8.309809046419312,-5.9848634821386835,0.4255320100658334,-6.567745516943039,6.767238088457976,1.7398001259642855,2.819754983702883,-6.678850085418348,-8.482362228969766,-3.743289805759253,-9.109399893396839,-8.05795948689504,-2.084223812345905,-1.7832016335440144],"bias":[[9.751678574405593,2.3719478204267643,-10.237604349043403,-1.9624223535042546,-0.15362251493666298,-6.468694650992315,-4.660381651588383,-8.449143989616987,-6.830584000950757,2.8256525509371544],[1.1917814969487674,9.039133353577624,9.12352473942909,1.8028067706982993],[5.354695045221234]],"id":0,"number":351}
