{"architecture":{"NEURONS":[10,4,1],"LAYERS":3,"totalSynapses":44},"weights":[-5.316550731668516,-4.935462518181887,-1.0876506710334835,-2.2041396107108255,9.567171368869028,-5.753826145457669,5.214803645767869,-1.8177514897569746,-5.448607503933758,0.5299723811642069,4.613929833763527,-1.108513042411867,-3.175456566882108,-9.573230725275117,1.0999285113388897,7.830810664578966,7.689614908978815,6.277055828687106,-2.73849203240547,6.691671479147511,8.185232329568455,5.067600314612553,8.697255232147963,4.154046902355746,1.604781571346846,-4.28150166228755,1.6416783148309289,6.082817762596016,-2.3799279055602414,8.557697910836888,-8.296861941569148,-6.102303246167476,0.042153401474843005,-5.991631454608408,6.876133944859905,1.5730207526985038,2.1937446556395113,-6.722700199092159,-8.482362228969766,-3.4877352308791956,-9.109399893396839,-7.913156926735114,-2.084223812345905,-1.157061963529383],"bias":[[9.63578880992468,2.7059622603634774,-10.164995632071323,-2.487590111094457,0.0683862984258532,-4.829372070639043,-4.660381651588383,-8.104044747897719,-6.830584000950757,2.8256525509371544],[0.88453121850194,9.040042104667812,2.0130553431609064,1.4532811950070388],[4.070916240580191]],"id":0,"number":352}
