{"architecture":{"NEURONS":[10,4,1],"LAYERS":3,"totalSynapses":44},"weights":[-5.316550731668516,-5.247333036937219,-1.0876506710334835,-2.2041396107108255,9.567171368869028,-6.147484578798944,5.248578257207853,-1.4262764116322422,-5.448607503933758,0.8155159517636323,4.962125693566571,-0.9388291462083254,-3.04831476829243,-9.641545250052987,1.120609457738589,7.496160521046105,8.072618021111763,6.262255809268309,-2.821123173918384,6.553996392645359,7.926204054589746,5.413702471425797,8.837248380162482,3.669063344462693,1.89287264728672,-4.329785106786946,2.1001979043093812,6.409368436070002,-2.0010072934706766,9.198744638262035,-8.309809046419312,-6.207441353644164,0.4255320100658334,-6.432967041830252,6.767238088457976,1.7301312898765404,2.5480338635821864,-6.7115257422634675,-8.482362228969766,-3.4877352308791956,-8.967361740542136,-8.05795948689504,-2.0534917688432395,-0.7159883826082946],"bias":[[9.092130131240896,2.394882772123399,-9.97466949721249,-1.9624223535042546,0.43389540986008446,-6.634791173197838,-4.710224678318485,-8.4633034348614,-7.51724008641512,2.8256525509371544],[1.2589983473640207,9.122098780934044,9.23673832247422,1.6325256479379457],[4.504592595221979]],"id":0,"number":353}
