{"architecture":{"NEURONS":[10,4,1],"LAYERS":3,"totalSynapses":44},"weights":[-5.316550731668516,-5.247333036937219,-0.7000191725539832,-1.9168150994517426,9.49049006810212,-5.361877379435985,5.248578257207853,-1.1274455424411425,-5.448607503933758,0.5299723811642069,4.858382166840424,-0.5193584035137039,-3.0962957259452484,-9.660514847056724,1.120609457738589,6.7142097120904225,7.689614908978815,6.024704063474907,-2.73849203240547,6.553996392645359,8.417352012733652,5.413702471425797,8.837248380162482,3.607174200432902,1.604781571346846,-4.704095944105458,1.6416783148309289,6.409368436070002,-2.3799279055602414,8.491547726199585,-8.309809046419312,-6.030394090889059,0.210871237641797,-6.0373286995211455,6.825007923735115,1.5359279111397648,2.5480338635821864,-6.518030626113153,-8.482362228969766,-3.743289805759253,-8.833570034655766,-8.05795948689504,-2.084223812345905,-1.1552522252071502],"bias":[[9.822143498336217,2.394882772123399,-9.831880302893937,-1.7705606145114838,0.14449120193075865,-6.634791173197838,-4.712998182550919,-8.104044747897719,-6.663496931242402,2.8256525509371544],[1.339864214658569,8.9603441439893,9.23673832247422,1.6325256479379457],[4.903128766459478]],"id":0,"number":354}
