{"architecture":{"NEURONS":[10,4,1],"LAYERS":3,"totalSynapses":44},"weights":[-5.316550731668516,-5.559203555692552,-0.9210054854441653,-1.564073431008288,9.35998520559995,-5.079176001322628,5.032855384139967,-1.5718141788653046,-5.020205834298242,0.8389559913821814,4.551973445497605,-0.6211306557659065,-2.991280683510906,-9.660514847056724,1.1202827081257933,6.897939510720859,7.689614908978815,6.024704063474907,-2.73849203240547,6.553070173832667,8.185232329568455,4.901545799428857,8.253176686954337,3.775161216144875,1.7298300596274794,-4.989640044967119,2.131178784380911,6.053842116579388,-2.3988547727781837,9.25358624441724,-8.296861941569148,-6.1667561353414415,0.3205206563857703,-5.991631454608408,6.597923135572309,1.8667096717326985,2.819754983702883,-6.678850085418348,-8.482362228969766,-3.4877352308791956,-9.111166723055636,-8.05795948689504,-2.084223812345905,-1.157061963529383],"bias":[[9.63578880992468,2.2828887246439664,-10.0072298385528,-2.487590111094457,0.17533618921292826,-4.829372070639043,-4.6022590222358035,-8.27548084513003,-6.830584000950757,2.328639267706272],[1.339864214658569,9.149175575505225,9.143657745834226,1.4532811950070388],[4.070916240580191]],"id":0,"number":355}
