{"architecture":{"NEURONS":[10,4,1],"LAYERS":3,"totalSynapses":44},"weights":[-5.316550731668516,-5.247333036937219,-0.9210054854441653,-1.9318913937518931,9.567171368869028,-5.079176001322628,5.032855384139967,-1.1515093758173882,-5.46757381331234,0.3635038976487298,4.551973445497605,-0.4684559738088485,-2.6759898413521124,-9.660514847056724,1.1202827081257933,6.7142097120904225,7.613319860423757,6.084756842975134,-2.7608516363693982,6.553070173832667,7.88051702770043,5.067600314612553,8.697255232147963,4.154046902355746,2.0920139025139153,-4.50977246841479,2.2607043804586717,6.053842116579388,-2.3988547727781837,9.116239986939632,-8.380127686941185,-6.104923075730148,0.5226450871389785,-6.0373286995211455,6.376797973369561,1.8667096717326985,2.819754983702883,-6.7115257422634675,-8.482362228969766,-3.411317966805447,-9.300834990859883,-8.05795948689504,-2.084223812345905,-1.1552522252071502],"bias":[[9.483860115424543,2.6010529176267227,-10.164995632071323,-2.655814161155139,0.17533618921292826,-4.445921364234279,-4.6022590222358035,-8.196370753107958,-6.663496931242402,2.852877300799136],[1.339864214658569,8.48909821097881,9.143657745834226,1.6325256479379457],[3.6931018279683454]],"id":0,"number":357}
