{"architecture":{"NEURONS":[10,4,1],"LAYERS":3,"totalSynapses":44},"weights":[-4.486570144413172,-4.935462518181887,-0.7000191725539832,-1.7845797641994186,9.49049006810212,-5.52297760348697,5.321593352864835,-1.875751089257992,-5.217438880571056,0.5299723811642069,5.069838613950501,-0.5193584035137039,-3.04831476829243,-9.573230725275117,1.120609457738589,6.7142097120904225,7.5966134036670585,6.327962905101608,-2.6248820963019077,6.553996392645359,8.442075976338158,4.901545799428857,8.697255232147963,4.154046902355746,1.7298300596274794,-4.329785106786946,2.363801098020364,5.761156629985196,-2.366106854285699,9.116239986939632,-8.309809046419312,-6.152521435686833,-0.2274458854098784,-6.567745516943039,6.628555075979339,2.3031042696582205,2.4890121698778245,-7.007830411778698,-8.501755046656447,-3.4877352308791956,-9.145628508585327,-8.602859222143728,3.993346251232588,-1.4020041295269798],"bias":[[9.63578880992468,2.837022135760839,-10.258674805552747,-1.9624223535042546,-0.606007999249508,-6.606413761152222,-4.646572246028129,-8.400466471911294,-7.032360652253606,2.8256525509371544],[1.339864214658569,10.127857959203263,9.23673832247422,1.6325256479379457],[5.444222652502877]],"id":0,"number":358}
