{"architecture":{"NEURONS":[10,4,1],"LAYERS":3,"totalSynapses":44},"weights":[-5.545772933144177,-4.935462518181887,-0.8011270835122325,-2.2041396107108255,9.35998520559995,-5.361877379435985,5.248578257207853,-1.1515093758173882,-5.448607503933758,0.40865192434120373,4.962125693566571,-0.762290553200986,-2.991280683510906,-9.660514847056724,1.1202827081257933,6.8508335933791615,7.689614908978815,6.262255809268309,-2.821123173918384,6.073129365659442,8.185232329568455,4.901545799428857,8.896417714108775,3.607174200432902,1.604781571346846,-4.051019564994479,2.402981581692651,6.0299050196604504,-2.7502709823083635,9.198744638262035,-8.407565786585224,-5.944408045634704,0.042153401474843005,-6.0373286995211455,6.845362900293438,1.5730207526985038,2.7082053279965312,-6.678850085418348,-8.46574226729505,-3.743289805759253,-9.109399893396839,-8.05795948689504,-2.1783246311642954,-1.911548497092495],"bias":[[9.48237297326079,2.663718274289331,-10.164995632071323,-2.487590111094457,0.035756992793285675,-6.634791173197838,-4.471831965434038,-8.473160091081333,-7.51724008641512,2.8256525509371544],[1.339864214658569,8.9603441439893,9.244378567343583,1.6325256479379457],[5.617489002070793]],"id":0,"number":359}
