{"architecture":{"NEURONS":[10,7,1],"LAYERS":3,"totalSynapses":77},"weights":[-8.236312528562289,8.900076700014768,-5.803660734669074,-6.367659088864768,6.915146848891142,5.941601582963836,0.3127474480863973,3.618718661282143,10.424236523371485,1.4892003432567376,-2.753170521122356,-1.3555576467980184,-9.17671119372778,-10.378401612278216,-6.411219079229971,1.8312276368885307,4.124948103700907,-4.415689036076899,0.12777947203813658,-8.84428365979324,0.9633756655343124,-1.8302998997264757,-7.059457690662739,-9.055800702417393,-9.490632286826418,-0.7447585667695997,-8.74875447150045,7.041193741088085,-1.1832644375957635,0.5182903672396003,1.869357816215459,9.13367885489498,-10.379377898325286,-3.9935578625778674,-10.283791462539732,0.541746049066294,-1.0918257300471765,-1.739064298551714,-6.42518442957958,-1.0444405408961037,5.669200823982199,3.840125711896624,4.516080602607101,8.358529850976307,-6.650456856699108,-10.851039467704387,8.840357749832851,-4.160280780660863,4.944024959723433,2.1329367690799836,7.95599012829003,-2.7008093970691265,-3.210259057417376,4.367292212820282,4.615748052336179,-6.756022834751047,6.76543805147532,-0.20402256165277383,2.438335302789479,-9.804578506749817,3.961030769468115,4.398838691126033,0.24352455826419495,-3.656482771345486,-0.4863646532844786,-3.25986244626998,1.0874638185231145,-2.7853522948371605,-6.476674866494209,1.5396929536859223,-3.054261179813964,-9.099219323258847,9.185978759310098,-6.755102639226001,-3.630596165183383,-7.944275431209208,-3.962247249477139],"bias":[[-8.84714766430474,2.3205252366230313,3.660710403242685,6.824151624418446,-1.1079839345636722,5.921310754224508,8.12679647833425,-1.8523047011755054,0.7204678615841714,-0.4355675218104514],[0.06417998276953496,-2.3981128059155936,-5.5369562393686556,-7.687179866086186,4.10991393777119,3.445274841116772,-4.8907654142674195],[-1.9571368954094073]],"id":0,"number":36}
