{"architecture":{"NEURONS":[10,7,1],"LAYERS":3,"totalSynapses":77},"weights":[-3.705655746132143,4.725881719222884,0.81399853955841,-1.9014736394073135,-5.390908186190324,9.821593948851389,5.499724026219396,-0.42073623596277004,1.486206875520238,0.0994560558048204,2.4094374447897384,-3.727339187818534,9.658588486089782,4.774133273699028,-1.7463947653397685,-3.439104713445582,-8.503255327875019,3.5291665622587085,-9.830344704055463,-9.166994218429794,5.998950958621388,-2.245136127839077,-2.4230391105533706,5.760228914612866,-0.31957113047187496,-7.410579067761121,0.7365478909616905,3.507498602790838,-1.676562617498871,3.5392259779980453,9.206912387676319,6.749985472790296,4.4838996721579045,7.420555899224906,-9.497728160965291,5.6147714993323365,4.68197643995561,3.804612031717854,4.031218154070963,-1.9972137232888325,5.9488233462712925,-5.5365881268963495,-6.050234979986736,2.018951017358563,-7.140117808129064,4.253618807357286,-3.9707818083181943,-0.19413218912079205,3.2257336604094604,5.9189887364147555,2.309716926490796,-6.7773562675325465,7.242690817577808,-5.8241720721128,-4.374277402908533,-5.638244521339843,-5.822389184472856,3.3184882089727092,-1.402060394761923,3.860465021837749,-7.2128493301226095,-3.4863185362371727,6.929614743472677,-8.789190710710814,-4.268060634219002,-3.5811885181518344,-4.8005562818624705,3.385831335176108,8.278126889841964,-0.5830486921572048,-5.80605631027207,3.485547554782107,1.6430779824200121,-1.7701794042148622,6.776852296834248,5.403674028544315,-0.3096483727763793],"bias":[[-7.2306376107307955,4.725175726797729,-4.682325608421165,5.284901303218287,3.1644998231430983,7.57723183952633,7.70809039366756,-6.284600922117973,7.003672903785015,0.12029167027801273],[-0.5719109237535764,0.7624065681153553,-5.427363693196082,-8.489441045028595,0.4664282164800766,6.505075072535599,7.943850623444089],[-5.526926518832163]],"id":0,"number":36}
