{"architecture":{"NEURONS":[10,4,1],"LAYERS":3,"totalSynapses":44},"weights":[-4.9495115555557385,-4.93585758157405,0.7325795191430835,-1.8790420360856679,9.307374951849688,-4.80284305159058,5.388975194831422,-1.5234051409051907,-5.345882538531171,0.5319633909352114,4.613940636674918,0.06417808465268587,-2.7415108708327938,-9.415417516347881,1.1922435199802113,8.057722165120712,8.290363874888326,6.822798069635287,-2.2651339662326744,6.453457326596539,8.490165300461314,4.875120841663569,7.771731066353908,3.771145464143087,1.6113953386277708,-3.7119194238768105,2.4684404115260463,7.231270312256049,-3.3322049777484386,9.502114251845168,-7.957531040167202,-6.231854462400097,0.5715685182801301,-5.493473591049234,6.592897665643293,1.2304320859484184,3.028076041502512,-6.689976637295818,-8.597204469769023,-3.750305328389405,-9.193579338697457,-7.834790468868234,6.573743252459382,-2.0442138476896154],"bias":[[-8.625926697232106,2.4406655954038414,-9.638281380756686,-2.2437219719347903,1.4661584932757175,-5.086010529657615,-9.729628023284,-7.828528778325739,-5.595090931022022,2.5673157780440334],[-7.192084991397948,6.319568422239711,5.569155811157234,0.6548853468030558],[4.636143817749678]],"id":0,"number":36}
