{"architecture":{"NEURONS":[10,4,1],"LAYERS":3,"totalSynapses":44},"weights":[-5.316550731668516,-5.102318537700944,-0.8207692541683553,-2.2041396107108255,9.78018727601684,-5.079176001322628,5.214803645767869,-1.8177514897569746,-5.448607503933758,0.8155159517636323,4.613929833763527,-0.9388291462083254,-3.175456566882108,-9.660514847056724,1.0999285113388897,7.496160521046105,7.689614908978815,6.262255809268309,-3.0766166506017316,6.553996392645359,8.263047776726095,5.413702471425797,8.697255232147963,4.26862560459887,1.89287264728672,-4.318410036147804,1.7153885197533087,6.082817762596016,-2.0010072934706766,9.198744638262035,-8.395208530951628,-6.288586622171609,0.4255320100658334,-5.455620993358972,7.139174901671996,1.502882710754038,2.796080535903607,-6.777163831839,-8.492085030313046,-3.4877352308791956,-8.967361740542136,-8.00258998909175,-1.8639599066235866,-1.157061963529383],"bias":[[9.092130131240896,2.7059622603634774,-9.97466949721249,-1.9624223535042546,0.17533618921292826,-4.829372070639043,-4.710224678318485,-7.826917061599262,-7.51724008641512,2.8256525509371544],[1.339864214658569,9.192220487895414,9.017505525212217,1.6325256479379457],[3.6931018279683454]],"id":0,"number":360}
