{"architecture":{"NEURONS":[10,4,1],"LAYERS":3,"totalSynapses":44},"weights":[-5.316550731668516,-4.935462518181887,-0.5117078743586299,-1.7845797641994186,9.567171368869028,-5.753826145457669,5.248578257207853,-1.1515093758173882,-5.448607503933758,0.5299723811642069,4.814120864558359,-0.5193584035137039,-2.991280683510906,-9.573230725275117,1.120609457738589,6.691423942741447,7.689614908978815,6.327962905101608,-3.0006420721289,6.691671479147511,8.614300364576481,4.901545799428857,8.837248380162482,4.154046902355746,1.604781571346846,-4.50977246841479,2.402981581692651,6.409368436070002,-2.3799279055602414,8.557697910836888,-8.296861941569148,-5.9848634821386835,0.3205206563857703,-5.991631454608408,6.767238088457976,1.6813620905168338,2.5480338635821864,-7.007830411778698,-8.501755046656447,-3.4775864553797016,-9.109399893396839,-8.05795948689504,-2.084223812345905,-1.7832016335440144],"bias":[[9.234003158047388,2.7059622603634774,-9.97466949721249,-1.9624223535042546,-0.6514935203144224,-6.508701432253458,-4.471831965434038,-8.45186999755543,-6.892652617556594,2.8256525509371544],[1.4347555805667553,9.040042104667812,9.23673832247422,1.6325256479379457],[4.293484683169709]],"id":0,"number":361}
