{"architecture":{"NEURONS":[10,4,1],"LAYERS":3,"totalSynapses":44},"weights":[-5.316550731668516,-5.247333036937219,-0.8207692541683553,-2.2041396107108255,9.35998520559995,-5.361877379435985,5.248578257207853,-1.5718141788653046,-5.448607503933758,0.40865192434120373,4.814120864558359,-0.9388291462083254,-2.991280683510906,-9.472393404861476,1.1057197859488015,7.496160521046105,7.689614908978815,6.262255809268309,-2.821123173918384,6.446563442101427,8.185232329568455,4.901545799428857,8.890725231561866,3.607174200432902,1.604781571346846,-4.318410036147804,2.2607043804586717,6.324913530270512,-2.3988547727781837,8.557697910836888,-8.296861941569148,-6.0972109976954245,0.4255320100658334,-6.0373286995211455,6.709432415738486,1.785361654077158,2.4890121698778245,-6.678850085418348,-8.312317169128923,-3.4877352308791956,-9.109399893396839,-8.05795948689504,4.186695314080318,-1.1552522252071502],"bias":[[9.483860115424543,2.2828887246439664,-10.164995632071323,-2.487590111094457,0.0683862984258532,-6.634791173197838,-4.710224678318485,-8.104044747897719,-6.663496931242402,2.8256525509371544],[1.339864214658569,9.122098780934044,9.23673832247422,1.6325256479379457],[3.6931018279683454]],"id":0,"number":362}
