{"architecture":{"NEURONS":[10,4,1],"LAYERS":3,"totalSynapses":44},"weights":[-5.212646789427912,-5.247333036937219,-0.8207692541683553,-2.2041396107108255,9.35998520559995,-5.753826145457669,5.214803645767869,-1.8177514897569746,-5.448607503933758,0.5299723811642069,4.814120864558359,-0.9569805578448977,-3.175456566882108,-9.660514847056724,1.2142494143962588,7.830810664578966,7.689614908978815,6.116379618179185,-2.73849203240547,6.553996392645359,7.703297078011555,5.043326816045682,8.216042008730097,3.607174200432902,1.89287264728672,-4.318410036147804,2.131178784380911,6.409368436070002,-2.480256476535343,8.628410377779767,-8.296861941569148,-6.102303246167476,0.25853464595719583,-6.567745516943039,7.139174901671996,1.785361654077158,2.4890121698778245,-6.678850085418348,-8.492085030313046,-3.6928522145120626,-9.109399893396839,-8.05795948689504,-2.084223812345905,-1.3987356377787306],"bias":[[9.63578880992468,2.6010529176267227,-9.767733168637115,-2.487590111094457,0.1259929244970827,-6.650773955151535,-4.710224678318485,-8.45186999755543,-7.032360652253606,2.8256525509371544],[1.4347555805667553,9.142454642344479,2.0130553431609064,1.6325256479379457],[4.1026555935906]],"id":0,"number":363}
