{"architecture":{"NEURONS":[10,4,1],"LAYERS":3,"totalSynapses":44},"weights":[-4.689051875824729,-5.247333036937219,-0.7000191725539832,-1.7817094779650706,9.35998520559995,-5.753826145457669,5.214803645767869,-1.2120573011427993,-5.448607503933758,0.5299723811642069,4.858382166840424,-0.9569805578448977,-2.8018117786199226,-9.660514847056724,1.120609457738589,6.7142097120904225,7.929483515616152,6.313681706515657,-2.73849203240547,6.553996392645359,8.442075976338158,4.901545799428857,8.837248380162482,4.154046902355746,1.604781571346846,-4.318410036147804,2.131178784380911,6.409368436070002,-2.480256476535343,9.116239986939632,-8.296861941569148,-6.102303246167476,0.4255320100658334,-6.567745516943039,6.8377103346569985,1.1584717344623878,2.4890121698778245,-6.705774848643945,-8.46574226729505,-3.4877352308791956,-9.109399893396839,-8.05795948689504,-1.8639599066235866,-1.157061963529383],"bias":[[9.222719350645171,2.3719478204267643,-10.158678523975619,-2.520346951535495,0.09334074357812934,-6.650773955151535,-4.794488598150237,-8.27548084513003,-6.781561011259625,2.8256525509371544],[1.4948127769489394,9.040042104667812,9.23673832247422,1.6325256479379457],[3.6931018279683454]],"id":0,"number":365}
