{"architecture":{"NEURONS":[10,4,1],"LAYERS":3,"totalSynapses":44},"weights":[-4.689051875824729,-5.247333036937219,-0.7000191725539832,-1.7035991322335082,9.35998520559995,-5.753826145457669,5.175795806792743,-1.875751089257992,-5.448607503933758,0.2602934917272059,4.858382166840424,-0.9569805578448977,-2.8018117786199226,-9.660514847056724,1.120609457738589,6.7142097120904225,8.042792817491259,6.313681706515657,-2.73849203240547,6.553996392645359,8.442075976338158,4.901545799428857,8.837248380162482,4.368219456896701,1.604781571346846,-4.28150166228755,2.131178784380911,6.409368436070002,-2.4379309323030656,9.198744638262035,-8.309809046419312,-6.102303246167476,0.3205206563857703,-6.567745516943039,6.8377103346569985,1.8117113347791494,2.4890121698778245,-6.705774848643945,-8.556157831841885,-3.4877352308791956,-9.109399893396839,-8.05795948689504,-2.084223812345905,-1.157061963529383],"bias":[[9.222719350645171,2.029499273689181,-10.158678523975619,-2.520346951535495,0.09334074357812934,-6.634791173197838,-4.660381651588383,-8.45186999755543,-6.781561011259625,2.8256525509371544],[1.4948127769489394,9.040042104667812,9.23673832247422,1.807709219706565],[3.6931018279683454]],"id":0,"number":366}
