{"architecture":{"NEURONS":[10,4,1],"LAYERS":3,"totalSynapses":44},"weights":[-4.689051875824729,-5.247333036937219,-0.8207692541683553,-1.564073431008288,9.35998520559995,-5.753826145457669,5.214803645767869,-1.875751089257992,-5.730914103386457,0.8155159517636323,4.858382166840424,-0.9388291462083254,-3.04831476829243,-9.660514847056724,1.1202827081257933,6.7142097120904225,7.929483515616152,6.143479936371608,-2.8487055353414634,6.553996392645359,8.614300364576481,4.901545799428857,8.837248380162482,4.154046902355746,1.89287264728672,-4.329785106786946,2.268805927126869,6.409368436070002,-2.4379309323030656,8.557697910836888,-8.296861941569148,-6.0972109976954245,0.25853464595719583,-6.0373286995211455,6.825007923735115,1.1584717344623878,2.1937446556395113,-6.271040483896767,-8.46574226729505,-3.4877352308791956,-9.109399893396839,-8.077212638414668,-1.8639599066235866,-1.1552522252071502],"bias":[[9.222719350645171,2.6010529176267227,-10.158678523975619,-2.520346951535495,0.0683862984258532,-7.180137954935028,-4.660381651588383,-8.45186999755543,-6.830584000950757,2.8256525509371544],[1.107068311111713,8.925668141342127,2.0130553431609064,1.6325256479379457],[3.6931018279683454]],"id":0,"number":367}
