{"architecture":{"NEURONS":[10,4,1],"LAYERS":3,"totalSynapses":44},"weights":[-4.486570144413172,-5.247333036937219,-0.8207692541683553,-1.8788225720381215,9.35998520559995,-5.578336598811064,5.248578257207853,-1.7934726777565646,-5.336405329257121,0.6015244480707104,4.814120864558359,-0.9388291462083254,-2.6759898413521124,-9.660514847056724,1.2142494143962588,6.7142097120904225,7.580249979843837,6.084756842975134,-2.821123173918384,6.556359316414598,8.263047776726095,4.901545799428857,8.837248380162482,4.154046902355746,1.604781571346846,-4.28150166228755,2.5616716992294073,6.719257453938136,-2.4880855496497736,8.628410377779767,-8.309809046419312,-6.102303246167476,0.25853464595719583,-5.991631454608408,6.825007923735115,1.8117113347791494,2.5480338635821864,-6.588567991077887,-8.44089658195708,-3.8910100491060833,-9.109399893396839,-8.219629242418716,-1.8639599066235866,-1.157061963529383],"bias":[[8.917477408140506,2.6010529176267227,-10.12688599904965,-2.487590111094457,0.0683862984258532,-6.634791173197838,-4.876871394202816,-8.45186999755543,-6.781561011259625,3.1764043536343047],[1.107068311111713,9.122098780934044,2.0130553431609064,1.807709219706565],[3.6931018279683454]],"id":0,"number":368}
