{"architecture":{"NEURONS":[10,4,1],"LAYERS":3,"totalSynapses":44},"weights":[-5.058430696367913,-4.935462518181887,-0.8207692541683553,-1.7817094779650706,9.35998520559995,-5.704951790043743,5.214803645767869,-1.432892324019494,-5.448607503933758,0.5299723811642069,4.613929833763527,-0.9388291462083254,-3.055037283710313,-9.472393404861476,1.1057197859488015,6.7142097120904225,7.929483515616152,6.399208396391746,-2.821123173918384,6.389400538064303,8.479068304063217,4.901545799428857,8.697255232147963,4.154046902355746,1.89287264728672,-4.194442525280898,2.268805927126869,6.219636727865226,-2.6036382765887223,8.557697910836888,-8.309809046419312,-6.192898809933517,0.25853464595719583,-5.991631454608408,7.139174901671996,1.8667096717326985,2.1937446556395113,-7.223597560756332,-8.44089658195708,-3.4877352308791956,-8.579697289080935,-8.172872206981614,-1.8639599066235866,-1.157061963529383],"bias":[[9.244297777241814,2.6010529176267227,-10.158678523975619,-2.467174161145744,0.5230894710648791,-4.445921364234279,-4.730052567785394,-8.616175003644063,-6.830584000950757,2.8256525509371544],[0.5202494670137099,9.040042104667812,2.0130553431609064,1.6325256479379457],[3.6931018279683454]],"id":0,"number":369}
