{"architecture":{"NEURONS":[10,7,1],"LAYERS":3,"totalSynapses":77},"weights":[-9.56374912061109,9.479427327396387,-5.836672641941134,-6.53656678150265,7.522158113115026,5.505181059388899,-0.17342011561289594,3.055499459661538,9.886894387409551,0.866662220291704,-0.8454516285610848,-2.239889083566169,-8.759620171012019,-8.40587811881811,-7.586023592005726,2.7749735407682277,4.4336860078742415,-4.299700438695299,0.9661853580136371,-8.869820316789522,1.6732646826864446,-2.684009839493606,-6.567359411792189,-9.96096964273376,-8.818827645544149,-1.2972076337749123,-9.2102165865696,6.192399376765291,-1.9651430439406952,1.4685992048949463,1.151939870071618,9.014558663206582,-11.2468433107891,-4.56705717209412,-8.800676846013086,0.4913667876693085,-0.6754812417963106,-1.6457432979289113,-7.268047474765816,-2.4039308559913333,7.5051033303699395,3.3987951134366394,4.195877066248701,8.196222942056712,-7.238152692494502,-10.622214242989154,7.060267913720992,-4.612560655294478,5.0582746822050915,1.7823785285356655,8.0292030445739,-1.8585903211675103,-2.0719290466082496,3.418006408086967,4.065128279550408,-6.09808562878318,6.428341662693085,0.9954530104834373,1.3231814294027457,-9.28430929946094,2.9878277279365366,5.072893051558665,2.103555315718441,-4.249422094096714,-1.1140450796234942,-2.8115932079561707,0.47404631382302764,-2.5709099543459897,-6.489105011887484,0.13873786614338368,-2.2148046487489803,-7.848091859921573,8.488068882447857,-8.593318030238725,-2.6699326209314935,-7.649972822970522,-4.079618872507459],"bias":[[-9.660086855683339,1.7707249051910814,4.431825114572318,6.607997206944798,-0.7723948801698199,5.703098691318732,10.668114238328151,-1.2428407678123001,-0.7876421297798579,-0.27127805217464523],[1.631441760334675,-3.3698204482815255,-5.358688591740729,-7.7153952785705,3.013711146862623,3.678687416394864,-5.630382880216788],[-2.7779441953455297]],"id":0,"number":37}
