{"architecture":{"NEURONS":[10,7,1],"LAYERS":3,"totalSynapses":77},"weights":[-4.086752554445847,3.792228424567117,0.5128546180588711,-2.560856102303003,-5.3357398728023915,9.609549737158547,6.676929548506403,0.4043281323051326,3.1500745026000687,-1.1637712443708168,0.9821667478608004,-1.8063138759279287,8.896511371434343,5.707790522788884,-3.409975225620273,-2.370363572761347,-7.323792543428183,3.2263116700023176,-9.596740470901612,-9.841850487662061,5.831803349961886,-0.4093033841416111,-2.332389695299465,4.568300400787731,-0.2610179809040828,-7.639291221812982,0.8692371871309663,3.100787088363325,-0.09618911756150272,3.6594749332327448,8.528500731825929,7.496688798378011,4.225498720360234,6.346412201979366,-8.875086518406993,3.829349245945023,4.176133697216384,4.843502132763869,5.156094519308273,-3.1983794855605625,4.323618506838882,-5.681843277555986,-6.660782173574323,2.098019530074606,-7.286790021805462,2.5396401548187324,-4.72309591160295,-0.1328575478707191,4.2579696693868305,5.369725170382263,1.1393056059562494,-6.992659257387076,7.784652260377941,-5.500894557983082,-3.627707878883486,-5.111368987934364,-6.679158174719412,3.761241331522139,-1.2754640529243348,3.296137056393059,-6.939540096453575,-4.068059240973471,7.412892349012847,-8.889002762048168,-4.962913581991884,-1.9324626370517635,-5.635234260197107,3.466501591909478,7.683086342542871,-0.813545922496733,-6.684767600193542,2.9820831189368935,1.1998951207631674,-7.329452817167459E-4,7.548421247973318,5.85145441021554,-0.46094709905169207],"bias":[[-8.101466797339771,3.990942371217313,-5.562598805831878,4.860098390083002,3.4190455157493482,9.709269338685454,8.24416341053774,-5.021621234700919,7.118913334861782,0.42924439803114045],[0.3202409038352119,0.23988033860754282,-5.302595393670813,-8.952400868671397,1.202236336297546,6.7826998310576965,6.3375696153075385],[-5.211003934915843]],"id":0,"number":37}
