{"architecture":{"NEURONS":[10,4,1],"LAYERS":3,"totalSynapses":44},"weights":[-4.9495115555557385,-4.93585758157405,0.556696713823841,-1.8790420360856679,9.599961355998795,-4.6300155428823935,5.399604548572143,-1.5234051409051907,-8.824941523159307,0.30204358396165065,4.812053640562744,0.41226572101452835,-2.8314544540747137,-9.702049674102946,1.122170457756252,8.057722165120712,7.426663249126891,7.163913623212484,-1.6108191896725466,7.594523992393775,8.488664526517741,4.906528325556119,7.349818263637102,3.5722285386199637,1.7977486421063948,-3.8209450344236635,2.4684404115260463,6.541283591073817,-3.070990577542818,9.442379145508696,-7.868134781650866,4.111812416200164,0.6580445208915118,-5.424577880399962,6.592897665643293,1.7153931173358827,2.4167149428455237,-6.689976637295818,-8.821727013609353,-3.8233856441992273,-8.680429400348162,-7.735914990535486,6.760365419563164,-1.9577276198532125],"bias":[[-8.625926697232106,2.4406655954038414,-8.68550558068748,-2.641468816300419,1.4721671687507494,-5.176203419913459,-9.83565943536265,-6.3712544699281315,-1.939096282499726,2.9387931116759454],[-6.7672952264587405,6.678008605265267,1.5403513395065875,0.669038647007914],[4.636143817749678]],"id":0,"number":37}
