{"architecture":{"NEURONS":[10,4,1],"LAYERS":3,"totalSynapses":44},"weights":[-4.486570144413172,-5.247333036937219,-0.8207692541683553,-1.7845797641994186,9.457220296489984,-5.578336598811064,5.214803645767869,-1.2120573011427993,-5.336405329257121,0.5299723811642069,4.858382166840424,-0.7381694806793008,-2.991280683510906,-9.660514847056724,1.1202827081257933,7.496160521046105,7.689614908978815,6.313681706515657,-2.8487055353414634,6.553996392645359,8.263047776726095,5.169031286371329,8.837248380162482,3.607174200432902,1.604781571346846,-4.0204683457901425,2.268805927126869,6.082817762596016,-2.023370779789348,8.64929686555735,-8.309809046419312,-6.102303246167476,0.3205206563857703,-6.432967041830252,7.311308817085066,1.6726119350456097,2.609886084256655,-6.729280763064998,-8.482362228969766,-3.5819817223012707,-9.109399893396839,-8.104283874796538,-2.084223812345905,-1.3987356377787306],"bias":[[9.234003158047388,2.6010529176267227,-10.0072298385528,-2.684670136404701,0.49602186905244666,-7.180137954935028,-4.471831965434038,-7.826917061599262,-6.860262494698626,2.846749563028415],[0.4868519916023894,9.122098780934044,2.0130553431609064,1.8028067706982993],[3.6931018279683454]],"id":0,"number":370}
