{"architecture":{"NEURONS":[10,4,1],"LAYERS":3,"totalSynapses":44},"weights":[-4.711065440332076,-5.247333036937219,-1.004120614989872,-1.564073431008288,9.585971820299966,-5.753826145457669,5.214803645767869,-1.3280793149682686,-5.8436032588012,0.6727441664639195,4.8769186374953355,-1.1371936369379623,-2.9250632734561766,-9.355959268426012,1.0193633925716834,6.7142097120904225,7.5579108682941865,6.262255809268309,-2.7136080191228764,6.740120520991944,8.352561876532127,4.876200117545336,8.60512822479329,4.090415768748924,1.9145149663481016,-4.383458938989661,2.333071116075038,6.409368436070002,-2.416896723600763,8.557697910836888,-8.387790855823564,-6.288586622171609,0.7566360758306103,-6.5960781404945505,7.139174901671996,1.785361654077158,2.1937446556395113,-6.705774848643945,-8.664940761173556,-3.4775864553797016,-9.109399893396839,-8.05795948689504,-2.04070884786681,-1.2002831965482448],"bias":[[-9.312087657534772,2.3719478204267643,-9.767733168637115,-3.354258549269396,0.6255559729467668,-4.700695614141105,-5.102271378237004,-7.930404863557567,-6.605270103397598,-9.142231387677208],[0.48546586540958686,10.183246665436936,4.037844570347232,1.6325256479379457],[3.6931018279683454]],"id":0,"number":371}
