{"architecture":{"NEURONS":[10,4,1],"LAYERS":3,"totalSynapses":44},"weights":[-4.58781101011895,-5.247333036937219,-1.004120614989872,-1.6131136610629058,9.585971820299966,-5.753826145457669,5.214803645767869,-1.2120573011427993,-5.448607503933758,0.5975684178427588,4.858382166840424,-1.0423235241617061,-2.991280683510906,-8.989252703131472,1.0193633925716834,6.7142097120904225,7.5579108682941865,6.399208396391746,-2.7136080191228764,6.553996392645359,8.582332843879387,4.837006652773806,8.60512822479329,4.090415768748924,1.9145149663481016,-4.0204683457901425,2.268805927126869,6.2488204230733375,-2.8357248524207366,8.38310260941043,-7.976361371942649,-6.288586622171609,-0.24452472983093457,-5.991631454608408,6.689493459863269,1.6236513208020682,2.1937446556395113,-6.705774848643945,-8.254389727714,-3.5819817223012707,-9.109399893396839,-8.26824076644895,-2.04070884786681,-1.3987356377787306],"bias":[[9.234003158047388,2.3719478204267643,-10.0072298385528,-3.354258549269396,0.6255559729467668,-7.180137954935028,-5.102271378237004,-7.826917061599262,-6.605270103397598,2.846749563028415],[0.48546586540958686,10.127857959203263,2.0130553431609064,1.6325256479379457],[3.6931018279683454]],"id":0,"number":372}
