{"architecture":{"NEURONS":[10,4,1],"LAYERS":3,"totalSynapses":44},"weights":[-4.982372394588514,-4.935462518181887,-0.8207692541683553,-2.2041396107108255,9.654831041094749,-5.704951790043743,5.473315993364185,-1.432892324019494,-5.448607503933758,0.5299723811642069,4.858382166840424,-0.919983012528035,-2.991280683510906,-9.271804482271909,1.0303489181166305,7.839542027111002,7.689614908978815,6.069756513672244,-2.821123173918384,6.389400538064303,8.582332843879387,4.850854435661816,8.837248380162482,4.154046902355746,1.7298300596274794,-4.318410036147804,1.762391915802566,6.409368436070002,-2.6036382765887223,8.557697910836888,-8.296861941569148,-6.192898809933517,0.3205206563857703,-5.991631454608408,7.139174901671996,1.5317596695634659,2.1937446556395113,-6.705774848643945,-8.501755046656447,-3.25283301242338,-8.579697289080935,-8.368925840236788,-1.8639599066235866,-1.157061963529383],"bias":[[8.80608584896509,2.6010529176267227,-10.136028438142198,-2.520346951535495,0.7791837642385395,-6.650773955151535,-4.471831965434038,-8.455250776548723,-6.830584000950757,2.8256525509371544],[1.107068311111713,9.040042104667812,2.0130553431609064,1.8806222000179118],[3.6931018279683454]],"id":0,"number":373}
