{"architecture":{"NEURONS":[10,4,1],"LAYERS":3,"totalSynapses":44},"weights":[-4.486570144413172,-5.1398902818659495,-1.004120614989872,-1.7845797641994186,9.35998520559995,-5.753826145457669,5.214803645767869,-1.8177514897569746,-5.8436032588012,0.2602934917272059,4.858382166840424,-0.9569805578448977,-2.991280683510906,-9.660514847056724,0.9181173274047778,6.7142097120904225,7.929483515616152,6.399208396391746,-2.5358396480666467,6.446563442101427,8.263047776726095,5.169031286371329,8.837248380162482,4.154046902355746,1.89287264728672,-4.194442525280898,2.268805927126869,6.082817762596016,-2.416896723600763,8.561353521509456,-8.387790855823564,-6.102303246167476,0.4255320100658334,-5.991631454608408,6.689493459863269,1.785361654077158,2.1937446556395113,-6.678850085418348,-8.664940761173556,-3.487287615924652,-9.109399893396839,-8.368925840236788,-1.8639599066235866,-1.319413482038036],"bias":[[9.222719350645171,2.3719478204267643,-10.158678523975619,-2.487590111094457,0.49602186905244666,-4.777293790476603,-5.102271378237004,-8.455250776548723,-6.830584000950757,2.846749563028415],[1.4948127769489394,9.040042104667812,9.23673832247422,1.6325256479379457],[3.6931018279683454]],"id":0,"number":374}
