{"architecture":{"NEURONS":[10,4,1],"LAYERS":3,"totalSynapses":44},"weights":[-4.553102756014147,-5.2919511337007314,-0.8207692541683553,-1.7845797641994186,9.654831041094749,-6.147484578798944,5.041018118578748,-1.7934726777565646,-5.8436032588012,0.33921513404913284,4.7294697661670755,-0.9388291462083254,-2.991280683510906,-9.013695801686922,1.3167743411453425,6.7142097120904225,7.929483515616152,6.313681706515657,-2.73849203240547,6.553996392645359,8.263047776726095,4.837006652773806,8.837248380162482,4.072699611140388,1.8633703681071312,-4.557015008687925,2.2607043804586717,5.902374600540902,-2.353536970666182,8.38310260941043,-8.36311863391796,-6.288586622171609,0.4255320100658334,-5.991631454608408,6.689493459863269,1.785361654077158,2.1937446556395113,-6.271040483896767,-8.20707489511608,-3.4877352308791956,-9.109399893396839,-8.05795948689504,-2.0738425854535993,-1.157061963529383],"bias":[[9.222719350645171,2.3719478204267643,-9.767733168637115,-2.520346951535495,0.6255559729467668,-7.83310660040248,-4.778040127609266,-7.826917061599262,-6.830584000950757,-9.053566690745216],[0.5860789836622804,9.040042104667812,9.23673832247422,1.807709219706565],[3.6931018279683454]],"id":0,"number":375}
