{"architecture":{"NEURONS":[10,4,1],"LAYERS":3,"totalSynapses":44},"weights":[-4.553102756014147,-4.935462518181887,-1.004120614989872,-2.2041396107108255,9.756336621997328,-5.515050473747168,5.214803645767869,-1.2120573011427993,-5.734351219385129,0.2602934917272059,4.7294697661670755,-0.9569805578448977,-2.991280683510906,-9.660514847056724,1.1202827081257933,6.7142097120904225,7.689614908978815,6.399208396391746,-2.73849203240547,6.446563442101427,8.263047776726095,4.901545799428857,8.837248380162482,4.072699611140388,1.8633703681071312,-4.318410036147804,2.2607043804586717,6.409368436070002,-2.353536970666182,8.598463648313553,-8.082991977364193,-6.203364966855871,0.4255320100658334,-5.991631454608408,7.139174901671996,1.785361654077158,2.4890121698778245,-6.678850085418348,-8.44089658195708,-3.4877352308791956,-9.109399893396839,-8.120516586614423,-1.8639599066235866,-1.157061963529383],"bias":[[9.222719350645171,2.3719478204267643,-10.158678523975619,-2.520346951535495,0.7791837642385395,-6.53479445830044,-5.020792280485192,-8.455250776548723,-6.866168129956346,3.1764043536343047],[0.5202494670137099,9.122098780934044,9.23673832247422,1.8383673478905358],[3.9313809097567223]],"id":0,"number":376}
