{"architecture":{"NEURONS":[10,4,1],"LAYERS":3,"totalSynapses":44},"weights":[-4.069066293715219,-5.247333036937219,-1.0526629713548405,-1.6131136610629058,9.585971820299966,-5.71102485675801,5.214803645767869,-1.2120573011427993,-5.336405329257121,0.5975684178427588,4.863090078961448,-0.9388291462083254,-2.715971586776848,-9.634020747856866,1.1202827081257933,7.920736644999653,7.460042716270643,6.629777627605794,-2.7136080191228764,6.553996392645359,8.582332843879387,4.562703236828266,8.837248380162482,4.154046902355746,1.8633703681071312,-4.318410036147804,2.2607043804586717,6.409368436070002,-2.6036382765887223,8.695089657680551,-7.976361371942649,-6.192898809933517,0.7566360758306103,-6.039022238084325,6.8377103346569985,1.8667096717326985,2.1937446556395113,-6.705774848643945,-8.664940761173556,-3.5819817223012707,-9.109399893396839,-8.368925840236788,-1.8639599066235866,-0.7809966099198883],"bias":[[8.93939832141363,1.930577170242973,-10.136028438142198,-2.684670136404701,0.570048908963704,-6.772811603556754,-5.102271378237004,-8.117299626649316,-6.830584000950757,3.1764043536343047],[1.107068311111713,10.127857959203263,1.967148843028402,1.807709219706565],[3.6931018279683454]],"id":0,"number":377}
