{"architecture":{"NEURONS":[10,4,1],"LAYERS":3,"totalSynapses":44},"weights":[-5.058430696367913,-5.091397777559553,-0.9996927979928755,-1.7845797641994186,10.037928155514198,-5.515050473747168,5.214803645767869,-1.29614242851889,-5.734351219385129,0.1535804157306167,4.858382166840424,-0.9569805578448977,-2.715971586776848,-9.634020747856866,1.1057197859488015,6.7142097120904225,7.689614908978815,6.079070373532541,-2.9964041559239085,6.446563442101427,7.974092087980389,4.901545799428857,8.216042008730097,4.2556912453865205,1.7298300596274794,-4.541389253775665,2.131178784380911,6.2488204230733375,-2.353536970666182,8.561353521509456,-8.572507399133515,-6.102303246167476,0.25853464595719583,-6.567745516943039,6.82666389386727,1.785361654077158,2.1937446556395113,-6.271040483896767,-8.735687099967175,-3.4877352308791956,-9.109399893396839,-8.05795948689504,-1.6642502431653137,-1.319413482038036],"bias":[[9.222719350645171,2.3719478204267643,-9.767733168637115,-2.487590111094457,0.49602186905244666,-7.785355634366824,-4.955325224387178,-8.455250776548723,-6.781561011259625,2.846749563028415],[0.48546586540958686,9.040042104667812,2.0130553431609064,1.390369409507405],[3.6931018279683454]],"id":0,"number":378}
