{"architecture":{"NEURONS":[10,4,1],"LAYERS":3,"totalSynapses":44},"weights":[-5.13344399756778,-5.321410858830265,-0.8207692541683553,-1.7845797641994186,9.756336621997328,-5.613037665252589,5.214803645767869,-1.7934726777565646,-5.788977239093164,0.24639777488987477,4.858382166840424,-0.9384817851864664,-2.991280683510906,-9.490105428966283,0.7826908660719858,6.7142097120904225,7.75145904676976,6.399208396391746,-2.8487055353414634,6.553996392645359,8.263047776726095,5.009942861016572,8.837248380162482,4.113373256748067,1.89287264728672,-4.318410036147804,2.268805927126869,6.155871518305452,-2.6317429135499997,8.557697910836888,-8.296861941569148,-6.288586622171609,0.7566360758306103,-6.567745516943039,6.763601897260134,1.888453126890759,2.1937446556395113,-6.6923124670311465,-8.44089658195708,-3.4174073673623253,-9.278958825154684,-8.089238036754733,-2.084223812345905,-1.2382377227837096],"bias":[[8.983513042585352,1.3340461518998232,5.916242383782768,-1.9624223535042546,0.6255559729467668,-6.53479445830044,-5.102271378237004,6.504873812577937,9.017296454961034,2.967723321837621],[0.48546586540958686,9.122098780934044,2.0130553431609064,-1.7235343714822644],[0.39697887778286933]],"id":0,"number":379}
