{"architecture":{"NEURONS":[10,7,1],"LAYERS":3,"totalSynapses":77},"weights":[-9.010567288298827,10.090054642965153,-4.638637190010348,-7.08910993124395,7.2677383548892625,5.183470523601827,-0.044624760535864894,2.626833324646761,9.866010104756663,1.2998814664443956,-2.017980840334703,-1.293843982201213,-7.340601718807489,-8.92161624176435,-6.931945039780113,2.7287319034318562,4.322681717757761,-4.256462062359193,0.9141471759350926,-8.657844342344555,1.342998291105842,-2.226887172537066,-7.173807003478818,-9.785678902238214,-9.563433336181285,-0.9321562496070626,-10.197600538830237,6.506078906344653,-2.375278660046794,1.6286362397875256,1.149412849169834,8.68263699962827,-11.409641674596333,-3.8991520896638074,-10.849248232713379,1.7511754272174307,-0.08165346758941325,-0.4539426152692652,-8.052847737644193,-2.2806710269775383,8.20322409664823,4.170648110660989,4.213740366282508,8.726580073733421,-7.213411648847513,-12.35420676792674,7.335363456556831,-4.707513921572158,6.180493792070815,1.410776950001652,6.7477496433193,-2.2852950817020243,-3.165448045330086,4.064203326570525,5.535353437859405,-6.494063690797349,5.45837775626933,0.2712777780380707,1.5678062530261325,-9.040577202404993,4.050173712311983,4.831668660776611,1.6943816500839968,-4.226821496261319,-1.4530190529811877,-2.1984953790957666,-0.34081219981768757,-3.203516765587872,-6.933004711785454,1.6253493171576325,-2.1545022648148997,-8.947867772073668,9.124558192834122,-7.493146895344358,-3.1088069675928436,-7.320158841400172,-3.8387166814949025],"bias":[[-10.250946708664019,1.9252304749931413,3.309632671297846,6.2321096966089495,-2.13026757456938,5.021795148643376,10.394786693360697,-0.5936743552656434,-0.5151245587663573,-0.9559147016985651],[1.1571871957432713,-4.31777463195239,-4.769375574011578,-9.062259743618652,2.867276855800968,3.822398935516126,-5.429724032135317],[-2.198887986430013]],"id":0,"number":38}
