{"architecture":{"NEURONS":[10,4,1],"LAYERS":3,"totalSynapses":44},"weights":[-5.755366218931449,-4.93585758157405,1.0621367256607406,-1.8790420360856679,9.599961355998795,-4.729592455363342,5.693543432808271,-1.5234051409051907,-8.824941523159307,0.30204358396165065,4.66567258637116,0.42273350242791174,-2.7415108708327938,-9.784371785546547,1.1922435199802113,8.057722165120712,7.532935122564924,7.163913623212484,-1.6108191896725466,6.453457326596539,8.490165300461314,4.906528325556119,7.617127408506445,3.5722285386199637,1.9978978553689493,-3.8209450344236635,2.5895683535882075,6.541283591073817,-3.070990577542818,9.502114251845168,-8.042569566038063,-6.231854462400097,0.6580445208915118,-4.954364508636732,6.616606583157658,1.5608720931329998,3.0498587730785913,-6.689976637295818,-9.163563245158622,-3.77826092023056,-8.413556706708404,-7.834790468868234,6.837165769030411,-2.011870308784526],"bias":[[-8.625926697232106,2.194726609579458,-9.664488372483046,-2.4408074955349983,1.6010029669503953,-5.176203419913459,-9.83565943536265,-8.11503468316982,-5.595090931022022,2.5673157780440334],[-6.7672952264587405,6.31210663927828,1.5403513395065875,0.4263573572344608],[4.636143817749678]],"id":0,"number":38}
