{"architecture":{"NEURONS":[10,7,1],"LAYERS":3,"totalSynapses":77},"weights":[-3.942860077735227,4.4665482851554685,0.9181166491749525,-1.9429336851907977,-5.390908186190324,9.821593948851389,5.3043812493323745,-0.4314091496079984,0.8959141156211728,0.0994560558048204,2.4077229251780046,-3.6068344708817337,9.658588486089782,4.642023990383369,-1.7986921500625066,-3.833679020015918,-8.505188101376234,3.5291665622587085,-9.830344704055463,-9.47814949332472,5.826706560235831,-2.2199247907183692,-2.3143569169647207,5.597956605157355,-0.31957113047187496,-7.623887503315733,0.7365478909616905,3.507498602790838,-1.4933239138440022,3.3680482951047193,9.52853573762603,6.390058909687398,4.89214504439564,7.0318487141889845,-9.497728160965291,5.689342343687406,4.733864186589162,4.129305967733659,4.293168220337603,-1.9972137232888325,6.260966749812839,-5.535726143500726,-5.966084694464494,1.8327445170519983,-7.545258583221313,4.09666034923212,-3.8394118612615316,0.00832485066335742,3.2257336604094604,5.9189887364147555,2.70558462310106,-6.7773562675325465,6.791004064705829,-5.683860379033114,-4.06707251962968,-5.638244521339843,-5.672018379914094,3.5019553562782018,-1.3750744562000738,4.027899453340112,-6.792735015903937,-3.3275028759942797,7.54938946114339,-8.789190710710814,-4.239576710863166,-3.5811885181518344,-4.764378324180904,3.0610584611135017,7.905314160654299,-0.4866585359524932,-5.5817505649369386,3.485547554782107,1.6824558172975717,-1.9512484872971763,6.902399260667006,4.930815887024233,-0.3096483727763793],"bias":[[-7.320303430124441,4.725175726797729,-4.889207009827889,5.302521761315754,3.0098256155903074,7.539452925393532,7.586231911063686,-6.02407546754981,6.6269341936391575,0.3447915265706084],[-0.5890279529647401,0.6953837865371549,-5.427363693196082,-8.186664576974641,0.9116797398744408,7.176584585564236,7.979440432504806],[-5.526926518832163]],"id":0,"number":38}
