{"architecture":{"NEURONS":[10,4,1],"LAYERS":3,"totalSynapses":44},"weights":[-4.341078440076127,-5.428498874221505,-0.7000191725539832,-1.7845797641994186,10.037928155514198,-5.7883173005031825,5.214803645767869,-1.8177514897569746,-5.734351219385129,0.5299723811642069,4.8769186374953355,-0.9569805578448977,-2.991280683510906,-9.634020747856866,0.6791783726889085,6.7142097120904225,7.929483515616152,6.079070373532541,-2.5358396480666467,6.446563442101427,8.787786832812447,4.901545799428857,8.837248380162482,4.072699611140388,1.89287264728672,-4.329785106786946,2.268805927126869,6.082817762596016,-2.4379309323030656,9.116239986939632,-8.36311863391796,-6.102303246167476,0.4255320100658334,-6.567745516943039,6.689493459863269,2.207151672825333,2.609886084256655,-6.678850085418348,-8.735687099967175,-3.4877352308791956,-9.16111785412064,-8.05795948689504,-2.084223812345905,-1.319413482038036],"bias":[[9.239236312658894,2.3719478204267643,-9.795052422953706,-2.487590111094457,0.49602186905244666,-7.785355634366824,-4.955325224387178,-8.455250776548723,-6.860262494698626,2.846749563028415],[1.3014147509923513,9.040042104667812,9.23673832247422,1.6325256479379457],[3.6972868356415938]],"id":0,"number":380}
