{"architecture":{"NEURONS":[10,4,1],"LAYERS":3,"totalSynapses":44},"weights":[-4.306682635748715,-5.029923830615319,-0.7000191725539832,-1.6131136610629058,9.585971820299966,-5.71102485675801,5.214803645767869,-1.432892324019494,-5.8436032588012,0.2602934917272059,4.858382166840424,-0.3182574949739019,-2.715971586776848,-9.374756196764176,1.3167743411453425,7.02722543023285,7.678752865294672,6.262255809268309,-2.73849203240547,6.553996392645359,8.263047776726095,4.75752809070067,8.224974745170476,4.154046902355746,1.89287264728672,-4.318410036147804,2.268805927126869,6.155871518305452,-2.6317429135499997,8.557697910836888,-8.428423540779068,-6.192898809933517,0.7566360758306103,-5.991631454608408,6.8377103346569985,1.785361654077158,2.3077719674207704,-6.678850085418348,-8.44089658195708,-3.4877352308791956,-9.448517756912528,-8.315183021878948,-2.084223812345905,-0.7809966099198883],"bias":[[9.216119892040162,2.3719478204267643,-10.006590197871313,-2.520346951535495,0.49602186905244666,-6.53479445830044,-4.632275434354829,6.504873812577937,-6.781561011259625,3.205755458303913],[0.5202494670137099,8.91337379983809,9.23673832247422,1.6325256479379457],[3.6931018279683454]],"id":0,"number":381}
