{"architecture":{"NEURONS":[10,4,1],"LAYERS":3,"totalSynapses":44},"weights":[-5.264598760548214,-5.247333036937219,-0.8207692541683553,-1.7845797641994186,9.500165676411156,-5.753826145457669,5.538948132766806,-1.2120573011427993,-5.734351219385129,0.33921513404913284,4.863090078961448,-0.9569805578448977,-2.7427486111256982,-9.634020747856866,1.1661011363058433,6.7142097120904225,7.5579108682941865,6.262255809268309,-2.9964041559239085,6.691671479147511,8.441199336370293,4.901545799428857,8.837248380162482,4.154046902355746,1.604781571346846,-4.318410036147804,2.3597375746280975,6.01971811053684,-2.6036382765887223,9.548498109168886,-8.428423540779068,-6.102303246167476,0.4255320100658334,-6.2256647430454155,6.881329657295454,1.862424166009251,2.6166448958519193,-6.705774848643945,-8.46574226729505,-3.4606980886187877,-9.109399893396839,-7.862406636603858,-2.167719493720121,-1.157061963529383],"bias":[[9.751678574405593,2.3719478204267643,-9.959067238256457,-2.36970173892231,0.49602186905244666,-6.650773955151535,-5.102271378237004,-7.4323062186824025,-6.781561011259625,3.041319619106893],[1.107068311111713,9.040042104667812,2.0130553431609064,1.6325256479379457],[3.6931018279683454]],"id":0,"number":382}
