{"architecture":{"NEURONS":[10,4,1],"LAYERS":3,"totalSynapses":44},"weights":[-5.058430696367913,-5.247333036937219,-0.8207692541683553,-1.7845797641994186,9.642626218537412,-5.71102485675801,5.214803645767869,-1.29614242851889,-5.448607503933758,0.33921513404913284,4.858382166840424,-0.3182574949739019,-2.991280683510906,-9.660514847056724,1.1661011363058433,6.7142097120904225,7.916289026383148,6.399208396391746,-2.821123173918384,6.553996392645359,8.263047776726095,5.132582654987278,8.60512822479329,3.9027181235558728,1.7298300596274794,-4.557015008687925,2.268805927126869,6.409368436070002,-2.7354691623946312,8.628410377779767,-8.428423540779068,-6.225886652084512,0.22193057907752775,-5.991631454608408,6.8377103346569985,1.5317596695634659,2.6166448958519193,-6.271040483896767,-8.871868794899376,-3.25283301242338,-9.109399893396839,-8.05795948689504,-2.3563459795587423,-1.4400392967576745],"bias":[[9.222719350645171,2.6010529176267227,-9.959067238256457,-2.36970173892231,0.49602186905244666,-7.785355634366824,-5.102271378237004,-8.860118705983934,-6.781561011259625,2.934454204976025],[0.6276160329224078,9.040042104667812,2.0130553431609064,1.8806222000179118],[3.5238346615592944]],"id":0,"number":383}
