{"architecture":{"NEURONS":[10,4,1],"LAYERS":3,"totalSynapses":44},"weights":[-5.13344399756778,-5.108131913691131,-0.8207692541683553,-1.6234943358513516,9.500165676411156,-5.753826145457669,4.96173740757404,-1.7934726777565646,-5.7279518473589865,0.33921513404913284,4.7294697661670755,-0.919983012528035,-2.991280683510906,-9.490105428966283,1.7395977198825578,6.7142097120904225,7.5222397276402475,6.399208396391746,-2.821123173918384,6.553996392645359,8.263047776726095,4.901545799428857,8.837248380162482,4.154046902355746,1.604781571346846,-4.318410036147804,2.268805927126869,6.409368436070002,-2.353536970666182,8.557697910836888,-8.296861941569148,-6.102303246167476,0.4255320100658334,-5.991631454608408,6.881329657295454,1.8667096717326985,2.8891651029695193,-6.6923124670311465,-8.871868794899376,-3.25283301242338,-9.109399893396839,-8.05795948689504,-2.084223812345905,-1.157061963529383],"bias":[[9.293956430987118,2.3719478204267643,-9.959067238256457,-1.9624223535042546,0.49602186905244666,-6.53479445830044,-5.102271378237004,-8.608973247918753,-6.781561011259625,2.846749563028415],[1.3014147509923513,9.122098780934044,2.0130553431609064,1.6325256479379457],[3.6931018279683454]],"id":0,"number":384}
