{"architecture":{"NEURONS":[10,4,1],"LAYERS":3,"totalSynapses":44},"weights":[-5.13344399756778,-4.935462518181887,-0.8207692541683553,-1.7845797641994186,9.585971820299966,-6.147484578798944,4.96173740757404,-1.7934726777565646,-5.8436032588012,0.37502314405594706,4.7294697661670755,-0.919983012528035,-2.991280683510906,-9.19837425048042,1.3167743411453425,6.7142097120904225,7.821190819905769,6.510157923444491,-2.821123173918384,6.553996392645359,8.263047776726095,4.930499705582573,8.216042008730097,3.607174200432902,1.604781571346846,-4.383458938989661,2.268805927126869,5.902374600540902,-2.353536970666182,8.557697910836888,-8.296861941569148,-6.102303246167476,0.4255320100658334,-5.991631454608408,6.763601897260134,2.19364418525086,2.8891651029695193,-6.6923124670311465,-8.46574226729505,-3.5819817223012707,-8.47634619565394,-8.120516586614423,-2.084223812345905,-1.2382377227837096],"bias":[[9.222719350645171,2.3719478204267643,-9.767733168637115,-1.9624223535042546,0.6941429976402496,-6.706156874399268,-4.730052567785394,6.504873812577937,-6.830584000950757,3.1828046284875438],[0.48546586540958686,10.289177273004778,2.0130553431609064,1.6325256479379457],[3.9313809097567223]],"id":0,"number":385}
