{"architecture":{"NEURONS":[10,4,1],"LAYERS":3,"totalSynapses":44},"weights":[-5.270226870830132,-4.935462518181887,-0.8207692541683553,-1.7845797641994186,9.500165676411156,-5.753826145457669,5.214803645767869,-1.29614242851889,-5.8436032588012,0.1535804157306167,4.858382166840424,-0.9569805578448977,-2.8657933988593443,-9.660514847056724,1.3167743411453425,6.926966668034752,7.268792219467512,6.313681706515657,-2.73849203240547,6.553996392645359,8.745778048841464,5.144807277470119,8.837248380162482,4.154046902355746,1.7298300596274794,-4.318410036147804,2.131178784380911,6.155871518305452,-2.4379309323030656,8.628410377779767,-7.976361371942649,-6.102303246167476,0.4255320100658334,-6.595864529616666,6.8377103346569985,1.8667096717326985,2.6166448958519193,-6.271040483896767,-8.766229361255359,-3.4606980886187877,-9.109399893396839,-8.006148271412423,-2.084223812345905,-1.157061963529383],"bias":[[9.222719350645171,2.3719478204267643,5.916242383782768,-2.684670136404701,0.49602186905244666,-6.650773955151535,-4.632275434354829,-7.826917061599262,-6.963024808443184,2.967723321837621],[1.3014147509923513,9.122098780934044,1.967148843028402,1.6325256479379457],[3.4818400950980606]],"id":0,"number":386}
