{"architecture":{"NEURONS":[10,4,1],"LAYERS":3,"totalSynapses":44},"weights":[-5.264598760548214,-5.247333036937219,-0.8207692541683553,-1.7845797641994186,9.500165676411156,-5.753826145457669,5.57896576032752,-1.2120573011427993,-5.336405329257121,0.33921513404913284,4.8390742754283975,-0.919983012528035,-2.991280683510906,-9.19837425048042,1.2601837526787525,6.7142097120904225,7.611301748332015,6.313681706515657,-2.9964041559239085,6.446563442101427,8.441199336370293,5.144807277470119,8.216042008730097,4.226884902880295,1.604781571346846,-4.383458938989661,1.877060645131293,6.409368436070002,-2.6317429135499997,9.548498109168886,-7.976361371942649,-5.763831063992551,0.22193057907752775,-5.991631454608408,6.915688481534772,1.9651949190023685,2.8891651029695193,-6.705774848643945,-8.44089658195708,-3.68522315631578,-9.448517756912528,-8.368925840236788,-2.167719493720121,-1.4400392967576745],"bias":[[9.411484936543062,2.3719478204267643,-9.959067238256457,-2.684670136404701,0.6941429976402496,-6.650773955151535,-5.384717324881142,-8.427503666892989,-6.878846760357115,2.7764132615005495],[1.3014147509923513,9.122098780934044,2.0130553431609064,1.6325256479379457],[3.6931018279683454]],"id":0,"number":387}
