{"architecture":{"NEURONS":[10,4,1],"LAYERS":3,"totalSynapses":44},"weights":[-5.0246724855878835,-5.130387493969357,-1.004120614989872,-1.8318483171112574,9.436530308691474,-5.781792985315948,5.538948132766806,-1.3783401606552887,-5.7279518473589865,0.009685363760294108,4.858382166840424,-0.3182574949739019,-2.8657933988593443,-9.19837425048042,1.3167743411453425,7.839542027111002,7.812640881778577,6.313681706515657,-2.73849203240547,6.335067246073221,8.745778048841464,5.172761761090149,8.837248380162482,4.154046902355746,1.89287264728672,-4.318410036147804,2.268805927126869,6.155871518305452,-2.6805266805533656,9.116239986939632,-8.572507399133515,-6.102303246167476,0.4255320100658334,-5.991631454608408,6.763601897260134,1.9651949190023685,2.8891651029695193,-6.705774848643945,-8.766229361255359,-3.68522315631578,-9.109399893396839,-8.089238036754733,-2.084223812345905,-1.157061963529383],"bias":[[9.222719350645171,2.3719478204267643,-10.158678523975619,-2.5573835021316986,0.49602186905244666,-6.205623677797381,-5.102271378237004,-8.860118705983934,-6.781561011259625,2.967723321837621],[0.48546586540958686,9.040042104667812,2.0521578662159974,1.6325256479379457],[3.6972868356415938]],"id":0,"number":388}
