{"architecture":{"NEURONS":[10,4,1],"LAYERS":3,"totalSynapses":44},"weights":[-5.270226870830132,-5.476376191701919,-0.8207692541683553,-2.1812472011600157,9.35998520559995,-6.147484578798944,4.480901935535266,-1.7934726777565646,-5.734351219385129,0.37502314405594706,4.858382166840424,-0.919983012528035,-2.8657933988593443,-9.660514847056724,1.3167743411453425,6.7142097120904225,7.5579108682941865,6.131686650015243,-2.73849203240547,6.553996392645359,8.263047776726095,5.009942861016572,8.384352495404102,3.607174200432902,1.6221627400521355,-4.318410036147804,2.268805927126869,5.902374600540902,-2.4379309323030656,9.548498109168886,-7.82011431777931,-6.033407536678782,0.4255320100658334,-6.711019166122349,6.881123921665612,2.0402785786423423,2.483024013875367,-6.206536587495582,-8.46574226729505,-3.57647463453242,-8.47634619565394,-8.315183021878948,-2.084223812345905,-1.1894598492993405],"bias":[[9.222719350645171,2.3719478204267643,-10.12688599904965,-1.9624223535042546,0.49602186905244666,-6.650773955151535,-4.955325224387178,6.504873812577937,-6.781561011259625,2.6564936198950377],[1.107068311111713,9.122098780934044,9.029311850628453,1.807709219706565],[3.6931018279683454]],"id":0,"number":389}
