{"architecture":{"NEURONS":[10,7,1],"LAYERS":3,"totalSynapses":77},"weights":[-8.977168120939531,9.627817079554381,-5.672138104431502,-6.40306975450636,7.69172500317014,4.797372794767379,-0.31074046222417806,3.7162026191286577,9.03551983539745,0.6765542956730226,-1.083063380392689,-2.278648564323981,-8.670856757533645,-8.217072266745786,-7.1448613974827335,3.809278495986989,3.8436989653597426,-4.575520005011351,1.67196711005073,-8.68679531973976,1.549676942172133,-2.0223838866203594,-6.291435415217852,-10.393373540469993,-8.883565668304827,-1.8471055585395793,-9.128293211990313,6.7252621464851865,-1.4084167302642483,1.4335259128557185,1.25385206013932,8.920086055248643,-11.080618390211114,-5.103662635992298,-9.387639703024478,0.4185774998404994,-0.5320503279250398,-0.8012383450837641,-7.441873248703793,-1.965494609141607,7.518595353584722,4.488029040885619,4.418603388029255,8.679947329414741,-6.8568670992110645,-10.301137965111243,6.833869768280478,-4.64772486554319,4.75973845977703,1.9287603866060457,7.097562012892789,-1.887795139254342,-2.425924594037893,3.036168616411258,3.919267783042521,-6.416393473762106,6.592439792942567,0.4857233402851756,1.2828035880951514,-10.243345835768176,2.853745194641483,4.813801418955334,1.5653137464216356,-4.108951077927997,-0.7321390749519043,-2.7612599662236383,0.8585975641202964,-2.1637482757522513,-6.388401801690305,0.2780699837722695,-2.6268827963905252,-7.331939756107156,8.415372681061777,-9.095470029361632,-2.4782859665711405,-7.403278965141761,-4.371147026023303],"bias":[[-10.588383808251288,1.480676015971852,3.673788795124778,6.641720396294903,-0.4539701478806666,5.632941563645035,10.333281321402733,-1.536099501698129,-0.5776206742488527,0.09040933134916379],[1.2216870655599628,-2.9021435984217225,-5.368929029916076,-8.08357697278088,2.5612626743238334,4.102362229260382,-5.112362074479668],[-2.189071763411247]],"id":0,"number":39}
