{"architecture":{"NEURONS":[10,7,1],"LAYERS":3,"totalSynapses":77},"weights":[-4.289172580101112,4.1759821598932305,1.213074550410148,-2.185846355750327,-5.416000618068991,9.441907750515247,5.273793093363168,-0.3849336595001566,2.109976937331826,0.06600707616856674,1.1204459505132165,-2.5749184902963433,9.384585324538728,5.874506779783566,-2.7019072100886676,-2.399915951974916,-7.752264725207496,2.7917425839123178,-9.815837422590738,-8.98201054380791,5.764181041986725,-0.8272344521344448,-2.4742215359336015,5.37340506124315,-0.9272910039422326,-7.47045167587498,0.7958586095464519,3.278347085155818,-0.5786151600130313,3.496480192663244,8.659730559234417,7.9840553912395364,4.947628533296874,6.6544643956373735,-8.745781811307118,3.9589503313125043,4.509997593606424,5.617571791757269,4.925774198335841,-2.897918281674221,4.15347137195001,-6.215689123716642,-4.8469687943784034,1.7356126720683265,-8.375711558677635,2.589393540110727,-4.453534862955982,0.701361144447896,4.2285365842526454,5.920583682292796,1.4273302295884664,-6.244034835892815,7.979414688844329,-4.994107173063826,-3.9551880707611202,-5.201454542816837,-6.314482144072044,4.7153245921347295,-0.7249458417472985,3.3731562025920856,-6.826744883319775,-3.4236657494877347,7.65645936010253,-8.98727506887155,-4.208081325033281,-1.982027919970296,-6.303815539647192,3.330896130275272,7.421809935535287,-0.8964757575183592,-7.313292835391844,3.9696121338043313,0.9324150559661927,0.07652183515349126,7.271406116726917,5.344115410905584,-1.3505975488388617],"bias":[[-7.7181432586536145,4.251556107841332,-5.45323208411354,4.529247451319476,3.6156554395736697,10.215280597200893,7.8220309674566595,-6.446620726874705,7.566598334687868,0.30524263178228184],[0.16389511550986421,0.7433759696977563,-5.096830132462004,-8.507271151562698,0.8338587079794192,6.1370216321212245,7.104995231998386],[-5.143943112947982]],"id":0,"number":39}
