{"architecture":{"NEURONS":[10,4,1],"LAYERS":3,"totalSynapses":44},"weights":[-4.9495115555557385,-4.93585758157405,0.5686529754562594,-1.8790420360856679,9.599961355998795,-4.9108389597726765,5.884035779026262,-1.9076229427351468,-5.028034822529039,0.30204358396165065,4.708270376896566,0.42273350242791174,-2.8314544540747137,-9.595764299983896,1.2128193157077214,8.057722165120712,7.7025523975300105,6.528545579580549,-2.2651339662326744,6.453457326596539,8.490165300461314,4.8517918389960215,7.771731066353908,3.771145464143087,2.074729753708842,-4.005388511750406,2.4684404115260463,6.541283591073817,-3.183860239635002,9.502114251845168,-7.779340784320755,-6.231854462400097,0.6487881360821467,-5.493473591049234,6.616606583157658,1.5608720931329998,2.4167149428455237,-6.689976637295818,-8.731664980009548,-3.750305328389405,-8.878119672789996,-7.735914990535486,-1.236111253626187,-2.0442138476896154],"bias":[[-8.625926697232106,2.245017427634482,-9.638281380756686,-2.232100574296333,1.4481782777334329,-5.086010529657615,-9.83565943536265,-8.116106277592127,-1.939096282499726,3.046509775832843],[-7.192084991397948,6.186568769597968,2.068813076453355,0.6548853468030558],[4.636143817749678]],"id":0,"number":39}
