{"architecture":{"NEURONS":[10,4,1],"LAYERS":3,"totalSynapses":44},"weights":[-5.270226870830132,-5.108131913691131,-1.004120614989872,-1.7845797641994186,9.500165676411156,-6.2641856314569235,5.214803645767869,-1.3783401606552887,-5.734351219385129,0.37502314405594706,4.858382166840424,-0.919983012528035,-2.8657933988593443,-9.19837425048042,1.7395977198825578,6.7142097120904225,7.5579108682941865,6.250987513276816,-2.73849203240547,6.553996392645359,8.614300364576481,4.850854435661816,8.696347720913895,4.072699611140388,1.89287264728672,-4.318410036147804,1.877060645131293,6.128807919796429,-2.6805266805533656,8.628410377779767,-8.296861941569148,-6.102303246167476,0.4255320100658334,-6.711019166122349,6.763601897260134,1.9651949190023685,2.1937446556395113,-6.271040483896767,-8.46574226729505,-3.25283301242338,-8.47634619565394,-8.390854367264737,-2.167719493720121,-1.4400392967576745],"bias":[[9.222719350645171,2.3719478204267643,-10.158678523975619,-2.5573835021316986,0.49602186905244666,-6.650773955151535,-4.632275434354829,-8.860118705983934,-6.781561011259625,2.846749563028415],[1.107068311111713,10.289177273004778,1.967148843028402,1.6325256479379457],[3.4818400950980606]],"id":0,"number":390}
