{"architecture":{"NEURONS":[10,4,1],"LAYERS":3,"totalSynapses":44},"weights":[-5.264598760548214,-5.130387493969357,-0.7000191725539832,-2.1812472011600157,9.31989687540592,-5.613037665252589,4.480901935535266,-1.7934726777565646,-6.337450844445512,0.1535804157306167,4.7294697661670755,-0.919983012528035,-2.715971586776848,-9.19837425048042,1.3167743411453425,6.7142097120904225,7.5579108682941865,6.262255809268309,-2.73849203240547,6.553996392645359,8.152286880338174,5.009942861016572,8.384352495404102,4.154046902355746,1.6221627400521355,-4.318410036147804,2.268805927126869,5.902374600540902,-2.6995569298538107,8.557697910836888,-8.428423540779068,-6.121589783896123,0.4255320100658334,-6.711019166122349,6.332410163523405,2.0476974969594948,2.5132078923906036,-6.271040483896767,-8.46574226729505,-3.25283301242338,-8.47634619565394,-8.120516586614423,-2.515863510848316,-1.157061963529383],"bias":[[9.222719350645171,2.6010529176267227,-9.863386922211921,-1.9624223535042546,0.3735802898525742,-6.53479445830044,-5.102271378237004,6.504873812577937,-6.830584000950757,2.967723321837621],[1.107068311111713,9.040042104667812,2.0130553431609064,1.6325256479379457],[3.6931018279683454]],"id":0,"number":391}
