{"architecture":{"NEURONS":[10,4,1],"LAYERS":3,"totalSynapses":44},"weights":[-5.270226870830132,-5.130387493969357,-0.7000191725539832,-1.7845797641994186,9.35998520559995,-5.753826145457669,5.2056472246758405,-1.4993428301695138,-5.734351219385129,0.08317396711336097,4.87056678926237,-0.9384817851864664,-2.8657933988593443,-9.634020747856866,1.120609457738589,6.7142097120904225,7.5579108682941865,6.165477676205655,-2.73849203240547,6.553996392645359,8.614300364576481,4.901545799428857,8.837248380162482,4.311262950586121,1.6221627400521355,-4.318410036147804,2.268805927126869,6.2488204230733375,-2.6805266805533656,9.116239986939632,-8.096373892330705,-6.248871157483462,0.508540503081239,-5.9084616144496955,6.881329657295454,2.069498695774472,2.1937446556395113,-6.271040483896767,-8.766229361255359,-3.68522315631578,-9.448517756912528,-8.006148271412423,-1.7026555812749582,-0.7809966099198883],"bias":[[9.222719350645171,2.3719478204267643,-9.890223794211417,-1.9624223535042546,0.49602186905244666,-6.3170005471761,-5.102271378237004,-7.4323062186824025,-6.781561011259625,2.967723321837621],[1.107068311111713,10.127857959203263,1.967148843028402,1.4815195139451443],[3.6931018279683454]],"id":0,"number":392}
