{"architecture":{"NEURONS":[10,4,1],"LAYERS":3,"totalSynapses":44},"weights":[-5.0246724855878835,-5.108131913691131,-1.004120614989872,-1.7845797641994186,9.745602592568448,-6.2641856314569235,5.214803645767869,-1.3783401606552887,-5.7279518473589865,0.37502314405594706,4.858382166840424,-0.919983012528035,-2.655708375205698,-9.19837425048042,1.1661011363058433,6.7142097120904225,7.014928996334771,6.313681706515657,-2.73849203240547,6.335067246073221,8.745778048841464,5.169031286371329,8.837248380162482,4.072699611140388,1.89287264728672,-4.318410036147804,1.877060645131293,6.128807919796429,-2.4379309323030656,8.557697910836888,-8.296861941569148,-6.102303246167476,0.4255320100658334,-6.711019166122349,6.763601897260134,1.9651949190023685,2.5132078923906036,-6.271040483896767,-8.46574226729505,-3.68522315631578,-9.109399893396839,-8.120516586614423,-2.077422237019589,-1.157061963529383],"bias":[[9.222719350645171,2.3296339098275958,5.917549599591748,-2.5573835021316986,0.49602186905244666,-6.650773955151535,-4.955325224387178,-8.860118705983934,-6.781561011259625,2.967723321837621],[1.107068311111713,10.289177273004778,2.0521578662159974,1.6325256479379457],[3.4818400950980606]],"id":0,"number":393}
