{"architecture":{"NEURONS":[10,4,1],"LAYERS":3,"totalSynapses":44},"weights":[-5.270226870830132,-4.935462518181887,-0.8207692541683553,-1.7845797641994186,9.35998520559995,-6.147484578798944,5.1947676657955295,-1.7185931632665299,-5.734351219385129,0.37502314405594706,4.858382166840424,-0.9569805578448977,-2.8657933988593443,-9.000154330015508,1.7395977198825578,6.7142097120904225,7.5579108682941865,6.313681706515657,-2.73849203240547,6.553996392645359,8.152286880338174,5.009942861016572,8.384352495404102,4.291902537035108,1.6221627400521355,-4.318410036147804,2.255089456776538,6.128807919796429,-2.3662874308285193,8.61796671771666,-8.135262335097483,-6.084084652791555,0.4255320100658334,-6.355987392151516,6.881123921665612,1.9717875349561966,2.5132078923906036,-6.271040483896767,-8.766229361255359,-3.57647463453242,-8.47634619565394,-8.315183021878948,-2.084223812345905,-1.1894598492993405],"bias":[[9.222719350645171,2.3719478204267643,-10.219515171567345,-2.684670136404701,0.49602186905244666,-6.650773955151535,-4.632275434354829,6.504873812577937,-6.781561011259625,2.7764132615005495],[1.107068311111713,9.122098780934044,2.0130553431609064,1.6155420593153156],[3.4818400950980606]],"id":0,"number":394}
