{"architecture":{"NEURONS":[10,4,1],"LAYERS":3,"totalSynapses":44},"weights":[-5.0246724855878835,-5.546736935039063,-0.8207692541683553,-2.1812472011600157,9.500165676411156,-5.753826145457669,5.328623066710223,-1.7934726777565646,-5.8436032588012,0.33456321506812503,4.701089661593816,-0.9569805578448977,-2.8439598164258615,-9.490105428966283,1.7395977198825578,6.7142097120904225,7.812640881778577,6.399208396391746,-2.73849203240547,6.553996392645359,8.152286880338174,5.144807277470119,8.837248380162482,4.072699611140388,1.89287264728672,-4.39057733320952,2.255089456776538,5.902374600540902,-2.3662874308285193,8.61796671771666,-8.296861941569148,-6.102303246167476,0.22193057907752775,-5.991631454608408,6.763601897260134,1.8667096717326985,2.578397231224452,-6.6923124670311465,-8.46574226729505,-3.25283301242338,-9.282628442546514,-8.390854367264737,-2.116873802382702,-1.1225957831127265],"bias":[[9.293956430987118,2.3296339098275958,6.465406218393443,-2.684670136404701,0.49602186905244666,-6.768617610557308,-4.955325224387178,-8.608973247918753,-6.80996479207495,2.707653947462279],[0.48546586540958686,9.122098780934044,2.0277741715790203,1.645973951490185],[3.544390690324773]],"id":0,"number":395}
