{"architecture":{"NEURONS":[10,4,1],"LAYERS":3,"totalSynapses":44},"weights":[-5.0246724855878835,-5.7426130802987645,-0.8207692541683553,-2.1812472011600157,9.745602592568448,-5.753826145457669,5.214803645767869,-1.3783401606552887,-5.487229751299146,0.21955345484543337,4.701089661593816,-0.9569805578448977,-2.8439598164258615,-9.490105428966283,1.3167743411453425,6.7142097120904225,7.812640881778577,6.262255809268309,-2.274995645262355,6.714591619274952,8.745778048841464,5.144807277470119,8.837248380162482,4.072699611140388,1.6221627400521355,-4.39057733320952,2.255089456776538,5.902374600540902,-2.6805266805533656,8.557697910836888,-8.296861941569148,-6.121589783896123,0.22193057907752775,-5.991631454608408,6.763601897260134,1.4526379557151476,2.578397231224452,-6.271040483896767,-8.46574226729505,-3.404808653809424,-9.109399893396839,-8.390854367264737,-1.7026555812749582,-1.157061963529383],"bias":[[8.93939832141363,2.3719478204267643,-9.890223794211417,-2.684670136404701,0.6717427228381785,-6.706156874399268,-4.817534871675723,-7.440534361465813,-6.963024808443184,2.7966221311765196],[0.48546586540958686,9.040042104667812,2.0521578662159974,1.645973951490185],[3.544390690324773]],"id":0,"number":396}
