{"architecture":{"NEURONS":[10,4,1],"LAYERS":3,"totalSynapses":44},"weights":[-5.13344399756778,-4.8934682187758325,-0.4336461827231045,-2.1812472011600157,9.500165676411156,-5.753826145457669,5.214803645767869,-1.7934726777565646,-5.734351219385129,0.08317396711336097,4.858382166840424,-1.2570496519158487,-2.9584689622869815,-9.061854369064914,1.2307007275044444,6.7142097120904225,7.088289992356416,6.077615198867903,-2.73849203240547,6.548727319482655,8.614300364576481,5.305346111567576,8.696347720913895,4.038676677831629,1.6221627400521355,-4.318410036147804,2.2985533092776236,5.902374600540902,-2.3662874308285193,8.557697910836888,-7.976361371942649,-6.102303246167476,0.4255320100658334,-5.9084616144496955,6.881329657295454,1.7466415228307504,2.5132078923906036,-6.271040483896767,-8.46574226729505,-3.25283301242338,-9.282628442546514,-8.337648075858302,-2.289224274159555,-1.1225957831127265],"bias":[[9.222719350645171,2.3719478204267643,6.465406218393443,-2.853836978143591,0.49602186905244666,-6.650773955151535,-5.206939560457503,-8.882699834916838,-6.963024808443184,2.707653947462279],[1.0750671134800636,9.131214773773433,2.0130553431609064,1.6325256479379457],[3.4818400950980606]],"id":0,"number":397}
