{"architecture":{"NEURONS":[10,4,1],"LAYERS":3,"totalSynapses":44},"weights":[-5.0246724855878835,-4.935462518181887,-0.8207692541683553,-1.7845797641994186,9.35998520559995,-5.753826145457669,5.214803645767869,-1.7934726777565646,-5.777467615974725,0.009685363760294108,4.478014578241329,-0.903912433420801,-2.715971586776848,-9.319696010875841,1.1321642130612513,6.7142097120904225,7.5579108682941865,6.313681706515657,-2.73849203240547,6.335067246073221,8.894072193755015,5.009942861016572,8.837248380162482,4.08373361473108,1.6221627400521355,-4.318410036147804,2.255089456776538,6.155871518305452,-2.3662874308285193,8.61796671771666,-7.976361371942649,-6.102303246167476,0.4255320100658334,-6.355987392151516,6.332410163523405,1.8667096717326985,2.4075086535754715,-6.271040483896767,-8.46574226729505,-3.25283301242338,-9.282628442546514,-7.895645261498352,-2.084223812345905,-1.157061963529383],"bias":[[9.150740968831855,2.3296339098275958,-10.219515171567345,-2.9166955726665194,0.49602186905244666,-6.650773955151535,-4.955325224387178,6.504873812577937,-6.671519935458556,2.7764132615005495],[0.48546586540958686,9.122098780934044,2.0130553431609064,1.645973951490185],[3.6931018279683454]],"id":0,"number":398}
