{"architecture":{"NEURONS":[10,4,1],"LAYERS":3,"totalSynapses":44},"weights":[-4.573064728759449,-5.108131913691131,-0.8207692541683553,-1.7845797641994186,9.35998520559995,-6.147484578798944,5.214803645767869,-1.7934726777565646,-5.8436032588012,0.009685363760294108,4.858382166840424,-0.919983012528035,-2.600354140996964,-9.490105428966283,1.2382657735014808,6.7142097120904225,7.014928996334771,6.313681706515657,-2.73849203240547,6.456078092122115,8.986128222262344,5.144807277470119,8.837248380162482,4.056535169085965,1.89287264728672,-4.160734577589454,2.268805927126869,5.902374600540902,-2.6317429135499997,8.61796671771666,-8.296861941569148,-6.102303246167476,0.4255320100658334,-6.567745516943039,6.449645445065685,1.8205726607534791,2.1937446556395113,-6.271040483896767,-8.46574226729505,-3.404808653809424,-8.47634619565394,-8.120516586614423,-2.084223812345905,-1.157061963529383],"bias":[[9.222719350645171,2.3719478204267643,5.917549599591748,-2.5573835021316986,1.0449854266305478,-6.650773955151535,-4.955325224387178,-8.117299626649316,-6.781561011259625,2.9343258974972133],[1.2828329104597198,10.289177273004778,9.275190547283518,1.6325256479379457],[3.4818400950980606]],"id":0,"number":399}
