{"architecture":{"NEURONS":[10,7,1],"LAYERS":3,"totalSynapses":77},"weights":[4.224476883288871,-4.154295931612524,1.5877439398601765,-1.3309538284995526,10.177305220307858,2.5726756388035885,7.48579587680657,4.111653450618146,-8.695784153670987,2.9282007939168824,-5.788136210120288,1.5740153370517296,6.679342902025701,-3.1376855510162125,7.681765781353801,-9.303916990667036,-1.2202172587849778,3.994123421114601,-0.7652389606406121,0.8075675568898799,0.6730921501300976,6.9582820545385164,-7.590013907342317,-9.490734919101314,3.2359845795610886,-0.6305975654548689,5.557343851969836,-3.3933995581083294,-7.2288519175438175,10.959758631041293,-4.882303614894796,9.282546896620875,-4.571794399725654,-0.5788759929919833,5.764241941650861,-9.38613833695066,-9.077380879823243,9.589241003364076,-7.142627176805083,4.6719719831600495,-1.6627407188345884,4.1001118877801215,6.216970132648505,1.5926263546027726,-5.772151126595761,-4.3336518840936025,1.4196923722634625,-0.7117552968116951,10.2492646481838,0.2755193242437136,-9.875579670565472,-9.826800236777316,-4.2608866219552795,-2.130551800997006,5.996185456065353,6.800420605303598,-6.412159159306582,7.035546665361994,1.2605886698662232,-6.9160776660469745,-0.12374966742880521,3.3432435545507295,-5.359699609967222,-6.817335548688492,7.914848182014609,-0.5443928520031946,2.5679408011279845,-3.222204456283567,4.061535299959059,-7.115011660455928,-8.172095532385121,-6.147707462003326,3.3392767689453127,-3.179196686482393,-3.2503249630658955,0.2454855622347274,-3.1010233778192577],"bias":[[-6.67914769771043,9.811191900361761,-8.845204235496169,-6.176870198085036,3.606157150748984,8.742388157795213,5.613187378740089,2.7049806561706977,3.443645379293279,6.107474350631021],[9.07094372508427,-2.0937999789152064,0.19455500644259888,6.976170822309676,-8.963475115513392,0.7412357580440315,-11.328851807648997],[-7.026729127565058]],"id":0,"number":4}
