{"architecture":{"NEURONS":[10,7,1],"LAYERS":3,"totalSynapses":77},"weights":[5.692723863265353,2.0637449014019937,-2.0430319003304653,8.467733011250566,-9.403671398614273,6.773851081592995,-1.6435078950120467,-4.670236466665912,9.047751911729813,-0.1655260584940974,-2.2343100147088464,-5.628904559424077,-8.46799323416538,1.7120794745936898,1.0269485786344155,-5.123591518375266,-6.614818722650639,0.2260788143842279,7.740772600470916,-6.218178994472494,6.623271647802548,2.158671122193782,-6.289554515192433,4.6636459335422416,6.498827335440818,-2.6067883184805463,6.1511143539239725,-10.029503570824986,5.634662315410389,-2.358542134301412,2.5013744388362276,-5.891327555798303,9.017279966075856,7.083359993210088,3.799857579805309,0.5509734082005568,8.943212532662187,9.566103119526975,-6.355746359246721,6.267428456063865,-6.619664559443241,-8.075404116310608,9.10156820220299,3.460036332215118,-3.525563834315863,2.74828692758523,-3.6241318964960065,9.81592924368513,-0.3815970436477638,-3.9333020436257056,1.9648491329895532,6.829100158356515,-7.510217234831987,0.8378149204739188,6.302040385777142,-5.59732121304555,-5.38316834675978,8.41569006260973,-0.4337240819276349,-3.300212199294533,8.134188444558308,1.8244185214217383,8.702697806886093,2.309271106196375,-4.859099057741121,0.8193262576988207,7.432363790145075,-6.6542287636818305,0.5944061751083612,-6.079787559632724,7.425459857945044,3.3915824173041713,-2.8702710406439045,1.4669493216608807,-2.109610664151157,-4.909568932180652,1.251716925941441],"bias":[[-7.516080377193893,-3.7123632663220576,-6.824173557898394,-6.849581292699144,0.2881166604273905,-9.084725407311613,-4.610560495182534,2.1578174526149927,-3.0998047248110643,-0.6749449317650884],[4.994510360419815,5.930649048443144,7.91435110522222,-8.061471610912674,5.301931635965733,-6.444097551140178,0.5239751443415095],[-3.338357407741081]],"id":0,"number":4}
