{"architecture":{"NEURONS":[10,7,1],"LAYERS":3,"totalSynapses":77},"weights":[-4.0955554401516725,3.8873038836294267,1.329584267230709,-2.34688943976491,-5.495215786774116,9.192317175604655,6.432690456916419,0.4686774952736476,2.6510142368413394,-0.6370764685963777,2.4876813316988904,-3.3807275716061524,9.500788902251543,7.365651082953131,-2.0907666196087504,-2.5791961927028533,-7.748697829996624,3.1919243977108045,-9.321387693258249,-9.61520367848211,6.132801228046599,-1.4903806586302775,-1.6537491170951435,5.378217243081803,0.09849015094401828,-6.732403930514033,0.5996938961206565,3.5684814403050953,-1.6077674572366267,3.2281298180599736,9.195927790851925,7.2245979331318555,4.169370795816912,6.793107861566514,-8.730114641853334,5.018902210742309,4.114349469651709,4.554429423723615,5.9216447248415385,-1.6682739588591375,4.963981612144108,-5.485521218590395,-6.353324085488933,2.3366779309892753,-6.7118118167205765,3.604872914626623,-3.9031246540081055,-0.8608407736277792,3.221996228696195,6.080811643070522,1.9459392494215901,-8.001716914016518,7.60376022963027,-5.25487073957265,-3.5615021492872327,-5.343850373721706,-6.134402289452424,3.804670136013837,-0.9157325482189715,3.2349638961385567,-6.688531265588535,-3.9057698814820356,6.6883884866335634,-9.54959745426875,-4.170275708451723,-2.342163178154823,-5.496650931080178,3.6049781622501635,8.146636103659924,-0.11639846265761167,-6.412084368522163,3.338641170642785,0.9914343194349011,-1.4590835900473562,7.197253638592642,5.5408033932495755,-1.5483163819736745],"bias":[[-8.345893728323341,4.463941496155163,-5.5639593104243685,4.164994831662495,2.5688843021531573,8.4583377357996,8.061091089891374,-6.637087778134651,6.910079250567414,0.3193215444928072],[-1.1118779245576318,0.4308980867102642,-5.4436002669160315,-8.794766163428331,0.30047047864719434,6.45176017218046,7.4113150429458745],[-4.918166832955477]],"id":0,"number":4}
