{"architecture":{"NEURONS":[10,7,1],"LAYERS":3,"totalSynapses":77},"weights":[4.388034243456835,4.123134891401536,-4.629162979744342,0.6594478652134919,-1.4918770278018325,-9.581315526330874,-10.082635437137245,-3.319873727021906,6.020885761071177,7.282638529520055,-4.2749181782526025,-2.4079804932902737,4.825241565793579,9.620939506799342,8.159713986254518,-0.702721976590549,4.359416135751225,10.033945234276349,-7.727453016847348,-3.8507801397045736,8.343761355107155,-9.489410451924561,-9.19237368740571,-8.154550902261956,6.641142093414344,4.969951189356157,5.949985822057267,4.624311559281791,5.556514098275498,5.980655774752524,-2.1553588112230733,0.9408298274003941,-3.6906163933881526,-7.691176185976972,-9.235021257768121,3.4435885491528024,7.278449871006535,-5.39991607176935,4.836303805836383,9.925224996079038,1.1079593389789386,2.750411686766938,-7.239780226582243,2.680487430031986,-8.010411516167155,4.772591788498951,-4.085378268575829,2.348867937964778,-7.982147173744323,-6.250805166680211,2.029892018066666,3.2398989295553773,2.924034610246652,-6.5614250337456355,2.427755451893284,3.9938401319877848,6.221386886648112,-4.391781945474542,-2.711890175638245,9.416592701886444,8.495181339038105,4.087035623346309,-0.8486822891166195,-1.718036275347468,2.7342708448247453,-4.135267175451457,8.330575676399413,-4.850982952864249,-9.431375201156191,8.713638853061616,-2.313925946032039,3.944557148589272,8.784853115324797,8.171792778767314,-9.264332520523466,8.529821816491891,-7.494451495754427],"bias":[[7.209148522342161,-6.330298646120026,3.422613698408411,-4.9551449749596275,2.5394813118844537,6.728747914650839,-8.5160587871093,-2.884734934789948,3.043706742287752,-8.753526605358509],[3.9532711325674113,-3.8737805228697253,-8.566307097302367,-2.9427149685722327,-7.951354483443805,0.33370511646191686,3.1656000195652156],[-3.0913920693417984]],"id":0,"number":4}
