{"architecture":{"NEURONS":[10,3,1],"LAYERS":3,"totalSynapses":33},"weights":[6.3984371394106425,2.4677947326853116,-9.222915579412545,-0.4888811368313597,8.151933779683228,-1.240056507003855,6.115231367669712,2.2646996052976367,-0.782553103617103,-2.8032718659078264,0.5336299680502954,-4.732762334932888,4.106976167706065,4.139019645505844,-4.374518896695234,0.2695071120276431,-6.9139232073822114,-3.316456498649389,3.742374023243143,-3.3795578257122223,-0.9971955797384391,-3.544281609149857,-2.148499954055236,0.9073745669587876,0.18752842673482562,-0.6125408642442354,-6.918675811631294,-2.813636047812979,-5.358971204327256,-1.6527066318758026,-1.4879396294034528,5.007060029895241,0.32876887959584433],"bias":[[-5.530043475367301,-7.438504833234307,5.203966017227072,4.922184807075026,-0.310926657114622,3.0194463179654205,5.454119144665652,5.002605692439824,-3.624047292337009,1.5588859484068527],[-7.714938522694322,0.6592553636429748,-9.994629021368311],[3.70772448847619]],"id":0,"number":4}
