{"architecture":{"NEURONS":[10,4,1],"LAYERS":3,"totalSynapses":44},"weights":[-4.834493499622213,-5.236092416028952,1.0521300668993234,-1.8790420360856679,9.507814506835649,-4.6300155428823935,5.931832152870299,5.601886597981708,0.7225370813226073,-0.09389468389182909,5.192709666236171,3.7011798710092316,-2.735268918155077,-9.702049674102946,1.1067229965546368,6.565030723128219,-4.079503405138733,6.822798069635287,-1.5025059423738254,6.7572627672355345,8.608670623143247,4.906528325556119,7.771731066353908,3.5722285386199637,1.9978978553689493,-3.9535316548413917,1.1773028413281512,6.541283591073817,-3.3322049777484386,9.502114251845168,-7.957531040167202,4.428668169626837,0.8421553878726407,-5.554267822974435,6.6811820446505985,1.3192503181469597,2.4062185276814403,-6.689976637295818,-8.516354952294646,-7.252084263256594,-9.025185156465165,-7.735914990535486,6.760365419563164,-0.7752033301124666],"bias":[[-8.13366234820025,2.726755749434613,3.559759925298785,-2.232100574296333,0.6456834843329382,-5.176203419913459,-9.91867120468144,-7.910820923819324,-5.569148951123373,2.9387931116759454],[-6.7672952264587405,6.31210663927828,-3.6114236902985013,0.6548853468030558],[4.636143817749678]],"id":0,"number":4}
