{"architecture":{"NEURONS":[10,7,1],"LAYERS":3,"totalSynapses":77},"weights":[-9.20510078188516,9.862099749849122,-6.668255373592882,-9.070936430493392,6.984597938088789,6.9236605852771005,-1.1391366315108593,4.636203251857256,7.7369590349290425,-0.3974403591721703,-0.5781394178882541,-4.562421011359285,-8.845531247939228,-9.147140925685795,-5.807589266762157,3.2975063789239494,6.281209555957755,-4.207512321577452,1.3980393816563037,-9.530421654850207,2.2397865660313703,-3.4053431746178564,-6.030697447678344,-10.639966708301884,-7.197661974511774,-2.7038366392118682,-7.566855775660515,5.173847114398357,-1.1803856180351109,1.298490376463512,0.6972011917936933,7.687004496927339,-10.062592077196882,-6.192921616782871,-9.741489560132866,0.7906082501471263,-2.4361124518951756,-0.5759456452839745,-6.235965748192883,-1.8398677571714939,6.8371583787092955,3.0806451839244176,5.239920977798667,5.850796740812862,-9.524147007924284,-8.855622027606934,9.069325710574288,-7.509520698024307,3.8040777455002224,-0.5464475478310145,7.102658409880473,-3.453368109007592,-2.45810567734951,2.1217858747613647,6.27784673017236,-5.515782738792799,5.457408997522394,-1.7093190705777532,4.356358818314755,-9.004042380929294,5.416168790645169,6.4346276565576765,0.5898655843810345,-3.804607730682671,0.075026527982302,-2.3727175685102955,-1.2743009415017554,-2.8463868803367736,-7.503987660678209,1.4719940436102985,-3.9529230464942944,-7.472134893859454,9.94008542529345,-7.983474914881897,-2.7438647901434745,-6.917123537937295,-4.838459730226875],"bias":[[-9.30285809002533,1.8652658317330615,3.3236100369199515,4.841335531677135,-0.14913406218444614,5.153089358957314,7.982122661338055,-1.145121121173334,-1.209851637417554,-0.6391338964292852],[0.9092855023739651,-3.0647256024079095,-3.8706921841793465,-5.928270997071924,3.5417738611298435,4.322830301253943,-3.736534154627853],[-2.301627475471094]],"id":0,"number":40}
