{"architecture":{"NEURONS":[10,7,1],"LAYERS":3,"totalSynapses":77},"weights":[-4.086752554445847,3.747128530165713,0.5128546180588711,-3.071264169984814,-5.183601439267937,9.872354136734682,6.429740437591819,0.5863195361969336,2.9384767569003034,-1.2692532969865353,0.7288072236648788,-1.576259456772099,8.790797755704753,6.171822877295949,-3.409975225620273,-2.163369479386224,-7.586721166378426,3.2263116700023176,-9.671777079467821,-9.838028010842578,5.729488609815822,-0.05940073498835857,-2.332389695299465,4.435265184779396,-0.2993118404692811,-7.335703422967405,0.7075558452892239,3.100787088363325,-0.1795772558231395,4.063124202620765,8.795424219271478,7.1858342333001675,4.225498720360234,6.239556827036172,-8.873959969419879,3.40210306650891,4.132140186625875,4.26897780430024,4.792581805396346,-3.1300057860283825,4.386159474167447,-5.681843277555986,-6.7509261136679,1.7084019505171075,-7.286790021805462,2.922637363858702,-4.50731538219961,0.10355389989432001,4.5839860388633396,5.369725170382263,0.9725535443604827,-7.057182314443968,7.472313204434282,-5.532021186873066,-3.9192309086024792,-5.111368987934364,-6.216821618806922,3.7233083786985035,-1.672396929429004,3.296137056393059,-6.939540096453575,-4.4810221729751705,7.3527454837870385,-9.115724176949069,-4.593436794714226,-2.1037077795972348,-6.2883987888892525,3.3010251091801743,7.683086342542871,-0.5340407870488604,-6.684767600193542,3.229621188761052,1.1998951207631674,-0.09427028425396447,7.530155843893328,5.781027605097288,-0.46094709905169207],"bias":[[-7.955064547981238,4.0927784352457826,-5.648196559955379,4.860098390083002,3.0152042949265434,9.709269338685454,8.397940714998363,-5.003221906339493,7.294487267958678,0.6320467828749222],[0.5153259782794748,0.10754893548961408,-5.302595393670813,-8.941981174957661,1.202236336297546,6.7826998310576965,6.426131983782206],[-5.499484347820529]],"id":0,"number":40}
