{"architecture":{"NEURONS":[10,4,1],"LAYERS":3,"totalSynapses":44},"weights":[-4.515414552521308,-4.93585758157405,1.0621367256607406,-1.8790420360856679,9.839299297946695,-4.625485479721743,5.7531295167706515,5.601886597981708,-8.824941523159307,0.30204358396165065,4.964806869159741,0.42273350242791174,-2.8314544540747137,-9.644640316819828,1.1389161479493441,8.046776389787762,7.7025523975300105,6.822798069635287,-1.7360023092725463,6.453457326596539,8.368872794384533,4.906528325556119,7.5903120750838,3.5722285386199637,1.9978978553689493,-3.8209450344236635,2.4684404115260463,6.541283591073817,-3.3322049777484386,9.114303615759484,-7.868134781650866,-6.231854462400097,0.5715685182801301,-5.473006434673359,6.489151580707829,1.3740122555667102,3.0498587730785913,-6.88343710848498,-8.731664980009548,-7.252084263256594,-8.48600100377823,-7.647113138138995,-1.236111253626187,-1.427332863531124],"bias":[[-8.13115177101507,2.194726609579458,-9.913758413692754,-2.4893999364118136,1.3226340592766377,-5.176203419913459,-9.91652666205804,-7.902417424680787,-5.595090931022022,2.428688466696591],[-7.192084991397948,6.319568422239711,1.6758780832489932,0.669038647007914],[4.277048624265252]],"id":0,"number":40}
