{"architecture":{"NEURONS":[10,4,1],"LAYERS":3,"totalSynapses":44},"weights":[-5.0246724855878835,-4.935462518181887,-1.004120614989872,-1.6452010582864323,9.500165676411156,-5.708393685664212,5.214803645767869,-1.7934726777565646,-5.398912591178778,0.009685363760294108,4.960000027138949,-0.903912433420801,-2.715971586776848,-9.061854369064914,1.1321642130612513,6.7142097120904225,7.088289992356416,6.313681706515657,-2.73849203240547,6.335067246073221,8.986128222262344,5.009942861016572,8.837248380162482,4.08373361473108,1.6221627400521355,-4.318410036147804,2.255089456776538,6.155871518305452,-2.3200075190310203,8.588309026647927,-7.976361371942649,-6.102303246167476,0.4255320100658334,-6.355987392151516,6.332410163523405,1.7466415228307504,2.4075086535754715,-6.271040483896767,-8.46574226729505,-3.5032798657057227,-9.282628442546514,-7.895645261498352,-2.084223812345905,-1.157061963529383],"bias":[[9.150740968831855,2.118797521428179,6.465406218393443,-2.9166955726665194,0.39162703779976826,-6.650773955151535,-4.955325224387178,-8.608973247918753,-6.671519935458556,2.7764132615005495],[0.5263476632683146,9.131214773773433,2.0130553431609064,1.6325256479379457],[3.6931018279683454]],"id":0,"number":400}
