{"architecture":{"NEURONS":[10,4,1],"LAYERS":3,"totalSynapses":44},"weights":[-4.341078440076127,-5.7426130802987645,-0.7000191725539832,-1.7845797641994186,9.500165676411156,-5.753826145457669,4.480901935535266,-1.7934726777565646,-5.487229751299146,0.21955345484543337,4.858382166840424,-0.9569805578448977,-2.8657933988593443,-9.49326432403812,1.2382657735014808,6.958061912434213,7.5579108682941865,6.262255809268309,-2.107983554152728,6.663439777672153,8.152286880338174,5.144807277470119,9.160593545325096,4.08373361473108,1.6221627400521355,-4.318410036147804,2.255089456776538,5.902374600540902,-2.6805266805533656,8.557697910836888,-8.428423540779068,-6.181432676238276,0.4255320100658334,-6.355987392151516,6.763601897260134,1.9717875349561966,2.4075086535754715,-6.271040483896767,-8.46574226729505,-3.27588009937188,-8.47634619565394,-8.315183021878948,-2.289224274159555,-1.157061963529383],"bias":[[9.222719350645171,2.3719478204267643,5.917549599591748,-2.684670136404701,0.5377620472468434,-6.706156874399268,-4.955325224387178,6.504873812577937,-6.781561011259625,2.967723321837621],[1.3753938013243383,8.997412712903202,9.029311850628453,1.645973951490185],[3.4818400950980606]],"id":0,"number":401}
