{"architecture":{"NEURONS":[10,4,1],"LAYERS":3,"totalSynapses":44},"weights":[-5.0246724855878835,-4.935462518181887,-0.7143220944197196,-1.7845797641994186,9.745602592568448,-5.363235010994957,5.1947676657955295,-1.7934726777565646,-5.487229751299146,0.37502314405594706,4.478014578241329,-1.157465478391043,-2.715971586776848,-9.490105428966283,1.1202827081257933,6.958061912434213,7.812640881778577,6.399208396391746,-2.73849203240547,6.553996392645359,8.45782052728897,5.144807277470119,8.837248380162482,4.072699611140388,1.6221627400521355,-4.45449505007951,2.268805927126869,5.902374600540902,-2.6095809356347197,8.557697910836888,-7.976361371942649,-6.102303246167476,0.4255320100658334,-5.684445341669749,6.8377103346569985,2.073301548631004,2.5132078923906036,-6.624360526089526,-8.766229361255359,-3.27588009937188,-9.448517756912528,-7.895645261498352,-2.077422237019589,-1.157061963529383],"bias":[[8.93939832141363,2.162159368667412,-10.158678523975619,-2.684670136404701,0.590455917840253,-6.706156874399268,-4.632275434354829,-8.792287343569786,-6.781561011259625,2.7764132615005495],[0.48546586540958686,8.90794225604107,2.0521578662159974,1.443731139511661],[3.4818400950980606]],"id":0,"number":402}
