{"architecture":{"NEURONS":[10,4,1],"LAYERS":3,"totalSynapses":44},"weights":[-4.734205818783743,-5.546736935039063,-0.8207692541683553,-1.7845797641994186,9.35998520559995,-5.62543782366685,5.214803645767869,-1.7934726777565646,-5.734351219385129,0.33456321506812503,5.0493672273945425,-0.903912433420801,-2.7427486111256982,-9.711837060903239,1.1202827081257933,6.958061912434213,7.5579108682941865,6.131686650015243,-2.73849203240547,6.714591619274952,8.441199336370293,4.9638315125311765,8.837248380162482,3.8332506687619663,1.6221627400521355,-4.318410036147804,2.268805927126869,6.111365149031969,-2.6805266805533656,9.116239986939632,-8.296861941569148,-6.084084652791555,0.821864117817979,-6.701362507861426,6.763601897260134,2.017877807450141,2.578397231224452,-6.6923124670311465,-8.46574226729505,-3.25283301242338,-9.282628442546514,-8.315183021878948,-2.084223812345905,-1.157061963529383],"bias":[[8.93939832141363,2.162159368667412,5.917549599591748,-3.0123477150615168,0.49602186905244666,-6.706156874399268,-4.817534871675723,6.504873812577937,-6.958058312329654,2.7764132615005495],[0.48546586540958686,9.627619077257156,1.967148843028402,1.7948532127847003],[3.645099693037125]],"id":0,"number":403}
