{"architecture":{"NEURONS":[10,4,1],"LAYERS":3,"totalSynapses":44},"weights":[-5.270226870830132,-4.935462518181887,-0.8207692541683553,-1.8959721553731965,9.745602592568448,-5.822832889131714,5.2056472246758405,-1.491874382132534,-5.487229751299146,0.08317396711336097,4.858382166840424,-0.9384817851864664,-2.8439598164258615,-9.061854369064914,1.3167743411453425,7.839542027111002,7.812640881778577,5.910935784192371,-2.4891509915562415,6.965588413358601,8.894072193755015,5.144807277470119,8.384352495404102,4.154046902355746,1.6221627400521355,-4.318410036147804,2.2985533092776236,6.369152860255397,-2.6805266805533656,8.557697910836888,-8.192781267474354,-6.181432676238276,0.4255320100658334,-6.711019166122349,6.763601897260134,1.5528664730344308,2.69909235794594,-6.308531417583503,-8.762135850116469,-3.57647463453242,-9.282628442546514,-8.293981170127708,-1.7026555812749582,-1.3430514232206698],"bias":[[8.93939832141363,2.7793774669116647,-9.890223794211417,-3.0123477150615168,0.49602186905244666,-6.650773955151535,-4.730052567785394,-7.440534361465813,-6.963024808443184,2.967723321837621],[0.48546586540958686,8.997412712903202,2.0130553431609064,1.6325256479379457],[3.633523128718942]],"id":0,"number":404}
