{"architecture":{"NEURONS":[10,4,1],"LAYERS":3,"totalSynapses":44},"weights":[-5.184779908544787,-5.7426130802987645,-0.7000191725539832,-1.7845797641994186,9.500165676411156,-5.774526531125796,5.217584085081778,-1.86774845078897,-5.734351219385129,0.009685363760294108,4.858382166840424,-0.919983012528035,-2.8657933988593443,-9.000154330015508,1.7395977198825578,6.7142097120904225,7.446020404797485,6.399208396391746,-2.4247579406573285,6.965588413358601,8.152286880338174,5.144807277470119,8.837248380162482,4.154046902355746,1.6221627400521355,-4.318410036147804,2.255089456776538,6.369152860255397,-2.6805266805533656,9.337265087320903,-8.296861941569148,-6.035786559956862,0.4255320100658334,-5.684445341669749,6.8377103346569985,1.7466415228307504,2.578397231224452,-5.859841019331429,-8.317848235808727,-3.27588009937188,-9.282628442546514,-8.089238036754733,-2.084223812345905,-1.1894598492993405],"bias":[[9.293956430987118,2.3719478204267643,5.917549599591748,-2.5573835021316986,0.4026977396242973,-6.695335736638187,-4.829937855152239,-7.551019456778315,-6.781561011259625,2.967723321837621],[1.3753938013243383,9.40662235045004,2.0130553431609064,1.6325256479379457],[3.8175184892234113]],"id":0,"number":405}
