{"architecture":{"NEURONS":[10,4,1],"LAYERS":3,"totalSynapses":44},"weights":[-4.341078440076127,-5.7426130802987645,-0.7000191725539832,-1.7845797641994186,9.25455288550919,-5.805883605655378,4.480901935535266,-1.491874382132534,-5.341225405825653,0.7478408557544377,4.7294697661670755,-0.7235884882540717,-2.8657933988593443,-9.49326432403812,1.2382657735014808,6.7142097120904225,7.014928996334771,6.262255809268309,-2.107983554152728,6.663439777672153,8.152286880338174,5.144807277470119,9.36746174357806,4.08373361473108,1.6221627400521355,-4.318410036147804,2.2985533092776236,6.111365149031969,-2.6805266805533656,8.557697910836888,-8.428423540779068,-6.181432676238276,0.4255320100658334,-6.586831109734986,6.69518057102311,1.9651949190023685,2.4075086535754715,-6.271040483896767,-8.46574226729505,-3.27588009937188,-9.282628442546514,-8.120516586614423,-2.289224274159555,-1.1894598492993405],"bias":[[9.222719350645171,2.3719478204267643,-9.890223794211417,-2.684670136404701,0.5377620472468434,-6.557923655462037,-4.955325224387178,6.504873812577937,-6.958058312329654,3.090059460028217],[1.2828329104597198,9.040042104667812,1.967148843028402,1.645973951490185],[3.633523128718942]],"id":0,"number":406}
