{"architecture":{"NEURONS":[10,4,1],"LAYERS":3,"totalSynapses":44},"weights":[-4.341078440076127,-5.7426130802987645,-0.8207692541683553,-1.7845797641994186,9.500165676411156,-5.62543782366685,5.381972325154259,-1.7934726777565646,-5.596429704995425,0.37502314405594706,4.858382166840424,-1.157465478391043,-2.6305262604051,-9.061854369064914,1.7395977198825578,6.958061912434213,7.088289992356416,6.224031360109535,-2.4891509915562415,6.335067246073221,8.152286880338174,5.172761761090149,8.837248380162482,4.038676677831629,1.4951020382578593,-4.318410036147804,2.268805927126869,6.67289280967875,-2.6317429135499997,8.557697910836888,-8.296861941569148,-6.102303246167476,0.4255320100658334,-6.236150571103768,6.449645445065685,1.8667096717326985,2.8891651029695193,-6.1347922801873995,-8.46574226729505,-3.27588009937188,-8.47634619565394,-8.006148271412423,-2.289224274159555,-1.157061963529383],"bias":[[9.150740968831855,2.3719478204267643,-10.201633340990078,-2.5573835021316986,0.49602186905244666,-6.650773955151535,-4.823441853216072,-7.81855621039415,-6.781561011259625,2.967723321837621],[1.2828329104597198,10.245514852253821,2.1237676031346306,1.6155420593153156],[3.633523128718942]],"id":0,"number":407}
