{"architecture":{"NEURONS":[10,4,1],"LAYERS":3,"totalSynapses":44},"weights":[-5.0246724855878835,-4.82626871345711,-0.7200185273120163,-2.1633089954889337,9.221933463676477,-6.147484578798944,5.424184002106353,-1.7934726777565646,-5.699844480515152,0.009685363760294108,4.858382166840424,-0.8987060736761542,-2.7427486111256982,-9.061854369064914,1.3167743411453425,6.751734715524702,7.516338088806319,6.399208396391746,-2.73849203240547,6.663439777672153,8.263047776726095,5.144807277470119,8.837248380162482,4.08373361473108,1.6221627400521355,-4.318410036147804,2.0486113438892604,6.369152860255397,-2.6095809356347197,8.557697910836888,-8.140408863051597,-6.102303246167476,0.4255320100658334,-5.991631454608408,6.979135989966423,1.8205726607534791,2.69909235794594,-5.859841019331429,-8.766229361255359,-3.27588009937188,-9.448517756912528,-8.120516586614423,-1.876881658806663,-1.1894598492993405],"bias":[[8.76576954608379,2.3719478204267643,5.917549599591748,-2.684670136404701,1.0449854266305478,-6.56883339238333,-4.955325224387178,-8.860118705983934,-6.665875432366409,3.097431296833612],[1.2828329104597198,9.040042104667812,1.967148843028402,1.6325256479379457],[3.7171179733835245]],"id":0,"number":408}
