{"architecture":{"NEURONS":[10,4,1],"LAYERS":3,"totalSynapses":44},"weights":[-5.184779908544787,-5.7426130802987645,-0.7000191725539832,-1.7845797641994186,9.500165676411156,-5.753826145457669,4.480901935535266,-1.7185931632665299,-5.734351219385129,0.7213044462907302,4.722172969924141,-1.1830004748922434,-2.8657933988593443,-9.711837060903239,1.4583761567071423,6.7142097120904225,6.839848357443883,6.399208396391746,-2.4891509915562415,6.553996392645359,8.152286880338174,4.910454746532207,9.36746174357806,4.072699611140388,1.4684269271312007,-4.318410036147804,2.268805927126869,5.902374600540902,-2.6805266805533656,9.116239986939632,-8.296861941569148,-6.035786559956862,0.4255320100658334,-5.684445341669749,6.763601897260134,1.8205726607534791,2.69909235794594,-6.271040483896767,-8.317848235808727,-3.57647463453242,-9.282628442546514,-8.315183021878948,-2.077422237019589,-1.157061963529383],"bias":[[9.150740968831855,2.3719478204267643,-9.890223794211417,-2.549849392904458,0.49602186905244666,-6.706156874399268,-4.955325224387178,-7.551019456778315,-6.781561011259625,2.967723321837621],[1.2445883083794798,8.997412712903202,1.967148843028402,1.6325256479379457],[3.4818400950980606]],"id":0,"number":409}
