{"architecture":{"NEURONS":[10,7,1],"LAYERS":3,"totalSynapses":77},"weights":[-7.305288122684433,10.227025866503547,-5.763671416128178,-6.3649623758742955,6.557952498734614,4.992608462073502,-0.15153172271742835,6.346493816434564,11.641639820948448,-0.5703845618433858,1.0398918077224562,-2.609593544569029,-8.83912013225916,-9.92610174609731,-4.581724106911772,3.2533235189883873,6.169654492187218,-3.0826007564051645,-0.08553548319316884,-9.350023953724401,5.5100057593738985,-3.693955348344708,-9.220956758558373,-10.954798740396994,-10.495998119015889,-2.5272000906931034,-10.32263549067583,4.889695912211397,-3.8535465655536525,0.6679087321556343,2.2482509645025517,6.192375462946004,-9.723120473160662,-4.0655404691553105,-10.487215354906605,-0.35228884976456776,-0.8080783139894088,-3.137841472483941,-5.897827753197703,-3.1643716198723806,7.634883448717741,3.21650257608381,6.707205293417973,7.244788739871984,-8.15129566573568,-9.100476012073067,8.26978998543688,-6.319247106360265,7.060360562689835,-0.7941190293154918,7.737388919802264,-1.2426132961962484,-2.341995811825935,1.5367087207425116,5.207745268315593,-7.67219979205734,6.797301619284424,-0.013046860414518392,1.4206606135267035,-10.034277071839107,5.032403626158803,5.119236258466541,1.895575040333059,-5.119036279380933,0.18984690289537895,-3.0704981270079967,-0.19076988140775603,-4.974649122859821,-9.787120141795384,0.47385856884432226,-4.0187132571457544,-7.1974086381952755,7.678710122638817,-7.127589772750516,-2.7324349124228173,-7.146237108245162,-4.83486584893847],"bias":[[-7.994228791930947,2.6761828287716525,2.3874910916454075,5.0485522597340005,-1.2788494461177875,5.8488212562984625,7.974888199940484,-2.884442995188306,0.19847193310920458,0.6327258540752776],[1.605506750480679,-4.492299571449947,-3.8859250660064726,-7.285450531677283,1.4869947701293098,1.879852362276078,-4.996300845013564],[-1.5378153231380987]],"id":0,"number":41}
