{"architecture":{"NEURONS":[10,7,1],"LAYERS":3,"totalSynapses":77},"weights":[-4.319388166082984,4.143823697355911,3.0390457673616336,-1.4080575658388068,-5.131088587600805,9.065285401615762,5.3493746309997015,-0.7702544328885165,1.3606029144205927,-0.049472336879894774,1.1936106965641369,-3.1711187089886996,9.796996336549853,6.787972955122022,-3.3897266966773647,-1.830993123322214,-7.555537653365395,3.662822124420917,-10.519592722815005,-8.770628568174585,7.560647878341408,-2.4672014822904464,-2.5899159196098553,5.766885439813409,0.31667413244656784,-5.998327770765326,0.11869798574252811,4.190913939494952,-1.876413261238379,4.922094559730671,8.013851523720183,6.8119482988216165,4.983389125304403,6.303202809178432,-9.054633698696911,4.997930286255398,4.378735230227732,4.20683543185863,4.508035808734436,-1.2524603646721726,3.524684971028851,-5.692938824651924,-4.015360243151476,1.989694495262378,-5.7821972276875035,5.762725175645889,-3.9974492343309653,-1.607422848024088,3.1095753759454503,5.601222261098513,2.4301088555470676,-7.030327849777842,5.939190296578112,-6.178162743502624,-3.387370807313675,-5.837357466977301,-6.663183577578723,3.5090193687429134,-1.5158159199911827,3.6869159484388763,-8.213380871575785,-3.511022851121072,6.53847547636235,-8.962694336391406,-4.312543443010238,-2.1740633869488537,-6.345249817851989,1.8936732026585896,10.423714703427748,0.964418662632704,-5.489435133361162,4.039361814044293,2.416336512458306,-1.0356243000965206,7.823514054538206,6.234468392407131,-0.8362257178981433],"bias":[[-8.050858661617331,4.739622903251072,-5.085752712112661,4.6239623147761035,2.95163364421523,8.972754470949466,7.785277541943644,-6.406287608461108,8.356542792070206,0.06101753302055879],[-1.443538014649356,-0.1522353991338879,-5.384997093523702,-8.031616941821962,0.450326260732819,5.1429798917881495,6.847179765320203],[-3.852596583800994]],"id":0,"number":41}
