{"architecture":{"NEURONS":[10,4,1],"LAYERS":3,"totalSynapses":44},"weights":[-4.589454298460107,-4.93585758157405,1.0621367256607406,-1.8790420360856679,9.307374951849688,-4.667887941026285,5.755691409761479,-1.5234051409051907,-5.113623807142342,0.30204358396165065,4.613940636674918,0.02064686897708712,-2.2790961851962397,-9.702049674102946,1.1389161479493441,7.941492711974908,7.479892832361097,6.822798069635287,-1.6717525935694675,6.453457326596539,8.487163752574167,5.2448909508439385,7.331563873021117,3.5722285386199637,1.773748766242997,-3.990267894808539,2.4684404115260463,6.430277180326905,-3.3322049777484386,9.442379145508696,-7.957531040167202,-6.025688118101127,0.6580445208915118,-5.229185773492982,6.682733844823042,1.04352598102701,3.028076041502512,-6.689976637295818,-8.772869227548155,-3.750305328389405,-9.193579338697457,-8.162757813732867,6.9317897378309485,-1.7468207555686217],"bias":[[-8.625926697232106,2.194726609579458,-9.799702075041852,-2.538917210872005,1.6843384551983105,-5.176203419913459,-9.91867120468144,-7.902417424680787,-5.569148951123373,2.5673157780440334],[-6.7672952264587405,6.319568422239711,5.569155811157234,0.669038647007914],[4.22389373691387]],"id":0,"number":41}
