{"architecture":{"NEURONS":[10,4,1],"LAYERS":3,"totalSynapses":44},"weights":[-5.184779908544787,-5.03852766442051,-0.7143220944197196,-1.7845797641994186,9.221933463676477,-5.753826145457669,4.482314307808425,-1.86774845078897,-5.611062788517388,0.19558609660785314,4.858382166840424,-0.919983012528035,-2.7427486111256982,-9.000154330015508,1.6304345930188013,6.7142097120904225,7.446020404797485,6.224031360109535,-2.4247579406573285,6.531390577667668,8.152286880338174,5.144807277470119,9.36746174357806,4.154046902355746,1.6221627400521355,-4.714121700475195,1.877060645131293,6.111365149031969,-2.6805266805533656,9.116239986939632,-8.296861941569148,-6.181432676238276,0.4255320100658334,-5.991631454608408,7.002719371784648,2.017877807450141,2.69909235794594,-6.1347922801873995,-8.46574226729505,-3.27588009937188,-8.47634619565394,-7.765247858089396,-2.084223812345905,-1.2769751922729857],"bias":[[9.222719350645171,2.5842454861743307,5.917549599591748,-2.684670136404701,0.5120100389175234,-6.650773955151535,-4.823441853216072,-7.572286100633989,-6.781561011259625,2.967723321837621],[0.48546586540958686,9.040042104667812,9.029311850628453,1.645973951490185],[3.4818400950980606]],"id":0,"number":410}
