{"architecture":{"NEURONS":[10,4,1],"LAYERS":3,"totalSynapses":44},"weights":[-5.0246724855878835,-4.82626871345711,-0.7200185273120163,-1.7845797641994186,9.221933463676477,-5.62543782366685,5.381972325154259,-1.7934726777565646,-5.699844480515152,0.33456321506812503,4.858382166840424,-0.8987060736761542,-2.7427486111256982,-9.061854369064914,1.4696728089043511,6.588299930521493,7.516338088806319,6.313681706515657,-2.73849203240547,6.663439777672153,8.263047776726095,5.172761761090149,8.837248380162482,4.072699611140388,1.6221627400521355,-4.318410036147804,2.0486113438892604,6.136897209492715,-2.6805266805533656,8.557697910836888,-8.140408863051597,-6.181432676238276,0.4255320100658334,-5.991631454608408,6.763601897260134,2.0040208186235944,2.69909235794594,-6.308531417583503,-8.46574226729505,-3.27588009937188,-9.448517756912528,-8.120516586614423,-1.876881658806663,-1.157061963529383],"bias":[[9.150740968831855,2.3719478204267643,5.917549599591748,-2.684670136404701,0.49602186905244666,-6.56883339238333,-4.955325224387178,-8.860118705983934,-6.841937917826982,3.097431296833612],[1.2828329104597198,9.040042104667812,1.967148843028402,1.6325256479379457],[3.7171179733835245]],"id":0,"number":411}
