{"architecture":{"NEURONS":[10,4,1],"LAYERS":3,"totalSynapses":44},"weights":[-4.341078440076127,-4.935462518181887,-0.7751227028023299,-1.7845797641994186,9.500165676411156,-5.592319748139239,5.418693619455415,-1.491874382132534,-5.487229751299146,0.7478408557544377,4.478014578241329,-0.8528642539317707,-2.8657933988593443,-9.490105428966283,1.2494404908188104,6.958061912434213,7.027453234411143,6.165477676205655,-2.4891509915562415,6.531390577667668,8.152286880338174,5.172761761090149,8.837248380162482,4.066806967469862,1.7575176936694277,-4.318410036147804,2.2272137934185388,6.369152860255397,-2.6805266805533656,9.116239986939632,-8.192781267474354,-6.128521967434476,0.4255320100658334,-6.581016454944175,7.291713919298741,1.7466415228307504,2.8891651029695193,-6.271040483896767,-8.69869147807639,-3.1951365502487983,-8.47634619565394,-7.863695262105767,-2.084223812345905,-1.157061963529383],"bias":[[9.222719350645171,2.3313681121165133,-8.021596994385387,-3.0123477150615168,0.49602186905244666,-6.5518512033986225,-4.823441853216072,-7.440534361465813,-6.781561011259625,2.96412853593542],[1.0676432157797564,9.40662235045004,2.0130553431609064,1.0847745466608925],[3.8175184892234113]],"id":0,"number":412}
