{"architecture":{"NEURONS":[10,4,1],"LAYERS":3,"totalSynapses":44},"weights":[-4.341078440076127,-4.935462518181887,-0.9331488874850347,-1.9460229874642507,9.435564154733129,-5.778396530135408,5.328623066710223,-1.491874382132534,-5.487229751299146,0.7478408557544377,5.0493672273945425,-0.8528642539317707,-2.4433829959158566,-9.000154330015508,0.6373737318520003,6.7142097120904225,7.812640881778577,6.165477676205655,-2.107983554152728,6.531390577667668,7.741875753932012,5.009942861016572,8.408312673524133,4.038676677831629,1.6035367529195572,-4.318410036147804,2.2272137934185388,6.369152860255397,-2.6805266805533656,9.116239986939632,-8.140408863051597,-6.128521967434476,0.7478375544841956,-6.253270454721136,6.83781876234196,1.9513560764697917,2.8891651029695193,-6.276362714969408,-8.762135850116469,-3.27588009937188,-9.282628442546514,-7.732258707657564,-2.357851625796512,-1.3430514232206698],"bias":[[9.222719350645171,1.9676768750673026,-10.05866025948416,-3.0123477150615168,1.0741404194540118,-6.650773955151535,-5.021463301798125,-7.440534361465813,-6.781561011259625,2.96412853593542],[0.5988892096228087,9.503396306165037,1.9962165598807018,1.0847745466608925],[3.80545100710879]],"id":0,"number":413}
