{"architecture":{"NEURONS":[10,4,1],"LAYERS":3,"totalSynapses":44},"weights":[-5.184779908544787,-5.7426130802987645,-0.9331488874850347,-1.7845797641994186,9.372097025732268,-6.147484578798944,4.480901935535266,-1.9256593750758035,-5.593537115907148,0.009685363760294108,4.858382166840424,-0.8528642539317707,-2.6305262604051,-9.49326432403812,1.7395977198825578,7.066887949159032,7.446020404797485,6.399208396391746,-2.4891509915562415,6.965588413358601,7.741875753932012,5.144807277470119,8.408312673524133,4.08373361473108,1.522803373227441,-4.318410036147804,2.2272137934185388,6.67289280967875,-2.8686716503620624,9.116239986939632,-8.140408863051597,-6.181432676238276,0.4255320100658334,-5.867307873065877,6.366786676671122,1.7466415228307504,2.69909235794594,-6.271040483896767,-8.46574226729505,-3.57647463453242,-9.282628442546514,-7.732258707657564,-2.084223812345905,-1.157061963529383],"bias":[[9.150740968831855,1.9676768750673026,-10.158678523975619,-2.5573835021316986,0.49602186905244666,-6.650773955151535,-4.817534871675723,-8.920556545127134,-6.781561011259625,2.96412853593542],[1.3360720859850728,9.503396306165037,1.9962165598807018,1.645973951490185],[3.8175184892234113]],"id":0,"number":414}
