{"architecture":{"NEURONS":[10,4,1],"LAYERS":3,"totalSynapses":44},"weights":[-5.0246724855878835,-4.935462518181887,-0.559300946619002,-1.7845797641994186,9.221933463676477,-6.147484578798944,5.381972325154259,-1.7934726777565646,-5.7247367202075035,0.7478408557544377,4.858382166840424,-0.919983012528035,-2.7427486111256982,-9.061854369064914,1.7395977198825578,7.066887949159032,7.516338088806319,6.224031360109535,-2.4247579406573285,6.335067246073221,8.152286880338174,5.172761761090149,8.384352495404102,4.072699611140388,1.522803373227441,-4.45449505007951,2.0486113438892604,5.902374600540902,-2.6805266805533656,8.971436925797878,-8.296861941569148,-6.181432676238276,0.4255320100658334,-6.1738094233799625,6.449645445065685,1.7466415228307504,2.6006794519136633,-6.271040483896767,-8.240380192428699,-3.57647463453242,-8.436370118810864,-8.089238036754733,-2.084223812345905,-1.3968884210165886],"bias":[[9.293956430987118,2.3719478204267643,-10.201633340990078,-3.0123477150615168,0.4092503218768004,-6.56883339238333,-4.955325224387178,-7.81855621039415,-6.781561011259625,2.967723321837621],[0.5820465479192204,9.122098780934044,1.9962165598807018,1.6325256479379457],[3.7171179733835245]],"id":0,"number":415}
