{"architecture":{"NEURONS":[10,4,1],"LAYERS":3,"totalSynapses":44},"weights":[-4.341078440076127,-4.9287407995903845,-0.30649587395838823,-1.8383748971420182,9.737230731918224,-5.64636481684726,4.281545467570759,-1.7934726777565646,-5.487229751299146,0.7213044462907302,5.227440613254756,-0.919983012528035,-2.9003270521965456,-9.490105428966283,1.2341045300035038,6.7142097120904225,7.516338088806319,6.262255809268309,-2.107983554152728,6.531390577667668,8.263047776726095,5.172761761090149,8.45656285843375,4.072699611140388,1.1432808663139453,-4.61866701530192,2.0486113438892604,6.67289280967875,-2.6805266805533656,8.557697910836888,-8.140408863051597,-6.181432676238276,0.4255320100658334,-6.253270454721136,6.83781876234196,1.9651949190023685,2.69909235794594,-6.542206394194163,-8.854317406984372,-3.27588009937188,-9.448517756912528,-8.089238036754733,-2.289224274159555,-1.3430514232206698],"bias":[[9.168888577374098,2.3719478204267643,-10.360617755223284,-2.1041651539340442,1.0680452596313923,-6.650773955151535,-4.955325224387178,-7.81855621039415,-7.0212350454044445,2.967723321837621],[1.0676432157797564,9.131214773773433,1.929475914462373,1.6325256479379457],[3.7171179733835245]],"id":0,"number":416}
