{"architecture":{"NEURONS":[10,4,1],"LAYERS":3,"totalSynapses":44},"weights":[-5.184779908544787,-4.935462518181887,-0.7751227028023299,-1.7845797641994186,9.500165676411156,-5.753826145457669,4.480901935535266,-1.7934726777565646,-5.611062788517388,0.37502314405594706,4.858382166840424,-0.923323130481339,-2.5146948649071934,-9.061854369064914,1.7395977198825578,6.958061912434213,7.516338088806319,6.159790705451802,-2.4247579406573285,6.553996392645359,8.614300364576481,5.009942861016572,8.384352495404102,4.08373361473108,2.064000253764883,-4.4347860882035075,1.877060645131293,6.111365149031969,-2.6805266805533656,8.557697910836888,-8.136034978077301,-6.181432676238276,0.4255320100658334,-5.991631454608408,6.763601897260134,1.9651949190023685,2.8891651029695193,-6.475711751232588,-8.766229361255359,-3.3035970279082485,-9.282628442546514,-8.089238036754733,-2.6971567907184335,-1.271454087020763],"bias":[[9.150740968831855,2.3719478204267643,-8.021596994385387,-2.3379261080466174,0.7884165988047955,-6.56883339238333,-4.955325224387178,-7.551019456778315,-6.781561011259625,2.9351513438819623],[1.2828329104597198,9.045370117594144,2.4100158676312295,1.645973951490185],[2.977141537121182]],"id":0,"number":417}
