{"architecture":{"NEURONS":[10,4,1],"LAYERS":3,"totalSynapses":44},"weights":[-4.3710193929622205,-4.9287407995903845,-0.8519301248851717,-1.7845797641994186,9.745602592568448,-5.831743885937876,5.381972325154259,-1.7934726777565646,-5.487229751299146,0.37502314405594706,5.0493672273945425,-0.8987060736761542,-2.5146948649071934,-9.49326432403812,1.7395977198825578,6.7142097120904225,7.446020404797485,6.224031360109535,-2.107983554152728,6.438676237533905,8.614300364576481,5.009942861016572,8.408312673524133,4.08373361473108,1.9627635975257853,-4.45449505007951,2.268805927126869,6.67289280967875,-2.8686716503620624,9.33860419196797,-8.140408863051597,-6.060469329792383,0.4255320100658334,-6.253270454721136,6.729921200300355,1.9651949190023685,2.4075086535754715,-6.271040483896767,-8.46574226729505,-3.27588009937188,-9.282628442546514,-8.006148271412423,-2.6280517118605617,-1.157061963529383],"bias":[[9.222719350645171,2.3719478204267643,-10.069229666425755,-2.5573835021316986,0.6263706795114297,-6.324605552933253,-4.955325224387178,-7.551019456778315,-6.781561011259625,2.846749563028415],[1.2828329104597198,9.131214773773433,1.967148843028402,1.6325256479379457],[3.8175184892234113]],"id":0,"number":418}
