{"architecture":{"NEURONS":[10,4,1],"LAYERS":3,"totalSynapses":44},"weights":[-4.341078440076127,-5.03852766442051,-0.559300946619002,-1.7845797641994186,9.221933463676477,-6.147484578798944,5.381972325154259,-1.7934726777565646,-5.341225405825653,-0.12930665839087724,4.858382166840424,-0.919983012528035,-2.7427486111256982,-9.061854369064914,1.7395977198825578,6.958061912434213,7.516338088806319,6.224031360109535,-1.8423839171177603,6.531390577667668,8.701964508576362,5.144807277470119,9.365791746414684,4.072699611140388,1.9627635975257853,-4.510795334461205,2.255089456776538,6.111365149031969,-2.6317429135499997,9.116239986939632,-7.976361371942649,-6.181432676238276,0.44928172672991784,-6.212261405748593,7.002719371784648,1.9717875349561966,2.69909235794594,-6.271040483896767,-8.46574226729505,-3.57647463453242,-8.47634619565394,-8.167614114057411,-1.876881658806663,-1.2769751922729857],"bias":[[9.168888577374098,2.3719478204267643,-9.890223794211417,-2.684670136404701,0.4092503218768004,-6.557923655462037,-4.955325224387178,-7.551019456778315,-6.781561011259625,3.089109688284196],[1.2445883083794798,9.139090103730833,2.0130553431609064,1.6325256479379457],[3.7171179733835245]],"id":0,"number":419}
