{"architecture":{"NEURONS":[10,7,1],"LAYERS":3,"totalSynapses":77},"weights":[-7.518477407434466,10.183056266830572,-8.913581225325071,-6.7582612733800875,7.493549544891055,5.74297052243694,-0.05694090486837697,3.770936010652796,9.065401961729826,-0.5199102880388246,-1.919804955274595,-4.86650642365545,-8.159174541073725,-11.508270594939624,-5.656627849811733,3.804712549705754,5.16117646112676,-2.226230852932778,2.190711131222539,-8.475087154377162,3.7740897961997697,-3.7155122275299237,-8.304586216592437,-9.552631107902704,-6.095358434895004,-1.6640983960132243,-7.063651692110059,7.014969465569429,-2.2418407681009063,1.6773031968650676,3.042688343963099,7.25759752222626,-10.085031138052692,-5.860511134304811,-10.634780895952064,0.5064322146856047,-2.4154114809326717,-2.282634378933856,-6.268386168551129,-1.7788249313925193,7.254652147345187,3.7006247927401144,5.682514749465148,7.687421748678125,-7.4359699834906365,-9.47326548774901,9.896920882833452,-5.965333811070192,4.784662359158718,0.7247482119937709,5.335004033773048,-4.932230319910689,-2.376078903927267,1.5584283049892111,6.615665631660962,-6.3001636984196745,5.350428662285603,-1.0238811148628864,4.135367467622342,-8.276973466706217,4.512462493801329,4.250697650314154,0.3985790866214083,-3.1821937717785085,1.5985760309879251,-1.0243785299802262,-1.250831887232688,-5.4337372297409186,-10.223451699735785,0.8426463458078881,-4.048218424788171,-8.498364060945708,7.776596796203228,-8.382578732305628,-3.2245363660813378,-8.47464419327118,-4.2760865549918705],"bias":[[-11.57087248739983,1.8011848687107896,2.242034701862006,6.0311059841536085,0.36031846100773846,3.3935439578798308,8.130698299800233,-0.9388806108733783,-0.3713304307346238,-0.5073992077715875],[2.660759400535709,-1.5881224752830272,-3.803952605430436,-7.162995027722833,6.176200459935781,2.5552549384059797,-4.061853515381057],[-3.1644808510426214]],"id":0,"number":42}
