{"architecture":{"NEURONS":[10,4,1],"LAYERS":3,"totalSynapses":44},"weights":[-4.589454298460107,-4.93585758157405,1.1351643469564758,-1.8790420360856679,9.521572817339678,-4.667887941026285,5.7531295167706515,5.601886597981708,-5.345882538531171,0.30204358396165065,4.7588007661254474,0.42273350242791174,-2.2790961851962397,-9.644640316819828,1.1389161479493441,8.046776389787762,7.479892832361097,6.822798069635287,-1.9207887073258398,6.453457326596539,8.490165300461314,5.2448909508439385,7.617127408506445,3.5722285386199637,1.773748766242997,-3.8209450344236635,2.4684404115260463,6.463203205186385,-3.3322049777484386,9.502114251845168,-7.751565148572704,-6.231854462400097,0.33478141776955966,-5.554267822974435,6.489151580707829,1.3740122555667102,2.281847930320347,-6.88343710848498,-8.772869227548155,-7.252084263256594,-9.093106316232712,-8.16526009453669,-1.236111253626187,-1.7468207555686217],"bias":[[-8.355311574645775,2.194726609579458,-9.664488372483046,-2.3935441495482417,1.6843384551983105,-5.176203419913459,-9.91652666205804,-8.352701075846527,-5.569148951123373,2.428688466696591],[-6.7672952264587405,7.168627734067542,1.6758780832489932,0.6926693392516121],[4.636143817749678]],"id":0,"number":42}
