{"architecture":{"NEURONS":[10,7,1],"LAYERS":3,"totalSynapses":77},"weights":[-4.107658732349461,3.747128530165713,1.2816173478902297,-3.071264169984814,-5.37054788043975,9.666123773164246,6.235679111770793,0.5863195361969336,3.3910410927909034,-1.1637712443708168,1.2248397261566577,-1.3378262744421776,8.790797755704753,5.9488095847696,-3.409975225620273,-2.163369479386224,-7.586721166378426,2.93557257198632,-9.41563451552591,-9.841850487662061,5.729488609815822,-0.05940073498835857,-2.332389695299465,4.435265184779396,0.14857842931877277,-7.460585659712413,0.7561951366505681,2.748309916783727,-0.4781744129237391,4.242006092155784,9.167430539717962,7.1858342333001675,4.225498720360234,6.404860766308688,-8.542297665774903,3.1947068951099697,4.132140186625875,4.997381386011917,4.792581805396346,-3.4045884094846675,4.6862052429146095,-5.508295214769649,-7.119719448440722,1.9469685153632834,-7.408601684263017,2.9116759158679795,-4.1856849572214445,0.2533020348936278,4.306890983576112,5.147529472484248,1.0208192969740557,-6.993320781518788,7.241954516087629,-5.587558220798986,-4.218380634038457,-5.111368987934364,-6.216821618806922,3.234276875399738,-1.2657923462422067,3.420196071355195,-6.939540096453575,-4.222349910715122,7.451467059297787,-9.569553287968803,-4.600328469413827,-2.343153354402796,-6.586068336710254,3.5055692740289777,7.683086342542871,-0.618837512057601,-7.102673153138117,3.3742327580325413,1.192825021928085,-0.25511779388877875,7.354039425490674,5.781027605097288,-0.18390605247685946],"bias":[[-8.191997733826524,3.9322583183320234,-5.417396611463178,5.000068146722924,3.0152042949265434,10.234944189959549,7.994853480153243,-4.910161209171143,7.095209732177524,0.7284858314179258],[1.5843234075476849,0.5370128155030014,-5.198959375948131,-9.206623372331068,1.2080363408357015,6.882789844153144,6.563804575123233],[-5.3661293875197815]],"id":0,"number":42}
