{"architecture":{"NEURONS":[10,4,1],"LAYERS":3,"totalSynapses":44},"weights":[-5.498350993366522,-4.9287407995903845,-0.7765507718354466,-1.7845797641994186,9.221933463676477,-5.571334533303887,5.381972325154259,-1.7934726777565646,-5.611062788517388,0.009685363760294108,4.858382166840424,-0.8987060736761542,-2.6865242889195695,-9.061854369064914,1.7395977198825578,7.1082362630791485,7.446020404797485,6.313681706515657,-2.107983554152728,6.438676237533905,8.454861542898565,5.009942861016572,9.36746174357806,4.072699611140388,1.4684269271312007,-4.318410036147804,2.268805927126869,5.902374600540902,-3.0540657125329234,8.557697910836888,-8.296861941569148,-6.181432676238276,0.4255320100658334,-5.991631454608408,6.727003678384528,1.9717875349561966,2.69909235794594,-6.208900752838864,-8.240380192428699,-2.992791722032013,-9.433339099410878,-8.227924545970067,-2.084223812345905,-1.157061963529383],"bias":[[9.293956430987118,2.3719478204267643,-9.709249944650058,-2.9083974162813404,0.5823237549684288,-6.650773955151535,-4.817534871675723,-8.920556545127134,-6.781561011259625,2.846749563028415],[1.3847527763590006,9.131214773773433,1.9962165598807018,1.6325256479379457],[3.8175184892234113]],"id":0,"number":420}
