{"architecture":{"NEURONS":[10,4,1],"LAYERS":3,"totalSynapses":44},"weights":[-4.3710193929622205,-5.7426130802987645,-0.31115256130621843,-1.7845797641994186,9.221933463676477,-6.147484578798944,4.480901935535266,-1.491874382132534,-5.734351219385129,0.7213044462907302,4.953874697117483,-0.8987060736761542,-2.5146948649071934,-9.49326432403812,1.7395977198825578,7.1628035176172355,7.355335286924869,6.262255809268309,-1.8272731239212212,6.553996392645359,8.614300364576481,5.144807277470119,9.36746174357806,4.072699611140388,1.9627635975257853,-4.318410036147804,2.268805927126869,5.902374600540902,-2.6805266805533656,9.33860419196797,-8.310602404126712,-6.181432676238276,0.4255320100658334,-6.355987392151516,7.06558158917717,1.9717875349561966,2.6006794519136633,-6.475711751232588,-8.46574226729505,-3.1170173277702298,-9.282628442546514,-8.006148271412423,-2.084223812345905,-1.157061963529383],"bias":[[9.222719350645171,2.3719478204267643,-10.069229666425755,-2.5573835021316986,0.7884165988047955,-6.324605552933253,-4.823441853216072,-8.920556545127134,-6.958058312329654,2.967723321837621],[1.320856093039214,9.892701337751895,1.967148843028402,1.6325256479379457],[3.8175184892234113]],"id":0,"number":421}
