{"architecture":{"NEURONS":[10,4,1],"LAYERS":3,"totalSynapses":44},"weights":[-4.172546453165445,-5.56447319186028,-0.981062385844647,-1.7845797641994186,9.221933463676477,-6.147484578798944,4.480901935535266,-1.86774845078897,-5.341225405825653,0.7074184109370589,4.953874697117483,-1.2318307904816947,-2.7392821302425676,-9.49326432403812,1.3167743411453425,7.066887949159032,7.446020404797485,6.554159009577716,-2.107983554152728,6.505503786633624,8.558995350496902,4.851582698823725,8.428495672403756,4.072699611140388,1.4684269271312007,-4.470117323793975,2.261947691951703,5.97275681329365,-2.551600797467472,8.557697910836888,-8.310602404126712,-6.4081804733414645,0.4255320100658334,-6.398776192142337,6.729921200300355,2.1086655269132226,2.69909235794594,-6.271040483896767,-8.766229361255359,-3.27588009937188,-9.282628442546514,-8.006148271412423,-2.289224274159555,-1.157061963529383],"bias":[[9.150740968831855,2.3719478204267643,-9.709249944650058,-2.5573835021316986,0.49602186905244666,-6.324605552933253,-4.817534871675723,6.504873812577937,-6.781561011259625,2.967723321837621],[1.3847527763590006,10.245514852253821,2.0677118978604097,1.6325256479379457],[3.8175184892234113]],"id":0,"number":422}
