{"architecture":{"NEURONS":[10,4,1],"LAYERS":3,"totalSynapses":44},"weights":[-4.341078440076127,-4.9287407995903845,-0.9331488874850347,-1.7845797641994186,9.221933463676477,-6.147484578798944,4.480901935535266,-1.86774845078897,-5.734351219385129,0.5711920693385657,4.858382166840424,-0.919983012528035,-2.8657933988593443,-9.554883117420433,1.7395977198825578,7.150409427831774,7.516338088806319,6.313681706515657,-2.107983554152728,6.638688388844971,8.666558553527919,5.144807277470119,9.631617996736148,4.072699611140388,1.9627635975257853,-4.4113992160468785,2.268805927126869,5.902374600540902,-2.551600797467472,8.662963333388653,-8.138097130425471,-6.181432676238276,0.4255320100658334,-6.355987392151516,6.83781876234196,1.4696846690836904,2.6006794519136633,-6.475711751232588,-8.762135850116469,-3.57647463453242,-8.436370118810864,-8.006148271412423,-2.6971567907184335,-1.622484658087129],"bias":[[9.222719350645171,2.3719478204267643,-10.201633340990078,-2.9083974162813404,0.4092503218768004,-6.650773955151535,-4.955325224387178,-7.551019456778315,-6.781561011259625,2.967723321837621],[1.3847527763590006,9.045370117594144,1.967148843028402,1.4677332022956815],[3.8175184892234113]],"id":0,"number":423}
