{"architecture":{"NEURONS":[10,4,1],"LAYERS":3,"totalSynapses":44},"weights":[-4.3710193929622205,-5.634640494083152,-0.9331488874850347,-1.7845797641994186,9.737230731918224,-5.753826145457669,4.480901935535266,-1.8447733877594892,-5.935534013130522,0.009685363760294108,4.953874697117483,-0.919983012528035,-2.8657933988593443,-9.554883117420433,1.7395977198825578,7.150409427831774,7.516338088806319,6.472964132275158,-2.107983554152728,6.638688388844971,8.409534459817175,5.376598257373753,9.631617996736148,4.072699611140388,1.8636541306513343,-4.318410036147804,2.268805927126869,5.902374600540902,-2.8686716503620624,9.062675846907544,-8.138097130425471,-6.181432676238276,0.4255320100658334,-6.149451434938734,6.342331871968736,1.4696846690836904,2.6006794519136633,-6.681088032266385,-8.47017581935108,-3.1170173277702298,-9.282628442546514,-8.120516586614423,-1.8958942417682267,-1.622484658087129],"bias":[[9.150740968831855,2.3719478204267643,-9.709249944650058,-3.0123477150615168,0.49602186905244666,-6.520374149063484,-4.823441853216072,6.504873812577937,-6.958058312329654,3.2471997447666263],[1.8619867159751897,9.200719836175345,1.967148843028402,1.6349241053849481],[4.1559654246027975]],"id":0,"number":424}
