{"architecture":{"NEURONS":[10,4,1],"LAYERS":3,"totalSynapses":44},"weights":[-5.272583951624823,-5.7426130802987645,-0.8710947136162691,-1.7845797641994186,9.737230731918224,-6.147484578798944,4.480901935535266,-1.86774845078897,-5.611062788517388,0.009685363760294108,4.858382166840424,-0.919983012528035,-2.8657933988593443,-9.061854369064914,1.7395977198825578,7.150409427831774,7.516338088806319,6.100674044965729,-2.107983554152728,6.638688388844971,8.152286880338174,5.172761761090149,9.631617996736148,4.110229966244006,1.8636541306513343,-4.4113992160468785,2.268805927126869,5.8117008524433675,-2.732289725430408,8.971436925797878,-8.391135375462913,-6.181432676238276,0.4255320100658334,-6.398006406750088,6.342331871968736,1.4696846690836904,2.519558515910392,-6.681088032266385,-8.240380192428699,-3.1170173277702298,-9.407841219958298,-8.006148271412423,-2.084223812345905,-1.622484658087129],"bias":[[9.150740968831855,2.3719478204267643,-9.709249944650058,-2.9083974162813404,0.6114965819183392,-6.520374149063484,-4.864066652221442,-8.920556545127134,-6.535105181589836,2.967723321837621],[1.3847527763590006,9.131214773773433,1.967148843028402,1.6325256479379457],[3.8175184892234113]],"id":0,"number":425}
