{"architecture":{"NEURONS":[10,4,1],"LAYERS":3,"totalSynapses":44},"weights":[-4.341078440076127,-4.888169390379587,-0.9331488874850347,-1.7845797641994186,9.221933463676477,-5.753826145457669,5.593256154210293,-1.491874382132534,-5.699844480515152,0.7478408557544377,4.953874697117483,-0.919983012528035,-3.156337018330813,-9.554883117420433,1.7395977198825578,6.958061912434213,7.446020404797485,6.262255809268309,-2.107983554152728,6.594090833053225,8.614300364576481,5.144807277470119,8.396779575218307,4.072699611140388,1.4684269271312007,-4.45449505007951,2.255089456776538,5.902374600540902,-2.6317429135499997,9.33860419196797,-8.140408863051597,-6.181432676238276,0.4255320100658334,-6.355987392151516,6.342331871968736,1.7466415228307504,2.6006794519136633,-6.475711751232588,-8.46574226729505,-2.992791722032013,-9.433339099410878,-8.365606177196625,-2.084223812345905,-1.157061963529383],"bias":[[9.168888577374098,2.447589843441797,-10.069229666425755,-2.684670136404701,0.5823237549684288,-6.650773955151535,-4.823441853216072,6.504873812577937,-6.743967517557221,2.967723321837621],[1.3847527763590006,9.045370117594144,2.2472279892564613,1.6325256479379457],[3.8175184892234113]],"id":0,"number":426}
