{"architecture":{"NEURONS":[10,4,1],"LAYERS":3,"totalSynapses":44},"weights":[-4.3710193929622205,-4.888169390379587,-0.9331488874850347,-1.7845797641994186,9.737230731918224,-5.753826145457669,5.170715855053856,-1.86774845078897,-5.734351219385129,0.7213044462907302,4.858382166840424,-0.8181199566761151,-2.6865242889195695,-9.554883117420433,1.7395977198825578,6.7142097120904225,7.355335286924869,6.224031360109535,-2.4891509915562415,6.438676237533905,8.666558553527919,5.144807277470119,8.919659935187012,4.08373361473108,1.4684269271312007,-4.22834100819265,2.268805927126869,5.902374600540902,-2.5629917346259172,8.557697910836888,-8.181662372179858,-6.181432676238276,0.4255320100658334,-6.773136494957898,6.266215908456196,1.9717875349561966,2.69909235794594,-6.681088032266385,-8.135267998606425,-3.2616112665877024,-9.282628442546514,-8.006148271412423,-2.6280517118605617,-1.2248246714950939],"bias":[[9.150740968831855,2.3719478204267643,-9.709249944650058,-3.001961444765096,0.6114965819183392,-6.592529726306846,-4.823441853216072,-8.920556545127134,-6.781561011259625,3.2471997447666263],[1.3847527763590006,9.131214773773433,1.9962165598807018,1.4677332022956815],[3.5471662525815004]],"id":0,"number":427}
