{"architecture":{"NEURONS":[10,4,1],"LAYERS":3,"totalSynapses":44},"weights":[-4.195579747847024,-5.702150466112407,-0.8454405543879997,-1.7845797641994186,9.737230731918224,-6.147484578798944,4.480901935535266,-1.86774845078897,-5.637963194252573,0.009685363760294108,4.858382166840424,-0.919983012528035,-2.6305262604051,-9.49326432403812,1.7395977198825578,7.026424207647412,7.516338088806319,6.313681706515657,-2.4891509915562415,6.638688388844971,8.666558553527919,5.009942861016572,8.837248380162482,4.08373361473108,1.4684269271312007,-4.318410036147804,1.9865089641415894,6.683391042950914,-2.6805266805533656,9.33860419196797,-7.892769835832034,-6.181432676238276,0.2462354688986802,-6.355987392151516,6.567737143693571,1.9717875349561966,2.69909235794594,-6.542206394194163,-8.46574226729505,-3.1170173277702298,-8.47634619565394,-8.315183021878948,-2.084223812345905,-1.622484658087129],"bias":[[8.96810343716852,2.56357331238243,-10.201633340990078,-2.5573835021316986,0.4092503218768004,-6.650773955151535,-4.955325224387178,6.581502752323153,-6.781561011259625,2.967723321837621],[1.3847527763590006,9.131214773773433,1.9962165598807018,1.6325256479379457],[4.116280390109775]],"id":0,"number":428}
