{"architecture":{"NEURONS":[10,4,1],"LAYERS":3,"totalSynapses":44},"weights":[-4.3710193929622205,-5.17040021875026,-0.8454405543879997,-1.7845797641994186,9.221933463676477,-6.054467847033034,5.170715855053856,-1.7934726777565646,-5.341225405825653,-0.10108808776638689,4.953874697117483,-0.8987060736761542,-2.8657933988593443,-9.49326432403812,1.6344184592390794,7.026424207647412,7.446020404797485,6.165477676205655,-2.107983554152728,6.438676237533905,8.241492026204766,4.851582698823725,8.320103437006965,4.072699611140388,1.2403499589638962,-4.4113992160468785,1.877060645131293,6.136897209492715,-2.8686716503620624,9.234639847396267,-7.892769835832034,-6.089222902320072,0.4255320100658334,-6.773136494957898,6.768417024887566,1.7913127819163126,2.69909235794594,-6.367919529933204,-8.135267998606425,-3.1170173277702298,-9.407841219958298,-8.006148271412423,-2.084223812345905,-1.2769751922729857],"bias":[[9.150740968831855,2.5753665178053162,-10.188551658947341,-2.9083974162813404,0.49602186905244666,-6.650773955151535,-4.478905300612507,-8.920556545127134,-6.781561011259625,2.967723321837621],[1.2445883083794798,9.131214773773433,1.9962165598807018,1.6325256479379457],[3.8604938988965096]],"id":0,"number":429}
