{"architecture":{"NEURONS":[10,7,1],"LAYERS":3,"totalSynapses":77},"weights":[-9.02105591242698,11.184286305111522,-1.9872811576285079,-6.106349947045827,7.05893656202841,7.208137319418831,1.5182292380905993,5.360095279266215,10.311439184140294,-3.379054324668784,-1.7632294910397621,-2.475228483292634,-7.545571935608,-8.44084652417675,-6.821580832270976,2.7877130553635623,4.320209937430817,-2.991295815149035,-0.4132475291016017,-11.432779725974196,5.616489593810095,-3.5644430236061857,-8.309878695689228,-7.748921670206805,-5.872726889298967,-1.2662327628272474,-7.72361048356637,5.577032010102416,-3.7793845220623163,0.7878153594803547,1.6343944604781564,7.069570870739357,-11.41430146959438,-7.867546395247622,-8.829894704751771,0.6975003410134378,-1.613726347711005,-2.70411056649075,-3.5629478582462686,-4.212540863261213,9.726420166972964,2.6705557221404486,7.223574521412846,6.969998646133232,-7.700430815388417,-9.205316568643212,8.856965110835798,-4.463275601715926,7.516675706283802,-2.752987957241016,9.908861431420476,-2.017924185933848,-2.206501062789927,2.9398504638212417,6.929691357573944,-5.589473166827648,7.502771772375627,-0.6183382222485428,6.253327772250849,-9.076797103290188,5.24905554365273,3.8396387512096926,2.102095555731527,-5.007604392974817,0.6850470646203418,-3.640618306721845,-0.35052203554921746,-2.8386340354506303,-6.850821353600027,-0.3626348101470034,-3.8864565088846437,-7.196127013639469,8.004067778256873,-7.202655807457841,-0.9610269461198994,-6.5475172167546525,-4.431233804141616],"bias":[[-9.479329632627104,1.849958014810371,3.3203507745743095,5.903462904949649,-0.8931768622322365,4.942829808573312,5.697727619986572,-0.42071894385735564,-1.7807178139301585,-2.1455158431460704],[4.38481349847597,-3.88383886074886,-3.313136943710421,-7.236316572917181,1.8128276040971232,2.23258672872499,-4.998711302220013],[0.43405406566485494]],"id":0,"number":43}
