{"architecture":{"NEURONS":[10,4,1],"LAYERS":3,"totalSynapses":44},"weights":[-4.991092484651042,-4.93585758157405,1.1351643469564758,-1.8790420360856679,9.599961355998795,-4.667887941026285,5.693543432808271,-1.5234051409051907,-8.6468552793733,-0.18776594293792695,4.613940636674918,0.42273350242791174,-2.8314544540747137,-9.784371785546547,1.7893210495245633,8.057722165120712,8.290363874888326,6.822798069635287,-2.0956717417419513,6.453457326596539,8.487163752574167,4.671759618726829,7.771731066353908,3.3371381790950294,2.003272243695593,-4.005388511750406,2.5454660557732884,6.386143272992367,-3.3322049777484386,9.68589041100513,-7.751565148572704,4.556373010022656,0.5613784306421281,-5.403129629461411,6.489151580707829,1.090677815011487,3.2627280322521415,-6.263290748311621,-8.597204469769023,-7.113365025704312,-8.680429400348162,-8.162757813732867,6.837165769030411,-1.8133625807485914],"bias":[[-8.355311574645775,2.4221834929687605,-9.638281380756686,-2.4893999364118136,1.4743308048824215,-5.176203419913459,-9.91867120468144,-8.303170427244709,-5.887602176936663,2.9387931116759454],[-7.192084991397948,6.678008605265267,5.612104932275974,0.6926693392516121],[4.848595623891643]],"id":0,"number":43}
