{"architecture":{"NEURONS":[10,7,1],"LAYERS":3,"totalSynapses":77},"weights":[-5.1508905345093075,4.933301020805088,0.31803712417956476,-3.9283031699681135,-5.731556535974648,9.14756634012286,5.353855284239119,0.9115708343040708,2.3159991844541854,-1.6749154045872652,1.7573671755746212,-3.0577846690444117,7.7934177503950535,7.086811541229046,-1.3663758506112476,-2.7722639839407828,-6.840122364530857,4.093859500048329,-9.712614655556566,-9.3602482250915,5.81850122375194,-1.4003962509574368,-2.303885063315229,7.235656446254857,-1.3069479517147207,-6.173411211905796,0.2579525423767931,5.463621512499316,-1.9876301912743046,4.017197887997392,9.07129623106567,7.800808559077201,6.114110203375972,6.467591748823453,-10.132024912329868,4.372224831445261,5.009144927681932,4.40669112130098,5.327876311792631,-2.843341611695376,3.928504630714492,-5.704273152877229,-6.347850689603622,1.7337611097789112,-6.651823200904595,4.014038413057921,-4.566598408279695,0.2917846664752224,2.884815563562995,6.7933916841573545,1.034451965467178,-8.471240765040356,6.990573680959151,-5.845490565376653,-3.715358127531269,-5.668081727740757,-6.249824141406166,3.154584285443541,-0.40905999398733606,3.6880503228075354,-6.722262689743444,-4.078698032315487,6.396851540841297,-9.441060534681158,-3.3974143634541623,-2.7224434035804563,-3.9961040260235547,3.922494994227253,7.120874827668614,-0.5597484115193991,-5.865324019808132,4.129787983679828,0.3096681693159387,-1.3328258461245004,6.55029785669496,5.777173357503492,-0.20445137224758714],"bias":[[-6.699449801035544,4.65569105437177,-4.4274231263501385,4.413894554933115,1.6687322269570137,7.470693728753143,8.318247293536258,-7.2163269614110295,6.04046365848338,0.380030867901076],[0.08816109942737571,0.7042270114409498,-4.957577845829569,-7.18070562648763,1.2156246728747102,6.689974133650953,7.34454134484168],[-4.5380063129348365]],"id":0,"number":43}
