{"architecture":{"NEURONS":[10,4,1],"LAYERS":3,"totalSynapses":44},"weights":[-4.341078440076127,-4.888169390379587,-0.8519301248851717,-1.7845797641994186,9.745602592568448,-5.959952682421532,4.480901935535266,-1.86774845078897,-5.734351219385129,0.009685363760294108,4.953874697117483,-0.8181199566761151,-2.6305262604051,-9.061854369064914,1.4696728089043511,7.026424207647412,7.446020404797485,6.224031360109535,-2.4891509915562415,6.553996392645359,8.152286880338174,5.144807277470119,8.837248380162482,3.8350978531400925,1.4684269271312007,-4.4113992160468785,2.255089456776538,6.111365149031969,-2.6805266805533656,9.33860419196797,-7.892769835832034,-6.4081804733414645,0.36591577715682844,-6.773136494957898,6.342331871968736,2.1086655269132226,2.4075086535754715,-6.542206394194163,-8.135267998606425,-3.4057550284579543,-9.282628442546514,-8.006148271412423,-2.084223812345905,-1.622484658087129],"bias":[[9.150740968831855,2.3719478204267643,-10.201633340990078,-2.5573835021316986,0.4092503218768004,-6.650773955151535,-4.864066652221442,-7.348689956192025,-6.781561011259625,2.967723321837621],[1.2445883083794798,9.131214773773433,2.0130553431609064,1.68539043588876],[3.8604938988965096]],"id":0,"number":430}
