{"architecture":{"NEURONS":[10,4,1],"LAYERS":3,"totalSynapses":44},"weights":[-4.631629405546745,-4.888169390379587,-0.8519301248851717,-1.7845797641994186,9.346636447255833,-5.959952682421532,4.480901935535266,-1.86774845078897,-5.611062788517388,0.009685363760294108,4.856071679810738,-0.8987060736761542,-2.6305262604051,-9.061854369064914,1.7395977198825578,6.7142097120904225,7.446020404797485,6.224031360109535,-2.4891509915562415,6.553996392645359,8.152286880338174,4.851582698823725,8.837248380162482,3.8350978531400925,1.6035367529195572,-4.45449505007951,2.255089456776538,6.683391042950914,-2.6805266805533656,9.33860419196797,-7.892769835832034,-6.4081804733414645,0.1940131895071986,-6.517075173271185,6.266215908456196,2.0921798144183468,2.69909235794594,-6.208900752838864,-8.766229361255359,-3.57647463453242,-9.171229880568513,-7.974555409067821,-2.6280517118605617,-1.622484658087129],"bias":[[9.222719350645171,2.3719478204267643,-9.732942335280534,-2.9083974162813404,0.3641598631584809,-6.650773955151535,-4.864066652221442,-8.920556545127134,-6.563879493514041,2.967723321837621],[1.2445883083794798,9.200719836175345,2.0130553431609064,1.5995967396649013],[4.116280390109775]],"id":0,"number":431}
