{"architecture":{"NEURONS":[10,4,1],"LAYERS":3,"totalSynapses":44},"weights":[-4.3710193929622205,-5.089691086047662,-0.31115256130621843,-1.7845797641994186,9.346636447255833,-6.147484578798944,4.745368976439577,-1.491874382132534,-5.734351219385129,0.7213044462907302,4.858382166840424,-0.8987060736761542,-2.5146948649071934,-9.554883117420433,1.7395977198825578,7.066887949159032,7.355335286924869,5.742530409494525,-1.8272731239212212,6.638688388844971,8.658089301614492,5.144807277470119,8.636172220414654,3.8350978531400925,1.4684269271312007,-4.45449505007951,2.255089456776538,5.86488244139444,-2.6805266805533656,8.971436925797878,-8.296861941569148,-5.912487529995924,0.1940131895071986,-6.120814036290566,6.904417552080152,2.0921798144183468,2.69909235794594,-6.542206394194163,-8.33840275505702,-3.068744045631903,-9.407841219958298,-8.031433128220542,-2.6971567907184335,-1.157061963529383],"bias":[[9.150740968831855,2.3719478204267643,-9.732942335280534,-2.6014582031141145,0.7754966999291864,-6.557923655462037,-4.955325224387178,6.504873812577937,-6.781561011259625,2.967723321837621],[1.3847527763590006,10.245514852253821,2.4100158676312295,1.6325256479379457],[3.8175184892234113]],"id":0,"number":432}
