{"architecture":{"NEURONS":[10,4,1],"LAYERS":3,"totalSynapses":44},"weights":[-4.6068822022153295,-4.9287407995903845,-0.8519301248851717,-1.7845797641994186,9.035560858818014,-6.147484578798944,4.389059218645778,-1.909247973882837,-5.362316617291498,0.7213044462907302,4.858382166840424,-1.1974962515865204,-2.6305262604051,-9.554883117420433,1.7395977198825578,6.7142097120904225,7.2176342848861825,5.690140839743813,-2.107983554152728,6.863486728560946,8.666558553527919,4.812735474427255,8.837248380162482,4.39576869296536,1.4684269271312007,-4.45449505007951,2.2546005350597977,6.683391042950914,-2.8686716503620624,9.116239986939632,-7.892769835832034,-6.4081804733414645,0.1940131895071986,-6.773136494957898,7.034412536528523,1.7913127819163126,2.69909235794594,-6.208900752838864,-8.070069692492401,-3.57647463453242,-9.433339099410878,-8.37577687967245,-2.6971567907184335,-1.4676993969701866],"bias":[[8.96810343716852,2.3719478204267643,-9.709249944650058,-2.5997793892504557,0.6263706795114297,-6.650773955151535,-5.108396566970349,-9.143080359156503,-6.781561011259625,2.967723321837621],[1.3847527763590006,10.245514852253821,1.9962165598807018,1.8530396765261692],[4.190474267160399]],"id":0,"number":433}
