{"architecture":{"NEURONS":[10,4,1],"LAYERS":3,"totalSynapses":44},"weights":[-4.3710193929622205,-5.702150466112407,-0.8519301248851717,-1.7845797641994186,9.371852078983334,-5.959952682421532,4.389059218645778,-1.9256593750758035,-5.130517586719327,-0.12930665839087724,4.858382166840424,-0.8987060736761542,-2.6865242889195695,-9.49326432403812,1.7395977198825578,7.150409427831774,7.2176342848861825,6.224031360109535,-1.8423839171177603,7.04968186700187,8.651539405617788,5.144807277470119,8.837248380162482,4.072699611140388,1.4684269271312007,-4.45449505007951,1.9865089641415894,6.030375036049173,-2.6317429135499997,9.33860419196797,-8.442230039648294,-6.181432676238276,-0.19483297924330456,-5.7693030058893005,6.266215908456196,2.3283329653183937,2.138192511836217,-6.795318681749326,-8.135267998606425,-3.447129358770058,-9.174687696188618,-8.37577687967245,-2.084223812345905,-1.2769751922729857],"bias":[[9.446292700853961,2.3719478204267643,-9.709249944650058,-2.9083974162813404,0.49602186905244666,-6.650773955151535,-5.2061260292759854,6.504873812577937,-6.852856900067874,2.967723321837621],[1.3847527763590006,10.117491096214456,2.2453110759499,1.6325256479379457],[3.8604938988965096]],"id":0,"number":434}
