{"architecture":{"NEURONS":[10,4,1],"LAYERS":3,"totalSynapses":44},"weights":[-4.581427078456732,-4.5381384295240625,-0.43589629501355154,-1.7845797641994186,9.737230731918224,-6.147484578798944,4.1582721047406475,-1.491874382132534,-5.699844480515152,0.7693678004334248,4.953874697117483,-1.1974962515865204,-2.8657933988593443,-9.061854369064914,1.9124687469775785,7.066887949159032,7.516338088806319,6.224031360109535,-2.0018688344512356,6.33871353041414,8.666558553527919,5.009942861016572,8.837248380162482,3.8350978531400925,1.4684269271312007,-4.22834100819265,2.255089456776538,6.030375036049173,-2.6805266805533656,8.945144621382767,-7.892769835832034,-6.111710194339984,0.6162485390715189,-6.773136494957898,7.034412536528523,1.9717875349561966,2.519558515910392,-6.475711751232588,-8.766229361255359,-3.4057550284579543,-9.282628442546514,-8.315183021878948,-2.6971567907184335,-1.622484658087129],"bias":[[9.150740968831855,2.427412136517051,-9.709249944650058,-2.2282363028043686,0.4092503218768004,-6.520374149063484,-4.864066652221442,6.504873812577937,-6.781561011259625,2.967723321837621],[1.2445883083794798,10.073988071748737,1.9962165598807018,1.6325256479379457],[3.8175184892234113]],"id":0,"number":435}
