{"architecture":{"NEURONS":[10,4,1],"LAYERS":3,"totalSynapses":44},"weights":[-5.290277808386804,-5.046550404864804,-0.8454405543879997,-1.7845797641994186,9.221933463676477,-6.147484578798944,5.062073747123046,-1.86774845078897,-5.734351219385129,0.7213044462907302,4.856071679810738,-0.892579214433847,-2.6305262604051,-9.554883117420433,1.7395977198825578,7.026424207647412,7.446020404797485,6.224031360109535,-2.107499045753537,6.948930672381576,8.714717824073382,5.309566575392246,8.636172220414654,4.072699611140388,1.5451283684660946,-4.4113992160468785,1.9865089641415894,6.030375036049173,-2.6317429135499997,9.33860419196797,-7.892769835832034,-6.4081804733414645,0.1940131895071986,-5.991631454608408,6.904417552080152,1.7466415228307504,2.69909235794594,-6.079694696293853,-8.46574226729505,-3.447129358770058,-9.282628442546514,-8.033923449571315,-2.6280517118605617,-1.622484658087129],"bias":[[9.150740968831855,2.3719478204267643,-9.709249944650058,-2.431455388863242,0.5208053451478396,-6.650773955151535,-4.955325224387178,6.504873812577937,-6.852856900067874,2.967723321837621],[1.2445883083794798,10.24981346079995,2.2453110759499,2.252145611703652],[3.610241244763374]],"id":0,"number":436}
