{"architecture":{"NEURONS":[10,4,1],"LAYERS":3,"totalSynapses":44},"weights":[-5.290277808386804,-5.702150466112407,-0.8454405543879997,-1.7256290981124498,9.15258362500259,-6.147484578798944,5.153928819879853,-1.86774845078897,-5.341225405825653,0.7213044462907302,4.858382166840424,-1.462294694827432,-2.6865242889195695,-9.554883117420433,1.4696728089043511,7.026424207647412,7.446020404797485,6.224031360109535,-1.4466049379998307,6.863486728560946,8.666558553527919,5.2851419466242024,9.631617996736148,4.072699611140388,1.4684269271312007,-4.45449505007951,1.9865089641415894,6.030375036049173,-2.6317429135499997,9.43093090934773,-7.790935932539727,-6.4081804733414645,-0.2649999581476998,-5.991631454608408,6.266215908456196,1.897869759613295,2.69909235794594,-6.542206394194163,-7.870065033807525,-3.447129358770058,-9.282628442546514,-8.033923449571315,-2.652833474913901,-1.3242931304403427],"bias":[[9.150740968831855,2.3719478204267643,-9.709249944650058,-3.2485346694964043,0.2808495227383053,-6.406660120268456,-4.864066652221442,6.5420056232880714,-6.852856900067874,2.967723321837621],[1.2445883083794798,9.186601715280133,2.2453110759499,1.6325256479379457],[3.8604938988965096]],"id":0,"number":437}
