{"architecture":{"NEURONS":[10,4,1],"LAYERS":3,"totalSynapses":44},"weights":[-4.581427078456732,-4.9287407995903845,-0.559300946619002,-1.7845797641994186,9.346636447255833,-6.147484578798944,5.249750110825763,-1.491874382132534,-5.699844480515152,0.009685363760294108,4.953874697117483,-1.1974962515865204,-2.8657933988593443,-9.49326432403812,1.4696728089043511,7.066887949159032,6.906033816690645,5.742530409494525,-2.303410425634993,6.677188631168954,8.454861542898565,5.144807277470119,9.631617996736148,4.072699611140388,1.4684269271312007,-4.45449505007951,2.255089456776538,5.86488244139444,-2.6317429135499997,8.971436925797878,-8.032503246215065,-6.147591336032141,0.3941384693287119,-6.061352093414773,6.567737143693571,2.1086655269132226,2.69909235794594,-6.542206394194163,-8.135267998606425,-3.3583005420550887,-9.282628442546514,-8.006148271412423,-2.6971567907184335,-1.157061963529383],"bias":[[8.95028694129552,2.3719478204267643,-9.709249944650058,-2.9083974162813404,0.5823237549684288,-6.520374149063484,-4.955325224387178,-9.14863823733928,-6.781561011259625,2.967723321837621],[1.3847527763590006,10.245514852253821,2.0469379186291397,1.6325256479379457],[3.8604938988965096]],"id":0,"number":438}
