{"architecture":{"NEURONS":[10,4,1],"LAYERS":3,"totalSynapses":44},"weights":[-4.3710193929622205,-5.702150466112407,-0.6216836792514501,-1.7845797641994186,9.747770832951943,-6.088579148454295,5.698221117044367,-1.6574963830289187,-6.071681266037537,0.7478408557544377,4.856071679810738,-1.1974962515865204,-2.6305262604051,-9.49326432403812,1.7395977198825578,6.7142097120904225,7.446020404797485,5.742530409494525,-1.8521453342394314,6.863486728560946,8.614300364576481,5.009942861016572,8.837248380162482,4.285259606094702,1.4684269271312007,-4.45449505007951,2.2546005350597977,5.86488244139444,-2.6805266805533656,9.33860419196797,-7.892769835832034,-6.181432676238276,0.4255320100658334,-6.773136494957898,6.567737143693571,1.5863397116624258,2.69909235794594,-6.795318681749326,-8.46574226729505,-3.57647463453242,-9.282628442546514,-8.315183021878948,-2.6971567907184335,-1.622484658087129],"bias":[[9.150740968831855,2.3719478204267643,-9.709249944650058,-2.3540770596563654,0.6585022507205145,-6.650773955151535,-4.864066652221442,6.504873812577937,-6.781561011259625,2.967723321837621],[1.3847527763590006,10.245514852253821,1.9962165598807018,1.6325256479379457],[3.8175184892234113]],"id":0,"number":439}
