{"architecture":{"NEURONS":[10,7,1],"LAYERS":3,"totalSynapses":77},"weights":[-8.680002057857834,10.07574071901078,-5.417508076963177,-6.161257084965297,7.703560719661114,4.799981346036583,-0.19573411408988498,3.717611826632765,8.822408958709106,0.6872975547331179,-1.5811825885437087,-2.2026075379944943,-8.704880674981833,-8.202213390212572,-7.28874706845702,3.505876548911326,3.7924688898060444,-4.344644417529896,1.290482426219747,-9.379701673802106,0.9198183037621543,-1.8780338175757558,-6.759259650745485,-9.784518646653487,-8.344529741554021,-2.463868096055939,-8.77274374218787,7.32974792888853,-1.7762102980100805,2.3487463018604138,1.2289421416269954,8.97452304974984,-11.048132170682708,-5.817388454239603,-9.235504693053201,0.17093099098724968,-1.0418979705849356,-1.3139497048896718,-7.694938115764843,-1.5778041936257141,7.467907347293586,4.105038519038384,4.063637229576131,8.956186668533991,-6.547993880420693,-10.656096493324934,7.0863289163804,-5.300968776600596,5.163378143599828,1.5697209858396768,7.449022248476313,-0.8627446984630807,-2.0169668526219575,3.8674850863849692,3.649619251062281,-6.760326111000281,6.407973930289931,0.5440244703503607,1.5810075367111744,-9.027175317068346,2.872877694105308,5.132055238724031,1.5730874436893252,-4.089190102782166,-0.7330683289648595,-2.7066207540963467,0.6348604138844491,-2.0377255375657346,-6.332902977464473,0.6306559947940088,-1.922211864470641,-7.228541284573307,8.624262795385619,-8.854840034429659,-1.8953818897929289,-7.458905289155673,-4.483773059264316],"bias":[[-10.342920686635098,1.9473223165359392,4.041267138316694,6.663050983499653,-0.5442830746609669,5.448294896606436,9.782316142498061,-1.2671187814261857,-0.6984173851604751,0.8444605209091023],[0.9657404892301051,-2.9788881226472244,-5.63919396840593,-8.053266564217141,2.761473227577174,3.206579558310725,-5.548551391061618],[-2.9509121101102105]],"id":0,"number":44}
