{"architecture":{"NEURONS":[10,4,1],"LAYERS":3,"totalSynapses":44},"weights":[-4.49206142463082,-5.124075050218017,0.6939443726657817,-1.8790420360856679,9.45806736705668,-4.80284305159058,5.755691409761479,-1.5234051409051907,-8.117164571276628,-0.1408822388875608,4.613940636674918,0.16915428155678836,-2.8139189818855814,-9.702049674102946,1.1922435199802113,8.046776389787762,8.022026800355047,6.655465534223905,-1.7360023092725463,6.453457326596539,8.583558957410107,4.924302979991199,7.331563873021117,3.5722285386199637,1.8177666271807449,-3.8209450344236635,2.7426762392226824,6.541283591073817,-3.3322049777484386,9.502114251845168,-7.690087373329478,-6.231854462400097,0.5715685182801301,-5.403129629461411,6.592897665643293,1.5608720931329998,2.4167149428455237,-6.689976637295818,-8.731664980009548,-7.252084263256594,-9.111315329111244,-7.834790468868234,6.9317897378309485,-2.0618273056311502],"bias":[[-8.625926697232106,2.4221834929687605,-9.638281380756686,-2.3935441495482417,1.4743308048824215,-5.176203419913459,-9.91867120468144,-8.116106277592127,-5.569148951123373,3.046509775832843],[-6.7672952264587405,6.319568422239711,1.6758780832489932,0.6548853468030558],[4.848595623891643]],"id":0,"number":44}
