{"architecture":{"NEURONS":[10,7,1],"LAYERS":3,"totalSynapses":77},"weights":[-4.718767518279352,3.9831143538066587,0.8775349558878185,-2.401606050230098,-6.000369112634331,9.753827233015613,5.969119933534399,0.6158876877813899,2.9319366695407454,-0.7662047684068961,2.5321351993196073,-3.956292159150284,7.840179222500743,6.627186436558291,-1.384601832142592,-2.068035102426234,-5.9947946258618305,3.5758901378480483,-10.800196408106894,-9.735433790514112,5.859847035093818,-1.1620728432557885,-3.3312369451363324,5.027085866787936,-0.5728007097531426,-6.313162948521092,0.23459289686473234,4.634056760425377,0.6261928639213782,3.7719475934659514,8.496037633586292,7.123068625042207,6.165418211640111,6.914132084374424,-7.541884727286178,5.679044378643406,3.5598127248950644,5.111104248825439,6.545080260209694,-3.7613593543382144,4.88754958113741,-4.4360738746263575,-6.048307767931721,1.5666550345618435,-6.2372775717615525,3.2542778992660106,-3.9603055510412686,-0.4665194313523156,4.233897344341406,5.713836508616183,1.4883340642421665,-6.9939575686183035,7.591298717323749,-5.8535138722409545,-3.262705951855064,-5.770099114340739,-6.191080703907895,3.682726418354279,-1.6121060678773829,3.4404544993250497,-7.815477629701944,-3.0401268267758828,7.11783543844672,-9.301308632997953,-3.8001161338665783,-2.0143315434956452,-4.829621382891467,2.9259260077590303,8.325541714846437,-0.23611216134548352,-4.694698302448893,4.762425522181607,0.3982101306305729,0.6468279895007765,6.5800533380139905,5.340957916153002,-0.7790726355249413],"bias":[[-9.040132179014277,4.499700847937653,-4.837768394467967,5.218722491335653,3.8233101008682078,9.01652244672058,7.688083905311909,-6.321019016857008,6.6941400523956816,-0.01622236686845417],[-1.756422884259679,0.916671522899909,-4.392269904957112,-9.674500652477903,0.19545051521272633,7.084777365387978,8.039866986149232],[-5.2240739151821005]],"id":0,"number":44}
