{"architecture":{"NEURONS":[10,4,1],"LAYERS":3,"totalSynapses":44},"weights":[-4.3710193929622205,-4.9287407995903845,-0.9275940259451876,-1.7845797641994186,9.221933463676477,-6.147484578798944,5.062073747123046,-1.86774845078897,-5.734351219385129,0.009685363760294108,4.856071679810738,-0.9138441466060795,-2.6305262604051,-8.630738502262705,1.7395977198825578,7.026424207647412,7.34896841551783,6.224031360109535,-2.107983554152728,6.990708560278195,8.714717824073382,5.144807277470119,9.631617996736148,4.072699611140388,1.5451283684660946,-4.4113992160468785,1.9865089641415894,6.111365149031969,-2.772289431297434,8.557697910836888,-7.892769835832034,-6.4081804733414645,0.1940131895071986,-5.991631454608408,6.691274973083936,1.9717875349561966,2.69909235794594,-6.079694696293853,-8.46574226729505,-3.323064467583189,-9.282628442546514,-8.006148271412423,-2.6280517118605617,-1.1866336462182914],"bias":[[9.222719350645171,2.0460987710798495,-9.732942335280534,-2.3540770596563654,0.5208053451478396,-6.520374149063484,-4.823441853216072,6.504873812577937,-6.852856900067874,2.967723321837621],[1.0681803549283164,10.245514852253821,2.2453110759499,1.8713110276929454],[3.610241244763374]],"id":0,"number":440}
