{"architecture":{"NEURONS":[10,4,1],"LAYERS":3,"totalSynapses":44},"weights":[-5.391088753474517,-5.702150466112407,-0.422667340261375,-1.7845797641994186,9.346636447255833,-6.147484578798944,5.249750110825763,-1.9816965675716613,-5.699844480515152,0.7478408557544377,4.928570973297137,-1.1974962515865204,-2.8657933988593443,-9.49326432403812,1.4696728089043511,7.026424207647412,7.2176342848861825,5.6962172692286055,-2.4891509915562415,6.863486728560946,8.732213075150868,4.765024280795556,8.837248380162482,4.591993842526822,1.4684269271312007,-4.45449505007951,2.2546005350597977,5.754356773954786,-2.6805266805533656,8.989228318643628,-7.892769835832034,-6.111710194339984,0.23042086454769692,-6.773136494957898,6.31997222400154,1.7913127819163126,2.69909235794594,-6.414403516282312,-8.376424001542542,-3.486833752923355,-9.282628442546514,-8.006148271412423,-2.6280517118605617,-1.2769751922729857],"bias":[[9.288039857838458,2.3719478204267643,-9.709249944650058,-2.3540770596563654,0.49602186905244666,-6.650773955151535,-4.933737981417852,-8.920556545127134,-6.567685830262742,2.967723321837621],[1.3847527763590006,9.29273990516309,2.0469379186291397,1.68539043588876],[3.8175184892234113]],"id":0,"number":442}
