{"architecture":{"NEURONS":[10,4,1],"LAYERS":3,"totalSynapses":44},"weights":[-5.434737833043302,-5.315445632851396,-0.8519301248851717,-1.7845797641994186,9.582732714124843,-6.054467847033034,5.062073747123046,-1.86774845078897,-5.74731948705412,0.7213044462907302,4.819849708430127,-0.972213986979847,-2.8891545821816282,-9.41583785660272,1.5302134442582387,7.080082136519091,7.516338088806319,6.165477676205655,-2.4891509915562415,6.863486728560946,8.666558553527919,5.009942861016572,8.837248380162482,3.9936775653922885,1.4684269271312007,-4.45449505007951,2.2992454067503965,6.111365149031969,-2.772289431297434,8.989228318643628,-8.20201591388938,-6.102303246167476,0.4255320100658334,-6.730781989305269,7.352492611771337,1.7466415228307504,2.69909235794594,-5.947448734769567,-8.240380192428699,-3.1388816175250156,-9.248997368628256,-8.315183021878948,-2.6280517118605617,-1.3242931304403427],"bias":[[9.150740968831855,2.3719478204267643,-9.390074824786394,-2.431455388863242,0.5208053451478396,-6.324605552933253,-4.955325224387178,-2.964244551642155,-6.852856900067874,2.967723321837621],[1.3847527763590006,9.29273990516309,1.9962165598807018,2.252145611703652],[3.8604938988965096]],"id":0,"number":443}
