{"architecture":{"NEURONS":[10,4,1],"LAYERS":3,"totalSynapses":44},"weights":[-5.245489291531818,-5.089691086047662,-0.8519301248851717,-1.7845797641994186,9.593256806265172,-5.719630912993347,5.062073747123046,-1.86774845078897,-5.611062788517388,0.3686556710693533,4.856071679810738,-1.1936214657065791,-2.6865242889195695,-8.630738502262705,1.760825987729361,6.7142097120904225,7.2176342848861825,6.407436539513119,-2.4247579406573285,6.863486728560946,8.410959958369371,5.009942861016572,9.770688941830333,4.39576869296536,1.5451283684660946,-4.383547580308611,1.877060645131293,6.111365149031969,-2.6476407300281624,9.33860419196797,-7.662807341022201,-6.415030358121751,0.4386678243723162,-6.061352093414773,6.969415044304338,2.081708913125267,2.69909235794594,-6.313570600780545,-8.22324684701747,-3.57647463453242,-9.282628442546514,-8.2623610076753,-2.084223812345905,-1.157061963529383],"bias":[[9.150740968831855,2.6002350097931166,-9.732942335280534,-2.3027079185984896,-1.4711808139315488,-6.520374149063484,-4.823441853216072,-8.920556545127134,-6.781561011259625,2.967723321837621],[1.3847527763590006,10.245514852253821,2.011229460696589,5.128944448511428],[4.190474267160399]],"id":0,"number":444}
