{"architecture":{"NEURONS":[10,4,1],"LAYERS":3,"totalSynapses":44},"weights":[-5.391088753474517,-4.9287407995903845,-0.559300946619002,-1.7845797641994186,9.346636447255833,-6.088579148454295,5.6125452209756155,-1.491874382132534,-5.362316617291498,0.7213044462907302,4.8443519077560975,-0.49636725840436524,-2.6305262604051,-9.499671734282124,1.7395977198825578,7.026424207647412,7.34896841551783,5.6962172692286055,-2.4247579406573285,6.863486728560946,8.714717824073382,5.009942861016572,8.099470116542275,4.159466700204148,1.4684269271312007,-4.64845911839003,2.4682142089638193,6.111365149031969,-2.732289725430408,8.989228318643628,-7.892769835832034,-6.008401627758319,0.1940131895071986,-6.773136494957898,7.034412536528523,1.3699091988629948,2.69909235794594,-6.079694696293853,-8.222987676284417,-3.774261456049016,-9.282628442546514,-8.033923449571315,-2.084223812345905,-1.3242931304403427],"bias":[[9.307002708325241,2.469689830981985,-9.390074824786394,-2.3540770596563654,0.3344072105590149,-6.324605552933253,-5.154759595987036,6.879121726165001,-6.781561011259625,2.967723321837621],[1.3847527763590006,10.196774530392762,1.9962165598807018,1.5241691771299934],[3.8175184892234113]],"id":0,"number":445}
