{"architecture":{"NEURONS":[10,4,1],"LAYERS":3,"totalSynapses":44},"weights":[-5.290277808386804,-4.904675328656787,-0.7270337049743621,-2.121822066566744,8.819029172994075,-6.147484578798944,5.698221117044367,-1.86774845078897,-5.734351219385129,0.7478408557544377,5.040353255195375,-1.0159661427323816,-2.6305262604051,-9.90792305715173,1.6262294648049433,7.2148938262498135,7.410329963334417,5.742530409494525,-2.3382128289437727,6.777360122476457,8.768005545275658,5.2851419466242024,8.500717070982033,3.8902705438332785,1.548391296640029,-4.45449505007951,2.042396548824113,6.088211302625555,-2.732289725430408,9.59508553795986,-8.45366786132177,-6.014043870722802,0.1940131895071986,-6.730781989305269,7.20263826365906,1.7773839684598576,2.69909235794594,-5.947448734769567,-8.462882251455085,-3.8318203042897023,-9.124802761428441,-8.315183021878948,-2.6971567907184335,-1.2279185185427304],"bias":[[9.150740968831855,-1.2597752798266733,-9.390074824786394,-2.630180742904388,0.7608674130996577,-6.650773955151535,-4.866077460437333,-9.254992010141157,-6.781561011259625,8.59294894051962],[5.357179615611244,10.245514852253821,2.089901014480172,1.9305830502284356],[4.215549449076088]],"id":0,"number":446}
