{"architecture":{"NEURONS":[10,4,1],"LAYERS":3,"totalSynapses":44},"weights":[-5.245489291531818,-5.315445632851396,-0.13872147805900092,-1.7845797641994186,9.035560858818014,-6.054467847033034,5.698221117044367,-1.9256593750758035,-5.734351219385129,0.7478408557544377,4.858382166840424,-0.49636725840436524,-2.6305262604051,-8.630738502262705,1.4696728089043511,7.026424207647412,7.410329963334417,5.742530409494525,-2.6061976660703556,6.638688388844971,8.714717824073382,5.144807277470119,8.500717070982033,4.39576869296536,1.6221627400521355,-4.45449505007951,2.2992454067503965,5.966374818295037,-2.6805266805533656,9.207962181010757,-8.20201591388938,-6.096424178978938,0.23042086454769692,-6.773136494957898,6.691274973083936,1.9717875349561966,2.69909235794594,-6.542206394194163,-8.462882251455085,-3.1388816175250156,-8.315706072746522,-8.2623610076753,-2.652833474913901,-1.2769751922729857],"bias":[[9.150740968831855,2.0906641683766733,-9.390074824786394,-2.9083974162813404,0.49602186905244666,-6.650773955151535,-4.955325224387178,6.879121726165001,-6.852856900067874,2.967723321837621],[1.6485773077653947,9.186601715280133,1.9962165598807018,1.8530396765261692],[3.8175184892234113]],"id":0,"number":447}
