{"architecture":{"NEURONS":[10,4,1],"LAYERS":3,"totalSynapses":44},"weights":[-5.245489291531818,-4.862657606430448,-0.8454405543879997,-1.7845797641994186,9.500165676411156,-6.147484578798944,5.062073747123046,-1.491874382132534,-5.611062788517388,0.7478408557544377,4.856071679810738,-1.1936214657065791,-2.6305262604051,-9.41583785660272,1.7395977198825578,6.7142097120904225,7.446020404797485,5.690140839743813,-2.0692748412519393,7.038134487221948,8.454861542898565,5.009942861016572,8.604591877147229,4.072699611140388,1.4684269271312007,-4.45449505007951,2.2332831936607436,5.877706402552956,-2.772289431297434,8.557697910836888,-8.296861941569148,-6.008401627758319,0.5381978241674714,-5.832985060049866,6.567737143693571,1.7773839684598576,2.77395436412489,-6.542206394194163,-8.222987676284417,-3.1388816175250156,-9.21536629471,-8.315183021878948,-2.3347295762316613,-1.2769751922729857],"bias":[[9.150740968831855,2.425383012695078,-9.709249944650058,-2.210308062397515,0.3688365106409889,-6.324605552933253,-5.154759595987036,6.879121726165001,-6.962597959748102,2.967723321837621],[1.6485773077653947,9.186601715280133,1.9962165598807018,1.68539043588876],[3.8175184892234113]],"id":0,"number":448}
