{"architecture":{"NEURONS":[10,4,1],"LAYERS":3,"totalSynapses":44},"weights":[-4.631629405546745,-5.702150466112407,-0.559300946619002,-1.9955537114614632,9.346636447255833,-6.147484578798944,5.536010811314682,-1.6574963830289187,-5.377699808949248,0.9817171752713411,4.389772710508203,-1.1520273888951682,-2.4596354113718024,-9.826450406476331,1.4696728089043511,7.026424207647412,7.446020404797485,6.165477676205655,-2.0692748412519393,6.863486728560946,8.608660254493643,5.075116784605553,8.099470116542275,4.39576869296536,1.4684269271312007,-4.383547580308611,2.2546005350597977,5.902374600540902,-2.732289725430408,9.341101260060887,-7.662807341022201,-5.975839104971474,0.1940131895071986,-5.889360539538185,7.352492611771337,1.7773839684598576,2.69909235794594,-6.271040483896767,-8.46574226729505,-3.57647463453242,-9.21536629471,-8.487153387352752,-1.80579098348855,-1.2769751922729857],"bias":[[9.150740968831855,2.469689830981985,-9.709249944650058,-2.3540770596563654,0.6263706795114297,-6.520374149063484,-4.955325224387178,6.879121726165001,-6.559495197610439,2.967723321837621],[1.7354574427622655,9.186601715280133,1.9962165598807018,1.5241691771299934],[4.215549449076088]],"id":0,"number":449}
