{"architecture":{"NEURONS":[10,7,1],"LAYERS":3,"totalSynapses":77},"weights":[-7.654878768565056,10.967764777143394,-4.15595906146419,-8.366183608011402,6.765644035289667,5.891143793993776,0.7766598323268907,6.861829039942555,7.72847868257378,-1.8229817604936471,-1.5336236679460393,-4.52057390676299,-9.066297187574992,-11.556090090841478,-6.825052094861555,2.8039376826360702,5.117219488287888,-4.197870506590946,1.13961260994587,-8.99469705030264,4.3695230401857605,-1.621731758781589,-8.064129589668406,-7.355549501573653,-7.638496090570311,-1.3217284566492302,-7.350495545235702,3.7428816068384765,-3.3498586242506816,0.07595745302700108,0.4111376761667655,5.842236648202781,-9.857462238906093,-5.917162802222527,-10.41946384813767,-0.6354862749368823,-2.8475417387323265,-2.4247684376447065,-5.4294928209484254,-3.5765277521480785,9.912526345476628,4.875374714327398,3.440300194351719,8.135297010131572,-7.038402390143716,-8.334342032757132,9.342328878042366,-5.984932398754111,5.318364051822733,-2.6822902242298334,10.086788116716242,-2.8230007087886047,-1.2773304231772076,2.894279269579689,7.097822831941179,-5.497256503972118,5.317974201561084,1.460963735660338,2.320481876813818,-7.185857952338026,3.5408720337518598,7.468834555987119,0.14741433867320794,-3.5601212865324503,1.2543227225317952,-5.832870914802104,-0.9224342430411483,-4.34233029528335,-8.689160786578839,-0.1952886930848618,-3.9714495088122646,-8.155663363087736,9.23669180184354,-8.509755270646393,-1.0837465382736264,-6.71570874695672,-5.673683260720748],"bias":[[-8.97561999580077,4.360669303578996,3.5046978898621473,5.983840764784393,-0.5687018754461755,6.735355148967694,6.715284769898055,-3.3053476497537893,0.020949048574274765,-0.5657532242774179],[3.9697435555718052,-4.507194303074288,-1.3569314226383877,-5.674547676674366,5.59796565854557,3.652236442889948,-3.8201208723587285],[-0.7475505842864875]],"id":0,"number":45}
