{"architecture":{"NEURONS":[10,4,1],"LAYERS":3,"totalSynapses":44},"weights":[-4.9495115555557385,-4.93585758157405,1.0621367256607406,-1.8790420360856679,9.45806736705668,-4.9108389597726765,5.388975194831422,-1.5234051409051907,-5.345882538531171,0.45797804221706184,4.613940636674918,0.42273350242791174,-2.8314544540747137,-9.596681578799538,1.1922435199802113,8.046776389787762,8.238339840380798,6.695614249215422,-1.7360023092725463,7.594523992393775,8.487163752574167,4.859880910694258,7.617127408506445,3.5722285386199637,1.9978978553689493,-4.056943707128086,1.9824081923335466,6.541283591073817,-3.3322049777484386,9.147759972027393,-7.868134781650866,-6.231854462400097,0.40138837542693606,-5.123520571397772,6.592897665643293,1.58059449311676,2.4167149428455237,-6.88343710848498,-8.484208588252576,-3.750305328389405,-8.878119672789996,-7.834790468868234,6.669219955735082,-2.0618273056311502],"bias":[[-8.625926697232106,2.194726609579458,-9.783782886432661,-2.308512248281641,1.3226340592766377,-5.176203419913459,-10.082042176427477,-7.947018654848981,-5.595090931022022,2.428688466696591],[-6.891291934985542,6.31210663927828,1.5403513395065875,0.6548853468030558],[4.848595623891643]],"id":0,"number":45}
