{"architecture":{"NEURONS":[10,7,1],"LAYERS":3,"totalSynapses":77},"weights":[-5.026569150554679,4.111436334659991,1.4758855682025567,-4.618054092398956,-6.103058704008316,9.338841039979084,5.041298946712713,0.4803348855388244,2.1734494669266904,-1.606644722872397,1.8496396511301931,-3.220696268812802,8.486451679151996,7.1568914110618,-1.614240080469608,-2.5837809428368015,-7.021594022295312,3.935252901570974,-9.177762006591507,-9.131957715272442,5.274000441118053,-1.4157766562932148,-2.2483650271160163,7.447280611683163,-0.8206600787240808,-6.173411211905796,0.8529490987637773,5.009546954774079,-1.7619604424738646,4.064266148187719,9.610148805991797,7.399892910525881,6.757910066218455,6.530139800882214,-9.692754847260598,4.239651230090308,5.063050080312402,4.405020148280298,5.441717572100137,-3.2001408419505872,4.642706903540384,-5.704273152877229,-6.026957193108384,3.2430127679501446,-6.32936138260661,4.3854091614759545,-4.932924840187813,0.44416791338562545,2.7231594144819375,6.880197591567658,1.1556373729018021,-7.9866518785812906,6.204342316817755,-5.371571874580548,-4.058437581775415,-5.699820550438484,-5.539733669539922,3.2695063622640106,-0.33251723696709934,4.237116076147587,-6.935579540519587,-3.74376851652708,6.765871026315092,-9.73642923824551,-3.6934076657076504,-3.202359234445073,-4.393178105512466,3.6744489018382582,6.840469889383371,-1.5009488685152634,-6.45620371919731,4.1124577762900785,0.5662088710639134,-1.2829011939322972,6.640350891404897,5.915329638567602,0.18606106607928036],"bias":[[-6.853315542140573,4.086827599701641,-4.470732073793947,4.49829754451135,1.35492174785372,8.169186274832342,9.054127986914912,-7.193617006359424,6.587884921397786,0.08655352951395362],[-0.2646771294624637,0.8389891277381266,-4.9429981327561245,-7.137594391219163,1.486107500008114,6.142500353678508,6.9629307997843615],[-4.655698687034515]],"id":0,"number":45}
