{"architecture":{"NEURONS":[10,4,1],"LAYERS":3,"totalSynapses":44},"weights":[-5.391088753474517,-4.9287407995903845,-0.7270337049743621,-1.6897147102760586,8.819029172994075,-5.64636481684726,4.480901935535266,-1.86774845078897,-5.611062788517388,0.7478408557544377,4.895230635069529,-1.1974962515865204,-2.8657933988593443,-9.41583785660272,1.4696728089043511,6.7142097120904225,7.34896841551783,6.423574762354061,-2.107499045753537,6.904342169634742,8.714717824073382,5.2851419466242024,8.636172220414654,4.591993842526822,1.4684269271312007,-4.4113992160468785,2.072593060387079,6.030375036049173,-2.6805266805533656,9.33860419196797,-7.892769835832034,-6.341232066738522,-0.18846073834088795,-5.9326781874819785,7.034412536528523,1.8729029615029007,2.5784498139230405,-6.079694696293853,-8.376424001542542,-3.1388816175250156,-8.37103290287005,-8.006148271412423,-2.3347295762316613,-1.622484658087129],"bias":[[8.792704273190244,2.224492153435421,-9.709249944650058,-2.3540770596563654,0.5445907601344988,-6.324605552933253,-5.423671420144759,-8.920556545127134,-6.623689897562304,2.967723321837621],[1.9473916074223785,10.245514852253821,1.9962165598807018,1.8840565145742338],[3.8175184892234113]],"id":0,"number":450}
