{"architecture":{"NEURONS":[10,4,1],"LAYERS":3,"totalSynapses":44},"weights":[-4.6068822022153295,-4.862657606430448,-0.7023827245909213,-1.7845797641994186,8.834333341012055,-6.209537186889689,5.062073747123046,-1.9256593750758035,-5.734351219385129,0.3253777184378771,4.928570973297137,-1.0159661427323816,-2.6305262604051,-9.77860448807334,1.7395977198825578,7.026424207647412,7.087299286517524,5.742530409494525,-2.107499045753537,6.863486728560946,9.069092894019851,5.144807277470119,8.604591877147229,4.285259606094702,1.4684269271312007,-4.4113992160468785,2.0486113438892604,6.111365149031969,-2.772289431297434,9.803434656531888,-8.296861941569148,-6.292805720049144,0.1940131895071986,-5.690261535205455,6.554316731672749,1.7773839684598576,2.77395436412489,-6.583116293900992,-8.762135850116469,-3.7620776262811004,-9.189856849537684,-8.315183021878948,-2.6280517118605617,-1.2279185185427304],"bias":[[9.150740968831855,2.3719478204267643,-9.784003517411746,-2.9083974162813404,0.7608674130996577,-6.650773955151535,-4.823441853216072,6.879121726165001,-6.895002743164432,8.228292107804085],[1.3847527763590006,9.186601715280133,1.9962165598807018,1.5241691771299934],[3.8175184892234113]],"id":0,"number":451}
