{"architecture":{"NEURONS":[10,4,1],"LAYERS":3,"totalSynapses":44},"weights":[-5.399140299678742,-4.862657606430448,-0.559300946619002,-1.7845797641994186,8.834333341012055,-5.64636481684726,5.44804273357809,-1.7457827457256119,-5.362316617291498,0.7478408557544377,4.4521717788915,-1.1974962515865204,-2.6305262604051,-8.564515019809354,1.7395977198825578,6.907757441785128,7.410329963334417,5.690140839743813,-2.107983554152728,6.904342169634742,9.069092894019851,5.2851419466242024,8.470380077477243,3.9322644492377425,1.548391296640029,-4.45449505007951,2.2546005350597977,6.088211302625555,-2.7566599105013334,9.59508553795986,-8.21396247044363,-6.427879259457768,0.1940131895071986,-6.120814036290566,7.062160852911958,1.9576772218431728,2.69909235794594,-5.947448734769567,-8.36713134401651,-3.5944576755521496,-9.21536629471,-8.315183021878948,-2.8054361197186237,-1.2279185185427304],"bias":[[9.150740968831855,2.0460987710798495,-9.795970399005363,-2.823802458968357,0.5208053451478396,-6.324605552933253,-4.823441853216072,6.765158252443324,-6.895002743164432,2.967723321837621],[1.0681803549283164,9.186601715280133,1.9962165598807018,1.9305830502284356],[-6.764840975619193]],"id":0,"number":452}
