{"architecture":{"NEURONS":[10,4,1],"LAYERS":3,"totalSynapses":44},"weights":[-4.631629405546745,-5.702150466112407,-0.7270337049743621,-1.9955537114614632,9.346636447255833,-6.147484578798944,5.698221117044367,-1.491874382132534,-5.362316617291498,0.5260826349199028,4.856071679810738,-0.6026592349044568,-2.8657933988593443,-10.0434552172711,1.7395977198825578,7.026424207647412,7.1212592746887955,5.690140839743813,-2.0692748412519393,6.863486728560946,8.441211785498858,5.013872571645331,8.099470116542275,4.39576869296536,1.4684269271312007,-4.4113992160468785,2.2992454067503965,6.088211302625555,-2.732289725430408,9.33860419196797,-7.603911872395926,-5.681190131915598,0.1940131895071986,-6.008969295359738,7.034412536528523,1.7773839684598576,2.69909235794594,-6.542206394194163,-8.222987676284417,-3.7620776262811004,-9.189856849537684,-8.315183021878948,-1.80579098348855,-1.2769751922729857],"bias":[[9.049825620701101,2.398192348621529,-9.390074824786394,-2.431455388863242,0.3688365106409889,-6.324605552933253,-4.823441853216072,7.017319679494643,-6.895002743164432,3.3939935683876934],[1.3847527763590006,10.245514852253821,1.9962165598807018,1.9305830502284356],[3.610241244763374]],"id":0,"number":453}
