{"architecture":{"NEURONS":[10,4,1],"LAYERS":3,"totalSynapses":44},"weights":[-4.631629405546745,-5.702150466112407,-0.7270337049743621,-1.7845797641994186,8.834333341012055,-6.209537186889689,5.698221117044367,-1.86774845078897,-5.734351219385129,0.3253777184378771,4.856071679810738,-1.1974962515865204,-2.7684326272956277,-9.826450406476331,1.4696728089043511,6.7142097120904225,7.410329963334417,5.690140839743813,-2.0692748412519393,6.863486728560946,8.441211785498858,5.075116784605553,8.604591877147229,4.34159294534462,1.4684269271312007,-4.45449505007951,2.2546005350597977,6.088211302625555,-2.754258434992209,8.933826327225958,-7.603911872395926,-6.341232066738522,0.1940131895071986,-6.382383974783153,7.034412536528523,1.8729029615029007,2.69909235794594,-5.920028376239753,-8.222987676284417,-3.1388816175250156,-9.189856849537684,-8.315183021878948,-2.6280517118605617,-1.622484658087129],"bias":[[9.150740968831855,2.469689830981985,-9.390074824786394,-2.210308062397515,0.5445907601344988,-6.650773955151535,-4.823441853216072,-9.31811935658987,-6.623689897562304,2.967723321837621],[1.6485773077653947,9.186601715280133,1.9962165598807018,1.5241691771299934],[3.610241244763374]],"id":0,"number":454}
