{"architecture":{"NEURONS":[10,4,1],"LAYERS":3,"totalSynapses":44},"weights":[-5.290277808386804,-4.862657606430448,-0.6053900844759684,-1.7845797641994186,9.500165676411156,-6.147484578798944,5.415007529366175,-1.186471149604225,-5.699844480515152,0.7213044462907302,4.856071679810738,-1.1974962515865204,-2.8657933988593443,-9.77860448807334,1.5214388886859886,6.871658128877937,7.1593728622570225,5.455518604887707,-2.107983554152728,6.754401245351941,8.72482261602107,5.475290776448583,8.604591877147229,4.39576869296536,1.4684269271312007,-4.3620543341959,2.1205416515917825,6.088211302625555,-2.732289725430408,9.200139980841737,-8.432578399947486,-5.842532731863201,0.1940131895071986,-6.730781989305269,6.554316731672749,1.556506735528037,2.594187562654692,-5.947448734769567,-8.36713134401651,-3.1388816175250156,-9.134643272813467,-8.315183021878948,-2.33803946003127,-1.539141363926953],"bias":[[9.083595786868724,2.0906641683766733,-9.709249944650058,-2.483531085778805,0.6263706795114297,-6.650773955151535,-4.823441853216072,-9.254992010141157,-6.781561011259625,3.1248961263916244],[1.0681803549283164,9.163464465587614,1.9962165598807018,1.9305830502284356],[3.8175184892234113]],"id":0,"number":455}
