{"architecture":{"NEURONS":[10,4,1],"LAYERS":3,"totalSynapses":44},"weights":[-5.245489291531818,-4.605622867461701,-0.7270337049743621,-1.3767430679416042,8.954189549755428,-6.147484578798944,5.062073747123046,-1.8574917539914462,-5.6098459384999755,0.825826663384826,5.040353255195375,-0.899178377132063,-2.7684326272956277,-9.77860448807334,1.8926900822195363,7.123469066673351,7.489281637493803,5.660180264871196,-2.107499045753537,6.610437918066844,8.22999651918815,5.2851419466242024,8.604591877147229,4.39576869296536,1.368851773954685,-4.388136952432386,2.04010529499943,5.875043105103753,-2.772289431297434,8.539307503178591,-8.296861941569148,-6.008401627758319,0.10857468314742767,-6.730781989305269,7.20263826365906,2.180482758342615,2.726322631043936,-6.409253992455072,-8.36713134401651,-2.876528418064587,-9.124802761428441,-8.315183021878948,-2.6280517118605617,-1.2536718341456554],"bias":[[9.288039857838458,2.0906641683766733,-9.390074824786394,-2.499081795578236,0.3688365106409889,-6.324605552933253,-4.848386634013585,6.765158252443324,-6.895002743164432,3.008083906784676],[0.9913706098732159,9.186601715280133,2.089901014480172,0.9534953268814156],[3.610241244763374]],"id":0,"number":456}
