{"architecture":{"NEURONS":[10,4,1],"LAYERS":3,"totalSynapses":44},"weights":[-5.245489291531818,-4.6838526057669485,-0.559300946619002,-1.9465622200861812,9.73658061653773,-6.147484578798944,5.282210618597706,-1.491874382132534,-5.362316617291498,0.7478408557544377,4.4521717788915,-1.0673722825049667,-2.641940963073029,-9.41583785660272,1.4696728089043511,7.123469066673351,7.1130113066892795,6.423574762354061,-2.107499045753537,6.863486728560946,8.454861542898565,5.009942861016572,10.076682974728778,4.371938590727145,1.4684269271312007,-4.4113992160468785,2.470581125536182,6.088211302625555,-2.732289725430408,8.570139475371723,-8.296861941569148,-6.381624312482499,-0.18846073834088795,-5.9326781874819785,6.417618349303351,2.180482758342615,2.726322631043936,-6.299169562501221,-8.462882251455085,-3.5944576755521496,-9.020453243857546,-7.804031232453647,-2.240361120242227,-1.2769751922729857],"bias":[[8.792704273190244,2.224492153435421,-9.390074824786394,-2.483531085778805,0.32362879882640483,-6.324605552933253,-4.955325224387178,6.677262225674095,-6.962597959748102,3.0380203496179017],[1.0681803549283164,8.894559869178506,1.9962165598807018,1.7158385910033966],[3.610241244763374]],"id":0,"number":457}
