{"architecture":{"NEURONS":[10,4,1],"LAYERS":3,"totalSynapses":44},"weights":[-4.6068822022153295,-4.995480680985147,-0.6755971670194703,-1.9465622200861812,8.920860373565457,-6.147484578798944,5.282210618597706,-1.418975180746912,-5.362316617291498,0.7478408557544377,4.409553546133203,-1.1974962515865204,-2.8657933988593443,-9.49326432403812,1.7395977198825578,7.123469066673351,7.1130113066892795,5.742530409494525,-2.107983554152728,7.029133932547815,8.80772000068325,5.144807277470119,8.636172220414654,3.8902705438332785,1.4684269271312007,-4.45449505007951,2.2546005350597977,6.088211302625555,-2.772289431297434,8.570139475371723,-7.632467784216406,-6.292805720049144,-0.18846073834088795,-6.382383974783153,7.034412536528523,1.8729029615029007,2.69909235794594,-6.299169562501221,-8.462882251455085,-3.7620776262811004,-9.020453243857546,-7.804031232453647,-2.240361120242227,-1.622484658087129],"bias":[[8.792704273190244,2.224492153435421,-9.551893637310073,-2.483531085778805,0.3688365106409889,-6.5741453884897165,-4.955325224387178,6.765158252443324,-6.623689897562304,2.967723321837621],[1.0681803549283164,8.894559869178506,1.9962165598807018,1.7158385910033966],[3.7399233024666856]],"id":0,"number":458}
