{"architecture":{"NEURONS":[10,4,1],"LAYERS":3,"totalSynapses":44},"weights":[-4.631629405546745,-4.605622867461701,-0.6755971670194703,-1.9955537114614632,9.500165676411156,-6.209537186889689,5.062073747123046,-1.491874382132534,-5.734351219385129,0.5260826349199028,5.040353255195375,-1.1974962515865204,-2.6305262604051,-9.75215148844404,1.6262294648049433,6.9128412428748724,7.34896841551783,6.130926750753575,-2.107983554152728,6.863486728560946,8.80772000068325,5.009942861016572,8.636172220414654,4.022908711798433,1.4684269271312007,-4.45449505007951,2.2546005350597977,6.088211302625555,-2.772289431297434,9.333969707035264,-8.296861941569148,-6.014043870722802,0.3891091519122484,-6.382383974783153,7.20263826365906,1.8729029615029007,2.69909235794594,-5.920028376239753,-8.376424001542542,-3.7620776262811004,-9.189856849537684,-8.633084513421577,-2.6971567907184335,-1.622484658087129],"bias":[[9.150740968831855,2.398192348621529,-9.390074824786394,-2.8771696238445177,0.3688365106409889,-6.650773955151535,-4.866077460437333,-9.31811935658987,-6.623689897562304,2.967723321837621],[0.9913706098732159,10.397107972324529,2.089901014480172,1.9305830502284356],[3.610241244763374]],"id":0,"number":459}
