{"architecture":{"NEURONS":[10,7,1],"LAYERS":3,"totalSynapses":77},"weights":[-6.5317170452121545,10.734239442847487,-5.927340939169153,-8.085696346114345,7.131766869161891,4.9299674828933,0.14495600400232972,6.756162219807993,9.09834331421984,0.45601002444517313,-0.9690029459146119,-1.8803374587177764,-8.577811339599917,-10.168729329657726,-4.484408342814905,4.808554291112621,7.258903125648828,-4.809062955102939,2.9990952209743087,-9.590899702589152,4.261659828000537,-5.045387092648902,-9.019049503587432,-9.07458330032612,-6.269422492829336,-1.6993382285880607,-9.55179295708849,6.850076054182942,-2.848393330777009,2.3379402689529605,1.6317608531700862,7.8655407926735785,-10.190342626925077,-5.091945122310689,-8.251190952197796,0.7107529139066575,-2.886980339971781,-3.2975167221973614,-5.162947640813354,-2.8176591801729143,8.010136559404085,5.526717092572355,4.0715593263695355,7.68051085574325,-7.152958822656728,-8.276996582206595,9.447769550696393,-7.6523755153963,5.519320566417396,-1.5067114743382743,8.025774733935426,-1.5463884810234292,-1.6431044888739128,3.599878586569511,6.596950430010126,-5.653642904295555,6.082526693380733,-1.0778561430008868,0.7103589502810359,-9.829556967869168,4.705818319052748,6.438817170733956,2.5150479023298367,-2.405933449752582,-0.4359971694381467,-2.9592397402280537,-0.9772294844678352,-4.7323034905604455,-6.548699854761892,-1.4785799625649407,-1.6666831141268168,-8.888666730239393,6.827568455157867,-5.822164284978364,-0.5489792760512773,-9.537696970139088,-4.428410687415576],"bias":[[-8.815655919880973,2.472425162600652,1.8098088815645554,8.805370991047536,-2.0092962989700043,6.326371861509168,10.473051058644955,-0.25301183949011447,0.8741396159236279,0.16339948204390353],[0.34043487588220256,-2.4679814124888195,-3.282142571270376,-7.21545119864802,5.5027062906911866,1.8699110811651465,-6.056820342641448],[-5.578020331960421]],"id":0,"number":46}
