{"architecture":{"NEURONS":[10,4,1],"LAYERS":3,"totalSynapses":44},"weights":[-4.9495115555557385,-5.039479676299282,0.6939443726657817,-1.9126608507086762,9.45806736705668,-5.115242466145559,5.787080429518141,-1.5234051409051907,-5.345882538531171,0.30204358396165065,4.7581693210925575,0.42273350242791174,-2.2790961851962397,-9.702049674102946,1.1922435199802113,8.057722165120712,8.290363874888326,6.528545579580549,-1.7360023092725463,6.7572627672355345,8.497969850612629,4.859880910694258,7.677253220137989,3.4997182620500027,2.003272243695593,-3.8209450344236635,2.4684404115260463,6.541283591073817,-3.4407766510044087,9.060518113726147,-7.7067060223177695,-5.631466648199511,1.2988359800242173,-5.554267822974435,6.6811820446505985,1.5608720931329998,2.4167149428455237,-6.694229412098978,-8.772869227548155,-3.750305328389405,-8.878119672789996,-7.834790468868234,7.080338164924699,-1.6979331078762199],"bias":[[-8.625926697232106,1.901644341169023,-9.638281380756686,-2.3031215790510653,1.3311489911721885,-5.176203419913459,-9.893843100225881,-7.947018654848981,-5.569148951123373,3.046509775832843],[-6.7672952264587405,6.319568422239711,1.6758780832489932,0.5820311192185512],[4.636143817749678]],"id":0,"number":46}
