{"architecture":{"NEURONS":[10,7,1],"LAYERS":3,"totalSynapses":77},"weights":[-3.74338219151247,4.982370263595865,0.6602914347728985,-1.9096890490488587,-5.6739609721550535,9.294593386263259,6.863417254005815,1.061827590523404,2.062153897994214,-1.2745325143909103,1.3520305267132988,-4.392135746822026,8.586011052420297,6.366246361638921,-3.3038721541443348,-3.198460254227324,-6.854584532244227,3.741857073189432,-9.615502146980939,-9.805214890538949,5.455477987469522,-2.333316909750064,-1.6738300673417692,5.9036084984373955,-1.3645719384728596,-6.54122742127428,0.46319070005021945,4.410739206140766,-0.38330953298676,4.091970200692244,8.740437502445245,7.780612272902946,4.658728834651088,6.374522401873157,-8.591088977090704,4.803667132431344,5.182489900868708,5.38779670886461,5.227155758158401,-2.4493355250042965,5.333145499158292,-5.750089762830688,-5.277124336277889,2.415777577926645,-7.9506317187976805,4.844891110283546,-3.2791486816525115,1.1966414712835802,3.8270695279744142,6.693605336585167,1.391203638674372,-7.858065548762461,5.861805728667298,-5.584731165919968,-2.9523771202866165,-4.518978266206497,-6.356635129403321,2.8259254114379075,-0.230124863717046,4.003859613855483,-6.33596916922134,-2.8752110115170275,6.778226126114663,-9.580771114582822,-4.3658326445333735,-2.144093941684023,-5.864988958089462,3.297564180649474,6.839788481012147,0.8526136560855401,-4.856856137596794,5.277194498630121,0.2902984036457723,-1.0114213900115239,7.573413872825769,5.485016154711124,0.46231925026549725],"bias":[[-7.050712981259785,4.648884573040654,-5.070104808160744,4.778079181559533,1.7361228999257352,8.925909003369693,8.717288264825607,-6.063897863481326,7.167713582793728,0.5735818105181286],[-0.5368798382535451,0.20568994508813665,-4.20095889201775,-6.555158372755748,-0.14737693156622914,6.123965073375834,7.421453942346256],[-4.8422217874029485]],"id":0,"number":46}
