{"architecture":{"NEURONS":[10,4,1],"LAYERS":3,"totalSynapses":44},"weights":[-5.290277808386804,-4.6838526057669485,-0.8454405543879997,-1.8188228698060709,8.999426125706382,-6.147484578798944,5.02626130730894,-1.491874382132534,-5.362316617291498,0.7213044462907302,4.4521717788915,-0.6839598305807973,-2.8657933988593443,-9.75215148844404,1.4696728089043511,7.026424207647412,7.608279999236269,6.165477676205655,-2.107983554152728,6.863486728560946,8.391227760397122,5.729593014343726,8.442558176374817,3.8902705438332785,1.548391296640029,-4.4113992160468785,2.2992454067503965,6.088211302625555,-2.7566599105013334,9.33860419196797,-7.603911872395926,-5.681190131915598,-0.5129501165293926,-6.358950463192744,7.038219945180654,1.9717875349561966,2.69909235794594,-5.920028376239753,-8.36713134401651,-3.1388816175250156,-9.134643272813467,-8.315183021878948,-2.33803946003127,-1.2769751922729857],"bias":[[9.150740968831855,2.398192348621529,-9.709249944650058,-2.210308062397515,0.4092503218768004,-6.650773955151535,-4.823441853216072,6.879121726165001,-6.623689897562304,8.59294894051962],[5.558506496919481,10.245514852253821,1.9962165598807018,2.0374119161486615],[3.7399233024666856]],"id":0,"number":460}
