{"architecture":{"NEURONS":[10,4,1],"LAYERS":3,"totalSynapses":44},"weights":[-5.570213335345106,-4.6838526057669485,-0.8454405543879997,-1.7845797641994186,9.500165676411156,-6.147484578798944,5.282210618597706,-1.4731596198128245,-5.734351219385129,0.7478408557544377,4.4521717788915,-1.0673722825049667,-2.6305262604051,-9.900955524092252,1.4696728089043511,7.123469066673351,7.087299286517524,6.442453030494534,-2.107983554152728,6.863486728560946,8.80772000068325,5.013872571645331,8.604591877147229,4.022908711798433,1.548391296640029,-4.383547580308611,2.5541800095293703,6.193230063122001,-2.432305337776947,9.333969707035264,-8.296861941569148,-5.842532731863201,0.09911721251585914,-5.9326781874819785,7.034412536528523,2.180482758342615,2.69909235794594,-5.947448734769567,-8.376424001542542,-3.1388816175250156,-9.124802761428441,-8.633084513421577,-2.3328776588391498,-1.2769751922729857],"bias":[[9.049825620701101,2.0460987710798495,-9.709249944650058,-2.6686578495613955,0.32362879882640483,-6.650773955151535,-4.823441853216072,6.879121726165001,-6.895002743164432,3.291022161616097],[1.2086305947942126,9.186601715280133,2.089901014480172,1.9305830502284356],[3.610241244763374]],"id":0,"number":461}
