{"architecture":{"NEURONS":[10,4,1],"LAYERS":3,"totalSynapses":44},"weights":[-5.492849365565073,-4.862657606430448,-1.5739511209511958,-1.7845797641994186,8.834333341012055,-6.147484578798944,5.062073747123046,-1.86774845078897,-5.699844480515152,1.0846657857495732,4.669304117614435,-0.7551089915636146,-2.6305262604051,-9.75215148844404,1.4696728089043511,6.626041990653173,7.1593728622570225,5.612042661657078,-1.886833142521199,6.863486728560946,8.672381747868185,5.475290776448583,8.604591877147229,4.450313213681494,1.4684269271312007,-4.3620543341959,2.042396548824113,6.088211302625555,-2.7566599105013334,9.333969707035264,-8.432578399947486,-6.014043870722802,0.14719782292135544,-6.730781989305269,6.554316731672749,1.7592791768721368,2.69909235794594,-6.048157322419691,-8.36713134401651,-3.137475258373263,-9.124802761428441,-8.725163899787038,-2.360608492703265,-1.539141363926953],"bias":[[9.288039857838458,2.374129537819047,-9.709249944650058,-2.8771696238445177,0.6232267940295864,-6.650773955151535,-4.823441853216072,6.879121726165001,-6.339779607335754,2.967723321837621],[0.9913706098732159,8.966086405598448,2.089901014480172,1.9305830502284356],[3.8175184892234113]],"id":0,"number":462}
