{"architecture":{"NEURONS":[10,4,1],"LAYERS":3,"totalSynapses":44},"weights":[-4.960953606966775,-4.6894389867802,-0.6174490568192361,-1.8655709921427999,9.0050639130155,-6.147484578798944,5.209425067940744,-1.5739213439374073,-5.673094205403407,0.6304264362545982,4.798947578756852,-0.711581978518661,-2.6654010700180346,-9.755472507544713,1.615432364599199,6.938936487787535,7.060911979654229,5.987987908376168,-2.1826967670973048,6.7227349942673476,8.74418510821928,5.486375122336281,8.479432854647667,4.26939415568234,1.4435331388370718,-4.358933999717422,2.154330424514842,6.088211302625555,-2.7422896518971642,8.93995272057714,-8.123624424275842,-6.242778242382273,0.09400718717313711,-6.6109862433631665,7.200153106273025,1.8645800722397563,2.69909235794594,-6.583116293900992,-8.443412700856925,-3.297726577156016,-9.186830548506485,-8.314568433819813,-2.1567011067722297,-1.1348319945429763],"bias":[[8.969269365006948,3.592818584471015,-7.392679278875985,-2.3519162985425632,0.6797241535217822,-9.056571227828679,-1.0544616256596733,7.033472176575138,-7.41620731165683,-5.7695695829232],[-3.0743810229299795,6.862762216907299,-3.7486631860468727,-1.938596731465669],[4.904988805605372]],"id":0,"number":463}
