{"architecture":{"NEURONS":[10,4,1],"LAYERS":3,"totalSynapses":44},"weights":[-4.631629405546745,-4.862657606430448,-0.6755971670194703,-2.5545101874306826,9.346636447255833,-5.927423631664509,5.20765129219064,-1.4546994077942965,-5.362316617291498,0.7478408557544377,4.409553546133203,-0.899178377132063,-2.632119131966311,-9.75215148844404,1.7395977198825578,6.974114219230897,7.489281637493803,6.165477676205655,-1.886833142521199,6.754401245351941,8.768005545275658,5.075116784605553,8.437713180481147,4.39576869296536,1.4684269271312007,-4.6810619520384416,2.2315542822832666,6.088211302625555,-2.732289725430408,9.333969707035264,-8.296861941569148,-6.071446920819269,0.09911721251585914,-6.382383974783153,7.062160852911958,1.9717875349561966,3.1451084769311275,-6.583116293900992,-9.253347383750647,-3.1388816175250156,-9.124802761428441,-8.315183021878948,-2.6280517118605617,-0.8065157488134588],"bias":[[9.288039857838458,2.0460987710798495,-9.709249944650058,-2.2481248417558843,0.3688365106409889,-6.701072594922265,-4.848386634013585,-9.337246093834729,-6.962597959748102,3.008083906784676],[5.386293160718096,10.245514852253821,2.089901014480172,0.9534953268814156],[3.390640359738526]],"id":0,"number":464}
