{"architecture":{"NEURONS":[10,4,1],"LAYERS":3,"totalSynapses":44},"weights":[-5.261721324728756,-4.605622867461701,-0.6755971670194703,-1.7845797641994186,9.035560858818014,-6.209537186889689,5.062073747123046,-1.6746830680619902,-4.926413762070097,0.7478408557544377,5.040353255195375,-1.0673722825049667,-2.6305262604051,-9.035740032204368,1.4696728089043511,7.147153634333215,7.489281637493803,5.690140839743813,-2.107983554152728,6.863486728560946,8.720364671162905,4.846169367806328,8.604591877147229,4.456277267205519,1.4684269271312007,-4.4113992160468785,1.735412157704638,6.088211302625555,-2.732289725430408,9.36819787877923,-8.296861941569148,-6.071446920819269,-0.18846073834088795,-6.382383974783153,7.062160852911958,1.4976417520904268,2.69909235794594,-6.583116293900992,-9.253347383750647,-2.564675852817331,-9.248858335584528,-8.315183021878948,-2.6280517118605617,-1.539141363926953],"bias":[[9.150740968831855,2.0460987710798495,-9.390074824786394,-4.450490987753584,0.4092503218768004,6.779665393939037,-4.823441853216072,6.879121726165001,-6.767913774255733,3.008083906784676],[1.0681803549283164,10.397107972324529,1.8058657340413768,0.9534953268814156],[3.610241244763374]],"id":0,"number":465}
