{"architecture":{"NEURONS":[10,4,1],"LAYERS":3,"totalSynapses":44},"weights":[-4.402639808874412,-4.6838526057669485,-0.559300946619002,-1.9465622200861812,8.834333341012055,-6.147484578798944,5.282210618597706,-1.491874382132534,-5.552179716252751,0.7478408557544377,4.856071679810738,-0.8380064069791049,-2.725479625866583,-9.41583785660272,1.4696728089043511,7.123469066673351,7.087299286517524,6.423574762354061,-2.2888644275141727,7.029133932547815,8.454861542898565,5.792620879057685,8.521152528814188,4.022908711798433,1.9496064751895579,-4.4113992160468785,2.042396548824113,6.088211302625555,-2.7566599105013334,9.309765965782557,-7.632467784216406,-5.740982302858203,0.1940131895071986,-6.382383974783153,7.35201951782581,1.21791923683349,2.69909235794594,-5.920028376239753,-9.253347383750647,-3.1388816175250156,-9.124802761428441,-8.315183021878948,-2.098794484844896,-0.8065157488134588],"bias":[[9.288039857838458,2.224492153435421,-9.390074824786394,-2.6686578495613955,0.8404925659344858,-6.234609185370944,-5.096785110484069,6.004213043099085,-6.759855007372815,8.228292107804085],[1.0681803549283164,10.397107972324529,2.089901014480172,1.3194950406304515],[3.8175021579839816]],"id":0,"number":466}
