{"architecture":{"NEURONS":[10,4,1],"LAYERS":3,"totalSynapses":44},"weights":[-5.290277808386804,-4.605622867461701,-0.559300946619002,-1.7845797641994186,9.035560858818014,-6.147484578798944,5.1629222672984225,-1.491874382132534,-5.362316617291498,0.7478408557544377,5.040353255195375,-1.1464798410523875,-2.6305262604051,-9.035740032204368,1.4696728089043511,6.8222262565409695,7.489281637493803,6.165477676205655,-2.3382128289437727,6.754401245351941,8.522438028564835,5.013872571645331,8.604591877147229,3.8902705438332785,1.4684269271312007,-4.404065305148144,1.735412157704638,6.088211302625555,-2.732289725430408,9.611581099498265,-8.296861941569148,-5.794250625802117,0.09911721251585914,-6.491190497421064,7.166229474862043,2.180482758342615,2.69909235794594,-7.015271647537638,-9.253347383750647,-3.774261456049016,-9.124802761428441,-8.315183021878948,-2.6280517118605617,-1.539141363926953],"bias":[[9.25619399530061,2.1772198178801148,-9.390074824786394,-2.1097101009648047,0.32362879882640483,-6.650773955151535,-4.955325224387178,6.60104062168408,-6.895002743164432,3.008083906784676],[1.0681803549283164,9.186601715280133,1.8058657340413768,1.7633960117657708],[-2.7511312188662203]],"id":0,"number":467}
