{"architecture":{"NEURONS":[10,4,1],"LAYERS":3,"totalSynapses":44},"weights":[-5.570213335345106,-4.862657606430448,-0.6755971670194703,-1.9465622200861812,8.834333341012055,-6.147484578798944,5.062073747123046,-1.491874382132534,-5.362316617291498,0.33612998165824703,5.040353255195375,-1.2472578475444642,-2.6305262604051,-9.41583785660272,1.6322405219928342,6.974114219230897,7.087299286517524,6.121759910717788,-2.107499045753537,7.029133932547815,8.454861542898565,5.144807277470119,8.604591877147229,4.022908711798433,1.4684269271312007,-4.45449505007951,2.331579851641413,5.95066478705189,-2.8686716503620624,8.760636658608242,-7.632467784216406,-5.740982302858203,0.1940131895071986,-6.382383974783153,7.062160852911958,1.21791923683349,2.697404709438786,-5.920028376239753,-9.329630420746037,-3.1388816175250156,-9.216789078644426,-8.633084513421577,-2.098794484844896,-0.715660891482744],"bias":[[9.200127445295754,2.1828023595874755,-9.25941946854817,-2.0449078301083303,0.7608674130996577,-6.650773955151535,-4.866077460437333,6.765158252443324,-6.565709815125117,8.228292107804085],[1.1446116206497123,10.397107972324529,2.089901014480172,1.3329441805774762],[3.865291516677498]],"id":0,"number":468}
