{"architecture":{"NEURONS":[10,4,1],"LAYERS":3,"totalSynapses":44},"weights":[-5.290277808386804,-4.799573016341655,-0.8454405543879997,-1.7845797641994186,9.076714133211784,-6.152821761794573,5.332313669358801,-1.491874382132534,-5.342988821316148,0.6304264362545982,4.798947578756852,-0.711581978518661,-2.452461794489513,-9.41583785660272,1.6046352643934545,6.974114219230897,7.060911979654229,6.286610731506041,-2.3382128289437727,6.8704212426003215,8.734722787918246,5.013872571645331,8.604591877147229,4.39576869296536,1.4684269271312007,-4.358933999717422,2.2636472425091863,6.088211302625555,-2.732289725430408,9.59508553795986,-8.114988465853143,-5.818638490076261,-0.18846073834088795,-6.501139587407532,7.062160852911958,1.21791923683349,2.690486856640522,-5.920028376239753,-9.253347383750647,-3.1388816175250156,-9.124802761428441,-8.633084513421577,-2.098794484844896,-1.5213803891250748],"bias":[[9.288039857838458,1.8377332936479136,-9.542329774723791,-2.2481248417558843,0.3688365106409889,-6.650773955151535,-4.866077460437333,6.879121726165001,-7.213589364945257,3.0354553928332986],[1.0681803549283164,10.245514852253821,1.9962165598807018,1.3329441805774762],[3.610241244763374]],"id":0,"number":469}
