{"architecture":{"NEURONS":[10,7,1],"LAYERS":3,"totalSynapses":77},"weights":[-7.085775773570469,10.095583970590901,-3.680245119368725,-8.420406179623802,8.697700692803929,6.014990000106325,0.9652125926419205,6.3709460707693415,8.874579734785662,-0.4428575750542565,-0.5986289770954288,-1.5544419191421435,-7.400804931201095,-10.283324662776057,-5.052711191925072,6.338434024264526,6.156809602626214,-4.864741482076082,4.0689163525135035,-10.413147264516965,4.266723970446757,-4.820190423504702,-9.548097490928285,-8.453100613834431,-6.50560707749351,-1.6470698484265553,-10.084904162537683,6.8547097556887895,-3.9831224471992526,2.319220230506613,1.8425816088329352,7.0568410454441866,-12.16233217112197,-5.889978557849302,-8.544830447177421,-0.09626043540262183,-2.650684012606844,-3.9324934224968593,-6.284477173586271,-2.291438444522604,8.90412174900657,4.915956583818385,5.737072458815821,7.616775323540573,-7.978129456515865,-8.250852901572854,10.895771108975566,-6.615651283900075,5.790086119371591,-1.3200896910290993,8.177025586057033,-0.7735911741388936,-1.3810981491547563,3.6989902376524997,5.525605149095015,-4.849990903496929,5.009205185929638,-1.6773751769290317,1.473459067781299,-9.713634450296084,5.710503467999759,6.229935107270954,3.9844730213583808,-3.176791759178138,-0.18332570146794955,-1.930611705260853,-1.8225018183977217,-4.101188042426009,-7.25188165395057,-0.3735895484107633,-1.9119340049517062,-7.791997480390104,6.371577950666801,-5.20481845950578,-1.6101232332633535,-9.139045719739258,-2.869517077333194],"bias":[[-9.121094437497836,2.5196679053975415,1.887690374204358,6.9317389233072735,-2.031507253857716,5.38366629039575,9.981847947857792,0.41196671403424306,1.1287081981852916,1.4678114672894425],[0.627237416017173,-2.4199053371519526,-3.280289725770196,-7.6054845584698425,5.309504043936364,1.669246785564813,-5.443600552837039],[-5.24430407928293]],"id":0,"number":47}
