{"architecture":{"NEURONS":[10,7,1],"LAYERS":3,"totalSynapses":77},"weights":[-3.530012755300278,4.924801957326497,0.5218013745403489,-1.524327188297276,-5.201164058792275,9.821593948851389,5.545854724827492,-0.4923466725728709,1.0280439416453262,-0.5953264945882846,2.3398100789671625,-3.9213185444694107,9.522353362127886,4.840319967268898,-1.9805270534226125,-3.4426747941193727,-8.492284939810641,4.037467854560625,-10.072528313886574,-8.807884738726091,5.87192861485467,-2.450581216658911,-2.645075084323878,5.070633755383524,-0.22362511096023083,-7.040785225135064,0.9160351251855898,3.2250141806850934,-1.760516313381931,3.47736478345246,9.269953373944627,6.467594314181529,4.546504556481529,7.018685554305741,-10.132579340475019,5.198742713800717,4.559960426761668,3.3858193128485583,3.55550698032193,-2.469927258529977,6.645063540633067,-5.285951196049337,-5.805024109397687,2.2185827003095175,-7.028929399561902,3.5678854998734923,-3.0063133384329412,-0.43044596874844343,3.0794536539046513,6.041610048507948,2.4990078699772633,-6.94058752629052,7.8841352432135885,-5.340353239346299,-5.072849722508833,-5.595036238909922,-5.269580728727942,3.1096836360081666,-0.5950875274041205,3.851792433583352,-7.2449511618294,-3.30951506817472,7.237108123910253,-8.908007066316976,-4.3028409531635505,-3.21289280438711,-4.739801542114765,4.0518739291339605,8.002078323557653,-0.6728349348907239,-6.082458468351665,2.787320441752275,1.9543218003879947,-1.7990248165376166,6.2113492266285855,5.438569148175283,-0.45361069380578534],"bias":[[-7.400950508546902,4.686467964513514,-4.663194622018713,5.399915667430265,3.302287076373983,7.638540139307988,8.121500790643896,-6.2915028735380965,6.946772095446667,1.0364896643331576],[-0.6781528996583701,0.6116838457071141,-6.14250210268252,-8.389386545318185,0.4013423537132754,6.026983217811319,7.650396183763313],[-5.2516111859263015]],"id":0,"number":47}
