{"architecture":{"NEURONS":[10,4,1],"LAYERS":3,"totalSynapses":44},"weights":[-4.589454298460107,-5.124075050218017,0.7649566728745936,-1.8790420360856679,9.45806736705668,-4.9108389597726765,5.805696683191329,-1.9076229427351468,-5.345882538531171,0.30204358396165065,4.708270376896566,0.42273350242791174,-2.8314544540747137,-9.702049674102946,0.9194453238809137,8.046776389787762,8.280364041602896,6.834226888980992,-1.6717525935694675,6.635251565963108,8.560772166897392,5.117928792186839,7.617127408506445,3.5722285386199637,2.074729753708842,-4.166012948626667,2.4684404115260463,6.541283591073817,1.0915705882614808,9.132642675571836,-7.887939385975212,-6.231854462400097,0.7583266971319321,-5.473006434673359,6.7937381713384495,0.9370605599696157,3.078595935307911,-6.88343710848498,-8.576430209866862,-7.396738522960781,-9.054148590556599,-8.162757813732867,6.990484139625237,-1.7572773471501193],"bias":[[-8.632014641681497,2.194726609579458,-9.73492784284257,-2.3031215790510653,1.4481782777334329,-5.557402476556414,-9.83565943536265,-8.049098990954645,-5.569148951123373,3.046509775832843],[-6.7672952264587405,6.31210663927828,5.569155811157234,0.6548853468030558],[4.706048662913132]],"id":0,"number":47}
