{"architecture":{"NEURONS":[10,4,1],"LAYERS":3,"totalSynapses":44},"weights":[-4.425110508801119,-4.6894389867802,-0.8454405543879997,-1.9465622200861812,9.500165676411156,-6.209537186889689,5.1629222672984225,-1.5739213439374073,-5.734351219385129,0.6557154426710876,5.040353255195375,-0.8380064069791049,-2.6305262604051,-9.802366429240658,1.7395977198825578,7.123469066673351,7.021668662705054,6.442453030494534,-2.2888644275141727,6.863486728560946,8.80772000068325,5.013872571645331,8.330808755465387,4.354773492817594,1.6508687470917685,-4.300287661727097,2.042396548824113,6.208284224663633,-2.609213450471844,9.59508553795986,-8.123624424275842,-6.242778242382273,0.031381839014013424,-5.9326781874819785,7.062160852911958,1.7592791768721368,2.69909235794594,-5.95636622701645,-8.296188142415646,-3.1388816175250156,-9.674657841783505,-8.342671107222444,-2.33803946003127,-1.5213803891250748],"bias":[[9.272488698562986,2.0460987710798495,-2.0829611617000943,-2.2481248417558843,0.3688365106409889,-6.650773955151535,-5.096785110484069,7.033472176575138,-6.565709815125117,7.977669404259007],[5.558506496919481,9.382635115044035,2.089901014480172,-1.938596731465669],[4.904988805605372]],"id":0,"number":470}
