{"architecture":{"NEURONS":[10,4,1],"LAYERS":3,"totalSynapses":44},"weights":[-5.290277808386804,-4.995480680985147,-0.5721367999025079,-1.6681946569096062,8.954189549755428,-6.520636649286303,5.1629222672984225,-1.491874382132534,-5.362316617291498,0.7478408557544377,4.616439355723658,-0.8899992656184648,-2.641940963073029,-9.497262076194156,1.6046352643934545,6.974114219230897,7.489281637493803,6.121759910717788,-2.3382128289437727,6.863486728560946,8.734722787918246,5.013872571645331,8.604591877147229,4.39576869296536,2.0415338264587137,-4.388136952432386,2.337623307592344,6.088211302625555,-2.920726033658202,9.433629430187624,-7.896622250201145,-6.341232066738522,0.1940131895071986,-6.450782150818546,7.35201951782581,1.3408194347446054,2.4404487318091546,-5.95636622701645,-9.253347383750647,-3.1388816175250156,-9.124802761428441,-8.633084513421577,-2.3328776588391498,-1.6613008770148527],"bias":[[9.049825620701101,2.224492153435421,-2.0829611617000943,-2.6686578495613955,0.32362879882640483,-6.324605552933253,-5.096785110484069,6.879121726165001,-6.737374195051314,3.008083906784676],[1.0681803549283164,10.397107972324529,2.089901014480172,0.9534953268814156],[3.685239232822715]],"id":0,"number":471}
