{"architecture":{"NEURONS":[10,4,1],"LAYERS":3,"totalSynapses":44},"weights":[-4.631629405546745,-4.6838526057669485,-0.5721367999025079,-1.9465622200861812,9.0050639130155,-6.381433066045285,5.008012342229856,-1.491874382132534,-5.406227915785163,0.8317567201299116,4.616439355723658,-0.8380064069791049,-2.6654010700180346,-9.41583785660272,1.6322405219928342,7.026424207647412,7.489281637493803,5.455518604887707,-2.107983554152728,7.029133932547815,8.80772000068325,5.792620879057685,8.636172220414654,4.26939415568234,1.4684269271312007,-4.404065305148144,2.331579851641413,6.088211302625555,-2.2362662195156435,9.222179513188001,-7.632467784216406,-6.103932172282047,0.1940131895071986,-6.450782150818546,7.062160852911958,2.180482758342615,2.8129301891621865,-5.920028376239753,-9.329630420746037,-3.774261456049016,-9.158291656121934,-8.633084513421577,-2.3871707482512576,-1.2279185185427304],"bias":[[9.288039857838458,2.1772198178801148,-2.0829611617000943,-2.2481248417558843,0.3688365106409889,-6.650773955151535,-4.866077460437333,6.765158252443324,-6.565709815125117,3.008083906784676],[5.558506496919481,10.397107972324529,1.8058657340413768,1.9305830502284356],[-2.7511312188662203]],"id":0,"number":472}
