{"architecture":{"NEURONS":[10,4,1],"LAYERS":3,"totalSynapses":44},"weights":[-5.290277808386804,-4.839666643376048,-0.6238669834609891,-1.8517877842365786,8.954189549755428,-6.334060614042624,5.2225664429480645,-1.491874382132534,-5.362316617291498,0.6467238451674815,4.828396305459517,-0.8380064069791049,-2.6536710165455317,-9.631320032226423,1.6046352643934545,6.974114219230897,7.288290462005664,6.513684612026079,-2.1826967670973048,7.029133932547815,8.454861542898565,5.0793399245577255,8.604591877147229,4.39576869296536,1.7549803767949572,-4.4113992160468785,2.154330424514842,6.086905065274939,-2.2362662195156435,8.93995272057714,-7.896622250201145,-6.206339493778895,0.2567430469438117,-6.450782150818546,7.062160852911958,1.7592791768721368,2.569770544877547,-6.583116293900992,-8.85954482552285,-3.1388816175250156,-9.216789078644426,-8.633084513421577,-2.2592252987805628,-1.2279185185427304],"bias":[[-9.599382098050075,2.1772198178801148,-2.6094288601167737,-2.6686578495613955,0.3688365106409889,-6.650773955151535,-4.866077460437333,6.765158252443324,-6.565709815125117,9.541220914919652],[0.9913706098732159,-1.4459298439302941,2.089901014480172,5.356553587779722],[-3.3347236333384362]],"id":0,"number":473}
