{"architecture":{"NEURONS":[10,4,1],"LAYERS":3,"totalSynapses":44},"weights":[-5.290277808386804,-4.995480680985147,-0.5721367999025079,-1.9465622200861812,9.0050639130155,-6.23556936335782,4.7873876725761075,-1.491874382132534,-5.406227915785163,0.7478408557544377,4.616439355723658,-1.0159661427323816,-2.646380780009299,-10.011690098225367,1.615432364599199,6.940492734220636,7.021668662705054,6.423574762354061,-2.107499045753537,6.5483499129995435,8.80772000068325,5.013872571645331,8.604591877147229,4.26939415568234,1.6981734714283692,-4.4113992160468785,2.042396548824113,6.040448323987058,-2.5616896242111684,8.760636658608242,-8.296861941569148,-6.341232066738522,-0.18846073834088795,-6.450782150818546,7.20263826365906,1.7592791768721368,2.8129301891621865,-5.920028376239753,-8.443412700856925,-3.1639601747681376,-9.158291656121934,-8.315183021878948,-2.3871707482512576,-1.2279185185427304],"bias":[[9.288039857838458,2.0839007923596076,-9.709249944650058,-2.2481248417558843,0.7608674130996577,-6.732401180170259,-4.866077460437333,6.225241604219427,-7.213589364945257,7.977669404259007],[1.0681803549283164,10.378744669071342,1.8058657340413768,1.9305830502284356],[3.7399233024666856]],"id":0,"number":474}
