{"architecture":{"NEURONS":[10,4,1],"LAYERS":3,"totalSynapses":44},"weights":[-4.631629405546745,-4.995480680985147,-0.5721367999025079,-1.7845797641994186,9.0050639130155,-6.23556936335782,4.937915211311634,-1.491874382132534,-5.406227915785163,0.8756294369612773,5.040353255195375,-0.9345239892080688,-3.023800278137437,-10.011690098225367,1.615432364599199,6.940492734220636,7.1890107499655995,5.690140839743813,-2.107983554152728,6.863486728560946,8.80772000068325,5.585961387288281,8.277029399169605,4.26939415568234,1.6981734714283692,-4.339575222267788,1.3163178390821941,6.193230063122001,-2.2390564551420975,9.154135319858215,-8.296861941569148,-6.014043870722802,0.030361187470891504,-6.761147455929528,7.20263826365906,1.7592791768721368,2.642497622243514,-6.190299463917955,-8.443412700856925,-3.1639601747681376,-9.28818886215116,-8.315183021878948,-2.3871707482512576,-1.3018107441720483],"bias":[[9.049825620701101,2.0839007923596076,-2.110488586170038,-2.2481248417558843,0.3688365106409889,-7.010204158965916,-5.096785110484069,6.60104062168408,-6.27811600549329,3.008083906784676],[5.558506496919481,10.435875102867268,1.8058657340413768,1.9305830502284356],[3.7399233024666856]],"id":0,"number":475}
