{"architecture":{"NEURONS":[10,4,1],"LAYERS":3,"totalSynapses":44},"weights":[-4.631629405546745,-4.6838526057669485,-0.6238669834609891,-1.9465622200861812,8.78226902113988,-6.147484578798944,5.048113447460366,-1.491874382132534,-5.734351219385129,0.7478408557544377,5.040353255195375,-1.141590862901398,-2.496847095889234,-9.41583785660272,1.6322405219928342,6.974114219230897,7.021668662705054,6.423574762354061,-2.2888644275141727,6.8704212426003215,8.454861542898565,5.144807277470119,8.604591877147229,4.022908711798433,1.4684269271312007,-4.691609234830773,2.154330424514842,6.086905065274939,-2.380526319540365,8.93995272057714,-7.632467784216406,-5.534182962214804,0.1940131895071986,-6.450782150818546,7.062160852911958,1.9151733982727608,2.569770544877547,-6.583116293900992,-8.296188142415646,-3.1388816175250156,-9.186830548506485,-8.199343997367093,-2.2592252987805628,-1.2279185185427304],"bias":[[9.25619399530061,2.0460987710798495,-9.25941946854817,-2.6686578495613955,0.3688365106409889,-6.650773955151535,-4.866077460437333,6.765158252443324,-6.565709815125117,2.7039035026414306],[5.558506496919481,10.397107972324529,1.9962165598807018,1.3329441805774762],[-2.7511312188662203]],"id":0,"number":476}
