{"architecture":{"NEURONS":[10,4,1],"LAYERS":3,"totalSynapses":44},"weights":[-5.290277808386804,-4.6838526057669485,-0.6755971670194703,-1.9465622200861812,8.954189549755428,-6.142232769251903,4.7873876725761075,-1.3300760808715975,-5.60664982320102,0.33612998165824703,4.8594020583190485,-0.711581978518661,-2.6305262604051,-9.76573089352372,1.4696728089043511,6.940492734220636,7.34896841551783,6.442453030494534,-2.3230905836295443,6.5483499129995435,8.80772000068325,5.792620879057685,8.604591877147229,4.278148303626872,1.4684269271312007,-4.388136952432386,2.331579851641413,6.227668754750618,-2.7566599105013334,8.760636658608242,-8.296861941569148,-6.341232066738522,0.030361187470891504,-6.179372996660515,7.039577760804686,1.6681141447931704,2.697404709438786,-5.920028376239753,-9.253347383750647,-3.0908995908103836,-9.124802761428441,-8.633084513421577,-2.4543687545878248,-1.6634275711247246],"bias":[[9.049825620701101,2.0567904445416043,-2.0829611617000943,-2.2481248417558843,0.32362879882640483,-6.732401180170259,-5.096785110484069,6.004213043099085,-6.565709815125117,7.937647349110072],[5.558506496919481,8.846987467587581,1.9962165598807018,1.7235206749956373],[3.8175184892234113]],"id":0,"number":477}
