{"architecture":{"NEURONS":[10,4,1],"LAYERS":3,"totalSynapses":44},"weights":[-5.570213335345106,-4.862657606430448,-0.6238669834609891,-1.8517877842365786,8.890882654972154,-6.334060614042624,5.062073747123046,-1.491874382132534,-5.885827395751534,0.24095319962734912,4.616439355723658,-1.1974962515865204,-2.6536710165455317,-8.80861535998488,1.5198860055722423,7.33718557925384,7.31397707521684,5.612042661657078,-2.1826967670973048,7.029133932547815,8.454861542898565,5.144807277470119,8.604591877147229,4.26939415568234,1.116576443259035,-4.4113992160468785,2.154330424514842,6.208284224663633,-2.732289725430408,8.93995272057714,-7.773112273698458,-5.740982302858203,0.2165706532124117,-6.450782150818546,6.554316731672749,1.7592791768721368,2.69909235794594,-6.583116293900992,-8.85954482552285,-3.1388816175250156,-9.216789078644426,-8.633084513421577,-2.2592252987805628,-1.2279185185427304],"bias":[[-9.599382098050075,2.1772198178801148,-2.663882232463506,-2.324904939264084,0.3688365106409889,-6.650773955151535,-4.866077460437333,6.004213043099085,-6.565709815125117,9.541220914919652],[0.9913706098732159,10.397107972324529,2.089901014480172,1.2288754574681313],[3.8175184892234113]],"id":0,"number":478}
