{"architecture":{"NEURONS":[10,4,1],"LAYERS":3,"totalSynapses":44},"weights":[-5.290277808386804,-4.839666643376048,-0.6238669834609891,-1.9465622200861812,8.954189549755428,-6.381433066045285,5.048113447460366,-1.491874382132534,-5.653237350496632,0.7478408557544377,4.48609383979497,-0.8380064069791049,-2.641940963073029,-9.631320032226423,1.6046352643934545,7.123469066673351,7.259627925040257,6.292434976498414,-2.31769472497802,6.863486728560946,8.80772000068325,4.765024280795556,8.604591877147229,4.26939415568234,1.4684269271312007,-4.388136952432386,2.154330424514842,6.040448323987058,-2.7566599105013334,8.936138585363826,-7.76875592129022,-6.2594840543416055,-0.18846073834088795,-6.3412350439194505,7.35201951782581,2.180482758342615,2.9262914154165776,-5.95636622701645,-8.69601222403975,-3.1388816175250156,-9.216789078644426,-8.633084513421577,-2.2592252987805628,-0.8065157488134588],"bias":[[9.281417415353848,2.0460987710798495,-9.25941946854817,-2.2481248417558843,0.7608674130996577,-6.650773955151535,-5.096785110484069,6.004213043099085,-6.759855007372815,7.977669404259007],[1.0681803549283164,-1.4459298439302941,1.9962165598807018,5.611470271517152],[3.8387325813263558]],"id":0,"number":479}
