{"architecture":{"NEURONS":[10,7,1],"LAYERS":3,"totalSynapses":77},"weights":[-9.136815112010122,12.39036104904884,-2.113456889301325,-6.245125435625028,7.897897813909168,6.561929797050673,1.0884382509980437,5.130852496515189,9.853660205844339,-3.0657624124215874,-2.014727890475285,-3.500169224940021,-7.491199330991219,-8.103129532951263,-7.27957630821584,1.966419567791577,4.651348223996425,-3.165053988243014,0.16182485222031248,-11.071094547615548,6.17372966242858,-3.793618978345625,-8.854689326513348,-7.295837584546494,-5.2090700625402295,-1.6417967432720546,-7.621687204987026,5.744502019962209,-3.653375301885363,0.85599599508029,1.6144888289401003,7.409261304271719,-11.94275569738535,-8.232766724790771,-9.095108158586072,1.0376424494928447,-2.1771951430235066,-3.421554110563463,-4.008264670203697,-4.378487274053445,9.55207446231308,2.580347217527207,6.406666854300324,6.7010440840840415,-9.009759662016807,-8.638158718964599,8.443682918532545,-5.003067784816787,7.317369688963411,-2.3497169938646736,10.293303927282272,-1.3796130479576891,-2.7640133810869973,2.58057887165365,7.295176208650854,-4.968278611753082,7.423553675089368,-0.772975080831234,5.18671517674586,-9.764932688265493,4.5910917663641335,3.6656544413589915,1.9439316228103494,-4.828806640404212,1.3523158736813568,-4.318823312244385,-0.25172529140890976,-3.0047488929863095,-6.815712304947067,-0.06297002732766216,-2.4606496590180122,-6.830484544453439,8.02075938432863,-6.612143674867428,-1.7689396712336278,-6.408567047447027,-4.38217755892069],"bias":[[-9.786305238286623,1.2102323282995664,2.444749286576602,4.925818457547506,-0.9383712528435153,4.2099694250397315,5.0813204435475505,-0.6091645632720454,-1.7615691864834142,-2.6046102116694225],[4.3333027888451685,-2.9898952634895988,-3.9034318374333106,-7.27056115304646,1.6942257248504493,2.551680558941079,-5.671448361568776],[0.23851281021010534]],"id":0,"number":48}
