{"architecture":{"NEURONS":[10,7,1],"LAYERS":3,"totalSynapses":77},"weights":[-3.0965073374540477,2.962185863934756,1.8152838147947685,-2.1699711662325183,-5.34163036964755,9.47442496181529,7.05186112378313,0.8171869925872356,1.1753262761269543,-1.3672974295259406,1.5654229329655447,-3.48155810765937,8.666266571130288,6.792563386739493,-2.7909494687159473,-2.8443723420966016,-6.808049535829391,4.007775317163913,-9.65409910896141,-10.151298279716476,5.824878458815099,-1.3361517838486563,-0.8796739362387452,6.63020367532494,-0.9039492882339978,-7.0761198193795805,0.5372036332891743,5.337689700364992,-0.9883828231031027,4.149089374766176,9.12368358644265,7.273636507817046,4.026773032802469,6.867032780288453,-8.126319733498624,5.111401994741573,4.7554487655210105,4.641492798177319,4.568933386649753,-1.9449316276814885,5.290502250187639,-6.582414718333467,-5.057823771709763,2.343799322812964,-5.671295738450394,3.362204957988721,-2.991009602350344,0.33033658002210947,3.3401173537069853,6.788396273239187,1.8078436520373036,-8.909535680015393,6.608404365457812,-5.596546883281636,-2.8523952739163585,-5.557443914439316,-6.771540629115926,2.150552318228328,-0.14427766025759933,3.6410432826248917,-7.928174198256338,-3.1883059048646385,6.8793147431681065,-8.531960074618391,-4.8041069326200745,-2.9290651822574065,-4.98018631075698,3.9355042105329754,6.726526130848355,-0.533188903600781,-5.6278750330422245,3.660883098960961,1.2184764923569358,-0.6899525564835516,7.42330392943339,5.623575676365205,-0.04896856910760554],"bias":[[-7.1096841976395835,3.5685707576703307,-3.9456062958071403,5.396691868860807,1.6751301482666239,8.91967206785238,9.20701440159739,-6.353392008217469,6.757612561735101,-0.8950823362801015],[-2.109041258714634,0.06973141718998577,-4.4686811390900285,-7.083245658435152,0.9102349134837568,6.133039603723594,6.867218639535985],[-4.585796458042697]],"id":0,"number":48}
