{"architecture":{"NEURONS":[10,4,1],"LAYERS":3,"totalSynapses":44},"weights":[-4.9495115555557385,-4.93585758157405,0.7325795191430835,-1.8790420360856679,9.242724991466536,-4.625485479721743,5.904578874515578,-1.5491024527625863,-8.824941523159307,0.30204358396165065,4.708270376896566,0.5121419699459774,-2.8314544540747137,-9.702049674102946,0.9194453238809137,8.719460780306475,8.290363874888326,6.528545579580549,-1.9065966429782588,6.624785308091434,8.490165300461314,5.268148054171794,7.617127408506445,3.4997182620500027,2.074729753708842,-3.8209450344236635,2.4684404115260463,6.541283591073817,-3.3322049777484386,9.132642675571836,-7.779340784320755,-6.231854462400097,1.2377146039047162,-5.554267822974435,6.7937381713384495,1.3547929723195378,2.4167149428455237,-6.694229412098978,-8.772869227548155,-3.750305328389405,-8.878119672789996,-7.994544679773304,7.007335313160231,-1.6979331078762199],"bias":[[-8.625926697232106,1.901644341169023,-9.73492784284257,-2.3031215790510653,1.4745986666848239,-5.176203419913459,-9.893843100225881,-8.142648522727962,-5.657957924073264,3.0128804271452525],[-6.7672952264587405,6.236178846942641,1.5403513395065875,0.6548853468030558],[4.848595623891643]],"id":0,"number":48}
