{"architecture":{"NEURONS":[10,4,1],"LAYERS":3,"totalSynapses":44},"weights":[-5.043894481235265,-4.6894389867802,-0.6344643582125564,-2.0575966358344204,9.12691266885723,-6.381433066045285,5.2225664429480645,-1.4109752315020656,-5.734351219385129,0.6557154426710876,4.856071679810738,-0.8380064069791049,-2.456645335501925,-9.75215148844404,1.4696728089043511,6.833403293457447,7.489281637493803,6.292434976498414,-2.3382128289437727,6.863486728560946,8.80772000068325,4.5436610689236465,8.604591877147229,4.26939415568234,1.7549803767949572,-4.4113992160468785,2.3378461657723593,6.040448323987058,-2.759785548162668,9.36613862812712,-8.296861941569148,-5.842532731863201,0.2567430469438117,-6.450782150818546,7.43708022889486,1.8469586742536304,2.69909235794594,-5.95636622701645,-9.35113680346727,-2.639068333448392,-8.944179163517799,-8.633084513421577,-2.6053109010779125,-1.2279185185427304],"bias":[[-9.599382098050075,2.1344363827767747,-2.1613991962930097,-2.0511716324117506,0.7608674130996577,-6.650773955151535,-4.866077460437333,6.765158252443324,-6.565709815125117,7.977669404259007],[1.0699181534581181,-1.4459298439302941,2.0329045630544873,1.4941502379861786],[-3.0214996910233647]],"id":0,"number":480}
