{"architecture":{"NEURONS":[10,4,1],"LAYERS":3,"totalSynapses":44},"weights":[-5.290277808386804,-4.960954037953243,-0.6238669834609891,-1.9465622200861812,8.954189549755428,-6.334060614042624,5.855436170558929,-1.491874382132534,-5.362316617291498,0.6557154426710876,4.48609383979497,-0.8380064069791049,-2.608061706890104,-9.636028281903835,1.7395977198825578,7.123469066673351,7.489281637493803,6.513684612026079,-2.31769472497802,6.863486728560946,8.80772000068325,5.013872571645331,8.636172220414654,4.100216786885893,1.4684269271312007,-4.388136952432386,2.154330424514842,6.040448323987058,-2.840371657097312,9.36819787877923,-7.632467784216406,-5.681190131915598,0.09911721251585914,-5.791587531359529,6.840284748716021,1.6581515282330948,2.69909235794594,-5.920028376239753,-9.253347383750647,-3.1388816175250156,-9.216789078644426,-8.633084513421577,-2.3871707482512576,-0.9601168128180222],"bias":[[9.693421569913538,2.0460987710798495,-9.25941946854817,-2.2481248417558843,0.7608674130996577,-6.431026882462944,-5.096785110484069,6.879121726165001,-9.329679959037772,3.008083906784676],[1.0681803549283164,10.6050388220475,1.9962165598807018,1.3194950406304515],[3.8175021579839816]],"id":0,"number":481}
