{"architecture":{"NEURONS":[10,4,1],"LAYERS":3,"totalSynapses":44},"weights":[-4.847248939531088,-4.6894389867802,-0.4370848515767284,-2.0575966358344204,8.834333341012055,-6.147484578798944,5.062073747123046,-1.4109752315020656,-5.734351219385129,0.8317567201299116,5.040353255195375,-0.8380064069791049,-2.646380780009299,-9.984626240819626,1.615432364599199,6.833403293457447,7.087299286517524,6.513684612026079,-2.107983554152728,6.380781177009921,8.749186467272306,5.144807277470119,8.604591877147229,4.26939415568234,1.8350963365745117,-4.4113992160468785,2.4110394103243684,5.95066478705189,-2.732289725430408,8.93995272057714,-8.296861941569148,-6.103932172282047,-0.19133396980494533,-6.450782150818546,7.3766243062168595,1.7592791768721368,2.69909235794594,-5.95636622701645,-9.32262158016199,-3.1388816175250156,-9.124802761428441,-9.000299474524335,-2.5324441330007095,-1.4755924702710732],"bias":[[9.200127445295754,2.0460987710798495,-9.709249944650058,-2.2481248417558843,0.8404925659344858,-6.650773955151535,-4.866077460437333,6.913994477980836,-6.565709815125117,7.977669404259007],[1.1446116206497123,10.199988130557426,1.9962165598807018,1.3041511658615481],[3.725613968301458]],"id":0,"number":482}
