{"architecture":{"NEURONS":[10,4,1],"LAYERS":3,"totalSynapses":44},"weights":[-5.570213335345106,-4.839666643376048,-0.6030833279320035,-2.108950901252723,8.954189549755428,-6.520636649286303,5.264611746798462,-1.3300760808715975,-5.60664982320102,0.7478408557544377,5.040353255195375,-1.0159661427323816,-2.6536710165455317,-9.483053229943287,1.7395977198825578,6.903758756344172,7.489281637493803,5.612042661657078,-2.2888644275141727,6.863486728560946,8.454861542898565,5.013872571645331,8.604591877147229,4.022908711798433,1.5903262988364422,-4.432947133063195,2.3378461657723593,6.193230063122001,-2.7566599105013334,8.93995272057714,-8.296861941569148,-5.681190131915598,0.09911721251585914,-5.791587531359529,7.062160852911958,1.6581515282330948,2.443465060411806,-5.95636622701645,-9.125757229738015,-3.1388816175250156,-9.158291656121934,-8.633084513421577,-2.33803946003127,-0.7625129144322665],"bias":[[9.693421569913538,2.1155997629904744,-9.25941946854817,-2.2481248417558843,0.7608674130996577,-6.650773955151535,-5.096785110484069,6.722581192137459,-6.565709815125117,3.008083906784676],[1.0681803549283164,10.397107972324529,2.089901014480172,1.2288754574681313],[-2.7511312188662203]],"id":0,"number":483}
