{"architecture":{"NEURONS":[10,4,1],"LAYERS":3,"totalSynapses":44},"weights":[-5.290277808386804,-4.6894389867802,-0.5721367999025079,-2.108950901252723,8.834333341012055,-6.334060614042624,5.264611746798462,-1.491874382132534,-5.653237350496632,0.33612998165824703,5.040353255195375,-0.8380064069791049,-2.6305262604051,-9.984626240819626,1.788849317793876,7.058569848190084,7.087299286517524,6.513684612026079,-2.2888644275141727,6.863486728560946,8.749186467272306,5.013872571645331,8.604591877147229,4.022908711798433,1.5903262988364422,-4.4113992160468785,2.3378461657723593,5.95066478705189,-2.5616896242111684,8.93995272057714,-7.942035174481837,-6.341232066738522,0.09911721251585914,-6.450782150818546,7.3766243062168595,1.6581515282330948,2.366012301643109,-5.81331582436468,-9.125757229738015,-2.8443064448802016,-9.158291656121934,-9.000299474524335,-2.185572938721976,-1.4755924702710732],"bias":[[9.049825620701101,2.224492153435421,-9.25941946854817,-2.2481248417558843,0.3688365106409889,-6.431026882462944,-4.882470867444653,-2.2936594434933806,-6.759855007372815,3.008083906784676],[1.1446116206497123,10.397107972324529,1.9962165598807018,1.2288754574681313],[3.610241244763374]],"id":0,"number":484}
