{"architecture":{"NEURONS":[10,4,1],"LAYERS":3,"totalSynapses":44},"weights":[-5.570213335345106,-4.960954037953243,-0.6238669834609891,-2.0575966358344204,8.61999078679543,-6.334060614042624,5.062073747123046,-1.6029747323733334,-5.406227915785163,0.8317567201299116,5.040353255195375,-0.8380064069791049,-2.467017411295675,-9.636028281903835,1.7395977198825578,7.107641648682019,7.021668662705054,6.317765872281856,-2.0474417247366894,6.863486728560946,8.454861542898565,4.954915779132838,8.857270566433996,4.278148303626872,1.8446288603593344,-4.432947133063195,2.154330424514842,5.937058800587332,-2.2362662195156435,8.760636658608242,-8.296861941569148,-5.449376639423126,0.5750858218893098,-6.3412350439194505,6.97295881539664,2.1112680654839053,2.5723300859262843,-5.920028376239753,-8.699033936762794,-3.1388816175250156,-9.114863190949555,-8.633084513421577,-1.922063580422428,-0.6068328160483252],"bias":[[9.049825620701101,2.0460987710798495,-2.383723821773949,-2.3820388358237565,0.7608674130996577,-9.087694065781356,-5.096785110484069,6.722581192137459,-6.565709815125117,7.977669404259007],[1.0681803549283164,10.397107972324529,1.9962165598807018,1.2288754574681313],[-2.7511312188662203]],"id":0,"number":485}
