{"architecture":{"NEURONS":[10,4,1],"LAYERS":3,"totalSynapses":44},"weights":[-5.59925254510111,-4.6894389867802,-0.5721367999025079,-2.116342865268082,8.954189549755428,-6.334060614042624,5.264611746798462,-1.491874382132534,-5.406227915785163,0.8317567201299116,4.616439355723658,-0.8380064069791049,-2.6886638099460307,-9.855489652147313,1.4696728089043511,7.058569848190084,7.388786049749733,6.429567747375807,-2.107983554152728,7.029133932547815,8.454861542898565,4.765024280795556,8.604591877147229,4.454033426108477,1.4684269271312007,-4.432947133063195,2.958234826631033,6.040448323987058,-2.732289725430408,9.309765965782557,-7.632467784216406,-6.341232066738522,0.09911721251585914,-5.791587531359529,7.062160852911958,1.7592791768721368,2.697404709438786,-5.81331582436468,-8.85954482552285,-3.1388816175250156,-9.216789078644426,-8.329702110333129,-2.2592252987805628,-1.1012545764296322],"bias":[[9.049825620701101,2.0460987710798495,-9.17308428920121,-2.6686578495613955,-2.1673048406228634,-6.431026882462944,-4.742716571275937,6.879121726165001,-6.8543287235688,7.977669404259007],[5.558506496919481,10.397107972324529,1.9784951291911836,1.2288754574681313],[3.610241244763374]],"id":0,"number":486}
