{"architecture":{"NEURONS":[10,4,1],"LAYERS":3,"totalSynapses":44},"weights":[-5.290277808386804,-5.027757673100341,-0.5721367999025079,-2.0575966358344204,9.282573036134508,-6.334060614042624,5.264611746798462,-1.491874382132534,-5.406227915785163,0.8317567201299116,5.040353255195375,-0.7492258330083408,-2.831828645708482,-9.41583785660272,1.615432364599199,7.026424207647412,7.440477732607165,6.442453030494534,-2.31769472497802,7.029133932547815,8.80772000068325,5.013872571645331,8.604591877147229,4.278148303626872,1.4684269271312007,-4.388136952432386,2.042396548824113,5.95066478705189,-2.5070620193872544,9.309765965782557,-7.896622250201145,-6.341232066738522,0.09911721251585914,-6.3412350439194505,7.35201951782581,1.7592791768721368,2.569770544877547,-5.81331582436468,-9.253347383750647,-3.296012425052405,-9.158291656121934,-8.633084513421577,-2.098794484844896,-1.1012545764296322],"bias":[[9.049825620701101,2.0460987710798495,-9.17308428920121,-2.2481248417558843,0.8404925659344858,-6.431026882462944,-4.568813146078095,6.879121726165001,-6.759855007372815,7.977669404259007],[1.0681803549283164,10.452539068385414,1.9743025125433493,1.9305830502284356],[3.725613968301458]],"id":0,"number":487}
