{"architecture":{"NEURONS":[10,4,1],"LAYERS":3,"totalSynapses":44},"weights":[-5.113616807709652,-5.027757673100341,-0.6238669834609891,-2.0575966358344204,9.282573036134508,-6.147484578798944,5.855436170558929,-1.3300760808715975,-5.406227915785163,0.8317567201299116,5.040353255195375,-0.8380064069791049,-2.6886638099460307,-9.64822064552417,1.9792649893723138,7.026424207647412,7.440477732607165,6.442453030494534,-2.2888644275141727,6.863486728560946,8.454861542898565,5.144807277470119,8.604591877147229,4.278148303626872,1.4684269271312007,-4.388136952432386,2.958234826631033,6.040448323987058,-2.5070620193872544,8.843261784416445,-7.632467784216406,-6.341232066738522,0.09911721251585914,-6.3412350439194505,6.840284748716021,1.8469586742536304,2.366012301643109,-6.190299463917955,-9.253347383750647,-2.8443064448802016,-9.158291656121934,-8.88038984803828,-2.3863104082200537,-0.8144498928482018],"bias":[[9.049825620701101,2.0460987710798495,-2.4779599859689445,-2.768566161696439,0.8404925659344858,-6.431026882462944,-4.568813146078095,6.765158252443324,-6.759855007372815,7.977669404259007],[1.4051046607062498,10.397107972324529,1.9962165598807018,1.3577397104795286],[-3.3458321653262018]],"id":0,"number":488}
