{"architecture":{"NEURONS":[10,4,1],"LAYERS":3,"totalSynapses":44},"weights":[-5.444765176743957,-4.794397471797599,-0.6238669834609891,-1.983688730527923,8.908398773873767,-6.334060614042624,5.451774809009647,-1.5851068421438939,-5.506438869493092,0.42684691639770816,5.040353255195375,-0.8380064069791049,-2.671167413245781,-9.636028281903835,1.6698809606739458,7.083105748436052,7.464879685050484,6.415725242153968,-2.212839139565374,7.14333264363493,8.80772000068325,4.889448426220444,8.636172220414654,4.361713790895409,1.4826230590473606,-4.399768084239632,2.7363406058273405,5.95066478705189,-2.4590772269404604,9.309765965782557,-8.102436840851205,-6.103932172282047,0.055867777109796166,-6.298206655655456,7.20263826365906,1.8061809244189702,2.6335876271581666,-5.866672100302217,-9.056446104636748,-3.2174470212887103,-9.124802761428441,-8.487877810322011,-2.242982616548077,-0.6969545247825811],"bias":[[1.5960596226225139,-2.6490029819301597,-3.6085061346435587,-8.426530875783635,1.146773479546578,9.293742054189341,5.612837621093869,0.7893706444595256,6.4095017960251575,-2.883280956249605],[2.7579827711120366,3.9662232006925535,2.127192252032401,-7.406428301181784],[5.0701981816235016]],"id":0,"number":489}
