{"architecture":{"NEURONS":[10,7,1],"LAYERS":3,"totalSynapses":77},"weights":[-8.022692951727374,10.035677129431136,-6.21592853273661,-5.664428807374766,8.118482472605603,4.796209078666682,-1.065030730812659,3.3936905104559214,9.385848363459713,-0.18074076191693084,-1.6770691592016949,-1.8114190617422707,-8.87718883824462,-8.655871858919031,-6.264205420493212,3.9679648374991974,3.6078939303966298,-4.195146103009407,1.5659489434979614,-9.50382328863338,0.7141046717209941,-2.5698840973474018,-6.21646477665546,-9.553599420918133,-8.576193016965233,-2.52045007203529,-8.370751469191553,6.8818785080277225,-1.5091507891792004,1.9136293794758072,1.4805685982170815,9.10929566640754,-10.836235766269834,-6.030097089965255,-8.864699458435226,-0.3076148424473293,-0.9179050006903556,-1.1580617251112086,-8.251903348726135,-1.4073107593714513,7.23585055319568,4.12372070493924,4.013637301332408,9.216147183514854,-6.558843890111742,-10.760490555138544,6.8631720070850575,-5.326185643126658,5.133382812241292,1.6211820337450136,7.870914226002901,-1.40879267234374,-2.3771408854806464,3.2454329340982073,3.2660250559413972,-7.005203787261243,6.294156502751926,0.794927611834135,1.992670483401655,-8.513945265300707,2.408408999555916,4.21542258144634,1.8651768320602327,-3.745858395191098,-1.1098599702951715,-3.230669390707205,0.04453145591363383,-1.412445089708533,-6.407584999410781,0.6406871022631753,-2.2611605205159693,-7.455709623662013,8.73189033773543,-9.870896858252028,-1.2647529356637097,-7.122929244511116,-4.310567835699799],"bias":[[-10.489473985341103,0.7767730084017549,3.921621665389952,5.916739850972859,-0.7269226696634047,5.819444757748989,9.301898531756,-0.5200637514898153,-0.7994978185765045,0.6652143535004117],[1.6459587698812232,-2.9413759512887054,-5.362467273137592,-8.286679709443115,2.2558471348231435,4.314937420074834,-5.099916487252888],[-2.6810314980637355]],"id":0,"number":49}
