{"architecture":{"NEURONS":[10,4,1],"LAYERS":3,"totalSynapses":44},"weights":[-4.9495115555557385,-4.93585758157405,0.7325795191430835,-1.8790420360856679,9.45806736705668,-4.9108389597726765,5.904578874515578,-1.9239155696040438,-8.824941523159307,0.06454730759001648,4.708270376896566,0.5121419699459774,-2.2790961851962397,-9.644640316819828,1.1922435199802113,8.046776389787762,8.437159211860575,6.834226888980992,-1.7703188584598635,6.7572627672355345,8.487163752574167,4.577868988064754,7.331563873021117,3.5514170020377795,2.3390227184762664,-3.8209450344236635,2.4963938650676565,6.541283591073817,1.2818566786871664,9.087001319621608,-7.887939385975212,-6.231854462400097,0.6487881360821467,-5.554267822974435,6.7937381713384495,1.5608720931329998,2.281847930320347,-6.88343710848498,-8.772869227548155,-7.396738522960781,-8.635509914266606,-7.994544679773304,-1.236111253626187,-1.7572773471501193],"bias":[[-8.625926697232106,1.901644341169023,-9.638281380756686,-2.1893543124661687,1.6843384551983105,-5.176203419913459,-9.91867120468144,-8.142648522727962,-1.939096282499726,3.046509775832843],[-6.7672952264587405,6.31210663927828,1.5403513395065875,0.6548853468030558],[4.848595623891643]],"id":0,"number":49}
