{"architecture":{"NEURONS":[10,7,1],"LAYERS":3,"totalSynapses":77},"weights":[-4.580224139836215,3.676609432466074,1.3316837499658571,-2.0134273619475698,-6.097662093074177,9.52245401657039,6.818490465813216,1.2811920002830919,2.134290280578181,-1.1195023258295813,1.458201213516555,-3.1677406524108402,8.420645045793664,6.858250839899225,-1.7660753371969764,-3.498395353859771,-6.521078261428534,3.382747637418592,-9.447907766780013,-9.264669768496338,5.948747583923062,-2.728786741152213,-1.9113606975068596,6.33360434207243,-0.9048541619083585,-6.4320016611940805,0.6475437889088268,5.620184360894254,-0.8443021623822311,3.886475565329606,7.708829882321597,7.725148087322577,4.538560068069432,6.37340629095126,-8.294603479458335,4.260166178897419,5.085546714477209,4.642699395358153,4.84548465530232,-2.3538833392549776,5.239671027992708,-5.64156289050763,-5.194271976565088,2.8906291567623286,-6.9575284275393505,4.326099886291933,-3.213352575295896,0.6493570282825846,2.983198397117144,6.466152293019004,1.3064202066425716,-8.656707715463309,6.90889447633714,-4.461269525521714,-2.52165061149443,-4.842707752734857,-7.05986394910154,1.655366504290507,-0.6717586468629428,4.1197463730622355,-7.877877590301129,-3.8628851376493185,7.3687197300294915,-9.063608651910496,-4.658346314270271,-3.3151046295118536,-5.081303206937505,4.067404722792161,6.459493725608455,-0.3685376385250845,-4.873071579526681,5.368575366943752,0.5118386930696441,-1.1061128049318807,7.943052782548445,5.660128131871558,0.1825956461315435],"bias":[[-7.7237377654905215,4.339082770420286,-5.48283737195711,4.719410647456448,0.9357772369122868,9.024309125026411,9.605953019265037,-6.26194267041885,7.241081379698311,-0.13677788934839533],[-0.7813743196367686,0.8132268807704977,-4.487316422579348,-7.055108654497884,0.4954067916722371,6.806065990454184,6.611660787061369],[-4.86560985051584]],"id":0,"number":49}
