{"architecture":{"NEURONS":[10,4,1],"LAYERS":3,"totalSynapses":44},"weights":[-5.290277808386804,-4.6894389867802,-0.6238669834609891,-2.0575966358344204,8.954189549755428,-6.334060614042624,5.855436170558929,-1.491874382132534,-5.60664982320102,0.5175638511371693,4.9869386187918865,-0.8380064069791049,-2.7649424072568585,-9.64822064552417,1.4696728089043511,7.058569848190084,7.440477732607165,6.513684612026079,-2.107983554152728,7.257531354722046,8.457373467044713,4.765024280795556,8.604591877147229,4.278148303626872,1.6508687470917685,-4.432947133063195,2.5144463850236485,5.95066478705189,-2.732289725430408,9.309765965782557,-8.014549925328408,-6.263307477966304,0.012618341703733188,-6.25517826739146,7.20263826365906,1.7592791768721368,2.569770544877547,-5.920028376239753,-9.253347383750647,-3.1388816175250156,-9.158291656121934,-9.000299474524335,-2.3871707482512576,-0.8065157488134588],"bias":[[9.200127445295754,1.9658983362996922,-2.383723821773949,-2.2481248417558843,0.6352880822207033,-6.431026882462944,-4.866077460437333,6.913994477980836,-6.759855007372815,3.111947142003897],[1.0681803549283164,10.397107972324529,3.728316573972883,1.3577397104795286],[3.610241244763374]],"id":0,"number":490}
