{"architecture":{"NEURONS":[10,4,1],"LAYERS":3,"totalSynapses":44},"weights":[-5.290277808386804,-4.6894389867802,-0.6030833279320035,-2.116342865268082,8.862607997992104,-6.334060614042624,5.855436170558929,-1.491874382132534,-5.362316617291498,0.9064259412293157,5.040353255195375,-1.0159661427323816,-2.6536710165455317,-9.636028281903835,1.7395977198825578,7.107641648682019,7.288290462005664,6.317765872281856,-2.2501957460376625,6.990269658782641,8.454861542898565,5.144807277470119,8.604591877147229,4.454033426108477,1.6508687470917685,-4.388136952432386,2.331579851641413,6.422816753581051,-2.2362662195156435,8.760636658608242,-7.632467784216406,-5.681190131915598,0.03813240849788813,-5.791587531359529,7.062160852911958,1.5522046485765124,2.697404709438786,-5.95636622701645,-9.253347383750647,-2.896314045951267,-9.19250224730712,-8.633084513421577,-2.098794484844896,-0.9601168128180222],"bias":[[8.907588439050974,2.1155997629904744,-9.25941946854817,-2.768566161696439,0.705220070342464,-6.431026882462944,-5.069183286552311,6.879121726165001,-6.759855007372815,3.008083906784676],[1.0681803549283164,10.452539068385414,2.309231530051861,1.2288754574681313],[3.8175184892234113]],"id":0,"number":491}
