{"architecture":{"NEURONS":[10,4,1],"LAYERS":3,"totalSynapses":44},"weights":[-5.290277808386804,-4.6894389867802,-0.8950016579906099,-1.8517877842365786,8.663256417414113,-6.147484578798944,5.264611746798462,-1.491874382132534,-5.362316617291498,0.8317567201299116,4.756145998262324,-1.1974962515865204,-2.6305262604051,-9.483053229943287,1.913460990229312,7.107641648682019,7.288290462005664,6.513684612026079,-2.2888644275141727,6.380781177009921,8.80772000068325,4.8493904557600676,8.604591877147229,4.068131918973726,1.6508687470917685,-4.388136952432386,2.958234826631033,6.177775438061404,-2.732289725430408,8.843261784416445,-7.632467784216406,-5.681190131915598,-0.19133396980494533,-6.450782150818546,7.062160852911958,1.4724833319032238,2.569770544877547,-6.010672362113161,-9.253347383750647,-2.896314045951267,-9.064348885219191,-8.633084513421577,-2.3863104082200537,-1.1012545764296322],"bias":[[9.049825620701101,2.224492153435421,-9.17308428920121,-2.768566161696439,0.8404925659344858,-7.0453324070267165,-5.060571299240854,6.765158252443324,-6.759855007372815,3.008083906784676],[1.191636550059293,10.452539068385414,2.089901014480172,1.9305830502284356],[3.601006526176455]],"id":0,"number":492}
