{"architecture":{"NEURONS":[10,4,1],"LAYERS":3,"totalSynapses":44},"weights":[-5.131290762680797,-4.885547565484261,-0.5721367999025079,-2.111577191354633,9.282573036134508,-6.147484578798944,5.062073747123046,-1.5299931158250524,-5.406227915785163,0.8317567201299116,5.17158736481988,-0.7492258330083408,-2.6536710165455317,-9.794831786368682,1.8493838030778742,7.058569848190084,7.021668662705054,6.423574762354061,-2.31769472497802,7.029133932547815,8.454861542898565,5.07224027635993,8.575906951801047,4.278148303626872,1.4684269271312007,-4.388136952432386,2.3131525444824237,6.193230063122001,-2.732289725430408,8.760636658608242,-8.296861941569148,-5.892561152098823,0.09911721251585914,-6.3412350439194505,7.35201951782581,1.9698809676073759,2.4404487318091546,-6.190299463917955,-8.918269829368814,-3.1458697479252153,-9.371143343967088,-8.633084513421577,-2.7596153714503897,-0.8144498928482018],"bias":[[9.45845216375063,2.0460987710798495,-2.0829611617000943,-2.4514623035740355,0.8404925659344858,-6.431026882462944,-4.568813146078095,6.879121726165001,-6.759855007372815,7.977669404259007],[1.1446116206497123,10.397107972324529,3.728316573972883,1.9305830502284356],[-3.3458321653262018]],"id":0,"number":493}
