{"architecture":{"NEURONS":[10,4,1],"LAYERS":3,"totalSynapses":44},"weights":[-4.847248939531088,-4.6894389867802,-0.32398060865148165,-1.8517877842365786,8.862607997992104,-6.147484578798944,5.264611746798462,-1.1889268717018138,-5.60664982320102,0.35325050974525085,4.616439355723658,-0.8380064069791049,-2.6886638099460307,-9.483053229943287,1.7636365595417667,6.916847639177667,7.288290462005664,6.442453030494534,-2.107983554152728,6.380781177009921,8.457373467044713,5.013872571645331,8.604591877147229,4.454033426108477,1.6508687470917685,-4.388136952432386,2.958234826631033,6.040448323987058,-2.185864728450513,8.760636658608242,-8.190323756374003,-5.892561152098823,-0.19133396980494533,-5.791587531359529,7.087030752195747,1.9698809676073759,2.569770544877547,-5.713517594723538,-8.85954482552285,-3.2640850513973714,-9.124802761428441,-8.903791136509843,-2.098794484844896,-1.2292369664849843],"bias":[[9.049825620701101,2.1155997629904744,-2.383723821773949,-2.4514623035740355,0.7608674130996577,-6.431026882462944,-4.742716571275937,6.913994477980836,-6.759855007372815,7.977669404259007],[1.191636550059293,10.452539068385414,2.089901014480172,1.3577397104795286],[-3.3458321653262018]],"id":0,"number":494}
