{"architecture":{"NEURONS":[10,4,1],"LAYERS":3,"totalSynapses":44},"weights":[-5.596863550430374,-4.899355956814999,-0.6238669834609891,-2.0575966358344204,8.862607997992104,-6.022946638890782,4.933726226717734,-1.4202356778398255,-5.60664982320102,0.4059939023160966,5.042764283312917,-0.8380064069791049,-2.6676403210089723,-9.636028281903835,1.615432364599199,7.107641648682019,7.440477732607165,6.705491312937305,-2.31769472497802,6.380781177009921,8.80772000068325,5.013872571645331,8.604591877147229,4.316877721467464,1.2602692672327502,-4.432947133063195,2.154330424514842,5.95066478705189,-2.185864728450513,9.309765965782557,-8.190323756374003,-6.341232066738522,0.15411222242696865,-6.3412350439194505,6.840284748716021,1.8530826719658038,2.600193055732376,-6.010672362113161,-9.015216810906411,-3.1077630845931,-9.124802761428441,-8.342671107222444,-2.3863104082200537,-1.1012545764296322],"bias":[[9.049825620701101,2.0460987710798495,-9.25941946854817,-2.6686578495613955,0.6979919438824447,-6.431026882462944,-5.6499761026464235,6.354992598290153,-6.759855007372815,7.977669404259007],[0.9913706098732159,10.452539068385414,1.9962165598807018,2.291544448327764],[3.8175184892234113]],"id":0,"number":495}
