{"architecture":{"NEURONS":[10,4,1],"LAYERS":3,"totalSynapses":44},"weights":[-5.290277808386804,-4.722327353929361,-0.5721367999025079,-1.8517877842365786,8.97661471226587,-6.334060614042624,5.048113447460366,-1.491874382132534,-5.362316617291498,0.8317567201299116,5.17158736481988,-0.8298995893026009,-2.6886638099460307,-9.636028281903835,1.913460990229312,7.026424207647412,7.440477732607165,6.321880524787306,-2.107983554152728,6.263030413086859,8.277293656968036,5.013872571645331,8.604591877147229,4.454033426108477,1.367920011436615,-4.388136952432386,2.5144463850236485,6.040448323987058,-2.732289725430408,9.309765965782557,-7.632467784216406,-6.341232066738522,0.09911721251585914,-6.3412350439194505,7.20263826365906,1.7592791768721368,2.4404487318091546,-6.010672362113161,-9.377658538068161,-3.2640850513973714,-9.064348885219191,-8.633084513421577,-2.7596153714503897,-0.8144498928482018],"bias":[[9.200127445295754,2.0460987710798495,-1.843783198462714,-2.324904939264084,0.8404925659344858,-6.431026882462944,-5.069183286552311,6.765158252443324,-6.759855007372815,3.008083906784676],[1.1446116206497123,10.355183486037301,2.089901014480172,1.2288754574681313],[3.610241244763374]],"id":0,"number":496}
