{"architecture":{"NEURONS":[10,4,1],"LAYERS":3,"totalSynapses":44},"weights":[-5.290277808386804,-4.6894389867802,-0.8950016579906099,-1.8517877842365786,8.954189549755428,-6.334060614042624,5.048113447460366,-1.491874382132534,-5.60664982320102,0.4059939023160966,5.17158736481988,-1.1974962515865204,-2.6886638099460307,-9.483053229943287,1.913460990229312,7.026424207647412,7.288290462005664,6.321880524787306,-2.31769472497802,6.380781177009921,8.80772000068325,5.144807277470119,8.63368690048511,4.509410335528318,1.314377371002953,-4.4113992160468785,2.3131525444824237,6.295049679845795,-2.732289725430408,9.309765965782557,-7.632467784216406,-6.342159662583272,-0.19133396980494533,-6.3412350439194505,7.20263826365906,1.7592791768721368,2.569770544877547,-5.81331582436468,-9.377658538068161,-3.296012425052405,-9.256294783292113,-8.633084513421577,-2.7596153714503897,-0.8144498928482018],"bias":[[8.875255598664621,2.224492153435421,-1.843783198462714,-2.768566161696439,0.8404925659344858,-7.0453324070267165,-5.060571299240854,6.765158252443324,-6.759855007372815,2.861528039347492],[1.0681803549283164,10.452539068385414,1.9743025125433493,1.9305830502284356],[3.725613968301458]],"id":0,"number":497}
