{"architecture":{"NEURONS":[10,4,1],"LAYERS":3,"totalSynapses":44},"weights":[-4.847248939531088,-4.6894389867802,-0.5721367999025079,-1.8517877842365786,8.862607997992104,-6.147484578798944,5.048113447460366,-1.491874382132534,-5.406227915785163,0.5175638511371693,5.040353255195375,-1.1974962515865204,-2.6536710165455317,-9.636028281903835,1.7636365595417667,7.058569848190084,7.288290462005664,6.423574762354061,-2.107983554152728,7.029133932547815,8.624531565070605,5.07224027635993,8.604591877147229,4.454033426108477,1.4684269271312007,-4.388136952432386,2.958234826631033,5.95066478705189,-2.5070620193872544,8.760636658608242,-8.155705933448779,-6.342159662583272,0.09911721251585914,-6.3412350439194505,7.35201951782581,1.9698809676073759,2.569770544877547,-6.010672362113161,-8.796964869094532,-3.296012425052405,-9.158291656121934,-8.633084513421577,-2.098794484844896,-1.1012545764296322],"bias":[[9.200127445295754,2.0460987710798495,-2.0829611617000943,-2.768566161696439,0.6979919438824447,-6.431026882462944,-5.069183286552311,6.902814236346713,-6.5091827945171,3.008083906784676],[0.949585436629759,10.397107972324529,2.089901014480172,1.9305830502284356],[3.601006526176455]],"id":0,"number":498}
