{"architecture":{"NEURONS":[10,4,1],"LAYERS":3,"totalSynapses":44},"weights":[-5.653095024288393,-4.885547565484261,-0.5721367999025079,-2.0575966358344204,8.954189549755428,-6.334060614042624,5.048113447460366,-1.8401376034161905,-5.362316617291498,0.9437291646356688,5.042764283312917,-0.8380064069791049,-2.6536710165455317,-9.636028281903835,1.8700891124435401,7.058569848190084,7.32684455393359,6.317765872281856,-2.31769472497802,6.380781177009921,8.80772000068325,5.013872571645331,8.604591877147229,4.316877721467464,1.4491318794555321,-4.4113992160468785,3.217100766148399,5.95066478705189,-2.732289725430408,8.760636658608242,-7.632467784216406,-6.103932172282047,0.08120139147046246,-6.610673748878231,7.35201951782581,1.7592791768721368,2.2714292462187817,-5.713517594723538,-9.015216810906411,-3.1559779226995333,-9.19250224730712,-8.633084513421577,-2.7596153714503897,-0.8144498928482018],"bias":[[9.45845216375063,1.9658983362996922,-2.0829611617000943,-2.768566161696439,0.6979919438824447,-6.431026882462944,-5.069183286552311,6.354992598290153,-6.759855007372815,3.111947142003897],[1.1446116206497123,10.397107972324529,3.728316573972883,2.291544448327764],[3.601006526176455]],"id":0,"number":499}
