{"architecture":{"NEURONS":[10,7,1],"LAYERS":3,"totalSynapses":77},"weights":[5.720319224327054,-4.296408195902803,1.4224148532223142,-1.2831290249678895,9.824047896140183,2.7449387919936528,8.911225871231046,4.182619016337904,-8.487164933350737,2.896799181219549,-6.436232447730618,2.0638476325858255,6.997580843875047,-2.891588765894474,6.867804381023904,-9.31644760533437,-2.050958226073633,3.9962122384329164,-0.17319839257234154,0.7625410280719958,0.763886519414033,8.394994814827845,-7.855225656389398,-9.689986765459091,3.2278201509973052,-1.6487781815816764,4.6584524669784315,-3.6331616101659607,-7.318835183799588,11.165918937634805,-4.802994909470873,9.526896946933867,-5.058201058529442,-0.813368429704933,5.52481573486988,-10.074473739846505,-9.867805701108749,8.741196972599024,-6.986315781582075,4.1936242901459115,-1.5241407120085555,4.122256112800097,6.337269930213954,0.5892317099747372,-5.604673584242867,-4.09305859221578,0.5194687091659049,-1.5207157555569986,10.226054722133982,0.7579492530717293,-10.747199739337383,-9.916267864619078,-3.708451027921435,-2.972760764722239,6.059365412245923,6.730890108136179,-6.6020512573772345,6.838324004906323,1.117699343518446,-7.241731121479893,0.3239480055381976,4.083316255362232,-4.35747594069201,-6.622586251175229,7.706228544082598,-0.2877486072334874,2.5704334098536057,-3.0185422298796887,3.647192186833732,-6.36526876909877,-8.724533214004465,-6.05079586917879,3.3022188964540726,-4.381290591388042,-1.9684728374868592,0.31261635831298745,-3.920501484479181],"bias":[[-6.990847464842844,9.570611163277752,-9.446958872721122,-6.190347994472808,4.015744021840158,8.687934027947017,6.246525956482376,3.330341908622791,3.76791536222362,5.983173758918718],[9.344894927747765,-1.9024998416419587,0.09885684809139217,7.1511625428140055,-8.746751268396391,1.0817537126652685,-11.368656698445827],[-7.038824136590082]],"id":0,"number":5}
