{"architecture":{"NEURONS":[10,7,1],"LAYERS":3,"totalSynapses":77},"weights":[5.841203740729912,1.69741942526954,-2.4000164332261087,8.724733232066981,-8.44182450705928,6.862536809743247,-1.5680658889858479,-4.634174435842015,9.430365575977996,0.7292161125615029,-2.2343100147088464,-6.061322239206964,-8.662923658178249,0.9770738483007181,0.5865292873727359,-4.5884747002341895,-6.395059383640276,0.48957734282261,7.272645987030938,-6.203136226592692,6.369542309979966,2.057061671356164,-6.077936402753646,4.343480170926572,6.279029637055284,-2.2865122200701076,6.1511143539239725,-9.606467183069112,5.898807736447833,-2.079846079834114,2.220944896705796,-5.9883240473809805,9.079576972337158,7.1403858463721654,3.922697383034226,0.009290197009224233,9.133558025285586,9.389237822701428,-6.355746359246721,6.549611167474229,-7.3877009512388945,-7.935616963442413,8.933692144094994,3.1033893056870157,-3.782797812629714,2.947116279825716,-4.003154844955164,10.455708716520999,0.17216790923800357,-4.266984176162151,1.652745880755181,6.8194813941138515,-8.094918253516541,0.8258921575386982,6.785914876005156,-6.164789718660135,-5.523525787095766,8.236844981021228,0.06544163565782593,-3.720145896573518,7.836738895839795,1.3773135897698623,8.179949795705129,1.9797934792080945,-4.904449459373076,0.8193262576988207,8.602461551924904,-6.280524726307057,0.70354705112308,-6.114797555311109,7.054095980495676,3.489524707908258,-3.531935901368875,0.9091616983207763,-2.6436332395747297,-5.013364736081465,1.1457206809855889],"bias":[[-8.29015925245659,-3.3919335136307165,-6.72347829660984,-7.547761094792135,0.41781613860682665,-9.233011187083864,-4.4969903325755265,2.133896505922122,-2.5822621930446257,-1.1017358525013818],[5.192266430582355,6.030302257257816,7.691633488806151,-7.903135049284169,4.752537201983377,-6.444097551140178,0.13873284724287968],[-2.3433775809018442]],"id":0,"number":5}
