{"architecture":{"NEURONS":[10,7,1],"LAYERS":3,"totalSynapses":77},"weights":[-4.271491163890931,4.118628685691639,1.7505724911602805,-1.9629511826473436,-5.278729325201099,10.022190512339131,5.880733663056898,-0.3341942561144218,2.1986722174135096,-0.5690999556569314,1.4755149868924324,-3.040083751874169,9.806676895728872,6.88917486154441,-2.5086721019995784,-2.802675351280945,-8.031225948011498,3.1919243977108045,-10.019087767020011,-9.755190339791755,6.203106174363666,-1.8815522636780742,-1.8208877259566265,5.2003902592897076,-0.4474900510440672,-6.614613320471296,1.0089537191572864,3.6234949039695867,-1.2650110343340413,3.433843364088183,9.106980356690542,7.59802684193826,4.621211808307589,6.963244949082552,-8.660823699650896,4.802410082012822,4.355851600461061,4.565753593785583,5.3308988498157195,-2.118217576455742,4.650925468244639,-5.524254695042017,-6.5888692646544325,2.2434537205612166,-6.449463038336368,3.408216951814598,-4.247407870424101,0.14225515384981335,3.221996228696195,5.64148018876822,1.9477438280811743,-8.166765105706192,7.522321471616906,-5.381998314211479,-3.580041936405103,-5.343850373721706,-6.24519092201307,3.5914820761232167,-0.8209462621287332,3.432358567502258,-6.682938549548447,-3.5603623125226376,6.732719951467696,-9.604114408246463,-3.2242582461361553,-2.040500720145532,-5.342457809974285,3.1980111262678754,8.350542609591194,-0.3493548220614799,-6.372581276282941,3.711019708529445,0.9336240984282915,-1.056815550910175,7.418808956889954,5.263601049736373,-1.3253698119631534],"bias":[[-8.112514941146733,4.604923472552237,-5.508154716601185,4.158246028860392,2.8161163976374235,8.014947402973476,8.31904353658775,-6.8733398653383855,7.121218333052632,0.029376246219016244],[-1.7852062656962704,0.42346483833152615,-5.245231108179457,-8.437779535428758,0.41300404077239505,6.567312759594831,7.324230558260589],[-4.762872003985827]],"id":0,"number":5}
