{"architecture":{"NEURONS":[10,3,1],"LAYERS":3,"totalSynapses":33},"weights":[-2.2022878761892426,-6.676130164471324,-1.0529768800097599,-0.4888811368313597,-7.212631820865283,-0.5359661944525473,4.848611478625056,1.8328022333309255,-0.782553103617103,-2.8032718659078264,0.5336299680502954,0.7666371749819596,4.016417833178998,4.139019645505844,-7.060815000956686,0.2695071120276431,-6.9139232073822114,5.230069850734738,3.742374023243143,3.941135013539645,-0.9971955797384391,-8.892133174957966,-4.026943993850759,0.9073745669587876,0.20071575200509714,1.049306149447689,-4.1443867616197725,-3.8209072657744523,1.3431428425847385,-5.644223990570962,-1.4879396294034528,9.010786087117634,-2.4234014326004965],"bias":[[-5.530043475367301,-0.05139525059268557,-7.745557141310499,-1.371181727703372,-0.310926657114622,3.0194463179654205,3.166478157570685,-0.34482646428062413,-3.624047292337009,0.44180456490073733],[-5.057073188560144,0.6592553636429748,-9.994629021368311],[1.1664411142247744]],"id":0,"number":5}
