{"architecture":{"NEURONS":[10,4,1],"LAYERS":3,"totalSynapses":44},"weights":[-4.709186703141688,-4.93585758157405,1.1646097100000672,-1.8790420360856679,9.70118073269667,-4.6300155428823935,5.931832152870299,5.646325787379866,-8.597397172968497,-0.12583541397851916,4.810297080449008,0.42273350242791174,-2.62650791644905,-9.702049674102946,1.1067229965546368,8.057722165120712,7.800875908015513,6.540635934727467,-1.7360023092725463,6.973929502013334,8.608670623143247,4.906528325556119,7.771731066353908,3.5722285386199637,1.9429698242057558,-3.9535316548413917,2.4684404115260463,6.541283591073817,-3.3322049777484386,9.132642675571836,-7.957531040167202,-6.231854462400097,0.8421553878726407,-5.554267822974435,6.884942809124336,1.3192503181469597,3.028076041502512,-6.689976637295818,-8.731664980009548,-3.5877288026739063,-9.096055519004464,-7.735914990535486,-1.2225013299704077,-1.9577276198532125],"bias":[[-8.13366234820025,-2.1094426439824465,-9.638281380756686,-2.309263865858575,1.3311489911721885,-4.981574045472987,-9.91867120468144,-7.910820923819324,-5.595090931022022,2.9387931116759454],[-6.813985708624268,6.319568422239711,1.5403513395065875,0.4842604019720316],[4.636143817749678]],"id":0,"number":5}
