{"architecture":{"NEURONS":[10,7,1],"LAYERS":3,"totalSynapses":77},"weights":[-9.209009953093922,10.753090511171296,-1.6522368123758426,-5.718075444029164,7.558768371208761,6.832943778901459,1.739425981751561,5.4137671329065435,10.554786280249932,-3.216818807129747,-1.7939765127144263,-1.9036495374747184,-8.06558827673707,-8.285539721459411,-6.387817107058799,2.8144888456756636,4.623628414299509,-2.471005099191327,0.8464686891974809,-11.901316132285752,5.176063765204047,-4.51807877349241,-8.719307669754395,-8.24552058353955,-5.948653429500338,-1.00168854990635,-7.709236212572433,5.984494690547418,-4.7579223418946635,2.56934722588652,2.3895679699302628,6.627202869067877,-11.614688097647537,-8.483275590660565,-8.213981468650257,-0.116658647051218,-1.692668861240513,-3.3565599867886378,-3.6379721910858227,-4.163846584772753,9.793057959549172,3.2473864047601912,7.022665754233569,6.430893006382482,-8.340041506424551,-10.279946877147735,8.377115799072705,-4.801182461392571,6.637198702086848,-1.3147467641339095,9.341959600209673,-2.049091593935679,-2.378894727169042,3.5149106344473546,6.686535755125906,-4.236496949678479,6.288535890957512,-0.8524257786223781,6.830213833195115,-9.711462193988824,4.441321160955296,3.3377673261989655,1.3933170617185575,-5.420849004159444,-0.07485629351545989,-2.3459415727880266,-0.21091142394223972,-4.066568085336313,-7.057301488859687,-0.44401803254791544,-3.4636218846908093,-7.701972301409146,7.367787890214993,-7.108165164260287,0.5477217769516165,-6.115848686771731,-4.101464948931878],"bias":[[-9.959129340992048,1.5592454975106647,3.7629410165928823,6.7893120677092265,-0.1695418136999901,4.927112884469894,5.949346250020815,-0.10506089799698137,-1.804465140290704,-2.2917205548353485],[4.9398337577803915,-3.8823964808065465,-2.163573796291468,-6.244930599021511,2.2284714736190607,1.6517413250207353,-5.901028320912848],[-0.6579489222753673]],"id":0,"number":50}
