{"architecture":{"NEURONS":[10,4,1],"LAYERS":3,"totalSynapses":44},"weights":[-4.9495115555557385,-4.93585758157405,1.0621367256607406,-2.152085160645853,9.599961355998795,-4.625485479721743,5.755691409761479,-1.5234051409051907,-5.345882538531171,0.30204358396165065,4.7581693210925575,0.42273350242791174,-2.7246810162825907,-9.702049674102946,0.827019472535787,8.046776389787762,8.10144161546706,6.834226888980992,-1.6717525935694675,6.7572627672355345,8.487163752574167,4.859880910694258,7.617127408506445,3.3371381790950294,2.074729753708842,-4.056943707128086,2.052098534446354,6.541283591073817,-3.6327321102772108,9.147759972027393,-7.868134781650866,-6.231854462400097,0.5584061416705675,-5.424577880399962,6.489151580707829,1.5608720931329998,2.4167149428455237,-6.940517437009398,-8.428444958477932,-7.252084263256594,-8.878119672789996,-7.647113138138995,6.9317897378309485,-1.9467716776567054],"bias":[[-8.625926697232106,1.901644341169023,-9.638281380756686,-2.1893543124661687,1.3226340592766377,-5.360149214721321,-9.91867120468144,-8.303170427244709,-5.632464277070115,2.5673157780440334],[-6.933796645132116,6.319568422239711,1.6758780832489932,0.7711807609742698],[4.475802677395549]],"id":0,"number":50}
