{"architecture":{"NEURONS":[10,7,1],"LAYERS":3,"totalSynapses":77},"weights":[-4.963640138551328,4.2778585066436055,0.7844438750177595,-3.000065201619663,-4.361036201226221,9.638971646558364,5.188632093386096,1.0270944188939313,2.2410616482191803,-0.42465143427982555,1.6782182813365032,-2.4692361922343924,10.089978298641292,6.79515247426936,-1.872397490175247,-2.5302888248725637,-7.023134261761465,3.3472768440199223,-10.028495813658132,-8.755360381187065,5.760830682230509,-1.4643412086491971,-2.3359442391173957,4.953983833620684,-1.0820524683992034,-6.75990698040768,0.3050168022789857,3.736121828928082,-0.6402428234672192,3.0092117321866128,9.667637973245801,7.619789883874806,6.5341896970472035,6.814293355887097,-9.1336447041946,4.889566256891725,4.47574503305536,5.616290577316352,4.877937981054903,-2.2486762702871577,5.214358469626556,-4.774905080600993,-5.400033107653781,1.865839635547749,-6.630563141032151,1.856123915107399,-4.11139909145333,0.8616455343721037,4.221341614407258,5.696069584069246,0.8478399761568784,-7.666240838917682,8.137214285205724,-6.053573646585564,-3.7098225379144796,-4.327144815764459,-7.075918501208226,4.194535480168924,-0.6084051125960762,3.5818742494537847,-6.782225669999484,-3.9772230318336375,7.67415660433167,-8.438734359433083,-3.151780521039972,-2.4764650987374686,-5.772564868178161,3.1487676691740716,7.6618349169968045,-0.8290908387940437,-7.207297988822245,2.0210683405653427,0.696252304573769,-0.5601297516370843,7.635930809353381,5.487798771923605,-2.4547365788770517],"bias":[[-6.942024216408766,4.212021765791006,-6.022083550266469,4.710254623725116,3.8088992205562926,10.666771184943705,9.277301503880881,-5.864378247579378,6.988740937777732,1.1819101934739458],[-0.101768256015765,0.7030215011836471,-6.114680545977636,-8.950062701362086,1.5699735341992545,6.62238230818669,6.483454174666043],[-5.162994773221033]],"id":0,"number":50}
