{"architecture":{"NEURONS":[10,4,1],"LAYERS":3,"totalSynapses":44},"weights":[-5.653095024288393,-4.6894389867802,-0.6238669834609891,-1.40824577166875,8.954189549755428,-6.147484578798944,5.134068154550992,-1.491874382132534,-5.735820381479576,0.8317567201299116,5.040353255195375,-1.1329780984815596,-2.6676403210089723,-9.75215148844404,1.7636365595417667,7.058569848190084,7.489281637493803,6.875687523948805,-2.31769472497802,6.380781177009921,8.624531565070605,5.144807277470119,8.63368690048511,4.454033426108477,1.314377371002953,-4.388136952432386,2.154330424514842,5.301345882404045,-2.732289725430408,9.309765965782557,-7.632467784216406,-6.103932172282047,0.08120139147046246,-6.3412350439194505,7.275601721227601,1.8530826719658038,2.569770544877547,-5.713517594723538,-9.015216810906411,-3.1559779226995333,-9.19250224730712,-8.633084513421577,-2.098794484844896,-0.9601168128180222],"bias":[[9.45845216375063,2.0460987710798495,-2.0829611617000943,-2.324904939264084,0.7608674130996577,-6.431026882462944,-5.069183286552311,6.902814236346713,-6.759855007372815,7.977669404259007],[1.1446116206497123,10.397107972324529,3.728316573972883,1.9305830502284356],[3.601006526176455]],"id":0,"number":500}
