{"architecture":{"NEURONS":[10,4,1],"LAYERS":3,"totalSynapses":44},"weights":[-5.653095024288393,-4.885547565484261,-0.5721367999025079,-1.8584265598031224,8.954189549755428,-6.164101180450143,5.2943019547016625,-1.8401376034161905,-5.362316617291498,0.9437291646356688,5.040353255195375,-0.8380064069791049,-2.6536710165455317,-9.636028281903835,1.8700891124435401,7.058569848190084,7.32684455393359,6.317765872281856,-2.107983554152728,6.380781177009921,8.454861542898565,5.013872571645331,8.604591877147229,4.200198581721038,1.4684269271312007,-4.4113992160468785,2.3131525444824237,5.95066478705189,-2.732289725430408,8.760636658608242,-8.155705933448779,-5.681190131915598,0.08120139147046246,-6.610673748878231,7.12693420566226,1.7592791768721368,2.2714292462187817,-6.010672362113161,-9.015216810906411,-3.1559779226995333,-9.124802761428441,-8.633084513421577,-2.7596153714503897,-1.1012545764296322],"bias":[[9.45845216375063,1.9658983362996922,-2.0829611617000943,-2.768566161696439,0.6979919438824447,-6.431026882462944,-4.742716571275937,6.354992598290153,-6.759855007372815,3.111947142003897],[1.1446116206497123,10.269375820325639,2.007622772954922,2.291544448327764],[3.601006526176455]],"id":0,"number":501}
