{"architecture":{"NEURONS":[10,4,1],"LAYERS":3,"totalSynapses":44},"weights":[-5.149840288767394,-4.6894389867802,-0.8950016579906099,-1.8517877842365786,8.862607997992104,-6.334060614042624,5.048113447460366,-2.1839818873908237,-5.60664982320102,0.9064259412293157,5.17158736481988,-0.8380064069791049,-2.6886638099460307,-9.636028281903835,1.615432364599199,6.918785854109506,7.489281637493803,6.317765872281856,-2.107983554152728,6.863486728560946,8.624531565070605,5.013872571645331,8.636172220414654,4.454033426108477,1.314377371002953,-4.388136952432386,2.154330424514842,6.040448323987058,-2.185864728450513,9.235813069899129,-8.155705933448779,-6.103932172282047,0.09911721251585914,-6.3412350439194505,7.087030752195747,1.8530826719658038,2.2714292462187817,-5.920028376239753,-9.015216810906411,-3.1559779226995333,-9.124802761428441,-8.546383624414679,-2.7596153714503897,-1.1012545764296322],"bias":[[9.17831194020959,2.0460987710798495,-2.0829611617000943,-2.324904939264084,0.7608674130996577,-6.431026882462944,-4.568813146078095,6.765158252443324,-6.75579874569453,3.111947142003897],[1.1446116206497123,10.495426012612612,2.089901014480172,1.2288754574681313],[-3.4163111302230345]],"id":0,"number":502}
