{"architecture":{"NEURONS":[10,4,1],"LAYERS":3,"totalSynapses":44},"weights":[-5.290277808386804,-4.885547565484261,-0.9819443127259352,-2.0575966358344204,8.954189549755428,-6.164101180450143,5.048113447460366,-1.491874382132534,-5.60664982320102,0.7114015252241438,5.030604715494806,-0.8380064069791049,-2.6536710165455317,-9.483053229943287,1.8700891124435401,7.107641648682019,7.32684455393359,6.317765872281856,-2.107983554152728,6.380781177009921,8.80772000068325,5.013872571645331,8.575906951801047,4.316877721467464,1.4491318794555321,-4.4113992160468785,2.3131525444824237,5.95066478705189,-2.380079213915244,8.760636658608242,-7.632467784216406,-5.681190131915598,0.08120139147046246,-6.610673748878231,7.20263826365906,1.7592791768721368,2.4404487318091546,-5.414461084606062,-8.975678359333132,-3.2640850513973714,-9.19250224730712,-8.633084513421577,-2.3863104082200537,-1.6318130647893219],"bias":[[8.830197159198997,2.0460987710798495,-1.843783198462714,-2.149896714470891,0.6979919438824447,-6.431026882462944,-5.060571299240854,6.765158252443324,-6.759855007372815,7.977669404259007],[1.1446116206497123,10.355183486037301,1.9743025125433493,2.291544448327764],[3.601006526176455]],"id":0,"number":503}
