{"architecture":{"NEURONS":[10,4,1],"LAYERS":3,"totalSynapses":44},"weights":[-4.847248939531088,-4.899355956814999,-0.8950016579906099,-1.8517877842365786,8.954189549755428,-6.18530373204091,5.048113447460366,-1.491874382132534,-5.362316617291498,0.8119784270559123,5.17158736481988,-1.1974962515865204,-2.6886638099460307,-9.636028281903835,1.615432364599199,7.058569848190084,7.32684455393359,6.386971615893789,-2.107983554152728,6.263030413086859,8.277293656968036,5.013872571645331,8.63368690048511,4.454033426108477,1.314377371002953,-4.388136952432386,2.3131525444824237,6.040448323987058,-2.732289725430408,9.235813069899129,-8.155705933448779,-5.706932312156102,0.09911721251585914,-6.3412350439194505,7.20263826365906,1.7592791768721368,2.2714292462187817,-5.920028376239753,-9.015216810906411,-3.1077630845931,-9.124802761428441,-8.546383624414679,-2.3863104082200537,-0.887283352833112],"bias":[[9.365494992561244,2.1155997629904744,-2.0829611617000943,1.1751858137392475,1.0116265148849817,-6.170060435796188,-5.060571299240854,6.765158252443324,-6.75579874569453,3.008083906784676],[1.1446116206497123,10.397107972324529,1.6871306334514702,1.9589280693209188],[3.725613968301458]],"id":0,"number":504}
