{"architecture":{"NEURONS":[10,4,1],"LAYERS":3,"totalSynapses":44},"weights":[-5.59925254510111,-4.6397128940874595,-0.5957624391557611,-1.8584265598031224,8.954189549755428,-6.24177903118848,5.048113447460366,-1.491874382132534,-5.735820381479576,0.8119784270559123,5.030604715494806,-1.1974962515865204,-2.4192480019958365,-9.636028281903835,1.913460990229312,7.107641648682019,6.9806075186853205,6.705491312937305,-2.107983554152728,6.482437757264024,8.277293656968036,5.144807277470119,8.63368690048511,4.454033426108477,1.420718919742166,-4.388136952432386,2.3131525444824237,6.434240539969931,-2.185864728450513,9.309765965782557,-8.296861941569148,-5.784952957846665,0.15411222242696865,-6.3412350439194505,6.840284748716021,1.9753411931575091,2.4404487318091546,-5.713517594723538,-9.377658538068161,-2.851069943356446,-9.124802761428441,-8.342671107222444,-2.5968571024228764,-0.8586993552262033],"bias":[[9.281931507412983,2.0460987710798495,-1.843783198462714,-2.768566161696439,0.6767015553089962,-6.366803837559112,-4.980377794656015,6.354992598290153,-6.75579874569453,8.124214440978204],[0.949585436629759,10.555616394496091,3.728316573972883,1.2228199319747544],[3.725613968301458]],"id":0,"number":505}
