{"architecture":{"NEURONS":[10,4,1],"LAYERS":3,"totalSynapses":44},"weights":[-5.224893524256115,-4.61449103679076,-0.6238669834609891,-1.8517877842365786,8.877626001235212,-6.334060614042624,4.864463338151256,-1.491874382132534,-5.60664982320102,0.8013441073511071,5.701299898183152,-1.1974962515865204,-2.6676403210089723,-9.75215148844404,1.8700891124435401,7.058569848190084,7.32684455393359,6.638084206394032,-2.1984239908334504,6.380781177009921,8.80772000068325,5.013872571645331,8.61913938881617,4.454033426108477,1.4491318794555321,-4.4113992160468785,2.3131525444824237,6.47838886829631,-2.732289725430408,9.166680644204977,-7.632467784216406,-5.681190131915598,0.15411222242696865,-6.3412350439194505,7.087030752195747,1.7592791768721368,2.688595368735032,-5.920028376239753,-9.377658538068161,-3.1077630845931,-9.604691803181973,-8.816691993972956,-2.3863104082200537,-0.887283352833112],"bias":[[9.200127445295754,2.1500933477095416,-2.0829611617000943,-2.768566161696439,0.7608674130996577,-6.366803837559112,-5.060571299240854,6.354992598290153,-6.759855007372815,7.977669404259007],[0.949585436629759,10.452539068385414,1.5863026013567876,1.3221793000630875],[3.725613968301458]],"id":0,"number":506}
