{"architecture":{"NEURONS":[10,4,1],"LAYERS":3,"totalSynapses":44},"weights":[-5.149840288767394,-4.899355956814999,-0.552554098818578,-1.8584265598031224,8.877626001235212,-6.2006634904036995,5.048113447460366,-1.491874382132534,-5.60664982320102,0.8317567201299116,5.17158736481988,-0.8380064069791049,-2.947241775437527,-9.694089885173938,1.913460990229312,7.058569848190084,7.288290462005664,6.513684612026079,-2.1984239908334504,6.263030413086859,8.624531565070605,5.013872571645331,8.604591877147229,4.316877721467464,1.6637185228497935,-4.388136952432386,2.4403727604183696,6.295049679845795,-2.658818084188854,8.760636658608242,-7.632467784216406,-5.317558137366934,-0.19133396980494533,-6.3412350439194505,7.087030752195747,1.7592791768721368,2.266946950951012,-5.241921926606189,-8.85954482552285,-3.2640850513973714,-9.604691803181973,-8.342671107222444,-2.5968571024228764,-1.6318130647893219],"bias":[[8.830197159198997,2.0365261680611537,-2.0829611617000943,-2.768566161696439,0.7608674130996577,-7.021808418210694,-4.568813146078095,6.354992598290153,-6.759855007372815,3.008083906784676],[1.38936610226708,10.452539068385414,2.089901014480172,1.2288754574681313],[3.601006526176455]],"id":0,"number":507}
