{"architecture":{"NEURONS":[10,4,1],"LAYERS":3,"totalSynapses":44},"weights":[-5.290277808386804,-4.824710467871418,-0.6238669834609891,-2.1248533393858566,8.692807785496361,-6.334060614042624,5.016007805241085,-1.491874382132534,-5.735820381479576,0.4059939023160966,5.246402520382439,-0.7748932463503584,-2.4192480019958365,-9.909247475610679,1.8700891124435401,7.107641648682019,7.32684455393359,6.161728285025975,-2.1984239908334504,6.263030413086859,8.599046756419455,4.6127596734451854,8.63368690048511,4.569845750712986,1.7316621326697634,-4.388136952432386,2.3909165670133894,6.434240539969931,-2.732289725430408,9.166680644204977,-7.632467784216406,-6.342159662583272,0.15411222242696865,-6.3412350439194505,6.840284748716021,1.9698809676073759,2.231297875381822,-5.768583570550749,-9.377658538068161,-3.4108760582865703,-9.124802761428441,-8.633084513421577,-2.675131100572643,-0.7364704163686776],"bias":[[9.200127445295754,2.0460987710798495,-2.0829611617000943,-2.729432656097881,1.202633408952785,-6.366803837559112,-4.9091843064795855,6.354992598290153,-6.782665951610479,7.977669404259007],[0.949585436629759,10.397107972324529,1.6732847991439026,2.291544448327764],[-3.4163111302230345]],"id":0,"number":508}
