{"architecture":{"NEURONS":[10,4,1],"LAYERS":3,"totalSynapses":44},"weights":[-5.224893524256115,-4.6894389867802,-0.4576943339826561,-1.8584265598031224,8.862607997992104,-6.022946638890782,5.067549707194317,-1.491874382132534,-5.60664982320102,0.8317567201299116,5.5900342688548905,-0.6624709368498822,-2.5539559059709336,-9.483053229943287,1.941728343358554,6.988677851149795,7.019571039369361,6.513684612026079,-2.1984239908334504,6.380781177009921,8.80772000068325,5.083196586049391,8.61913938881617,4.454033426108477,1.4684269271312007,-4.4113992160468785,2.3131525444824237,6.295049679845795,-2.732289725430408,8.824330553106277,-7.632467784216406,-6.341232066738522,0.15411222242696865,-6.3412350439194505,7.087030752195747,1.9753411931575091,2.688595368735032,-5.768583570550749,-9.015216810906411,-3.1077630845931,-9.604691803181973,-8.816691993972956,-2.3863104082200537,-1.1012545764296322],"bias":[[9.45845216375063,2.0460987710798495,-2.177470114927145,1.297094600424001,0.7608674130996577,-7.0453324070267165,-4.742716571275937,6.387347455945138,-6.759855007372815,7.977669404259007],[1.1446116206497123,10.452539068385414,1.5863026013567876,2.291544448327764],[3.397513725664694]],"id":0,"number":509}
