{"architecture":{"NEURONS":[10,7,1],"LAYERS":3,"totalSynapses":77},"weights":[-8.715713943489716,10.624002158467585,-5.304948395015732,-9.137474227191042,7.136098591664442,6.641201306395677,-2.207730795168143,5.090878438321253,7.807927073275192,-1.7824863630643129,-0.25418043408437674,-3.439020075629146,-8.207986636066117,-10.665979221116219,-6.622514116602368,3.2385417760958664,6.108876372439955,-2.4259261376552184,2.0000722473789665,-7.9071477865461715,3.7238965044669503,-3.8909042184477522,-6.042347352692262,-5.3955891357010985,-7.388739350092034,-2.251364447554567,-10.638664415261772,6.416230424834412,-3.9818450895241657,1.1812556825535683,1.1501846045284152,5.740343549542926,-12.096504574771085,-3.044607944267512,-10.474706250154146,-0.5870686871634138,0.8281159766650179,-0.8206856221717083,-4.015939846093569,-3.5447560299135925,7.992029159130344,5.343218439715048,5.008963395524445,6.363937493950136,-7.3345021994458515,-9.384825849468397,8.6598446769038,-5.969499281749931,6.3781475525696365,-0.3404115034309704,6.850021561690414,-3.4804749625664693,-1.3796360021885874,4.114711057282664,6.566447042632929,-6.374396343300761,5.369430197164101,-1.245502194964768,2.523261123827922,-10.329783015059444,5.163691282387651,4.308547208545159,3.661311044261375,-5.032672615875355,2.946222014144145,-1.744310309193267,-1.980327016518233,-5.974386183115621,-8.235893472370146,-1.3203909322251184,-4.111570343963709,-7.040919405735828,7.31334404937187,-8.102385614892928,-0.9827796913706303,-9.297458063947857,-4.367042235555259],"bias":[[-10.154562225449254,4.169444200785881,0.1987067927850638,6.7556745995903995,1.4296603425040075,7.022120254451305,8.099638204575811,-2.1904641078736042,-1.2958929921335285,-0.5822646987050515],[-0.12091808820625297,-1.7777406870623278,-1.6288585808095069,-4.574159159779057,5.631285529391428,2.0811341706666875,-5.8811781162007986],[-1.5266156603389254]],"id":0,"number":51}
