{"architecture":{"NEURONS":[10,4,1],"LAYERS":3,"totalSynapses":44},"weights":[-4.68361360541358,-4.93585758157405,1.0621367256607406,-1.8790420360856679,9.307374951849688,-4.625485479721743,5.720417996395666,-1.9076229427351468,-5.760947585402627,0.30204358396165065,4.639139470053844,0.4421936316442521,-2.8314544540747137,-9.596681578799538,1.1922435199802113,7.941492711974908,7.479892832361097,6.528545579580549,-1.9065966429782588,6.453457326596539,8.337623539966224,4.577868988064754,7.617127408506445,3.5722285386199637,1.7977486421063948,-4.005388511750406,2.4684404115260463,6.541283591073817,-3.3320176249233326,9.344365248002717,-7.868134781650866,-6.231854462400097,0.6487881360821467,-5.8523154181537365,6.757375274791332,1.7106949440760848,3.078595935307911,-6.694229412098978,-8.772869227548155,-7.252084263256594,-9.093106316232712,-8.396305842451078,6.990484139625237,-1.8133625807485914],"bias":[[-8.646579772067101,2.569730412298146,-9.73492784284257,-2.3935441495482417,1.3226340592766377,-5.174492113987571,-9.91867120468144,-8.049098990954645,-1.939096282499726,2.428688466696591],[-6.7672952264587405,6.31210663927828,5.569155811157234,0.9545290421615455],[4.848595623891643]],"id":0,"number":51}
