{"architecture":{"NEURONS":[10,7,1],"LAYERS":3,"totalSynapses":77},"weights":[-4.8773172940980345,3.676609432466074,1.560933875022278,-1.6701618834341314,-6.097662093074177,9.52245401657039,6.65698676223586,1.2811920002830919,2.134290280578181,-1.1195023258295813,1.458201213516555,-3.1677406524108402,8.420645045793664,6.858250839899225,-1.7660753371969764,-3.4403399098358527,-6.786371212032532,3.382747637418592,-9.447907766780013,-9.45311475346079,5.948747583923062,-2.77376348711463,-2.462517947867793,6.33360434207243,-1.0764474655862633,-6.4320016611940805,0.6475437889088268,5.620184360894254,-0.8443021623822311,4.042010761242866,7.591355750391536,7.725148087322577,4.538560068069432,6.37340629095126,-8.289165592707853,4.260166178897419,4.8018642118017265,4.354596001901107,4.84548465530232,-2.5326115659724984,5.1930260802170025,-5.706951850329462,-5.194271976565088,2.8906291567623286,-7.338384064731642,4.326099886291933,-3.213352575295896,0.6020792211445951,2.983198397117144,6.359283275169369,1.5902789949185887,-8.032129428347277,6.90889447633714,-4.274823489886061,-2.52165061149443,-4.842707752734857,-7.05986394910154,1.655366504290507,-0.7829920451654278,4.160383649121714,-7.510016638912101,-3.8628851376493185,7.011223174247537,-9.12584069436009,-4.658346314270271,-3.368890288393217,-5.081303206937505,3.958652887143002,6.459493725608455,-0.3685376385250845,-4.873071579526681,5.2967170533467005,0.5118386930696441,-1.1061128049318807,8.214203111836362,5.647760093338081,0.1825956461315435],"bias":[[-7.650093283338986,4.089579601121395,-5.48283737195711,4.955921374085457,0.9357772369122868,9.029459974535236,9.605953019265037,-6.26194267041885,7.241081379698311,-0.13677788934839533],[-0.4552744171655638,0.6336178030505645,-4.487316422579348,-7.055108654497884,0.4954067916722371,6.806065990454184,6.611660787061369],[-5.025468749317196]],"id":0,"number":51}
