{"architecture":{"NEURONS":[10,4,1],"LAYERS":3,"totalSynapses":44},"weights":[-5.602468358352895,-4.6894389867802,-0.8401270522881004,-1.6949995770382331,8.862607997992104,-6.334060614042624,4.933726226717734,-1.491874382132534,-5.60664982320102,0.9064259412293157,5.040353255195375,-1.1852447312081997,-2.4192480019958365,-9.483053229943287,1.8700891124435401,6.988677851149795,7.489281637493803,6.60888195402985,-2.107983554152728,6.380781177009921,8.624531565070605,5.013872571645331,8.636172220414654,4.454033426108477,1.314377371002953,-4.388136952432386,2.2957482529816855,6.295049679845795,-2.732289725430408,9.166680644204977,-8.155705933448779,-6.103932172282047,0.15411222242696865,-6.3412350439194505,7.087030752195747,1.8530826719658038,2.2714292462187817,-5.414461084606062,-9.065225244306019,-3.1559779226995333,-9.005252689802274,-8.342671107222444,-2.7596153714503897,-0.8144498928482018],"bias":[[8.830197159198997,2.0460987710798495,-2.0425745408614335,-2.324904939264084,0.8404925659344858,-6.170060435796188,-4.568813146078095,6.765158252443324,-6.7539574114001235,3.035021015320704],[1.1446116206497123,10.397107972324529,1.9743025125433493,0.9926649813686498],[3.725613968301458]],"id":0,"number":510}
