{"architecture":{"NEURONS":[10,4,1],"LAYERS":3,"totalSynapses":44},"weights":[-5.596863550430374,-4.824710467871418,-0.6238669834609891,-1.6949995770382331,8.877626001235212,-6.414054954425446,4.933726226717734,-1.491874382132534,-5.735820381479576,0.6863697350019728,5.325715467142659,-1.1974962515865204,-2.4192480019958365,-9.483053229943287,1.615432364599199,6.988677851149795,7.288290462005664,6.161728285025975,-2.31769472497802,6.263030413086859,8.624531565070605,5.013872571645331,8.575906951801047,4.569845750712986,1.7316621326697634,-4.388136952432386,2.3909165670133894,6.295049679845795,-2.732289725430408,9.235813069899129,-8.458026728510372,-6.342159662583272,0.09911721251585914,-5.791587531359529,7.087030752195747,1.9698809676073759,2.2714292462187817,-5.414461084606062,-9.377658538068161,-3.4108760582865703,-9.604691803181973,-8.633084513421577,-2.7596153714503897,-0.7364704163686776],"bias":[[9.200127445295754,2.0460987710798495,-2.0829611617000943,-2.768566161696439,0.8404925659344858,-6.431026882462944,-5.069183286552311,6.354992598290153,-6.75579874569453,3.035021015320704],[0.949585436629759,10.397107972324529,1.6732847991439026,2.291544448327764],[3.725613968301458]],"id":0,"number":511}
