{"architecture":{"NEURONS":[10,4,1],"LAYERS":3,"totalSynapses":44},"weights":[-5.536644643691274,-4.6894389867802,-0.6545604081706402,-1.8584265598031224,9.0570175736439,-6.05047214982841,5.107109552021267,-2.0725737242189695,-5.60664982320102,1.1196557122425137,5.17158736481988,-1.1852447312081997,-2.709111466394757,-9.75215148844404,1.7427607385213695,7.026424207647412,7.288290462005664,6.60888195402985,-2.244406090619058,6.187728786270201,8.624531565070605,5.144807277470119,8.604591877147229,4.316877721467464,1.5943140925705885,-4.388136952432386,2.4403727604183696,5.223880505477698,-2.380079213915244,8.824330553106277,-7.632467784216406,-5.317558137366934,0.27147043511319924,-6.438799392003052,7.087030752195747,1.9708221353888244,2.2714292462187817,-5.414461084606062,-9.065225244306019,-3.2640850513973714,-9.604691803181973,-8.633084513421577,-2.5968571024228764,-0.994268964631372],"bias":[[8.830197159198997,2.0365261680611537,-1.843783198462714,-2.768566161696439,0.7608674130996577,-7.021808418210694,-4.439908942227132,6.398015700094793,-6.759855007372815,10.094871254195507],[1.1179334440644262,10.397107972324529,2.089901014480172,-5.76919541153047],[3.458915159667469]],"id":0,"number":512}
