{"architecture":{"NEURONS":[10,4,1],"LAYERS":3,"totalSynapses":44},"weights":[-5.596863550430374,-5.0070766373376525,-0.5721367999025079,-1.8584265598031224,8.862607997992104,-6.334060614042624,5.106248059424698,-1.491874382132534,-5.60664982320102,0.4059939023160966,5.392597123479044,-1.1439574829786348,-2.864373173642576,-9.75215148844404,1.8700891124435401,7.0784279814503925,7.288290462005664,6.513684612026079,-2.107983554152728,6.263030413086859,8.80772000068325,4.965289410193432,8.636172220414654,4.569845750712986,1.4681823420824442,-4.388136952432386,2.4403727604183696,6.295049679845795,-2.732289725430408,8.947987176908809,-7.632467784216406,-6.342159662583272,0.09911721251585914,-5.791587531359529,7.542012397656334,2.079947993487699,2.2714292462187817,-5.713517594723538,-9.377658538068161,-3.4108760582865703,-9.124802761428441,-8.342671107222444,-2.1711942880762694,-1.1012545764296322],"bias":[[9.200127445295754,2.0460987710798495,-2.0829611617000943,-2.768566161696439,0.8404925659344858,-5.970739419443758,-5.060571299240854,6.354992598290153,-6.75579874569453,2.834448632104961],[0.6921756295944256,10.35424996263644,1.9743025125433493,1.768157483096621],[-2.7511312188662203]],"id":0,"number":513}
