{"architecture":{"NEURONS":[10,4,1],"LAYERS":3,"totalSynapses":44},"weights":[-5.596863550430374,-4.6894389867802,-0.5721367999025079,-1.2071550803038842,8.862607997992104,-6.022946638890782,4.778017072422436,-1.8103031539670202,-5.60664982320102,0.9064259412293157,5.040353255195375,-1.6334416383331625,-2.4192480019958365,-9.794831786368682,1.4696728089043511,6.886298673593121,7.288290462005664,6.429567747375807,-2.31769472497802,6.263030413086859,8.80772000068325,5.013872571645331,8.56733473209667,4.454033426108477,1.308795527451229,-4.295404466030029,2.3514247365930934,5.37404075760116,-2.732289725430408,8.947987176908809,-8.458026728510372,-5.317558137366934,0.15411222242696865,-6.3412350439194505,7.20263826365906,2.0526946307149423,2.546936011839755,-5.5319526972462185,-9.015216810906411,-3.5925762703628648,-9.952882780180982,-8.633084513421577,-2.3863104082200537,-1.6318130647893219],"bias":[[8.873760725477439,2.4449798869489134,-2.237346001503919,-2.5940153968930755,0.7608674130996577,-6.431026882462944,-5.060571299240854,6.354992598290153,-6.759855007372815,2.7290892527666983],[1.1446116206497123,10.399337659743335,1.9743025125433493,2.291544448327764],[3.601006526176455]],"id":0,"number":514}
