{"architecture":{"NEURONS":[10,4,1],"LAYERS":3,"totalSynapses":44},"weights":[-5.596863550430374,-4.6894389867802,-0.5721367999025079,-1.8584265598031224,8.834333341012055,-6.022946638890782,4.778017072422436,-1.491874382132534,-5.9803472819963694,0.9064259412293157,4.734948280479502,-0.9626266146142888,-2.4192480019958365,-9.694089885173938,2.1316449466652285,7.310003318237971,7.288290462005664,6.429567747375807,-2.31769472497802,6.380781177009921,8.80772000068325,5.013872571645331,8.56733473209667,4.454033426108477,2.152919265730409,-4.388136952432386,2.3514247365930934,5.37404075760116,-2.732289725430408,9.309765965782557,-8.458026728510372,-5.706932312156102,0.15411222242696865,-6.3412350439194505,7.20263826365906,2.0526946307149423,2.266946950951012,-5.578149014356251,-9.015216810906411,-3.5925762703628648,-9.405587370740756,-8.633084513421577,-2.3863104082200537,-0.994268964631372],"bias":[[8.873760725477439,2.4449798869489134,-1.843783198462714,-2.5940153968930755,0.7608674130996577,-6.431026882462944,-5.6499761026464235,6.676916733578333,-6.759855007372815,7.977669404259007],[1.1446116206497123,10.24096891332938,1.9743025125433493,1.768157483096621],[3.601006526176455]],"id":0,"number":515}
