{"architecture":{"NEURONS":[10,4,1],"LAYERS":3,"totalSynapses":44},"weights":[-5.596863550430374,-4.560763667327677,-0.5721367999025079,-1.2071550803038842,8.811284284058434,-6.022946638890782,4.778017072422436,-1.491874382132534,-5.60664982320102,0.4059939023160966,4.977137029401134,-1.6334416383331625,-2.2857664926470704,-9.78006524578542,1.9105959174158533,7.107641648682019,7.591161932824858,6.193618793715784,-2.31769472497802,6.380781177009921,8.80772000068325,5.013872571645331,8.575906951801047,3.6653379160206256,1.308795527451229,-4.295404466030029,2.2817371400990267,5.37404075760116,-2.1636742535391136,8.947987176908809,-7.632467784216406,-5.317558137366934,-0.2886185910764371,-6.3412350439194505,7.087030752195747,1.7748753648641835,2.6211766399664738,-5.768583570550749,-9.015216810906411,-2.9684599313367848,-9.952882780180982,-8.633084513421577,-2.3863104082200537,-1.7360808215561419],"bias":[[8.873760725477439,2.0460987710798495,-2.237346001503919,-2.5940153968930755,0.7608674130996577,-6.366803837559112,-5.060571299240854,6.765158252443324,-6.919985720828738,3.008083906784676],[1.1446116206497123,10.409752588023528,1.9743025125433493,1.9305830502284356],[3.601006526176455]],"id":0,"number":516}
