{"architecture":{"NEURONS":[10,4,1],"LAYERS":3,"totalSynapses":44},"weights":[-5.596863550430374,-4.6894389867802,-0.5721367999025079,-1.8584265598031224,8.877626001235212,-6.2006634904036995,5.048113447460366,-1.491874382132534,-5.60664982320102,0.8119784270559123,5.392597123479044,-1.6334416383331625,-2.864373173642576,-9.694089885173938,1.9105959174158533,6.988677851149795,7.32684455393359,6.513684612026079,-2.289828828359028,6.187728786270201,8.80772000068325,4.804005973213619,8.604591877147229,4.478606777932069,1.151396003229432,-4.388136952432386,2.2285698790511304,6.295049679845795,-2.732289725430408,9.166680644204977,-7.632467784216406,-6.473182962750434,0.15411222242696865,-6.3412350439194505,7.322507434774891,1.9698809676073759,2.266946950951012,-5.5319526972462185,-9.377658538068161,-3.4425773822638095,-9.405587370740756,-8.633084513421577,-2.1711942880762694,-0.7364704163686776],"bias":[[9.200127445295754,2.4449798869489134,-2.1908694537751954,-2.768566161696439,0.7608674130996577,-6.366803837559112,-4.742716571275937,6.765158252443324,-6.5042833037089824,2.834448632104961],[0.9913706098732159,10.399337659743335,1.6732847991439026,1.2288754574681313],[3.601006526176455]],"id":0,"number":517}
