{"architecture":{"NEURONS":[10,4,1],"LAYERS":3,"totalSynapses":44},"weights":[-5.149840288767394,-4.6894389867802,-0.6238669834609891,-1.9490442425605035,9.0570175736439,-6.792695303054486,5.048113447460366,-1.8103031539670202,-6.066736810139719,0.8317567201299116,4.977137029401134,-1.1974962515865204,-2.4508871442002174,-9.648396739133299,2.1384595245735634,7.107641648682019,7.32684455393359,6.35863668281566,-2.107983554152728,6.380781177009921,9.09396989832058,4.908939272429475,8.575906951801047,4.593884120750173,1.4260107109927256,-4.4113992160468785,2.3909165670133894,6.295049679845795,-2.185864728450513,9.166680644204977,-8.226283937508963,-6.348100514915562,-0.19133396980494533,-6.3412350439194505,7.377681706428432,1.9698809676073759,2.9550975573670097,-5.920028376239753,-9.065225244306019,-3.390737236576365,-9.952882780180982,-8.633084513421577,-2.3863104082200537,-1.6318130647893219],"bias":[[9.200127445295754,-2.743900433378137,-2.0829611617000943,-2.768566161696439,0.890254893423542,7.674561308740698,-4.439908942227132,6.354992598290153,-6.782665951610479,3.008083906784676],[1.1446116206497123,10.399337659743335,1.9962165598807018,1.2288754574681313],[3.725613968301458]],"id":0,"number":518}
