{"architecture":{"NEURONS":[10,4,1],"LAYERS":3,"totalSynapses":44},"weights":[-5.596863550430374,-4.598623579399067,-0.4742489902126823,-2.0575966358344204,8.811284284058434,-6.451126651165728,5.048113447460366,-1.491874382132534,-5.60664982320102,0.8592021841426141,4.977137029401134,-1.6334416383331625,-2.4508871442002174,-9.483053229943287,1.9105959174158533,7.107641648682019,7.288290462005664,6.60888195402985,-2.244406090619058,6.380781177009921,8.711841832066526,4.992379459659799,8.53843689647414,4.593884120750173,2.152919265730409,-4.388136952432386,2.4403727604183696,6.295049679845795,-2.185864728450513,8.824330553106277,-8.458026728510372,-6.342159662583272,0.09911721251585914,-6.204339998757283,7.377681706428432,2.0526946307149423,2.6211766399664738,-5.920028376239753,-9.015216810906411,-3.4108760582865703,-9.124802761428441,-8.64420704599861,-2.1711942880762694,-0.8144498928482018],"bias":[[8.830197159198997,2.388030012435037,-1.843783198462714,-2.768566161696439,1.202633408952785,-5.970739419443758,-5.060571299240854,6.354992598290153,-6.75579874569453,3.008083906784676],[1.1446116206497123,10.24096891332938,1.9962165598807018,1.2288754574681313],[3.540246058718774]],"id":0,"number":519}
