{"architecture":{"NEURONS":[10,7,1],"LAYERS":3,"totalSynapses":77},"weights":[-9.654462223366233,11.31148122596411,-2.3310503584740068,-5.850048509744839,7.971403752090021,6.887526930886134,1.4559990761235104,5.364209988404369,10.085353221587038,-3.884465659284115,-1.7016630914292894,-1.3546861547800761,-7.964202803877913,-8.037020331968376,-7.016498716097528,3.152410115580859,4.901774156895295,-2.8185987901688994,0.9961610097740685,-11.120286154060969,4.72008834887108,-4.18686219708485,-8.964986186390217,-7.443407027454303,-6.002284907309245,-1.9848042481397363,-9.17023475355187,5.872022098128343,-4.6091264249325725,2.6663016850284844,2.753785665992892,6.8513401869932125,-11.461310243010578,-7.967694959742401,-8.17310000559689,0.030053607012918634,-1.4522179627162897,-2.6547594286377083,-3.0129684029597734,-4.281059726911931,9.283432359696116,2.540788023365409,7.546187733696458,7.016413184246636,-9.060429736854507,-10.187138294810513,7.728736349407181,-4.385243436846853,7.862436482506511,-1.9452127486248243,10.072048131782104,-2.7638951575316,-1.9494451394571923,4.252546502552946,7.281481324852279,-4.4247684053949214,5.758549557717716,-0.8456388558568673,6.864202237960057,-9.97618767928064,4.575306662342456,3.295061406537291,2.4273598887395527,-5.125335141664317,-0.30161669489736104,-2.6999899656656643,0.21591911179173917,-4.838427205992606,-7.328706525507042,-0.6337671055674794,-4.255676473710466,-7.49360113172985,7.765744874386825,-7.2402393869249195,0.5357444928664903,-6.320262812620703,-3.9820017684814806],"bias":[[-9.116942768110382,1.395141508201895,3.4805182463309694,6.702653330732807,-0.9933140436194878,4.962824299480285,5.271978937580808,0.3560984842973024,-2.2292599408314384,-2.507665494484565],[5.474136060067558,-3.9179970415756347,-2.487278799090426,-6.165152984362905,2.273166786903611,0.885349322279184,-5.807725336057177],[-0.02518539406814624]],"id":0,"number":52}
