{"architecture":{"NEURONS":[10,7,1],"LAYERS":3,"totalSynapses":77},"weights":[-4.668137652015784,4.009138363376456,0.5876861454519606,-2.712356295617444,-5.817696145872731,8.569650777573395,6.411746838022038,0.27291804062465835,2.3086000509781286,-0.6010462127510934,1.881574182156893,-2.7784245441782236,10.201335754160796,6.190403167277789,-2.918881868439485,-2.893578786758768,-7.2788847454770895,3.167438443592565,-9.367625232619606,-8.600129661616425,5.520297521559131,-2.005724312307336,-2.0588429923832865,5.380087459264991,-0.753440168278333,-7.051043932379926,0.7492785602315641,3.0327057092443,-1.0130905643905086,3.788733774148332,9.143169946750788,8.334041161451582,5.904095269583411,7.14384170809629,-9.159075454554893,6.026830496205207,3.9085970285182765,5.382715236571291,5.44716419326231,-3.7452419129734063,4.0324245431513885,-4.9394791504778945,-5.706568081303513,1.702900528741497,-6.5616304195121975,1.6991543024765199,-5.362970399487073,0.6676460020169337,4.450063422461957,4.5678263602898515,0.33958790032660546,-7.731900737450678,8.143141487022007,-5.996002518792616,-3.4535419981201283,-4.2903247219363925,-7.185854794111349,3.749956959497067,-1.459543653610712,3.1277115711027754,-6.463637469468217,-4.036781081870184,7.678361584906649,-8.85283455492856,-3.2797115526072114,-1.1706119938410593,-4.944332333371873,3.075325049546863,8.401693523205044,-1.5028888980058854,-7.296653875179431,2.749823114048016,-0.13249035489183328,-0.2566132809568554,7.234980232062736,4.956736914161397,-1.9619165014715862],"bias":[[-7.245472408990439,4.517277283413354,-6.336883060921321,5.245014168968309,3.381204373831127,11.044743485678445,9.684681234718024,-5.752184512618532,6.534414245459919,0.9059469177221904],[0.05392957731074931,0.8627303009706908,-6.143651791641763,-9.262911088405755,1.6069985509605285,7.018953563912541,6.8077773579462315],[-4.902511555696188]],"id":0,"number":52}
