{"architecture":{"NEURONS":[10,4,1],"LAYERS":3,"totalSynapses":44},"weights":[-4.68361360541358,-4.93585758157405,1.0621367256607406,-2.152085160645853,9.450506657705729,-4.625485479721743,5.755691409761479,-1.5234051409051907,-5.345882538531171,0.30204358396165065,4.948066458209601,0.41671673937134196,-2.8314544540747137,-9.697116084549563,1.1922435199802113,7.941492711974908,7.479892832361097,6.528545579580549,-1.7360023092725463,6.624785308091434,8.487163752574167,5.01036781099028,7.617127408506445,3.3371381790950294,2.3390227184762664,-4.3943317206347885,2.4085740609423234,6.535981848964419,-3.3322049777484386,9.147759972027393,-7.868134781650866,-6.231854462400097,0.6487881360821467,-5.341870829514296,6.592897665643293,1.3740122555667102,2.3887674513547386,-6.940517437009398,-8.576430209866862,-7.252084263256594,-9.093106316232712,-7.834790468868234,-1.218896627927061,-1.7468207555686217],"bias":[[-8.625926697232106,2.2953302881300672,-9.73492784284257,-2.3031215790510653,1.3226340592766377,-5.176203419913459,-9.91867120468144,-8.049098990954645,-1.939096282499726,2.428688466696591],[-6.7672952264587405,6.236178846942641,1.5403513395065875,0.9545290421615455],[4.746816018240733]],"id":0,"number":52}
