{"architecture":{"NEURONS":[10,4,1],"LAYERS":3,"totalSynapses":44},"weights":[-5.596863550430374,-4.6894389867802,-0.6545604081706402,-1.8584265598031224,8.877626001235212,-6.239558988272454,5.048113447460366,-1.491874382132534,-5.9803472819963694,0.8317567201299116,4.89824962672885,-0.6332139596272915,-2.4192480019958365,-9.78006524578542,1.9105959174158533,7.024264606553107,7.32684455393359,6.705491312937305,-2.107983554152728,6.220650687548531,8.80772000068325,4.759140130095431,8.63368690048511,4.4156921556370134,1.3590465308595485,-4.388136952432386,2.4403727604183696,6.089592771772079,-2.3067470972575297,8.783706861073975,-8.616881119281814,-5.706932312156102,0.15411222242696865,-6.3412350439194505,7.939767983762643,1.7592791768721368,2.2714292462187817,-5.713517594723538,-9.021146255869708,-3.4108760582865703,-9.998034615818378,-8.70283962579131,-2.66732902350508,-0.942076283846025],"bias":[[9.45845216375063,2.4270872537375237,-2.0829611617000943,-2.4514623035740355,0.8597596781121047,-6.624395555531289,-4.87145941260986,6.354992598290153,-6.75579874569453,2.834448632104961],[1.1446116206497123,10.714128965757101,1.5863026013567876,1.2288754574681313],[3.7365638325708423]],"id":0,"number":520}
