{"architecture":{"NEURONS":[10,4,1],"LAYERS":3,"totalSynapses":44},"weights":[-5.373351919598884,-4.509671512283282,-0.46572665030333876,-1.8584265598031224,8.877626001235212,-6.334060614042624,5.048113447460366,-1.491874382132534,-5.60664982320102,0.8592021841426141,4.977137029401134,-1.4093431847706812,-2.864373173642576,-9.635312067189966,1.9105959174158533,7.048159749915907,7.019571039369361,6.429567747375807,-2.0188025194370214,6.263030413086859,8.624531565070605,4.908939272429475,8.700965300778032,4.316877721467464,1.032608733745296,-4.388136952432386,2.2957482529816855,6.295049679845795,-2.732289725430408,8.760636658608242,-7.686108954755572,-6.090057637453268,0.15411222242696865,-6.3412350439194505,7.710703739744313,2.1190133300860885,3.138764497374384,-5.768583570550749,-9.015216810906411,-3.4108760582865703,-9.405587370740756,-8.70283962579131,-2.7596153714503897,-0.994268964631372],"bias":[[8.830197159198997,1.9658983362996922,-2.237346001503919,-2.5940153968930755,0.7608674130996577,-6.170060435796188,-4.568813146078095,-9.520127075968732,-6.75579874569453,2.7290892527666983],[7.270442140932431,10.355183486037301,1.9962165598807018,2.291544448327764],[3.725613968301458]],"id":0,"number":521}
