{"architecture":{"NEURONS":[10,4,1],"LAYERS":3,"totalSynapses":44},"weights":[-5.860249231507644,-4.571411184970583,-0.5721367999025079,-1.2071550803038842,8.811284284058434,-6.304719468481311,5.048113447460366,-1.7371437584451177,-6.353086626921994,1.1130689540324132,4.89824962672885,-1.4093431847706812,-2.4508871442002174,-9.761865961682599,1.9105959174158533,7.107641648682019,6.960342574776972,6.218431945722309,-2.31769472497802,6.250385497990033,8.624531565070605,4.695849944760542,8.581229324949875,4.4156921556370134,1.308795527451229,-4.6495115037277035,2.315176267705204,5.37404075760116,-2.732289725430408,9.309765965782557,-7.632467784216406,-5.571050993342612,-0.2886185910764371,-6.3412350439194505,7.087030752195747,2.079947993487699,2.4011165987152827,-5.578149014356251,-9.015216810906411,-3.3343660428933592,-9.405587370740756,-8.62141398239603,-2.3863104082200537,-0.994268964631372],"bias":[[9.025779494974143,2.0365261680611537,-2.237346001503919,-9.344204373041666,0.7608674130996577,-6.431026882462944,-4.439908942227132,6.354992598290153,7.21984559391381,7.977669404259007],[0.949585436629759,10.24096891332938,1.9962165598807018,1.4862515861223942],[3.5792924577387075]],"id":0,"number":522}
