{"architecture":{"NEURONS":[10,4,1],"LAYERS":3,"totalSynapses":44},"weights":[-5.3798667248387195,-4.6894389867802,-0.5721367999025079,-1.8584265598031224,8.877626001235212,-6.239558988272454,5.048113447460366,-1.4875663244413613,-6.363797381273182,0.8119784270559123,4.89824962672885,-1.6334416383331625,-2.864373173642576,-9.78006524578542,1.7562592067054381,7.536291887153045,6.960342574776972,6.705491312937305,-2.289828828359028,6.263030413086859,8.624531565070605,4.759140130095431,8.976841562965959,4.316877721467464,1.308795527451229,-4.391755508827671,2.4403727604183696,6.010215115290586,-2.3067470972575297,8.783706861073975,-8.226283937508963,-6.184634202217363,0.380138085676088,-6.437085081143097,7.542012397656334,1.9698809676073759,2.1685004975604447,-5.578149014356251,-9.021146255869708,-3.4108760582865703,-9.412472918855956,-8.70283962579131,-2.66732902350508,-1.223131478818762],"bias":[[9.45845216375063,2.0365261680611537,-1.843783198462714,-2.768566161696439,0.8597596781121047,-6.170060435796188,-4.439908942227132,6.676916733578333,-6.75579874569453,2.834448632104961],[1.1446116206497123,10.399337659743335,1.5863026013567876,1.2288754574681313],[3.725613968301458]],"id":0,"number":523}
