{"architecture":{"NEURONS":[10,4,1],"LAYERS":3,"totalSynapses":44},"weights":[-5.596863550430374,-4.674364858590342,-0.46572665030333876,-1.8584265598031224,9.10747847372678,-6.239558988272454,5.048113447460366,-1.491874382132534,-5.60664982320102,0.8592021841426141,5.407704203396618,-1.6334416383331625,-2.4508871442002174,-9.694089885173938,1.9105959174158533,7.2411044332902454,7.591161932824858,6.60888195402985,-2.107983554152728,6.263030413086859,9.09396989832058,4.804005973213619,8.63368690048511,4.4156921556370134,1.314377371002953,-4.4113992160468785,2.3234848325846875,5.37404075760116,-2.185864728450513,8.783706861073975,-8.458026728510372,-6.342159662583272,0.15411222242696865,-6.3412350439194505,7.542012397656334,1.7592791768721368,2.2714292462187817,-5.768583570550749,-9.021146255869708,-3.4108760582865703,-9.952882780180982,-8.633084513421577,-2.4189562811431795,-0.942076283846025],"bias":[[8.775024784954182,2.0460987710798495,-1.843783198462714,-2.4514623035740355,1.202633408952785,-6.170060435796188,-4.228405673738579,6.676916733578333,-6.75579874569453,2.7290892527666983],[1.1446116206497123,10.24096891332938,1.7308971034690628,1.768157483096621],[3.725613968301458]],"id":0,"number":524}
