{"architecture":{"NEURONS":[10,4,1],"LAYERS":3,"totalSynapses":44},"weights":[-5.596863550430374,-4.6894389867802,-0.6545604081706402,-1.8584265598031224,9.10747847372678,-6.463944995592623,4.81951736219771,-1.491874382132534,-6.066736810139719,0.8119784270559123,4.977137029401134,-1.1439574829786348,-2.864373173642576,-10.050680774313243,1.9105959174158533,7.107641648682019,7.32684455393359,6.705491312937305,-2.263609139670877,6.263030413086859,8.80772000068325,5.013872571645331,8.636172220414654,4.316877721467464,1.2251158111654834,-4.388136952432386,2.2395129104834153,6.511959747348744,-2.3067470972575297,9.309765965782557,-8.616881119281814,-6.473182962750434,0.09911721251585914,-6.532935118366744,7.542012397656334,1.7748753648641835,2.2714292462187817,-5.578149014356251,-9.155491322069656,-3.4108760582865703,-9.124802761428441,-8.633084513421577,-2.3863104082200537,-0.7364704163686776],"bias":[[9.45845216375063,2.4270872537375237,-1.843783198462714,-2.768566161696439,1.202633408952785,-6.781245462976696,-4.87145941260986,6.354992598290153,-6.5042833037089824,2.834448632104961],[1.1446116206497123,10.399337659743335,1.5863026013567876,1.768157483096621],[3.789558572988292]],"id":0,"number":525}
