{"architecture":{"NEURONS":[10,4,1],"LAYERS":3,"totalSynapses":44},"weights":[-5.596863550430374,-4.6894389867802,-0.46572665030333876,-1.8584265598031224,8.877626001235212,-6.2006634904036995,5.048113447460366,-1.491874382132534,-5.60664982320102,0.8119784270559123,4.977137029401134,-1.6334416383331625,-2.4508871442002174,-9.75215148844404,1.9105959174158533,7.310003318237971,6.960342574776972,6.705491312937305,-2.263609139670877,6.380781177009921,8.624531565070605,4.759140130095431,8.63368690048511,4.316877721467464,1.314377371002953,-4.388136952432386,2.4403727604183696,5.505176039007947,-2.1636742535391136,8.892097720403402,-8.616881119281814,-6.473182962750434,0.09911721251585914,-6.3412350439194505,7.939767983762643,1.7748753648641835,2.546936011839755,-5.578149014356251,-9.155491322069656,-3.4108760582865703,-9.998034615818378,-8.633084513421577,-2.3863104082200537,-0.7364704163686776],"bias":[[9.200127445295754,2.0460987710798495,-1.843783198462714,-2.4514623035740355,1.202633408952785,-7.802092254887891,-5.060571299240854,6.354992598290153,-6.5042833037089824,2.834448632104961],[1.1446116206497123,10.24096891332938,1.5863026013567876,1.768157483096621],[3.9281067998344255]],"id":0,"number":526}
