{"architecture":{"NEURONS":[10,4,1],"LAYERS":3,"totalSynapses":44},"weights":[-5.827585941939566,-4.918786445148517,-0.46572665030333876,-1.2071550803038842,8.811284284058434,-6.393209227572283,4.933271945802327,-1.8103031539670202,-5.825131811483577,0.8592021841426141,4.977137029401134,-1.6334416383331625,-2.4508871442002174,-9.75215148844404,1.9105959174158533,7.310003318237971,7.274807359614831,6.597205398170383,-2.31769472497802,6.263030413086859,8.624531565070605,4.908939272429475,8.63368690048511,4.4156921556370134,1.308795527451229,-4.300082891926732,2.2957482529816855,6.295049679845795,-2.732289725430408,8.824330553106277,-7.632467784216406,-6.055877879412371,0.380138085676088,-6.165498627607596,7.377681706428432,1.7592791768721368,2.1685004975604447,-5.5319526972462185,-9.01847528213824,-3.1830897398760714,-9.124802761428441,-8.877809199296054,-2.3863104082200537,-0.942076283846025],"bias":[[8.775024784954182,2.4270872537375237,-1.843783198462714,-2.9738446966634515,0.7608674130996577,-6.624395555531289,-4.439908942227132,6.354992598290153,-6.75579874569453,2.834448632104961],[1.1446116206497123,10.35424996263644,1.9962165598807018,1.2288754574681313],[3.7365638325708423]],"id":0,"number":527}
