{"architecture":{"NEURONS":[10,4,1],"LAYERS":3,"totalSynapses":44},"weights":[-5.596863550430374,-4.918786445148517,-0.46572665030333876,-1.8584265598031224,8.877626001235212,-6.393209227572283,5.16684170701032,-1.8103031539670202,-5.825131811483577,0.8592021841426141,4.603234478296122,-1.6334416383331625,-2.4508871442002174,-9.78006524578542,1.9105959174158533,7.107641648682019,7.274807359614831,6.291607115619128,-2.31769472497802,6.263030413086859,8.80772000068325,5.285493436809643,8.63368690048511,4.503089737986826,1.3590465308595485,-4.300082891926732,2.8416222609109445,6.295049679845795,-2.732289725430408,8.760636658608242,-7.632467784216406,-6.055877879412371,-0.2886185910764371,-6.3412350439194505,7.542012397656334,1.7592791768721368,2.546936011839755,-5.3431686313801885,-9.021146255869708,-3.4108760582865703,-9.124802761428441,-8.633084513421577,-2.3863104082200537,-0.994268964631372],"bias":[[9.45845216375063,2.3575962393175516,-2.6641230428842633,-2.9738446966634515,0.9434711729653396,-6.170060435796188,-4.568813146078095,6.676916733578333,5.311865000421397,2.834448632104961],[1.1446116206497123,10.714128965757101,1.7308971034690628,2.291544448327764],[3.7365638325708423]],"id":0,"number":528}
