{"architecture":{"NEURONS":[10,4,1],"LAYERS":3,"totalSynapses":44},"weights":[-5.596863550430374,-4.918786445148517,-0.5721367999025079,-1.9040610287581536,8.862607997992104,-6.393209227572283,5.107109552021267,-1.8103031539670202,-5.825131811483577,1.1196557122425137,4.603234478296122,-1.0560126519382627,-2.4508871442002174,-9.483053229943287,2.1316449466652285,7.310003318237971,7.274807359614831,6.291607115619128,-2.107983554152728,6.263030413086859,8.624531565070605,4.908939272429475,8.56733473209667,4.503089737986826,1.308795527451229,-4.300082891926732,2.4403727604183696,6.295049679845795,-2.732289725430408,9.50976923241883,-7.632467784216406,-6.231437835617757,-0.2886185910764371,-6.114500855900252,7.542012397656334,1.8019889478027225,2.572037972238798,-5.3431686313801885,-9.021146255869708,-3.1830897398760714,-9.124802761428441,-8.877809199296054,-2.3863104082200537,-1.4283517139466286],"bias":[[9.45845216375063,1.970565811759251,-1.843783198462714,-2.9738446966634515,1.202633408952785,-6.6086898369564455,-4.568813146078095,6.354992598290153,-6.75579874569453,2.834448632104961],[0.9085024476267975,10.35424996263644,1.9184850796661974,1.2288754574681313],[3.725613968301458]],"id":0,"number":529}
