{"architecture":{"NEURONS":[10,7,1],"LAYERS":3,"totalSynapses":77},"weights":[-11.288874803179555,11.491445916483157,-5.7036725897552865,-9.276581071009037,4.532195474206568,7.3592561876229174,0.16889912176083158,3.290256839380002,8.872744547441696,2.2768352523024458,-3.0910975246508814,0.07343369531860122,-6.846513748674136,-8.042681985532171,-5.449047843307135,1.9114914195291428,5.757564083027436,-3.981996226457414,0.8010434910489652,-9.172957163460916,4.15424061670699,-4.407995552603374,-8.469220157290195,-10.395102403209961,-9.696607025583925,0.10207678936573084,-9.780016546357801,4.469301656783664,-2.893652919363454,-0.06966041315361762,-0.6787861090849889,6.574464522849096,-8.79365865971581,-4.476740309997584,-10.445496962476685,-0.25807253416778597,-0.1695714599520033,-1.1995405021835364,-5.246606998916196,-1.4097954573700848,9.040838836955363,3.558044062181807,5.129592797827782,12.417739532491424,-7.19979165613012,-10.016309517075353,8.323660378646741,-5.811726697957415,4.034886152253302,1.9674546603694059,8.1243394074551,-3.5527647247513983,-2.01296162647857,3.962104529899602,4.79420161403862,-6.108059721210599,9.705565425922185,1.404732338229153,4.266590737873568,-10.23572619472448,2.4782142441561237,3.9881569770086056,2.597943533925766,-1.5140512972048865,-0.3020170695879427,-2.5919776504301906,-0.3467607393868359,-1.4378724096098532,-5.471235999969963,1.071464165077911,-3.600520959832048,-7.517806029347795,6.487658347822283,-8.826594354754091,-2.687584327255909,-7.1065954023956275,-3.0077571722813454],"bias":[[-7.414106639652764,2.570837427555586,3.4199968963441725,5.668342688123687,-1.4661260425632519,5.55419852901374,9.702588807648368,-1.1622472330971985,0.4643360017031516,0.7285640490596363],[-1.109139135908026,-4.028556184534302,-2.9842377861792087,-8.656779078577884,3.1966516214733054,4.063964755585492,-6.918555010081295],[-2.3681823103655892]],"id":0,"number":53}
