{"architecture":{"NEURONS":[10,7,1],"LAYERS":3,"totalSynapses":77},"weights":[-4.89091603649174,3.9831143538066587,0.8241295753118627,-2.4494283907677907,-6.914111666793732,9.749324871643326,5.969119933534399,0.4933273743755035,2.948936008467037,-0.6669532108857031,2.198237679621638,-3.8674260453330604,7.638377193562556,6.65553339422983,-1.6039474287079498,-2.068035102426234,-5.80195737288676,3.5433920635524703,-11.158883101023841,-9.735433790514112,6.030081141374123,-1.45169763561689,-3.66104775189756,4.88820164376907,-1.027327619476046,-6.99921904637347,0.2590068034331842,4.733596302739078,0.021428151992263278,3.5939354085933473,8.644785026479477,6.908123180441601,5.417558800103316,6.9612748307000825,-7.748066921193301,4.81626302691592,3.5173414676009203,5.8174241255149965,6.360178566642353,-3.6475848378534566,4.738453562280474,-4.440075354332478,-5.986731398790375,1.1137476321095638,-6.231705029465964,3.2542778992660106,-3.7558518925478546,-0.4259413334811663,4.982531497313395,5.5741946344686655,1.5954857550158381,-7.013257199835671,7.877371445465015,-5.650703746785529,-3.008985466404915,-5.828714381705661,-6.094282736229859,3.7157208637538344,-1.5138235388792225,3.4404544993250497,-7.587602110274988,-2.826858811514215,7.53332042007785,-9.591236730998117,-3.7186133638341246,-2.0143315434956452,-4.9346177763864265,3.013483061664817,7.8944864451707435,-0.010753253565935483,-4.708169577353514,4.590701450024409,0.6989273182942013,0.3622664572808597,7.144193689022559,5.3876324994673075,-1.1406062782614752],"bias":[[-9.531897415322211,4.149635836464539,-5.312671700252407,5.164429241414034,3.5409297886282602,9.234803779751031,7.3832163459112,-6.103700759989088,6.380496746423507,0.2931995988351575],[-1.5599915989126472,0.22443349407161117,-4.442950218629376,-9.785187888861389,-0.10967218826294114,7.084777365387978,8.328661386018203],[-5.024578855574079]],"id":0,"number":53}
