{"architecture":{"NEURONS":[10,4,1],"LAYERS":3,"totalSynapses":44},"weights":[-4.68361360541358,-4.93585758157405,0.7325795191430835,-1.8790420360856679,9.45806736705668,-4.498406830972204,5.904578874515578,-1.5234051409051907,-8.117164571276628,0.30204358396165065,4.708270376896566,0.5121419699459774,-2.8314544540747137,-9.702049674102946,1.1232048216329384,7.941492711974908,7.12258989384323,6.717281446121574,-1.532471840921595,6.7572627672355345,8.487163752574167,4.859880910694258,7.617127408506445,3.5722285386199637,2.3390227184762664,-4.056943707128086,2.4085740609423234,6.392734534938832,-3.1699551222118116,9.132642675571836,-7.957531040167202,-6.697735753037524,0.7583266971319321,-5.554267822974435,6.592897665643293,1.3740122555667102,2.3887674513547386,-6.88343710848498,-8.597204469769023,-3.394367037341304,-9.112353538236087,-7.834790468868234,6.9317897378309485,-1.7468207555686217],"bias":[[-8.625926697232106,2.2953302881300672,-9.73492784284257,-2.3031215790510653,1.3226340592766377,-5.393459073442462,-9.91867120468144,-8.049098990954645,-1.8419784490171116,2.428688466696591],[-6.605435284245827,6.236178846942641,1.5403513395065875,0.6548853468030558],[4.475802677395549]],"id":0,"number":53}
