{"architecture":{"NEURONS":[10,4,1],"LAYERS":3,"totalSynapses":44},"weights":[-5.501454608568309,-4.6894389867802,-0.46572665030333876,-1.8584265598031224,9.107061297268826,-6.05047214982841,4.933271945802327,-1.8103031539670202,-5.60664982320102,0.8592021841426141,4.977137029401134,-1.0560126519382627,-3.1516836897625358,-9.761865961682599,1.9105959174158533,7.274421915681644,7.32684455393359,6.60888195402985,-2.263609139670877,6.250385497990033,9.240221098137098,5.285493436809643,8.63368690048511,4.407591734258663,1.308795527451229,-4.388136952432386,2.3909165670133894,5.259538621192299,-2.3067470972575297,8.811384123906999,-8.616881119281814,-6.231437835617757,0.1870722128737068,-6.3412350439194505,7.087030752195747,2.3655981747718458,2.5121055674341815,-5.3431686313801885,-9.072208890918244,-3.4108760582865703,-9.124802761428441,-8.633084513421577,-2.5742321284090446,-0.6408770604479344],"bias":[[8.774220100029149,2.4270872537375237,-1.843783198462714,-2.4514623035740355,0.7608674130996577,-6.411343681909706,-4.568813146078095,6.676916733578333,-7.269554221230871,8.086836573068943],[1.1446116206497123,10.714128965757101,1.7308971034690628,2.291544448327764],[3.725613968301458]],"id":0,"number":530}
