{"architecture":{"NEURONS":[10,4,1],"LAYERS":3,"totalSynapses":44},"weights":[-5.501454608568309,-4.674364858590342,-0.2847681078482216,-1.8584265598031224,9.107061297268826,-6.561002484727608,5.181013970045637,-1.1787306350532163,-5.60664982320102,0.8064753373790913,4.977137029401134,-0.4891447807682998,-3.1516836897625358,-9.761865961682599,1.9105959174158533,7.439464364804748,7.32684455393359,6.429567747375807,-2.277291688972113,6.099973821247993,9.661868648141054,4.903494826617537,8.63368690048511,4.407591734258663,1.3547738493947532,-4.598467344094064,2.6354836577773373,5.3120002801667345,-2.3067470972575297,8.7684977109836,-8.377780843160288,-5.706932312156102,-0.04353694947833264,-6.3412350439194505,7.8513550389027,1.7913697702296254,2.5121055674341815,-5.557372842456101,-8.722548117277228,-3.4423763530120555,-9.124802761428441,-8.666831059476245,-2.6165168789366584,-0.6408770604479344],"bias":[[8.774220100029149,2.4270872537375237,-2.033169451383347,-2.4514623035740355,0.6787527081260115,-6.419465446702675,-4.568813146078095,6.676916733578333,-7.269554221230871,2.7290892527666983],[1.1446116206497123,10.529252565287452,1.7308971034690628,1.768157483096621],[3.725613968301458]],"id":0,"number":531}
