{"architecture":{"NEURONS":[10,4,1],"LAYERS":3,"totalSynapses":44},"weights":[-5.596863550430374,-4.6894389867802,-0.6238669834609891,-1.8584265598031224,8.89564242247267,-6.460588396574438,4.933271945802327,-1.491874382132534,-5.825131811483577,0.8592021841426141,5.17158736481988,-1.0560126519382627,-2.4508871442002174,-9.78006524578542,1.9105959174158533,7.274421915681644,7.274807359614831,6.705491312937305,-2.31769472497802,6.263030413086859,8.80772000068325,5.285493436809643,8.56733473209667,4.503089737986826,1.2508959799099857,-4.391755508827671,2.4403727604183696,6.295049679845795,-2.732289725430408,9.50976923241883,-8.226283937508963,-6.055877879412371,-0.2886185910764371,-6.3412350439194505,7.087030752195747,1.730145536850232,2.4347386567110325,-5.5319526972462185,-9.021146255869708,-3.1185263203391504,-9.124802761428441,-8.877809199296054,-2.3863104082200537,-1.1012545764296322],"bias":[[8.775024784954182,2.4449798869489134,-1.843783198462714,-2.9738446966634515,1.202633408952785,-6.540421652602883,-4.568813146078095,6.676916733578333,-6.75579874569453,2.834448632104961],[1.1446116206497123,10.35424996263644,1.9962165598807018,1.768157483096621],[3.7365638325708423]],"id":0,"number":532}
