{"architecture":{"NEURONS":[10,4,1],"LAYERS":3,"totalSynapses":44},"weights":[-5.596863550430374,-4.6894389867802,-0.46572665030333876,-1.9040610287581536,8.877626001235212,-6.393209227572283,5.048113447460366,-1.4572897976126797,-5.825131811483577,0.6498917936576184,4.977137029401134,-1.6334416383331625,-2.864373173642576,-9.78006524578542,1.9105959174158533,6.832601909909642,7.274807359614831,6.429567747375807,-2.0188025194370214,6.282814104613473,8.80772000068325,5.285493436809643,8.63368690048511,4.316877721467464,1.308795527451229,-4.391755508827671,2.4403727604183696,5.00853168342111,-2.732289725430408,8.585958788403053,-7.728392443307418,-6.231437835617757,-0.2886185910764371,-6.3412350439194505,7.542012397656334,2.079947993487699,2.1685004975604447,-5.3431686313801885,-9.437829324159335,-3.3649674055095566,-8.700094070054192,-8.877809199296054,-2.457369713897152,-1.0128197558858112],"bias":[[9.45845216375063,1.9658983362996922,-1.843783198462714,-2.768566161696439,0.7608674130996577,-6.170060435796188,-4.568813146078095,6.676916733578333,-7.063992135229858,2.834448632104961],[1.4214996615242736,10.536691971561158,1.7308971034690628,1.8659723441900982],[3.725613968301458]],"id":0,"number":533}
