{"architecture":{"NEURONS":[10,4,1],"LAYERS":3,"totalSynapses":44},"weights":[-5.514222460534791,-4.680973234766048,-0.6238669834609891,-1.6461191837449312,8.877626001235212,-6.393209227572283,5.048113447460366,-1.491874382132534,-5.60664982320102,0.680748233007101,5.093582298966965,-1.0560126519382627,-2.0401477878313146,-9.761865961682599,1.9105959174158533,7.274421915681644,7.32684455393359,6.705491312937305,-2.263609139670877,6.263030413086859,8.624531565070605,4.908939272429475,8.636172220414654,4.478606777932069,1.308795527451229,-4.300082891926732,2.8416222609109445,5.054418188699547,-2.732289725430408,9.50976923241883,-7.632467784216406,-6.231437835617757,-0.2886185910764371,-6.3412350439194505,7.710703739744313,1.8019889478027225,2.5121055674341815,-5.578149014356251,-9.015216810906411,-3.4423763530120555,-9.188917086415344,-8.521142013959421,-2.3863104082200537,-0.942076283846025],"bias":[[9.200127445295754,2.4449798869489134,-1.843783198462714,-2.5940153968930755,0.7608674130996577,-6.170060435796188,-4.568813146078095,6.676916733578333,-6.75579874569453,2.834448632104961],[0.9085024476267975,10.35424996263644,1.7308971034690628,2.1341373171974896],[3.725613968301458]],"id":0,"number":534}
