{"architecture":{"NEURONS":[10,4,1],"LAYERS":3,"totalSynapses":44},"weights":[-5.596863550430374,-4.674364858590342,-0.46572665030333876,-1.8116870638928826,8.811284284058434,-6.561002484727608,5.152250863942642,-1.8103031539670202,-5.825131811483577,0.4934353166664066,4.618013144922875,-1.1064785003265598,-2.4508871442002174,-9.75215148844404,1.9105959174158533,6.988677851149795,6.960342574776972,6.60888195402985,-2.155774297357345,6.263030413086859,8.52923537738041,5.441422840869611,8.63368690048511,4.332626269519874,1.3590465308595485,-4.300082891926732,2.6354836577773373,5.3120002801667345,-2.732289725430408,9.50976923241883,-7.728392443307418,-6.341232066738522,0.09911721251585914,-6.3412350439194505,7.542012397656334,2.079947993487699,2.7120283877444322,-5.634045835471491,-8.852792630504187,-3.4108760582865703,-8.700094070054192,-8.633084513421577,-2.5742321284090446,-0.946531397102915],"bias":[[8.830197159198997,2.0365261680611537,-1.843783198462714,-2.4514623035740355,0.7608674130996577,-6.170060435796188,-4.273282318437036,-6.843375076063654,5.311865000421397,2.834448632104961],[1.1446116206497123,10.121293211998156,1.658502755092436,1.9305830502284356],[3.725613968301458]],"id":0,"number":535}
