{"architecture":{"NEURONS":[10,4,1],"LAYERS":3,"totalSynapses":44},"weights":[-5.501454608568309,-4.674364858590342,-0.46572665030333876,-1.9040610287581536,8.877626001235212,-6.561002484727608,5.123015640100924,-1.4572897976126797,-5.829848845465035,0.6498917936576184,4.977137029401134,-1.450757411044557,-2.864373173642576,-9.571907346606327,1.9105959174158533,6.832601909909642,7.274807359614831,6.429567747375807,-2.392982908051186,6.282814104613473,9.661868648141054,5.285493436809643,8.737584731936767,4.503089737986826,1.308795527451229,-4.391755508827671,2.4403727604183696,5.00853168342111,-2.3067470972575297,8.585958788403053,-8.226283937508963,-6.231437835617757,-0.04353694947833264,-6.245088821257225,7.542012397656334,2.079947993487699,2.1685004975604447,-5.536184001489903,-9.01847528213824,-3.4108760582865703,-9.487537343124549,-8.877809199296054,-2.457369713897152,-1.0128197558858112],"bias":[[8.774220100029149,1.9658983362996922,-1.843783198462714,-2.768566161696439,0.9835013733905975,-6.170060435796188,-4.568813146078095,6.676916733578333,-6.395461457350547,2.834448632104961],[1.4214996615242736,10.536691971561158,1.7308971034690628,2.291544448327764],[3.725613968301458]],"id":0,"number":536}
