{"architecture":{"NEURONS":[10,4,1],"LAYERS":3,"totalSynapses":44},"weights":[-5.477888521732086,-4.918786445148517,-0.7428656194155051,-2.0864193429840165,8.862607997992104,-6.239558988272454,5.048113447460366,-1.3357907908160684,-5.829848845465035,1.2751300086606288,5.143743931165257,-1.6334416383331625,-2.4192480019958365,-9.526287926793033,1.9105959174158533,7.274421915681644,7.274807359614831,6.572166816819328,-2.263609139670877,6.380781177009921,8.80772000068325,4.908939272429475,8.976841562965959,4.316877721467464,1.308795527451229,-4.820722197678053,2.4403727604183696,5.00853168342111,-2.732289725430408,8.939921766958811,-8.616881119281814,-6.231437835617757,0.04188933083450147,-6.3412350439194505,7.710703739744313,1.9698809676073759,2.1685004975604447,-5.256939410057986,-8.912278330287217,-3.3649674055095566,-9.998034615818378,-8.633084513421577,-2.618696889588197,-1.1412151595880478],"bias":[[9.45845216375063,2.4270872537375237,-1.843783198462714,-2.5940153968930755,0.9835013733905975,-6.170060435796188,-4.396764796583149,6.676916733578333,-6.75579874569453,2.829605660166886],[1.253447512592016,10.690518798853626,1.62695843366282,1.2288754574681313],[3.725613968301458]],"id":0,"number":537}
