{"architecture":{"NEURONS":[10,4,1],"LAYERS":3,"totalSynapses":44},"weights":[-5.596863550430374,-4.674364858590342,-0.7428656194155051,-1.9392857196684243,8.811284284058434,-6.336490463608113,5.048113447460366,-1.3357907908160684,-5.246847057533869,1.2751300086606288,5.143743931165257,-1.6334416383331625,-2.4192480019958365,-9.526287926793033,1.9105959174158533,7.310003318237971,7.274807359614831,6.572166816819328,-1.8657477568437457,6.380781177009921,8.80772000068325,4.903494826617537,8.976841562965959,4.173593960632758,1.308795527451229,-4.820722197678053,2.4403727604183696,5.00853168342111,-2.8630229078583667,8.67586961324176,-8.616881119281814,-6.231437835617757,0.04188933083450147,-6.3412350439194505,7.7472059946565395,2.079947993487699,2.184468664716336,-5.536184001489903,-9.36375633538376,-3.4423763530120555,-8.700094070054192,-8.633084513421577,-2.618696889588197,-0.7193508115844426],"bias":[[9.45845216375063,2.4270872537375237,-1.843783198462714,-2.768566161696439,0.9835013733905975,-6.170060435796188,-4.396764796583149,6.676916733578333,-6.75579874569453,2.834448632104961],[1.253447512592016,10.35424996263644,1.9962165598807018,1.2288754574681313],[3.725613968301458]],"id":0,"number":538}
