{"architecture":{"NEURONS":[10,4,1],"LAYERS":3,"totalSynapses":44},"weights":[-5.477888521732086,-4.680973234766048,-0.46572665030333876,-1.9045862693156037,8.877626001235212,-6.561002484727608,4.933271945802327,-1.4572897976126797,-5.825131811483577,1.1196557122425137,4.977137029401134,-1.1064785003265598,-3.1516836897625358,-9.933124413366176,1.9105959174158533,7.445540363051277,7.32684455393359,6.411773069008144,-2.263609139670877,6.099973821247993,8.624531565070605,5.285493436809643,8.63368690048511,4.316877721467464,1.3590465308595485,-4.254626310337885,2.185926756444761,4.874896257847385,-2.3067470972575297,8.811384123906999,-7.7165398904659925,-6.493306402950319,-0.2883121210132485,-6.114500855900252,7.710703739744313,1.9698809676073759,2.546936011839755,-5.578149014356251,-8.714683258128668,-3.145376685362327,-10.237899337501462,-8.633084513421577,-2.457369713897152,-1.274612472792214],"bias":[[9.519295804974869,2.3575962393175516,-1.843783198462714,-2.7323300231994163,0.7608674130996577,-6.096820318969123,-4.584139853134771,6.132770329385248,-6.5042833037089824,2.7290892527666983],[1.1446116206497123,10.627953119895826,1.7308971034690628,1.768157483096621],[3.7365638325708423]],"id":0,"number":539}
