{"architecture":{"NEURONS":[10,7,1],"LAYERS":3,"totalSynapses":77},"weights":[-5.009643428910595,4.1372745666642725,1.1896259528739166,-4.960017392625812,-6.922051164171314,8.96288229896225,5.365738641891193,0.06252024831694403,2.5734163404934205,-1.2878922026444724,1.8496396511301931,-2.2614400876142624,8.554442162630004,6.503546810407428,-1.6755231659594756,-3.2192695651398466,-7.2408250981470985,3.8827393749407815,-8.935137766553147,-9.205808380904617,5.573290002677955,-1.5960147306836034,-2.1023458067174188,7.6412365299487535,-0.01609096697633211,-6.331128824108879,1.4797912765462957,5.374017143186774,-1.7481849796753886,4.275321796664631,9.379787570803627,7.391649027384309,7.05610092141104,6.5821775978808645,-10.008259899480558,3.7517745490642525,4.968934811622713,4.4378077444125665,5.96785849585402,-3.333154344620826,4.642706903540384,-5.704273152877229,-6.107818138622423,3.700410848987707,-6.211305780156746,4.489909594842678,-5.276661679841523,0.24207930096041386,2.4763330607490652,7.0670796477929985,1.367790448894266,-7.859969418731773,6.419850066346411,-5.621537918266503,-4.111792151769354,-5.232212220316531,-5.302460569426411,3.51049531721028,-0.6357572899414184,4.130839784921775,-6.969436317322412,-3.6696440864951025,7.368113443356624,-9.638525972600979,-3.592989694007577,-3.2356831179666985,-3.9549002610411432,3.743687271230057,6.951879995940362,-2.045024121608797,-6.571154706563431,3.9930765874960197,0.6678751822262224,-1.6419642136592645,6.8030182504082335,5.923521800661454,0.29849626580819],"bias":[[-7.121402303624205,4.086827599701641,-3.9760401306753637,4.482488420673902,1.0498511004704456,8.248274921048214,9.584676033169393,-7.639569448651099,6.521488838217748,-0.6783139253424046],[-0.19200986271801151,0.5738299272080601,-4.860579227973264,-7.443099891180222,1.623510205562166,6.083275193039435,6.484712867632838],[-5.406945163305659]],"id":0,"number":54}
