{"architecture":{"NEURONS":[10,4,1],"LAYERS":3,"totalSynapses":44},"weights":[-4.68361360541358,-5.253386828727064,0.6939443726657817,-1.9126608507086762,9.307374951849688,-4.9108389597726765,5.720417996395666,-1.9076229427351468,-5.345882538531171,0.30204358396165065,4.4551217547309525,0.8768284448075355,-2.8314544540747137,-9.596681578799538,1.1922435199802113,7.7133710315873145,8.280364041602896,6.528545579580549,-1.532471840921595,6.453457326596539,8.360569811526677,5.268148054171794,7.617127408506445,3.5722285386199637,2.3390227184762664,-4.005388511750406,2.4684404115260463,6.541283591073817,-3.6327321102772108,9.241202554619706,-7.868134781650866,-6.231854462400097,1.2377146039047162,-5.8523154181537365,6.489151580707829,1.9950840375557106,2.3887674513547386,-6.88343710848498,-8.493195758311435,-3.4095128426667536,-9.029154799542882,-7.4445347611648405,6.9317897378309485,-1.6979331078762199],"bias":[[-8.646579772067101,2.569730412298146,-9.73492784284257,-2.3935441495482417,1.3226340592766377,-5.393459073442462,-9.729628023284,-8.049098990954645,-1.939096282499726,2.9387931116759454],[-7.192084991397948,5.941709433282875,1.5403513395065875,0.6678721539948984],[4.848595623891643]],"id":0,"number":54}
