{"architecture":{"NEURONS":[10,4,1],"LAYERS":3,"totalSynapses":44},"weights":[-5.596863550430374,-4.395289787830626,-0.2847681078482216,-1.7044533572103582,8.811284284058434,-6.561002484727608,4.933271945802327,-1.491874382132534,-5.825131811483577,0.7306632369681884,4.618013144922875,-1.7986518544944503,-3.1516836897625358,-9.855623999851817,1.9105959174158533,6.988677851149795,7.32684455393359,6.411773069008144,-1.8657477568437457,6.263030413086859,8.80772000068325,4.908939272429475,8.904178874179218,4.316877721467464,1.308795527451229,-4.543389946655413,2.4403727604183696,4.872163166320119,-2.3067470972575297,9.50976923241883,-7.843685221319841,-6.044374939988229,-0.2510862450452188,-6.3412350439194505,7.7472059946565395,1.652629413283814,2.2486171348584945,-5.256939410057986,-8.93584216902226,-3.3649674055095566,-9.998034615818378,-8.633084513421577,-2.618696889588197,-0.7364704163686776],"bias":[[9.277899607244672,1.970565811759251,-2.6641230428842633,-2.7323300231994163,0.7608674130996577,-6.624395555531289,-4.028856667043521,6.676916733578333,5.311865000421397,3.1366624704893677],[1.1446116206497123,10.690518798853626,1.9962165598807018,1.768157483096621],[3.725613968301458]],"id":0,"number":540}
