{"architecture":{"NEURONS":[10,4,1],"LAYERS":3,"totalSynapses":44},"weights":[-5.596863550430374,-4.674364858590342,-0.2847681078482216,-2.1788074171401,8.811284284058434,-6.561002484727608,5.152250863942642,-1.223822160085328,-5.825131811483577,1.1196557122425137,5.17158736481988,-0.7168891481950137,-2.4508871442002174,-10.25001044798093,1.9105959174158533,7.363413019799603,7.32684455393359,6.60888195402985,-2.263609139670877,6.263030413086859,8.415380702537373,4.908939272429475,8.73458877049046,4.316877721467464,1.308795527451229,-4.007130088158126,2.4403727604183696,6.295049679845795,-2.732289725430408,8.7684977109836,-8.113890714849623,-6.207055363777166,-0.2886185910764371,-6.114500855900252,7.542012397656334,2.079947993487699,2.546936011839755,-5.256939410057986,-8.912278330287217,-3.4108760582865703,-9.998034615818378,-8.633084513421577,-2.457369713897152,-0.7193508115844426],"bias":[[9.45845216375063,1.970565811759251,-2.6641230428842633,-2.7323300231994163,0.7608674130996577,-6.624395555531289,-4.568813146078095,6.132770329385248,-6.304399316394282,3.1290934995580715],[1.1446116206497123,10.627953119895826,1.9962165598807018,1.2288754574681313],[3.725613968301458]],"id":0,"number":541}
