{"architecture":{"NEURONS":[10,4,1],"LAYERS":3,"totalSynapses":44},"weights":[-5.596863550430374,-4.680973234766048,-0.7428656194155051,-1.9045862693156037,8.652741780392185,-6.463944995592623,5.048113447460366,-1.491874382132534,-6.113444437474387,0.8702324183333985,5.17158736481988,-1.0560126519382627,-2.4508871442002174,-9.67353643207963,1.9105959174158533,7.274421915681644,7.32684455393359,6.60888195402985,-1.969479359222556,6.001301724652263,9.240221098137098,5.441422840869611,8.522872871782715,4.316877721467464,1.2508959799099857,-4.300082891926732,2.4403727604183696,6.295049679845795,-2.131561963027763,8.760636658608242,-8.226283937508963,-5.706932312156102,-0.2510862450452188,-6.199907101415474,7.542012397656334,1.9698809676073759,2.2486171348584945,-5.557372842456101,-9.36375633538376,-3.4108760582865703,-9.392619158886099,-8.489711770009208,-2.5742321284090446,-1.274612472792214],"bias":[[9.45845216375063,2.4270872537375237,-2.6641230428842633,-2.4514623035740355,0.8597596781121047,-6.800153227258299,-4.568813146078095,6.676916733578333,-6.75579874569453,2.834448632104961],[1.4111234461967201,10.35424996263644,1.6722706933749587,1.2288754574681313],[3.725613968301458]],"id":0,"number":542}
