{"architecture":{"NEURONS":[10,4,1],"LAYERS":3,"totalSynapses":44},"weights":[-5.709746536712037,-4.925824709916616,-0.42754983396473667,-2.0864193429840165,8.811284284058434,-6.05047214982841,5.048113447460366,-1.6351979336223208,-5.60664982320102,0.8592021841426141,5.17158736481988,-0.7168891481950137,-3.1516836897625358,-9.71134429472878,1.9105959174158533,6.832601909909642,7.32684455393359,6.444668055414863,-2.31769472497802,6.263030413086859,8.624531565070605,4.908939272429475,8.726769581664206,4.407591734258663,1.134554110290949,-4.391755508827671,2.4403727604183696,4.872163166320119,-2.732289725430408,9.639035704999854,-8.616881119281814,-6.231437835617757,-0.37264322838790626,-6.165498627607596,7.710703739744313,1.9698809676073759,2.430945179852571,-5.557372842456101,-8.912278330287217,-3.934780381798424,-9.998034615818378,-8.633084513421577,-2.6038401406859255,-0.7364704163686776],"bias":[[9.263087380575879,2.4270872537375237,-2.384731651081419,-2.768566161696439,0.8597596781121047,-6.170060435796188,-4.835810991457527,6.4675642074458874,-7.139828697996675,2.834448632104961],[1.1261054294819692,10.690518798853626,1.7308971034690628,1.2288754574681313],[3.725613968301458]],"id":0,"number":543}
