{"architecture":{"NEURONS":[10,4,1],"LAYERS":3,"totalSynapses":44},"weights":[-5.596863550430374,-4.674364858590342,-0.46572665030333876,-2.048186796758345,8.99398081965342,-6.467986116360011,5.152250863942642,-1.491874382132534,-5.825131811483577,0.8064753373790913,5.093582298966965,-1.0560126519382627,-3.1516836897625358,-9.68750484141365,1.9105959174158533,7.152052976135592,6.920504617215866,6.429567747375807,-2.107983554152728,6.001301724652263,8.80772000068325,5.285493436809643,8.601163206736432,4.316877721467464,1.3322412784929143,-4.254626310337885,2.4403727604183696,6.295049679845795,-2.3178241703129636,8.67586961324176,-8.226283937508963,-5.706932312156102,-0.2510862450452188,-6.114500855900252,7.710703739744313,2.0863675856285577,2.2486171348584945,-5.504578202384224,-9.36375633538376,-3.5828924552968258,-9.998034615818378,-8.633084513421577,-2.6038401406859255,-0.9889230601792597],"bias":[[9.45845216375063,2.4270872537375237,-2.0430819615825535,-2.4514623035740355,0.9434711729653396,-6.096820318969123,-4.542941286353762,6.676916733578333,-6.75579874569453,2.834448632104961],[0.7154776182894501,10.690518798853626,1.62695843366282,1.2288754574681313],[3.6116447945805192]],"id":0,"number":544}
