{"architecture":{"NEURONS":[10,4,1],"LAYERS":3,"totalSynapses":44},"weights":[-5.477888521732086,-4.918786445148517,-0.7270127290422674,-2.008528989713767,9.273106698447608,-6.05047214982841,5.152250863942642,-1.4572897976126797,-6.113444437474387,0.8064753373790913,4.858136791572907,-0.7168891481950137,-3.1516836897625358,-10.021258299841511,1.9105959174158533,7.260597475015539,6.920504617215866,6.597205398170383,-1.8657477568437457,6.001301724652263,8.52923537738041,5.604170086881379,8.601163206736432,4.316877721467464,1.1478088260452126,-4.507590570504206,2.4403727604183696,5.054418188699547,-2.3067470972575297,9.187196392483042,-8.776677961371298,-5.706932312156102,0.09911721251585914,-6.3412350439194505,7.542012397656334,2.0863675856285577,2.3892351598637975,-5.557372842456101,-9.36375633538376,-3.3649674055095566,-9.998034615818378,-8.633084513421577,-2.5742321284090446,-1.274612472792214],"bias":[[9.311872048657573,2.4270872537375237,-2.0430819615825535,-2.2521485984485476,0.7608674130996577,-6.134308347475735,-4.584139853134771,6.365265908775458,-6.5042833037089824,2.9579913125734527],[1.1446116206497123,10.690518798853626,1.753474697856214,1.8659723441900982],[3.725613968301458]],"id":0,"number":545}
