{"architecture":{"NEURONS":[10,4,1],"LAYERS":3,"totalSynapses":44},"weights":[-5.477888521732086,-4.925824709916616,-0.7270127290422674,-2.008528989713767,8.811284284058434,-6.05047214982841,5.048113447460366,-1.6351979336223208,-6.113444437474387,0.8064753373790913,5.17158736481988,-0.7168891481950137,-3.287040060195184,-9.71134429472878,1.9105959174158533,7.260597475015539,7.32684455393359,6.444668055414863,-2.31769472497802,6.263030413086859,8.52923537738041,5.341886009779573,8.726769581664206,4.316877721467464,1.134554110290949,-4.391755508827671,2.4403727604183696,5.054418188699547,-2.3067470972575297,9.639035704999854,-8.616881119281814,-5.912703908484197,0.09911721251585914,-6.3412350439194505,7.710703739744313,2.0863675856285577,2.3892351598637975,-5.557372842456101,-8.72430272312045,-3.934780381798424,-9.998034615818378,-8.633084513421577,-2.5742321284090446,-0.7364704163686776],"bias":[[9.263087380575879,2.4270872537375237,-2.384731651081419,-2.2521485984485476,0.8597596781121047,-6.170060435796188,-4.835810991457527,6.365265908775458,-7.139828697996675,2.834448632104961],[1.1261054294819692,10.690518798853626,1.753474697856214,1.3405241482178216],[3.725613968301458]],"id":0,"number":546}
