{"architecture":{"NEURONS":[10,4,1],"LAYERS":3,"totalSynapses":44},"weights":[-5.477888521732086,-4.674364858590342,-0.2847681078482216,-2.048186796758345,8.811284284058434,-6.467986116360011,5.048113447460366,-1.0184010351428072,-5.825131811483577,1.1196557122425137,5.17158736481988,-0.7168891481950137,-3.1516836897625358,-9.68750484141365,1.9105959174158533,6.832601909909642,7.274807359614831,6.597205398170383,-1.8657477568437457,6.263030413086859,8.52923537738041,5.285493436809643,8.904178874179218,4.316877721467464,1.0942610789158096,-4.507590570504206,2.4403727604183696,6.295049679845795,-2.3067470972575297,9.50976923241883,-8.113890714849623,-5.706932312156102,0.04188933083450147,-6.165498627607596,7.542012397656334,2.079947993487699,2.5958383037736685,-5.578149014356251,-9.36375633538376,-3.4108760582865703,-9.2571209646853,-8.633084513421577,-2.0235614436771274,-0.5956626452514941],"bias":[[9.154524888213512,2.0365261680611537,-2.0430819615825535,-2.2521485984485476,0.7608674130996577,-6.134308347475735,-4.584139853134771,6.365265908775458,-6.5042833037089824,2.834448632104961],[0.7642108608904268,10.690518798853626,1.7308971034690628,2.291544448327764],[3.8944021756597924]],"id":0,"number":547}
