{"architecture":{"NEURONS":[10,4,1],"LAYERS":3,"totalSynapses":44},"weights":[-5.709746536712037,-4.8858883949915,-0.2847681078482216,-2.048186796758345,8.811284284058434,-6.561002484727608,4.777584174793198,-1.491874382132534,-5.825131811483577,0.7306632369681884,5.093582298966965,-1.6334416383331625,-3.1516836897625358,-9.761865961682599,1.9105959174158533,7.363413019799603,7.32684455393359,6.597205398170383,-2.31769472497802,6.001301724652263,8.80772000068325,4.908939272429475,8.74870290280098,4.316877721467464,1.3322412784929143,-4.507590570504206,2.4403727604183696,6.295049679845795,-2.4718869037274067,8.811384123906999,-8.773751797785938,-6.493306402950319,-0.37264322838790626,-6.165498627607596,7.542012397656334,2.0863675856285577,2.5121055674341815,-5.536184001489903,-9.36375633538376,-3.4423763530120555,-10.237899337501462,-8.521142013959421,-2.5742321284090446,-1.0128197558858112],"bias":[[9.519295804974869,1.970565811759251,-1.843783198462714,-2.1448249657281324,0.8597596781121047,-6.170060435796188,-4.27084667498045,6.354992598290153,-6.304399316394282,2.834448632104961],[1.0169505928815803,10.690518798853626,1.7308971034690628,1.8538870619568448],[3.725613968301458]],"id":0,"number":548}
