{"architecture":{"NEURONS":[10,4,1],"LAYERS":3,"totalSynapses":44},"weights":[-5.477888521732086,-4.4651021087466365,-0.4254708895596441,-2.048186796758345,8.99398081965342,-6.463944995592623,5.223326091737404,-1.491874382132534,-5.592414066559979,0.8064753373790913,4.977137029401134,-1.7986518544944503,-2.869829248079215,-9.68750484141365,1.9105959174158533,7.116644644688575,7.32684455393359,6.597205398170383,-2.263609139670877,6.314436121665417,8.80772000068325,5.188120160329942,8.522872871782715,4.316877721467464,1.3322412784929143,-4.774267222227849,2.2468734661407277,5.054418188699547,-2.3067470972575297,8.585958788403053,-8.226283937508963,-5.824379871033924,-0.15973174469216497,-6.165498627607596,7.654640686514773,1.730145536850232,2.204714021230827,-5.6562105938569225,-9.36375633538376,-3.1927190212740744,-8.999618036307117,-8.125255801371564,-2.8218777004445235,-1.274612472792214],"bias":[[9.263087380575879,2.4270872537375237,-1.843783198462714,-2.4514623035740355,1.2959279824764152,-6.195778189117382,-4.542941286353762,6.109512913236872,-6.587358678600045,2.82221698203951],[0.7831268572909422,10.584312434486751,1.753474697856214,1.7962107186457505],[3.2095196248929723]],"id":0,"number":549}
