{"architecture":{"NEURONS":[10,7,1],"LAYERS":3,"totalSynapses":77},"weights":[-5.326721581431861,3.6976264426997796,0.6177350106386741,-3.589771875104673,-4.052403418339709,9.256743707714996,5.345649449161854,1.2740265235591532,1.9307718145795199,-0.14895136946833812,1.4470208013092973,-2.4692361922343924,9.665973457978035,6.301152991813472,-2.4260698265803646,-2.76063995699463,-7.3199327902173765,2.356147733840344,-9.08460771277083,-8.489963585546299,5.521699948332848,-1.836095291453037,-1.262512466772999,5.102058102662448,-0.6721238666055397,-6.730728676001537,0.4767862995695137,3.3811849221099686,-0.6695757992375015,3.103716423640201,10.072059849216728,7.273128520231139,6.8378519855909845,6.597386939807654,-8.960200373986515,5.048807118974318,4.899436398218751,5.436785237940011,4.686237622482662,-2.5981442709617664,5.208612366176092,-5.613226828014725,-5.768956316301898,2.027931635882258,-6.476577752834874,1.832328304710714,-4.165268530502853,1.631137628955521,3.7312671208144685,5.722874733071295,0.5783260365648241,-6.421817941834085,7.980765463844869,-6.498999621084371,-3.0703728102567376,-4.211286877124921,-7.527480816192175,4.571823499400612,-1.2112366417012796,2.913663204364431,-6.934390523580703,-3.8192902691676744,8.426672964165842,-8.119523370941348,-2.684286763834973,-2.1905820977984174,-5.784016246034434,3.1487676691740716,7.938456594367919,-0.618987064229009,-7.2755764033957115,2.2000065222330654,0.5566360742198487,-0.7853314861577486,7.427470732174626,4.995685420572895,-2.000224597352301],"bias":[[-7.107970655056782,4.564119298002426,-6.022083550266469,4.970911767015886,4.3402585379480945,10.406253139735712,9.456069308831374,-6.003387329738173,6.8241661729167,1.235361340061308],[0.18303009407873544,0.6243052715101391,-5.716286349585353,-9.045487634128365,1.1473207560345797,6.62238230818669,6.761183666439893],[-5.049209070910584]],"id":0,"number":55}
