{"architecture":{"NEURONS":[10,4,1],"LAYERS":3,"totalSynapses":44},"weights":[-4.9495115555557385,-4.826427931704379,1.0403468728253829,-2.152085160645853,9.599961355998795,-4.9108389597726765,5.7531295167706515,-1.5234051409051907,-8.345682289884484,0.30204358396165065,4.708270376896566,0.8768284448075355,-2.8314544540747137,-9.702049674102946,1.1922435199802113,7.7133710315873145,8.32127793262065,6.355462006898175,-1.2238002901531326,6.7572627672355345,8.25429549011923,5.2448909508439385,7.571919830280562,3.4997182620500027,1.7930852481407342,-3.8156847593913144,2.244399133344648,6.541283591073817,-3.706793130045866,9.502114251845168,-7.751565148572704,-6.21249436723238,1.2377146039047162,-5.803197617737717,6.681636063496409,1.914484751099017,2.4167149428455237,-6.926702363633989,-8.392282116477885,-7.252084263256594,-8.878119672789996,-7.4445347611648405,6.9317897378309485,-1.6838738461104994],"bias":[[-8.625926697232106,2.245017427634482,-9.287294584104643,-2.1893543124661687,1.3226340592766377,-5.089396513933451,-10.024996855251853,-7.6793478633933185,-5.569148951123373,2.9387931116759454],[-6.85770258525077,6.593390425359332,1.6954730607729307,0.5987348857304525],[4.634124660438297]],"id":0,"number":55}
