{"architecture":{"NEURONS":[10,4,1],"LAYERS":3,"totalSynapses":44},"weights":[-5.596863550430374,-4.618405777392734,-0.2847681078482216,-2.008528989713767,8.616091314549461,-6.561002484727608,4.83916893610008,-1.4554998065883695,-5.7730332481851665,1.1196557122425137,5.093582298966965,-1.1439574829786348,-3.287040060195184,-9.71134429472878,1.9105959174158533,6.832601909909642,7.32684455393359,6.597205398170383,-2.600878185053162,6.001301724652263,8.80772000068325,5.285493436809643,8.904178874179218,4.373560626718008,1.3322412784929143,-4.507590570504206,2.6354836577773373,5.054418188699547,-2.732289725430408,8.585958788403053,-8.113890714849623,-5.706932312156102,-0.2886185910764371,-6.3743632019398655,7.710703739744313,1.942044212768802,2.204714021230827,-5.5858896694387274,-9.482880789140083,-3.5828924552968258,-9.998034615818378,-9.032679544278785,-2.2830424871946557,-1.274612472792214],"bias":[[9.263087380575879,2.4270872537375237,-2.384731651081419,-2.4514623035740355,1.2959279824764152,-6.096820318969123,-4.835810991457527,6.365265908775458,-7.139828697996675,2.82221698203951],[1.178525149324353,10.808444096489499,1.62695843366282,1.4910637767848707],[3.6283938525984794]],"id":0,"number":550}
