{"architecture":{"NEURONS":[10,4,1],"LAYERS":3,"totalSynapses":44},"weights":[-5.477888521732086,-4.4651021087466365,-0.9546201741968761,-1.6461191837449312,8.811284284058434,-6.561002484727608,4.777584174793198,-1.491874382132534,-5.673857662985821,0.7306632369681884,4.977137029401134,-1.1439574829786348,-3.1516836897625358,-9.976276348327122,1.9105959174158533,7.152052976135592,7.32684455393359,6.597205398170383,-1.8657477568437457,6.47866839284746,8.52923537738041,4.908939272429475,8.834062805590795,3.8940328566060174,1.3547738493947532,-4.254626310337885,2.4403727604183696,6.295049679845795,-2.3067470972575297,9.50976923241883,-8.150193768244828,-5.706932312156102,-0.37264322838790626,-6.114500855900252,7.626211531376486,1.730145536850232,2.515869162251878,-5.666096996253266,-9.36375633538376,-3.5828924552968258,-9.124802761428441,-8.545159161480425,-2.2681141329028507,-0.931712555655847],"bias":[[9.371863345318232,1.970565811759251,-1.843783198462714,-2.768566161696439,0.4535964169579615,-6.170060435796188,-4.568813146078095,6.4675642074458874,-6.5042833037089824,2.8475506270292184],[1.1446116206497123,10.536691971561158,1.753474697856214,2.291544448327764],[3.7121569586377388]],"id":0,"number":551}
