{"architecture":{"NEURONS":[10,4,1],"LAYERS":3,"totalSynapses":44},"weights":[-5.118115612913465,-4.618405777392734,-1.0389907132567218,-2.048186796758345,8.713330740284912,-6.467986116360011,4.777584174793198,-1.6351979336223208,-5.60664982320102,0.7306632369681884,4.977137029401134,-0.7168891481950137,-3.071431499829287,-9.68189640572356,1.9105959174158533,7.363413019799603,7.143593564355281,6.429567747375807,-2.3322549163964164,6.001301724652263,8.60722777280138,5.285493436809643,8.550280503481549,4.407591734258663,1.3322412784929143,-4.507590570504206,2.4403727604183696,6.295049679845795,-2.732289725430408,8.481917983258443,-8.226283937508963,-5.706932312156102,-0.15973174469216497,-6.069431318348573,7.542012397656334,2.079947993487699,2.3346948695748373,-5.536184001489903,-8.93584216902226,-3.4333031444052162,-9.998034615818378,-8.27351634899447,-2.457369713897152,-1.274612472792214],"bias":[[9.55211700853574,2.4270872537375237,-1.612053915284222,-2.4514623035740355,0.7608674130996577,-6.073283260564402,-4.542941286353762,6.354992598290153,-6.587358678600045,2.834448632104961],[1.051432992758408,10.690518798853626,1.7457683900473295,1.0625932095662285],[3.123173309153818]],"id":0,"number":552}
