{"architecture":{"NEURONS":[10,4,1],"LAYERS":3,"totalSynapses":44},"weights":[-5.477888521732086,-4.584378922556877,-0.6820789282414406,-2.048186796758345,8.877626001235212,-6.05047214982841,5.048113447460366,-1.4208430689098146,-6.113444437474387,0.34716264534774,5.093582298966965,-1.0560126519382627,-3.071431499829287,-10.25001044798093,1.9105959174158533,6.832601909909642,7.32684455393359,6.411773069008144,-2.600878185053162,6.001301724652263,8.52923537738041,4.908939272429475,8.96315620963689,4.373560626718008,1.3322412784929143,-4.507590570504206,2.4403727604183696,6.295049679845795,-2.732289725430408,9.50976923241883,-8.226283937508963,-5.912703908484197,-0.2510862450452188,-6.165498627607596,7.528225053947762,2.079947993487699,2.2802302211341456,-5.849063272443552,-9.482880789140083,-3.4333031444052162,-9.998034615818378,-9.032679544278785,-2.2830424871946557,-1.274612472792214],"bias":[[9.45845216375063,1.970565811759251,-2.035749154388709,-2.768566161696439,0.542325468766703,-6.096820318969123,-4.835810991457527,6.365265908775458,-6.782139989376695,2.7290892527666983],[0.7462368679304625,10.690518798853626,1.62695843366282,1.4910637767848707],[3.6978344926596174]],"id":0,"number":553}
