{"architecture":{"NEURONS":[10,4,1],"LAYERS":3,"totalSynapses":44},"weights":[-5.477888521732086,-4.584378922556877,-0.46572665030333876,-2.048186796758345,8.877626001235212,-6.561002484727608,5.087565003823812,-1.4208430689098146,-5.422454227694065,1.1196557122425137,4.977137029401134,-0.7168891481950137,-3.7183918948692396,-10.571775005858159,1.9105959174158533,7.022876178978874,7.274807359614831,6.429567747375807,-1.8657477568437457,6.359722982507178,8.60722777280138,5.113688118363397,8.550280503481549,4.373560626718008,1.134554110290949,-4.391755508827671,2.6354836577773373,6.24537155373982,-2.732289725430408,8.585958788403053,-8.776677961371298,-5.912703908484197,-0.2510862450452188,-6.1816447530488885,7.542012397656334,1.9714691637490604,2.509395442472353,-5.536184001489903,-9.482880789140083,-3.4333031444052162,-9.998034615818378,-8.27351634899447,-2.2830424871946557,-1.1867570318623262],"bias":[[9.45845216375063,2.4270872537375237,-1.843783198462714,-2.768566161696439,1.2959279824764152,-6.134308347475735,-4.584139853134771,6.290773277574082,-6.632642058324499,2.834448632104961],[0.7462368679304625,10.690518798853626,1.7457683900473295,1.4910637767848707],[3.725613968301458]],"id":0,"number":554}
