{"architecture":{"NEURONS":[10,4,1],"LAYERS":3,"totalSynapses":44},"weights":[-5.596863550430374,-4.618405777392734,-0.2847681078482216,-2.048186796758345,8.811284284058434,-6.467986116360011,5.207790767843898,-1.491874382132534,-5.118631157082148,0.7153426872251022,4.977137029401134,-1.1244680643195866,-3.4576881358910616,-9.855623999851817,1.9105959174158533,7.274421915681644,7.462035739358106,6.852840330763754,-2.107983554152728,5.991660135714995,8.105810793498497,5.285493436809643,8.904178874179218,4.316877721467464,1.9013506742564892,-4.558075546289095,2.4403727604183696,4.796310099739821,-2.7916069480892807,8.585958788403053,-8.776677961371298,-5.824379871033924,-0.15973174469216497,-6.3412350439194505,7.710703739744313,1.689340087296537,2.3346948695748373,-5.1572464757045156,-9.399294119355996,-3.4423763530120555,-9.998034615818378,-8.633084513421577,-2.457369713897152,-1.274612472792214],"bias":[[9.45845216375063,2.4270872537375237,-1.8176024808828912,-2.4514623035740355,0.8597596781121047,-6.170060435796188,-4.542941286353762,6.676916733578333,-6.632642058324499,2.834448632104961],[0.7462368679304625,10.690518798853626,1.658502755092436,1.697030172151218],[3.725613968301458]],"id":0,"number":555}
