{"architecture":{"NEURONS":[10,4,1],"LAYERS":3,"totalSynapses":44},"weights":[-5.477888521732086,-4.618405777392734,-0.6820789282414406,-2.048186796758345,8.616091314549461,-6.561002484727608,4.777584174793198,-1.491874382132534,-5.768666481127358,1.1196557122425137,4.977137029401134,-1.0560126519382627,-3.287040060195184,-9.976276348327122,2.2294949480371495,6.832601909909642,7.235219059144436,6.597205398170383,-2.107983554152728,5.596479342094578,8.60722777280138,4.908939272429475,8.73458877049046,4.373560626718008,1.6405123935164838,-4.391755508827671,2.4403727604183696,6.24537155373982,-2.3067470972575297,8.7684977109836,-8.776677961371298,-5.824379871033924,-0.15973174469216497,-6.3743632019398655,7.542012397656334,1.942044212768802,2.509395442472353,-5.557372842456101,-8.93584216902226,-3.4220896013458932,-9.998034615818378,-8.125255801371564,-2.2830424871946557,-1.274612472792214],"bias":[[9.45845216375063,2.4270872537375237,-2.384731651081419,-2.4514623035740355,0.542325468766703,-6.170060435796188,-4.542941286353762,6.354992598290153,-6.927470678908074,2.834448632104961],[0.7462368679304625,10.690518798853626,1.5000361610801565,1.364099869072797],[3.6978344926596174]],"id":0,"number":556}
