{"architecture":{"NEURONS":[10,4,1],"LAYERS":3,"totalSynapses":44},"weights":[-5.477888521732086,-5.021897877179932,-0.2847681078482216,-2.008528989713767,8.877626001235212,-6.05047214982841,5.048113447460366,-1.4208430689098146,-6.113444437474387,0.34716264534774,5.093582298966965,-0.7168891481950137,-3.287040060195184,-9.976276348327122,1.8729120821049041,6.832601909909642,7.143593564355281,6.597205398170383,-2.1106804409784328,6.001301724652263,8.52923537738041,5.285493436809643,8.726769581664206,4.316877721467464,1.325778068573699,-4.254626310337885,2.4403727604183696,6.295049679845795,-2.596493102251727,8.811384123906999,-8.226283937508963,-5.912703908484197,-0.2510862450452188,-6.3412350439194505,7.693298019880216,1.8501090340826345,2.2802302211341456,-5.666096996253266,-9.36375633538376,-3.4220896013458932,-9.737154048786977,-8.365932529876389,-2.2830424871946557,-1.274612472792214],"bias":[[9.45845216375063,1.970565811759251,-1.7854910928140675,-2.768566161696439,0.2564858365393715,-6.081718615544257,-4.542941286353762,6.354992598290153,-6.604533436248954,2.82221698203951],[0.7462368679304625,10.690518798853626,1.62695843366282,1.582089883728605],[3.725613968301458]],"id":0,"number":557}
