{"architecture":{"NEURONS":[10,4,1],"LAYERS":3,"totalSynapses":44},"weights":[-5.596863550430374,-4.680973234766048,-0.5351961938630713,-2.008528989713767,8.99398081965342,-6.713611856564044,4.729634036343018,-1.4572897976126797,-5.825131811483577,0.7153426872251022,4.977137029401134,-1.2601456666987096,-3.071431499829287,-10.09688505285192,1.9105959174158533,7.274421915681644,7.32684455393359,6.597205398170383,-2.107983554152728,5.991660135714995,8.80772000068325,5.285493436809643,8.904178874179218,4.407591734258663,1.5512171283486114,-4.507590570504206,2.266968306599,6.295049679845795,-2.067029076697741,8.886024356555161,-9.128380294203916,-5.647673840530712,-0.37264322838790626,-6.3412350439194505,7.710703739744313,1.8501090340826345,2.2812547236229723,-5.364648258455734,-9.212263976652137,-3.4333031444052162,-8.999618036307117,-8.27351634899447,-2.2681141329028507,-1.1456010021583123],"bias":[[9.45845216375063,1.970565811759251,-1.843783198462714,-2.2888477331814645,0.9198349598321719,-6.096820318969123,-4.469994216332862,6.676916733578333,-6.782139989376695,2.7290892527666983],[1.5583130871423156,10.690518798853626,1.7308971034690628,1.697030172151218],[3.795464521362583]],"id":0,"number":558}
