{"architecture":{"NEURONS":[10,4,1],"LAYERS":3,"totalSynapses":44},"weights":[-5.477888521732086,-4.75715339509909,-0.3653429817512523,-2.20769060284001,8.616091314549461,-6.05047214982841,4.358587888656115,-1.491874382132534,-5.768666481127358,0.7306632369681884,4.977137029401134,-0.5998335015832991,-3.01547036682663,-9.976276348327122,1.9105959174158533,6.832601909909642,7.235219059144436,6.20566152532481,-1.5185444494864648,6.001301724652263,8.60722777280138,4.908939272429475,8.726769581664206,4.316877721467464,1.3547738493947532,-4.254626310337885,2.4403727604183696,4.874896257847385,-2.732289725430408,8.639802218594875,-8.696779540326556,-5.912703908484197,-0.15973174469216497,-6.165498627607596,7.441389794827705,2.079947993487699,2.509395442472353,-5.849063272443552,-9.626487911463329,-3.4220896013458932,-9.48429576498374,-8.125255801371564,-2.457369713897152,-1.274612472792214],"bias":[[9.113467872669636,2.5556745169626423,-2.384731651081419,-2.2095747048362115,0.002432109485362044,-6.149439479293445,-4.310698457871067,6.426315165916646,-6.563960318817747,2.846004036455706],[0.7462368679304625,10.628315628564774,1.5000361610801565,1.364099869072797],[3.6978344926596174]],"id":0,"number":559}
