{"architecture":{"NEURONS":[10,7,1],"LAYERS":3,"totalSynapses":77},"weights":[-4.3019130501627245,4.225118222509029,0.5876861454519606,-2.4810547134553143,-5.817696145872731,8.808843449512448,6.581564411181805,0.14802010524792542,2.830164931511684,-0.6010462127510934,2.1886755255133243,-2.761290373377002,10.04532729715788,6.083443662454711,-2.8461981384328556,-3.220641712770052,-7.032778521062747,2.382863880496739,-9.273627437328027,-8.755758567581603,5.723040716868241,-2.0924395305475287,-1.7282914598223253,5.1853347845236675,-0.6157854838181663,-7.729345641719114,0.7492785602315641,3.0059875449001003,-1.2889572845785824,4.027510529367043,9.143169946750788,8.575277603031392,5.827605165169376,6.699186455656586,-9.159075454554893,6.161850630904919,4.028177604687315,5.382715236571291,5.715004602396708,-3.7452419129734063,3.284646588843695,-4.754916164636629,-5.701411644607174,1.8149416998347896,-6.533974082237336,1.680488000229286,-5.451454194104439,0.6676460020169337,4.281767158966863,4.02782397622269,0.32361777798871905,-7.445626977862557,7.9515808198738505,-5.996002518792616,-3.4242225613900934,-4.2903247219363925,-7.049593234925932,3.749956959497067,-1.6222876401284807,3.1576644545968455,-6.4875054237776615,-4.036781081870184,7.808088085446963,-8.772192273584311,-2.986674082955344,-0.7031352209282294,-4.944332333371873,3.075325049546863,8.256744302361664,-1.7456544329739474,-7.572532093464166,2.4269588216008215,-0.13249035489183328,-0.5802464924778735,7.364265605147324,5.107655900047145,-1.8687908152404955],"bias":[[-6.854386757247528,4.517277283413354,-6.1902177900826505,5.435350641262022,3.381204373831127,11.062084625071307,9.627068284487347,-5.752184512618532,6.522243483485562,0.9059469177221904],[0.21436567977988627,0.9708052694402525,-6.287952798715375,-9.245337892050369,1.3614158864463357,6.728532661899038,6.328455089252208],[-4.865624537081998]],"id":0,"number":56}
