{"architecture":{"NEURONS":[10,4,1],"LAYERS":3,"totalSynapses":44},"weights":[-4.541397750182375,-4.93585758157405,1.0403468728253829,-1.9126608507086762,9.599961355998795,-4.9108389597726765,5.7531295167706515,-2.3110528539357023,-8.824941523159307,0.30204358396165065,4.708270376896566,1.024515950263433,-2.342955107114518,-9.702049674102946,1.1922435199802113,7.7133710315873145,8.280364041602896,6.355462006898175,-1.6717525935694675,6.7572627672355345,8.360569811526677,5.268148054171794,7.571919830280562,3.4997182620500027,2.074729753708842,-3.8156847593913144,2.244399133344648,6.541283591073817,-3.0331420572955934,9.502114251845168,-8.182944502340973,-6.21249436723238,1.2377146039047162,-5.554267822974435,6.489151580707829,1.9950840375557106,2.281847930320347,-6.88343710848498,-8.473888711267598,-7.273229158505364,-8.878119672789996,-7.4445347611648405,7.058481102616993,-1.6838738461104994],"bias":[[-7.99913188913912,2.245017427634482,-9.638281380756686,-2.3935441495482417,1.3226340592766377,-5.089396513933451,-9.973513395492327,-7.812575741797655,-5.111157162573209,2.864770079170811],[-6.581426416799554,6.236178846942641,1.6758780832489932,0.5987348857304525],[4.7400436814264895]],"id":0,"number":56}
