{"architecture":{"NEURONS":[10,4,1],"LAYERS":3,"totalSynapses":44},"weights":[-5.599028115686314,-4.618405777392734,-0.5235777225943541,-2.048186796758345,8.616091314549461,-6.3954277686857814,4.552017783824476,-1.491874382132534,-5.812996093894451,0.8064753373790913,4.977137029401134,-0.7168891481950137,-3.01547036682663,-9.68750484141365,1.9105959174158533,6.832601909909642,6.920504617215866,6.20566152532481,-2.107983554152728,6.359722982507178,8.60722777280138,5.285493436809643,8.726769581664206,4.316877721467464,1.5512171283486114,-4.507590570504206,2.2728759525679703,6.24537155373982,-2.803149879021996,8.639802218594875,-8.587807169134987,-5.824379871033924,-0.2510862450452188,-6.133300262041946,7.710703739744313,1.7461651020316322,2.841031140670842,-5.557372842456101,-9.482880789140083,-3.4333031444052162,-10.016673451863424,-8.125255801371564,-2.457369713897152,-1.274612472792214],"bias":[[9.263087380575879,2.4270872537375237,-2.384731651081419,-2.2095747048362115,0.7608674130996577,-6.170060435796188,-4.542941286353762,6.676916733578333,-6.782139989376695,2.9586113320925986],[0.7999748144574116,10.690518798853626,1.753474697856214,1.7733286130306325],[3.4880791153180795]],"id":0,"number":560}
