{"architecture":{"NEURONS":[10,4,1],"LAYERS":3,"totalSynapses":44},"weights":[-5.477888521732086,-4.918786445148517,-0.2847681078482216,-1.6461191837449312,8.616091314549461,-6.05047214982841,4.358587888656115,-1.491874382132534,-5.768666481127358,0.7306632369681884,4.909507705501015,-0.7168891481950137,-3.01547036682663,-9.976276348327122,2.2294949480371495,6.832601909909642,7.275749159700081,6.852840330763754,-2.340019636299357,6.30436477799893,8.673303385980697,5.784473785327679,8.904178874179218,4.333768946431484,1.325778068573699,-4.507590570504206,2.4403727604183696,6.24537155373982,-2.3067470972575297,9.50976923241883,-8.587807169134987,-5.824379871033924,-0.15973174469216497,-6.165498627607596,7.710703739744313,2.166472091661231,2.2802302211341456,-5.557372842456101,-8.789072230988731,-3.5828924552968258,-9.48429576498374,-8.125255801371564,-2.2830424871946557,-1.274612472792214],"bias":[[9.45845216375063,2.4270872537375237,-2.384731651081419,-2.2095747048362115,0.542325468766703,-6.170060435796188,-4.443676385368505,6.676916733578333,-9.748602780292766,2.7290892527666983],[0.7831268572909422,10.690518798853626,1.5469840595234394,1.364099869072797],[3.6978344926596174]],"id":0,"number":561}
