{"architecture":{"NEURONS":[10,4,1],"LAYERS":3,"totalSynapses":44},"weights":[-5.477888521732086,-4.618405777392734,-0.8323162978016825,-2.048186796758345,8.616091314549461,-6.561002484727608,4.552017783824476,-1.491874382132534,-5.768666481127358,0.3041508860382179,4.977137029401134,-1.0560126519382627,-3.287040060195184,-9.976276348327122,1.9105959174158533,7.022876178978874,7.209881068170596,6.597205398170383,-2.107983554152728,6.359722982507178,8.80772000068325,5.285493436809643,8.73458877049046,4.333768946431484,1.3547738493947532,-4.391755508827671,2.6354836577773373,6.24537155373982,-2.3067470972575297,9.50976923241883,-8.616881119281814,-5.824379871033924,-0.2657503680817836,-6.165498627607596,7.528225053947762,1.942044212768802,2.509395442472353,-5.557372842456101,-8.789072230988731,-3.4220896013458932,-9.48429576498374,-8.125255801371564,-2.2830424871946557,-1.274612472792214],"bias":[[9.45845216375063,1.7617088273080117,-2.384731651081419,-2.2095747048362115,0.7608674130996577,-6.134308347475735,-4.542941286353762,6.354992598290153,-9.748602780292766,2.834448632104961],[-2.7029431248061853,10.690518798853626,1.5000361610801565,1.364099869072797],[3.725613968301458]],"id":0,"number":562}
