{"architecture":{"NEURONS":[10,4,1],"LAYERS":3,"totalSynapses":44},"weights":[-5.596863550430374,-4.618405777392734,-0.2847681078482216,-2.008528989713767,8.616091314549461,-6.05047214982841,4.358587888656115,-1.491874382132534,-5.768666481127358,0.7306632369681884,4.909507705501015,-0.7168891481950137,-3.287040060195184,-9.976276348327122,2.2294949480371495,6.832601909909642,7.275749159700081,6.573414704733156,-2.340019636299357,6.30436477799893,8.673303385980697,5.784473785327679,8.767342648058536,4.373560626718008,1.0838036551230235,-4.507590570504206,2.4403727604183696,6.24537155373982,-2.803149879021996,9.50976923241883,-8.42195606442898,-5.824379871033924,-0.15973174469216497,-6.165498627607596,7.710703739744313,2.201988250583314,2.2802302211341456,-5.666096996253266,-8.789072230988731,-3.5828924552968258,-8.999618036307117,-8.125255801371564,-2.2830424871946557,-1.1067709590160464],"bias":[[9.45845216375063,2.4270872537375237,-2.384731651081419,-2.2180561409152832,0.9434711729653396,-6.170060435796188,-4.584139853134771,6.676916733578333,-6.135712021977468,2.7290892527666983],[0.7831268572909422,10.239456201640868,1.812219572123845,1.364099869072797],[3.649188429376243]],"id":0,"number":563}
