{"architecture":{"NEURONS":[10,4,1],"LAYERS":3,"totalSynapses":44},"weights":[-5.477888521732086,-4.618405777392734,-0.2847681078482216,-1.6461191837449312,8.616091314549461,-6.05047214982841,4.358587888656115,-1.491874382132534,-5.768666481127358,0.38256798347336585,4.9548723387651705,-0.7168891481950137,-3.01547036682663,-9.864404543862026,1.9105959174158533,6.832601909909642,7.275749159700081,6.591854283516955,-2.340019636299357,6.30436477799893,8.465076334918024,5.784473785327679,9.03647914415971,4.333768946431484,1.3609038999836114,-4.593810983284309,1.8697121290351275,6.24537155373982,-2.8768267482877117,9.50976923241883,-8.226283937508963,-5.824379871033924,-0.2510862450452188,-6.095196473265576,7.440531548205806,1.8291893891714723,2.2802302211341456,-5.557372842456101,-9.375154509719936,-3.4423763530120555,-9.48429576498374,-8.125255801371564,-2.457369713897152,-1.4012568083316084],"bias":[[9.45845216375063,1.970565811759251,-2.3778528691050154,-2.2095747048362115,1.5523859046886463,-6.096820318969123,-4.542941286353762,6.444925727296473,-9.748602780292766,2.846004036455706],[1.4214996615242736,10.690518798853626,1.5469840595234394,1.364099869072797],[3.6978344926596174]],"id":0,"number":564}
