{"architecture":{"NEURONS":[10,7,1],"LAYERS":3,"totalSynapses":77},"weights":[-5.052950949683143,3.989872643133081,0.8550673131239638,-2.683562756377259,-7.135959741020853,9.508803343940855,5.969119933534399,0.6792900731160947,2.948936008467037,-0.02342732023069588,2.2090618042881167,-3.9867075262313088,7.744966392597467,6.423774777567535,-2.2522369021896984,-2.1663840903490157,-5.653755462165634,3.5433920635524703,-11.215300355441405,-10.320761565363238,6.1480814619150115,-1.45169763561689,-3.6314099275889324,4.887485691647947,-0.9873232707136829,-6.8077317433251725,0.5098634905915782,4.9965513182831645,0.10706789882167542,3.6397258525684135,8.644785026479477,7.0011977799232685,5.417558800103316,6.9612748307000825,-7.549541097391639,5.01371342712408,3.362098151150498,5.393263037027303,6.532530339533429,-3.6247488729040005,4.738453562280474,-4.358378394593845,-5.994672026257357,0.5821577985779878,-5.754532482793747,3.412126652627498,-3.7558518925478546,-0.4865043968426953,5.090145981703565,5.5741946344686655,1.2735544859047274,-7.553245880876868,7.892185739554857,-6.09557105049277,-2.8821667125771855,-5.63282515891669,-5.960338170427694,3.7598345023374167,-1.6121060678773829,3.823410910470012,-7.79969441069782,-3.073285888776557,6.979343472015882,-9.363297647111342,-3.553865677011497,-2.158741035698631,-4.544003627423783,2.9847081769182826,7.8944864451707435,-1.0775528261447884,-4.288680320368534,4.536335020649577,1.1463321545792988,0.5832358809039615,7.251091894345013,5.3876324994673075,-1.4922798298676072],"bias":[[-9.531897415322211,4.33733702912579,-5.191408331137078,5.164429241414034,3.5238214303719757,8.867672309799154,7.1455041395479455,-5.606133859335901,6.609725972777684,0.16061452219329642],[-1.9750012757032893,0.39428517336880464,-5.136102678856332,-10.103607373917852,-0.14877458378176822,7.172915811781881,8.470528541675375],[-5.065270395306759]],"id":0,"number":57}
