{"architecture":{"NEURONS":[10,4,1],"LAYERS":3,"totalSynapses":44},"weights":[-4.9495115555557385,-5.004859017507025,0.7897234561318145,-1.8790420360856679,9.307374951849688,-4.8694796971202745,5.7531295167706515,-1.9076229427351468,-5.345882538531171,0.30204358396165065,4.639139470053844,0.332130123683022,-2.6059693309427203,-9.991581582092635,1.1922435199802113,7.941492711974908,7.479892832361097,6.355462006898175,-2.2651339662326744,6.453457326596539,8.332955169500634,5.2448909508439385,7.617127408506445,3.4134337450550096,1.9198265358177649,-4.042435328918514,2.400294419636099,6.277291534183471,-3.3320176249233326,9.147759972027393,-7.868134781650866,-6.18384068201453,0.30239265767731177,-5.554267822974435,6.612745139950867,1.5608720931329998,2.1329331778163034,-6.667724624590228,-8.772869227548155,-3.939371868845593,-9.093106316232712,-8.510130672163687,6.688264667597588,-1.3217811118158258],"bias":[[-8.646579772067101,2.2953302881300672,-9.73492784284257,-2.1893543124661687,1.8679960742420816,-4.904643932809511,-9.91867120468144,-8.063271203542548,-1.939096282499726,2.428688466696591],[-6.605435284245827,6.197188109913626,1.5403513395065875,0.9545290421615455],[5.0482909283572495]],"id":0,"number":57}
