{"architecture":{"NEURONS":[10,7,1],"LAYERS":3,"totalSynapses":77},"weights":[-4.80365702260515,4.805247957456637,0.009830847042774718,-4.513458309538418,-5.347477641590925,9.22466264955685,5.757792285296971,0.9546696335958527,2.0716484022408976,-1.710980322456436,1.2578893792013985,-2.9943430551572523,6.90071441730788,7.239589308012487,-1.6292670084139296,-2.7431243708248387,-6.487298146265552,4.8434721877943305,-9.806417598639625,-9.4739831326155,5.857349074823533,-1.3140858819419325,-2.337967194224907,7.006033517372707,0.08205330488446066,-6.741268792865283,0.46520630022903803,6.0736478280925335,-2.399692806174754,3.823450882067205,9.766892668254616,8.787159410209282,6.3022446459185,6.436699886244282,-9.982589245038465,4.511080196973438,5.041950509046344,4.771233461383232,5.476086141852035,-3.5798405200949936,3.7612267262537165,-5.483345542733677,-6.228044436677344,2.462376273029945,-6.420568231112493,3.7415428349286803,-4.093083959715108,-0.1829595380608363,2.7186122556191714,6.333185023135336,0.776298391470528,-8.351123133888086,7.231370592094304,-5.952908245500596,-3.6654339407226986,-4.836141341596995,-5.690208758654701,3.0850206627857055,0.2164320011845025,3.4650080081031676,-6.738248290476963,-3.894441718334746,6.482730824262341,-9.845177126320925,-3.402823925080361,-1.7934013756281069,-3.644458566694696,4.18295762594477,7.798997638282613,-0.6435858096210094,-5.983854779423211,4.416160509026645,0.2156149463422213,-1.6238664163913832,6.158223461228459,5.155256346858218,-0.43069315726601165],"bias":[[-6.403474689608206,4.672462014318399,-5.218784515572551,4.952872519838076,1.7845297428630003,7.927887931567683,8.339410093123893,-6.679123208984154,6.309828281825032,1.1400982682903458],[-0.13406223896145963,1.3135290277670892,-4.36130905946276,-6.9946205483036215,2.315691119633051,6.659189464452265,7.567374090278545],[-5.143009854987072]],"id":0,"number":58}
