{"architecture":{"NEURONS":[10,4,1],"LAYERS":3,"totalSynapses":44},"weights":[-4.541397750182375,-5.488381565258239,1.0621367256607406,-2.152085160645853,9.450506657705729,-4.633074228305056,5.921455016371101,-1.1380987543539653,-5.345882538531171,0.30204358396165065,4.816149801451486,0.1889198984025927,-2.951466672625162,-9.596681578799538,1.1922435199802113,7.941492711974908,7.296617995112845,6.511889639573889,-1.7360023092725463,6.624785308091434,8.361106238856198,5.01036781099028,7.677253220137989,3.5722285386199637,1.7977486421063948,-4.3943317206347885,1.9824081923335466,6.541283591073817,-3.6327321102772108,9.444814128080845,-7.868134781650866,-6.231854462400097,0.7974191182784598,-5.120747103402587,6.592897665643293,1.3740122555667102,2.404073207979826,-6.974894767129762,-8.597204469769023,-3.5576873268582343,-8.664667479366054,-7.834790468868234,6.9317897378309485,-1.9467716776567054],"bias":[[-8.761035630173263,2.194726609579458,-9.688221089447243,-2.21069342260894,1.3226340592766377,-5.360149214721321,-9.91867120468144,-7.947018654848981,-5.462623534808398,2.6029566170684806],[-7.192084991397948,6.097062540440213,1.6758780832489932,0.9545290421615455],[4.7063660067435915]],"id":0,"number":58}
