{"architecture":{"NEURONS":[10,4,1],"LAYERS":3,"totalSynapses":44},"weights":[-5.031795723416512,-4.868710837820086,1.0403468728253829,-1.7316233653899213,9.599961355998795,-4.698315626258505,5.493369722806542,-1.5010401036143446,-8.405539923231963,0.30204358396165065,4.7581693210925575,0.42273350242791174,-2.2790961851962397,-9.68042127566567,0.7728705980136787,7.5978376554639055,8.280364041602896,6.834226888980992,-1.6717525935694675,6.7572627672355345,8.627702097828347,5.2448909508439385,7.941118957786577,3.4997182620500027,2.3390227184762664,-4.056943707128086,2.4684404115260463,6.454642252991993,-3.0331420572955934,9.147759972027393,-7.751565148572704,-6.315375920472303,0.6487881360821467,-5.554267822974435,6.694191029019084,1.2286268287688658,2.3887674513547386,-6.813757649441992,-8.473888711267598,-7.252084263256594,-8.878119672789996,-7.713806512463143,-1.0826489654610396,-1.4762829088891587],"bias":[[-8.625926697232106,2.245017427634482,-9.638281380756686,-2.0042077635295406,1.0061117491801115,-5.393459073442462,-10.069087874439507,-7.812575741797655,-5.5943622987617845,3.092501072570212],[-6.7672952264587405,6.319568422239711,1.6758780832489932,0.7711807609742698],[4.634124660438297]],"id":0,"number":59}
