{"architecture":{"NEURONS":[10,7,1],"LAYERS":3,"totalSynapses":77},"weights":[6.3121693021045555,-4.684414826803332,1.1157942334144637,-1.114792113013336,8.488249212641612,3.30555925098665,9.310626242047476,3.9210106259160202,-8.242065171786699,3.219282455328268,-6.710598207691444,1.9293805926329253,7.532266302561569,-3.161508192079868,6.756375935735128,-8.771848607727913,-1.8334300491504776,4.323615842259599,-0.30718534516675333,0.9085467916373905,1.3306021148706746,8.786614018556978,-8.83141040018529,-9.916038718864032,3.1491542090165985,-2.0764923432460685,4.114546401234017,-3.393995110343634,-6.665011554775306,11.509923200749128,-4.905098530592409,10.554535691994898,-5.217072121688367,-1.1411441496470263,6.476229881175868,-10.17042450528061,-9.874523445526242,8.772417792073714,-6.361743606213751,4.204294928883883,-2.1187522669877135,4.387094844620681,6.065451562375168,0.8686693644042386,-4.951811568747008,-4.092734519730182,-0.6687815818841893,-1.5653333972283365,10.325209963008788,0.7196919379922033,-10.593356111143196,-10.279678428127422,-3.572221623359261,-2.372315801769624,6.158079548578746,6.511082081510791,-6.835416071353414,6.9171760476198845,1.2090697521378897,-7.433108286920744,0.6825951603546856,4.620008535078924,-4.223847726769369,-7.043734558364649,7.421598359740533,0.1930402539190963,2.9821560387261568,-2.9725320200141176,3.6456202887634914,-6.50998285739351,-8.623733878256768,-5.8959944805511215,3.1003082984919272,-4.301731580732114,-1.8442937218317466,1.4853421233360438,-4.080599806983505],"bias":[[-8.206338468554602,9.73493287089971,-8.796159091262165,-5.647878890825193,3.2719133552544086,8.74932012278784,5.6565010348811935,3.568304899289458,4.049923485070459,6.173242891043428],[9.587582433995177,-1.3564459786506387,-0.27000104528796603,6.731736599277441,-9.057013259501362,1.6406855621402734,-12.958299817254492],[-6.405802751484897]],"id":0,"number":6}
