{"architecture":{"NEURONS":[10,7,1],"LAYERS":3,"totalSynapses":77},"weights":[5.5445666581376525,1.8920972537736744,-1.432115655842619,8.47278860542086,-8.586937441727276,6.570213035194316,-1.9810274902677996,-4.670236466665912,9.749980475650222,0.37164259779827613,-1.9308362967122514,-5.521231166795221,-7.731514652187341,1.679699162210969,1.5393289627885434,-4.678656809576666,-6.578422916464412,0.7236259146333622,7.686824733691692,-6.116608649626412,6.644458503952227,1.9056729635482972,-6.289554515192433,4.507986095663863,6.850036475620967,-2.360327166889117,6.043686121887279,-10.097258445055154,5.323471950835658,-2.358542134301412,2.4236398229299705,-5.833925568524241,8.844282857469095,7.117792552959065,3.8234413804630307,0.64184594385103,8.765758132607395,9.8193788601932,-6.1287770811277245,6.267428456063865,-6.541047043837427,-7.921492403248525,9.207025409852712,3.27853052220925,-3.6177475939651162,2.831794171392766,-3.6632195944300374,9.825662605618565,-0.6091351085465821,-3.9790219136520153,1.3345243670392373,5.911804737083097,-7.824465798771416,0.7049497623535417,6.674127646516176,-5.452470477802488,-5.114609769517606,8.917665129857532,-0.042293440304893765,-2.7087455918024808,8.307542881623144,0.9259280339583447,8.695739640483374,2.1919913901778276,-4.533806390975971,0.4333478459716732,7.482397489017224,-6.480856197058893,0.18605246909621806,-6.03975281035997,7.711134932319573,3.3915824173041713,-2.22053329054384,1.1552482243758746,-2.4038165887438794,-4.901291229039426,1.1888395312379338],"bias":[[-7.73762481620175,-3.561405701985532,-6.824173557898394,-7.107616641370234,-0.36598610947417876,-9.120800024174374,-4.610560495182534,1.786511672606649,-2.9036492079156133,-0.3631792791911284],[5.196620390640444,6.027555688966246,8.164474965162594,-8.23725206730751,5.189607043397443,-5.9158633148205775,0.5144588330549104],[-3.393504296955064]],"id":0,"number":6}
