{"architecture":{"NEURONS":[10,7,1],"LAYERS":3,"totalSynapses":77},"weights":[-3.692518265535984,4.1485712041876885,1.4255233167175791,-2.3224416730838238,-6.097974905385249,9.126359261154745,6.038572939187872,0.653065060776312,2.5709350996809235,-0.6731361356919922,2.2541574044062718,-2.8762138024168893,8.962474255531184,6.397516354155614,-2.2770146913911056,-2.5272428831495564,-7.008984402099487,3.8698027462641056,-9.823579416649821,-9.037900826615548,6.132801228046599,-1.3523441070325353,-2.1531858566467497,5.885094403872836,-0.853274600412111,-7.073919004024678,0.33598442862926325,4.309358874745296,-0.9483803633884138,3.9050227619487026,8.967392839557473,7.5954840861984465,4.752961343417525,6.987729209001316,-9.324603505377777,4.945350383959881,3.7849114249766567,4.760497284675963,5.980160283453501,-2.898040931271436,4.975085889001827,-4.933737676215723,-5.961025740381012,2.5563316321694853,-6.542109276328549,3.387461693667048,-3.889896817882539,-0.020971996158145628,3.140652636177194,6.410148243909532,1.9454259845973716,-8.03039919058892,7.322008935820685,-5.537318553798072,-3.632435936890309,-5.774766908755926,-6.078724257911241,3.7775219668336377,-1.0634779760802417,3.772391959178335,-6.6365697538959685,-3.7218315340741994,6.828351908069713,-9.236262845021866,-3.8451478205681435,-2.8916111299072993,-5.163419955650793,3.425814635212789,8.139453529733425,-0.7018290888716462,-6.038351382440735,4.228118834973093,0.5466033932913754,-0.2289737761166825,7.329077097821218,5.213726010316627,-1.3752900652902114],"bias":[[-8.577035630401205,5.206861287157536,-4.6385794823694555,4.724601322002661,2.5805621288894183,8.365593284971817,8.12877581081194,-6.453077980675939,6.8561603199848475,-0.20970921376384105],[-1.1319570489675272,0.5211142377127852,-4.861967302800256,-8.562236037213596,0.6092985060471834,6.363990040584096,7.211571524210871],[-5.32295588094906]],"id":0,"number":6}
