{"architecture":{"NEURONS":[10,4,1],"LAYERS":3,"totalSynapses":44},"weights":[-4.686400836540078,-4.93585758157405,0.7897234561318145,-2.152085160645853,9.307374951849688,-4.8694796971202745,5.7531295167706515,-1.9076229427351468,-8.824941523159307,0.30204358396165065,4.4551217547309525,0.42273350242791174,-2.6059693309427203,-9.991581582092635,1.1922435199802113,7.941492711974908,7.479892832361097,6.355462006898175,-1.0746786700124376,6.723782982309911,8.332955169500634,5.268148054171794,7.617127408506445,3.5722285386199637,1.9198265358177649,-4.042435328918514,2.6296969148700247,6.541283591073817,-3.3320176249233326,9.147759972027393,-7.58483284459329,-6.18384068201453,0.30239265767731177,-5.554267822974435,6.612745139950867,1.5608720931329998,2.1329331778163034,-6.667724624590228,-8.597204469769023,-3.671397739445144,-9.093106316232712,-7.4445347611648405,6.688264667597588,-1.8133625807485914],"bias":[[-8.646579772067101,2.2953302881300672,-9.638281380756686,-2.1893543124661687,1.4729381078269224,-4.904643932809511,-9.729628023284,-8.063271203542548,-2.0220787112702516,3.0341669288825113],[-7.192084991397948,6.236178846942641,1.5403513395065875,0.6678721539948984],[5.586299337755084]],"id":0,"number":60}
