{"architecture":{"NEURONS":[10,4,1],"LAYERS":3,"totalSynapses":44},"weights":[-5.467418890214561,-4.93585758157405,0.6939443726657817,-2.152085160645853,9.45806736705668,-4.698315626258505,5.720417996395666,-1.5010401036143446,-8.345682289884484,0.30204358396165065,4.708270376896566,0.42273350242791174,-2.8314544540747137,-9.68042127566567,1.1922435199802113,7.941492711974908,7.479892832361097,6.233823279475652,-1.532471840921595,6.7572627672355345,8.487163752574167,5.2448909508439385,7.6963517536085595,3.114808474331977,2.900372847959902,-4.056943707128086,2.4684404115260463,6.541283591073817,-3.3320176249233326,9.147759972027393,-7.868134781650866,-6.286930180745429,0.9915888384396849,-5.554267822974435,6.612745139950867,1.5608720931329998,2.190977660519138,-7.152030219944778,-8.392282116477885,-3.939371868845593,-8.878119672789996,-7.819150754825808,7.13820796036752,-1.7852821208441683],"bias":[[-8.625926697232106,2.4556500031807458,-10.103324644063147,-2.3935441495482417,1.4488960714671606,-5.393459073442462,-10.069087874439507,-8.049098990954645,-1.939096282499726,2.9387931116759454],[-6.7672952264587405,6.236178846942641,1.9161361108809167,0.6678721539948984],[4.7400436814264895]],"id":0,"number":61}
