{"architecture":{"NEURONS":[10,4,1],"LAYERS":3,"totalSynapses":44},"weights":[-4.307958885627373,-4.960088156672566,0.7325795191430835,-2.4514806341615727,9.45806736705668,-4.625485479721743,5.720417996395666,-1.6536713085295092,-5.760947585402627,0.4883954339811386,4.639139470053844,0.3330550774447679,-2.8314544540747137,-9.58189285422599,1.1922435199802113,8.057722165120712,7.479892832361097,6.588609892814013,-1.9065966429782588,6.453457326596539,8.81266053588898,5.01036781099028,7.677253220137989,3.5722285386199637,1.7977486421063948,-4.005388511750406,2.6296969148700247,6.541283591073817,-3.6708795441431272,9.147759972027393,-7.868134781650866,-6.457052073079626,0.6487881360821467,-5.8523154181537365,6.606132360122797,1.5608720931329998,3.078595935307911,-6.678429658276081,-9.038115229672746,-3.372930663638335,-8.746181643986613,-8.200285005369603,-1.236111253626187,-1.8133625807485914],"bias":[[-8.646579772067101,2.194726609579458,-9.55029954606994,-2.065282087737244,1.380349195279781,-5.216371523647865,-9.451139456643814,-8.142648522727962,-5.562412956858572,2.9387931116759454],[-7.192084991397948,6.31210663927828,1.676083549099506,0.5865095154775758],[4.642783713293982]],"id":0,"number":62}
