{"architecture":{"NEURONS":[10,4,1],"LAYERS":3,"totalSynapses":44},"weights":[-4.686400836540078,-5.171654209885907,0.7897234561318145,-2.152085160645853,9.307374951849688,-4.698315626258505,5.7531295167706515,-1.5010401036143446,-5.345882538531171,0.30204358396165065,4.639139470053844,0.42273350242791174,-2.754576262203715,-9.991581582092635,1.1922435199802113,7.5978376554639055,7.479892832361097,6.528545579580549,-1.1843959269442,6.71648210685073,8.361106238856198,5.0189566282140765,7.941118957786577,3.3371381790950294,1.9392552084534795,-4.042435328918514,2.6296969148700247,6.541283591073817,-3.6327321102772108,9.147759972027393,-7.957531040167202,-6.18384068201453,0.761033975738669,-5.554267822974435,6.612745139950867,1.1639945839476395,2.3887674513547386,-6.667724624590228,-8.800686527544906,-7.252084263256594,-9.093106316232712,-7.9016292927071685,6.688264667597588,-1.8133625807485914],"bias":[[-8.646579772067101,2.2953302881300672,-9.638281380756686,-2.1893543124661687,1.1792677718764029,-4.904643932809511,-9.729628023284,-8.063271203542548,-2.0220787112702516,3.0341669288825113],[-6.7672952264587405,6.319568422239711,1.6758780832489932,0.6678721539948984],[5.586299337755084]],"id":0,"number":63}
