{"architecture":{"NEURONS":[10,4,1],"LAYERS":3,"totalSynapses":44},"weights":[-4.739857813440466,-5.60477393161502,1.0746766192520918,-2.152085160645853,9.204221307607243,-4.830377678450339,6.057825504516314,-0.9082769098096062,-5.255819951730981,0.457617429375883,4.700116920974331,0.15599381125259287,-2.9399026449395387,-9.596681578799538,1.1922435199802113,7.941492711974908,7.296617995112845,6.511889639573889,-1.7360023092725463,6.624785308091434,8.361106238856198,4.925599020915762,7.677253220137989,3.5722285386199637,1.7977486421063948,-4.330353377017701,1.9824081923335466,6.475541317484662,-3.343750875048615,9.444814128080845,-8.084774065062595,-6.256761258124632,0.8523178075664869,-5.366750306353979,6.592897665643293,1.3740122555667102,2.491117538001057,-6.706667110291452,-8.597204469769023,-3.7274749246829333,-8.963167063765042,-7.834790468868234,7.084314515791336,-1.9467716776567054],"bias":[[-8.805548782848579,2.194726609579458,-9.688221089447243,-1.9878189791473981,1.3226340592766377,-5.360149214721321,-10.120257154770393,-7.947018654848981,-5.542884094626314,2.6029566170684806],[-6.831826589065148,6.097062540440213,1.8759563467759208,0.9545290421615455],[4.259306307918056]],"id":0,"number":64}
