{"architecture":{"NEURONS":[10,4,1],"LAYERS":3,"totalSynapses":44},"weights":[-4.541397750182375,-4.93585758157405,0.7909150023131007,-2.146873150705652,9.45806736705668,-4.424493911262266,5.737322212837023,-1.5491024527625863,-5.345882538531171,0.30204358396165065,4.4551217547309525,0.4189591380203092,-2.8314544540747137,-9.535764707798633,0.7728705980136787,7.7133710315873145,8.096097236024757,6.528545579580549,-1.0746786700124376,6.7572627672355345,8.371293268747193,5.01036781099028,7.941118957786577,2.6638736269110455,2.4507781513598808,-4.056943707128086,2.600950116621881,6.322394236939331,-3.3320176249233326,9.147759972027393,-7.732589952428531,-6.365754460520521,1.003744300482987,-5.8523154181537365,6.589067631346584,1.1639945839476395,2.3887674513547386,-6.792168399980436,-8.484208588252576,-7.396738522960781,-8.878119672789996,-7.834790468868234,7.04191912511645,-2.0107517595021083],"bias":[[-8.625926697232106,2.194726609579458,-9.638281380756686,-2.065282087737244,1.3311489911721885,-4.904643932809511,-9.729628023284,-8.049098990954645,-2.0835883450719335,3.8156538696142124],[-6.7672952264587405,6.410829145859699,1.5403513395065875,0.8898987662155876],[4.753767578796314]],"id":0,"number":65}
