{"architecture":{"NEURONS":[10,4,1],"LAYERS":3,"totalSynapses":44},"weights":[-4.686400836540078,-4.93585758157405,1.0746766192520918,-2.6457334939894626,9.204221307607243,-4.346773169459374,5.525424068986513,-0.9082769098096062,-5.255819951730981,0.4883954339811386,4.708270376896566,0.15599381125259287,-2.6059693309427203,-9.596681578799538,1.1922435199802113,7.863489580527055,7.296617995112845,6.511889639573889,-1.7360023092725463,6.723782982309911,8.361106238856198,5.374761008332183,7.6963517536085595,3.689737726939927,2.3390227184762664,-4.005388511750406,1.9824081923335466,6.475541317484662,-3.571844380781657,9.147759972027393,-8.084774065062595,-6.256761258124632,0.30239265767731177,-5.7260382288055105,6.694191029019084,1.2286268287688658,2.491117538001057,-6.792168399980436,-8.597204469769023,-3.4095128426667536,-8.878119672789996,-7.567017182608321,7.13820796036752,-1.6838738461104994],"bias":[[-8.625926697232106,2.2953302881300672,-9.638281380756686,-2.065282087737244,1.3226340592766377,-5.216371523647865,-9.936520822206589,-7.440436252634433,-1.939096282499726,2.6029566170684806],[-6.7672952264587405,6.100324803961259,1.8759563467759208,0.7711807609742698],[4.7063660067435915]],"id":0,"number":66}
