{"architecture":{"NEURONS":[10,4,1],"LAYERS":3,"totalSynapses":44},"weights":[-4.441440384217214,-5.004859017507025,0.8237318793897105,-2.0022826744376996,9.45806736705668,-4.625485479721743,5.921455016371101,-1.5491024527625863,-5.345882538531171,0.36882420584529535,4.708270376896566,0.32751779067170805,-2.754576262203715,-9.535764707798633,1.1922435199802113,7.863489580527055,7.479892832361097,6.834226888980992,-1.0746786700124376,6.71648210685073,8.361106238856198,5.01036781099028,7.941118957786577,3.689737726939927,2.4507781513598808,-4.330353377017701,2.4404356613314806,6.463203205186385,-3.6327321102772108,9.147759972027393,-7.406735970237826,-6.18384068201453,0.30239265767731177,-5.366750306353979,6.7937381713384495,1.1639945839476395,1.9360281549179597,-6.88343710848498,-8.568516823488562,-7.252084263256594,-9.192894808546885,-8.200285005369603,7.04191912511645,-2.0107517595021083],"bias":[[-8.805548782848579,2.4556500031807458,-9.688221089447243,-2.1893543124661687,1.3226340592766377,-5.360149214721321,-9.936520822206589,-7.812575741797655,-5.562412956858572,2.9387931116759454],[-6.687732966947129,6.100324803961259,1.3882948564029989,0.7711807609742698],[4.753767578796314]],"id":0,"number":67}
