{"architecture":{"NEURONS":[10,4,1],"LAYERS":3,"totalSynapses":44},"weights":[-4.638132430259867,-5.171654209885907,0.7894589089613125,-2.152085160645853,9.450506657705729,-4.625485479721743,5.974384311672709,-1.5234051409051907,-8.345682289884484,0.30204358396165065,4.816149801451486,0.42273350242791174,-2.951466672625162,-9.68042127566567,0.9524682925953831,7.941492711974908,7.296617995112845,6.355462006898175,-1.9065966429782588,6.624785308091434,8.361106238856198,5.374761008332183,7.941118957786577,3.5722285386199637,1.7977486421063948,-4.042435328918514,2.6296969148700247,6.541283591073817,-3.6327321102772108,9.444814128080845,-7.976220216789695,-6.256761258124632,0.6487881360821467,-5.8523154181537365,6.592897665643293,0.7999693576268857,2.190977660519138,-6.792168399980436,-8.392282116477885,-3.7274749246829333,-9.192894808546885,-7.834790468868234,6.9317897378309485,-2.0107517595021083],"bias":[[-8.625926697232106,2.194726609579458,-9.638281380756686,-2.241122280084694,1.3226340592766377,-5.349598414370695,-9.729628023284,-8.142648522727962,-5.542884094626314,2.6029566170684806],[-6.831826589065148,6.730153056735885,1.8759563467759208,0.6678721539948984],[4.7400436814264895]],"id":0,"number":68}
