{"architecture":{"NEURONS":[10,4,1],"LAYERS":3,"totalSynapses":44},"weights":[-5.467418890214561,-5.004859017507025,0.6939443726657817,-2.152085160645853,9.45806736705668,-4.633074228305056,5.634980196037224,-1.5491024527625863,-5.345882538531171,0.30204358396165065,4.708270376896566,0.42273350242791174,-2.81621662368109,-9.232201696406939,1.1922435199802113,7.941492711974908,8.475569743297367,6.355462006898175,-1.0746786700124376,6.709322967960947,7.8964229576172205,4.860814284741504,7.6963517536085595,3.936830740973333,2.900372847959902,-4.056943707128086,2.400294419636099,6.541283591073817,-3.6327321102772108,8.84957921024972,-7.58483284459329,-6.231854462400097,0.6487881360821467,-5.554267822974435,6.7937381713384495,1.2570924872781009,2.3887674513547386,-6.667724624590228,-8.392282116477885,-3.939371868845593,-8.878119672789996,-7.834790468868234,-1.236111253626187,-1.9467716776567054],"bias":[[-8.625926697232106,2.194726609579458,-10.103324644063147,-2.765648062387659,1.2385441635802679,-5.393459073442462,-9.936520822206589,-7.843442074785245,-2.080070629642879,2.9387931116759454],[-6.8951213642014775,6.097062540440213,1.9161361108809167,0.9545290421615455],[4.702563164150654]],"id":0,"number":69}
