{"architecture":{"NEURONS":[10,7,1],"LAYERS":3,"totalSynapses":77},"weights":[7.227746959359459,-5.134218354677234,1.3151621363443489,-1.4078105641999772,7.903776476473644,3.428946738522188,9.978996242028652,3.7764620025131634,-8.62413968325535,4.128210165135501,-7.1889162707763195,2.669168511647435,7.10181502485436,-3.126286361056528,8.46255651107558,-8.201792906573846,-1.06553890787839,4.579649059748057,-0.4541696287927647,0.9062407558998564,1.403505744152833,8.605373871667336,-8.89477074594406,-9.556079475353318,2.734711079443272,-2.41445905893973,4.216373156168904,-2.8235067734746937,-7.650332820138342,11.616942156625317,-5.413735556620354,10.789836435914754,-5.796995161926343,-0.8033350280370031,6.198249583082838,-9.994763563693198,-9.937696512325205,8.646789998797109,-6.673409681500665,4.486725710598108,-1.6917539092989906,4.668494859875242,5.806409718209433,1.2907490799494372,-4.773074328197772,-3.5060257650717954,-0.6766420760220283,-1.1802505727998964,10.376386179328973,0.34699781692190346,-9.690762743725937,-9.700966829524175,-3.222436505269772,-2.4875525295020533,5.389924097410405,5.854758438244856,-6.348125160572545,6.6629526382552715,0.6827189520721828,-7.596380364294305,0.810929288623152,4.280428671644484,-3.9198180747918547,-6.323304378863928,7.712465608578182,0.39826257394713416,2.6249609516300803,-3.4289066980928773,3.920424283096255,-7.448025033015026,-7.630126435141192,-6.39567229410478,3.049106240735741,-4.541518585262606,-1.1053045046688181,2.386919541739582,-4.120187654600559],"bias":[[-8.95952490353697,10.077329526343352,-9.222415306989,-6.014715557112812,3.434335645176291,8.572431225654427,6.077647756136261,3.338256836647006,5.515864806573828,6.2878663328878295],[9.957988651260345,-1.9820377778732896,-0.8786948628559603,7.069758876145208,-9.035073252295517,2.7348519964405114,-13.208749050182934],[-6.0082226666946745]],"id":0,"number":7}
