{"architecture":{"NEURONS":[10,7,1],"LAYERS":3,"totalSynapses":77},"weights":[5.768295052958937,2.2421044598367357,-2.0430319003304653,8.562347838284124,-9.102562310764409,6.6118197563706484,-1.5254741758210055,-4.329874144884632,9.840986256311107,-0.026516226882589047,-2.7720229158833907,-5.373263145233251,-9.301169690711085,1.2080591078892622,1.016427570366788,-4.655233582076551,-6.750234752603474,0.38218470690175144,7.714730632870857,-6.543107041761154,7.295258102230414,2.8137395555483353,-6.612987545622745,4.423273169714317,6.037300685309314,-2.0851645873942353,6.1511143539239725,-9.737843897184042,5.82299033562896,-2.593496143927778,2.4677673742269595,-6.0868481815648074,9.166047307422355,7.23107816201169,3.8512038759208527,1.3192497677008523,8.919681276637867,9.892686945478355,-5.922104327975201,6.367521983904613,-7.162502623625595,-7.921492403248525,9.10156820220299,3.079282290905072,-3.686062310085647,2.694934328614966,-3.9126530740434844,9.84541517401621,-0.13177136451490734,-3.2792485314541677,1.8990757629183952,6.568099630687867,-7.524075408109305,0.6279833821390157,6.302040385777142,-6.228898520325615,-5.446779887630929,8.7001582609571,0.11048334849357924,-3.3467833792487665,7.911574083382747,1.0649001579716182,8.458440767191581,2.3655964305836004,-4.709495366664656,0.4927644595623221,7.505151086073331,-6.529370064685355,0.10387622750920518,-5.902105958790935,6.969441981769163,2.972838771473595,-2.4265841511412463,1.345730119764983,-2.1422673407044672,-4.944140979685353,1.0121549883592045],"bias":[[-7.37552108578066,-3.1296416488922025,-7.260217159088199,-7.001499058564365,0.05727571825819028,-9.084725407311613,-4.689488882445684,1.9325086634978226,-3.036188569212756,-0.025454086062330683],[4.972752391943485,5.837558706936906,7.890304503732956,-7.995399101527449,5.50808254516559,-6.623690996797238,0.6230754196126267],[-2.8399274742653082]],"id":0,"number":7}
