{"architecture":{"NEURONS":[10,7,1],"LAYERS":3,"totalSynapses":77},"weights":[-4.300276242302368,3.9562456744666856,1.388499311846419,-2.416030333446022,-5.898141437035427,9.719187836572958,5.828283442038249,-0.3341942561144218,2.430494694900941,-0.7486481861165353,2.141574626234415,-2.941510439125867,9.62249232997201,7.229860216895011,-2.531139798428987,-2.554572650288887,-8.119565005224745,3.466945052295806,-10.134343047983197,-9.784323403264084,5.983240763336466,-1.4903806586302775,-1.4616362545448502,5.962078958200571,-0.35478558975786995,-6.31122728106353,0.5996938961206565,3.4016115311902593,-1.3349247711171794,4.154613087377996,9.316826530403581,7.8529385464161425,4.62102320508538,6.589625250628006,-9.370900543443197,4.972518219005133,4.004259963590662,4.698469063076074,5.222673540955207,-1.9326698226756491,4.922072567815873,-5.66179637112658,-6.362693881046967,2.1996749734948935,-6.491558353255695,3.890719225999966,-4.381382094147536,0.11836413374512267,3.1240381932082553,5.641856690715884,1.9023358485267299,-7.920527009905856,7.61676020205347,-5.25487073957265,-3.2337150204462195,-5.343850373721706,-5.828825428704112,4.657044526846506,-1.0997175372100636,4.337237015548084,-6.847419592472285,-3.9218425836977753,6.962191294159613,-9.952750021229404,-3.79157907733064,-2.2487907265432447,-5.342457809974285,3.7923302176139946,8.350542609591194,-0.27418815882345404,-6.011297986580955,3.3059157072276335,1.4874501744137378,-1.1429258815933994,7.297156786714537,5.277822733844548,-1.768888515824303],"bias":[[-8.494163908551505,4.73135299653709,-5.382240000264819,4.361692600485151,2.721949849543578,8.498124459072828,7.966680905774484,-6.617724275827989,6.765543062050703,0.3678783514227625],[-1.3513333354296577,0.5140962002372067,-4.966284611914248,-8.43266573703175,0.364795446073341,5.9797786608530465,7.880218872924468],[-4.491576105650045]],"id":0,"number":7}
