{"architecture":{"NEURONS":[10,4,1],"LAYERS":3,"totalSynapses":44},"weights":[-5.7577479510989775,-5.1566731474988785,0.7325795191430835,-1.5067590773227484,9.240974075886136,-4.6300155428823935,5.899998164343579,-1.3954975028025824,-5.80311714012552,-0.09389468389182909,4.708270376896566,0.42273350242791174,-2.558515162437507,-9.702049674102946,1.1922435199802113,8.057722165120712,7.800875908015513,6.822798069635287,-1.7360023092725463,6.7572627672355345,8.490165300461314,4.818195081163993,7.771731066353908,3.5722285386199637,1.9978978553689493,-3.9535316548413917,2.4684404115260463,6.541283591073817,1.215711697192826,2.7224521357897418,-7.957531040167202,4.52736938264825,0.8421553878726407,-5.554267822974435,6.6811820446505985,1.3192503181469597,3.1474319164845896,-6.689976637295818,-8.516354952294646,-3.5877288026739063,-9.096055519004464,-7.735914990535486,6.760365419563164,-1.9577276198532125],"bias":[[-8.13366234820025,-2.1094426439824465,-9.638281380756686,-2.232100574296333,1.3311489911721885,-5.176203419913459,-10.110116573895821,-7.910820923819324,-5.628517174461151,2.9387931116759454],[-6.7672952264587405,6.31210663927828,1.5403513395065875,0.6548853468030558],[4.636143817749678]],"id":0,"number":7}
