{"architecture":{"NEURONS":[10,4,1],"LAYERS":3,"totalSynapses":44},"weights":[-4.541397750182375,-4.93585758157405,1.0746766192520918,-2.152085160645853,8.776791676742961,-4.625485479721743,6.057825504516314,-1.5491024527625863,-5.255819951730981,0.023841681873696063,4.700116920974331,0.42273350242791174,-3.3299501366158353,-9.702049674102946,1.1922435199802113,7.714979126778572,7.479892832361097,6.528545579580549,-1.7360023092725463,7.05215556744174,8.568559052628498,5.374761008332183,7.617127408506445,3.3371381790950294,2.3390227184762664,-4.042435328918514,2.400294419636099,6.541283591073817,-3.3620004825713883,9.2493865625113,-7.868134781650866,-6.159261057183396,0.30239265767731177,-5.74536879581133,6.694191029019084,1.2286268287688658,2.1323429120681783,-6.792168399980436,-8.800686527544906,-3.499389045720546,-9.518804787917613,-7.834790468868234,7.04191912511645,-1.9467716776567054],"bias":[[-8.646579772067101,2.4556500031807458,-9.638281380756686,-2.3031215790510653,1.3682617023715866,-5.089396513933451,-9.729628023284,-7.812575741797655,-1.939096282499726,2.6029566170684806],[-6.7672952264587405,6.730153056735885,1.9161361108809167,0.7711807609742698],[4.7400436814264895]],"id":0,"number":70}
