{"architecture":{"NEURONS":[10,4,1],"LAYERS":3,"totalSynapses":44},"weights":[-4.638132430259867,-5.004859017507025,0.6217960536330558,-2.152085160645853,9.552538632809135,-4.625485479721743,5.720417996395666,-0.9082769098096062,-5.4329949270239855,0.023841681873696063,4.708270376896566,0.42273350242791174,-2.951466672625162,-9.535764707798633,1.281183976457948,7.941492711974908,7.968946171878548,6.528545579580549,-1.0746786700124376,7.05215556744174,8.487163752574167,4.925599020915762,7.941118957786577,3.936830740973333,2.3390227184762664,-4.056943707128086,2.4490389841247544,6.541283591073817,-3.3320176249233326,8.84957921024972,-7.868134781650866,-6.159261057183396,0.6487881360821467,-5.173978076808093,7.173610983749906,1.2570924872781009,2.281847930320347,-6.88343710848498,-8.484208588252576,-3.499389045720546,-9.19086643245582,-7.834790468868234,7.13820796036752,-1.9467716776567054],"bias":[[-8.625926697232106,2.194726609579458,-9.638281380756686,-2.765648062387659,0.9409767927662664,-4.454584952226812,-9.783686118630927,-7.947018654848981,-2.25502002284939,2.674597101772855],[-6.8951213642014775,6.730153056735885,1.5403513395065875,0.9545290421615455],[4.753767578796314]],"id":0,"number":71}
