{"architecture":{"NEURONS":[10,4,1],"LAYERS":3,"totalSynapses":44},"weights":[-4.638132430259867,-4.93585758157405,0.7894589089613125,-2.2373652863147506,9.204221307607243,-4.625485479721743,5.737322212837023,-1.5234051409051907,-8.345682289884484,0.27288950839880893,4.442538584123543,0.6215423741446992,-2.951466672625162,-9.68042127566567,0.9524682925953831,7.473234543793157,7.479892832361097,6.511889639573889,-1.9065966429782588,6.843133776176603,8.361106238856198,4.5826430836179295,7.617127408506445,3.5722285386199637,1.7977486421063948,-4.056943707128086,2.6296969148700247,6.541283591073817,-3.2990852555137273,9.444814128080845,-7.965059045358305,-6.256761258124632,0.6487881360821467,-5.8523154181537365,6.589067631346584,0.7999693576268857,2.190977660519138,-6.690428080736159,-8.800686527544906,-4.004844009240616,-9.192894808546885,-7.834790468868234,6.9317897378309485,-2.0107517595021083],"bias":[[-8.33990381543393,2.1279660369734907,-9.535098955774917,-2.241122280084694,1.1792677718764029,-5.360149214721321,-10.120257154770393,-8.142648522727962,-5.468437173149439,2.428688466696591],[-6.831826589065148,6.730153056735885,1.8759563467759208,0.7711807609742698],[4.7400436814264895]],"id":0,"number":72}
