{"architecture":{"NEURONS":[10,4,1],"LAYERS":3,"totalSynapses":44},"weights":[-4.739857813440466,-4.93585758157405,0.7104252789061524,-1.9147994085537627,9.450506657705729,-4.625485479721743,5.720417996395666,-1.5491024527625863,-5.345882538531171,0.023841681873696063,4.708270376896566,0.42273350242791174,-2.9399026449395387,-9.58189285422599,1.1922435199802113,7.770971649148204,7.296617995112845,6.834226888980992,-1.7360023092725463,6.7572627672355345,8.568559052628498,4.5826430836179295,7.961858301025485,3.689737726939927,1.7977486421063948,-4.056943707128086,1.9824081923335466,6.828734463062761,-3.6327321102772108,9.147759972027393,-7.406735970237826,-6.159261057183396,0.6487881360821467,-5.7260382288055105,6.7937381713384495,1.9495245487071875,2.190977660519138,-6.555866074750366,-8.568516823488562,-3.4095128426667536,-8.936427424355541,-7.834790468868234,6.9317897378309485,-1.6838738461104994],"bias":[[-8.596337267211002,2.2953302881300672,-9.638281380756686,-2.1780772796199015,1.1792677718764029,-4.454584952226812,-9.729628023284,-7.947018654848981,-1.939096282499726,2.6029566170684806],[-6.470590357178879,6.31210663927828,1.9161361108809167,0.9545290421615455],[4.259306307918056]],"id":0,"number":73}
