{"architecture":{"NEURONS":[10,4,1],"LAYERS":3,"totalSynapses":44},"weights":[-4.686400836540078,-4.93585758157405,0.6407264012277203,-2.1840553109793626,9.45806736705668,-4.346773169459374,5.720417996395666,-1.5491024527625863,-5.345882538531171,0.7772016463060059,4.708270376896566,0.42273350242791174,-2.338399284373815,-9.58189285422599,1.1922435199802113,7.941492711974908,8.377286434441636,6.528545579580549,-1.9065966429782588,6.71648210685073,8.361106238856198,5.110105276938047,7.38181644920631,3.689737726939927,2.2865579905535145,-3.9511778298224063,2.400294419636099,6.633893349031013,-3.571844380781657,9.267430293048761,-7.976220216789695,-6.231854462400097,0.9483416507596595,-5.554267822974435,6.694191029019084,1.2570924872781009,2.3887674513547386,-6.690428080736159,-8.597204469769023,-3.2544065431186713,-8.936427424355541,-7.57334571793166,6.903695705815453,-1.8133625807485914],"bias":[[-8.646579772067101,2.569730412298146,-9.638281380756686,-2.2645751990501033,1.1792677718764029,-5.089396513933451,-9.729628023284,-7.947018654848981,-5.5943622987617845,2.970603964963778],[-6.687732966947129,6.56720112811938,1.8759563467759208,0.7711807609742698],[4.753767578796314]],"id":0,"number":74}
