{"architecture":{"NEURONS":[10,4,1],"LAYERS":3,"totalSynapses":44},"weights":[-4.739857813440466,-4.940171861942942,0.6217960536330558,-2.152085160645853,9.534768677956732,-4.858351792045775,5.720417996395666,-1.5234051409051907,-5.255819951730981,0.27288950839880893,4.462702898582941,0.42273350242791174,-2.9651318982606765,-9.58189285422599,1.319491983938088,7.7133710315873145,7.968946171878548,6.511889639573889,-1.0746786700124376,6.444552759591366,8.312867295344923,4.5826430836179295,7.8189453866103955,3.5722285386199637,2.107458833222812,-4.021674221492401,1.9824081923335466,6.136397697608192,-3.6327321102772108,8.84957921024972,-7.868134781650866,-6.256761258124632,0.6487881360821467,-5.32766638523877,6.927326274455652,0.6181228752276884,2.491117538001057,-6.555866074750366,-8.75569968447773,-3.4259572815328077,-9.192894808546885,-7.985075989278025,7.04191912511645,-1.9467716776567054],"bias":[[-8.802253412497151,2.569730412298146,-9.795059452124958,-1.9878189791473981,1.1792677718764029,-5.393459073442462,-9.757716996143252,-7.812575741797655,-5.111157162573209,2.428688466696591],[-6.031771478924583,6.56720112811938,1.8759563467759208,0.9545290421615455],[4.259306307918056]],"id":0,"number":75}
