{"architecture":{"NEURONS":[10,4,1],"LAYERS":3,"totalSynapses":44},"weights":[-4.739857813440466,-5.171654209885907,0.6217960536330558,-2.1840553109793626,9.45806736705668,-4.263908584044023,5.720417996395666,-1.5234051409051907,-5.255819951730981,0.7772016463060059,4.637789711842913,0.42273350242791174,-2.9651318982606765,-9.58189285422599,1.1922435199802113,7.863489580527055,7.296617995112845,6.528545579580549,-1.7360023092725463,6.652132860553507,8.627702097828347,5.037225395688267,7.9405560695690705,3.689737726939927,1.4339983575865252,-4.056943707128086,2.400294419636099,7.010265891186843,-3.6327321102772108,9.147759972027393,-7.976220216789695,-6.159261057183396,0.24957092571499345,-5.7260382288055105,6.7937381713384495,1.5696534637920865,2.3887674513547386,-6.722916324799962,-8.568516823488562,-3.4095128426667536,-8.78911932793471,-7.834790468868234,7.171529955436749,-1.6838738461104994],"bias":[[-8.596337267211002,2.194726609579458,-9.688221089447243,-2.2645751990501033,1.3226340592766377,-5.393459073442462,-9.783686118630927,-7.947018654848981,-5.678607130167519,2.9387931116759454],[-6.8951213642014775,6.56720112811938,1.9161361108809167,1.1054740271084713],[4.597774553632733]],"id":0,"number":76}
