{"architecture":{"NEURONS":[10,4,1],"LAYERS":3,"totalSynapses":44},"weights":[-4.638132430259867,-5.004859017507025,0.6939443726657817,-2.0022826744376996,9.552538632809135,-4.698315626258505,5.921455016371101,-1.5491024527625863,-5.255819951730981,0.023841681873696063,4.708270376896566,0.3721677100795482,-2.9399026449395387,-9.66668086244704,1.1922435199802113,7.941492711974908,8.377286434441636,6.741311263686816,-1.9495983022937509,6.723782982309911,8.487163752574167,4.925599020915762,8.269199182706378,3.936830740973333,1.228592738837107,-4.056943707128086,2.6296969148700247,6.369476007310756,-3.2732406494514357,9.502114251845168,-7.58483284459329,-6.231854462400097,0.6251827237679553,-5.149617101703933,6.592897665643293,1.2570924872781009,2.3887674513547386,-6.2840633463836815,-8.568516823488562,-7.268396776217743,-9.31757619851354,-7.7194335919579595,7.13820796036752,-2.0107517595021083],"bias":[[-8.625926697232106,2.4556500031807458,-9.638281380756686,-2.371085950924588,1.3226340592766377,-5.393459073442462,-10.120257154770393,-7.947018654848981,-5.462623534808398,3.0341669288825113],[-6.831826589065148,6.100324803961259,1.5403513395065875,0.9545290421615455],[4.753767578796314]],"id":0,"number":77}
