{"architecture":{"NEURONS":[10,4,1],"LAYERS":3,"totalSynapses":44},"weights":[-4.686400836540078,-5.004859017507025,0.9038568950413389,-2.152085160645853,9.45806736705668,-4.698315626258505,5.921455016371101,-1.6760198793980046,-5.255819951730981,0.28005323698142104,4.708270376896566,0.42273350242791174,-2.951466672625162,-9.596681578799538,1.1922435199802113,7.863489580527055,8.221978790474978,6.449618562068057,-1.171384384156878,6.723782982309911,8.435234394825033,4.5826430836179295,7.941118957786577,4.030437072522504,1.228592738837107,-4.056943707128086,2.6296969148700247,6.452656392060132,-3.782278093184168,8.93342391558628,-7.388610194304465,-6.231854462400097,0.30239265767731177,-5.554267822974435,6.927326274455652,1.2732820790404054,2.3887674513547386,-6.893449379801819,-8.568516823488562,-7.268396776217743,-9.186508363709258,-7.834790468868234,7.13820796036752,-1.6355716400486917],"bias":[[-8.646579772067101,2.194726609579458,-9.638281380756686,-2.1780772796199015,1.3226340592766377,-4.971236227389978,-9.936520822206589,-7.947018654848981,-1.939096282499726,2.9387931116759454],[-6.687732966947129,6.56720112811938,1.8759563467759208,0.7623971457441909],[4.753767578796314]],"id":0,"number":78}
