{"architecture":{"NEURONS":[10,4,1],"LAYERS":3,"totalSynapses":44},"weights":[-4.686400836540078,-4.93585758157405,0.7104252789061524,-2.152085160645853,9.45806736705668,-4.698315626258505,5.720417996395666,-1.3381527216095288,-5.255819951730981,0.4883954339811386,4.632506575990826,0.3773023399642809,-2.9651318982606765,-9.596681578799538,1.1922435199802113,7.7133710315873145,7.968946171878548,6.449618562068057,-1.7360023092725463,6.723782982309911,8.64780464721749,4.5826430836179295,7.38181644920631,3.689737726939927,2.2865579905535145,-4.056943707128086,2.400294419636099,6.136397697608192,-3.6327321102772108,8.93342391558628,-7.406735970237826,-6.159261057183396,0.6487881360821467,-5.74536879581133,6.7937381713384495,1.1639945839476395,2.1323429120681783,-6.2840633463836815,-8.392282116477885,-7.195928476564511,-8.936427424355541,-7.834790468868234,-1.1890002757338087,-1.8133625807485914],"bias":[[-8.625926697232106,2.194726609579458,-9.638281380756686,-1.9878189791473981,1.1792677718764029,-5.0383977637811626,-9.729628023284,-7.812575741797655,-1.939096282499726,2.6029566170684806],[-6.605435284245827,6.100324803961259,1.4893795747078205,0.9545290421615455],[4.753767578796314]],"id":0,"number":79}
