{"architecture":{"NEURONS":[10,7,1],"LAYERS":3,"totalSynapses":77},"weights":[7.26168841950993,-5.8318903659225265,2.099868508337434,-1.4931353148359845,8.338336050986403,2.6283550266476006,9.127895169277949,3.233554623583286,-8.940950650201755,4.177598994075665,-7.7539794500197425,2.5890405201796423,7.275403466566885,-3.1180026659287243,8.75207882100294,-7.572662344666021,-1.2063243090458544,4.379837709827589,-0.6936162237685557,0.27510980091283194,1.6055537040218906,9.099844838064914,-7.719180892923412,-9.659582621148111,1.826370030081668,-1.1202104987521484,4.032439259373776,-3.1694632032831973,-7.491544226695505,13.023016884008763,-5.635042769642237,10.718483255111055,-5.9618452338441354,-1.2798693850413287,7.049376942473248,-9.562913845978896,-9.302101012024423,8.87976316869029,-6.101593766107733,5.334007900415712,-2.3219083221681482,4.42622953936272,5.809323276305225,1.8595718005539432,-4.610806429765484,-3.685864487588083,0.0053955621293334186,-1.748290448669591,10.796315414653671,0.41024826050804236,-9.592701988127178,-10.176223969644338,-2.5237175170129857,-2.5703097021919277,5.663261287707289,5.5991100745884745,-6.051071790573061,6.275866062652294,0.9033544667557395,-7.902737496605823,1.2979399270644338,4.915700061915052,-3.7343338843858023,-6.5836101141807415,7.158279154819001,0.789328173732996,2.29264193796296,-2.7084356447799265,4.376018422592976,-7.515454082307836,-7.315114671806668,-6.806641483058612,3.217296052154974,-5.087814588336472,-2.3120213272348904,2.0055175617311987,-3.5462000523353367],"bias":[[-9.492748606991555,10.94128371460058,-8.836087746142685,-5.969304013914913,3.206801806055453,8.389364013716836,5.737430876409617,3.214431411577073,6.4668543845493796,5.601330276698143],[10.989072708784274,-0.6640332529096044,-1.2199958433655864,6.921703735797808,-9.727961822974963,2.333743950934563,-12.459384610890085],[-6.807456782598582]],"id":0,"number":8}
