{"architecture":{"NEURONS":[10,7,1],"LAYERS":3,"totalSynapses":77},"weights":[5.783671370126228,1.4398606231415345,-1.552498923252902,8.600679701242939,-8.583320613889459,6.606590386412958,-1.5320988918765224,-4.824166095510062,9.5787653344294,0.3096370162142338,-2.2343100147088464,-5.207637419202976,-8.482679722749653,0.8201740298797187,-0.1897293511712931,-4.424547252224249,-6.671883988768233,0.28177075580271305,7.330971890797244,-7.099763173974261,6.802039144805455,2.354434688358374,-6.326780997797061,4.545646258276597,6.100194772749246,-2.178984666103954,6.0602225633392806,-9.62616165187412,6.098985780731498,-1.84240907119543,2.1089962677853227,-5.699542083814908,8.595639606126179,6.586977958739312,5.041749914282638,-0.03043532101994252,8.843412903696153,9.801943563998902,-6.671464748212899,6.054374828388878,-6.818299008983236,-8.0749658451982,8.9771205852986,3.840555842365791,-3.203179259571904,2.6270791340443824,-3.555084022084246,9.389445510013253,-0.4418544918601342,-3.641029827661727,1.4204979288626798,7.237100918067455,-7.7400796427852825,0.14353453430364488,6.563988726778981,-5.297914791720255,-5.560563906640174,8.485106005628111,-0.3635622448163933,-3.3344225130843057,7.849486746249964,1.5171568384183942,8.162498752532956,2.3807308167045007,-4.699573900475064,1.2579075579271044,7.631986865095265,-5.979848562030981,0.7348392910298291,-6.079787559632724,7.415748148253014,3.3915824173041713,-2.927652292665433,1.180408151390087,-2.3778405764391333,-4.912221902819316,1.1353683572872035],"bias":[[-7.881566278226214,-3.646102362199062,-6.733679619202495,-7.981684154869108,-0.13003787002674957,-9.218666318445381,-4.336554213146122,2.1584464128508163,-3.008530017250735,-1.129727680218244],[4.808591576464082,6.4419841260078785,7.890304503732956,-7.969468245425471,5.515619289180236,-5.946466197363658,0.7861106337991892],[-2.8970400693511498]],"id":0,"number":8}
