{"architecture":{"NEURONS":[10,7,1],"LAYERS":3,"totalSynapses":77},"weights":[-3.721313594444393,4.255231563358505,1.593176880213543,-2.394416646612326,-5.631484980799556,9.445285767597527,6.038572939187872,0.2423974353723955,2.2197632623350105,-0.958056019870469,1.7481978447617978,-3.238311837864361,9.055834874727676,6.722862815263864,-2.5112085784576346,-2.5905586262787557,-7.3961841239011665,3.4706202491497464,-9.955867372609477,-9.82356544875455,5.957302528730956,-1.2485361801573498,-2.4636483295640885,5.78132797729914,-1.475585651096717,-6.7901893689439845,0.394277816754757,4.4276056302678315,-1.3186129892176817,3.9050227619487026,8.564083701786602,7.236065697395448,4.752961343417525,7.042817330372679,-9.388285204492181,4.877585093975357,4.512920930018595,4.441168707060721,5.303026115849757,-3.1363458568915625,5.070285189202113,-5.1401979870868395,-5.887582198566056,2.4204502202467855,-6.112664668361617,3.9162200475798046,-3.889896817882539,0.02830606291495777,3.140652636177194,6.739538355065968,1.7381519916110892,-8.03039919058892,6.676363802022712,-5.536001368497101,-3.7865615328295568,-5.49964553003733,-6.078724257911241,3.6815352534286694,-0.7328274538984687,4.021086231198592,-6.786966967614368,-3.3881580867246295,6.905116342483289,-9.356622723349444,-3.941634101750219,-3.2437974989281906,-5.400422287695822,3.5640522558278858,7.758671708525586,-0.40762508926880436,-6.032011163667736,4.117093294414287,0.6724002689269214,-0.5161696523131425,7.329077097821218,5.213726010316627,-1.3752900652902114],"bias":[[-7.7825394403046175,4.739417524489155,-4.148354377221637,4.667383111755063,2.195926036499798,8.640477814011716,8.387083306941776,-6.050684201875738,6.585235191268933,-0.2201770516155976],[-0.934012712311647,0.5665125723977307,-5.222063745888505,-8.066563190373762,0.35823681354053794,6.182352353782641,7.20568409845002],[-4.948922770783169]],"id":0,"number":8}
