{"architecture":{"NEURONS":[10,4,1],"LAYERS":3,"totalSynapses":44},"weights":[-4.629214945802276,-4.93585758157405,0.7325795191430835,-1.8790420360856679,9.599961355998795,-4.6300155428823935,5.661130475638554,5.601886597981708,-8.6468552793733,-0.09389468389182909,4.708270376896566,0.42273350242791174,-2.735268918155077,-9.702049674102946,1.1067229965546368,8.057722165120712,7.800875908015513,7.048453468937119,-1.5025059423738254,6.973929502013334,8.490165300461314,5.115123116234821,7.771731066353908,3.5722285386199637,1.9978978553689493,-3.9535316548413917,2.4684404115260463,6.541283591073817,-3.3322049777484386,9.502222765135892,-7.957531040167202,4.446734009230333,0.8421553878726407,-5.397973301528986,6.6811820446505985,1.3192503181469597,3.028076041502512,-6.689976637295818,-8.91191457938403,-3.5877288026739063,-9.025185156465165,-7.735914990535486,6.760365419563164,-1.9577276198532125],"bias":[[-7.765098543375442,2.5958744744549715,-9.638281380756686,-2.1171945105377343,1.3311489911721885,-5.196791872491347,-9.91867120468144,-7.910820923819324,-5.422056565021967,2.9387931116759454],[-6.7672952264587405,6.319568422239711,1.5403513395065875,0.6548853468030558],[4.636143817749678]],"id":0,"number":8}
