{"architecture":{"NEURONS":[10,4,1],"LAYERS":3,"totalSynapses":44},"weights":[-4.5154877187392675,-5.004859017507025,0.7070591604849189,-1.9147994085537627,9.552538632809135,-4.625485479721743,5.5324940423666495,-1.3381527216095288,-5.183017116167147,0.5160566729542366,4.633711358281339,0.42273350242791174,-2.951466672625162,-9.709681950122281,1.1922435199802113,7.941492711974908,7.479892832361097,6.449618562068057,-1.7360023092725463,7.05215556744174,8.627702097828347,5.024187123931227,8.14369152879923,3.689737726939927,1.4339983575865252,-4.3611384812526195,1.9824081923335466,6.463203205186385,-3.571844380781657,9.202199743159898,-7.868134781650866,-6.395141410241416,0.6487881360821467,-5.7260382288055105,6.7937381713384495,1.2570924872781009,2.0466976363491285,-7.008456595619519,-8.279223678366435,-7.195928476564511,-8.936427424355541,-7.834790468868234,6.9317897378309485,-2.0107517595021083],"bias":[[-8.625926697232106,2.4556500031807458,-9.638281380756686,-2.065282087737244,1.1792677718764029,-5.360149214721321,-9.632197707781355,-7.812575741797655,-1.939096282499726,2.6029566170684806],[-6.8951213642014775,6.56720112811938,1.8759563467759208,0.7623971457441909],[4.753767578796314]],"id":0,"number":80}
