{"architecture":{"NEURONS":[10,4,1],"LAYERS":3,"totalSynapses":44},"weights":[-4.5154877187392675,-5.109730137445127,0.7070591604849189,-1.9147994085537627,9.307503216700923,-4.625485479721743,5.478885895960501,-1.3381527216095288,-5.107442972918774,0.5160566729542366,4.167592805351379,0.42273350242791174,-2.951466672625162,-9.58189285422599,1.1922435199802113,7.739073765342408,7.586327643543765,6.741311263686816,-1.2419310753998374,6.7572627672355345,8.435234394825033,4.5826430836179295,8.14369152879923,3.689737726939927,2.781841621940616,-4.715355358269924,1.9824081923335466,6.463203205186385,-3.6327321102772108,9.270396967833264,-7.868134781650866,-6.395141410241416,0.6487881360821467,-5.851807488562978,6.7937381713384495,1.5039187765846482,2.3656209978823863,-6.555866074750366,-8.392282116477885,-7.195928476564511,-8.814000092698048,-7.834790468868234,6.9317897378309485,-2.0107517595021083],"bias":[[-8.625926697232106,2.569730412298146,-9.638281380756686,-2.065282087737244,1.3226340592766377,-4.827415694681399,-9.632197707781355,-7.812575741797655,-1.939096282499726,2.6029566170684806],[-6.470590357178879,6.31210663927828,1.812650118006127,0.8022887343669096],[4.314719021688764]],"id":0,"number":81}
