{"architecture":{"NEURONS":[10,4,1],"LAYERS":3,"totalSynapses":44},"weights":[-4.755227501246224,-5.004859017507025,1.2618246634748072,-1.8277359092325711,9.45806736705668,-4.499458114528848,5.929522820938518,-1.6454379989780763,-5.255819951730981,0.5160566729542366,4.528666861323232,0.1695535351885037,-2.9651318982606765,-9.58189285422599,1.1922435199802113,8.186547709856411,8.377286434441636,6.355462006898175,-1.0746786700124376,6.723782982309911,8.701245751251369,5.374761008332183,7.544637911527947,3.936535149997139,2.3390227184762664,-4.042435328918514,2.557504734316099,6.593673784868665,-3.345403355679087,9.267430293048761,-7.528230104064056,-6.109117381001177,0.6251827237679553,-5.554267822974435,6.7937381713384495,1.2570924872781009,2.3656209978823863,-6.690428080736159,-8.484208588252576,-7.435610450581435,-9.19086643245582,-7.7194335919579595,-1.0133774331099266,-2.0107517595021083],"bias":[[-8.352591462742016,2.194726609579458,-9.638281380756686,-2.1101683144804144,1.3682617023715866,-5.393459073442462,-9.936520822206589,-7.8459356014081,-1.939096282499726,3.0341669288825113],[-6.735006464901801,6.56720112811938,1.5403513395065875,0.9545290421615455],[4.753767578796314]],"id":0,"number":82}
