{"architecture":{"NEURONS":[10,4,1],"LAYERS":3,"totalSynapses":44},"weights":[-4.686400836540078,-5.296396581156147,0.7409627296308101,-2.057120885762109,9.45806736705668,-4.625485479721743,5.869300792145726,-1.5730162157237806,-5.255819951730981,0.023841681873696063,4.708270376896566,0.42273350242791174,-2.9672459202616577,-9.596681578799538,1.1922435199802113,7.739073765342408,8.221978790474978,6.85681771238642,-1.7360023092725463,6.723782982309911,8.132091385047318,4.5826430836179295,7.117849051528136,3.689737726939927,1.6399278782851345,-4.056943707128086,1.9824081923335466,6.136397697608192,-3.6327321102772108,9.257871536390022,-7.976220216789695,-6.159261057183396,0.24957092571499345,-6.207838305682708,6.955934960073726,1.139419715208055,2.190977660519138,-6.88343710848498,-8.700325849166182,-7.268396776217743,-8.936427424355541,-7.834790468868234,7.13820796036752,-1.6838738461104994],"bias":[[-8.596337267211002,2.4556500031807458,-9.638281380756686,-2.2645751990501033,1.320389537921695,-5.393459073442462,-9.936520822206589,-7.812575741797655,-1.939096282499726,2.6029566170684806],[-6.687732966947129,6.31210663927828,1.4893795747078205,0.9545290421615455],[4.259306307918056]],"id":0,"number":83}
