{"architecture":{"NEURONS":[10,4,1],"LAYERS":3,"totalSynapses":44},"weights":[-4.686400836540078,-4.93585758157405,1.0746766192520918,-1.9147994085537627,9.258814707103085,-4.698315626258505,5.738586797032823,-1.3381527216095288,-8.184057086654079,0.023841681873696063,4.708270376896566,0.42273350242791174,-2.9399026449395387,-9.58189285422599,1.1922435199802113,7.7133710315873145,7.479892832361097,6.153479607006382,-1.0981748742013713,7.05215556744174,8.64780464721749,4.5826430836179295,8.328560183878018,3.689737726939927,1.228592738837107,-3.874788715661028,2.2177990787277917,6.511981713338421,-3.6327321102772108,8.93342391558628,-7.406735970237826,-6.159261057183396,0.6487881360821467,-5.853178502163171,6.927326274455652,1.9495245487071875,2.0215688592127616,-6.88343710848498,-8.715985949787532,-7.195928476564511,-9.19086643245582,-7.834790468868234,7.084314515791336,-1.8133625807485914],"bias":[[-8.625926697232106,2.194726609579458,-9.638281380756686,-2.2645751990501033,1.3226340592766377,-5.089396513933451,-9.757716996143252,-8.520358297685515,-5.462623534808398,3.0341669288825113],[-6.031771478924583,6.768733820891386,1.632073883675724,0.7623971457441909],[4.259306307918056]],"id":0,"number":84}
