{"architecture":{"NEURONS":[10,4,1],"LAYERS":3,"totalSynapses":44},"weights":[-4.686400836540078,-5.296396581156147,1.0746766192520918,-2.057120885762109,9.153422607904005,-4.509455986623256,5.869300792145726,-0.8960074784837488,-8.060625265050627,0.023841681873696063,4.708270376896566,0.3773023399642809,-2.9651318982606765,-9.58189285422599,1.1922435199802113,7.739073765342408,8.221978790474978,6.85681771238642,-1.7360023092725463,6.723782982309911,8.132091385047318,4.5826430836179295,7.390815173009622,3.936830740973333,1.6399278782851345,-4.056943707128086,1.9824081923335466,6.541283591073817,-3.6327321102772108,9.257871536390022,-7.976220216789695,-6.159261057183396,0.24957092571499345,-6.207838305682708,6.955934960073726,1.139419715208055,2.0215688592127616,-6.88343710848498,-8.700325849166182,-7.268396776217743,-8.936427424355541,-7.834790468868234,7.13820796036752,-1.6838738461104994],"bias":[[-8.596337267211002,2.4556500031807458,-9.638281380756686,-2.2645751990501033,1.0793803302792784,-5.089396513933451,-9.936520822206589,-7.812575741797655,-1.939096282499726,2.5673852349019164],[-6.6868762158042285,6.607071313231165,1.632073883675724,0.7623971457441909],[4.259306307918056]],"id":0,"number":85}
