{"architecture":{"NEURONS":[10,4,1],"LAYERS":3,"totalSynapses":44},"weights":[-4.600187422516445,-5.109730137445127,0.7070591604849189,-1.9147994085537627,9.45806736705668,-4.265329981484682,5.921455016371101,-1.8626705680393236,-5.183017116167147,0.5160566729542366,4.528666861323232,0.42273350242791174,-2.9399026449395387,-9.58189285422599,1.1922435199802113,7.941492711974908,7.586327643543765,6.528545579580549,-1.7360023092725463,6.7572627672355345,8.64780464721749,4.925599020915762,7.773649642979156,3.5054225986041008,1.926784179057244,-4.056943707128086,1.9824081923335466,6.463203205186385,-3.6327321102772108,9.190020783273265,-7.868134781650866,-6.072692848820202,0.6487881360821467,-5.431724238174475,6.7937381713384495,1.9495245487071875,2.0466976363491285,-6.2840633463836815,-8.568516823488562,-7.268396776217743,-9.19086643245582,-7.862644850029765,7.13820796036752,-1.8133625807485914],"bias":[[-8.596337267211002,2.1623383262678315,-9.638281380756686,-2.2432735208029952,1.3226340592766377,-5.393459073442462,-9.632197707781355,-7.812575741797655,-1.939096282499726,2.6029566170684806],[-6.687732966947129,6.56720112811938,1.571371183045031,0.8635765395814259],[4.259306307918056]],"id":0,"number":86}
