{"architecture":{"NEURONS":[10,4,1],"LAYERS":3,"totalSynapses":44},"weights":[-4.907610723822764,-5.349320190335781,1.3097703935990985,-1.9147994085537627,9.258814707103085,-4.698315626258505,5.869300792145726,-1.6348433836644722,-5.107442972918774,0.5160566729542366,4.249832534035316,0.42273350242791174,-2.1714245889298103,-9.58189285422599,1.0556530652424363,7.739073765342408,8.221978790474978,6.528545579580549,-1.2419310753998374,6.723782982309911,8.701245751251369,4.5826430836179295,7.231587896707961,3.689737726939927,2.4900671715318192,-3.874788715661028,2.527188822735403,6.511981713338421,-3.571844380781657,9.190020783273265,-7.255091138899405,-6.159261057183396,0.6487881360821467,-5.431724238174475,6.711008908360258,2.1997527719180097,1.9339400764429,-6.2840633463836815,-8.715985949787532,-7.195928476564511,-8.814000092698048,-7.834790468868234,6.9317897378309485,-2.0107517595021083],"bias":[[-8.625926697232106,2.2223314955341182,-9.638281380756686,-2.065282087737244,1.1792677718764029,-5.393459073442462,-10.071317514404988,-7.812575741797655,-1.939096282499726,2.776863465821073],[-6.470590357178879,6.31210663927828,1.1312929773687836,1.0985903245711475],[5.01843588824373]],"id":0,"number":87}
