{"architecture":{"NEURONS":[10,4,1],"LAYERS":3,"totalSynapses":44},"weights":[-4.686400836540078,-5.2327254853638205,0.7070591604849189,-2.0022826744376996,9.413538639948223,-4.698315626258505,5.720417996395666,-1.6417816212627623,-5.183017116167147,0.5160566729542366,4.630172032271322,0.42273350242791174,-2.951466672625162,-9.660005591703786,1.1922435199802113,7.941492711974908,8.504737818371375,6.528545579580549,-1.5538089242218733,7.232099849239161,8.802291596422227,4.925599020915762,7.544637911527947,3.5722285386199637,2.781841621940616,-4.056943707128086,2.400294419636099,6.828734463062761,-3.6327321102772108,9.147759972027393,-7.868134781650866,-6.159261057183396,0.6487881360821467,-5.554267822974435,6.7937381713384495,1.5039187765846482,2.3656209978823863,-6.2840633463836815,-8.700325849166182,-7.195928476564511,-9.032722683427913,-7.834790468868234,-1.1890002757338087,-1.8133625807485914],"bias":[[-8.59281242684646,2.3501991984439643,-9.638281380756686,-2.065282087737244,1.1490564151004057,-5.0383977637811626,-9.936520822206589,-7.812575741797655,-1.939096282499726,2.6029566170684806],[-6.7672952264587405,6.041275347127826,1.024755057736607,0.9545290421615455],[4.259306307918056]],"id":0,"number":88}
