{"architecture":{"NEURONS":[10,4,1],"LAYERS":3,"totalSynapses":44},"weights":[-4.600187422516445,-5.004859017507025,0.7070591604849189,-1.9147994085537627,9.45806736705668,-4.625485479721743,5.942990456628091,-1.8626705680393236,-5.183017116167147,-0.07141995177835359,4.617522181130442,0.42273350242791174,-2.9399026449395387,-9.58189285422599,1.1922435199802113,7.941492711974908,7.586327643543765,6.64310208439389,-1.0746786700124376,6.7572627672355345,8.345336216004046,4.925599020915762,7.773649642979156,3.936830740973333,1.926784179057244,-3.4219823785523467,1.9824081923335466,6.547084734586299,-3.6327321102772108,9.053271858495547,-7.759088633152913,-6.1164308228893844,0.6465728399611014,-5.492293232768366,6.7937381713384495,2.005880560352839,2.2206923588582472,-6.664992271450426,-8.568516823488562,-7.268396776217743,-9.186508363709258,-7.834790468868234,7.011972778386785,-1.8133625807485914],"bias":[[-8.325676826574682,2.1623383262678315,-9.638281380756686,-2.2645751990501033,1.3226340592766377,-4.827415694681399,-9.632197707781355,-7.8459356014081,-5.729733113628662,2.6029566170684806],[-6.687732966947129,6.56720112811938,1.6325899218211155,0.8635765395814259],[4.259306307918056]],"id":0,"number":89}
