{"architecture":{"NEURONS":[10,7,1],"LAYERS":3,"totalSynapses":77},"weights":[6.2447439953465,-5.16763454984666,2.883861688973562,-2.61985316135838,8.160441899611254,2.957946004306995,8.894970877665099,2.805132102939663,-8.908566539680653,3.4405462175132744,-7.748404599116659,2.7359868678085277,6.5663278017897335,-3.0487768877655212,8.88558301570254,-6.800983423637836,-1.1890662231684583,4.979670839747095,-0.24544425503315448,1.1360701686035735,1.5004207513421708,10.021260122084975,-7.889129681165856,-9.475377159029536,1.4123639840765208,-1.8493704779815343,4.251410123077011,-3.2583479301187386,-6.999365933624978,12.759455073777648,-5.490931181333771,10.781421069940611,-5.865833908825559,-1.8705438779278905,7.000448669890659,-9.179755960540039,-8.961366377070567,8.843868412380685,-6.210034144757796,4.92006231162397,-2.36121683509367,4.778291771664706,5.310613355179288,1.8219664477877866,-4.19885508410878,-4.49991980320449,0.23664091479520205,-1.1895333083363309,11.029660571312062,0.5731051151356141,-9.448798588522799,-11.52321022559517,-2.2361621589365455,-3.098913192047305,5.275853271607637,5.347286461221414,-5.789440825419524,5.818010449019712,1.2428602276737604,-8.02012422534559,0.32269777795029186,5.24836516027247,-3.7632946997516403,-6.698253772884852,7.155757903809653,1.09976958233145,2.06897677033172,-1.970720282941823,4.167489856858582,-8.14353442133273,-7.663609480651539,-5.356146331566196,3.5423953282211422,-5.050385421101973,-3.290455475637356,1.803580371988296,-3.675234526133867],"bias":[[-9.694382528071461,10.852587258711964,-9.330644548877306,-5.968864314691341,3.5140027264278415,8.69732148696046,5.378456669012485,3.0406008743621196,6.331352511334393,5.951238611077571],[10.57059648847507,0.16989727291915918,-1.1225064047630378,7.5900997068200855,-10.853160512186788,1.8531955185336422,-12.773313196085091],[-5.521175137897017]],"id":0,"number":9}
