{"architecture":{"NEURONS":[10,7,1],"LAYERS":3,"totalSynapses":77},"weights":[5.89679907470093,1.913048278862698,-1.6527176133773511,8.600679701242939,-8.372028569373704,6.545292431201342,-1.6628746755123485,-5.140199699989063,9.832665556247758,0.3969119441682255,-3.0930832419344303,-5.984972948430935,-8.427531203907632,1.2964570307256131,-0.7384694380247536,-4.274975551154096,-7.12665491080686,0.2990564721016453,7.184428722161645,-6.832854147243803,6.504665770537484,2.663242599515753,-6.0935347244237725,4.348332328604445,6.248819733926203,-2.8360370763218192,4.902742155996067,-9.443216820504167,5.883155044248367,-2.317670610700351,2.3428239079644686,-6.030972164081316,8.762965212789002,6.5346461753560146,3.9135662201017523,0.04369564964278695,8.135544693290944,9.736018192402431,-5.928807641640439,6.340439683230436,-7.182316219973118,-7.979572405719516,9.542355454907947,4.029515236356578,-3.906061456217572,2.2436959768543687,-2.7784180110541383,9.697085149655198,0.057103269219514544,-4.114014403009775,1.8200058274012978,7.46510784432285,-7.3920453998111775,1.3483779836841057,6.813271248400795,-6.091240328614286,-5.48449344550697,8.694181200744913,-0.3635622448163933,-3.4638998596870927,7.968111853303838,1.385225358349604,8.397943768062976,1.9231925345534187,-4.959795751224305,1.063311753872402,8.195619248688141,-6.8697254210198855,0.6608949586230315,-6.059099521912219,6.981563818809293,3.0496700994409314,-3.142461229135234,1.015533575829885,-2.5332609859659563,-4.596030055345383,1.279300795495194],"bias":[[-8.173467157491244,-3.533233332938303,-6.9456814805662015,-7.428325363801276,-0.5890562171689442,-9.610194301721416,-5.106197405624354,2.581318046736215,-2.8497736103634037,-1.0629743779074914],[5.264483011854179,6.570307493696515,7.890304503732956,-7.748618975835406,5.515619289180236,-5.459184065124426,0.3267658092427488],[-2.546330681366258]],"id":0,"number":9}
