{"architecture":{"NEURONS":[10,7,1],"LAYERS":3,"totalSynapses":77},"weights":[-4.243435001456693,4.118628685691639,1.4146500975811431,-2.3184753640512827,-5.665751355971829,9.413994746747285,5.85826303089303,-0.6184576358013794,2.203188466727782,-0.7486481861165353,2.2010769479265715,-2.4038631327664626,9.247204587106967,6.982049771366396,-2.4843531752294346,-2.712468304083184,-7.974901199918948,3.3882603680281744,-9.720141165499575,-9.905474624648573,6.933886414098952,-1.2531276931276731,-2.2017720546714448,5.84997880598248,-0.37126538487025834,-6.614613320471296,0.5113267352475206,4.022986039582008,-2.2859923730122693,4.154613087377996,9.280372963412724,7.722125084632487,4.26957645902535,6.5557494008004795,-9.00431488055037,4.558413945973525,4.168830178300597,4.988674931347448,4.867918452351922,-2.1621690675292315,4.8321105857211535,-5.5631282342542425,-6.572752892145176,2.2767460618159174,-6.0509582197495835,3.578400899089485,-4.381382094147536,0.11836413374512267,3.2429348622739735,5.284479407633056,1.4126596791586767,-7.893997975889328,7.099253437534493,-5.25487073957265,-3.8898859465457325,-5.229561630336705,-5.99040265971875,4.119688735735207,-1.3685289630493116,3.4354773070612445,-6.688531265588535,-3.9762458893382284,6.424799781012513,-9.619296537258538,-3.9881503095326187,-1.9785207570935337,-5.342457809974285,3.7478781528625245,8.175179044213143,-0.3212107515581941,-6.038351382440735,3.3235215930762623,1.5520120966049566,-1.272441082074586,7.147862414523273,5.332463411908686,-0.6934079603191912],"bias":[[-8.328503282117536,4.557461431301632,-5.123630101689199,4.49143020760309,2.7223301530447617,8.205494196273579,8.769799535532709,-6.736425952204285,6.910079250567414,-0.287413439290211],[-1.568857902203146,0.5140962002372067,-4.642932803781228,-8.036048672533408,0.2572467361216425,6.495556443773833,6.889217484510914],[-4.88387954901934]],"id":0,"number":9}
