{"architecture":{"NEURONS":[10,4,1],"LAYERS":3,"totalSynapses":44},"weights":[-5.7577479510989775,-4.93585758157405,0.8735392304127255,-1.8790420360856679,9.240974075886136,-4.6300155428823935,5.899998164343579,-1.5234051409051907,-5.663757581727928,-0.09389468389182909,4.708270376896566,0.42273350242791174,-2.62650791644905,-9.702049674102946,1.1922435199802113,2.215977956040838,7.800875908015513,6.822798069635287,-1.5025059423738254,6.708899680301004,8.608670623143247,4.906528325556119,7.771731066353908,3.5722285386199637,1.9978978553689493,-4.037378873150811,2.5624679114328255,6.541283591073817,-3.3322049777484386,9.502114251845168,-7.868134781650866,4.659542059288664,0.8421553878726407,-5.554267822974435,6.811204665528442,1.1077467123215554,2.4062185276814403,-6.689976637295818,-8.516354952294646,-3.526411827999622,-9.096055519004464,-7.735914990535486,6.760365419563164,-2.0618273056311502],"bias":[[-7.8179656772962485,-2.1094426439824465,-9.638281380756686,-2.232100574296333,1.3311489911721885,-5.176203419913459,-9.91867120468144,-7.910820923819324,-5.595090931022022,3.0341585420528117],[-6.7672952264587405,5.957315305930536,1.4360025771925353,0.6548853468030558],[4.636143817749678]],"id":0,"number":9}
