{"architecture":{"NEURONS":[10,4,1],"LAYERS":3,"totalSynapses":44},"weights":[-4.5526699140985585,-5.2327254853638205,0.7070591604849189,-2.152085160645853,9.413538639948223,-4.698315626258505,5.720417996395666,-1.5552850818759592,-8.184057086654079,0.04260674076221099,4.478455230257096,0.42273350242791174,-2.9399026449395387,-9.754553878944954,1.1922435199802113,7.789968793375786,7.479892832361097,6.528545579580549,-1.2419310753998374,7.232099849239161,8.802291596422227,4.5826430836179295,8.009173250039844,3.689737726939927,2.4900671715318192,-3.874788715661028,1.9824081923335466,6.828734463062761,-3.6327321102772108,9.202199743159898,-7.77114183993884,-6.159261057183396,0.6487881360821467,-5.554267822974435,6.754144460861352,1.5039187765846482,2.3656209978823863,-6.555866074750366,-8.546005420794982,-7.195928476564511,-9.032722683427913,-7.834790468868234,-1.1890002757338087,-1.8133625807485914],"bias":[[-8.59281242684646,2.1472507474843,-9.638281380756686,-2.3593195730384213,1.1792677718764029,-5.129114061318484,-10.029556904783409,-8.520358297685515,-1.939096282499726,2.516735905486663],[-6.470590357178879,6.31210663927828,1.632073883675724,0.7623971457441909],[4.259306307918056]],"id":0,"number":90}
