{"architecture":{"NEURONS":[10,4,1],"LAYERS":3,"totalSynapses":44},"weights":[-4.739857813440466,-5.349320190335781,0.7070591604849189,-1.8277359092325711,9.413538639948223,-4.625485479721743,6.034726270074555,-1.6417816212627623,-5.223230647272873,0.5160566729542366,4.617522181130442,0.42273350242791174,-2.9651318982606765,-9.702049674102946,1.1922435199802113,7.863489580527055,7.479892832361097,6.834226888980992,-1.2419310753998374,6.723782982309911,8.64780464721749,4.5826430836179295,7.773649642979156,3.689737726939927,2.781841621940616,-4.042435328918514,1.9824081923335466,6.633893349031013,-3.6327321102772108,9.197300131143251,-7.72541430559761,-6.159261057183396,0.6487881360821467,-5.7260382288055105,6.694191029019084,1.5039187765846482,2.0215688592127616,-6.555866074750366,-8.378796200086066,-3.939371868845593,-9.186508363709258,-7.834790468868234,-1.1890002757338087,-1.8133625807485914],"bias":[[-8.596337267211002,2.4556500031807458,-9.638281380756686,-1.9993671094824423,1.5787243918302234,-5.393459073442462,-10.029556904783409,-7.812575741797655,-1.939096282499726,3.0341669288825113],[-6.735006464901801,6.768733820891386,1.5403513395065875,0.7623971457441909],[4.223138186371062]],"id":0,"number":91}
