{"architecture":{"NEURONS":[10,4,1],"LAYERS":3,"totalSynapses":44},"weights":[-4.739857813440466,-5.2327254853638205,0.7070591604849189,-1.8277359092325711,9.413538639948223,-4.698315626258505,6.000507226385135,-1.59736355723951,-5.183017116167147,0.5160566729542366,4.630172032271322,0.42273350242791174,-2.9651318982606765,-9.625282360787192,1.1922435199802113,7.941492711974908,7.479892832361097,6.4230237286315255,-1.6029927908343549,6.786695584880148,8.392197156262839,4.5826430836179295,7.544637911527947,3.6706892236422517,2.4900671715318192,-4.056943707128086,2.400294419636099,7.194496518888549,-3.9094296238503423,9.202199743159898,-7.868134781650866,-6.159261057183396,0.6487881360821467,-5.554267822974435,6.7937381713384495,1.5039187765846482,2.1323429120681783,-6.555866074750366,-8.546005420794982,-7.148735324824362,-9.19086643245582,-7.640595011704207,6.9317897378309485,-1.8133625807485914],"bias":[[-8.742924935675955,2.1472507474843,-10.19491911670395,-2.0344307681547646,1.5787243918302234,-5.0383977637811626,-9.869622514175926,-7.812575741797655,-1.9671933951941039,2.758943183870756],[-6.535900759136239,6.041275347127826,1.632073883675724,0.9545290421615455],[4.223138186371062]],"id":0,"number":92}
