{"architecture":{"NEURONS":[10,4,1],"LAYERS":3,"totalSynapses":44},"weights":[-4.755227501246224,-5.109730137445127,0.9197398323546269,-2.2244581435757294,9.552538632809135,-4.698315626258505,5.720417996395666,-1.3381527216095288,-5.255819951730981,0.4595907489689941,4.617522181130442,0.42273350242791174,-2.9651318982606765,-9.754553878944954,1.226809684281721,7.941492711974908,7.479892832361097,6.834226888980992,-1.5538089242218733,6.723782982309911,8.487163752574167,4.754121052266846,7.773649642979156,3.936830740973333,2.4900671715318192,-4.056943707128086,2.4684404115260463,6.541283591073817,-3.6327321102772108,9.147759972027393,-7.339798679693539,-6.159261057183396,0.6487881360821467,-5.7260382288055105,6.7937381713384495,1.1639945839476395,1.9339400764429,-6.862637555968911,-8.546005420794982,-7.195928476564511,-9.186508363709258,-7.823357904854318,6.9317897378309485,-2.0107517595021083],"bias":[[-8.625926697232106,2.4556500031807458,-9.638281380756686,-2.065282087737244,1.1490564151004057,-5.393459073442462,-9.936520822206589,-7.8459356014081,-1.939096282499726,2.758943183870756],[-6.7672952264587405,6.31210663927828,1.632073883675724,1.0985903245711475],[4.259306307918056]],"id":0,"number":93}
