{"architecture":{"NEURONS":[10,4,1],"LAYERS":3,"totalSynapses":44},"weights":[-4.268360556185443,-5.2327254853638205,0.7070591604849189,-2.2244581435757294,9.413538639948223,-4.550780424357381,5.720417996395666,-1.6417816212627623,-5.183017116167147,0.023841681873696063,4.478455230257096,0.5348161021597007,-2.9399026449395387,-9.625282360787192,1.1922435199802113,7.789968793375786,7.479892832361097,5.7426983798692754,-1.5538089242218733,7.232099849239161,8.802291596422227,4.5826430836179295,7.9538756439896465,3.936830740973333,2.4900671715318192,-3.874788715661028,1.9824081923335466,6.463203205186385,-3.6327321102772108,9.202199743159898,-7.339798679693539,-6.159261057183396,0.9344261338328357,-5.554267822974435,6.754144460861352,1.5039187765846482,2.0215688592127616,-6.555866074750366,-8.546005420794982,-7.195928476564511,-8.984452176752644,-7.834790468868234,-1.169309798640148,-2.0375317265929502],"bias":[[-8.596337267211002,2.1472507474843,-9.638281380756686,-2.3593195730384213,1.5787243918302234,-4.895779559722055,-9.936520822206589,-8.520358297685515,-1.939096282499726,2.516735905486663],[-6.470590357178879,6.31210663927828,1.632073883675724,0.38452810161618545],[4.259306307918056]],"id":0,"number":94}
