{"architecture":{"NEURONS":[10,4,1],"LAYERS":3,"totalSynapses":44},"weights":[-4.429067559684,-5.206818742609546,0.7070591604849189,-2.152085160645853,9.241417984208141,-4.698315626258505,5.483594420765237,-1.6530880918087278,-5.1072945733093,0.023841681873696063,4.705271447744074,0.42273350242791174,-2.9651318982606765,-9.754553878944954,1.226809684281721,7.824882851472083,7.479892832361097,6.528545579580549,-1.2419310753998374,7.05215556744174,8.64780464721749,5.275993081215395,8.14369152879923,3.6619742683212757,2.4900671715318192,-4.056943707128086,1.9824081923335466,6.387675557755594,-3.6327321102772108,9.197300131143251,-7.876766684992021,-5.818827738137593,0.6487881360821467,-5.208272211931646,6.7937381713384495,1.3043620899558055,2.1323429120681783,-6.555866074750366,-8.008032200815716,-7.195928476564511,-8.809265896224296,-7.834790468868234,-1.1890002757338087,-1.4083857849182875],"bias":[[-8.596337267211002,2.4556500031807458,-9.372365885784411,-2.065282087737244,1.7911178478457925,-5.393459073442462,-9.924409828383041,-7.961127719046119,-1.939096282499726,2.5142352284864793],[-6.470590357178879,6.589372033040511,1.5484594397406812,0.8863928879406955],[4.259306307918056]],"id":0,"number":95}
