{"architecture":{"NEURONS":[10,4,1],"LAYERS":3,"totalSynapses":44},"weights":[-4.5154877187392675,-5.296396581156147,0.9197398323546269,-2.057120885762109,9.552538632809135,-4.509455986623256,5.720417996395666,-1.1201862544794423,-5.183017116167147,0.364925963115238,4.630172032271322,0.42273350242791174,-2.338399284373815,-9.58189285422599,1.1922435199802113,7.863489580527055,8.504737818371375,6.834226888980992,-1.0746786700124376,6.7572627672355345,8.64780464721749,4.5826430836179295,7.231587896707961,3.936830740973333,2.4900671715318192,-3.874788715661028,1.9824081923335466,6.463203205186385,-3.6327321102772108,9.190020783273265,-7.339798679693539,-6.395141410241416,0.34174676462797315,-5.554267822974435,6.7937381713384495,1.5039187765846482,2.0215688592127616,-6.88343710848498,-8.520553111004771,-7.148735324824362,-9.186508363709258,-7.834790468868234,6.873242029541531,-2.0107517595021083],"bias":[[-8.742924935675955,2.4556500031807458,-9.638281380756686,-2.150462738388213,0.9832113362674324,-5.0383977637811626,-9.936520822206589,-7.8459356014081,-1.9671933951941039,3.0341669288825113],[-6.470590357178879,6.768733820891386,1.632073883675724,1.0985903245711475],[4.259306307918056]],"id":0,"number":96}
