{"architecture":{"NEURONS":[10,4,1],"LAYERS":3,"totalSynapses":44},"weights":[-4.758710912633038,-5.267395871092226,0.7070591604849189,-2.152085160645853,9.258814707103085,-4.625485479721743,6.109959612989351,-1.5972702258703313,-5.255819951730981,0.5160566729542366,4.617522181130442,0.42273350242791174,-2.9651318982606765,-9.58189285422599,1.1922435199802113,7.774951120825688,7.968946171878548,6.64310208439389,-1.6686663145123233,7.232099849239161,8.64780464721749,4.5826430836179295,7.390815173009622,4.057276665255,2.4900671715318192,-4.056943707128086,1.9824081923335466,6.541283591073817,-3.6327321102772108,9.147759972027393,-7.876766684992021,-6.1065547434972505,0.4756454710356266,-5.851807488562978,6.927326274455652,1.9242336616906726,2.0215688592127616,-6.555866074750366,-8.700325849166182,-7.195928476564511,-9.186508363709258,-7.834790468868234,6.9317897378309485,-2.269277201785451],"bias":[[9.388024155128655,1.6643645014727433,7.831556165057599,-1.9802621083878997,0.9832113362674324,-5.0383977637811626,-9.936520822206589,-8.033421910937069,-1.939096282499726,3.0341669288825113],[0.5960631740703032,6.768733820891386,1.5403513395065875,0.5483400827919185],[4.390580074709108]],"id":0,"number":97}
