{"architecture":{"NEURONS":[10,4,1],"LAYERS":3,"totalSynapses":44},"weights":[-4.4411237908166665,-5.004859017507025,0.7070591604849189,-1.710899676234201,9.307503216700923,-4.698315626258505,5.720417996395666,-1.3381527216095288,-6.645750029786426,0.023841681873696063,4.708270376896566,0.42273350242791174,-2.9651318982606765,-9.799473002815901,1.2247221225224085,7.941492711974908,7.479892832361097,6.528545579580549,-1.5538089242218733,7.05215556744174,8.421333416928444,4.5826430836179295,8.009173250039844,3.689737726939927,2.3746581717560367,-3.7318732024249854,2.5690124995156296,6.541283591073817,-3.6327321102772108,9.190020783273265,-7.876766684992021,-6.159261057183396,0.4756454710356266,-5.554267822974435,6.754144460861352,1.5039187765846482,2.0215688592127616,-6.555866074750366,-8.378796200086066,-6.835688420181097,-9.186508363709258,-7.753975239501316,6.9317897378309485,-2.0107517595021083],"bias":[[-8.730103006950245,2.090177171330386,-9.638281380756686,-2.065282087737244,1.1792677718764029,-4.744686177410864,-9.936520822206589,-7.8459356014081,-1.939096282499726,2.758943183870756],[0.6133414898719369,6.178805351021467,1.5403513395065875,0.6633440507199051],[4.259306307918056]],"id":0,"number":98}
