{"architecture":{"NEURONS":[10,4,1],"LAYERS":3,"totalSynapses":44},"weights":[-4.755227501246224,-5.349320190335781,0.6217960536330558,-1.8277359092325711,9.552538632809135,-4.770761998656877,5.720417996395666,-1.6417816212627623,-5.184107688965004,0.364925963115238,4.478455230257096,0.42273350242791174,-2.651765591317246,-9.754553878944954,1.479550003480695,7.987001259125693,8.504737818371375,6.834226888980992,-1.2419310753998374,6.723782982309911,8.44527893913898,4.754121052266846,8.14369152879923,3.881440596109462,2.4900671715318192,-4.056943707128086,1.9824081923335466,6.463203205186385,-3.6327321102772108,9.224571056993714,-7.6039667306722025,-6.1065547434972505,0.9344261338328357,-5.498336917588268,6.754144460861352,1.7267216626459179,2.190977660519138,-6.88343710848498,-8.700325849166182,-6.606809088601762,-9.186508363709258,-7.823357904854318,6.9317897378309485,-1.7009185430267848],"bias":[[-8.730103006950245,2.4556500031807458,8.07024460225223,-2.0624079656873504,1.5787243918302234,-4.895779559722055,-10.029556904783409,-7.8459356014081,-1.939096282499726,1.2975489254687247],[-6.470590357178879,6.768733820891386,1.812650118006127,0.38452810161618545],[-8.27461773185031]],"id":0,"number":99}
